1352 100
， 0.3429939 0.45189604 -0.09563899 0.1971746 0.48891515 -0.4727458 0.20067158 0.10856747 0.18621764 -0.23715487 -0.4830531 -0.34782594 0.56050795 0.1378337 -0.16798781 -0.383277 -0.21936941 -0.47903222 -0.35950005 -0.45670742 -0.18609136 -0.17751782 0.47404405 0.49593216 -0.509995 -0.8188428 0.39328942 0.52768886 -0.29619205 -0.12954684 -0.18905132 -0.3699465 0.44213253 0.48860314 -0.10359843 0.0750339 0.4875802 0.08602836 0.5375682 -0.19718571 -0.1854896 -0.15535735 -0.19045113 -0.47714436 -0.3242118 -0.45634377 -0.4715307 -0.08629848 -0.39363217 -0.23756658 -0.33505443 -0.41521025 -0.4682102 0.21729364 -0.3479967 0.40412432 0.61049986 -0.49261862 0.67089576 0.5192539 0.16921076 -0.18447681 -0.4369924 0.5163402 0.23451836 -0.110745154 0.07856805 0.14961065 -0.38526246 -0.50288874 0.12908971 0.18990123 -0.5104864 0.22551413 -0.21765397 0.44466242 -0.4409957 -0.4552101 -0.59099954 -0.16282365 0.1413102 -0.4012518 0.44313124 0.43085465 -0.47542793 -0.5199251 -0.13683194 0.20341358 0.17270058 -0.48551166 -0.18474473 -0.32512727 0.44403365 -0.19626454 -0.17567857 0.44871315 -0.5229554 -0.25925562 -0.10275632 0.19586746
子 -0.57080275 -0.3428396 -0.52190787 -0.07299242 -0.4616648 0.17850077 -0.037432227 -0.5121454 -0.616733 -0.675752 -0.39531058 0.9795298 0.46748424 0.032743502 0.3435111 -0.39840862 0.29928118 0.096235745 -0.5864526 0.0802033 -0.43605223 0.06373914 -0.12436953 -0.442257 0.22771017 0.46886393 -0.3754498 -0.017196842 0.72582287 -0.14638725 0.33600247 -0.051207047 -0.11022824 0.52983904 -0.021394834 -0.2910724 0.5791021 0.24480991 -0.3662763 0.36560264 -0.2481168 0.38071254 -0.030505471 0.7910189 0.3499362 -0.63823575 -0.03309104 -0.75459516 0.104265235 -0.06662938 0.071644016 0.22746286 -0.6311122 -0.5450261 -0.09310445 0.4678952 0.58977437 0.01634426 -0.5853306 0.28973463 -0.4072344 0.49675804 0.4390932 -0.67439055 0.46596426 -0.49562526 0.52235335 0.14099844 0.11043415 0.21056789 -0.0765867 -0.20761456 0.64756393 0.31590572 -0.7673344 0.04460658 -0.59786534 -0.039493836 -0.1160787 -0.027973678 -0.27748162 0.4597798 0.14948234 0.33072415 -0.1948931 0.427788 -0.30834696 0.5701977 -0.42914963 0.2791874 0.64793485 0.06545925 -0.18455042 -0.13786644 -0.5164707 0.5430622 -0.29813778 -0.05353128 0.5688111 0.14027749
。 0.06280231 0.34985548 -0.20869179 0.4586004 -0.047811955 -0.02132904 0.14298862 0.4034224 -0.14108029 0.4857216 -0.3420346 0.49921244 0.56716704 -0.56161827 0.25272134 -0.47277126 -0.35925648 -0.3115622 0.26107097 -0.099061735 -0.4073201 -0.32323486 -0.58698905 0.5841116 -0.14018936 -0.44178295 -0.39137167 0.3784972 -0.10385254 0.5590619 -0.59863484 -0.25940812 -0.22850284 -0.35661075 0.12490583 0.5635375 0.5682981 -0.5435982 0.38800856 -0.13632578 -0.9196157 -0.27002373 0.39851773 0.44529024 0.008861808 -0.41375867 -0.5392402 -0.036465403 0.17907552 -0.35405442 -0.3118588 -0.82762355 0.42298365 0.46473318 0.38030457 -0.08475408 0.293916 -0.35440323 0.29992497 0.12937517 0.114421695 0.22550884 -0.4641238 0.2832525 0.45440722 0.39786938 -0.4806142 -0.12282562 0.34873244 -0.5248324 0.29915458 0.4013932 -0.56124973 -0.3502578 0.37017685 0.2600732 0.018377466 -0.12731597 0.010835712 -0.2675868 0.015488799 0.46159765 0.13324802 -0.4743226 -0.54124135 -0.534905 0.06937276 -0.056395523 0.009093732 -0.3179532 -0.4625033 0.36016867 0.107117645 -0.4386415 -0.4616919 -0.03448049 -0.17561735 -0.2694746 -0.4073446 -0.3699505
： 0.6766413 -0.06755898 0.033544417 -0.14133286 -0.067589045 -0.080420256 -0.03875474 0.42718646 -0.09271241 -0.5508532 0.9468505 0.5179432 -0.08207892 -0.22384912 0.41353977 -0.6089868 0.32403225 0.42091513 0.5698914 -0.14427191 -0.1152296 0.31717902 -0.32311496 0.078885846 0.4486367 0.19897717 -0.11541475 -0.41116452 -0.0237106 0.34309903 0.16776915 0.063923314 0.018881533 -0.08856026 0.016993852 0.10906735 -0.5970743 -0.50428176 0.0638259 -0.55973744 -0.38281462 0.44508553 0.6335543 -0.06345636 0.37383252 -0.6242773 -0.28536728 -0.7078746 -0.18236977 0.3816463 0.044963766 -0.60604274 -0.66645724 -0.5182084 -0.28649688 0.49089336 0.2608824 -0.040190063 -0.62860966 0.7203099 -0.08563416 0.20293006 0.15782335 -0.23109123 0.119304135 0.8344476 0.35414487 0.58629864 -0.007330788 -0.2814467 -0.54918325 -0.5335053 0.46982855 -0.07911663 -0.50129867 -0.5740824 0.36704144 -0.5844062 0.5857822 0.44915125 0.5454641 0.56154996 -0.23988266 0.56005347 -0.27867404 -0.47262198 0.34296435 0.47851667 0.106503576 -0.43903163 0.62885344 0.502679 0.35310614 -0.21559948 0.064263865 0.39222613 -0.09720088 0.43896535 -0.23866294 0.39228493
曰 -0.22652988 0.21010321 0.1300798 -0.009880104 0.17718577 0.18099353 -0.5279957 0.08039784 -0.19845186 0.24843659 -0.50564986 0.7753045 0.14650913 -0.44901797 -0.1882717 0.102086104 -0.17364965 -0.39464435 0.57592475 0.37230352 -0.33296216 -0.18452013 -0.100529045 -0.40190056 0.11024785 -0.6542117 0.030984484 -0.14778326 -0.48293918 -0.23949349 -0.33715466 0.36270213 0.7000398 -0.23034568 -0.5199301 0.640683 0.68774825 0.3446317 0.2683618 0.015294994 -0.41848442 -0.40006152 -0.31672102 -0.33471283 -0.056651536 -0.2287086 0.31833738 -0.39975578 -0.13085838 -0.549523 0.77867496 -0.30490258 -0.61314017 -0.67172277 0.032251652 0.098957375 0.18275577 -0.5469472 0.31845912 0.39852178 0.5432608 -0.5120708 -0.27066162 0.120644495 0.10009617 -0.1316458 -0.18785737 -0.4639952 -0.5321031 -0.4103824 -0.04200695 0.69201905 -0.5596532 -0.57130414 0.41058782 -0.1501637 0.19656938 0.631437 -0.7187786 0.32778174 -0.07059192 -0.013424066 0.3812411 -0.2567926 0.04106883 -0.5191596 0.25703436 -0.18163677 0.4635199 -0.34065416 -0.06587926 0.1258172 -0.36220926 0.0065373485 -0.04600189 -0.15444054 -0.0753045 0.3980345 -0.35565522 0.19531845
之 0.22848012 0.4189966 0.41586852 -0.3208563 0.58822405 0.039334193 -0.13264342 -0.27448636 0.6059485 -0.6181609 -0.08348512 0.3680553 -0.37479085 -0.5801796 -0.20658366 0.5480904 0.3732028 -0.029232698 0.24793078 -0.032096334 -0.358586 -0.51656455 -0.5414698 0.58183324 0.14604367 0.05916551 0.17747906 0.3735484 -0.31058198 0.23827592 -0.03840496 -0.6948609 0.23945479 0.63287127 -0.5792255 -0.75792646 -0.13535106 -0.43807217 -0.34009665 -0.28818464 0.06367003 0.5025455 0.18804283 -0.3036501 0.46261665 -0.40630713 0.39728573 -0.09705425 -0.0714283 0.003519897 -0.26763526 0.70001966 0.10876089 0.18271223 -0.057934 0.5851084 0.6079829 -0.044198476 -0.64264613 0.001310635 0.22188261 -0.13679153 -0.053061754 -0.2622529 0.39344832 0.09676042 0.021993935 0.76414335 0.53998655 0.54569846 0.57133 0.44209003 0.44112006 -0.4635517 -0.103706345 -0.58986646 0.5814927 -0.23469688 -0.10333174 0.5025604 -0.078140214 -0.5302472 -0.18197726 0.42615134 0.088242635 0.14752719 0.5575255 -0.50762665 -0.55794734 -0.052899912 0.24426004 0.4453032 -0.34974313 -0.039039437 0.11699664 -0.56036705 -0.112018526 0.83973473 0.5108787 -0.11529534
不 -0.7821201 -0.22056797 0.44185415 0.19044532 0.2779206 -0.23718144 -0.72868866 0.11744908 0.12782389 0.22917286 -0.85160375 0.45475343 0.07760971 0.41013378 0.48706856 0.24941993 0.7648357 0.2620428 0.17461368 -0.64383596 0.05674654 -0.45155543 -0.17049357 0.20703082 -0.51243836 0.16809793 0.19188748 0.53314954 0.22507697 -0.74105674 0.8942322 -0.20892039 0.38292688 -0.21731739 0.36627492 -0.07890391 0.4836133 -0.3789557 0.18723033 -0.08242869 -0.5874406 -0.0024341897 -0.0079972055 -0.8246705 0.1395041 0.15228553 -0.41791883 -0.24315614 0.6535917 -0.25631827 -0.45607722 0.12385148 0.24830392 -0.06396306 0.0664724 -0.44625384 0.18708912 -0.32299575 0.06236386 -0.19082001 0.23758803 0.12034021 0.27387333 -0.7312741 -0.50290775 -0.4479014 0.98381793 -0.112146646 -0.42300886 0.17006247 0.27233636 -0.28318116 -0.7147277 0.09265239 0.4251674 -0.62525916 -0.1624341 0.36950314 -0.062237762 0.7724191 0.7109978 0.29781538 -0.106777124 -0.34459102 -0.33641124 -0.6092277 -0.022427578 -0.7206248 -0.2764181 -0.4505741 -0.2454194 -0.34184572 0.62813 -0.72860074 -0.08268677 -0.044606037 0.4528752 -0.1166069 0.79488844 0.26095885
也 -0.26547328 -0.039176475 -0.090434134 -0.47881106 0.68803596 0.3864161 -0.05631317 -0.1897914 0.6036521 -0.39150092 0.17029893 0.24362521 -0.05446477 -0.8000853 -0.41825837 0.10198927 -0.13765505 0.56335914 0.5559332 -0.17189044 -0.08122149 -0.5148815 0.14953427 0.45867893 0.6114187 -0.57495326 0.7241601 0.56446016 -0.31641254 -0.44126713 0.5211399 0.003012807 0.2820575 0.53509575 -0.6092863 0.38193658 -0.75413215 0.21885695 -0.5793839 0.4876373 0.27795634 -0.05140535 0.14043692 0.37492326 0.07207514 0.20139624 0.5750333 0.7532543 0.06325764 0.25639555 -0.31872723 0.6489321 -0.4238509 0.03771085 0.37760946 0.4981937 -0.5949267 -0.14139844 -0.47616994 -0.13877057 0.47084525 -0.024357751 -0.11252381 -0.040011667 -0.5986899 -0.72219414 0.13394079 0.115044825 0.10100041 -0.73828864 -0.22921859 -0.55654776 0.18492927 -0.5864714 0.8729314 -0.31456217 0.73510766 -0.38085553 0.04115956 0.3734228 -0.6927809 -0.4115174 -0.14045219 -0.46685547 -0.2683624 0.36802876 0.23480946 -0.0012402277 -0.022301076 0.29904503 0.40879542 0.4428192 -0.474798 -0.2483602 0.46949038 -0.21064803 0.09419082 -0.037052877 0.15120213 -0.009748257
而 -0.15392292 -0.053643152 0.2205489 -0.0094887195 0.114598736 0.07809138 0.2426842 0.084664084 0.032778047 -0.02909529 -0.02527502 -0.054916665 0.01735529 -0.24779354 -0.1929449 -0.5133754 -0.087431945 -0.12555042 -0.19222172 -0.12908271 -0.029074382 0.4627862 -0.19351712 0.029973596 -0.34451294 0.24964444 0.3898626 0.06190513 -0.031272553 0.3952301 0.3016612 -0.020450894 0.30399033 0.26550022 0.4657903 -0.42540342 0.33430064 0.25605044 0.07272064 -0.00900258 -0.2534596 0.08481932 -0.35150233 -0.055848222 0.21049857 0.30799592 -0.47001964 -0.06569433 0.44447702 0.114130124 -0.4551118 -0.031020427 0.07674879 -0.43027556 0.25026232 -0.28242907 -0.10601766 0.0804457 0.1497162 0.11930633 -0.0952747 -0.06487513 -0.05052692 -0.2285433 0.0946865 0.07708389 0.153292 0.02606783 0.07294911 -0.06328936 -0.09383021 -0.13890557 0.11852336 0.035606008 -0.008382015 -0.31603998 0.13735211 0.1351324 0.33422795 -0.053254843 0.20171705 0.34400257 0.005577015 0.007820069 0.42218915 0.055949666 -0.20029895 -0.010653915 0.021956153 -0.7108883 -0.29726106 -0.24218057 0.18894008 0.21332699 0.32374436 0.09239134 -0.37537605 -0.0064707287 0.38055325 -0.11994948
？ -0.21120621 -0.004535861 0.08322077 -0.095758736 0.16800705 -0.17136763 0.44484177 -0.22942595 -0.25585416 -0.39309695 0.006371605 0.40749612 0.39253807 -0.18600154 0.32924438 0.06750718 -0.06395818 0.20243761 -0.49429294 -0.4157055 -0.06819305 0.42157096 -0.2364758 -0.17237087 -0.6105269 0.06762516 0.03247248 -0.5363562 -0.029170819 -0.11064538 -0.14867419 -0.103682615 -0.6914572 -0.15498123 -0.41649392 0.27590868 -0.8501156 0.33985713 -0.28771096 0.55608016 0.46110737 0.003975454 0.35096556 0.5539398 -0.08091696 -0.054262538 0.30235544 0.9451047 -0.90025973 0.3206222 0.07766041 -0.28540587 0.081714794 -0.22298937 -0.2212954 0.6125856 -0.38728535 0.878415 0.60011363 -0.34250206 -0.6240729 -0.058332153 0.2552607 0.3432688 -0.07764151 -0.3666726 -0.6008622 -0.36363003 0.27088878 -0.024032552 -0.52734286 0.45795506 0.69492316 -0.22498155 0.20166816 0.6351383 0.2388046 0.3875533 0.18781087 -0.094900504 -0.7582801 -0.6466382 0.25709835 -0.79504406 -0.38346034 -0.7235249 -0.07606748 -0.36403224 0.79129404 -0.46411574 0.32064933 0.3574431 -0.25442812 0.15058658 1.0309901 -0.35940796 0.4740406 -0.05704024 -0.0033928652 0.7174153
其 0.0023793438 -0.5672317 0.4701045 0.37119386 -0.41358408 -0.5821019 0.49716586 -0.03308027 -0.18899673 -0.108964555 0.01894601 0.9089567 0.3522522 -0.020105246 -0.19718382 0.7278763 0.07591923 -0.4379007 0.04328614 0.12140652 -0.49165174 -0.16225523 0.08811033 -0.010327494 0.4847854 -0.026979547 -0.024672268 -0.43104407 0.16159569 0.6291753 -0.15842453 -0.47496778 0.4442946 0.025858745 -0.78452796 -0.31958944 -0.24434362 0.39363596 -0.7081715 -0.21626851 -0.8211685 0.4070348 0.22114478 -0.31745547 -0.6882863 -0.60334826 0.48610204 0.68899965 -0.67493486 0.08022469 0.30545402 0.19794251 0.15600789 0.2137597 -0.15478899 0.33753958 -0.1301071 0.6139804 0.00077005377 -0.48522896 -0.27690998 0.4855198 0.5049461 -0.53255576 0.21768221 -0.08391554 -0.6973277 -0.39564863 -0.029640092 0.29628152 0.4206618 -0.03761779 -0.108029865 -0.05778563 -0.033382557 -0.02765452 0.256316 0.5391342 -0.08153538 -0.043952633 0.09689515 0.4118615 -0.060119834 0.10040202 0.15458547 -0.2620553 0.5358044 -0.0038517844 0.10381923 -0.69967467 0.6283866 -0.09479749 -0.5591494 -0.3613031 -0.3030659 -0.08823854 -0.45368767 0.016638007 0.5212532 -0.18904634
人 -0.055801813 0.1545741 0.3578702 0.18427293 0.12691702 -0.30701807 0.1267091 0.15625344 0.16898973 0.04307587 -0.120705776 0.30573943 -0.5139616 -0.11125644 -0.20845321 -0.20849986 -0.19174613 0.67147946 -0.20823273 -0.6137233 -0.2877189 0.38703743 -0.34039572 0.32785347 -0.2894569 0.20244978 -0.43060398 -0.21784712 0.20324542 -0.63524866 0.012204841 0.13171381 -0.28780589 -0.57562244 0.17943142 -0.11875457 -0.36201808 0.51667327 -0.47527942 0.47659853 -0.65444034 -0.09358964 -0.013124023 0.019748038 -0.11250144 -0.2507239 0.27455842 0.671739 -0.3706779 -0.594017 0.39762044 -0.35531792 0.32132614 0.44360796 -0.6144671 0.005971932 -0.14458159 -0.15841132 0.1599404 -0.34494776 0.060296867 0.6097075 0.15007144 -0.605268 0.111288965 0.21900837 -0.092919424 -0.43474975 0.38103613 -0.6167482 -0.5365457 -0.45434615 0.17417297 0.368532 0.1570058 -0.19687296 0.24563047 -0.05071445 0.21130371 0.084804036 -0.44279197 -0.66867167 0.1393024 -0.2953779 -0.21753822 0.3385958 -0.12569706 0.024089014 0.76765037 0.50174 -0.4060647 -0.4614142 0.61756575 0.29033977 0.23157936 -0.08905921 0.5081609 -0.58712626 -0.16713403 -0.19047087
者 -0.20111255 -0.3554759 0.0859266 0.17734687 -0.026523614 0.14717536 0.43876863 -0.30648923 -0.674671 -0.22491276 0.3907876 -0.85102504 -0.31684503 -0.68858635 -0.3048415 0.3216809 0.20587303 -0.12054787 0.36926708 0.2123333 -0.3372402 0.6989473 -0.0036416617 -0.56467205 -0.52335656 0.58890176 0.03750803 0.025736026 -0.11892555 -0.12604833 -0.32079127 -0.20632418 0.25794917 0.09435148 0.30173844 -0.10755321 -0.40035862 -0.36650783 0.62184244 0.5353937 -0.22493587 0.071251504 0.7633236 -0.07566002 0.25905108 -0.25752437 0.12203156 0.5518278 0.087845646 0.017440615 0.2322496 -0.45428503 -0.30123642 -0.3639566 -0.28846213 0.3490808 0.50390506 -0.9162386 0.5226168 0.4682905 -0.22648956 -0.030994533 -0.13546044 0.11641744 -0.1148865 -0.108383045 -0.6445839 -0.14251839 0.23304431 -0.11947714 0.7470752 -0.03619232 -0.17456205 -0.5147881 0.55093217 0.8548469 0.2928513 -0.17929223 -0.026399726 0.25972143 0.03258623 -0.16516516 0.005106917 0.269528 0.79598397 -0.16982453 0.78105974 0.6542868 0.08564299 0.33504897 0.031702317 -0.10901512 -0.87382495 -0.35812992 0.62246066 -0.3263161 -0.062872745 0.36595312 -0.33792862 0.2924599
以 -0.33481693 0.39739838 0.20429456 -0.16688009 -0.31343997 -0.6554304 0.067189954 0.49158296 -0.43380585 0.54127204 -0.041543774 -0.045501027 -0.10908238 0.15044759 0.04466448 -0.46947238 -0.29040492 -0.46653005 -0.6167639 -0.08247801 -0.44636348 0.324567 -0.65797454 0.09432778 -0.3216093 -0.066930145 -0.5021335 0.43383297 0.3999629 -0.41392478 -0.64450073 0.41053313 -0.3967044 0.37098604 0.17746356 0.008846201 0.5502291 -0.5013673 -0.055333003 -0.08185401 -0.31663328 -0.6051722 0.06518169 0.2520117 -0.41127446 -0.41463172 -0.08453825 0.18245849 -0.29158562 0.21139476 0.043981344 -0.65327597 0.40148836 -0.11897423 -0.5121619 0.23683475 -0.29935974 -0.052075356 0.30767688 -0.49880722 0.0936779 0.24883865 -0.32750311 0.35162857 0.22976638 0.37777686 -0.6286574 -0.22985473 0.39280772 -0.31709063 -0.10116895 -0.5495192 -0.61053145 0.6115521 0.30168194 -0.425856 0.44468263 -0.41955137 -0.22268133 -0.48810506 0.03202136 0.31135395 0.115555644 -0.48249778 -0.18413873 0.5210087 -0.033434827 0.30754805 -0.26949343 0.35110083 -0.2756826 -0.119152084 0.33280364 0.25170335 -0.6423737 0.8015029 -0.010257009 -0.1750363 -0.02325538 -0.37348375
有 -0.24519955 0.09238382 0.46166134 -0.1561984 0.39732313 0.06501459 -0.7824575 -0.41129693 0.1750619 0.17790712 -0.36150804 -0.43856364 0.35609892 0.24450062 -0.271474 0.7218865 -0.7456812 -0.80273354 -0.45229787 -0.16232312 -0.016586622 0.16359945 -0.10500145 -0.156286 0.14972794 0.80463433 0.11676385 0.47849625 0.3926324 -0.6401411 -0.23463573 -0.6309789 0.17579088 0.07957402 -0.5313796 0.70382804 -0.24350025 -0.46115062 0.05040011 0.5622806 -0.7341767 -0.066646904 0.38694456 -0.6293022 0.1960973 -0.33659017 0.6780676 -0.1554216 0.030511856 -0.18346137 0.2542793 -0.38088754 0.14692938 -0.7253132 -0.40307525 -0.4663394 0.26451933 0.26623556 0.8155378 0.3111024 0.29252413 0.27604398 0.21871506 -0.887908 -0.00076153583 0.109192446 -0.23650457 -0.26687875 -0.25883156 0.75156593 0.76476794 0.29866758 0.27055854 -0.38570756 -0.15291777 0.89999217 -0.013383649 0.36989138 -0.29223922 -0.19648297 -0.39855674 0.3681592 0.8041116 -0.24766351 0.10281318 -0.22271647 0.7770414 0.21708913 0.75824004 -0.074669704 -0.63850766 -0.6491572 -0.25304514 -0.10510678 0.08756549 0.3307694 -0.13936916 0.46472532 0.7755217 -0.097166605
于 -0.070556864 0.24581887 0.24187516 -0.6495645 -0.1295388 0.10312342 -0.66940415 0.6767814 0.23271711 0.7721598 0.1291286 -0.5185089 0.35152122 0.49679404 0.3151813 0.70781845 -0.40211168 -0.3548564 -0.49235755 0.22056606 -0.073792376 -0.6759919 -0.53603035 0.42224294 0.026072519 0.05429904 0.22132435 0.5603714 0.37972027 0.42715383 -0.29095805 -0.2415054 -0.33596715 -0.34362856 -0.121630594 0.3521151 -0.15189561 -0.2093011 0.0025194504 0.6555243 -0.122436374 -0.6312562 -0.02471043 -0.78848326 -0.54797786 -0.56128603 -0.06521486 0.018482829 0.057848677 -0.734326 -0.18480268 -0.7928977 0.7915186 -0.27272934 0.13179114 -0.3562634 0.37685406 0.08635609 0.13687167 -0.70457995 0.41944268 0.11366595 -0.36123005 0.23230831 0.3985698 0.7697235 0.041724984 -0.16372168 0.18095624 -0.21635222 0.48066825 0.18507557 -0.44669408 -0.7825501 -0.299984 0.18808559 -0.6654593 0.46180573 -0.0041518337 -0.18416665 0.72284114 0.33232835 -0.10968927 -0.094604954 0.92214525 0.06778597 0.18567707 -0.76679105 -0.46192148 0.6224959 -0.3479757 0.020364717 0.2622432 -0.088244565 -1.1768605 0.38614422 0.23656514 0.32380122 0.701615 -0.47049358
矣 0.15112545 0.1083297 0.08819875 0.05821168 -0.24914421 -0.33665064 -0.10478755 -0.03173078 -0.06472965 0.6479426 -0.16125292 -0.16160473 -0.008342376 0.4622604 0.19676222 -0.120629326 -0.23432463 -0.1557206 -0.43394262 -0.6195188 -0.39050737 -0.38072535 -0.23224755 -0.085467376 0.41098475 -0.30767837 -0.6713307 0.68909377 0.2607015 -0.25668615 0.06229011 0.23350234 0.28020787 0.088873856 0.0719801 0.27868664 0.6290459 -0.6072599 0.5387787 0.30446514 -0.7505894 0.05140425 -0.37324888 -0.044724185 0.4874319 0.026026541 0.0072056334 -0.9745762 0.1870781 0.17933859 -0.25330907 -0.6584129 -0.040307283 0.29184905 -0.19084918 -0.41226858 -0.11652261 0.009618969 0.29753706 -0.14297193 0.5304565 0.20460886 -0.006598284 0.4080759 0.07076241 0.12823164 -0.031310275 0.30246577 -0.40485224 -0.5506151 -0.19397855 -0.1335116 -0.22288954 -0.58707356 -0.6968066 -0.18939538 0.40924937 -0.66905075 0.5606171 -0.67566264 -0.028461164 0.8579118 0.08184148 0.032574136 -0.27911094 -0.42138383 -0.036662154 0.24896169 0.049372505 -0.22065002 0.04723658 0.25133362 0.66582006 0.62829155 -0.18366377 0.3071378 -1.1860242 0.13488235 0.4357867 -0.097094275
为 0.40026754 0.847412 0.20342599 0.8268006 0.17286196 0.36216068 -0.05131959 0.45693338 -0.2580582 0.23443268 0.27158058 0.68664384 -0.23587051 0.52761215 -0.0980375 -0.082408845 0.853514 0.2901569 -0.04044368 0.11486674 -0.11338443 -0.038906828 -0.45427367 -0.7871446 0.5850678 -0.8502348 0.64828366 0.09861894 0.026983283 0.111793205 0.28267953 -0.6972975 0.3099563 -0.34926462 0.51666415 0.111017875 0.382875 -0.36057818 -0.11013308 -0.12167181 -0.061230473 0.18071531 -0.046190307 0.6964421 0.10145631 0.3326601 -0.78610516 0.1024578 0.390684 0.27273923 -0.64554167 -0.019311095 0.35557252 -0.08017651 0.09239218 0.26903954 0.5637497 -0.36325103 0.28351283 -0.24740034 0.0834064 0.20082124 -0.58558583 -0.7754469 -0.40255278 -0.17472436 0.5400162 -0.56623405 0.1460952 -0.6501525 -0.24007012 -0.23812719 0.89125997 -0.31308693 0.5969207 -0.5707681 0.68346846 0.28387573 0.70258695 0.41642284 0.29479676 -0.60407513 -0.02745767 -0.31780112 -0.63904375 -0.20286459 0.6325828 -0.14802057 -0.3749684 -0.34663925 0.16970739 0.11691344 -0.27956247 0.65890247 0.34760267 -0.04286911 -0.13049264 -0.26273936 -0.098154195 -0.084802926
君 -0.36859152 -0.35277435 -0.54367363 0.45859957 -0.18930241 -0.008093532 0.42182234 0.4712225 -0.45379663 -0.58648837 0.07899053 -0.52772415 0.6214964 -0.35339773 0.11763598 0.40824085 0.2406872 0.39702174 -0.3789243 0.13519834 0.65925235 0.6589754 0.3659438 -0.647476 0.033319972 0.823362 0.37628847 -0.037668638 -0.6561164 -0.24029611 0.5486986 -0.65393823 0.0137875425 -0.3647863 -0.027370866 0.14826268 0.17178531 -0.60322535 0.4245303 0.5252907 -0.66784644 -0.08991635 -0.21128577 0.029683039 0.008400322 -0.26159677 0.32272473 0.69552904 -1.1521697 0.16762327 0.16164409 0.22014342 0.13765591 -0.25500536 0.13478553 -0.45041022 0.009653562 0.39864856 0.22748692 -0.7688067 -0.23473132 -0.34155142 0.47110426 0.93513286 0.11569728 -0.20224917 0.07982 0.5794998 -0.64675695 -0.16564868 -0.0007049929 -0.29016197 -0.74404824 -0.413764 -0.4828209 -0.7127223 0.5193109 0.37901992 0.61312914 0.07550351 -0.107707754 -0.599632 0.0020133355 0.019621775 0.39524 0.05767345 0.5450867 0.32456842 -0.5545503 -0.020216888 0.00941341 -0.10743897 -0.45143515 -0.54063904 0.3245385 0.10831509 0.06505788 0.4608443 -0.13976711 0.47033393
乎 0.15898305 0.34583983 0.66078794 0.2835541 0.84709024 0.053716328 0.6363924 -0.071320765 0.45260444 -0.63130563 -0.13378173 0.4066247 0.29718995 -0.18529287 0.4138445 0.17230143 -0.06795946 0.3283736 -0.38229978 0.35790554 -0.23953624 0.27166384 0.53416294 -0.05457428 -0.3058935 -0.17900163 0.22646101 -0.09098461 -0.45191073 -0.32334128 0.74884623 -0.589476 -0.9331299 0.24418412 0.32217458 0.5279363 -0.28179172 0.17554593 -0.5127169 -0.8409827 0.67852426 -0.19378328 -0.06425092 -0.37804797 0.8733078 0.030460991 -0.19179814 -0.09817008 0.07178579 0.3792669 0.30438995 0.872668 0.04812561 0.7558058 0.54404294 0.030504854 0.08161526 0.023751743 -0.5607999 -0.11835719 0.36979645 -0.204825 -0.31260914 -0.39336303 -0.33572787 -0.8665285 0.89476925 -0.023207301 0.15758535 -0.33667782 -0.6810216 0.7345104 0.27125794 -0.10752109 0.49117354 -0.2680551 0.1560676 0.025930589 -0.2937499 0.087267585 0.015696486 -0.4050174 -0.14008164 0.5617064 0.31053 -0.5506425 0.623916 -0.015800618 0.38059178 -0.374057 -0.3165356 0.3400226 -0.2066346 0.055926614 0.7687442 0.027672991 -0.11659888 -0.5591856 -0.7904105 -0.38841313
可 0.028026514 -0.4616081 -0.14374475 0.11375785 0.1712359 -0.23859636 -0.20544094 0.4580283 0.015912732 -0.30761224 -0.14757389 0.28886813 0.26923022 0.6133878 -0.45498732 0.12908939 0.08355241 -0.13500066 0.1843667 -0.5168984 -0.28514373 -0.6986428 0.17681986 0.3000867 0.56843084 0.2880081 0.5478393 -0.2151622 -0.2726723 0.20742537 0.21837293 0.18629067 -0.09490207 -0.20866096 -0.5982193 0.5619853 -0.23791471 -0.55653524 -0.13450244 0.28985882 0.15580815 0.63623405 0.4712069 -0.1673899 -0.64401484 -0.16010705 0.19482794 0.16332962 -0.1447273 -0.4054742 -0.33228457 0.22881722 0.5255268 0.11597153 0.751411 -0.18380716 0.3279051 0.6288918 0.05026247 0.16155793 -0.36842006 0.01553496 0.21485738 -0.37439933 0.46791086 -0.013910658 -0.09270493 -0.6080282 0.15841217 -0.03665973 -0.12595405 -0.25029224 -0.4072124 -0.22206248 -0.5295126 -0.62414503 0.075119 0.7213679 0.21322817 0.6428991 -0.07905847 0.49743363 -0.07367496 -0.2591926 0.3395971 0.09964284 -0.02269497 -0.052224748 -0.33801198 -0.6704311 0.7140067 -0.24706672 0.18539508 0.29277048 0.40577722 -0.30223712 -0.06798684 0.2125544 0.9735451 0.6415155
如 0.38814077 -0.33259326 -0.50900024 0.14239566 0.11975964 0.10564857 -0.3897186 -0.09498469 0.7455142 0.062041238 0.12430133 -0.34724215 0.47945476 0.3817531 -0.34959894 0.13824277 0.3739557 0.15175554 -0.17800039 -0.077407025 0.38111976 0.71151906 0.25853392 -0.4560602 0.33732596 0.55443835 0.57775444 -0.15221843 -0.2596839 -0.12948476 -0.09338183 -0.2752555 -0.40000767 -0.05496256 0.11210007 0.122722775 -0.51092 -0.12783471 -0.46353012 0.7823372 0.17493214 -0.19092181 -0.5965933 -0.720327 0.15103076 -0.15053654 0.46641695 0.436343 -0.62840813 -0.3779987 0.100222655 -0.16345479 0.6667193 -0.15298012 0.70527136 0.4998549 0.5381051 0.22808208 -0.6689593 0.7283146 -0.20215578 -0.4691149 -0.085308485 -0.49483436 -0.21567832 0.040637325 0.57930684 0.119313315 -0.63482994 -0.028825404 -0.7766999 0.7249854 0.3175544 0.4810638 0.0999053 0.19458549 -0.21057287 0.40452367 -0.07709572 0.16889518 -0.25679246 -0.37166125 0.03087354 0.15327872 -0.7846512 -0.7235938 0.14967754 -0.054697335 0.44316176 -0.06997048 0.65435904 -0.17608497 -0.493163 -0.06984198 0.77560335 0.10411628 -0.086310074 -0.12765601 0.003154039 -0.16191344
与 -0.030371264 0.4447602 -0.12639546 0.5444019 -0.0010373065 -0.47165006 -0.06915044 0.069752045 -0.1571519 0.5774748 0.18634467 0.6362007 0.9338482 0.5610113 0.1848806 -0.090861954 0.11327138 -0.4988741 -0.47507697 -0.31003934 0.17480512 -0.20874465 0.5273983 -0.028554099 -0.13851565 0.012424384 -0.14984207 0.6114385 -0.4624442 0.2356817 -0.5836946 -0.25873038 -0.47773778 0.22167967 0.12420582 0.56458193 0.45379424 -0.20880286 -0.48996353 0.26541215 -0.3519882 -0.4585016 -0.7905322 -0.09460124 0.24495754 0.4642748 -0.12518838 0.26892063 -0.85566825 0.22772221 0.14392492 0.5077579 0.28170657 0.2155031 0.45361614 0.13076067 -0.18517831 0.18888421 0.51688075 -0.22227718 0.012293001 -0.11508531 -0.3545471 0.08454602 -0.12243236 -0.48530686 -0.51873744 -0.022401793 -0.41615447 -0.9437887 -0.64566666 -0.3941319 -0.72185004 0.8164746 -0.015693767 -0.23830855 -0.052268628 0.78755087 0.5759004 0.14651993 0.11991637 -0.32017684 0.51702946 0.57141465 0.24915741 0.49790093 0.45393932 0.6783613 -0.15020852 -0.69380695 0.23746252 -0.34742522 -0.4715707 0.5976217 -0.2150443 -0.5883007 -0.2008152 -0.11839305 -0.2648102 0.056623876
； 0.53094935 -0.10590462 -0.231467 0.23848636 0.14008546 -0.3020906 0.44903576 -0.07781526 0.642575 0.57929593 0.45802984 0.55023986 -0.07126863 0.18480119 -0.49286872 -0.24215074 0.010071757 -0.68594116 0.60659087 -0.48393816 -0.29242092 0.5965542 0.40682337 0.34310117 -0.563922 -0.3149045 -0.1368383 -0.4684824 0.49893272 -0.38231847 -0.6599708 0.17696953 -0.066258796 -0.50803024 -0.4363627 -0.36225927 0.10340093 -0.00537352 0.2646268 0.123252496 -0.25547403 -0.103710674 -0.38726842 -0.7016344 0.49962544 0.020325322 -0.26790416 -0.20569035 0.022236144 0.5375558 -0.55824333 -0.108508594 0.75199056 0.60705787 -0.18973349 -0.4245162 0.062655024 0.6447215 0.6619397 0.17251869 -0.24326386 0.3204998 -0.0018824971 -0.6924444 -0.41800383 0.06623366 0.23887064 -0.6634461 0.18116294 -0.6909238 0.041046627 -0.565243 -0.29823112 -0.10776187 0.18069537 -0.41292834 0.59996504 0.11107555 0.6239282 0.27347156 -0.016680619 -0.59056264 0.23601365 -0.09347923 -0.3327436 0.39573413 -0.54885846 0.08399771 0.2727238 -0.8058446 0.22776644 0.33319265 0.29732394 0.38559514 0.9839817 -0.48667637 0.14497122 -0.43178797 0.07307604 -0.43847397
言 0.19166352 0.5203477 -0.06502815 -0.54981256 0.3986862 -0.5023218 -0.11555608 -0.13598035 -1.0460235 -0.054129224 -0.48775923 0.46700063 0.22183233 -0.2124154 -0.08956297 0.007840453 0.2311338 0.18482314 -0.5902966 -0.046603207 -0.41870275 0.26492855 -0.32761168 -0.28127083 -0.07300283 -0.044092927 0.13354045 0.52858025 0.1769484 0.7104586 -0.3268191 -0.47912937 -0.13885078 0.95421416 0.18551144 -0.23699595 0.2961034 -0.17778279 0.6448962 0.118584186 -0.31904092 0.3903701 -0.31874362 -0.13259634 -0.26523513 0.022446848 -0.39738217 0.052107226 -0.25489366 0.2899229 0.79858065 -0.08982781 0.42025006 -0.21055304 0.00806766 -0.835119 0.57730365 -0.5314139 0.70322645 -0.43876943 -0.21955757 -0.69327927 0.20862654 -0.0038002913 0.5254436 -0.09627248 -0.73712754 -0.3684417 0.23434779 -0.29208404 0.5332786 -0.40023547 -0.32477447 -0.67091143 0.41819468 0.76850903 0.40096775 0.46862224 -0.012293219 -0.55601364 0.3822501 0.41234943 -0.30287516 0.091183595 0.16151692 -0.016575836 0.36980838 -0.48849434 -0.53551227 0.4485663 -0.2345621 -0.43382472 0.11483555 -0.10341826 -0.0015393689 0.103383414 -0.36875102 0.5998728 -0.081499755 -0.6372586
无 -0.25220707 0.02652841 -0.31126043 0.3082534 -0.19034263 0.010614978 0.053769823 0.07633116 -0.5994525 -0.096276686 -0.084434934 0.2808243 0.08484074 0.08305723 -0.45457023 -0.0066283583 -0.43069533 -0.5183949 0.484543 0.2958956 0.16315399 -0.512902 -0.37458232 -0.069050424 0.051539995 0.23617035 -0.40382674 -0.27076957 -0.2976982 0.18210249 -0.26185685 -0.043558046 -0.57892483 0.57414246 0.50426656 -0.20881921 0.39737228 -0.22418325 -0.21709917 0.060448963 -0.60896146 0.22228909 -0.27545407 -0.29426706 0.6012916 -0.4200483 -0.1433754 0.23355728 -0.21859337 -0.4200985 0.47720864 -0.14160183 0.61971194 0.4786419 -0.119797856 0.47893703 -0.005466158 -0.57586557 -0.54901135 -0.63971245 -0.28342435 -0.6303079 0.5375946 -0.46317118 -0.1577688 -0.10365539 0.58507025 -0.47858986 -0.6168114 -0.28383136 -0.053228702 -0.16140181 0.099329054 0.49831405 -0.5477436 -0.029641014 0.04775531 0.4662731 0.8097355 -0.4386951 -0.11741046 0.29997152 -0.46085963 -0.40974066 -0.5906717 0.27135202 -0.2775288 0.4274715 -0.02794335 -0.07576608 0.66765004 -0.026031578 0.33440804 0.5699986 -0.016194833 -0.4217221 -0.045340132 -0.11977984 -0.53283095 -0.16505307
则 0.5023976 -0.60084295 0.38668954 0.47355324 0.58885777 0.117982216 0.59575754 -0.2717903 -0.42196584 0.027666148 0.14217082 0.41456857 0.16326083 0.10782198 -0.6577539 0.43160513 -0.48254073 -0.08319358 -0.64011264 -0.25206622 0.45140362 -0.1331021 -0.40630513 -0.14801894 0.11215916 0.68664473 -0.19123334 0.07068135 0.1573019 0.49492753 -0.37542 0.57517827 0.13682464 0.079893894 -0.7074475 0.024385385 -0.3009396 -0.65736973 -0.46335402 -0.7093612 -0.57539064 -0.17536227 -0.2752264 -0.37385806 -0.66819644 -0.21152921 -0.37431136 -0.41090417 0.08189457 -0.14478526 0.33825654 0.4792574 0.12977366 -0.06239248 -0.6607054 -0.64310914 -0.0881103 0.562427 -0.5545395 -0.7281053 -0.58824855 0.12584417 0.46738374 -0.6379519 0.2529807 0.294736 -0.051969904 -0.536819 0.046759102 -0.11098306 0.7756979 -0.08805425 -0.5650009 -0.51476413 -0.26677644 -0.005333251 0.4251841 0.037213482 0.44195813 -0.14150885 0.6903902 0.18718848 -0.46801406 0.6371443 0.5864019 0.17982219 0.097863995 -0.075977795 -0.7410614 0.0843594 -0.043566868 -1.0281758 -0.14537117 0.71453774 -0.82607806 0.7543985 -0.08298231 0.28523448 -0.5752623 -0.8524375
！ -0.33035776 -0.21436954 -0.14186941 0.3051531 0.051529426 0.04097302 -0.4009344 -0.46195993 0.18008454 -0.32674018 -0.15768278 0.5123923 0.41244677 0.23713657 -0.5316409 0.13809375 -0.35571092 -0.317068 0.5406977 0.03957046 -0.043522038 -0.766613 0.21055543 -0.07635562 0.18726161 0.005337674 -0.24756573 -0.44626433 0.13435729 0.031037664 -0.30420625 0.44170523 -0.21004431 0.934781 0.32091188 -0.62351525 -0.2652751 0.90890515 -1.0486219 -0.11682561 0.01791293 -0.11566417 0.17408969 0.09085329 -0.12345052 -0.5185375 -0.45507547 -0.674166 0.33344156 0.66627467 0.43369374 0.8374975 -0.37374297 0.3732886 -0.23424189 0.43653652 0.1562637 -0.060922336 -0.10612514 0.1634167 -0.53214055 -0.57902896 -0.4140861 -0.3834272 -0.8149401 -0.4412204 0.56754774 -0.3367585 -0.034898363 -0.2421651 0.4892493 -0.79264677 -0.15238236 0.5054073 -0.58886224 0.114735946 0.018418113 0.05652799 0.15607381 0.30024064 0.62215495 -0.16379689 0.6730317 -0.23099166 -0.18780152 -0.39791295 -0.4915802 -0.09148444 -0.18008263 0.0918511 -0.21934152 -0.54954624 0.3480693 0.16259639 -0.71240455 0.5306556 0.28927687 0.3460891 -0.5234803 -0.30399498
问 0.4876853 0.09393823 0.63643533 -0.16066566 0.52915967 0.6214233 -0.28453162 0.028990112 0.1882208 -0.047496006 0.06915986 0.21245773 0.19281068 0.39151996 -0.4500027 0.04357398 -0.6434662 0.03597145 0.42825615 -0.20431416 -0.48608384 -0.4558071 -0.19175719 0.61345017 0.47650835 -0.28923172 -0.05108989 0.13956201 -0.33766964 0.3928041 0.6270628 0.4560519 -0.46332648 0.37077367 -0.5633075 0.155547 0.018502664 0.4379955 -0.6196818 -0.667215 0.37248483 -0.08180441 0.23821841 -0.4871513 0.08321178 -0.28403136 0.0095725525 -0.21339178 -0.47757205 -0.1244332 -0.49220935 -0.0032045671 -0.19720782 0.4120219 0.13413334 0.23295246 -0.5071006 0.6126164 -0.6987612 -0.43296877 0.6543175 -0.19934611 -0.42543805 -0.7805956 0.27943358 0.11406411 0.40251642 -0.163265 -0.34747612 0.3598118 -0.21891062 0.2316227 -0.020502394 -0.1701787 0.026708186 0.20319566 0.017792342 0.017782815 -0.15259622 0.3274696 0.52059114 0.42912954 -0.114488095 0.021712894 0.08307516 0.500043 0.08362389 -0.046804883 0.04806338 0.18803243 0.22224912 -0.025950031 0.31634563 0.52600664 -0.18695112 -0.40785283 -0.5214477 0.39887214 -0.2352288 0.3324444
知 -0.31834128 -0.5721818 0.2564509 0.24523365 -0.36225405 0.2600515 -0.62632096 -0.41496995 -0.5698273 0.19314057 0.55496514 -0.16439727 0.029430542 -0.30029368 -0.14423178 -0.08779058 -0.5721809 -0.6128553 -0.4050667 -0.5653075 -0.21063353 -0.655205 -0.53072715 0.3594601 0.37207898 -0.59661686 0.8849286 0.53858495 -0.39523622 0.6200606 0.46833068 0.08615009 0.15263939 -0.36848116 0.13411811 -0.19918667 -0.49617946 0.080009274 -0.37163273 -0.024352258 0.45446083 0.67356366 -0.060192466 -0.069329046 -0.10663326 -0.33521292 -0.14575037 0.008034783 -0.10199877 -0.336852 -0.57772064 0.6609764 0.20329686 0.5503165 0.7022876 0.14199185 0.13409466 0.5873886 -0.45973966 0.14058813 -0.19993632 0.00028451186 -0.34325022 -0.3592336 -0.4582203 -0.37126487 -0.5434038 -0.62616915 0.2744831 -0.38540226 -0.24281573 -0.636136 -0.53661084 0.20743272 0.5688857 -0.60658383 0.39811164 -0.8696683 0.4421644 -0.18000071 0.3615823 -0.35812196 -0.18995726 -0.43039936 -0.28793696 0.6130571 -0.04583675 -0.019990519 -0.0017941197 0.17293195 0.58548033 -0.66854376 -0.5308768 0.31146827 -0.78724957 -0.11391677 -0.17995638 -0.37479228 0.11422082 0.10337165
何 -0.057106096 -0.21714675 0.5629343 0.6779164 -0.0003119219 0.3370993 0.13863035 0.19888225 -0.23059498 0.39702684 -0.031263497 -0.27492714 0.54219174 0.14480448 -0.109010085 -0.251794 -0.1441969 0.7522793 0.10738761 -0.34826946 0.08106758 0.16063932 0.17583635 0.3957384 0.0701068 0.5218607 0.75215375 0.3259798 -0.287286 0.5839705 -0.29977095 -0.094982624 -0.31102163 0.35825196 0.39115635 -0.06366004 -0.56247663 -0.22368823 -0.3395002 -0.38841504 0.21931264 0.0420201 -0.005222161 -0.19711035 0.2820331 -0.56067276 0.5721848 -0.5532763 0.026579171 0.007957739 -0.18950497 -0.4498566 -0.7770464 0.05986853 0.8025184 -0.22406946 0.6920296 0.041947756 -0.28439486 0.6535012 0.509096 -0.5948171 -0.68397695 -0.4735814 0.35351554 0.88807195 0.8168489 0.42970031 -0.0005984034 -0.31675327 0.27779692 0.43726033 0.2353489 -0.6131775 -0.19204526 0.97783834 -0.3940028 -0.045337602 0.1957428 -0.6347858 0.18730217 0.09413061 -0.74356216 0.48216712 -0.8639193 0.30687892 0.018978981 -0.66457766 -0.079630844 0.43809494 0.63262475 -0.31535143 -0.031190934 0.56120485 0.46218774 -0.22720091 0.14131057 -0.24181335 0.1505712 -0.0029533813
吾 0.4138743 -0.48989025 -0.47879386 -0.22858123 0.2309423 0.7334294 -0.3864503 0.8612512 0.09230009 -0.75056404 0.6073006 0.2804558 0.11161784 -0.18639253 0.25493583 0.36961332 0.21904154 0.51367044 -0.6078063 -0.30759653 0.73241067 0.6135735 0.22489934 0.45521513 0.17758602 -0.6563177 0.032452844 -0.2910468 -0.69162965 -0.029032372 -0.06803892 0.158128 0.7268535 0.23963246 -0.2997295 0.2651391 -0.4026416 0.20746794 0.1380524 -0.35488388 0.07850374 0.2648419 0.26955208 0.15581055 0.3697993 0.0674195 0.3046762 0.8869712 -1.1980432 -0.6111512 -0.81447345 0.09816527 -0.14002861 -0.170617 -0.59451526 -0.19385366 -0.90956074 0.54950273 -0.32621545 0.15881698 -0.24635735 0.8530568 -0.37682015 -0.2599077 -0.11410625 -0.368452 -0.120140925 0.064831875 -0.42415047 -0.33270118 -0.5617365 -0.14023867 -0.3134751 0.2944299 0.018505333 0.14934577 0.26058108 -0.1412363 0.2786746 0.7462474 0.4357487 -0.60914564 -0.26004308 0.43587822 -0.16797966 -0.09998083 -0.29350206 -0.24640073 -0.058611162 -0.5767951 0.24112226 0.6429525 0.12546158 0.41952902 -0.07431 -0.9259503 0.3003767 0.167756 0.69354254 0.76986945
仁 0.07272103 -0.615585 0.62322056 0.22214082 0.40984216 0.6234593 -0.40409198 0.7391831 0.2519833 -0.4110706 0.54755664 -0.42576408 0.13054068 -0.39642006 -0.6434179 0.16586332 -0.6036405 -0.22240013 0.23424779 -0.68786925 0.013164057 -0.043862946 -0.15210122 0.075097024 -0.6663302 -0.17546175 0.20428795 -0.5056074 -0.4235219 -0.6320121 -0.13894127 0.2507559 0.7310722 -0.050164443 -0.6574157 0.40794078 -0.14348681 0.5986662 0.25280994 -0.40780342 -0.111281164 -0.23984514 0.076305315 -0.71095437 0.39419842 -0.08168869 0.6485125 -0.27879074 -0.27988362 -0.0355644 -0.26917964 0.18628058 0.08119417 0.9523708 -0.18484417 -0.32872438 -0.072242856 0.68532926 -0.053759698 -0.6379002 0.56307894 -0.07129852 -0.14921091 -0.015538264 -0.6073593 -0.10413213 -0.5479172 -0.2588084 -0.040942177 -0.2931547 -0.23234586 0.29085988 -0.27225682 -0.6477579 -0.3377229 -0.6429014 -0.45160136 0.04456299 0.12151962 0.3343993 0.18003814 -0.42932144 -0.06113487 0.014216423 0.74679685 0.3264649 -0.083889924 -0.05894736 0.51387227 -0.38951877 -0.071505606 0.3029385 -0.3496732 0.3418886 0.2219498 0.012269453 0.42120022 -0.77131504 0.18744422 -0.10355706
夫 0.8289275 -0.015123865 -0.34427997 -0.008626862 0.17773938 -0.10785724 0.09728856 -0.46704584 0.78984106 -0.23447439 0.08754622 0.086476795 0.08172763 0.4543762 0.028687615 0.06311604 0.7515271 0.21516989 -0.09575072 0.36075032 0.4374061 -0.24732795 0.31423634 -0.19844039 0.000789649 -0.053572647 -0.14084402 -0.74847084 -0.07948059 -0.73892325 0.5625887 0.28431132 -0.5992491 -0.21362402 0.1761442 -0.0147643825 -0.54640275 0.09123698 -0.6466133 0.6492079 -0.35622305 0.57557064 -0.061587855 -0.5951316 0.025199331 -0.44177368 -0.028968723 0.88341886 -0.39447075 -0.12898605 0.035717443 0.644019 0.69298 -0.67226225 -0.4946421 0.1083368 0.036704537 0.4789163 -0.036057968 0.51762694 -0.34151942 -0.02866515 -0.021392236 -0.60975325 -0.34454066 -0.26106825 0.9506052 -0.11244988 0.04076349 -0.59256333 0.16791667 -0.3101777 0.26635122 0.4594646 0.48639137 0.25102785 -0.13205619 0.4461258 0.5637454 -0.1965458 0.35575077 -0.7223032 -0.2769292 -0.0857091 -0.52144694 -0.36569792 -0.074542135 -0.15093921 0.17334886 -0.40804017 0.71586704 -0.37519097 -0.38375282 -0.100711614 0.3977839 -0.19502833 0.8635603 -0.3384635 -0.4874038 -0.24292079
、 -0.5283691 -0.5046481 -0.22843009 -0.04770789 0.39905164 -0.8664156 0.52422696 -0.54096633 0.003521993 -0.07163563 0.20500912 0.4725817 -0.78859895 0.19649956 0.089978494 0.11919356 -0.59288585 0.5168342 -0.37648624 0.7350438 -0.5596394 -0.7734357 -0.5036059 -0.50621355 0.055120997 -0.08194009 0.90030396 0.22499509 0.097313516 0.13213359 0.24427919 -0.05925474 -0.5269938 -0.70100665 -0.21669918 0.85539 -0.14827475 -0.30155995 0.6933781 0.11220038 0.08597625 -0.53074247 -0.364822 0.11265533 -0.15810695 0.32979518 -0.14810437 0.03435442 0.5840866 -0.6313613 -0.18477356 0.372091 -0.45576143 0.020032804 -0.19452439 0.07910603 -0.08358492 0.20301837 0.31693807 -0.679172 -0.74626845 0.02144354 0.11095361 -0.6546296 -0.25236517 0.039694782 -0.12873723 0.045009606 -0.23194458 -0.4598397 0.40779674 0.59942293 -0.4654378 -0.2604768 -0.49387094 -0.5685507 0.6459141 -0.564751 0.8019649 0.43059224 0.042444106 -0.49682096 -0.7053332 0.32657388 -0.11759491 0.9173727 0.21297751 -0.15951766 -0.34541553 -0.8904047 -0.055670295 0.14573023 -0.2620614 0.6381515 -0.42752454 -0.58486855 -0.810172 0.434951 -0.3208691 0.005930229
道 0.3022537 0.5302423 -0.7784904 0.12862384 0.56791186 -0.3307848 -0.051401634 -0.6181635 0.22290535 0.8134001 -0.18965395 0.7788146 -0.17676581 0.16031474 -0.42198142 -0.4274297 1.1492977 0.30838844 -1.0049534 0.12537707 -0.296782 -0.046332795 -0.04525353 -0.5700719 0.06718458 -0.27755892 0.09722557 0.69128525 0.38256443 -0.2979502 -0.17936492 0.78019637 -0.028683402 0.09765635 -0.7044688 0.7162488 0.09666643 0.17464979 0.07189806 -0.021313637 -0.5494229 0.16999286 -0.26079634 0.06474287 -0.06862566 -0.19763188 0.013119051 1.1184e-05 -0.14665587 -0.32462865 0.77278125 -0.080519944 0.13076013 -0.6144843 -0.45682308 -0.7545158 0.20560631 -0.074685164 -0.061770182 0.84367526 -0.55022657 0.10679348 0.4927317 -0.4820686 -0.37282112 0.28230226 0.25902754 -0.07956325 0.44717467 0.34752873 -0.27188426 -0.034288313 -0.30324498 0.90425336 0.48937434 0.70298487 0.019833075 0.57055235 0.37572017 -0.5757323 -0.19878513 -0.91752476 -0.4155876 -0.07203607 -0.34093118 -0.63967186 -0.2049123 -0.025373075 0.052275103 -0.108123995 0.50226605 0.3122827 0.22646998 0.04435334 -0.24433291 0.22024602 0.31042275 0.57990825 -0.45011735 -0.4275625
焉 -0.53013825 0.6404783 0.2931038 -0.088804305 -0.13206393 0.22711512 -0.14801686 -0.21570481 -0.17778212 0.68913335 -0.33196223 0.35978717 -0.18128163 -0.063808 0.17975977 -0.27065086 -0.34493813 -0.008486502 0.24548163 0.1697924 0.6128087 0.5371532 0.056414112 0.46374854 -0.44241545 -0.2731626 -0.44443378 -0.13151945 0.65934813 0.13328591 -0.11172826 -0.12795553 -0.52209866 0.39130387 -0.02757739 0.068215966 0.052984186 0.27230227 -0.49817052 0.37611538 0.18361522 -0.18496034 -0.44457862 -0.17802465 -0.19061762 -0.54501295 0.067097604 0.4700303 0.50216204 -0.35031825 -0.50679904 -0.1470352 0.52712387 -0.22997978 -0.053029314 0.5404429 -0.6276724 -0.41761476 -0.11447162 -0.67833424 0.43300676 0.3550662 -0.18285173 -0.64098895 0.4661162 0.5747217 0.055095702 -0.45289597 0.59829205 0.3638369 -0.039968334 -0.014886038 -0.05469845 -0.14188875 0.18989071 -0.6169808 0.036471106 0.21440233 -0.2596866 -0.051742926 -0.024862835 -0.49847302 -0.057599764 -0.39735326 -0.06797752 0.26918036 -0.28054446 -0.13577753 0.3178517 -0.37819526 -0.13524073 -0.38856962 -0.37427855 0.5320989 0.21584149 -0.5289833 0.31205696 -0.10169704 0.029194571 -0.6727554
行 -0.7547738 0.40941575 0.35131556 0.16370757 -0.4332458 -0.79323876 -0.63706553 -0.4383892 0.20362227 0.39474466 -0.19162992 0.1577582 0.1564555 0.06619293 -0.68431205 -0.11654683 0.7407946 0.519037 -0.36717808 -0.18483323 0.04531288 0.12301724 -0.13044934 -0.6758605 0.52575433 -0.12871347 0.6238547 0.11051563 -0.13868895 0.2653579 -0.33389145 0.7436396 -0.20807634 0.4303119 -0.33877176 -0.140382 0.22783712 -0.39492917 -0.6959357 0.45837057 -0.790038 0.21605596 -0.38934046 0.17143492 -0.59965867 0.10284698 -0.6470335 -0.65851647 -0.057500362 0.69049054 0.22098261 0.4242821 -0.43460795 -0.8520132 -0.22297774 0.13593502 0.7383815 -0.69699746 -0.18303607 -0.29767832 -0.11176796 0.19152167 0.13546804 0.08390182 0.53274006 -0.39812914 -0.22130628 -0.064804755 0.48658174 -0.33042246 0.56302 -0.47580892 -0.16288447 -0.01669445 -0.0007054567 0.098431155 -0.34316567 0.37320244 -0.76433295 0.20301174 0.16434911 0.2340113 -0.23193207 -0.30374447 0.314854 -0.20347597 0.6019165 0.24755165 -0.6863491 0.23131175 -0.2033327 -0.58432335 0.3815766 0.23063017 -0.20519501 0.59851104 0.10102426 0.35518098 0.3764496 0.086619966
谓 -0.1885357 0.58510095 0.35968685 0.031446096 -0.42814192 0.33806095 -0.051126983 0.242322 -0.19648397 0.8864301 -0.35938618 0.12093552 0.152721 0.39288944 -0.04104795 0.04414024 -0.5058641 -0.13026424 -0.1798306 0.25607717 -0.33595675 0.4316333 -0.18675032 0.64585084 -0.6775194 0.20800035 -0.6743093 -0.03399178 0.8276762 0.23764703 -0.701471 0.2312763 -0.5797878 -0.5822602 0.29768884 0.11265236 0.6647628 -0.55422366 0.067683615 -0.23568636 0.51414394 -0.34355998 0.5047185 0.20969543 -0.6393962 -0.39172196 -0.33464292 0.2957999 -0.562665 -0.34903404 -0.44625545 -0.065301135 0.7022245 0.39189523 -0.21235861 -0.0067199594 -0.60476476 -0.10942907 -0.57432944 -0.6861298 0.36630923 0.20451307 -0.4351889 -0.16413648 -0.037024707 0.20021097 0.10030019 -0.4907997 -0.21821432 -0.14371529 -0.44561666 -0.5345035 0.030653082 0.59219927 -0.04443235 -0.2090312 0.37225372 0.2607406 -0.5691596 0.16575132 -0.2067367 -0.7165211 -0.026210085 0.05368774 -0.6361634 0.19727264 -0.17971446 -0.4256706 -0.8683369 -0.266817 -0.35518402 -0.9574653 0.2565705 -0.79478675 -0.15236188 -0.66845447 0.28405792 0.019858299 0.31725207 0.37781322
必 0.13484418 0.10365774 0.18265903 -0.024597328 0.1384062 0.12687092 0.342289 0.033713005 0.24700347 -0.1400379 -0.2128894 0.10976649 -0.19788203 -0.21178967 -0.51196736 -0.10277492 0.046111133 0.11077712 -0.26546773 -0.017669272 0.02573994 0.079485886 -0.046737745 -0.35787266 -0.35078195 0.18077429 -0.16469538 -0.10079427 -0.1426297 -0.3938904 -0.1632599 0.3492678 -0.17376272 0.20664068 0.33208707 0.46919173 -0.12511353 -0.03702257 -0.025261639 0.012352136 -0.3420234 -0.0012039501 -0.16606663 -0.48412704 0.47627887 0.14200044 -0.10144037 0.004589513 -0.37447426 0.42881113 -0.33865657 -0.14104964 -0.29057914 0.04376855 -0.43145838 -0.13050638 0.40246907 -0.017343689 0.20128901 0.16874202 -0.27277714 -0.108392924 0.38627 -0.3958043 0.18386039 -0.030955398 -0.44854933 0.079265624 -0.2369995 -0.39928904 0.21077937 -0.28417206 -0.072214864 -0.25259423 -0.14191222 -0.1339945 0.19544059 -0.020581422 0.06418322 -0.20438485 0.18527317 0.060441792 -0.13784662 0.26882744 -0.099192515 -0.091926366 0.13231233 0.13599265 -0.28038806 0.2938394 -0.02518245 -0.18081704 -0.076207384 -0.19249666 0.19645546 -0.21073978 -0.49211025 0.1366252 0.403184 0.12500846
礼 0.37268642 0.1934884 0.013636828 -0.35248992 0.4031148 0.02798613 0.00814135 0.44115728 0.12499163 0.38466734 0.0905503 -0.7538615 0.47864765 -0.2997525 -0.2903545 0.07610778 -0.033896517 -0.087307446 -0.1334437 0.35027644 -0.19829409 0.76505405 0.04621323 0.3453105 -0.40384746 -0.3828798 0.75004435 0.62076616 -0.23713772 0.039525572 -0.2741432 -0.45851156 -0.0805977 -0.876261 0.5792412 0.43146947 -0.21243125 -0.4102903 0.37881014 -0.14845353 0.8517419 -0.3293767 0.21160154 -0.49225336 -0.6508705 -0.34763864 -0.25969464 0.5747699 -0.6667718 -0.16290884 -0.45098197 -0.7419827 -0.0076255742 0.6940328 0.37866512 0.07864427 0.28294513 0.41004345 -0.003699275 0.5076231 -0.055817224 0.079806946 -0.67204636 0.5640229 0.08849939 0.294283 -0.3555299 -0.8314777 -0.4480125 -0.3388633 -0.4253285 0.19477679 -0.18270098 0.32291996 0.2992851 -0.059441306 -0.3030781 -0.28097612 0.3846714 -0.45026255 -0.3667067 0.035326097 -0.09279538 0.68441963 -0.634201 -0.20578259 0.290518 -0.5508671 -0.050760027 -0.3412159 -0.041338917 0.11197718 -0.3638565 -0.38486844 0.6210207 0.2303198 -0.22849746 -0.37896755 0.56253844 0.43309864
孔 0.05009086 -0.2753156 -0.121791266 0.37723938 -0.31537354 0.37688577 0.18598086 0.083412275 -0.84194493 -0.27871644 -0.04915388 0.85703635 -0.08299851 0.22489727 0.42404574 0.20855395 0.47130898 -0.2550707 -0.8178973 0.22343913 0.6517431 -0.75337136 -0.7324332 -0.8358192 -0.2533629 0.03775221 0.1330518 -0.8218508 -0.5132066 -0.17104752 -0.45713753 0.37947762 0.22381282 0.52266866 -0.5234308 -0.34489667 0.021374451 -0.57463706 -0.49316382 -0.43457508 -0.92317694 0.6528948 0.17708215 0.8694291 0.6804388 -0.33831233 0.58830255 0.10482735 0.36681017 -0.15769391 0.14220342 -0.08992328 -0.6555956 -0.28542125 -0.23194288 0.6040515 -0.5269554 0.2543373 -0.06477622 0.5427375 0.20766056 0.11260553 0.9082754 -0.65277725 0.8188125 0.15826088 0.1976695 -0.37062764 0.49469268 -0.13468945 -0.44935957 0.7327226 0.4288064 0.56676173 0.14776528 -0.53426754 0.2860602 -0.6580672 -0.10103177 0.7891476 -0.56758344 -0.2684658 -0.063872986 -0.11461326 0.14936815 -0.09079983 0.43389085 0.56210685 0.3058793 0.32374278 -0.3041672 0.13342823 -0.57920396 0.36336607 0.6757406 0.49910694 0.05056591 0.17599484 -0.44400555 0.26780316
斯 -0.304029 0.4168557 -0.39955437 0.43763492 0.23644067 0.30393645 0.23893347 -0.05352482 -0.012219337 0.48811013 0.5097166 0.008875695 0.44800085 -0.22592856 -0.5570159 -0.2699061 0.48423445 -0.6792782 0.5225846 0.33603284 0.06060026 -0.33286616 0.34233582 -0.15076871 -0.071050145 -0.2807976 -0.3150769 0.095416956 -0.31874886 0.061120927 -0.59827083 -0.3719178 0.47082198 0.13184632 -0.59417456 0.6410292 0.5110187 0.099235095 0.28358856 -0.25737053 -0.17906348 -0.20816566 0.64084333 -0.4601471 0.4224353 0.22274849 0.57500625 -0.16790423 -0.32676175 -0.6535763 0.14661455 0.4151635 -0.03896376 0.45138332 -0.005644521 0.043542635 0.47929615 -0.33645058 0.0154003 0.5323913 -0.07146296 0.13994944 -0.033445206 0.3016771 -0.015263657 0.54403603 -0.5722855 -0.12738644 -0.17069572 -0.4274074 0.27130958 0.39407593 -0.5354119 0.3620339 0.52688485 -0.12624377 0.5452358 -0.44744402 0.17678286 -0.20154256 0.80111223 -0.16347441 0.5010736 0.5046529 -0.22379993 -0.54197985 0.3270094 0.6276104 -0.10676056 -0.29224116 0.2744947 0.18735076 0.21469244 0.069813736 -0.27322963 -0.3384403 0.037912704 0.36070946 -0.45885196 0.32910973
三 -0.02347796 0.11322215 -0.6884602 0.09108363 -0.11997252 -0.26276055 0.28329384 -0.13163418 -0.5540871 -0.09717834 0.7672632 0.14177825 -0.13259646 -0.32945627 -0.10750647 -0.39614922 0.0873326 -0.033652246 -0.6358444 0.42384756 0.1635001 0.41859552 -0.02812606 0.17554902 -0.6038146 0.20564294 -0.4209864 -0.4419521 0.022897875 -0.36572462 0.15176298 0.0030799864 -0.0070890835 0.113532156 -0.074647814 -0.023121595 -0.06036338 -0.2507064 0.34561616 -0.105789274 -0.8261525 -0.21223314 -0.37347138 -0.15990756 0.34765387 0.60729754 -0.27096695 0.19384867 0.50104004 0.3045291 0.2433628 -0.45106754 -0.43043378 -0.6504679 0.6506921 0.5612651 0.48088434 -0.2823955 0.5577332 0.6676895 0.020686291 0.2563902 0.010290375 0.05125341 0.12489455 0.15319674 0.26650393 0.6894701 -0.13001049 -0.10462747 -0.35034594 -0.65827936 0.3269083 0.17065014 0.38950187 0.047949653 -0.25461593 -0.61374986 -0.48279104 0.24593318 -0.3128467 0.21579565 -0.2765991 0.130846 -0.35865015 -0.60788566 -0.26326296 0.12946579 0.023079855 -0.56108075 0.5156793 0.25842863 -0.36636704 -0.2804887 0.54300874 -0.036026448 -0.03655606 0.52391946 0.21783909 -0.5688424
能 0.055049177 -0.42496377 0.09747316 -0.26119557 0.5873033 0.36080396 -0.33005446 0.55328304 0.39484608 0.4810326 0.22872292 -0.39945275 0.69264954 0.5398805 0.050959125 -0.10200091 -0.06557062 0.1941698 0.11343879 0.84835315 0.28540337 -0.37317818 0.63590527 -0.034106184 0.3778475 0.50276226 0.6781563 0.67923206 -0.72443795 -0.18745598 -0.42590415 -0.5637073 -0.8371672 -0.56855285 0.25104877 -0.17101176 0.26121086 0.4587159 0.1571139 -0.22394685 -0.028356204 -0.20675994 -0.057535965 -0.30194575 -0.015644738 0.18750517 0.27494505 0.4067681 -0.30364 -0.7163837 -0.46378022 0.904001 -0.0075191804 0.25493833 -0.09947575 -0.095343366 -0.20418188 0.15567566 -0.2696618 0.14779152 0.09750328 0.48589876 0.096945755 0.34740967 -0.2865935 0.29068774 0.08649981 -0.6559256 -0.23770542 -0.14755301 0.23251249 0.4004333 -0.5481717 0.59634906 -0.37759525 -0.7141191 -0.1836105 0.085044146 0.49011824 -0.12022046 0.663184 -0.53220636 -0.31022665 -0.055724867 0.5859806 0.71544415 -0.06853828 0.20982592 0.04165586 0.22161388 0.46244875 0.13586724 0.6943474 0.2006976 0.7459101 0.15807442 -0.001397875 -0.43455714 -0.004979055 -0.7538954
见 -0.40374753 0.20748988 -0.11514799 0.61893994 -0.01459535 0.74510086 0.1406866 -0.72324586 -0.2736446 -0.22365446 -0.20744544 -0.27854484 -0.20192915 -0.25606108 -0.14239824 0.23691903 0.20200655 -0.58453095 -0.3576117 -0.23900105 -0.35771224 0.13428448 -0.27229425 0.42847818 0.05466468 -0.29605508 -0.1573944 -0.088844955 -0.763035 -0.21342038 0.39710864 0.044162527 -0.20350637 -0.014942882 0.13674894 0.30936667 -0.070175916 0.36873886 0.152276 0.6929424 -0.09758947 -0.2666721 0.47225097 -0.15083717 0.12233245 -0.09036753 0.5007607 0.122464016 0.2485361 0.33102214 -0.021742707 0.03166047 0.27843174 -0.24024071 0.4507005 -1.2571785 -0.00043910008 0.14957768 -0.73598164 -0.72818846 0.15125377 -0.07613475 0.19376397 0.4583107 0.17278686 -0.7718912 -0.042757627 0.27756354 0.37094674 -0.3340238 -0.20071898 0.80473614 -0.05879898 -0.8018035 0.56305605 0.9239251 -0.7917188 0.0320463 -0.6555592 -0.038205966 0.3848477 -0.32792097 0.36036247 -0.10319512 0.6933702 0.30356982 0.67891806 -0.26043674 -0.311887 -0.39513046 -0.04027371 -0.17209545 -0.78406817 -0.2415188 0.232903 -0.24555685 0.14725317 0.19938485 0.31013232 -0.7287387
学 0.068802014 0.32252803 -0.22439009 0.2963089 -0.083948754 0.3422183 -0.44654062 -0.24114601 0.1678405 0.5087476 0.45819843 0.17116281 0.22359617 0.29717878 0.32458037 0.06606042 -0.2698344 0.29059696 0.41147137 -0.32653362 -0.32284948 -0.21825169 0.38918644 -0.12542035 0.16180918 -0.40187398 -0.530495 0.40095028 0.00012784138 0.4678631 -0.3788293 -0.6415933 -0.45417437 0.47035837 0.4299863 -0.17929178 0.23856117 -0.19650377 0.45897025 0.05196531 0.11375731 -0.42859164 0.5343483 0.48159856 0.38694924 -0.42252755 -0.058659095 0.45083115 -0.27689433 -0.53300846 -0.46230656 -0.23694772 0.5204235 0.15354851 0.09560604 0.1327452 -0.54802334 -0.01832688 -0.6657807 -0.30716747 -0.010260354 -0.27486962 -0.4320332 -0.23131353 -0.16285053 -0.22428355 0.28389674 -0.50867516 -0.41444945 0.15144847 0.38261998 -0.62461764 -0.056207832 -0.32290295 -0.60637206 -0.18562746 -0.42023152 -0.25006154 0.5744173 0.49959677 0.37418482 0.4226869 0.25124794 -0.11281797 0.082522385 0.4865091 0.032368354 0.1351898 0.55699056 -0.29883656 0.1335743 0.24785809 0.067671284 0.5032711 0.36583805 -0.16335566 0.64738965 -0.25037387 0.15109104 -0.53044236
事 0.06650281 -0.17164831 -0.16632181 0.15018398 -0.23127364 0.44877148 -0.35194185 -0.5684942 -0.057807617 -0.30670768 0.06660329 -0.19417429 0.41726398 0.08684126 -0.38577303 0.0816003 -0.050654877 0.19649589 0.23573953 -0.48549616 -0.23346217 0.050273046 -0.49207678 0.6254744 -0.40440392 -0.045661937 0.011163407 -0.40219596 -0.36320776 -0.15650147 -0.18091294 0.172673 -0.41284814 -0.00896273 -0.15837152 -0.44891313 -0.13884841 0.92059517 -0.1275866 0.13223076 0.14394401 -0.55540806 0.42997116 -0.50753313 -0.16251013 0.5075608 0.40374747 -0.7304731 -0.47598213 0.09356537 0.50330985 0.43927407 -0.40580282 0.15371212 -0.5164387 -0.1375982 0.49272907 0.10387339 -0.11385895 0.056893244 -0.20748292 -0.5196892 -0.5995118 0.24555567 0.02889742 -0.37745392 -0.082931474 -0.49681377 0.8847649 -0.17387661 0.24602653 0.42265275 -0.22905341 -0.5185158 0.3806508 0.65578336 0.024419475 -0.005424083 -0.4141628 -0.2391581 0.30515403 -0.28833154 0.5392678 -0.33889577 -0.047483753 -0.40187517 0.305887 -0.19940956 0.59115386 0.39853394 -0.49241227 0.15277936 -0.38543072 0.5738233 0.4903386 -0.3411784 -0.4188456 0.026465677 0.11397452 -0.07199278
是 0.74572563 -0.11570469 0.62006515 0.49259263 0.23701102 0.044136122 0.12891193 -0.1540417 0.5746603 -0.11601333 0.097365566 0.15283073 0.25567853 -0.05684343 -0.12482188 0.92072767 -0.40371633 0.6189388 0.6811546 0.18182066 0.038826052 -0.51408255 0.71892697 0.29176107 0.22428824 0.13026547 0.70077765 -0.16965078 -0.17960675 -0.019475011 0.4814887 0.01079966 0.36718732 -0.26461053 0.043559697 -0.6200885 -0.13354136 0.69551754 -0.45898983 0.0004379043 0.64380026 -0.62109363 0.7666983 -0.43661368 0.1846544 -0.5598444 -0.56570464 0.4231391 -0.11091921 -0.16087249 -0.23951156 0.15805376 0.7692752 0.25809985 -0.5422563 -0.30001086 -0.2977837 0.3384996 0.061307568 -0.28785902 -0.52469426 -0.5275654 -0.025808848 -0.45753887 -0.8763497 -0.7137545 0.35465768 -0.03599108 -0.2197678 0.32442266 -0.028009566 -0.14927267 -0.48453784 -0.27672848 -0.611576 0.013106024 -0.023035249 0.57607144 0.49981534 0.22753857 0.032137215 -0.17162053 0.049920935 -0.007579793 -0.052423082 0.13682951 0.57716656 0.5158967 0.5830377 -0.617106 -0.5824928 -0.5694395 -0.035481878 0.0028487886 0.26138803 -0.17566475 0.67262363 -0.5677158 0.52639866 0.75212294
哉 0.28824985 0.6227991 0.03011667 -0.3195878 0.37343302 -0.023953967 -0.15500732 -0.47325286 0.19672891 -0.39507395 -0.20285279 0.24031164 0.0400883 0.43232614 -0.78747004 -0.559721 -0.15450256 0.47783878 0.6035509 0.04850345 -0.13663743 -0.004712593 -0.09606061 0.60695344 0.1265391 0.053622898 -0.1969454 -0.70431864 0.64273196 -0.016993312 0.067514494 0.21670696 0.05415632 0.5237341 -0.16043827 -0.2960019 -0.0015355223 -0.01678599 -0.3523083 -0.06346419 -0.028934358 0.2550532 0.019013904 -0.38989556 -0.77626914 0.0463117 0.5551511 -0.054948416 -0.3701418 -0.12863506 -0.3413024 0.06174954 0.8282166 -0.08397483 0.34774017 0.46048188 0.69093 -0.6316776 -0.36865768 -0.65617394 0.6395473 -0.7796787 -0.65591836 -0.051473625 0.25765592 0.5200864 0.545691 -0.0591453 0.501067 -0.03167304 -0.5908762 -0.31862357 -0.033477943 -0.84995306 0.048453223 0.5733157 0.19306578 -0.21374993 -0.6062075 0.054335933 -0.20224912 -0.082120866 -0.006413404 0.04789873 -0.1828122 -0.767105 -0.0017543023 -0.61549926 -0.2500404 -0.5224394 0.21223934 0.6331463 0.34505832 0.4960253 0.24443848 0.017355261 -0.43773374 0.542229 -0.10245776 -0.33483106
闻 -0.106951885 0.06723559 -0.070222296 -0.10623323 0.5237446 0.6401372 0.017022952 -0.17373668 -0.29080462 -0.25724992 -0.07328903 0.16059531 -0.28435773 0.3572686 -0.26642162 0.044281013 0.20812723 -0.15276031 0.35451624 0.4019014 0.46152037 -0.29904178 0.9689801 -0.35641155 -0.20181547 0.49560305 0.4811459 -0.20905587 -0.45052704 -0.022724252 0.19124031 0.08644478 0.5705458 -0.10924269 0.27479383 0.41893712 0.2276982 0.3685504 -0.24236223 0.003846275 0.66954637 0.39413476 -0.18806115 0.42451763 -0.42456052 -0.0060295817 0.45367748 -0.052766364 0.036167257 -0.44715118 0.18555194 0.22318093 -0.44749504 0.3545656 -0.10381225 -0.03547545 -0.15172394 -0.15174773 -0.47258297 -0.5588469 -0.19295242 0.20649622 -0.026483063 -0.11922863 -0.7111233 -0.1577373 0.51533735 0.41094053 -0.21711196 -0.40855277 -0.5350068 0.84244746 -0.25882363 0.2676727 -0.20214888 0.49892983 -0.18278798 0.24863707 0.12349786 0.7011224 -0.45114726 -0.31155214 0.5894861 0.6761873 -0.31450355 0.114065416 0.070995964 0.8653765 -0.53318447 0.14532948 0.54710287 0.7366881 -0.21093568 0.35234323 0.9835301 -0.061183274 0.21930338 -0.28061885 -0.34354874 0.33286306
未 0.46361673 0.035558283 0.08327472 -0.22211535 0.05336548 0.043001853 0.77934307 -0.12728909 -0.07142069 -0.03363285 -0.14369482 0.092086814 0.012902178 0.06474237 0.012095743 -0.0153427 -0.28566974 0.015328384 0.61105907 -0.27651283 0.39809504 0.53567374 0.42625433 0.052366067 0.0038402397 -0.05382963 0.45509806 -0.4018728 -0.56754565 -0.19246373 -0.26862374 -0.010207907 0.11484131 -0.00014940459 0.008511218 -0.5920664 -0.4573348 -0.029128179 -0.06401559 -0.5022536 -0.43304715 0.5515962 0.50097656 -0.3793321 -0.34972608 -0.4813455 -0.3881396 0.23748527 -0.20268068 0.5163989 0.0642758 -0.551048 -0.54390043 -0.46792617 -0.5273643 -0.4313644 0.0041434835 0.12049236 -0.07122513 0.02711111 0.40112242 -0.50911236 -0.052035008 -0.5936345 -0.45541006 0.61460316 -0.055557583 0.4272627 0.26118708 0.6830603 -0.05032031 0.3525296 0.71290034 -0.4902961 -0.27557656 0.5464098 -0.049438424 -0.8600574 0.045974597 0.6050907 0.045968212 -0.29987872 -0.13903943 -0.06655271 0.2947762 -0.3923834 -0.04222825 0.31680137 0.38467106 -0.5855711 0.015417836 0.25700626 -0.029512346 0.38497445 0.09116527 -0.11761874 -0.6308309 0.6675903 -0.014950061 -0.052962612
公 -0.47626582 -0.53348 0.5684028 0.6140749 0.64002085 -0.11334543 -0.3445746 -0.4020528 -0.43216074 0.104020745 -0.66721857 -0.3027849 -0.2368335 0.23667124 0.34488174 0.16178982 -0.35694855 0.066007 -0.42838767 -0.436801 0.20796363 -0.20485944 0.48128182 0.43855885 0.3372374 0.46991012 0.27669802 0.41984433 -0.52512777 0.07773796 0.07325061 -0.25631303 0.19684713 0.47713605 -0.3690435 0.48054612 -0.7221307 -0.3751838 0.20051633 0.25470266 -0.4197705 -0.11901574 -0.033710115 0.52791387 0.3089146 -0.3647752 0.4030975 -0.6658004 -0.58629656 0.48356152 0.40223777 0.35230845 -0.3728673 -0.06930156 0.2532554 -0.81645304 0.41240847 0.4467502 -0.097104214 0.37405115 -0.099756904 0.6988648 0.51149446 0.22176039 -0.18795922 -0.43292388 -0.36383194 0.5124314 -0.04135642 0.23020245 0.85628337 0.43444973 -0.45317143 -0.4013264 -0.46179387 0.8102887 -0.5635948 0.2695885 -0.474592 -0.6347732 0.047317445 0.6573572 0.20076895 0.3523415 -0.024457866 -0.080641024 0.18140787 -0.288783 -0.3754612 0.45379877 0.53787005 0.33565202 -0.2135109 0.03529814 -0.5059004 0.37392476 0.330709 0.28576076 -0.15144266 0.14843236
好 -0.59626305 0.19707802 0.29483458 0.04400721 0.26351503 -0.07754256 0.34305257 -0.2028336 -0.32792202 -0.4221539 -0.43921602 -0.13188925 -0.5659737 -0.31789 0.38090864 -0.23493458 -0.050847266 -0.43007302 0.39485827 0.31338906 -0.13657862 0.15062398 0.03938602 -0.29362035 -0.42854878 -0.26045793 -0.36831853 -0.18460722 -0.19356719 0.2703822 -0.2904503 0.2419095 0.59624517 -0.21863118 -0.60407114 0.03733351 0.25371945 0.4389177 0.28201202 -0.13000435 0.04086259 -0.31182578 0.2776228 -0.43986282 0.26520634 -0.3872767 0.35199794 0.23956996 -0.2638895 0.2425821 0.47486615 0.10748145 -0.78727293 -0.46918985 -0.4832663 -0.13085757 -0.34761944 -0.271168 0.5552784 -0.28803724 0.27309024 -0.37395623 0.027425487 -0.3520358 0.084472746 -0.17678063 -0.61578244 0.3447823 0.574195 -0.045023527 0.362821 0.65253156 -0.015555563 -0.269316 0.30033198 0.53239745 0.6534562 -0.13468039 -0.60231555 -0.28578264 -0.3701138 -0.40418628 0.48264927 -0.5593397 0.55788136 -0.28164032 0.3143133 0.68770736 0.026096486 -0.4649823 -0.5739073 0.26486292 -0.5052023 0.22120216 0.37476254 -0.619224 -0.5027548 0.2931398 -0.3392878 -0.03923759
我 0.29958642 -0.5201564 0.1738061 -0.55699605 0.20412645 0.15850145 0.064500414 0.5962263 0.40969196 -0.4545412 0.57597524 -0.39048928 -0.85068613 -0.10812556 -0.25615442 0.79602826 -0.55737597 -0.06612733 0.8088616 0.6690731 -0.22316965 0.02263123 1.0295137 -0.13046563 -0.32066134 0.61093605 -0.47728357 -0.77204126 0.15068588 -0.51330644 -0.059400618 0.05789356 0.16683647 -0.11235536 -0.099535316 0.23447675 -0.30646762 0.2900195 -0.48220754 -0.29377925 0.64569825 -0.56213576 0.050362863 -0.24037598 -0.3765264 -0.61760145 0.2715665 0.07239689 -0.5779403 0.6262387 0.085477896 0.20754838 0.11212559 0.65419006 0.050364945 0.35563183 -0.5071959 0.2518266 -0.17943497 -0.59414166 -0.42604804 -0.45222512 0.26963425 -0.3587713 -0.7312349 -0.8776394 -0.4595545 0.71665406 -0.494419 -0.22781402 -0.50640917 0.56252706 0.44836366 -0.7947463 0.52121675 0.9387537 -0.5444073 0.36908758 -0.77257353 0.29733503 -0.5110684 -0.6361891 0.1617 0.31115413 0.4226152 -0.51872885 0.1054479 0.067333676 0.5129647 0.3331965 0.13013099 -0.23530547 -0.45945534 0.013951742 0.3681606 -0.1961011 0.601215 -0.17187993 -0.6920202 -0.54148966
路 -0.15181623 -0.5586227 0.6159447 -0.5869909 0.45540345 0.3681232 0.5031023 0.38510624 0.46092033 -0.73273396 -0.65566075 -0.22963803 -0.11674453 0.68919337 0.05247785 0.18145622 -0.66615564 -0.2839636 0.28929067 -0.16437295 -0.58731806 0.21663576 0.6023477 -0.2683064 -0.5104309 0.16167675 0.3177989 -0.11309023 0.19927068 -0.12600593 0.117197976 -0.41121358 0.26904008 0.44254187 -0.7007012 -0.29704732 0.1616749 0.3833364 -0.1488918 0.32212874 0.47756663 0.72072047 -0.312501 -0.18350874 0.3349023 0.35974488 -0.07683696 0.7821307 -0.17230985 0.7362211 -0.45433635 0.5703743 0.8617745 0.06411893 -0.27230197 -0.68450266 -0.7845497 0.3868179 0.069156095 -0.041554026 0.048865367 -0.1829046 0.065068 0.20990992 -0.39168653 -0.10072149 -0.3748628 0.1994641 0.5315011 -0.30807215 -0.2564465 -0.38802782 0.18606196 -0.45038998 -0.635987 0.299217 0.44281316 0.25117597 0.4779863 -0.17558704 -0.16871575 -0.285426 0.8189538 -0.116238 -0.42864516 -0.14435115 -0.68854964 -0.38996536 0.2219367 -0.2928956 -0.13983144 -0.7047616 -0.19518842 0.39881438 0.51068586 -0.25903478 0.8098088 -0.23323986 -0.12749723 0.6477879
在 0.44560495 0.021903172 -0.5308335 -0.17360687 -0.50417626 -0.19934464 0.022576133 -0.5885333 0.26000887 0.7036498 -0.24223705 -0.38723317 -0.19776921 0.5271284 0.28679234 -0.054515753 0.17373076 0.61069375 -0.37457687 -0.08663564 0.18917462 -0.8050039 0.33257934 -0.32531244 0.746545 -0.5934892 0.68261236 -0.0016309483 -0.7740165 0.64135134 0.8148338 0.6878529 -0.19994833 0.11216352 -0.6810522 0.54841304 -0.13684984 -0.40924025 0.18405336 0.060821116 0.5710448 -0.31758687 0.1243548 0.6090873 0.94975525 -0.12878454 -0.0063492977 -0.3562465 0.14827296 0.14199606 0.24843961 0.36715665 -0.5439509 -0.34041774 0.033019926 0.29249978 0.6464055 -0.3152989 -0.8894006 -0.48202318 -0.31976756 0.36942053 -0.14665668 0.35462818 -0.1306877 0.038418915 0.25907072 0.61220616 0.5006697 0.78922504 -0.73758686 -0.087394655 -0.63903475 0.23969641 0.24398181 0.74275595 -0.37407595 -0.36231762 0.29150233 0.49264038 -0.9548217 -0.12795232 -0.3479825 -0.045010876 -0.05937878 0.5670063 -0.085120484 -0.21893495 -0.13122654 0.67302716 0.21338266 -0.3184179 0.28770378 -0.33958486 -0.25939706 0.251582 -0.31608593 0.194744 -0.15818489 0.1710206
已 -0.0843273 -0.7510157 -0.6702982 -0.27273804 -0.06722414 -0.40184093 0.41466695 0.17495526 -0.081997894 0.4532044 0.18276487 -0.7861265 -0.1236994 0.30380666 0.12422772 0.36479038 -0.10432622 -0.34251872 -0.16026847 0.03988415 0.06296048 0.34507152 0.47320506 -0.16794352 0.4045184 0.61260027 -0.58585316 0.36068887 0.49354148 0.2910223 -0.1510178 -0.16759427 -0.09247669 0.20698567 0.00661807 -0.2647249 -0.041956674 0.6836781 -0.3058115 0.104959026 0.50130004 -0.18123725 0.01316643 -0.120998874 -0.61339533 -0.7060828 0.6587324 0.53135806 0.15863658 0.25763088 -0.00879467 0.12865198 -0.19274904 -0.07132857 0.597554 -0.70925057 0.26032063 0.43903926 -0.6611022 0.08976505 0.10627419 -0.28967854 0.26751056 0.109634645 0.633357 -0.24454196 0.4929477 0.61071557 0.30249625 -0.11872637 0.38949335 0.056689214 -0.073371135 0.43474287 -0.46521366 0.23778684 0.3266921 -3.4618937e-05 -0.22166574 -0.0451125 -0.0645609 0.55177605 -0.4455937 -0.57058907 -0.450618 -0.0720017 -0.47519496 0.17014453 -0.43731856 0.0053161904 0.3705655 -0.64761734 -0.15640667 0.36971438 -0.6636467 -0.26218763 0.23745695 0.017330939 -0.7820105 -0.6080846
得 -0.019459017 0.09564852 0.13655236 -0.055439398 0.19650099 0.32500792 0.60585207 0.7129376 -0.3084089 0.22675285 0.10755169 0.5339915 0.28601933 0.8029469 0.25298062 -0.30035815 0.091963224 -0.39394924 -0.5235005 -0.22016121 -0.31738272 -0.32278898 -0.24771942 0.2503729 -0.51793516 -0.9396178 -0.4214838 -0.23565944 0.22607073 0.8437915 0.23580733 0.21374705 -0.008514723 0.145196 -0.81553864 0.5062791 0.12209128 -0.5753649 0.016031517 -0.35139704 0.3006624 0.24078308 0.45524624 0.40930152 0.50189865 -0.23464294 0.060860224 -0.093406305 0.13507153 0.4388473 -0.793342 -0.08335244 -0.6459698 0.41308564 -0.12173903 -0.47341707 -0.6902517 0.57400656 -0.05814234 -0.70592403 -0.56083864 0.07434474 -0.30838454 0.26090094 0.10552878 0.10072206 -0.03658863 0.0064691585 -0.29045093 -0.12906714 -0.44561428 0.7003882 -0.019713117 -0.55091363 -0.0104992185 0.24985993 -0.37570685 0.252234 -0.18200065 -0.5242303 -0.42859414 0.48195326 0.18107247 -0.0044060596 -0.7294383 -0.34790808 -0.22233798 -0.37465307 -0.21767755 -0.50180364 0.4877983 -0.33028406 -0.06442916 0.24879624 -0.7788072 0.2559566 0.25153628 -0.5888682 -0.34197202 -0.4353435
所 -0.26700997 -0.3866604 -0.1909087 -0.31564054 0.112742744 0.03366098 -0.048336323 0.6733377 -0.11624787 0.6217915 -0.22611968 -0.4471007 -0.45563105 -0.3271429 -0.16728427 -0.28616044 -0.5728433 -0.58398205 -0.2441447 0.30119154 0.1563143 0.12022628 -0.21720494 0.19772561 -0.0049461243 -0.104464285 -0.8872413 0.39672816 -0.3273229 0.48566538 -0.86652464 0.49752447 -0.07554877 -0.061546933 -0.24901399 0.33743435 0.24006447 -0.6617013 0.09920379 -0.40876445 -0.628265 -0.17458695 -0.27002084 0.12908724 -0.15743522 -0.48093066 -0.03253552 -0.4908617 -0.014878676 0.39940876 0.7551056 -0.5470646 -0.4713241 0.5124183 -0.035104375 0.22104912 0.5403672 0.8007484 -0.38578868 0.24837005 0.11779986 0.06467773 0.20616043 -0.35790297 0.4720493 0.30224016 -0.0039059531 0.38511175 0.19631901 -0.3242586 0.29290253 -0.029130317 -0.6368039 0.008596585 -0.6127671 0.23460904 -0.1605023 -0.06659035 -0.58637875 -0.70908743 -0.27491868 0.7024133 -0.5811325 -0.26022467 -0.27524778 0.16452344 -0.046688702 0.01972164 -0.2151177 0.51660997 -0.052030586 0.33784008 0.56338054 0.15029733 -0.4726889 0.32424632 -0.17293814 -0.30109334 -0.16159207 -0.22364934
民 -0.40905654 -0.3425145 0.097602375 -0.3235428 -0.24927649 -0.101559654 0.2689213 -0.4240177 -0.08716748 -0.516081 0.16844986 0.6583249 -0.21437751 -0.22215503 -0.21575221 -0.14602597 -0.21883404 -0.4648795 -0.012651723 0.018957945 -0.28728032 -0.85742116 -0.3016077 0.3547661 -0.41216043 -0.24222374 0.52860737 -0.4523307 -0.4368454 0.21892169 0.07665288 -0.35452828 0.5453181 0.050096605 -0.20317785 -0.3883384 -0.5176818 -0.24807277 0.10161885 -0.35498777 -0.4949289 0.18038462 0.2015624 -0.7083736 -0.46126777 -0.39649895 0.2809965 0.09311035 0.016208049 -0.46499953 0.16635264 0.4463331 -0.45281112 0.2535181 -0.13967745 -0.4889738 -0.24935274 0.272103 -0.4062689 -0.11418715 -0.3994953 -0.057675146 0.32739925 -0.5164155 0.085803784 0.5065291 -0.10728154 -0.31258932 -0.19533306 0.28351402 -0.4419905 -0.033556715 -0.053878516 -0.2409058 0.008109085 -0.37487778 0.45950404 0.38727212 0.47836196 -0.45817474 0.4231709 -0.01682533 -0.1878691 -0.34164387 0.78507394 -0.2998735 0.5410399 0.2243043 0.21036309 -0.28291467 -0.17681728 -0.170748 -0.40137398 0.5294228 0.38628548 -0.2743361 -0.57289165 -0.30125543 0.14795041 0.5339935
小 -0.591022 -0.48275286 0.25098735 0.07330773 0.65093434 0.54707104 -0.14750308 0.038388293 0.1980681 0.5332127 -0.29654744 -0.04003152 -0.023394782 0.016239678 -0.051869657 -0.12252648 -0.46800655 0.05136028 -0.6202826 -0.013505815 -0.35065964 0.5895534 0.5291357 -0.25301138 -0.012293635 -0.33925748 0.07575717 0.54200625 -0.030871214 0.02721145 -0.5158312 0.44995335 0.049200878 0.51461166 -0.4806055 0.38261634 0.5380379 0.21928497 -0.029123778 -0.09248602 -0.34607568 -0.12674004 -0.5360388 0.5621855 0.029059362 -0.8292173 -0.18782258 -0.5405631 -0.054222316 0.08730935 0.555196 -0.43014348 0.008778918 0.46922705 -0.10967286 0.032601826 0.5991582 0.26754847 -0.019260494 -0.20976055 0.35395074 0.22288571 0.049979247 -0.03871147 -0.53118104 -0.38465792 -0.16904029 0.7142783 -0.5994649 -0.018962199 0.08827401 0.31532887 0.17060564 -0.76273936 -0.6398277 0.8315997 -0.4341107 0.32140023 -0.062230054 0.09357612 -0.6775066 0.023291241 0.007823674 -0.40527797 -0.5602251 0.39580515 -0.5753312 -0.33334497 -0.50076973 0.6359337 0.36960307 0.023076333 0.5919389 -0.43367732 0.05609144 0.36710042 0.45080367 0.08515187 -0.6782524 -0.51534265
天 0.22580698 0.21834958 0.3890591 -0.50539076 0.09506695 -0.13422945 0.1275726 -0.5799352 -0.24420129 -0.7287612 0.5486891 0.60103244 -0.7343752 0.21475427 -0.37434292 -0.03211262 0.37425554 -0.36482581 0.78177303 -0.63376546 0.55165786 -0.25188103 -0.41245475 0.2273568 0.0016630027 0.24127531 0.015201747 -0.83577013 -0.030089656 -0.74399537 0.76648235 -0.054995872 0.4530282 0.4299976 -0.29452676 -0.23137532 -0.3188401 -0.1441061 0.47631574 -0.0011377769 -0.3639937 0.26753986 0.030784411 -0.5572587 -0.48046768 0.30874386 -0.60147834 -0.76044303 -0.18495104 -0.18744883 -0.027894981 -0.20217471 -0.32061943 -0.2541418 0.13556595 0.5904876 0.14416252 -0.1209555 -0.4866123 0.31752267 0.22023132 -0.13307805 0.79120123 -0.6017857 -0.36336416 -0.056350928 -0.28756627 0.42741427 0.1936813 0.34378174 -0.5018974 -0.26530978 -0.30069593 -0.10962181 -0.15121844 -0.16766971 0.6684836 -0.23207574 -0.3344158 -0.34932765 -0.016671842 -0.047919206 -0.49620107 -0.18589441 0.58487856 0.16089909 -0.36257756 0.026081633 -0.32156143 -0.11653599 0.050420366 0.55098456 0.07092908 -0.023001827 0.13425791 -0.34904397 -0.4030298 0.7291689 -0.2737878 -0.19828244
乐 -0.2897223 -0.06354116 -0.21565473 0.056970384 0.17015405 0.038151074 0.07748353 -0.00648093 -0.012005054 -0.19169451 0.1995232 0.052180864 -0.3648742 -0.060081538 -0.13361982 0.042717446 -0.020440342 0.001791734 -0.010777497 0.008547706 -0.123432174 0.0043740096 0.15267754 -0.030086266 0.04917288 -0.22118163 0.044963215 -0.010352132 -0.15398978 0.138706 -0.048524972 0.062725864 -0.050064147 -0.03253846 -0.08342769 0.08800367 -0.28081125 0.032097753 -0.007384766 -0.028269058 -0.019211836 0.038511954 -0.06325357 0.1222327 -0.1734419 0.124766365 0.013441548 -0.10300591 -0.06664261 0.03277026 -0.02907468 -0.021253988 -0.16076843 0.29006198 0.048795197 0.008837531 0.006807032 0.09042404 -0.09803924 0.10141085 -0.16906725 -0.0217407 0.34738398 -0.009034093 -0.19371416 0.13321263 0.25984 0.054630138 -0.17959678 -0.011112123 0.28406742 0.03317858 -0.071438275 0.03876357 -0.5725912 -0.19486953 0.15773372 -0.2271506 0.052431215 -0.049163934 -0.44298238 0.0054018297 -0.056804594 -0.04780077 -0.057653405 0.19821419 -0.23846251 0.17427506 -0.27464393 0.06966028 0.017046329 -0.07104277 -0.07349162 -0.039185584 0.035856258 -0.051963374 0.04313981 0.0038222969 -0.1320121 0.104454085
邦 0.6412329 0.7614669 0.40887555 0.5547003 -0.08197306 0.28877032 -0.24001516 -0.34448203 0.04277367 -0.01428 -0.28130075 0.29736438 -0.6959446 -0.12223042 0.022816855 -0.20996125 -0.031865153 0.26503232 0.18462741 -0.48526028 0.24639289 -0.7416803 -0.5417492 -0.25910118 0.3575657 -0.21763355 -0.27556762 -0.51527894 -0.20606136 0.40144068 -0.24365143 0.4346255 0.017150698 0.73279417 0.46908006 -0.62251145 -0.02323155 -0.20654641 -0.2743718 -0.25850007 -0.8198303 0.4104112 0.6797041 0.011644836 0.26220953 -0.06658321 -0.7574367 -0.872505 1.4566021 -0.17283672 -0.007154668 -0.010245922 -0.065357886 -0.3031237 0.10135041 -0.85701144 0.7183237 -0.8174842 -0.21445967 -0.3896283 0.35714573 0.4110733 -0.0503399 -0.31405756 0.6503544 0.32095638 -0.2593592 -0.05297743 0.8391297 0.83695835 -0.4246495 0.23295146 0.37049952 -0.7072614 0.2531189 0.34283966 0.25038195 -0.7354293 -0.28719702 -0.4738947 0.039333437 0.512701 -0.17490155 0.6936549 -0.5657889 -0.4309731 -0.82909703 -0.6454971 0.017208312 -0.106153205 0.86071044 0.14311333 0.21275806 -0.45742625 -0.5636902 0.77431744 -0.8529676 0.7485838 -0.40195236 -0.8936843
亦 -0.2404639 0.39856726 0.5155764 0.5101175 -0.30001462 0.34857178 0.08359115 -0.10975259 -0.33061293 0.106434524 -0.5197795 -0.26538837 -0.23698045 -0.3785128 0.42426196 -0.3831504 0.34986168 0.2214578 -0.45347098 -0.5885559 -0.12692474 0.14824854 0.14356123 -0.6866199 -0.33254373 -0.13849501 -0.19275537 0.09481763 0.31323987 0.3320551 -0.014361487 0.9867496 -0.10557792 0.51848155 0.38477957 0.60625595 0.43233946 -0.122117385 -0.1511953 0.5131282 -0.62337565 0.41040125 -0.6320228 0.4638104 0.44367072 -0.10441017 -0.48201057 -0.24754499 -0.48371392 0.26633105 0.31937265 -0.28796047 -0.59161985 -0.3221162 -0.44978738 -0.291076 0.20731038 0.33783868 0.8472046 -0.033572514 -0.6717503 0.30746543 -0.1809334 -0.2198811 -0.16192558 -0.58179206 -0.41088158 0.13916644 -0.6023381 -0.31176838 -0.28383374 0.1862052 -0.44026574 0.61791694 -0.232816 0.60304564 -0.5075965 0.4915184 -0.017203579 0.052108265 -0.45816693 0.06028428 0.46292076 -0.4672157 -0.51385665 -0.52353835 -0.051220976 0.18183127 -0.29422337 -0.40272558 -0.11550355 -0.15142542 -0.5492157 0.31041107 -0.0046795234 0.521052 -0.3997866 0.42336777 0.33250898 -0.3184635
使 0.15050636 0.5257823 0.4446021 -0.7767451 0.35259482 -0.40442532 0.44571328 0.36980984 0.32533857 -0.49544382 -0.470197 -0.028445229 -0.78258485 -0.049682185 0.14642243 -0.29477444 0.2615307 0.23607887 0.18528306 -0.29355115 0.19233313 -0.2699342 -0.46023664 0.7482574 -0.21204188 0.0027167173 -0.23208642 -0.2093172 0.3060562 -0.27234018 0.31614706 -0.15759014 -0.18075086 0.3596421 0.06790158 1.0977422 -0.30084357 -0.30566365 0.8015305 0.4567696 -0.069887646 -0.5449487 0.69472533 -0.44148207 0.08656775 -0.008583128 0.8111438 0.5896033 -0.5492475 -0.07604996 0.21919474 -0.09249194 0.03029189 -0.54977894 -0.78966373 -0.27883154 0.07328449 -0.653703 0.5834714 -0.53328824 0.4063918 -0.4124453 0.13826226 -0.002672157 -0.6335336 -0.15268812 -0.49861673 -0.44842237 0.6626824 -0.19622922 -0.44573298 -0.38607684 0.5066459 -0.41927123 0.56794834 0.2349503 0.19894788 -0.30858088 -0.8755683 0.34335038 -0.5489779 -0.13980661 0.22945894 0.5855996 -0.0741278 0.014069709 0.34495494 -0.09851068 -0.0776718 0.00047530583 -0.5110701 0.5503669 -0.51173645 0.6672087 0.3158854 0.2420872 0.3720306 0.28407586 -0.74298024 -0.11659387
大 -0.5379679 -0.13416651 -0.1329277 0.5379414 -0.24724256 0.10465427 0.60130507 -0.25573885 0.23756507 -0.2804181 -0.35678455 0.63108665 -0.21286207 0.13171288 0.10194283 0.40007985 0.30277404 -0.0024578106 -0.1453603 -0.26648146 -0.14375837 -0.15353198 -0.3123154 -0.8706096 -0.3202581 0.20588069 -0.37557697 0.17003235 0.29742247 0.19944978 -0.31057435 0.40355462 -0.06426736 0.93461883 -0.64599365 0.23414607 0.32142797 -0.22660473 -0.4896748 0.37147325 -0.3365886 -0.31653348 -0.60441715 -0.16987808 -0.22481062 -0.3963936 -0.019723458 -0.32833412 -0.32080162 -0.026617415 -0.23844428 -0.3892182 -0.29041305 0.4088455 -0.048998296 -0.23887682 -0.3453625 0.58082604 0.29194978 0.42559874 -0.08233601 0.59731734 0.1696227 -0.15469429 -0.19538549 -0.38516244 -0.39832917 -0.22669557 -0.8016374 -0.11398503 -0.2970862 -0.01753754 -0.2735376 0.091593705 -0.7646546 -0.07847307 -0.5545297 0.26283926 0.18148899 -0.45416665 0.23985839 -0.2753713 0.34711778 -0.54158545 -0.14725599 -0.42455795 -0.012095514 0.53762895 0.667429 -0.6405819 0.6415239 -0.061469465 0.011313609 0.3650626 -0.4068925 0.25156438 -0.41288188 0.23139443 -0.07328139 -0.43530795
下 -0.22349283 0.50984466 0.35184163 -0.91760683 0.3031635 -0.68552005 0.4143574 -0.09460111 0.26151595 -0.12281417 -0.39251313 -0.025527747 -0.3132564 -0.4030098 -0.62770814 -0.1768402 0.2705916 -0.75808716 -0.08126903 0.29800084 -0.5212135 -0.16514291 -0.4428556 0.29863274 -0.43469223 -0.22117585 -0.017428385 0.058660965 -0.3293756 -0.4266454 0.32505345 -0.5865776 0.33885407 0.25047654 -0.10117659 -0.39699093 0.37053746 -0.094930924 0.58205324 -0.27847806 -0.020039065 0.21818179 -0.9714253 -0.53299326 0.13227026 0.11148373 -0.760769 0.5725159 0.093190596 0.27963394 -0.8967101 0.36305475 -0.08435639 -0.46611536 -0.25830868 -0.14820828 -0.31132215 -0.11594133 0.5882741 -0.33099017 -0.10923632 -0.7658105 0.002909083 -0.3756549 -0.38858658 -0.40447184 -0.4067173 0.5797549 0.012636588 -0.05953633 0.36732545 -0.108392805 -0.40193382 0.038054302 0.052199636 -0.47832578 0.10363393 0.80328304 -0.751706 0.15233234 0.6936646 -0.452191 0.43407196 0.13466169 0.51441216 -0.29548085 0.42864126 -0.23411134 0.030273773 -0.50505334 -0.7576023 0.051603492 -0.22547145 0.010991927 -0.2920999 -0.040934477 0.44205633 0.6557158 -0.3032204 -0.5368815
贡 0.21867661 -0.31061703 0.538054 -0.3990418 -0.15645601 -0.15636837 0.28789666 -0.618794 -0.03593319 -0.84339744 0.3478497 0.7255381 -0.48014218 0.18118222 0.9328758 -0.41674373 0.10500396 0.073211655 0.13782577 -0.71182424 0.3805103 -0.4557476 -0.270273 -0.066043064 0.059852466 -0.1933514 0.83016026 -0.07272826 0.00013523137 -0.33236966 1.0643852 -0.20009804 -0.14627136 -0.26376742 0.3430227 -0.44443533 0.14619206 0.76111925 -0.09170559 -0.29147163 0.19576441 0.76187986 -0.38978043 0.22261713 0.065476425 0.7611262 -0.25851578 0.63541883 -0.057649456 0.32515642 -0.24112408 -0.30473828 0.5656083 -0.17570068 0.38029212 -0.0043259514 -0.48391068 -0.18219979 -0.2971314 -0.42687005 0.30033955 0.1651166 -0.66393745 0.25386766 -0.74984956 -0.43100893 0.2732075 0.65305156 0.072551295 0.57404435 -0.85899943 -0.65388817 0.7619659 0.23468341 -0.29157025 -0.5716267 0.1422644 -0.041832604 0.783217 0.28586984 0.20090367 -0.63849795 -0.055294745 0.07660363 0.043860666 -0.042089805 0.07668925 -0.9094879 0.44065496 0.34301603 0.2713767 0.24796367 0.22218017 -0.2699782 0.6100488 -0.16410224 0.35695368 -0.78975725 0.4040107 0.059290413
欲 -0.07386509 0.25454274 -0.045903035 -0.34850177 0.5863439 0.119384654 0.14689331 0.7447438 0.54413 0.07063288 -0.10436097 -0.13155104 0.062838085 0.31061104 0.31997424 0.76007026 -0.46048748 0.42508903 0.22394508 -0.4513465 -0.11955008 -0.34097072 -0.072882846 0.43250498 -0.7442522 0.10949985 0.093431756 -0.0008619601 -0.12010611 0.15093619 0.24781911 0.55463094 -0.4982885 -0.6649667 0.27987063 0.6865648 -0.2137492 -0.09620748 0.7462985 0.11500231 0.647994 -0.09012833 -0.19014934 -1.2923492 -0.7980772 0.11057902 0.13947333 0.7799321 -0.18934461 0.11027254 0.59247106 -0.5680033 -0.06421876 0.030833872 -0.41664472 0.37375787 -0.124636315 -0.52065206 -0.13880695 -0.9397033 -0.43506095 0.053788166 -0.36820245 0.44891024 -0.049828686 0.02028535 0.15542449 -0.33808562 -0.32835522 -0.13760415 -0.051786095 0.08378691 0.5702242 0.1761617 -0.21140407 -0.53854275 -0.70959526 -0.041671608 0.71809983 -0.5536292 0.49328148 -0.012061893 0.30637446 0.19396408 -0.08280572 0.072313406 0.62405205 0.03132673 -0.050118685 -0.29489538 -0.08889144 -0.699495 0.026450222 0.17328233 0.5996967 -0.57771575 0.17595078 0.08230397 0.0692415 0.81133664
诸 0.04329846 -0.86656225 -0.19913627 0.69090194 0.18006353 0.42327416 0.24821654 -0.3929597 -0.18549816 -0.06564156 -0.39070418 0.27824518 0.0020825434 -0.19365507 -0.24042326 -0.33520442 0.28685498 -0.19210094 0.35260785 -0.6502684 0.30667996 0.3914955 0.18348664 -0.6908051 -0.13040069 -0.03250362 -0.5359168 0.047614086 -0.35403574 -0.3066784 0.7402833 -0.1878691 0.6172449 0.41134724 0.07732115 -0.54435927 -0.30120394 0.6056687 -0.5534883 0.3430109 0.13947168 0.5065641 -0.7254358 -0.59059185 -0.19381136 0.39829603 -0.05880734 -0.31476817 0.3768737 0.31532967 -0.20379302 0.6634262 0.5781288 -0.60983986 0.2006961 0.24079701 -0.6497686 0.11674381 -0.40875232 0.35928097 -0.46419492 -0.10452242 0.33181638 -0.7120429 0.28764483 -0.19689672 0.4362646 0.40268493 0.4707265 -0.36757293 0.1603714 0.15671587 0.17399101 -0.37296036 0.1358507 -0.5569494 -0.65475243 0.32857263 0.2894279 -0.025145382 0.6980789 0.70740104 0.03679353 -0.370812 0.4705274 0.10732265 0.26475888 0.12062426 0.15373024 0.069032535 -0.037652906 -0.092558265 0.49780205 0.23063506 0.5546372 -0.071167186 -0.36109978 -0.21728615 0.65804774 -0.5963956
从 -0.012509713 0.18752003 0.76462007 -0.6742228 -0.25074708 0.05367696 -0.24696903 -0.16075154 -0.7997574 -0.02734548 -0.042212453 -0.027647339 -0.7409275 0.10443939 0.8104568 0.82941383 -0.70424664 0.33777577 0.24111158 -0.68121254 -0.17192987 -0.32224154 -0.048401907 0.6794657 -0.5014403 -0.90251434 -0.7228635 0.10613841 0.55218804 0.29645082 -0.835519 0.10557887 0.5622357 -0.08384364 0.17214611 0.3926983 -0.35807037 -0.13061522 -0.18529794 0.085858524 0.4474676 0.6038757 -0.0912358 0.2844782 -0.14151698 -0.2533865 0.10444242 -0.42038712 0.4235521 0.09849067 -0.14144531 -0.16345496 -0.4902287 0.39684343 -0.28029457 0.21177517 -0.5172099 0.27284044 0.5648339 0.24729368 0.25392482 -0.043852314 -0.3436157 -0.22187366 -0.46684453 -0.09339812 0.19601764 -0.19082786 0.0865819 0.27869138 0.024078952 -0.26472434 0.5801059 0.050595563 -0.31870484 0.70178026 -0.78394663 0.21025269 -0.37950286 -0.40840578 0.40130794 0.30299303 0.044958774 -0.7736068 -0.079220876 -0.06813163 -0.8302019 -0.43132055 0.25251612 -0.4247897 -0.51177686 -0.20220971 0.12786306 0.22903572 0.14803907 -0.24191852 0.32926866 -0.8319467 0.10595208 0.2833046
文 -0.3418826 0.07996974 0.13134699 0.1463739 0.13023394 -0.32345828 0.23457982 -0.19068588 -0.18697824 0.010235207 -0.27285203 -0.06945318 -0.17111805 0.3008911 0.0830342 -0.60803086 0.15938587 0.09910088 -0.68976057 -0.6947169 -0.4252988 0.32325667 0.7468823 -0.43739194 -0.37618843 0.6365799 0.18810892 0.1273932 0.1986477 0.14976285 0.63795614 0.109256275 0.3667816 0.37445953 0.7883842 0.03302297 -0.22827345 -0.02228269 0.10344649 0.3968481 0.29992157 -0.112447 -0.059473556 -0.18930036 0.6964773 0.0076083215 0.08844801 0.08114542 -0.2837599 0.34356508 0.6448026 0.23309635 0.56313735 -0.3799996 0.7302268 0.27273723 -0.26877666 -0.18890624 -0.39049318 -0.37154394 -0.7434044 0.24465348 -0.06408003 -0.40232107 0.40423673 -0.12932923 -0.06722499 0.1564059 0.63986623 -0.54439145 0.2481482 0.17001408 -0.6764148 0.34981623 -0.2071051 0.1596549 -0.7031868 0.47187144 0.13826992 -0.5308983 0.67506486 0.07351966 0.39490178 -0.49244177 0.74923015 -0.66944903 0.61089313 0.46725944 0.5265844 -0.71804976 -0.72212714 0.39324075 -0.04706743 0.3785134 0.7066485 -0.1393917 -0.1509354 -0.19477047 0.055913273 -0.3834497
政 -0.08803257 0.7311294 -0.4275246 0.0001732074 -0.43420377 -0.47271514 0.08930095 -0.39041364 -0.748843 0.33827555 -0.3395875 0.75327617 -0.36289102 -0.22673036 0.62012446 -0.33793578 0.7555303 -0.56412745 -0.61255354 0.256314 -0.5853359 -0.12726527 -0.3603626 0.34649345 0.06911378 -0.6088302 -0.17238641 0.3495088 0.05789583 0.5937642 -0.5142299 -0.36159104 0.32016784 -0.17619887 -0.7228174 0.80103165 0.7781906 -0.4480738 0.36216933 -0.32442123 0.22244222 0.040309403 -0.06787534 0.78389573 -0.018801615 -0.28804278 -0.19828928 -0.3656284 0.7939715 0.13899164 -0.053496286 -0.12594385 -0.71149105 0.20581514 0.7574578 0.17805393 -0.1145257 -0.8314608 0.46932468 0.4548264 -0.64592576 0.42699558 0.51511854 0.49219328 1.1355201 0.67261136 -0.21237506 -0.11008194 0.89456445 0.47986904 0.11237935 0.3515844 -0.60853976 0.33745793 -0.15138435 0.101672776 -0.43166918 -0.63376963 -0.73278666 -0.21799229 -0.43437967 -0.56155884 -0.46860915 -0.10307974 -0.022135682 0.19106884 -0.33436278 -0.019367926 0.5139797 0.87802166 -0.41442794 0.16467877 0.4276059 -0.19635245 -0.33659282 0.080026425 0.48605448 0.18411024 -0.66294956 0.44179365
食 -0.62988234 -0.2748112 -0.40568215 0.12133633 0.11292572 0.18839465 0.211161 -0.43928576 0.09175812 0.52844685 -0.08796199 0.17989822 -0.017410444 -0.45788023 -0.37344265 -0.6178418 -0.05940625 0.30310762 -0.3182536 0.48732147 -0.32245153 0.45320326 0.094795875 -0.3527771 -0.317457 0.64737314 -0.017573798 0.5249873 0.67323226 0.017535942 0.09363019 0.3391599 -0.4725022 0.50983655 -0.18199213 -0.027294857 -0.11579699 0.24313253 0.2831404 -0.13979992 0.5950047 -0.20413682 0.62434626 0.46444887 -0.12183845 0.5061135 -0.35812673 -0.33501816 0.5094067 0.27637827 0.66054994 -0.8166406 -0.51746583 -0.8234225 -0.57614887 -0.18611746 -0.470329 -0.5325618 -0.46356064 0.7485117 -0.46964562 -0.5817026 -0.46522915 0.42597118 -0.19916046 -0.08456194 0.46253547 0.137039 0.18177219 -0.51635295 0.43999538 0.14191431 0.60900974 -0.6549254 0.12533058 0.11869789 -0.06767522 -0.51467407 0.3352396 0.64669955 -0.5920414 -0.081331335 -0.18579848 0.14351788 0.012564479 -0.20370615 0.32555088 -0.04666845 0.063758746 -0.33069748 -0.2852378 0.5096806 -0.008033465 0.17596792 -0.14101464 -0.49099576 0.3225146 -0.34561864 -0.334498 -0.35237664
善 -0.44617906 0.58749664 -0.5661527 0.1477229 -0.013023198 0.19518694 0.3152554 -0.22445817 -0.012714446 -0.14117065 -0.3477869 -0.13378854 -0.75048935 0.51239175 0.34523574 -0.09680499 0.55868495 0.37804618 -0.50729775 -0.44907853 0.09297824 -0.09444993 -0.2860472 -0.72794414 0.6933924 -0.7038322 0.27086678 0.10365607 -0.3663621 0.5973637 0.41447768 -0.6526551 -0.5462969 -0.38447455 0.51093584 0.016147902 0.30493262 -0.48789054 -0.13837186 -0.0773644 -0.4553623 0.41151804 0.44834557 0.4794738 0.097501546 -0.68799466 -0.13490856 0.2564431 0.27960497 0.28323412 0.2533128 0.05642274 -0.28753927 -0.49436107 0.010826071 -0.15858425 0.18222483 -0.5760067 -0.11391126 0.2372198 -0.47015175 0.34453297 0.28141278 -0.27537417 -0.20491995 -0.14692032 0.730378 -0.2553989 0.32622615 -0.5314104 -0.69322014 0.12634009 0.3065988 0.46212044 0.04739268 0.01979553 0.44937322 -0.1985663 0.19509253 0.47587165 0.46656886 0.5051192 -0.568999 0.45243263 0.12281597 -0.4760569 0.21746741 0.1749721 -0.6498847 -0.3073392 0.35960144 0.45985773 0.032569084 0.3963179 -0.17444608 -0.21300022 0.1753386 0.29747856 0.3367231 0.11651662
后 -0.5346333 0.40083617 0.15383351 -0.017140888 -0.1366192 0.33969468 0.662811 -0.037622474 0.030734638 -0.4462012 -0.104405865 -0.01959555 0.21921504 -0.24028935 0.017776137 0.4013259 0.6654926 -0.5147393 0.11038353 -0.17685907 -0.4032432 -0.103402995 -0.15569593 0.7679268 -0.85262215 -0.22149941 -0.18161672 0.215321 0.10624725 -0.40269193 -0.2105545 0.007744281 -0.4154292 -0.030342149 0.17294744 -0.5806236 -0.12517892 -0.09851219 -0.1947962 0.04496097 0.17574283 0.07119964 -0.5088368 -0.040649306 -0.68837744 0.02117231 0.073297285 -0.35606182 0.0067492276 0.066975266 -0.031172473 -0.5887933 0.43811202 -0.13260259 -0.56610125 -0.60347044 -0.16100404 0.065512896 0.1338602 -0.7712555 -0.5244945 0.059499834 -0.025973037 0.24805515 -0.047847923 0.2857513 0.3029685 -0.2445826 -0.9617642 -0.64180785 0.014219316 -0.032685276 0.36444867 -0.7687485 -0.1595552 -0.23893093 0.089581 -0.5534441 0.54047143 0.2413732 0.31356052 0.37030238 0.076944776 0.65791047 -0.5549957 0.18536735 0.02312202 -0.007713927 -0.9478396 -0.603303 -0.07258781 -0.14493024 0.15980248 0.30258706 -0.106900774 -0.36162838 0.37167737 -0.21341798 -0.28921783 0.07823352
德 0.12290912 -0.4071414 0.3195788 -0.37583104 0.12706456 0.05157638 -0.45830166 0.62927586 -0.064908855 -0.51245654 -0.4251499 0.023901979 -0.47346586 0.5755791 0.18520582 0.3329571 -0.2037172 0.11065228 -0.045853604 0.4785336 -0.036762234 -0.41147754 -0.4094066 -0.3669973 0.20239528 -0.3075512 0.31111452 -0.04373883 -0.2735228 0.14235172 0.28580812 0.37681982 -0.51394695 -0.39716592 -0.4188817 0.2700495 -0.425229 -0.015624449 0.013057221 0.0015123802 0.009354691 -0.3238024 0.44431564 -0.27893397 -0.037531782 -0.19045997 0.5508662 -0.40253332 -0.32135218 -0.4445467 0.011928441 -0.6456034 0.4449557 -0.03638843 0.13412693 0.3403897 0.29662293 -0.45846596 -0.50313306 -0.08080399 0.05991676 0.012775199 -0.2548498 0.51675546 0.0632203 -0.06320391 -0.038051773 -0.27177507 -0.31245178 0.30850258 -0.28938934 0.4900112 -0.25038236 0.4493487 -0.35561123 0.13864963 -0.17497894 0.34879014 -0.30966327 -0.5257427 0.006990648 0.20302266 0.59718376 0.06869456 0.31334606 -0.5638401 0.03992134 -0.37469283 0.12439576 -0.0056955735 -0.3081003 0.075625986 0.44775972 -0.03889413 -0.16903442 0.44183287 -0.32399988 0.36411092 -0.011449558 0.4183894
求 0.36896598 -0.3262132 -0.103493296 -0.4136526 0.069779254 -0.033563983 0.44628313 0.0745674 0.7665251 -0.72543097 0.16609097 0.13839333 0.17496167 0.0929694 0.12632255 0.44557798 0.0410708 -0.22300391 0.35687774 0.7157701 0.3617384 0.37081802 0.4826789 0.57986236 -0.19272345 -0.20102955 -0.24582194 -0.72284305 -0.867098 0.40144274 0.22397575 -0.46591043 -0.63366383 0.5325215 -0.25660506 -0.4648699 -0.10375621 -0.11740875 -0.51537395 -0.26451942 0.49391928 -0.058272272 0.21898082 -0.111811996 -0.020539207 0.7421968 0.8273334 0.25671154 -0.27780592 0.12539092 0.15615977 -0.53284305 -0.36743155 0.2180331 -0.17344093 -0.080108985 -0.70625824 -0.6253535 -0.6364737 -0.2645217 -0.29806808 0.4478094 -0.24960122 0.59917265 -0.018756574 0.11839414 0.124418065 0.32504034 -0.10908165 0.38200083 -0.13773763 0.14723611 0.86552954 0.33171302 0.2598542 0.47684702 0.3598866 0.4846121 0.35651994 0.8504699 -0.3455125 -0.5295465 0.19371724 0.012771311 -0.8262657 -0.03742193 0.48569566 0.26448596 -0.101870544 -0.2335994 0.69210017 0.64611363 0.18042876 0.598977 0.5128092 -0.4667299 -0.16222723 -0.20225775 0.40159386 0.297918
对 0.46271536 0.67205405 0.6066853 0.611603 0.89667517 0.15689251 -0.086561255 -0.21081454 -0.5124582 -0.8169904 -0.7225801 -0.5775618 -0.06677067 0.0033507096 0.41465986 -0.6570383 -0.11580431 0.022954782 -0.66264826 -0.5259637 0.30823871 -0.016817281 0.091544874 0.35826644 0.09886338 -0.8214069 0.9854579 0.09296464 0.0033854933 0.6978389 0.6805504 -0.24636623 -0.30176106 -0.01760833 -0.043709885 -0.22137915 -0.3234492 -0.0025525782 -0.22860637 -0.4264057 0.079071075 0.20607987 0.528861 -0.0387529 -0.7044387 -0.12558429 -0.20412542 0.3458134 -0.45178512 0.086492315 -0.3557118 -0.6234553 -0.3024432 -0.5682605 -0.27491948 0.025681356 0.7990842 -0.39288256 -0.34299648 -0.53844416 0.9213533 -0.10103673 -0.2637627 -0.18983258 -0.02438946 0.2629427 -0.6690468 -0.16355205 0.58984387 -0.35902917 -0.32178286 0.68226194 0.53692573 -1.060903 0.9712044 0.22088198 0.38612923 -0.57955277 0.40587732 -0.5407533 -0.12684491 -0.112758614 0.46685266 -0.06238569 -0.10504445 -0.23247117 0.60306364 -0.6939556 0.2916097 -0.7853933 -0.22427133 -0.17728971 -0.23830949 0.2460147 0.6041048 0.35666093 -0.4043161 0.8696271 0.5311019 0.39628318
恶 0.5460915 0.05460452 -0.036448304 0.0041565495 -0.043729063 0.31901327 -0.59773546 0.78304213 -0.6164946 -0.40876287 -0.6302544 -0.80125356 -0.108023204 -0.30237323 -0.5346821 0.08044161 -0.5271037 -0.21949406 0.17209363 -0.67479235 0.09117384 0.38965437 0.033511896 -0.12476658 0.08937589 0.04823627 -0.4162386 -0.118785724 -0.00927858 0.44422913 0.8213649 -0.05188511 -0.08312518 -0.23955843 -0.15674166 0.5864664 0.04857796 -0.40079194 -0.22310634 -0.027191442 0.046051975 0.1644274 0.020448307 0.71918476 -0.23518212 -0.026909774 -0.32599825 -0.42091385 -0.7491123 0.09118923 0.017820297 -0.3985835 0.018201735 0.30425355 -0.13327618 -0.839839 0.44637033 0.13851136 -0.19155268 0.54853565 -0.28790203 0.08378924 -0.8366417 0.19531114 -0.18116292 0.33875167 -0.37247974 -0.29128155 0.07100717 0.28005767 0.17299438 -0.20506386 -0.23756632 -0.7274751 0.27056718 0.5776759 -0.2665247 -0.45064625 0.052681446 -0.6316482 -0.6062703 0.08714894 0.2553363 -0.78326344 -0.12222724 -0.12325065 -0.32077533 -0.44436666 -0.2281844 0.58008283 -0.12718986 0.59016085 0.29262295 0.20000659 0.63701 0.2291573 0.3142807 0.14732808 0.22738892 0.85430306
信 -0.018200556 -0.26836398 0.08197144 -0.00066844246 -0.011098508 0.43398032 -0.49938866 -0.120686606 0.4014483 -0.51940185 -0.25780538 0.026250442 0.2955927 0.4859772 -0.19356914 -0.5755455 0.44479233 -0.09893716 -0.0520862 0.36213347 0.9110771 0.3533702 0.108552694 0.03272995 -0.017136712 0.15756124 -0.115321286 -0.6942512 -0.061749373 -0.55503863 0.27069417 -0.26113686 0.0643282 0.6041529 0.28984022 -0.22558732 0.014409561 -0.45061558 -0.8095872 -0.11318276 -0.7716865 -0.06570349 -0.42952004 -0.53428924 0.31124339 -0.47931468 -0.06593878 -0.01665617 0.24021865 0.051188413 -0.7577586 -0.19013171 -0.12001961 0.3195365 0.43301475 0.5461635 -0.3608962 -0.60484254 -0.2868638 -0.47327715 -0.039374862 0.16276285 -0.40043908 -0.75349194 0.11749839 0.49194425 0.36125866 0.12126523 -0.2627628 0.058796957 -0.6360936 0.07495831 0.19142923 -0.00060459145 0.24008252 -0.6925586 0.43625998 -0.75789064 -0.08696564 0.32621568 -0.45973372 -0.23904589 -0.19444382 -0.24244602 -0.36574337 -0.089540586 -0.23075831 0.8275001 -0.066673376 -0.70256 0.6298737 -0.2602167 0.17431106 0.7530994 0.6406423 0.13827518 0.15093713 0.5771151 0.09721522 -0.29877213
死 0.04779053 0.8208582 0.64979243 0.3442137 -0.03774367 -0.2148668 0.22966932 0.08870104 -0.5572547 -0.07371752 -0.14148057 0.08478218 -0.075274505 0.1334824 -0.23612687 -0.16220286 0.041426312 -0.062250517 0.21900612 -0.118848555 -0.08970963 -0.06380422 0.40877953 0.5899652 -0.6105099 -0.7609067 -0.3059985 -0.12418008 -0.111439675 0.039346937 0.13475786 -0.3759767 0.27871144 -0.2717832 -0.14154585 -0.13214378 -0.1493497 -0.018285621 0.7348566 -0.42176798 0.357469 -0.030891651 -0.09571632 -0.64183724 -0.35060886 -0.70725745 -0.23271082 -0.06761896 -0.09191144 -0.7333341 -0.03350817 0.117932685 0.09802767 -0.21672496 0.1974182 -0.44150037 0.22193642 0.4700953 0.7169709 0.82357717 -0.075808525 0.09509411 -0.3906254 0.6054058 0.818983 0.047135245 -0.5339968 -0.24808238 -0.021606473 0.74661314 0.29182044 0.8267633 -0.07494301 -0.26567143 -0.03747993 0.86981493 -0.15791605 0.24641682 -0.6447604 -0.124988295 -0.12874141 -0.26324856 0.5736827 -0.35323608 0.076944895 -0.7398828 0.074708186 -1.1284156 0.28704953 -0.5461314 -0.642663 -0.07444092 -0.8290937 -0.30138358 0.26575586 0.62863535 0.06137036 -0.13306665 0.33661824 -0.15161814
然 0.035835203 0.25638083 0.5644298 -0.17331956 -0.3066036 -0.025950043 -0.06374629 -0.61487716 -0.02295892 0.060851775 -0.02479304 -0.089839235 -0.4106776 -0.015453611 -0.0362399 -0.5332199 -0.24626595 0.076009184 0.5392468 0.69126433 0.5824894 0.4719086 0.22138359 -0.44097614 -0.3361361 -0.25498068 -0.033891447 0.00327421 0.099250406 -0.08395868 -0.023149412 0.45098516 0.5782041 0.067171626 -0.094087444 -0.59368265 0.46312252 0.5117169 -0.04690627 0.21774574 0.53508556 0.6107221 -0.3655239 0.15161736 0.57232416 0.80434924 -0.5990628 -0.2642585 0.40405977 0.09374489 0.112816855 -0.07291312 -0.4659102 -0.05287323 0.2606942 -0.48637724 0.6898919 -0.4830945 0.019638874 0.48773912 0.6703976 -0.2349262 -0.5106469 0.049706753 -0.051029667 -0.029283367 -0.35029468 -0.036249723 0.25954765 0.57031995 0.05294037 -0.058079056 0.6183163 0.5511505 -0.47119212 0.4591282 -0.28329417 0.54753053 0.0053317854 0.013795329 -0.5877842 -0.03454323 0.2994453 -0.047586814 -0.15189622 -0.2637047 0.34541252 0.56782615 0.25269178 0.03174721 -0.34792578 -0.0025399993 0.5936359 0.16074489 0.58447284 -0.010029765 0.58836526 0.16738376 0.33959255 -0.117765315
《 0.4118217 0.3022674 0.067348726 0.44180992 0.41827434 -0.09209134 0.42251843 -0.5384228 -0.1435893 0.2297706 -0.840747 -0.22813296 -0.44126707 -0.21804236 -0.5212224 -0.5559999 -0.37198114 0.44991463 0.025020989 -0.28841907 -0.3454108 0.08557395 -0.88806784 0.32795385 -0.47416475 -0.13571057 0.17297092 0.09201244 0.8105262 0.12852147 -0.3529732 0.084719114 0.78722984 0.13643551 -0.6389065 0.20263875 0.37372217 0.8217464 0.1749488 -0.09566085 0.24807283 -0.2781608 0.31368005 0.71502477 -0.0839206 0.20953001 0.025436236 -0.6497478 0.5756016 -0.43551055 -0.39553112 -0.31309047 -0.35165337 -0.034333553 0.18842933 -0.47731224 0.8089764 -0.047258243 0.3751539 -0.5661196 -0.18374726 0.010376422 -0.13269521 0.08834401 0.91054755 -0.13036206 -0.2312045 -0.046476718 0.45450038 0.75633395 0.46726882 -0.02350784 -0.43382558 -0.5375814 0.07094286 -0.08438878 0.16241422 -0.04932058 -0.17978942 -0.2625852 -0.40901077 0.035432797 0.062077917 -0.3399919 0.26786834 0.40954283 -0.6229734 -0.25832942 0.18477102 0.20764558 -0.6091184 -0.09739897 0.08243217 -0.18961495 0.22998211 -0.4467741 -0.6804432 0.70202523 -0.1666587 -0.92397785
》 -0.24432527 0.7996436 0.006535549 0.68469673 -0.36549604 -0.21981855 0.6084758 -0.35210595 -0.40341556 -0.075438395 0.20156701 -0.68753916 -0.051731303 0.12664121 0.6219994 -0.78591317 0.34443748 -0.15908098 -0.2769753 -0.049443867 0.41474375 0.58223635 0.49494636 -0.2496757 -0.0058124177 0.23309653 -0.31474835 -0.32894397 -0.5956384 0.31231615 0.37948474 0.11379893 0.10651839 -0.026556259 -0.3977203 -0.59964085 0.1473349 0.2959706 -0.79483366 0.46577683 -0.55777025 -0.06655634 -0.11972511 -0.64569616 0.47932723 0.5295735 -0.08698653 0.61018544 -0.5902473 0.46542573 -0.25127137 -0.1606539 0.28511718 -0.5252107 -0.31638378 -0.45085242 -0.44959182 -0.0443755 0.49689716 -0.14556985 0.17467093 -0.77249223 -0.509233 -0.26480094 -0.07344892 -0.5130377 0.10595936 -0.11909397 0.20316246 -0.15355632 0.20275995 -0.6300077 0.2578795 -0.1000621 0.20413955 -0.35357502 0.5447367 0.5941444 0.325817 0.087364525 -0.19642118 -0.49050748 0.71474344 -0.003184706 -0.18356986 -0.2917453 0.23544984 0.6931606 0.16171688 -0.5762401 -0.06677495 -0.5003444 -0.2832813 0.20378862 0.55049956 -0.64631337 -0.56952834 0.2597705 0.57993126 0.35619947
由 0.04704988 0.7051656 -0.18113354 0.4025552 0.7143442 0.5435091 -0.033038773 -0.40490544 0.48569214 -0.038120218 -0.10053149 -0.07435767 -0.19084135 0.30439302 -0.04924232 0.41240188 -0.07024625 0.47558892 0.6467782 -0.5530673 -0.034453597 0.13958675 -0.09438324 0.369811 -0.12334851 -0.25207663 0.2901679 -0.4818266 -0.45508778 -0.7555158 0.12831788 0.6118723 0.73919696 0.7402393 -0.066496745 -0.13441508 0.03735876 0.6297207 -0.14889656 0.49124244 -0.068622276 0.07721251 0.516482 -0.16388564 -0.47781974 0.2791066 -0.6112851 -0.40703624 0.18669721 0.24155931 -0.689532 0.7246589 -0.0070713595 0.2092571 -0.23625782 -0.7127264 -0.24125028 0.06039139 0.16157179 -0.15998812 0.7973589 -0.19694354 -0.3523118 0.10061016 0.70450926 -0.6699886 -0.3284766 -0.69749016 0.33292255 -0.2205089 0.21704678 0.20864893 0.56992126 -0.54358125 0.3086492 0.05719371 0.3201255 -0.12212171 0.5012116 0.69599503 -0.4307213 -0.12651615 0.66565657 -0.7328256 0.72245806 0.4485223 -0.62217206 -0.1853341 0.19192779 -0.6697888 -0.67008424 0.13448237 -0.052562486 -0.050208 0.20898046 0.41047156 -0.2785478 0.23587848 -0.54961723 -0.59268486
