1352 100
， -0.5755209 0.47981527 0.559003 0.25580633 -0.29449734 1.308117 -0.19835193 0.13552639 -0.094545834 -0.99968207 -0.3481997 -0.49318013 0.35637334 -0.06521624 0.21047017 -0.430021 -0.16653723 0.7899412 -0.19261281 -1.1550454 0.5195577 -0.109419525 -0.20449103 1.4509798 -0.11143274 -0.15645099 -0.30997163 0.7648441 -1.168062 0.57159024 -0.91030914 -0.67575 -0.5840823 1.2651588 -0.16405588 0.5745148 -0.071541265 -0.08304618 -0.23865907 -0.5498458 0.48495466 -1.1842295 0.82628614 0.75601107 0.50224257 -0.58476776 -0.30196005 0.483368 -0.04997 -0.73449856 0.17255853 0.4234445 0.20219219 0.27250963 0.50688213 0.9681144 -0.11553393 0.91755295 0.697758 -0.9465372 0.9643139 -0.1969292 -0.15284322 0.47966832 0.23614523 1.5139077 0.28771305 0.69627506 0.37117088 0.40964317 0.88896656 -0.832044 0.22448984 0.27684194 0.0266949 -0.9721528 -0.62679476 -0.62729704 -0.20394793 -0.53070503 -0.045675892 0.35514712 -0.10214 -0.42748004 0.774419 -0.60990894 -0.7143158 -0.41837487 -0.26730144 -0.5942492 0.9295716 1.4563992 -0.8342233 -0.23496945 0.48593944 -1.158713 0.15553868 0.097275324 -0.032589708 -0.05646486
子 0.1408061 -0.44907236 -0.07388362 -0.847914 -0.63538426 -0.74288416 -0.24330503 -0.67803544 -0.08935628 -0.0105081415 0.2694739 -1.3531816 -0.4612416 -0.39160436 -0.20885302 0.46060824 -0.7373032 -0.16726331 -0.3251693 -0.52323824 -0.8390403 0.5923499 -0.65854394 0.45082653 0.23196156 -0.8283986 0.42208546 -0.0470575 -1.1116525 -0.90329826 0.117556736 0.07028007 0.3618345 0.6598413 0.15385938 1.2464845 -0.5944526 0.15654673 -0.38550487 -0.5416467 -0.7655174 0.16408888 0.249556 0.20123926 -0.4412573 -0.52590275 -0.22437392 0.087210886 0.50911486 -0.089401275 0.56640214 0.13057452 -0.021859696 0.7415111 1.082487 0.5105044 0.0018719366 -0.09444416 -0.64936495 -0.67227644 0.786318 0.13185565 0.3710046 -0.6173565 0.48744857 0.90997726 0.859855 -0.15531138 -0.3698381 0.36381292 -0.44502014 -0.714728 0.081940934 0.9203293 0.038864166 0.84563714 -0.9638574 -0.936432 -0.040254205 1.3525934 0.48984402 -0.5395345 0.36893478 -0.2436707 1.358534 -0.35417262 0.55515635 0.038304694 -0.96282303 -0.37969932 -0.393521 0.5540483 -0.22347796 0.8496305 0.43949488 0.35678992 0.24306576 -0.06278709 0.1858552 0.25476447
。 0.79148334 -1.2811223 0.69394565 -0.26343733 -1.1108364 -0.42893222 0.4628323 0.69009846 -0.23553717 -0.7305321 -0.5720433 -1.8073754 0.8808082 1.0241374 -0.36595353 1.2695204 -1.5422977 -0.8567945 0.42320022 0.51517886 -0.053720437 1.3800247 -1.099968 0.45577782 0.5594109 -0.16072437 -0.57849646 0.1619771 -0.862678 0.8378223 -0.671842 -0.23747201 0.5442352 -0.24040107 -0.24880943 0.16525397 -0.892325 0.73408115 -1.14535 -0.23327537 -0.1521126 0.65622914 0.15237512 -0.10282911 -0.01792814 -0.34410882 0.38369095 0.1654669 -0.14243083 0.62842655 -0.68744427 -0.6100392 0.20420344 1.0380527 1.0501317 -0.014379945 -0.8908413 -0.75567245 0.3428043 -0.28198853 0.458132 -0.10043943 -0.4698787 -0.25103888 0.4134077 0.17232451 1.0926174 0.65504646 -1.2182035 -0.2889642 0.423063 0.3016122 0.46714613 -0.08947866 -0.15899049 0.8888376 -0.74728894 -1.3004944 -1.5065532 -0.007841823 0.61236066 0.88112545 0.35130274 -0.8551298 0.19989939 -0.93984616 0.36414978 -0.62885535 -0.48764706 -1.1173325 -0.9141997 -0.19607577 -0.8832863 1.2558949 0.9926248 -1.3915032 -0.73439866 0.15477332 0.2862979 0.16074853
： 0.5241604 -0.35697034 0.6726248 -0.7932012 -0.14198494 -0.17184487 0.44884583 -0.56353337 -0.41883495 0.13059185 -1.2313799 -1.2821951 0.29866263 1.2715527 0.5767282 0.24817792 -0.64997697 0.55976486 -0.15674335 0.60802215 0.1454973 0.64626175 -0.7914313 0.24848422 0.28826937 0.93085885 0.7546172 0.52214056 -0.024585726 -0.06169561 0.37590942 -0.6147021 0.963971 0.046688776 -0.5376904 -0.32105795 0.023406478 -0.015212093 -0.6439105 -0.62842166 -0.9102122 -0.70050615 0.120820515 0.20119537 -0.5534331 0.47247344 -0.21689956 0.5747349 0.9092503 -0.6687921 0.15303974 -0.43622738 0.041173507 0.11201146 0.249409 -0.118617624 -0.5358741 -0.2198913 0.36706117 -0.38242623 0.6926081 -0.18769512 -0.15409374 -0.9401672 -1.175899 1.035069 0.30000255 -0.59020853 -0.39149433 -0.8726965 1.5497855 -0.3849871 -0.8706323 -0.35240012 -0.797581 0.09174517 -0.73886377 -1.6983002 -0.03427527 0.021659244 0.53438807 0.9802818 -0.91507286 -0.9051387 0.22319956 -0.56617045 0.06279981 1.245401 -0.600504 -0.45681888 -0.61676157 1.7138594 -0.5666766 -0.33164936 0.31563994 -0.519388 0.048529707 -0.53412694 -0.23235093 0.032727186
曰 0.51658267 -1.1302605 0.52774006 0.062124934 1.1018864 -0.70526606 0.62797934 -0.21663758 0.41269082 0.5149954 1.0589361 -0.22922288 -0.7683827 0.8441594 -1.189891 -0.12573263 -0.9793198 1.0023879 0.078609034 -0.04666289 -0.14154702 0.39024544 0.16140652 1.1376038 0.7257157 0.7514526 0.23612438 0.7566413 -0.21386713 0.3273733 -0.1061464 0.01039912 0.7912189 0.030187957 -0.57222027 -0.3188506 0.6913397 -0.3546687 0.049697783 -0.53296864 -0.091074 -0.2067676 0.87787074 -0.054929946 -0.42499706 0.51360214 -0.13289118 -0.7285875 -0.35516387 -0.96778965 -1.7109058 -0.25374985 1.3375359 -0.6399729 -0.04550548 0.06460389 0.42097604 -1.7915843 0.3796649 0.1407731 0.264189 -0.24618283 0.48365918 -0.06417538 -1.4027377 0.6243249 -2.4154816 -0.9008698 0.45120704 -0.49747622 1.56384 0.5845789 0.010199181 1.0519435 -1.7576561 -0.55685014 0.99473006 -0.9135182 0.6236457 -0.32115144 0.49715683 -0.18111034 -0.13081741 -1.0186121 -1.348172 0.008267852 -0.47403118 0.50941795 -0.09806505 -0.32509705 -1.2466278 -0.5424221 -0.14618388 0.20910154 -0.611915 0.87828636 -1.287959 -0.9048914 -1.1140767 1.0500087
之 0.75964177 -0.27479938 0.5426509 -0.013845495 0.5553078 -0.1784266 -0.27915516 -0.41801295 1.2338237 0.24242656 0.21178785 -0.40833724 -0.3321438 0.25810346 -1.435273 1.0403755 0.21989873 1.1816595 -0.34144947 0.008333386 -0.6717158 -0.93694896 1.253611 0.6165865 0.4483116 -0.048650447 -0.38054377 0.7443791 -0.6068554 0.5475111 0.59985197 -0.65873235 0.7883439 0.047280494 -1.0070881 0.2670469 0.11088661 -0.1920702 -1.4008574 -0.28330234 1.0848392 -1.4494776 -0.33912718 0.20718303 -1.2007458 -0.12760752 -1.090521 -0.072985075 -0.6158566 -0.744549 -1.1786534 -0.8955007 0.34629378 0.5456359 -0.30157563 0.6099974 1.3010514 -0.3765692 -0.8693884 0.25721058 -0.28056055 -0.6006293 0.15004082 -1.2914727 -0.10077431 -0.28127083 -1.0021603 -1.6339388 0.33472306 -0.057589572 1.0711576 -0.10825171 0.26118797 0.68732995 1.1038954 -0.2697042 -0.17638981 0.105348445 0.57140976 0.5334133 0.59710336 -0.028062953 -0.2561058 -0.98340935 0.19974507 -0.56899863 0.9364192 1.2532554 -1.0024955 -0.805287 -0.64756715 0.5571652 0.19029018 -0.1293588 -0.5789887 -0.12278843 -1.0672325 -0.62062484 0.12616715 -0.111981034
不 0.06474663 -1.0540329 0.11846454 1.1167564 -0.43087232 -0.986236 -0.9251879 0.15580682 -0.16741936 0.5909449 -0.6810475 -0.8764245 -0.19965303 -0.47869623 0.38261726 1.015484 -0.91860163 1.2366683 0.42095783 0.7234622 -0.30141136 -1.6329445 -0.21506068 0.68412906 1.0517819 0.8356251 0.47474858 0.940123 -1.2030165 0.15461576 0.48482844 0.62915605 0.4593711 0.07214371 0.40132084 -0.44967583 0.044795707 -1.049684 -0.7003529 0.92170644 -0.057703312 -0.106005155 -0.15882361 0.28405023 0.11003252 -1.0424318 0.4584178 0.6020553 -1.0673053 -0.7472858 -0.19146137 -0.6364607 0.8299665 -0.31599066 0.4083522 0.8756464 1.2924066 -0.46152645 0.15169491 0.2992493 -0.09758336 -0.96588874 0.3446278 -0.3750156 0.17481726 0.9678495 -1.7962047 0.008491438 -0.0008081426 0.03515037 1.0218155 -0.5884068 -0.53892684 -0.29191196 0.6838621 -0.76043963 0.6072022 -1.0296738 -0.6522836 1.2412232 0.64600766 0.15071978 -0.39787894 0.05459219 0.88093746 -0.57030034 0.047009964 -0.607387 -0.026396386 0.88547355 0.4614199 0.09453275 -0.21599092 0.2515224 0.9391836 -1.6668134 0.5905372 -0.46427628 -0.14278139 0.2641008
也 0.08614094 -1.0707686 0.7026988 -0.013990043 1.1788827 -1.1116433 0.253788 -0.76624435 0.22229682 0.02966316 -0.009624708 -1.2911521 -1.637602 -0.12311347 -0.92130816 0.42521358 -1.1017014 0.09221536 0.35386935 0.13236447 -0.964955 -1.4942933 0.1991107 -0.06885134 0.61181724 0.26968923 0.14453688 0.50696677 -0.8027182 -0.33377156 1.243052 -0.63478434 1.0680054 -0.42536536 -0.06890715 -0.95042884 0.7139646 -0.04818602 -1.3623693 0.349429 -0.5721217 -0.2660914 0.3306025 -1.1457006 -0.15994711 -2.0174508 -0.36523867 0.3761768 -1.0733175 0.12551376 0.48115963 -0.48279276 0.16819444 -1.0101721 0.004108463 -0.34450564 0.08680782 -0.82379305 -0.62110686 0.13132651 -0.03208327 -0.21425487 0.690578 0.587338 0.6032516 0.5542035 -0.36200166 -0.12502928 0.114034005 -0.40753803 0.7622808 0.43467578 -0.640519 -0.9612511 0.20325738 0.20442444 0.25083706 -0.6866902 0.45956105 1.1199901 0.5774525 -0.036936164 -0.36322814 -0.2148726 0.13534635 -1.3136603 -0.3949026 0.3649862 -0.7073156 -0.20971923 0.23252317 0.35280058 -0.6453249 0.67490983 0.84443545 -0.9505126 0.98111504 -0.34844247 -0.2948756 0.96435285
而 0.6191511 -0.851782 0.6539149 -1.0434824 0.22210394 -0.5550706 0.84642047 -1.0813723 0.21988708 1.0423572 -0.26558393 -0.3119783 -0.57764065 -0.12541184 -0.56756955 0.62490135 -0.89222777 -0.06090251 0.37870723 0.31550762 1.9217218 -2.085897 1.0833738 0.76316506 0.4362557 0.079963505 0.35803798 1.0828981 0.6147544 -0.6456516 1.3004825 0.23671055 0.12932335 0.5303979 -0.29339808 -1.8653316 -0.9715995 -1.0216026 -0.5686403 -0.3527978 0.41219923 -0.43876675 -0.08270719 0.071265444 -0.001952708 -0.3148165 0.3970712 0.5234846 0.22076985 -1.704987 -0.9289927 -1.0218954 -0.48423183 -0.23008902 0.6873198 -0.87743294 -0.22124873 -0.84804404 -1.4454333 0.25549585 0.7891897 -0.81172544 0.5689012 0.8970448 0.6442942 -0.5463187 -1.0700984 -0.06934032 -0.048947033 -0.046348322 0.18200865 -0.95954096 -0.42707402 1.623149 -0.55018103 -0.8671619 0.22581004 0.8157859 -0.61638737 -0.19046329 1.6745771 0.57268345 -0.45009765 0.55372995 -0.9144302 -0.08787616 -0.15420957 1.4410459 -0.4422752 0.0183462 0.51723707 -0.673674 -0.5875271 0.23363733 -0.30742303 -0.46622658 1.6372308 0.91085076 0.28594065 -0.2677123
？ -0.22314806 -0.5094578 -0.5629093 0.16297464 -0.034158275 0.8791503 1.636148 -0.8647064 -0.86045766 0.17824969 -0.2418806 -0.61746675 -0.2855578 0.63587093 -0.7455153 0.36994246 -1.2959441 0.46357474 0.07790936 0.33823636 -1.0157942 -1.1455925 -0.1502174 -0.45682713 0.49044207 0.72721595 -0.5344015 0.0010909695 -0.058090188 0.3332165 -0.4223521 -0.07411575 0.60186523 1.0476962 0.71077675 -1.130284 -0.17962365 0.07445697 -1.0807774 1.0624331 1.1997634 -0.039861336 0.82216007 -0.8482378 -0.49669448 -0.9048994 -1.0760007 0.12462041 -0.9049384 0.040548395 0.2863273 0.9440478 -0.47034094 0.012796078 -0.019009557 0.3176024 0.8490918 -0.651291 -0.4985373 1.403777 -0.36073565 -1.0372071 1.0426261 -0.4137739 -0.06409204 -0.07409487 -2.0753114 -0.56594056 1.2612505 0.02966633 0.6590661 0.07652353 0.595684 -0.13389604 0.15209621 -0.50126034 -0.047198467 0.6910873 0.5608959 0.92920154 -0.158858 0.64546835 -0.279824 0.66430146 0.9985329 -0.54853386 0.2948646 1.2433766 0.8434647 -0.16828421 0.1542647 0.38452068 -0.009470558 -1.0848774 -1.7975018 -1.1939175 0.76637447 -0.68866354 0.53952605 1.0957912
其 -0.747234 0.3220068 -0.012249855 0.10887212 -0.12792948 0.068936326 1.0849196 0.24579477 0.3702157 0.54968745 -0.34159932 0.56849897 0.122441724 0.87995917 -0.5810805 -0.6236089 -0.06994215 0.822406 0.59478986 0.18556574 -0.11801164 0.22291647 -0.43864462 -0.3918882 0.30866888 -0.28586152 -0.7267524 -0.76895887 0.46303853 0.035216585 0.23953806 -0.51311576 0.2801717 -0.022026245 0.06418157 0.4961134 0.19777475 0.5713906 -0.21312548 0.5299139 1.0176251 -0.36979827 -0.00038190553 0.4422114 -0.07953948 -0.3131402 -0.6529942 0.7393286 -0.29776344 -0.62019587 0.42708164 0.17387226 -0.5136097 -0.7200913 -0.78440225 0.041548703 0.3557459 -0.17748623 -0.74042535 0.3072901 -0.24283852 0.26199177 0.872977 0.34265307 -0.838684 -0.119053274 0.08458587 -0.2161919 -0.67787516 -0.12620333 -0.5221657 -0.20111464 0.25766104 -0.11186509 0.74714404 -0.5207196 -0.37101543 0.32196325 -0.2765353 0.072133556 0.18646307 0.42389664 -0.6569092 -0.5241544 -0.46953914 -0.6322604 -0.6022053 0.06645367 0.1928398 -0.42717326 0.32878974 -0.5589081 0.2915617 0.06736133 -0.5655817 -0.38474905 -0.040245023 -0.17070542 -0.55023223 -0.59616315
人 -0.27248508 -0.7801219 -0.03178348 -0.70330065 0.90312177 -1.0264708 -0.5699307 0.58380455 -0.113648616 -0.039069247 -0.76103026 0.36611325 -1.0357465 0.8286394 -0.19019324 1.4259688 -0.33671746 0.83117205 1.1575534 -0.7604957 0.16340801 -1.8624625 -0.77410406 0.32371473 0.3830637 -0.10548453 -0.57525206 0.43919277 -0.16218278 -0.098502144 0.78146195 0.08042112 -0.3866012 1.21553 -0.3181756 -1.3518142 -0.86506945 -0.44174233 -1.4872848 -0.8018429 0.17356558 0.78026146 -0.121838115 0.3589186 0.8093317 -1.0042212 -1.2910337 1.636878 -0.17002523 0.11889953 1.269779 -0.5053745 -0.20497513 -1.2043331 0.09845204 -0.042183504 0.18449132 -1.0082866 -1.08503 0.30310538 -0.33546975 0.40550157 0.6821619 1.4646455 -0.93450904 -0.569199 -1.2396427 0.3051325 0.29729894 -1.0009202 -0.53869057 0.32522407 0.01659699 -1.3124664 -0.24840167 -0.24443878 -0.4711196 1.0190698 0.06508501 -0.787979 0.3227805 0.7753769 0.47518852 -0.72739655 0.42295212 0.50631225 -0.6637338 1.0511832 0.051770993 0.69129956 0.1267664 0.49912593 -0.61009353 -0.34434342 -0.21637665 -0.6767928 0.8797015 0.07638514 -0.34907675 -0.044222914
者 -0.6643502 -0.2476738 0.6448116 -0.92563164 0.8643136 0.41893217 -1.0294038 0.4339505 -0.28200963 0.59158915 0.24754374 -1.7799534 0.006656588 2.1385884 -1.1141713 -0.14965937 0.33416754 -0.02595615 0.3130974 -1.266522 1.9455878 0.02420003 0.09042889 -0.44970647 -0.3833352 -0.4206911 0.80396783 -0.19235513 0.07278612 -0.07706898 0.24380443 -0.085353464 -0.83590937 -0.4472073 -1.007576 -1.6559824 0.43490133 0.8617577 -0.3523128 -1.6596096 -0.6288933 0.49779898 -0.77834386 0.5055242 -1.0201844 -0.9555248 -0.83076215 1.0824001 -0.8598613 -0.10049413 0.057027042 -1.8765485 0.42888656 -0.12187771 0.49859232 0.20168506 -1.0549968 0.20882352 0.08933766 1.1982714 -1.1780374 1.4071082 0.45091146 1.2042928 0.5146809 -0.5424598 0.40898788 0.092900194 1.2486118 -1.4057298 -0.29932475 -0.30914026 0.24254245 -0.98156774 -0.3808267 0.34044454 0.58776104 -1.0485313 -1.3846189 -0.3837208 -0.8911779 1.3905205 0.99329996 -1.36246 0.06054346 -0.29520598 -0.1417481 0.7059414 0.078516506 0.15169214 0.37298688 -0.13142438 -1.0246488 0.45369557 -0.9448682 0.34975013 0.50802124 0.52242106 0.50437677 -0.9151053
以 -0.4093466 0.4908285 -0.18541959 -1.2012517 0.9701871 0.059208073 0.7461775 -0.03413474 -1.0290833 0.3117709 0.4510621 -0.25851148 -0.8476282 0.6756559 -0.7590397 -1.2355107 -1.0233347 -1.389266 1.1159282 -0.07542132 1.8889374 0.12005109 0.03765168 0.054069955 -0.05926613 0.12607867 -0.48071495 0.22140521 0.3020569 -0.458784 0.37976143 -0.6893306 0.09224129 1.1960031 -0.13768853 0.6232278 -1.0238103 0.0907908 0.17327335 -0.101310186 1.6597861 1.3517679 0.17046075 1.5229048 -0.024489129 -0.31045362 1.1534252 0.9309112 -0.43483877 0.44688714 -0.10611266 -0.34447268 -1.5441555 -0.65410763 0.42004374 0.37231693 -0.5182576 -0.070370816 -0.11353933 1.1111795 -0.07264536 1.4238213 -0.30700472 0.2151421 -0.94341743 -0.33212736 -0.47315773 -0.04382091 0.1403941 -0.36900526 -0.57407725 -0.31027922 -0.18220805 -0.62911284 -0.2963741 0.68586135 0.3163236 0.6988047 -1.2705951 0.19751938 -1.2883422 0.40240106 0.7765118 -1.7064865 -0.53359866 -0.39029333 -0.47019726 -0.49674675 1.7195014 -0.23792554 1.6442356 -0.22408545 -1.0592935 0.42998305 0.19776414 -0.09704257 0.49668553 -0.2700152 -0.07204717 -0.19812377
有 0.37281862 0.6126788 -0.63114136 0.28612435 -0.33571982 -0.24340299 -0.5801061 -0.06247783 -1.521177 0.62929153 -0.64643306 -1.12749 -0.20701598 1.1896732 -0.5156143 -0.07501735 0.73991567 -0.54700613 0.23144524 0.44226 0.17468303 0.39493686 -0.29847074 -0.498295 0.06744861 -0.9079837 -0.15987349 -0.7073284 0.1252675 -1.1740028 1.225898 0.38780415 -0.5116782 0.7508439 0.2895966 -0.056109276 -1.6135471 -0.18293291 0.5475275 -1.5883155 -0.32173282 0.40166414 -1.2404327 0.617022 -0.13017973 -1.1688099 -0.45281786 0.24887483 0.5084528 -0.10237465 1.0243798 0.08423489 -0.32588187 0.59154403 1.6220831 -0.6986355 -0.058300413 -0.4552466 0.24202187 -0.61307853 0.4022702 0.9853359 0.19389403 0.6852112 -1.3976363 -0.3155424 0.51467353 -0.27553526 -0.14687987 -0.22695 -1.2480801 0.32500678 -1.0154898 -0.62204975 -0.08578772 -0.15776058 -0.4663001 0.3434288 0.023571286 0.21064666 -1.2535923 0.47128928 1.2862737 0.33317494 -1.1585943 -0.57046497 -0.21808694 0.27485746 0.37279674 0.71827906 0.109812684 0.8648539 -0.9459285 -0.674155 -1.235675 -1.3030496 0.6281891 0.5437125 -0.86107993 -0.6142687
于 0.13744383 0.031746738 -0.46246633 0.8429616 1.0901208 0.24728155 -0.36423534 -0.078339696 -0.8887005 -0.39691982 -0.46635178 -0.48776504 0.5567645 0.6645689 -1.4046708 -0.93794686 -0.027615327 0.82937473 0.03786156 0.40296003 -0.37227008 0.8992638 -0.2803089 -0.13309269 -0.89634335 0.13614687 -0.7620424 -0.43169057 1.0877693 -1.1572344 1.070892 -0.36067182 -0.5936537 0.75227493 -0.7595778 -0.27823183 -0.9581862 -0.4329513 0.6488836 -0.7382682 -1.4782475 0.24788731 -0.75861996 -0.082397066 -0.31186634 -0.1764895 -0.7453166 1.0771813 -1.5637319 -0.1657421 0.13970219 -0.22282718 0.41784745 0.5435583 0.029562376 0.69746137 0.53974587 -0.6050959 -0.052368052 -0.15189049 0.13788489 -0.7431436 0.7406207 1.1535856 -0.50792336 0.06397637 -0.22822252 -0.32111305 0.105043136 0.24395393 0.9298323 0.3609221 0.41823843 0.31384385 -0.97474796 0.07000789 -0.6490666 0.19001152 -0.12954256 -0.60835403 -0.50124574 1.7496355 0.5455107 -0.3926147 -1.3761811 -0.74205214 0.65282136 0.33760384 0.448208 -0.5648585 0.06385434 0.5655763 0.38851294 -0.14785676 -1.4560052 -0.6047433 0.0542777 0.21791698 -0.2346195 0.46994036
矣 0.5009148 0.860322 -1.0806438 1.1104618 0.43873408 1.2149512 -0.0155788 1.2698957 -0.84909344 0.4574259 0.42160228 0.06894061 0.46481413 0.021389965 -0.30416462 -0.9002723 1.0185919 -0.45571873 -0.1445966 0.10543411 0.04594423 2.4816623 -0.5651681 -1.0879102 -1.1701666 0.75885534 -1.0948398 -1.827787 0.44299012 0.006090098 0.6853467 -0.4819909 0.20848991 0.900059 0.2955069 0.028143845 -0.83153033 -0.935573 0.5616354 -0.50109786 -0.2866608 0.3583963 -1.2216592 -0.054570436 0.3544741 0.22118701 0.023650443 -0.24639702 -0.055050556 0.3983254 1.0595156 -0.26225725 0.43228692 -0.015180053 0.10518952 0.15388972 0.47118542 0.67470783 -0.3050718 -0.31671667 -0.29305065 0.68718255 0.18025838 0.7918514 0.082405634 -1.8056539 1.3947815 0.18346667 -1.1493676 -0.23282577 -0.64566797 0.27712995 0.15525979 0.8083307 -0.7994511 -0.11012183 0.21008061 -0.0822395 -1.0808784 -1.4144984 0.1970619 -0.032808784 0.60981023 -0.49589625 -0.9642401 0.058666375 -0.35227486 0.7927826 -0.22472212 -1.3025441 0.39820164 1.0387443 1.1604748 0.51990265 -0.28591767 -0.6502164 -0.18059458 0.2515781 0.24200815 -0.21868896
为 0.85708064 0.10315622 -0.7404158 0.081816666 0.1692645 0.17326622 -0.9334414 0.8169585 -0.89251524 0.3818287 -0.6704761 -0.6403371 -0.66607654 -0.09321571 0.3465496 -1.0833371 -0.98098785 -0.16250767 0.35546166 -0.1659567 -0.77902865 -0.5930807 0.18334256 0.30861348 -0.35884702 0.1694323 -0.39549989 0.008716727 0.51877487 -1.4554344 0.964165 -0.06309587 0.68505114 1.512599 -0.23454034 -1.5163062 -0.6738764 -0.64873534 -0.08842464 0.24864629 -0.038583837 -0.10978166 -0.65901756 0.24184111 0.20003276 -0.6234524 0.55906844 1.1404148 0.104583494 0.63044596 0.4770704 0.00017734467 0.46842122 0.11101434 0.07137006 -0.4011545 -0.20004393 0.02804946 -0.24036954 0.6009256 -0.012852074 0.13369615 1.891215 0.6691299 -0.2956355 0.6415254 -0.6230743 0.070168376 -0.23877941 0.9105934 -0.16864803 0.50330395 -0.41345164 -0.19496784 -0.17658664 -0.9916867 -0.42273307 0.39698097 0.15485299 0.30504122 -0.18036081 0.68177176 0.4283744 -0.11608448 0.554823 0.025492977 -0.52449775 0.34513044 0.9971348 0.7714381 0.8182251 1.649853 -1.2048858 0.29400232 -0.28453416 -1.1581341 1.2055535 0.23902665 -0.14905536 0.4715082
君 0.46452522 0.063368686 -0.2941015 0.77446586 -0.48862836 0.15741467 0.55364305 0.063897245 -0.9176911 -0.34037426 -0.8152728 -1.2768996 0.34573746 0.8458414 -0.192262 -1.2969809 -1.6824707 0.3731974 0.3407588 -0.8723211 0.11803824 0.09495943 0.7278156 -0.16606419 -0.029236423 0.86538637 0.18046722 -0.56649864 -0.047580633 -0.65491074 0.9014061 1.6584829 -0.12049917 -0.055803142 0.38091436 -0.40905926 -0.56657773 -0.5867952 -1.0640177 -0.06092548 -1.2908012 0.6225361 0.36359462 0.11648583 -0.24304768 -0.7354326 -0.03362279 2.0316114 0.8409758 -0.5029134 0.37319145 1.1233393 0.11980604 0.98152703 0.04099816 1.302933 0.26362786 0.10451637 -0.21451575 -0.7532609 0.34651893 -0.42797035 0.42590186 -0.9937377 -0.6207646 0.42675504 0.4510282 0.10601983 -1.3764578 -0.4576567 -0.16201869 0.9423645 -1.1782572 -0.97318506 -0.14649598 0.78729534 -0.1951752 1.102077 -0.057407048 1.2400312 1.1298095 1.123932 0.9960996 -0.528158 -0.65936744 -0.011543307 -0.6001093 -0.20120262 -0.48974115 0.39539143 -0.27414504 0.8126098 -1.5172997 0.13984555 0.45044324 -1.1278185 -0.09510803 -0.3237512 -1.6902351 -0.009182872
乎 0.45626628 0.4784686 0.011084716 -0.13819799 1.3012676 -0.20141797 -0.533993 0.5432026 -1.2034951 -0.6434445 0.24382342 -1.6423916 -1.2190465 0.80648315 -0.84608996 -1.2628192 -0.26559666 -0.5353919 0.45098966 -0.6399001 0.04501768 -0.10588699 0.27912578 1.2964823 -0.061821826 0.7348739 -0.9936589 0.3095342 0.09749764 -0.56826735 0.8170537 -1.4017298 0.88553244 0.21435441 0.61591953 -0.27861214 0.9289933 0.3163144 0.17880803 -0.27548087 -0.45044094 0.7235651 0.5409241 -0.4108759 0.7712252 -0.12315761 -0.4846227 1.0825785 -0.029249435 -0.34820217 -0.123189874 0.3318277 0.31969404 -0.2087959 -0.5671762 -0.3921674 0.089086406 -0.18659179 0.61682284 0.7606658 0.19895758 0.9242621 0.7035265 -0.03754926 -0.9057526 -0.09441703 -0.5564812 -0.19007309 -0.5472032 0.6166654 -0.502318 0.5539805 0.15874916 0.9699891 0.29004928 1.0437394 -0.028769221 -0.43805975 0.43452802 -0.66760874 -0.1423722 0.20379029 0.12802018 -1.1576505 -0.19447076 0.0133503005 0.08910106 0.78107375 -0.28074723 0.31820452 1.2914977 0.39118773 -0.83807516 -0.29738897 1.2881492 -0.12763022 -0.5520284 0.21531472 -0.72432303 -0.77759266
可 0.59549767 0.6485009 0.0750073 -0.7219898 -0.6920982 0.36745137 0.34640005 1.1622957 -1.154422 -0.087187365 -0.44405434 0.028558431 -1.4741262 -0.4142788 0.9751775 -0.5046735 0.2137623 -1.9861456 0.63396627 0.2093908 1.1383452 -0.11001403 0.69780797 -0.25053784 -0.08691859 1.0776871 -0.25067115 0.112367876 0.27233002 0.08886748 2.0291862 0.090051256 -0.332188 -0.12764235 1.5859543 -0.9212401 -0.14088078 -0.976724 0.95798725 -1.4994802 0.1594305 1.0107319 0.18916716 -0.3358326 1.4073689 0.21415447 -0.16155338 0.4039939 0.24130908 -0.87387896 0.05904343 0.30969843 -0.20255835 1.2945035 0.56454426 0.062196683 0.5614661 0.7775874 -0.09576167 1.4908792 0.04975528 -0.19293195 -1.0041971 0.6218979 0.99001646 -0.12170974 -0.5105772 -0.041640922 0.5198564 0.47573805 -1.181443 0.28736433 -0.52911764 0.72124594 -1.4264202 -0.15160455 0.44052973 -0.3677365 0.726948 -0.3586145 0.12098738 0.7198707 0.6725611 0.5275125 -0.15294468 -0.53111273 -0.16928434 -0.6486413 -0.36935538 0.74783385 2.0584917 0.47054884 -0.51590306 0.44785255 0.8751071 -1.8221066 0.07164643 0.9563347 -0.52485967 0.99430525
如 0.76227874 -0.6509838 -0.4538029 0.85477895 0.822486 -0.2690908 2.2608154 -0.7921107 -0.06324842 -2.2908344 0.5338049 0.8718152 -1.9683505 -0.7742003 0.33764172 -0.3705924 -0.73543435 0.6019293 0.35767847 0.16925773 -0.2819423 0.66858566 0.32785094 0.55636483 1.1060461 1.1372716 -0.43401027 0.9010102 -0.098961115 -1.0509645 0.33371907 -0.16912538 0.018992333 0.694268 1.2036152 -1.320357 0.20430891 -0.13780406 -0.51800257 -0.16897398 0.53967905 -0.8362791 1.9795053 -0.05810308 1.5972213 0.10816044 0.6213596 -0.14163561 0.37012073 0.12747373 1.356239 -0.35129586 1.106586 -1.5337605 0.38950136 -0.32116324 -0.71454877 -1.4213691 -0.07100462 0.36003712 -0.085116126 0.8905204 0.6395092 0.42782012 0.78018945 0.4741443 -1.0100546 0.886344 -0.49624968 -0.19210452 0.06927721 -0.49605158 -1.2215718 0.64555955 -0.11720717 -1.1075773 -0.13163927 -0.5365022 0.5544723 0.23404855 -1.1045291 0.13598716 -0.15065764 0.5363333 0.1711166 0.14716522 1.3564683 1.3514928 -0.6462883 0.32770327 -0.26734075 -0.18404837 -0.6729914 -0.4254121 -0.3993532 0.2175807 1.2869157 0.8500877 -0.72015613 1.2397063
与 -0.33997166 -0.5233363 0.36576697 0.6268799 0.084133565 -0.33177978 0.12895961 0.1003979 0.031306487 0.45156586 0.83949834 -0.37439954 -0.3312578 -0.081462644 -1.1850092 0.11523914 -0.111096315 0.15288459 0.42818403 0.4270946 1.4687048 -0.6013397 0.521364 0.7760832 1.431835 0.32360044 0.26449624 -0.7221209 -0.51551306 -0.6922038 0.67644805 0.18412282 -0.16664173 0.55221957 0.0864803 -0.251446 0.29388183 -1.1282967 0.17233796 -1.450334 -0.0046847644 -0.1670044 0.08710473 0.042313542 -1.1871367 -0.5043905 0.160025 0.9277649 -0.28738517 -0.7129833 0.6570277 0.63846165 0.25880355 0.42166513 0.31216323 -0.19988622 -0.7913936 -1.4946538 0.21140687 -0.27654856 0.7433888 0.18002048 -1.1090858 0.8436529 -0.7968344 -1.0918537 -1.1379675 0.61072373 0.6580973 -0.6123498 -0.66387624 -0.25512958 -1.3773031 -0.7331122 -1.6495715 0.6199066 0.18212011 -0.9172669 -0.2332696 -1.2683177 -0.93944925 0.66924554 -0.3595313 0.5430607 -0.14793985 0.49532163 -0.63171595 0.28955716 -0.32014337 -0.3798152 -0.38210863 -0.050062567 0.5033175 0.41891277 0.26913098 -0.5014309 1.8512275 0.32667527 -0.16938029 -0.13074051
； -0.43475363 -0.74136317 1.507375 -0.14172399 0.16690525 -0.60097015 1.1843843 -0.2031462 0.43640712 -0.9108096 -0.6015285 -0.6600466 -0.9772864 0.1932774 -1.2478455 -0.11085807 1.5329589 0.96771705 -0.17511877 0.4820493 -0.37583476 -0.24692619 -0.4709459 0.5835928 0.16498156 -0.6792928 -0.20139493 0.3224538 0.7446352 0.39703882 0.7068721 -0.67739904 0.87029785 0.4748735 -0.37462276 0.08769084 0.75373316 0.17380768 -0.2968454 0.23487586 -0.8531124 -0.47276235 -0.6589646 0.03818595 -0.22710322 -0.734405 -1.1365113 0.98610985 -0.8695299 -0.31563655 -0.64031374 0.7532779 -0.4351535 -0.5696631 -0.61359847 -0.16092473 0.3370643 -0.060447104 -0.9071613 -0.475216 0.016031599 -0.016403858 0.66654915 0.08039925 -0.24007893 -0.07363022 -0.9227499 -0.93818825 -0.46900806 0.32329896 0.37601086 0.44767046 -0.006173597 0.22046083 0.9007251 0.2385619 -0.1564912 0.067106135 0.15013306 0.076070644 0.09020274 0.5553278 0.18781097 -1.5678055 -0.6715149 0.40698242 -0.48926923 0.6776664 0.46010363 -0.9018288 0.9992364 -0.08904613 0.71645296 0.52761173 -0.609373 -0.70023596 -0.07813446 0.54611975 0.13022313 -0.659219
言 -0.4187364 -0.19444042 -0.7924874 1.0603096 1.0293244 -0.22758846 1.1973294 -0.4397903 -0.42356712 -0.19468059 -0.3066947 -0.9663429 0.0776785 0.81684476 -1.4634085 -0.029218087 -0.10648189 0.28904167 0.60366267 0.84953785 0.14060059 -0.19693573 -0.7472244 0.5397143 0.23864715 0.40205312 -0.34865916 0.23144716 0.18766351 0.5533712 -0.35222802 -0.6170246 -0.25680494 0.64981043 -0.24474235 -1.0143014 -0.8195458 -0.41859847 0.42015612 -0.16583881 0.7279906 0.4457348 0.01237309 0.48159367 0.1305111 -0.63357645 -0.40773135 0.8741131 0.50406134 -0.018213667 -0.40010968 0.0032709204 0.4248018 0.31296852 0.707628 -0.91507506 0.27213272 -0.6625425 -1.1307709 0.1821497 0.037763752 0.45664585 -0.6283038 0.3649656 -0.34454334 0.6652439 -1.1977535 1.3021408 0.7381815 -0.6550173 -0.10207012 -0.6604835 -0.34842524 0.4716106 -0.31223327 0.027575126 0.32849166 -0.5105672 0.716756 0.06089221 -0.37938133 0.09848241 -1.1280557 0.36593598 -0.75549835 0.8540086 0.7883646 -0.27206478 -0.02741166 -0.122420415 0.44895628 0.58614504 0.20038718 0.1395449 -0.49453866 -1.2064843 0.033342976 -0.053901598 0.0728096 0.3881109
无 0.36675602 1.1380656 -1.3768228 0.31813723 0.757728 1.3155451 1.632083 -0.073028944 0.26157752 -0.6266698 0.78876513 0.89414936 -1.2463378 0.81000483 -1.1068622 1.0610275 0.92238903 -1.6500148 1.0253297 0.8697712 1.4451195 1.4037497 -1.2176168 0.6540425 -0.29364213 0.33211696 0.91276115 -0.5169402 -1.1196549 0.6368841 -0.5097624 0.34131238 -0.27864504 -0.4922039 0.7083563 -0.577343 0.053385127 -0.11594397 1.1603789 -0.6661387 0.0693864 0.9140768 0.5684642 0.15559585 0.41222408 0.17612755 -0.7436117 -0.68278843 -0.8086354 0.079988584 -0.30737728 0.88155675 -0.53777575 0.5366276 0.6673622 -0.6380194 -0.380156 -0.29412505 -1.3993875 1.8098519 -1.2896726 -1.1148343 0.18436019 1.3292154 0.23647436 -1.1048278 -0.21243969 -0.10232553 -0.2708907 -0.62207943 -1.2492789 0.07803902 0.5684026 0.6520505 -1.5296334 0.60939646 -0.87547034 0.2370679 0.03319074 -0.5020978 0.19437997 -0.6797228 0.6730277 -0.91066575 -0.36783987 0.17389478 0.18069077 0.002373538 -0.14845407 -0.25708845 1.1839411 0.22441602 0.19932415 1.2921994 -0.28609592 -1.8353051 -0.6710559 1.1183515 0.5247292 0.9108688
则 -0.056079205 -0.45434362 -0.48271897 0.4398752 0.22112155 -0.044667862 0.9712321 0.3166495 1.0674231 -0.19615756 0.3720194 -0.049480233 0.035748556 0.29087812 -0.24400946 -0.6099021 1.2173154 -0.67570275 0.584836 0.37854016 -0.49974814 -0.24111961 -1.1669304 0.59953225 1.0252656 -0.92247814 0.8570956 -2.480327 -1.1638584 0.012652816 0.55509716 0.42026487 -0.060425278 -0.08798388 -0.35603735 -0.20027879 0.08427235 0.17952526 0.48745006 -0.58069146 -1.9639605 -0.25527152 -1.206363 0.08834582 -0.08237196 0.21511205 -1.2059999 -0.1785276 0.70086336 0.2642256 0.7263576 -1.1450303 -1.4453716 1.4901876 0.39906314 -0.030843288 0.33901426 -0.8896709 -0.5747135 0.8094012 0.49369112 0.1659712 -0.17070079 1.1806668 0.3315515 0.1514734 -0.12267929 -0.43645498 0.8724799 -0.3681343 -0.35271686 0.6051713 -1.0429912 -0.5695752 -0.36620113 0.6472277 0.68962455 0.23432662 1.1356872 -1.4384949 0.59411967 -0.9266623 -0.063377574 -1.0167701 0.60631603 0.24163088 -1.0414765 -0.36902 -0.99173766 -1.016857 -0.47608522 0.794117 -0.19997467 1.4431925 -1.1732817 -0.80946743 -0.3015183 0.0761785 0.26102188 -2.0406723
！ 0.6621987 -0.47606513 -0.64172184 -0.51183265 0.88478917 -0.61606145 -0.111430906 -0.99611765 -0.03268103 1.1339191 -0.41791472 -0.86931354 -0.1316067 0.8247261 -1.8729359 0.62854457 -0.91962993 -0.0077040433 1.0587598 0.28611836 0.065815605 -0.5730722 -0.4063771 0.670705 1.4527723 -0.34677848 0.12151389 -1.383195 -1.3505608 0.8601752 -0.00038836064 0.23432134 -0.6475484 0.07968855 0.30039066 -0.7180686 0.09379357 0.02836561 -0.43908826 0.82448864 -0.44616023 0.8942897 -1.7961355 -0.6261359 -1.0485883 0.7800179 -0.7708035 0.24162222 -0.008411169 0.7501871 -0.35506597 0.90397865 -0.7326945 0.318559 -0.0041050725 -0.777295 -0.6073602 -0.2964448 1.0065275 0.77740675 -0.88142407 -0.9596377 0.8279966 -0.31473055 -0.82044107 0.7901327 -0.69303054 -0.15108104 1.2501315 -1.5770673 0.00604898 0.33611006 -0.22876513 0.19646226 -1.4514576 0.25432992 -0.4878143 -0.38234025 1.6192508 -0.13995124 -0.84503883 0.09222589 -0.5733741 -0.47335753 -0.018333213 0.7112572 -1.0269568 -0.1431418 -0.34923336 -1.2845919 0.58909017 0.84158546 -0.11502923 1.1047229 -0.928796 -1.8574758 0.6661704 0.10743503 -0.6033519 0.4267885
问 0.56495875 0.21147934 0.1426757 0.23517288 -0.02248298 -0.30417246 0.30697116 -0.03574454 0.36284617 0.79331845 -1.0133349 -0.7781725 -1.034142 0.9668672 -0.9690989 0.45304707 0.6436946 -0.062009472 -0.23992741 -0.785027 -0.08623352 0.086276434 0.060033802 0.031628232 -0.10183208 0.023167128 -0.885852 -0.50855803 0.008423833 -0.51049805 -0.4543265 0.32006058 0.08592676 0.158377 0.46096316 -0.4039528 -0.844367 0.5354512 -0.22267742 -1.0074704 -1.3340704 0.92754555 -1.145508 -0.06450544 0.15015404 0.5017808 -0.010322765 1.0006188 -0.3941996 0.111527875 -0.23596272 -0.73411584 -0.48941943 -0.17600252 0.33567542 -0.20798138 0.54032165 -0.46602416 -0.28514296 -0.9229306 0.9022425 -0.74800104 -0.1881501 -0.33937165 0.34426448 0.27672127 -2.0711646 -0.64413875 -0.79135716 0.012270953 0.9879942 -0.13125646 -0.34526497 -0.93488747 -0.22290452 -0.1608379 0.46909356 0.466383 0.6840666 -0.28873008 0.5147489 -0.24724843 0.5654174 -0.13435197 0.16166104 -0.39064816 -0.46981406 0.5663031 -1.1963187 -0.30451632 0.30006227 0.7348434 0.20751838 0.101798974 0.32469004 -1.1264504 0.11906827 -0.3481639 -1.0920081 0.08729037
知 0.9301316 -0.3884028 0.99548215 -0.6278602 -0.5695128 0.27813104 1.0178611 -0.6737613 0.872463 0.29163677 -0.3438231 -0.8766476 -1.4395564 0.3401217 -0.57334936 0.49603817 -0.9605176 0.007946168 0.65606827 -0.5259429 -0.17790042 -2.4902797 -0.07107443 1.0104675 1.4228582 -0.5935473 -0.10079127 -0.58730245 0.28400183 -0.8406638 1.206725 0.24922921 0.9237428 -0.0044665467 0.26097137 -0.9941809 -0.90673584 -0.5058651 -0.8975459 0.16986871 -0.5520941 0.67736226 -1.6453354 -0.2726001 -0.827526 0.27864182 -0.36102408 -0.39386055 -0.26434594 0.6725945 1.7430036 0.044394713 -1.2251327 0.62844694 -0.24330309 -0.11501831 1.1630572 -0.086550765 -0.1171137 0.35975906 -0.2238091 -0.7025828 0.08932713 -0.72734463 0.7911153 0.33076438 -1.7639536 -0.53331333 0.75024056 -0.9978853 -0.71922064 0.67873424 -0.954421 -0.5779348 -0.005835774 -0.56194174 0.638268 -0.47366264 0.34092492 -1.0094919 -0.52714425 0.36190096 -0.4985303 0.20924862 -0.07017125 -0.5139243 -0.13270834 0.39344695 -0.010792656 0.37101167 0.5017688 0.8308778 -0.94911313 0.16327502 1.180062 -1.2338732 -0.023030257 -0.7481088 -0.14536346 -0.07786151
何 0.9300326 -0.22249766 -0.15980005 -0.5395282 0.6741121 -1.7199488 0.89658606 -0.068120174 0.5402659 1.1576178 0.17940502 -0.005203437 -1.459513 0.16565944 -0.77648365 0.478177 0.10053761 -0.5390756 0.31421822 -0.70610017 0.32983798 -2.2667098 0.57378095 0.47532836 -0.1468089 1.1345179 -0.8681705 0.23868397 -1.2567974 -0.95088524 0.54865277 -0.201271 0.4180453 0.53603214 0.61571723 -0.009226466 -1.4248803 -0.13880625 -0.93022233 0.10165069 -0.9354799 0.68201023 -0.056417346 0.114836454 0.120078035 0.2984155 0.4515722 0.77990407 -0.41612136 -0.14059807 0.69848037 0.41783985 0.20334214 0.16894926 -0.1119777 -0.2941652 -0.49068865 -0.6829706 -0.16492243 0.3140026 -0.35400185 -0.074417494 -0.3321974 -0.3266995 0.21136741 0.59770983 -1.6076871 -1.0515703 -0.89462864 -0.95167094 -0.4749804 0.86346275 -0.14876574 -0.13245583 -2.2704778 -0.32645836 -0.24877167 0.16813307 0.81079835 -0.12968118 0.15969454 0.109164886 0.6222369 1.1249983 -0.8891439 -0.7153091 -1.0095648 -0.026063565 0.018705446 0.37074363 0.85857874 -0.27025902 -0.9342805 0.62443316 0.46670747 -1.5158558 0.44828105 0.2467233 -1.047322 -0.31037468
吾 -0.14691919 -0.3146029 0.47594357 -1.1760108 0.21324165 -0.17847547 0.25753063 -0.25926965 -0.31729838 -0.15068209 -0.5402918 -0.3074909 -1.5460047 0.3167163 -0.8991634 0.6968231 -0.37030163 -0.21825884 0.5286706 -0.47453892 0.7555648 -0.18292859 -0.3888668 0.9617669 0.87234175 0.38432765 0.2732404 0.73392695 -0.65943444 0.1145475 0.48728397 -0.70849144 -0.13084725 -1.2462908 -0.14372742 0.02546507 0.33947802 0.18491423 -0.4620833 -0.0279914 -1.1839086 0.2762417 -0.3199473 -0.76134497 0.84145325 -0.3434023 -1.252694 -0.23026067 -0.061052326 -0.43252763 0.73475015 0.0042651584 -0.29174083 0.090873264 0.79308933 -0.9994284 -0.9861284 -0.43829507 -0.23806377 -0.7938323 0.015579515 1.0613865 0.15781145 1.7369407 -0.4037811 0.5301739 0.108018555 -0.8547277 -0.57718617 -0.29162693 -0.9870099 0.80392456 1.0641865 -0.17971538 -0.189208 0.7739388 -0.18536954 -0.55217177 -0.8410154 -0.15728767 0.21916117 -0.2308952 0.1703416 -0.39605713 0.83384025 -1.0380284 0.53874207 -0.7877669 -0.16195288 0.50303876 0.47640857 -0.66029906 0.8379773 1.0327809 0.41644773 -0.6532666 0.657594 0.34060705 -0.51274294 -0.022810437
仁 0.18223168 -0.5739803 0.45372656 -0.17648457 0.0027764915 -0.7523389 0.782339 0.45010638 0.4535284 -1.1044853 -0.17155325 -1.2250589 -0.45254192 0.12572625 -0.29915303 0.6928954 -0.35762593 0.2580673 0.9258811 -0.3604281 0.12403022 0.30182225 0.24828343 0.3783611 0.53985333 -0.8014292 -0.14268416 0.28803644 -0.25008047 -0.82304883 0.47767362 -0.42337695 0.31410974 -0.72451925 0.3730599 -0.85618263 0.24336232 0.3898964 -0.6520739 -0.7725548 -0.33035707 -0.39710146 0.2326489 0.5194518 0.138613 -0.7107687 -0.12014655 1.4344939 0.17583962 0.17738728 0.22194573 -0.47566825 0.09004699 0.6170739 0.048239585 0.35303605 -0.13919178 -0.15818627 -0.43067667 0.41841745 -0.22149158 -0.09627327 0.07342059 0.49701577 -0.0892309 0.29406145 0.34929213 0.31039205 0.20724271 -0.3960266 -0.16532584 -0.1209768 -0.020619672 0.04136511 0.053458463 -0.244355 0.14067449 -0.21713851 0.31913415 -0.39817107 -0.08284642 0.044506405 0.41266072 -1.1807965 0.49771526 0.38782308 -0.0455863 0.42345133 -0.5653379 -0.13858978 0.12543598 0.02548513 -0.4944355 0.35735053 0.041005753 -0.44975588 0.16055116 -0.07626505 1.2182667 0.28357854
夫 1.3542513 -0.57029176 -0.4101556 -0.71536875 -0.019884655 0.35607988 -0.15329307 0.3840443 -0.5995825 -0.5620353 -1.2283111 -1.122139 -0.79763883 -0.04853348 -0.5011536 0.43129665 -1.1904347 0.7964043 1.2864734 -0.3755764 -0.67286825 -1.674319 -0.39545974 -1.0336713 -0.33749217 -0.5387436 -0.70203733 0.6546344 -0.89857715 -1.0532312 1.3127513 0.57333106 -0.2568368 1.2511693 -0.087843835 -1.1208556 0.03755825 -0.64349455 -1.0968829 -1.2668084 -1.2990268 0.5941424 -0.7532794 -1.368686 -2.1355112 -0.042753674 -0.33454683 0.93112254 0.4483055 -0.26821038 -0.018547203 -0.08988838 -0.36733836 0.5196483 0.64053005 0.9730974 -0.5625056 -0.28553107 0.2090421 1.1261132 -1.3128947 0.70504904 0.07577833 0.31766382 0.40343142 1.1157262 1.3554895 -1.0534174 -1.1985879 0.064697646 -1.439052 0.26509878 -0.5193704 -0.17280866 -0.31345278 -0.38998172 -0.1918012 1.434124 0.14699158 0.28270963 0.2910385 0.8731262 -0.10022378 -0.5431541 0.585687 -0.76091766 -0.14602245 -0.49807623 -0.17082678 1.4473249 0.9160115 0.076491565 -1.0091021 -0.8506183 -1.1671731 -0.942147 -0.18897599 -1.0804815 0.40521428 -0.19297071
、 -0.9333803 -0.28167713 0.114622906 0.6410212 0.92578197 -0.6550263 -0.60470396 0.07459188 0.19170707 1.0868046 0.39321956 -1.8951811 -0.9870213 0.43374702 -0.91815966 -1.0376662 -1.8241694 -0.120052546 1.1243751 -0.21866459 -1.5907979 -0.83087474 0.64924663 -0.06120142 1.4843147 0.098142855 0.13316345 -1.0950012 -0.7519998 -1.1399527 -0.05485317 -0.21781619 0.6913192 -0.48946044 0.008205356 0.6996746 2.0892048 -0.045765113 -1.993483 0.4696928 -1.4524548 1.2614124 0.23695052 -0.89207757 0.5112011 -0.17482498 -1.508478 0.8374858 -0.74277204 -1.0730399 0.9190306 0.22453141 0.26189288 -0.7765411 0.1664239 0.22924034 1.0284382 -0.03753361 0.37576115 0.5032805 0.27441338 0.5020622 1.4470997 -0.773689 -0.09457743 1.4127741 0.31667358 0.7956128 0.76293087 -0.2894847 0.33143142 0.25331488 -0.8632162 0.3156873 1.5204111 0.91426665 -0.92023176 -0.12197794 1.4035085 0.5984495 -0.17605413 0.4156192 -0.3266115 -0.8584295 1.44062 -0.8747668 -0.12311361 0.067073464 -0.7486477 0.47256428 -0.4234572 0.3972934 -1.1717657 -0.60059446 -0.2751862 -1.6145271 -0.032354757 -0.2498879 0.18373294 -0.21842991
道 0.5272456 -0.43309954 0.15679753 -0.6369149 0.7666841 -0.47459188 -1.0144478 0.3978817 0.028605657 -0.31768858 -0.057705253 -1.4361817 0.58903533 1.1546597 -1.0473228 0.5988418 -1.0598493 0.14196597 0.012941143 0.21171872 -0.38849738 -0.7905031 -0.525881 -0.8328745 0.43170354 -0.6850668 -0.5306531 -0.6489153 -1.2028782 -0.53083456 1.445948 1.0256534 -0.41540644 -0.51031333 0.37516013 -0.83208185 0.91003597 -0.61440974 -0.5576733 -0.62712413 0.32066527 1.732763 0.5861962 -1.0877409 -0.6138301 0.42480776 -1.3675466 0.83133936 -0.37042415 0.029559543 0.004716944 0.5087177 0.28404838 0.59113765 1.8946389 1.0871404 0.29509518 -0.99846476 -0.1882051 1.3463852 -0.5832146 -0.30508754 0.45380256 -0.17526713 -0.16772643 1.3195252 -0.25783107 0.09693051 0.094376504 0.28111014 -0.082156636 0.81995344 -0.67507255 0.6301292 0.4200513 -0.64310724 0.8913269 1.0086812 0.461164 0.6967836 0.32357106 1.0838097 -0.06820785 -0.061968297 -0.8333888 0.5084188 0.51233995 -0.22869374 0.05320757 0.92194337 1.4908783 0.42521235 0.13426039 -0.60121906 -0.66747934 -1.5347649 1.0604159 -0.23993541 -0.04077123 0.080185905
焉 -0.05921052 0.099009916 0.67630947 -0.014929115 -0.42028382 -0.3109634 -0.4940171 0.17620495 -0.18594112 0.7511954 -0.24634409 0.93845296 0.29511997 0.26528627 -0.118256174 -0.066028275 -0.26953578 0.7412765 1.1234192 -0.22525704 0.30616936 -1.2344937 -0.023121774 -0.20478615 0.27865982 0.025489196 -0.008285775 0.3143528 -0.26490274 -0.15448566 0.29935327 0.57843757 -0.8131087 -0.029134234 0.35966748 -0.096217014 0.6873996 -0.25990716 -0.15458831 -0.12752286 -0.16681874 -0.67355084 1.0441718 0.41522893 0.009513313 0.31758133 -0.53905416 0.33484787 -1.2469481 -0.7437123 0.054320328 0.5143071 0.45073012 0.16225749 -0.5590493 0.55832684 0.18686621 0.61923796 -0.34139732 -0.41492805 -0.5288785 0.356859 0.9043166 0.003932126 -0.011160858 -0.0076143676 0.7937723 0.23119837 0.19872485 -1.0074046 -0.7133198 -0.09373659 -0.37082604 0.2698683 -0.8203296 -0.30528212 0.1411332 0.37161452 0.24233258 -0.3865431 0.38067836 0.057795953 0.37287116 0.4168231 -0.27536783 -0.7244924 -1.0130473 0.36061403 0.24582514 -0.29640922 -0.25997248 -0.24408743 0.16089618 0.21262379 -0.492357 -0.016999573 0.11769 -0.043216124 0.10714225 0.25741398
行 0.3922801 -0.06818094 -1.0632617 -0.024987344 0.33483106 -0.16812514 -0.97163624 -0.07083398 -0.69689363 -0.104424424 0.11012891 -0.05096188 -0.61919624 0.19530806 0.36373007 0.89481956 -0.9703336 -0.37863478 -0.98856413 -0.47261778 -0.7115965 0.8117925 -0.91232663 -0.78223675 0.055295743 -0.18924023 -0.77410233 1.0127078 -0.86062723 0.59619063 1.1408887 0.7238037 0.7431098 -0.45080882 0.06478728 0.21871027 0.93575454 0.4789272 -0.3827207 -1.4742122 0.34672093 1.3255227 -1.7344422 -1.2005196 -0.49085385 0.96594304 -0.3742865 1.2800661 0.06137916 -0.4458487 -0.20414452 -0.48140755 -0.50849134 1.3308592 0.207807 1.2875203 0.8296543 0.18710797 -0.61882746 0.51284814 0.5619552 -1.8035871 0.94334906 0.0011454007 -0.8092321 0.49911714 0.8422656 0.31611 -0.43989304 1.3862257 -0.8252164 0.9501517 -0.051382262 -0.7790874 -0.13938211 -0.10571832 -0.84829456 1.855451 0.41449597 -1.2303594 1.6651018 1.1561384 -0.19541115 -1.1297851 0.10995528 -0.70416975 0.694094 0.5936946 0.009226374 -0.10472641 -0.24409837 0.31464437 0.5003255 -0.46670064 -0.47437927 -0.0906124 -0.36904755 -1.6378042 0.29717022 0.7557738
谓 -0.16285883 0.0054271887 -1.8197259 -0.34141865 0.79632455 0.010927847 -0.17075598 -0.5720366 -1.1258525 -0.58354026 0.14346397 -0.6603776 0.50988424 1.1891354 -1.0789359 -0.35049114 -0.34966683 0.20807767 0.27757192 -0.8001628 0.9192408 -0.29334792 -0.88272876 1.2100891 -0.76997894 1.0247266 0.4397307 0.444118 1.2345349 -1.1951923 0.4442895 -0.11606945 0.26323864 0.20533466 -0.5512704 1.7228303 0.62055254 0.86958826 -0.4761982 -0.16329892 -0.35580233 0.83678913 0.938772 -0.38751212 -0.6035403 0.18677859 -1.9014343 0.4010139 -1.0223742 0.049914356 0.11395929 0.16213322 0.81774825 -1.2442869 -0.5611007 0.5513141 -0.09990431 -1.0063416 0.7703202 0.29359233 -0.11601232 0.635884 -0.23805428 -0.2659707 -0.37279496 0.23209251 0.62590504 0.45318446 -0.18960828 0.0026323062 -0.75555 -0.05513483 0.5025172 0.17818722 0.32446772 0.3578358 0.2665313 -0.53102976 -1.6731523 0.077351175 0.05804634 1.4197118 -0.07292478 -0.8375884 0.57387495 -0.65965474 0.40733904 -2.1470306 1.4398384 -0.5218603 1.1042696 0.86305475 1.6476192 -1.2729849 0.45951054 0.05107908 0.33803868 -0.8932622 -0.25165746 1.023623
必 -0.06677194 0.945799 -0.85905206 0.2659269 0.6923824 -1.7291194 -0.36191636 0.16521956 -0.015812196 -0.3804695 1.5903438 -0.6313271 0.8535793 1.0176239 -1.580389 0.798378 -0.3051165 0.8388577 -0.42853197 1.0512183 -0.021009589 0.83438116 -0.053825896 -0.290758 -0.8045171 -0.395589 -0.573572 -0.14902556 -0.062028855 0.07100145 -0.56156635 1.1047739 -0.6475494 0.4593954 -0.58649206 0.43432638 -0.2909471 0.72051907 -0.46208557 0.22675729 -0.47356695 0.5897371 0.18222447 -0.67397135 -0.5717225 0.25204006 -1.0760915 -0.09984158 -1.1375449 0.5705665 -0.48264593 0.4709098 0.5881915 0.1383843 0.58192813 1.3872542 0.8560865 0.29578862 0.45502177 0.98238426 -0.46294618 0.95483416 0.48265532 -1.0470885 -0.44986224 0.047372606 0.94106525 1.0264587 0.1352412 0.37774637 -0.39387316 -0.57939714 0.26552558 0.3942943 -0.53258485 -0.006664252 0.24073075 0.61379427 -0.8675301 -0.29963097 -0.3447448 -0.41947952 0.04115085 -1.5737995 -0.19904405 0.07723726 -0.56462073 -0.46904537 0.16682228 0.5072278 0.08241263 -0.3712687 0.25930393 0.3611174 -0.11629971 -0.63534087 -0.14255196 -0.12782809 0.45008534 0.08951164
礼 -0.26529762 0.4875095 -0.16787075 -0.078010425 -0.033545658 0.01534886 0.56163365 0.18947443 0.080601014 -0.027547339 0.8337251 0.8563023 0.18327095 0.65171206 -0.47149113 -0.35241038 2.179903 0.036727585 -0.48740828 0.3012112 0.9998218 0.1939851 -0.9990217 0.24863061 -0.8310181 0.5014353 0.06108929 0.04800219 -0.32644284 0.40187615 -1.2345128 -1.2477568 0.5972902 0.7760072 -1.0219522 -0.43392512 0.17434926 0.22103831 -0.43097252 -0.57093334 1.4941425 -0.44455895 1.1379259 0.79155207 -0.068904325 0.17314103 -0.7971713 -0.5020977 -0.17625603 0.47481015 0.19991861 -0.55168486 0.5093281 -0.6733322 -0.12588072 0.09649991 -0.63905346 0.35850823 0.025016796 0.09288957 -0.043325 0.7800302 -1.2221686 0.7439403 -0.21971382 -0.52790385 -0.6316984 -1.1939356 0.7131728 -0.22583699 0.74300593 0.3806434 0.24480815 0.10592583 -0.08841938 0.030956054 -0.15722787 -1.8139731 0.13925403 -0.7997578 -0.3215805 0.29639822 0.4848884 -0.5853604 -0.8186823 0.15435259 -0.50745374 0.81860185 1.1215026 -0.77961445 1.4494516 0.42597955 1.0126321 1.7506535 0.26096913 0.22969393 -0.091366924 -0.0742778 0.0015616791 0.07893629
孔 0.27357367 -0.06004689 0.024523623 -0.6808097 0.8687695 -0.40505964 -0.70585483 0.21216829 0.37808156 -0.29893163 0.5680416 0.047729157 1.2633657 1.3862665 0.30508217 0.2358069 0.29124033 0.7805795 -0.64777625 -1.0286853 -0.5218837 -0.4422521 -1.0709927 0.30309924 -0.5388849 0.29935446 -0.895372 0.067732766 -0.028416084 -1.3318623 -0.034496143 -0.114390425 0.14877929 -0.40716243 -0.34874323 -1.0998652 0.7448319 0.4383841 -0.8315401 -1.1949731 0.47911486 -0.07058216 0.26192865 0.6188292 -0.37014797 0.61100805 -0.71569824 -0.46256605 0.4466241 0.3161203 -0.8428024 0.22664851 1.0472562 0.18322755 -1.3876668 -0.29270202 -1.0452442 -0.46409822 -0.18742189 -0.86691254 0.0033513284 0.39454374 -0.25003687 0.6202999 -0.25577283 -0.17306787 0.32808658 -0.5507565 0.0022147757 0.19420753 -0.10477278 0.71130127 0.032643937 -0.08991059 -0.4585693 0.53184366 -0.23899478 -0.14026214 0.3703473 -0.40338525 0.09292361 1.0004356 -0.63445187 0.3361873 -1.011597 -0.055502616 -0.040885486 0.39883697 0.79480964 0.55461586 0.28423452 0.2873558 0.67570156 -0.88036793 -0.21539642 1.3206539 -1.0687264 -0.886355 -0.7389609 -0.2238796
斯 0.6010062 0.9650455 -1.9041916 -0.39820707 0.30555254 1.6301094 -0.19421735 0.29886535 -1.1026498 -0.4398555 0.031179374 -0.11605409 -1.8483089 -0.85588485 -0.087911606 0.3944956 0.8086377 -0.18070573 -0.10039719 -0.48002848 -0.90334886 0.4067114 -0.3809491 -0.30089268 -0.33673373 -0.10602243 -0.45060372 -0.9321855 -0.04668589 0.14772081 -1.0146435 -1.511873 -0.20039497 0.24260372 0.6764217 1.2933452 -1.2649859 0.21843229 -0.28974834 -0.39575085 0.45502037 0.9026842 -0.09775717 -0.31081876 0.34160617 -0.36761752 0.3738015 -0.48357576 0.4598229 0.31418157 0.026665071 -0.3769073 -0.78324986 0.4844425 0.5270534 -0.6335533 -0.13357729 -0.046795417 1.0455201 0.8180901 0.11207272 -0.19074483 -0.20594679 0.3770468 0.06034429 -0.0683238 0.75917995 -0.7192263 0.2983261 1.1203799 0.08122746 1.1303715 -0.08075649 0.55276173 -0.70457506 0.5974831 1.091016 -0.4055844 -0.17301928 -0.86115956 0.5116385 0.4171489 0.63243246 -0.85524863 1.0966969 0.46278837 -1.0947577 -0.44274056 0.6630272 -0.7757937 0.4685557 0.7640361 0.4154158 0.6480131 0.21707433 0.2877134 -0.14078534 0.39009047 -0.67215407 0.04434779
三 0.15271957 -1.6398563 -1.489537 -0.015831225 0.60950446 0.6369394 0.18434766 0.5444477 0.30274203 -0.29620957 0.11149836 1.0316969 0.03196357 0.31420574 -0.6785011 0.3820224 0.63619024 0.49959874 -0.10648338 0.124491334 -0.26115012 0.92921984 -0.43230537 -0.10662905 0.30476612 0.3455773 0.78001094 -0.19133496 0.9195404 1.3784441 -0.5480358 -1.9161383 0.22752053 -0.6518166 0.1130926 -0.10988511 0.3061311 0.36447066 -0.56561494 0.011061089 0.055354137 0.14240985 0.72705615 -0.19164592 0.48426503 -0.34057635 0.03323866 -1.2283062 -0.8481889 -0.114274845 0.17710583 -0.14637007 0.27008578 -0.6699099 -0.39977115 0.22463226 -0.09735278 0.58902144 0.60166484 0.039557997 0.41960034 -0.6197988 -0.7906035 -0.28818431 -0.6629493 0.54665154 -0.24440043 -0.949448 0.3559553 -0.56406075 -0.42462963 0.7438326 -0.9099689 0.09468263 -0.94143283 -0.07996292 1.2641479 -0.5592227 0.42170903 -0.39259607 0.81098133 0.4014485 -0.3040925 -0.20218544 0.48193714 0.21967906 0.6096095 0.25997177 0.6398981 -1.0537975 -0.41714156 0.43470812 1.0669328 0.22590616 -0.049853437 -1.1352403 0.186539 0.778265 1.1190052 0.6168522
能 -0.3975235 0.45260242 -0.21398698 -0.4747264 1.485339 1.2709662 -0.14968081 -0.060253732 0.4531417 -0.22095607 0.9640959 0.51867056 0.21245193 1.3821037 0.19995055 0.01077483 0.68763745 0.72188425 -0.92345303 0.43585795 -0.09109203 0.29764387 -1.0477953 0.24966758 -1.363891 -0.04994048 -0.68197393 1.1920222 0.9761422 -0.06266077 -1.1013218 -1.5340471 -0.19787957 -0.7006773 -0.6069515 0.81474763 1.0623418 1.1772758 0.28149188 -0.011787817 -0.03573061 1.0594214 1.3674895 -1.0453546 -1.0657682 1.0063287 0.65301514 -0.31096712 -0.8560896 -0.2617193 -0.52610874 0.81472474 0.24377656 -0.4361555 0.34768242 0.1425334 0.480378 -0.9675771 -0.18154512 -0.41230258 0.7829548 0.82030416 0.12011649 -1.1988239 -1.383102 0.11943433 -0.48312804 -0.87932426 -1.366963 0.25275138 -0.19021998 -0.9748487 0.57493967 0.8544379 0.18979973 1.2794778 0.35607713 0.26934865 -1.1852003 0.8087174 -0.35302415 -0.52110696 -0.505209 -0.77264726 0.082017526 0.040890932 1.6308228 -0.75854445 -0.2297263 -0.09009511 2.0028896 -0.027585367 0.106502086 0.2452932 -0.470871 -0.12514706 0.07092473 -0.049146835 -1.207856 0.36426824
见 -0.34350747 0.268753 -2.0120919 -0.48651567 -0.25312945 0.61746347 0.08509829 -1.4109081 -0.30159593 -0.5793912 0.21335106 -0.7770848 0.31125507 -0.30499 0.49143338 0.7977151 -0.05963845 1.1402268 -1.3337996 -0.21057141 -0.4951549 0.31896034 -0.21999286 1.2048305 -0.07294113 -0.009679493 -0.9617524 0.79397345 0.30934843 1.2677735 -1.7673985 -0.3684112 0.52578604 -1.325502 -1.5118498 -0.040771227 1.019918 -0.11016301 0.080068566 -0.31147936 -0.72731453 0.17118809 0.21780922 0.5362854 -0.86630976 0.12719749 -0.8606361 0.11704483 -0.10340503 -0.19036868 -0.3808927 0.04384481 0.7719395 -0.8589428 -0.37343693 -0.45169494 -0.28661868 -0.32992682 -0.6208253 -0.19828592 0.8890166 0.8088089 -0.34757596 -0.33733052 0.7071283 -0.6770821 0.5847684 -1.5167099 -0.51549065 0.82140434 0.022004968 0.30500975 0.42074385 -0.86924654 1.1225927 0.66701937 2.1142344 0.074931055 -0.9366867 -0.4215968 0.052536238 -0.49638858 -0.49130732 0.5062923 0.9861801 -0.012605842 1.0562909 -0.87170696 -0.17356592 -1.0622158 0.23266654 -0.10899477 -0.4959624 -1.5691384 -0.3361028 1.2128897 -0.31021643 0.40718 -1.7435837 0.93208474
学 1.3475449 0.799671 -1.0479708 -1.6820785 0.998259 0.35458323 0.5518307 -0.54654485 0.6987495 -0.6164256 0.6071078 0.76415676 -0.7679089 -1.1588894 -1.172698 0.77820295 -0.7029924 0.624478 -0.3976986 -0.55371076 -0.041808344 0.28764006 -0.0125463335 0.30676273 0.6109459 -0.4273278 -1.930405 -0.3947647 0.21644908 -0.15432481 0.34771836 -0.22411503 -1.2429175 0.09429119 0.99664193 -0.45687416 -0.49603295 -0.54727626 -0.020058729 -0.97531426 0.68327844 0.4158049 -0.9778682 -0.45253837 0.21763156 -1.5563706 0.49592924 -0.85372967 -0.968338 0.38629082 1.5302309 -0.6537217 -2.0078175 0.0017401999 -0.28735438 -0.4473847 0.09900668 -0.044928603 -1.1416234 0.64339334 -0.6584618 0.1294136 0.46747696 0.40820566 -0.66855896 -0.5681554 -0.6797228 1.0819999 1.0780425 0.6795811 -0.30354193 0.9637467 -0.5017198 -0.32412535 -0.27467138 0.21445832 -0.21744068 -0.4177357 1.0403736 -0.21870759 0.43084073 0.05023467 0.025209025 0.21984103 0.5911715 1.0955238 -0.8544863 -0.45361096 0.32958895 -2.2363968 1.7939218 -0.4921401 0.6700109 0.39476398 -0.2893815 0.4372777 -0.7486731 0.072747804 -0.414752 0.35828435
事 1.0829843 -0.92315495 -0.683273 -0.033465818 0.5624997 0.5195232 -0.26012212 -1.2012504 0.10585624 -1.2445631 -1.0691286 -0.7828461 -0.7958821 0.4911487 -0.7464279 0.50896937 1.0726665 0.87199587 -0.89081526 0.34427407 -2.3956447 0.071120866 1.1135297 -0.54755324 -1.0626348 0.45398673 -0.9180738 -0.13396952 0.83535266 0.13306078 -0.4783423 0.14640267 -0.1775607 1.5470227 0.24086232 0.66516095 -1.0277463 -0.8903094 -0.036347494 -0.43328425 -0.20086901 0.19675596 -1.3642026 -1.1197376 0.10443766 -0.7657882 0.94408906 -0.509225 -1.27203 -0.5565217 1.4885988 0.23437934 -0.3873935 -1.7712203 0.31609187 -0.19746791 0.65666765 -0.33249694 0.6926893 -0.5932474 0.5751685 0.023325995 0.70909184 1.409779 0.36477396 0.106821656 -1.354755 -0.5744972 -0.65354127 1.4949152 0.65400916 -1.1191849 -0.745841 -0.11414873 -0.2272466 -0.5843924 -0.5619441 -0.4130041 0.45237142 0.35663578 -0.22257225 -0.30518705 0.53076386 0.20726556 -0.031605113 1.1508448 0.72473145 0.28077152 0.49295267 -0.2827064 -0.29229367 0.71583563 -1.1416037 -0.80453163 -0.72847944 0.07508012 -1.2488441 0.72489625 -0.1404217 0.7541034
是 -0.50408834 -0.9128474 0.42201737 -0.09057582 -0.9137919 -0.04361242 0.20126244 -0.90020007 -0.05436578 0.54811656 -0.3406197 0.6650487 -0.9998371 -0.12554511 0.56406605 1.2571478 0.5062323 0.17928934 -0.48230588 -0.70550925 -1.3138791 -0.67068166 0.07903283 -0.00251431 0.703049 0.48163867 0.17529535 -0.0151326135 0.026301539 0.6398113 -0.41710666 -0.041587852 -0.08791933 0.02946366 0.6555162 -0.63014114 -0.2449272 -0.025541302 -0.77162594 0.5138473 -1.3665612 0.007360351 0.15616097 0.09536181 -0.33891353 -0.66542196 -0.05455343 -0.26763195 -1.983953 0.19227336 0.6425843 -0.06635224 0.12794095 -1.3815266 -0.062305186 -0.98338515 0.2904255 -0.3402553 -0.7683957 0.22514974 0.53911483 -0.16890909 0.65121424 -0.18289469 1.0510286 0.022587584 -1.9359108 -0.41458756 -1.5739844 0.3491609 0.13802019 -0.5815588 -0.72048724 -0.44783717 -0.01804054 0.5501221 -0.36986607 0.08753513 0.67772794 0.30866975 0.5304745 -1.5147597 0.015389408 0.28730047 0.26601923 -0.063148394 0.54481995 -0.9907973 0.36515602 -0.884906 0.39748678 -1.0014954 -1.9137665 0.5699873 0.18239132 -0.69780296 0.11963528 1.6998199 -0.72949904 0.16495502
哉 -0.475506 -1.0067229 -0.4645468 0.89027375 -0.36401737 1.5167451 1.1129216 -1.1902704 1.1061592 0.068125054 -0.47083887 -0.19007236 -0.38016692 -0.75605476 -0.28783426 0.32600507 -0.10424354 0.8404797 1.0254054 -0.13131632 -0.9586105 0.40638372 0.45944178 0.5292241 -0.691237 1.494641 1.0479231 0.26562342 0.014354745 2.0359364 -0.56158626 0.5692575 -0.01614414 -0.13647634 0.23340866 1.6742623 0.8777861 -0.24407841 0.8102414 0.6169133 -1.0143855 -1.2254438 0.30418393 0.12885371 -0.6803343 -0.41439614 0.5234177 -1.1046714 -0.46444032 -0.8696134 0.7309271 -0.14666587 0.2328308 -0.20338053 -1.5275584 1.17568 0.16293812 1.1484891 -0.26311275 -0.41134337 0.15991464 -0.57244563 0.37208775 0.40671363 1.6109656 0.25068977 0.9110901 -0.30164707 0.43011948 -0.6599836 -0.23188485 -0.57799685 -0.22457665 -0.2740902 0.09304628 0.20805901 -0.5974138 -0.52663803 -0.14826958 0.43308085 1.4889264 0.012254584 -0.44047093 -0.10398517 0.38490793 0.6100863 0.48788962 0.2672334 -0.0037722443 -1.0659087 0.03740886 0.39463735 -0.1875271 0.759299 -0.3955485 0.47693193 -0.8864006 0.37928843 -0.19067585 0.49672627
闻 -0.30233023 1.5088044 -0.23811875 -1.3841193 0.43238005 0.5782412 0.2582535 -0.6585777 0.12491409 -0.35667917 -0.4656722 0.29440063 0.22945578 -0.7285507 -0.33157802 0.39286286 -0.18513101 -0.4138693 -0.73991024 0.41229516 -0.47536048 -2.1002805 0.33441824 -0.71344453 -1.1502507 1.5773077 -1.1807559 2.0163863 1.2175117 -0.0015760751 0.9958973 -0.28931683 0.10324459 1.3969857 -0.59863365 0.649293 0.16329972 -1.3467858 -0.16324331 0.7768674 -0.30924937 -0.29871824 0.05467606 -0.6963002 -0.35291833 -1.0653869 0.1447454 0.25633672 -0.9370289 -0.27781975 1.4751686 1.3130529 0.9249414 -0.47880203 -0.061653443 -0.18744615 -0.040487 -0.6560246 -0.7676689 0.54460293 0.60692734 0.4903353 0.290164 -0.22398596 0.1198628 0.5507384 -0.8143174 -0.09353571 -0.6032636 1.3422738 0.29481152 -0.41258118 0.16857497 0.67308867 0.098408036 0.4202073 -0.13594237 0.96132636 0.12789379 0.7023207 0.58148694 -0.8719248 -0.011098811 0.74431664 -1.1822921 0.2818065 0.25646147 0.26817027 0.58479816 0.9540228 1.3587185 -0.55496615 0.74764353 0.06734984 0.10369179 0.39865223 -0.4519575 0.17535324 -1.2010993 -0.30702502
未 0.104983695 -0.48587164 -0.14164482 -1.5598613 0.42230114 0.19355366 -0.63527536 -0.5241747 -0.13248526 -0.27427548 -0.011135087 -0.12697907 0.16227739 -0.895572 0.49207497 -0.051497214 -0.055316526 0.004106366 0.027403228 0.5072867 -0.9088518 0.4254497 0.15391916 -0.072255984 0.81544095 -0.040080532 0.10290177 0.19654772 0.53405476 0.50867456 -0.44635913 -0.18760787 -0.03454801 -0.8047668 0.2292926 0.035662804 -0.020778263 -0.9981642 -0.14334604 0.492156 0.077600956 0.073947944 -0.8289941 -0.776225 -1.7845317 0.050860967 -0.49542063 -0.16021484 -0.5760841 0.18282421 -0.30051786 -0.99971503 -0.83985126 -0.4446743 -0.41899484 -0.3582406 -0.646091 0.7624192 0.42836308 -0.069736145 0.6564047 -0.7390219 0.32412404 -0.5055965 0.6465259 -0.5334851 0.35896638 -0.47359794 0.6037363 0.543875 -0.5761678 -0.55891865 -0.9791409 0.10707323 -0.328453 0.53033143 0.50323766 -0.032565482 -0.096409 1.1517241 0.107091844 0.34594697 -0.62253237 -0.03782176 0.33232838 0.92202204 1.4084991 0.69625413 -0.68632394 -0.02646637 -0.68635255 0.1632 0.04937811 0.7059686 -0.18749507 -0.24523391 0.83529776 -0.646409 0.7241156 0.25776395
公 0.53988373 -0.5550057 0.472332 -0.05905532 0.65120876 0.36203724 0.075311586 0.10304225 0.43211743 0.04262665 -0.3328202 0.1558681 0.23390266 -0.91297543 0.37509394 -0.028176757 0.57602745 0.42740676 1.2023759 -0.5201159 -0.51851046 -0.31052065 -0.18015817 0.17602941 0.77146673 0.36357376 0.03286037 0.27069142 -0.4289059 -0.30241328 -0.19778234 -0.40218592 -0.4235463 -0.5046624 -0.3663646 0.080322 -0.78666764 -0.018874409 -0.039814312 -0.29008114 -0.3339929 -0.3705877 0.32413888 0.7749187 0.4706067 -0.43777716 -0.7247216 -0.5082177 0.22961648 0.11501737 0.18159047 0.19385739 0.08416148 -0.08677872 0.74724096 -0.011202624 0.02242242 -0.3377714 -0.40515795 -0.14418972 0.62777287 0.41438678 -0.5154757 0.2633121 0.47709942 0.0194294 0.114248075 -0.6224525 -0.5872681 0.10599389 0.6360111 -0.26239824 0.11317495 0.6690251 -1.1567703 -0.15047692 -0.2907826 -0.16882385 0.53919923 0.7736741 0.24005617 -0.16984282 -0.33319262 0.25701317 0.3974776 -0.84093386 0.5019797 0.025706936 0.44762525 0.38034096 0.12115564 -0.64487845 0.17275904 -0.1489606 -0.41660774 -0.32244077 -0.47460738 0.474038 -0.104423806 0.031092456
好 1.1979902 0.17906553 0.96940327 -0.44898188 0.5079739 -1.352571 0.18803668 -1.6132706 0.7721218 0.18321551 -1.4261494 0.49214634 -0.99673593 -1.9890697 0.26670268 0.17962074 0.47018465 -0.14057149 1.725667 0.8883515 -1.2377874 -1.3243704 0.45996922 -1.1016061 0.36204576 1.2660074 -0.06814035 1.238587 1.1140257 -0.70493287 1.29132 0.35071066 1.4640236 0.40324953 0.35070795 -0.5402467 -1.251463 -1.3689414 -0.57268125 0.35925683 0.47063574 -0.4237039 -1.0228889 0.5698671 0.18037857 -0.32852247 -0.73698294 0.97993565 -0.6249837 -0.12715372 0.75496006 -1.7381678 -0.21227248 -0.5793381 -0.79568005 -0.12423125 0.96989405 -1.2788918 -1.1435939 -1.0170312 1.7140197 -0.30597806 1.2178473 0.8429955 0.7409423 1.5765984 0.28881764 0.32739696 0.7702176 1.4395591 2.476269 -1.0473287 -0.95729613 0.03097658 -0.44973686 0.47732076 0.28944242 0.49300393 0.29756063 2.0294755 -0.067266315 -0.19911143 -0.18342629 0.98696035 -0.5804535 -1.1038607 -0.29659817 0.71079767 -0.41150978 0.055911347 -0.2718649 0.9764986 -0.63511264 0.010619539 0.66798675 -0.8104588 0.40920815 0.029965106 -1.3198899 -0.11055221
我 0.28210983 0.059215277 1.032599 -0.48187202 -0.87814814 -0.56037116 0.20099428 -0.4209927 0.4864793 -0.2868276 -1.0665549 0.86812514 -0.50843966 0.57975596 0.016074857 -0.33959255 0.27852502 0.24777466 -1.1596783 -0.44156075 -1.0054394 0.12832126 0.22462647 0.83363956 -0.52062637 -0.6850385 -0.21460964 0.73399884 -0.32453543 0.5953829 0.37781173 0.056372464 1.3544525 -0.36817715 -0.36665946 0.39728293 -0.6383449 -0.26133946 -0.6976729 -0.6081897 -0.8265732 -0.33459684 0.37941566 0.61526895 0.6007401 -0.817852 0.71694756 -1.0288178 0.14789934 0.2500328 -0.66179746 -0.4015784 -0.5022669 0.23071767 -1.5999635 -0.1455047 0.21352272 -0.22536299 0.05557646 -2.1814566 0.17899938 -0.9662294 1.2734373 -0.403172 0.49954402 0.7074205 -0.6406502 -0.5806544 -0.4715602 -0.3441183 0.6437184 1.7188716 -0.22618629 0.470525 0.71887773 0.7094249 1.3629662 0.11228151 0.60876566 0.55115336 0.8925787 -0.37885755 -0.033013362 -0.30520096 0.35221556 -1.4736049 -0.14235458 -1.0654858 1.3418068 -0.6192376 -0.89524394 0.98616874 0.23017918 0.3530588 0.27851546 -1.389116 0.16926636 0.71978694 -1.0081165 -0.7539695
路 1.0509593 -0.30142164 0.65353495 0.015307762 0.37304285 -1.332164 -0.4575026 -0.6321946 -0.0821726 0.6712081 -0.5015352 -1.5341898 0.12027429 -0.33621597 0.301261 -0.9099752 0.808596 -0.23296823 0.21459648 0.4800577 -1.0418148 -0.3426611 0.64208645 0.74553233 -0.04281301 0.5325031 0.050881762 0.1663903 -0.13245876 -0.0056400616 1.3388445 0.09699613 0.70712423 0.082348615 -0.68812454 0.4040831 0.1944467 -0.9032278 -0.69946826 -0.6661577 -1.0374774 -0.5513258 -0.54075116 1.1209491 0.17213878 -0.5141794 -0.31224188 0.43191344 0.6268858 -0.10014934 1.0587883 -0.3040939 -0.40432182 -0.54989326 -0.992591 1.1313522 -0.7795343 0.5912525 -0.3422071 -0.65439534 -0.09936516 1.0922672 -0.3969253 0.33038148 1.1737406 0.44052306 1.2579906 -0.6295346 -0.5720857 -0.70544326 -0.40998578 0.84881383 -0.81317383 0.1998665 0.26412186 0.30077392 -0.42982978 -0.9338103 0.4814315 -0.1568396 -0.51067585 0.028128322 -0.13456638 0.32308793 -1.3697342 -0.53236884 0.2896623 1.1385089 0.28776795 1.2717139 -0.27628186 0.8968496 0.17151803 0.9457162 0.13264516 0.6511877 -0.19750021 0.7496042 -0.4823466 0.24756996
在 -0.20506786 -0.02601105 0.046947025 -0.37801465 1.0173973 -0.9802703 0.22838067 -1.2268394 1.0382979 0.38861492 -1.362975 0.008465572 -0.011475943 -0.60583586 -0.5079054 0.7354129 0.44010618 0.22700258 0.020984255 0.3436463 0.0032348607 -1.33299 -0.19251947 -1.3258914 0.37645045 -0.45277977 -0.090951234 0.02062416 -0.6924752 0.8467728 0.8870839 1.2034082 0.46753058 -1.0773876 0.55257666 -1.7365307 -0.0154949725 -1.585834 -2.0341494 0.08059513 0.15557688 0.26887706 -0.43625104 0.014720056 0.084557325 -0.8665558 0.73832446 0.14582726 -0.48690942 0.32322684 1.1677291 0.3301358 -0.64125484 -0.40774363 -0.11107655 -0.60565984 -1.2090666 0.08252741 -0.6469296 0.99435616 0.027108511 0.1311852 -1.1743279 -0.8481587 1.2193805 0.3365203 -1.722947 0.8706566 0.04048322 0.7542638 -0.34359875 0.0072340346 -1.2980709 -0.398254 0.5661299 -0.06677013 -0.12633635 -0.4015183 1.1345332 0.11594988 -1.0873402 -0.56593055 -1.2227763 0.088195935 0.82335967 0.26669577 0.8657993 0.27517366 -0.23927219 0.59913 0.6269225 -1.1645083 -0.27377522 0.7494111 0.8885726 0.055281896 0.46607766 -0.1576263 -0.21800876 0.3118605
已 -0.15468867 -0.07152567 0.60790074 -0.09793416 0.04856957 -0.6123782 0.70278347 -1.574253 -0.82636464 0.03087158 -1.1819886 -0.31472868 -0.15968245 -2.3135269 1.0386131 0.53852654 0.76140267 0.2953391 -0.35395896 -0.29558495 -0.9540702 -1.2351451 0.864459 0.3506892 0.48814964 1.3198491 1.0099559 1.3991898 -1.5594891 -0.27085322 0.6719076 -0.670375 0.62638104 -0.1482048 -0.40835533 -0.35611752 -0.21185398 -0.857448 -1.6157945 0.81455946 -0.13591224 -0.9771313 -0.85485625 0.21011524 -0.06791281 -1.0331315 -0.5299435 -0.41967216 0.8118809 -0.6433714 0.19285096 0.5278215 -0.20205474 -0.45075968 -0.50350475 0.3353066 -1.313767 0.59353167 -0.5823759 0.2563948 0.03098699 0.31351823 0.23797432 0.71777976 1.5762721 1.3756484 -0.71852076 -0.12922627 0.30586964 0.21454123 -0.258814 -0.3242642 -1.6327285 -1.6013113 -0.060566455 -0.5608076 0.07200804 0.28460786 0.41797358 -0.39107078 -0.9981006 -2.1007504 1.9946798 0.74664044 -1.1906861 0.7551926 1.7049046 -0.0046016257 0.18628244 1.380591 0.47739783 -0.7679702 -1.9630035 1.0067331 0.65447396 0.020634238 -0.3476514 0.14429256 0.1778465 -0.2954857
得 1.013045 -0.59684944 1.547841 -0.28934276 0.2948483 -0.972772 -1.3151543 -0.36920893 0.44247466 0.2525607 0.06793792 0.031499 -0.6927847 -0.48719424 0.3300852 0.40181404 1.1385026 -1.0765115 1.2478226 -0.091427654 0.28309783 -0.45451006 0.74489146 0.43568376 -0.58408946 0.35114318 0.3114684 -0.13648249 -0.6594151 1.1788385 -0.14900148 -0.17940305 0.4860643 -0.97979915 -0.040819313 0.98402214 0.21675499 -0.01776907 -0.33456758 -0.045380563 -0.029003052 -0.36502397 0.7954063 0.89383596 0.15902281 -0.014793251 -0.7013053 0.8976831 0.3212576 -0.03283959 1.1558439 0.9861872 0.43170282 -0.77895415 -0.26506424 0.205521 -0.821544 -0.63214016 0.9912464 -0.7696045 0.057433963 -0.3269063 1.4861289 -0.48119506 0.98339796 0.3219918 0.7220975 0.04444606 -0.6732235 -0.42266884 -0.29036662 0.1298125 -0.1341988 0.16532603 -0.19299352 0.77660674 -1.1328882 -0.15408318 0.7386915 -0.5445255 -0.46122327 -0.7846371 -0.28915238 -0.24767336 -0.30784023 -0.041596953 0.4827987 -0.48670962 0.023922224 0.093632646 -0.31811973 0.13914073 -0.038477644 0.73983115 1.0823046 -0.3052225 -0.032873835 0.92031056 -0.063513815 -0.73279077
所 0.121225156 -0.19493859 1.3116949 -1.1750083 -0.38605163 -0.701926 0.6732154 -0.4359417 0.16347766 -0.2931131 -1.2475028 -0.28720492 -0.17073312 -0.260296 0.7177274 -0.31260204 0.79889494 0.13684161 0.046640452 0.32608476 -0.3544897 -0.10453738 1.2446977 0.48891988 0.6368042 -0.43993357 -0.72696865 -0.0059907143 -0.1586193 0.5488983 0.84475315 -0.31183732 0.42016187 0.9654854 -0.36586604 0.6051566 -1.0829605 -0.9476119 0.9608051 -0.14790858 -0.17266056 -0.3771086 -0.67713994 1.0497893 0.7366483 -0.72467965 0.092454016 0.63648045 -0.8942946 0.87765604 -0.036660638 0.11992757 0.68532354 0.06104124 0.42528915 -1.138569 -0.94770455 0.4375773 -0.11507228 -0.9631124 0.6178558 0.37062263 0.055169232 -0.11565809 0.6786279 0.5335965 0.5467425 0.5566617 -0.8972798 0.21014951 1.4476286 -1.5290885 -0.42689046 -0.1864861 -0.15565586 0.18556215 0.7440057 -1.2887694 0.15901022 0.12112441 -0.5130232 -0.63273954 -0.87638056 0.41309637 -0.06944773 0.6324777 0.22061516 0.26990768 0.28055847 0.12778337 -0.6739301 1.4998235 -0.7050958 1.5123682 1.2382767 -1.2141682 0.46468025 0.53993195 -1.1628959 -0.12708914
民 -0.62194806 -0.47331437 -0.656935 -0.013687232 -0.325066 -0.99800104 -0.39235163 0.049387597 0.44247502 0.66206986 -0.058136877 -0.30466026 -0.34453592 -0.9539602 0.6267899 -0.25208798 0.54977036 0.5992114 0.43098187 -0.1330216 0.27221662 -1.1731989 0.45534194 1.720176 -0.12836967 -0.334531 0.6369449 0.32968244 -1.0013103 0.99816835 0.99276185 -0.63176703 0.7703479 -0.17109327 -0.9880303 2.1418712 -0.075498894 -1.3128738 -0.15165892 -0.7573973 -0.8101187 0.44584355 -0.41701275 1.581078 0.12952434 -0.50082284 -0.6832029 1.071988 0.5634294 -0.10717873 0.14000955 -0.9552966 -0.35806963 0.19196834 0.60153025 0.14586319 0.19776995 0.2782639 0.19756094 0.08661039 0.15086429 -0.66183484 -1.4945974 -0.10898552 0.35087582 0.47372332 0.26021892 -0.118512705 0.5039562 0.2709959 0.05299463 0.9728856 -1.4578946 0.30735296 -1.0712141 0.4262196 0.18015672 -1.6511781 -0.91185814 -0.39232072 -0.05239815 0.030811781 -0.26203743 -1.0742937 0.40139058 0.2910934 -0.46896845 -0.57793176 -0.7600995 -0.5083159 -0.6139157 0.5903683 0.09289301 1.7349421 -0.398975 -1.188272 -0.0047654496 -0.025601927 0.49924344 -0.22725497
小 0.65331614 -0.2311901 0.17609933 -0.21178353 -1.074107 -0.6689731 -0.94680446 -1.3454554 0.09046602 0.2604393 -0.5342077 -0.8215614 0.34364384 -1.1873058 0.24889652 1.0860474 -0.4543325 -0.37287682 0.8264096 -0.37724862 -0.52438915 -0.39593503 0.68652606 -0.18170403 0.94293904 -0.7635149 -0.38139373 0.94693774 -1.0476204 1.4293375 0.27514756 0.1561858 0.105018884 -0.46578884 -0.2023763 -0.557381 0.5092992 0.08333136 -0.8276798 0.9758718 0.21166733 -0.73405516 -0.4485723 -0.28746694 0.52456903 -0.33614662 -0.2228176 -0.4042057 0.70265424 -0.4399401 0.23070787 -0.18214624 0.66592 0.44692305 0.7917671 -0.3947822 -1.0796413 0.34340158 -0.0021348735 0.3919858 0.30699983 0.25725585 0.5502928 0.08252834 0.34481424 0.79366916 0.59810376 -1.3853413 -0.13441363 -0.062450305 -0.21457687 0.6762956 0.097282864 -0.4315558 -1.1428025 0.33949062 0.4659376 -1.57318 1.3897891 -0.021852303 0.2760238 -0.96394664 -0.61429703 -0.048493337 0.4571568 -0.318192 0.054922454 -0.4295251 -0.37167028 -0.9352653 -0.94055057 0.8773369 -1.4595367 0.6168949 -1.2272322 -0.9241978 -0.35648668 0.24377836 0.13396457 -0.83818567
天 0.5103381 -0.12474941 0.5812185 -0.104384445 0.20105815 -0.06586996 -0.34824932 -0.97908163 1.0426892 -0.5490174 -0.5372858 0.21404897 -0.20726193 0.055651575 1.1545461 0.84453404 -0.7833259 1.0085723 1.0993243 0.59430546 0.055010233 -1.0532777 -0.045062672 -0.11576543 0.008323454 0.8206102 0.45342013 0.21020684 -0.6629991 0.7760893 0.6485261 0.70273507 0.28160948 -0.11713882 -0.879149 -0.39013728 0.2424359 0.5003999 -0.41169882 -0.6428207 -1.1385429 0.10547574 0.48690188 -0.24990462 -0.31251535 -0.0031059326 -0.35131067 -0.7047517 -1.1124567 -0.37382653 0.6263903 -0.84064835 -0.024053775 0.13887809 0.39964357 0.095619895 -0.025177054 -0.9628989 0.13482457 -0.76930195 0.17441891 -1.4212595 -0.024348881 0.44432664 1.3156567 1.1935388 -0.2059097 -0.95337397 0.583245 0.25287887 0.3720233 -1.2096593 0.7560727 0.061225004 -1.0564531 -0.7913584 -0.013799108 0.5287115 1.1128887 0.25909418 0.83334756 -0.13507138 -0.23207639 0.71499217 -0.057335414 -0.7420313 0.327877 0.5709894 -0.44161445 -0.608289 -0.35169482 0.46882486 -1.1478475 0.8944609 -0.94654053 -1.2572924 1.187156 0.09982652 0.5312946 -0.5264841
乐 0.3490775 -0.22351138 0.9791844 -1.2636836 0.017378174 -0.3493235 0.43989384 1.1344289 -0.21797267 0.0052345395 -0.7422957 -0.74269754 0.48350364 -0.6004289 0.07148658 1.4837103 0.027581243 0.7522169 0.2294135 0.34385905 0.05606383 -0.3706046 1.1025794 0.3653054 0.6901085 0.7128286 0.88148206 0.4178665 -0.17413537 -0.7968899 0.67537534 -0.48897707 0.4581495 0.28756168 0.57425064 0.5307394 -1.4548857 0.18971854 0.25829443 -0.28549758 -0.40987453 -0.115330964 0.45799676 0.74598855 -0.7900149 0.15661706 0.0043336293 0.42677087 -0.6168676 -0.43891516 0.84891534 0.73374486 0.9973032 0.49170646 0.634754 0.064908646 0.049806204 0.08318259 -0.68611336 -0.50099415 0.58779424 0.7088058 -0.5494953 0.76481515 0.9607571 -0.9212903 0.5793436 0.7762051 0.2602525 -0.5358777 -0.4154461 -0.023854624 -0.15639453 -0.27908736 -0.44729453 1.2136029 -0.5879213 0.47792068 -0.14995937 -1.1391118 -0.864258 -0.24854314 0.15414208 0.090777986 -1.1039895 -0.23692857 0.9960391 -0.37224916 0.19491911 0.23248811 0.387338 -0.7802128 -0.34839386 0.81986624 0.7972339 -0.24586073 0.17368262 -0.02045929 0.9872572 -0.7639749
邦 0.6901941 -0.04869103 0.93190736 0.26341966 -0.9920613 0.12327215 -1.2476662 -0.6148605 0.4755259 -0.5809775 -1.1228863 -0.2683413 -0.52071357 -0.42142296 0.82865924 0.9994527 0.57159835 0.32375723 0.49645263 0.19079353 -0.6529876 0.07727973 0.5740375 -0.49271286 0.28849018 0.3779378 0.74394953 0.5241222 1.2606441 -0.042583756 0.24383473 1.0789555 0.3897793 -0.44080564 -0.62646043 -0.94289917 -0.7818595 -0.09231246 -0.442571 -0.21922445 -1.8922673 -0.6584634 -0.4810329 0.2304321 -0.27382573 0.068490565 0.17124476 -0.51674265 -1.3882462 0.4448151 0.75644296 -0.5878281 0.26176047 -1.0451328 -0.60816747 0.42689893 -0.5155517 1.0518676 0.78939325 -0.57832867 0.06797113 0.51969796 -0.31642365 0.54944116 0.2608126 -0.2551711 -1.0188686 0.036905546 -1.3902596 0.60242206 0.26455677 0.9182474 -0.6535491 0.24158782 -0.27201885 -0.095141806 0.3171498 -0.6619487 -0.16897948 -1.25729 -0.44211367 1.0164001 -0.046455685 -0.070391044 -0.35168624 0.36590686 0.3944196 -0.031754427 -0.46213156 -0.5782381 0.21676612 0.18392918 -0.35632873 0.4749377 0.11417587 -0.4053078 0.42613918 0.49529803 0.5775486 -0.40404883
亦 0.035414968 0.3164563 -0.24486594 0.29986894 0.5360476 0.18187867 -0.073821165 -0.24569757 0.36469018 -0.27757245 -0.73107445 -0.87818396 -0.3833199 -0.2992627 -0.39790756 1.1162258 1.1286836 -1.4196885 0.103615776 -0.49825418 -0.24365942 -0.19397171 -0.45752475 0.61537665 1.4520259 0.38636076 0.7719881 -0.23249446 -1.2268531 -0.96028835 0.29186013 -0.44507715 -0.98946047 0.15534526 0.31921503 -0.38777563 -1.2595508 0.23622295 -0.93936986 -0.1505849 -1.1884706 -0.053502504 -0.3781671 0.29108384 -0.6661227 0.43915328 -0.7457331 0.69306624 0.2826798 1.2730792 0.6004172 0.50359946 0.18501632 0.3552513 0.04697226 0.7142601 -0.111297354 1.2427592 -1.2448674 0.2924808 0.7584459 -0.25758162 1.4028707 -0.25407016 0.8431028 0.6400146 0.06734394 -0.71910274 0.89112025 0.86809087 1.0214435 -0.8662317 -0.67199576 0.16858499 -0.14292496 -0.21503973 -0.7270166 -0.90297014 1.2748665 0.52167153 -0.8331538 -0.12208068 -0.36824596 -0.29494837 0.51210296 0.027994895 0.18574294 0.030600837 -0.1849316 -1.1986035 -0.0005834604 0.46969372 -0.18160151 1.0019147 -0.34280658 0.13469417 -0.21561858 -0.891169 0.22679915 -0.35439575
使 0.5658008 -0.20847274 1.0413301 -0.3662796 0.43044853 -0.051215645 -1.3444062 0.36845964 -0.69283754 0.7135486 -0.25387463 0.81237143 -0.2941987 -0.7467897 0.2525803 0.27607372 0.2632653 0.22552697 -0.595067 -0.81045616 -0.105709255 -0.21568494 0.86366606 -0.72547764 0.44021922 -0.074199095 -0.029424587 0.8567214 -0.69068265 0.21575585 0.6880339 -0.40696442 0.6469279 -0.015069932 0.0018990792 1.0579069 -0.36952323 -0.9120131 0.059369516 -0.23446283 -0.050716307 0.21064381 -1.1342171 -0.24861452 -0.8283213 0.55006474 -1.1353657 0.6393995 -0.23389451 0.24725136 -0.48462114 -1.1944438 -0.21693325 0.8589436 -1.309824 0.8124611 0.6247385 -0.26544756 -0.32326448 -0.66372144 -0.5671528 -0.4674232 -0.44560933 0.5292188 1.2077177 -0.14969607 0.92325306 -1.3518994 -1.1461158 0.7037518 0.23393513 0.4538691 -0.7564046 -0.4294153 -1.0232484 0.0788782 0.8794109 -0.096229464 -1.293262 1.2015127 -0.22971162 -0.49799258 0.346289 0.2626689 0.5945012 -1.7112083 -0.21098459 -0.40953928 0.4248434 -0.8587075 0.5899282 1.1637073 -0.47390285 0.5961741 0.23710383 -1.2202847 0.60697764 0.3338976 0.0006607882 0.57502776
大 1.4408679 0.20508991 1.099938 0.5006116 -0.77241087 -0.54639405 -1.2282718 1.2384533 0.8382335 1.4037168 -0.8135225 1.0825298 0.29061073 -0.08703205 0.46170107 0.56351864 -1.7684329 1.1547542 -0.07715863 0.30700728 -0.41486445 -1.5648878 0.3092423 0.03141224 -0.28651622 1.4355747 0.50878227 1.1393446 -0.34608784 0.14306824 0.78535235 0.11864063 0.42210063 -0.42270875 0.80877554 -0.8893406 -1.7936078 -1.4123942 -0.12047757 -0.07258926 -0.040275972 0.5996263 0.79505485 -0.23383486 0.60079205 -0.2353089 0.85730106 0.15420873 -1.6865667 -0.5862561 -0.19091786 0.023738863 0.970242 1.2015799 -0.2665086 -0.4937585 1.1867874 -0.25560963 0.016201895 0.44475162 1.0942496 -1.1861552 -0.7052289 0.14460842 1.3140752 -0.3013354 -0.17320454 -0.14371386 -1.5786091 -0.52730393 0.604382 -0.5494646 -0.18760823 0.3423884 0.03768608 -0.30793384 -0.40491268 1.0329653 -0.0721671 1.2108619 -0.85905164 0.5798624 0.06543668 1.1373811 -0.31809 -0.5932646 0.6277939 -0.7222309 -0.43731484 -0.14956146 0.33593178 -1.0348587 -1.2145932 0.24385934 0.28338268 -1.2021472 0.59608865 0.12088655 -0.7079829 0.6972603
下 0.40758035 0.7137214 -0.73210514 0.8018553 0.15404272 0.39134195 -0.76263785 -0.2643782 0.00651348 0.5102072 0.2556281 -0.13678516 -1.3406303 -1.378325 -0.40069526 0.9953929 -0.4664414 1.0957136 -0.107656494 0.10212264 1.0514628 -0.3816119 0.16573122 -0.34216797 -1.0997307 0.50294137 0.7136567 1.162663 0.049634185 -0.20137827 0.94002295 0.64790034 0.16374086 0.5944573 -1.3277729 -0.5180328 0.1493457 0.091618486 -0.6587877 -1.0169213 -0.15512037 -0.7041793 -0.0764882 -0.30770504 0.15138951 -0.08357648 0.015101133 0.31014287 -0.81571764 -0.48268425 0.3751676 -0.17880718 -1.1236278 -0.60041165 0.34010318 -1.4314201 1.3345436 -0.4554041 -0.8988984 0.50483197 0.71504295 0.56179947 -1.260053 -0.22134015 -0.56290984 -0.8573902 -0.4933114 -1.0805868 -0.398534 1.3113492 0.13962728 0.87265515 0.23086049 -0.61674976 1.0844096 0.079432406 -0.124083854 1.6838478 -0.90740335 -0.6182316 0.1836359 0.79511285 0.30824956 -0.2317535 0.6244061 -1.0896286 -0.15703581 0.6625062 0.27125177 -0.5249706 1.3923186 -0.43088195 0.46061695 0.72010654 -0.258342 -0.7352654 -0.27497435 0.2966466 -0.5992686 1.1177973
贡 1.5435688 1.1300205 0.37352833 0.26966044 0.12940833 0.45368072 -0.75758195 -0.24743775 0.6618985 0.5624646 -1.5282137 0.5576584 -1.7154422 -0.61424345 -0.06133166 0.96765006 -0.06305074 -0.011915168 0.6754485 -0.15474574 -1.7115617 -1.1129375 0.48993707 -1.4853126 -0.7413626 0.14454246 0.17892891 0.0072520073 -0.33250198 -1.2731575 -1.2094659 1.2757003 0.5871136 0.900066 -0.122008435 -1.3532193 0.13953488 0.66336584 0.08636278 -0.57719254 -0.98123014 -0.6493389 0.022300644 -0.40008572 -0.8364699 0.24064328 -0.2663761 -0.5453352 -1.2683336 0.35004535 -0.3635061 -0.63543355 0.11397912 -1.2996054 -1.0094945 0.78037995 0.6967436 -0.6511117 0.17384326 0.7514745 1.0642787 0.51901853 -0.2256529 0.13767198 1.4640721 -1.0575597 -0.89677083 -0.58101845 -1.4401591 1.3163936 0.100657746 0.5407559 -0.22121347 0.0038997312 0.13604657 -1.1765236 -0.27439284 -0.054074463 -0.04499279 -0.31341797 -0.79479426 1.1834275 0.56722295 0.27847 0.25068834 -1.0422235 0.20523193 0.4821705 0.66851825 0.8672039 0.90432036 -0.020025749 -0.79942405 -1.0607772 0.5174419 0.60054094 0.24212688 -0.20044266 0.36503243 0.9765539
欲 0.80285025 0.06134172 -0.3482313 -0.13406022 -0.12628831 -0.53566414 -0.24139014 0.70849794 0.62576467 0.059204727 -0.822049 1.3299205 0.9161639 -0.30191562 1.2598721 0.5492549 -0.60120326 0.1828003 0.30786747 -0.026573528 -0.44540772 0.35667107 -0.41816896 0.057117734 0.07804694 0.772612 -0.09827022 0.90907484 -0.75543296 0.066416204 1.1548333 -0.250507 -0.5773634 -0.5927793 0.11482287 -1.06452 0.36110988 -0.7664579 -1.6412853 -0.39244363 0.0029125072 -0.5031128 0.4773521 -0.1924921 -0.10504819 -0.28294334 -0.44992584 0.5481337 0.20948775 -0.24589452 0.33038825 -0.57859284 0.79292 0.0050558457 0.093458734 0.103541896 0.4724343 -0.4461947 -0.6186747 1.0198741 -1.0271406 -0.23984735 0.2759617 -0.08052364 0.61092585 0.8023449 -0.51890427 -1.1970543 -0.49354428 0.76378125 -0.16595268 -0.037171964 -0.79954416 -0.51353174 0.2214466 0.21018948 -0.09179424 0.062911116 0.054559793 -0.23738278 -0.53870016 -0.33810356 -0.3328079 0.04688789 0.27647027 -0.28029877 0.25594044 0.21482052 -0.16404125 -0.10581737 0.7408953 -0.61400557 -0.99114454 0.034440976 -1.5459001 0.4417754 -0.1516593 -0.3869038 1.1772267 -0.04987314
诸 1.4538043 0.09157632 -0.7046394 0.0035186037 0.30383685 0.46363673 -0.26748034 -0.32449162 0.015739266 0.45845494 -0.91820014 0.7286162 -0.46869528 -0.3131952 0.03509366 0.080971695 -0.67129034 0.95011574 -0.36969343 -0.036542807 -0.9298217 0.41488987 0.08007162 -1.2976409 -0.6245749 0.3474371 -0.26228547 -0.3797318 -0.18923436 0.38466063 -0.5646744 0.8096105 -0.6355894 0.98314834 -0.45199394 0.6688621 0.6600793 -0.4217572 -0.5565424 -0.84244287 -0.657859 -0.9628456 -1.1188655 -0.029106729 0.8833274 -0.12834872 -0.11931215 -0.30398023 -0.56106323 -1.2367182 0.037246853 -0.4773854 -0.17583564 -0.5669194 -0.5676045 1.2475688 1.5341057 -0.013635353 0.41193765 -0.47262552 0.12219558 0.7982062 -0.26172146 0.31301445 0.18268254 0.10645017 -0.46379918 0.042994287 -1.3438282 0.9004542 0.35728082 -0.119646505 -0.11543584 -0.039507274 0.74904853 -0.76098305 0.8115622 1.1820456 0.0823591 1.2175479 -0.24748509 -0.13231277 0.3958517 0.610394 -0.6794217 -0.9677258 -0.34281734 1.0882008 -0.5428769 0.8303136 0.35643727 0.12991908 -0.8787934 -0.09574364 -1.2198225 0.881524 0.297458 -0.055542156 -0.8372009 0.8865077
从 0.011474941 -1.125096 -1.5281827 -0.73975194 0.040944032 -0.03529267 -0.12363562 1.0590185 -0.06439014 -0.9401011 -0.39582568 0.93052065 0.65729505 -0.047882438 -0.486422 0.48712987 -0.53080434 0.25679243 -0.42446515 -0.38554415 0.22599281 -0.92666733 -0.1976187 0.2927885 -0.97622114 0.42500684 0.21950975 0.3838416 -0.025030877 0.38053465 0.9585202 0.5581993 0.13038462 0.31931219 -0.026511194 -0.000857728 0.46818244 0.029778415 -0.48757148 -0.5577508 1.237984 -0.22655904 -1.1291403 -0.59079105 0.49811512 -0.5439621 -0.03223883 1.0129629 -1.3452196 0.08135663 -0.475777 0.7710505 0.09892955 -0.0488817 -0.49405095 1.5567871 1.0113585 -0.7933993 -0.14424762 0.05565413 -1.0947783 0.48857024 -0.5454229 0.60589474 1.086255 0.6464503 1.4907887 -0.17581867 -0.10204175 -0.34918255 0.21961258 -0.008900725 0.59089595 0.3974859 -0.27666193 -1.3592232 0.691539 0.96376646 -1.1220565 0.44145185 1.4118892 0.39920908 1.0886472 -1.6959914 -0.30816218 -0.25039107 -0.56718373 -1.0389521 0.2834463 -0.23310052 1.441953 -0.4813859 0.7790793 -0.3710091 -0.4537239 0.218651 -0.41068736 -0.761086 -0.24109334 1.5810246
文 0.7812873 -0.38532883 -1.5495453 0.85611194 -0.7794159 0.22426312 -1.1181992 0.16731653 -0.34900048 0.08699739 1.153754 0.53457993 0.69518095 0.016216444 -0.030511271 0.88485086 -0.19840536 1.2802233 0.6308151 -0.28943762 -0.81310934 0.042875912 -1.0112618 -0.58868784 -1.1709403 -0.45954847 0.38157326 0.20321643 0.31057388 0.25360483 -0.74090564 0.04898382 -1.2694912 -0.62056404 0.19918379 0.2716462 0.64973587 -0.07561825 0.38857174 0.31704926 -0.8794734 -0.13475072 0.40892175 0.24390279 -1.0686874 2.0875964 0.5830928 -1.1406068 -0.5893756 -1.1672835 -0.8472428 -0.18946314 0.58714885 0.9336429 -0.17473231 1.6866238 1.3939267 0.1396237 -0.11238243 1.5090901 -0.4303178 -0.72482425 -0.25345835 0.3687183 0.40023598 -0.39144972 1.4327478 0.19506955 0.824939 -0.21813196 -0.8647637 0.687092 -0.25366905 0.9689413 -0.47564477 -0.3562155 0.12054757 -0.30997172 -0.6667961 -0.22572052 0.30561253 0.45485765 0.48543245 0.41362062 0.29313576 -0.51447105 -0.29200467 0.47462407 1.6330361 -0.5756193 -0.8042424 0.15228292 0.36212105 0.27992284 -1.8963653 0.760462 0.0427749 1.1817379 0.84435374 -0.563755
政 0.79693925 0.97111416 0.047695585 -0.027031576 -0.11959187 0.7662037 0.34622082 0.3037083 0.8471284 -1.08723 0.7023574 1.1622422 -0.5036981 0.37576598 1.6471246 -0.10608677 0.4373855 0.7325223 -0.36708307 -0.89563245 1.488481 1.979596 0.2394405 -1.0396346 -2.0521975 0.06975379 0.3644773 0.7702487 0.31216246 -0.6846728 -0.67778295 0.0022265376 -0.63311076 0.4500459 -0.471952 -0.1722814 -0.3423572 0.2647261 0.42302424 0.17403883 0.21737634 0.21073505 1.1784968 0.81633675 0.37104654 -0.074294776 0.6467858 -0.7828478 -0.6390598 -0.43700996 0.10575728 -1.0273705 0.88838583 0.8350086 -1.3265252 1.8063277 0.3795842 1.1765859 -0.4564712 -0.004861277 0.049199577 0.5443011 -0.44451365 0.5313272 -1.618884 -0.16542177 1.3050869 -0.26297677 0.45617938 -0.9786663 -0.8282835 -0.1954406 -0.112772286 -0.3083056 -1.44972 -1.3123492 0.055861957 -0.69363827 -1.0646198 -0.7471124 1.7162508 -0.25178638 0.3236007 0.35930035 0.12777542 0.42773533 0.018697798 1.1143603 -0.31658518 0.14142747 0.32219878 0.30665708 -0.7241283 -0.49378243 0.19878158 0.91083884 -0.026649678 0.1806728 -0.12337719 1.1875497
食 1.8155358 0.03228413 -0.7515798 -0.054763578 -0.288138 -0.5239548 0.08500936 0.8105527 0.13092199 -0.78813815 -0.7237239 0.99541336 1.4097092 0.17956364 0.19071841 -0.49512163 0.54333144 1.1245329 -0.69675213 -0.21908875 0.87931687 1.0769955 -0.2116412 0.015549865 0.42989102 0.19169432 0.012087229 -0.04676832 0.17405666 0.90090436 0.009751296 -0.038448714 -1.5053622 -0.54311967 1.0985612 -0.84041303 -0.0056435047 -0.75981665 -0.1661397 0.16428062 -0.5613904 -1.5788794 0.4805062 1.0054072 0.30793092 0.45225772 0.5861556 -0.48503846 -0.19295147 -0.61678106 0.002399561 -1.0382485 0.178138 -0.7395441 -1.3815156 1.2439378 0.03288179 -0.13331564 0.50544184 -0.41433495 -1.4242485 0.95271266 -0.6271101 0.05784054 -1.014214 0.05347362 -0.8494313 0.102814734 -0.10331586 -1.6292946 -1.2836393 0.03716699 0.24375054 -0.78688294 -0.5039769 0.45305404 1.054308 -0.09805658 -0.80190426 -0.82491523 0.107956104 -0.5682838 -0.7436896 1.2912436 0.8694991 0.12196533 0.814721 0.49863237 -0.67056805 -0.16959658 0.069868244 0.35698175 -0.56876266 0.00015280985 -1.2008666 -0.05530273 0.4371647 0.34031174 -0.26119715 0.04699561
善 0.43396524 0.16339242 0.09728671 -0.5531216 1.0050528 -0.997012 0.54179084 -0.09954903 -0.059127506 -0.9960739 0.111405924 -0.55014056 -0.009263189 0.18574816 -1.2902012 -0.43454668 -0.85547674 0.32589695 -0.81915927 -0.61904854 -1.3300544 0.07137504 -0.2601417 -0.023482714 0.6895549 -0.38968158 1.5172482 -0.36619097 -0.4448971 -0.5071579 0.454253 0.98907673 -0.67290384 -0.101057515 -0.27167684 -1.0423203 -0.18682401 -0.115746774 -0.9112824 -0.55780935 -0.26664552 -0.034177 -0.08753618 0.18014333 0.1474767 1.217535 0.40552405 0.18468237 0.3811507 -0.09758588 1.2838694 -0.28813937 0.6521618 0.8342343 0.177689 0.74762696 0.06921803 -0.44251958 -0.12260707 -0.32061246 -0.8071555 -0.5177714 1.2914664 -0.5593054 -1.0243258 0.5225651 -0.01702286 0.7447586 -0.20376489 -0.30309114 0.48152688 -0.40996426 -1.7469691 -0.43274918 -0.26777947 -1.146441 -0.15906315 1.1079961 0.44714344 1.0218914 0.37790728 -0.40233353 -0.88152987 -0.22758633 0.080533504 0.35121542 -0.06776274 -0.0013680096 -1.1547546 0.2559231 -0.24656804 1.1159698 -0.9963684 -0.38217825 -1.0383452 -0.40721738 0.87440115 -1.4179928 0.040442426 -0.03615278
后 0.4525894 0.06207399 -0.41349423 -0.1698655 -0.22396252 -0.20403841 -0.44559658 -0.18998852 -0.049091395 -0.03508272 0.39948308 -0.7980306 0.44590694 0.51704955 -0.3537608 0.012623369 -0.60087323 0.28072286 -0.69879735 -0.44851622 -0.53654546 0.50558215 0.15306465 0.77366745 0.35300276 -0.497037 -0.6793035 -0.4459744 0.0008062545 -0.49341792 -0.67467546 -0.050289314 -0.4105204 -0.010634291 -0.0020795316 -0.6687112 -0.76363343 0.12027212 -0.085414656 0.47348684 0.018427819 0.8407728 -0.5481905 0.060715258 0.17079401 -0.66777116 0.39629337 0.29576486 0.11970867 0.84068865 -0.14419365 0.17757893 0.15116559 0.12993614 -0.15140054 0.6966131 0.64551866 -0.11710634 0.158785 0.23365425 -1.0035683 0.62658906 0.2377805 -0.11069854 -0.55413014 0.1890551 -0.05979943 0.46162805 0.017671635 -0.030004984 -0.19909097 -0.012915543 0.72117704 0.47373974 -0.21740416 0.06542203 -0.7905442 1.1247866 -0.39150122 0.20719184 -0.36736 0.36821297 0.10172489 -0.27413 -0.58108604 0.3875722 0.27414417 -0.067362994 -0.3068826 0.6359303 0.7290939 0.054137215 -0.41697806 -0.39497006 -0.21083799 0.056123137 -0.60018545 -0.30720997 -0.35510427 0.7945345
德 -0.0020259032 -0.7799201 -1.1793637 -0.20902458 -0.07376436 -0.24924816 -1.3134676 -0.61205316 -0.41996866 -0.8398961 0.2306981 -0.09354122 -0.52258015 -0.59484786 0.5309919 -0.35177 0.24159075 -0.64883995 -0.30779463 0.14165819 -0.13453299 -0.037783112 -1.2004508 -0.66306347 -0.4993039 -0.76285803 0.6273342 0.1804848 -0.20036957 -0.23507291 -0.041529417 -0.7215067 0.3145669 0.5882838 -0.93491036 0.8126722 -0.12807757 -2.2135985 -0.34921846 -0.091171764 0.25733697 0.7970903 -0.725395 0.7828588 0.117188066 -1.1633866 -0.024526795 0.18054973 -0.24054419 0.7287523 0.40594125 -0.47267303 -0.5130712 0.023528492 0.14421488 0.35436574 0.8755344 0.7797266 -0.25040722 0.22157021 0.64281815 0.12542267 -0.41396695 0.12720065 0.19830935 -0.14180917 1.2458868 0.4671089 -0.357216 0.5090813 -0.2532414 0.22656418 0.457267 0.38427573 0.19269183 -0.60457003 0.798469 -0.5050555 -0.9315941 -0.24150392 -0.15311047 -0.16854496 0.85029465 -0.85385203 -0.7035964 0.77600914 0.96828544 -0.3899986 0.35400423 0.14527526 -0.00863385 0.5243004 0.7508401 1.1168557 0.6865361 0.345217 0.029279895 -0.10491204 -0.74687207 1.2115537
求 0.35869074 0.30371723 0.5403654 -1.1016693 0.45520338 -0.2886843 -0.38945654 0.22326995 -0.47511694 -1.0715944 -0.3747519 -1.0250018 0.3594095 0.82288426 -0.21604209 -0.7098664 0.79318744 -0.29948854 -0.015224046 -0.47152185 -0.29255104 -0.080269486 -0.1360203 0.22968401 0.28381664 -0.68900234 -1.0112027 0.5538372 -0.114018165 -1.2883807 1.4276706 0.4078337 0.7534136 0.74983895 -0.2952691 -1.5178939 0.018151987 -0.9857089 -0.50863427 -0.51528555 -0.6091841 0.44385928 -0.78039384 -0.027387476 0.9936069 -1.1781322 0.049391963 0.604556 -0.39025027 0.11401328 0.7435749 0.056995697 0.1293973 -0.42917952 0.07136756 -0.09176032 0.0867808 -0.12502885 0.35801452 -0.46328205 -0.3771582 0.760332 -0.07130943 0.27208582 -0.75695914 -0.48430344 -0.54340017 0.006233114 -0.79456437 -0.59292907 -1.4005519 0.25596026 -0.72351104 0.67346984 0.14223284 0.14119835 0.119295925 -0.05482549 -1.3156496 0.015928475 -1.0483292 -0.719736 0.45477435 -0.8712595 -0.44164038 0.9003559 0.21106327 0.75146884 -0.23311329 0.38394973 -0.3478298 0.87405074 0.23198807 0.9063134 0.5419862 -1.1443082 -0.15185419 -0.37343895 -0.17798081 0.12760726
对 1.206836 -0.4222182 0.75840825 0.6798952 -0.8967966 0.09449533 -0.038098406 -1.6756634 1.5660129 -0.9609278 -0.96101844 -0.66465837 0.37727147 0.6340261 0.51027095 0.22104095 -1.1082278 0.24630204 0.12097122 -0.32608774 -0.51917994 -0.008291281 1.028335 0.03310844 0.6361347 -0.016392471 0.17015277 0.25128216 0.17792825 0.2428109 0.3333201 1.0013596 -0.22920454 0.3485011 -0.38120753 -0.32407883 -1.2808775 -0.8467789 -0.83252394 -0.7389416 0.028886585 -1.1458805 -1.2336708 -0.280395 0.7262221 -1.7057686 0.6994012 0.17507806 -0.12069514 1.2183182 0.37173295 -0.9267368 -0.94438004 -0.08285707 -0.0546699 -0.325052 0.53866696 0.11394995 -0.4318249 -0.2856494 0.8083991 -0.46828818 1.0543609 0.58571965 0.99341565 -0.038060833 -1.3887199 0.1944546 -1.0378835 0.20019253 0.30892634 0.9868867 0.18385589 -1.8786974 2.0593474 -0.60775787 -0.47519824 0.11662914 0.50233364 0.26911488 -0.6316479 -0.32703117 0.58197874 0.07620009 -0.55417407 0.5619939 -0.07583578 -1.5893618 -0.13841641 0.30629787 0.18889953 0.27789643 -1.4236239 0.7185373 0.57782716 0.6023084 -0.29814443 -0.25651595 -0.8628792 0.774505
恶 0.3335059 1.2491693 0.46310377 0.64293313 -1.2817401 -0.77415013 0.2704866 -0.9139394 0.39749476 -1.4457748 -0.735462 -0.47119233 0.07385844 1.1104406 1.3893023 -0.58213145 -0.04500283 0.63859594 -0.39105073 -0.1581723 -1.2944131 -0.045642495 0.26212835 -0.019216355 -0.6276301 -1.1648489 -0.9017401 1.402148 0.88663 1.1859156 0.3816402 0.7753218 -1.0617487 0.66940504 -0.16317382 -0.7394296 -0.16726984 -0.98665756 -0.70877224 -0.1731888 -0.15386072 -1.7774462 0.3930101 0.11783393 1.0762179 -0.33902192 -0.42259523 -0.30709946 -0.07786955 0.08093179 -1.250253 -0.14445378 -0.25564545 -0.1392216 -1.1307715 -0.065168716 0.5979356 -0.3330237 0.4476069 -1.4065396 0.66079885 -0.7464166 -0.23555447 0.15139529 -0.2554907 -0.35669366 -2.0631416 -0.077082634 -0.49127117 0.10429385 -0.7351188 1.141696 0.3559912 -0.22333701 0.80014235 -0.7565304 -0.33216852 -0.15672866 0.7601713 0.25861832 0.03047618 -0.3146154 -0.5339635 0.8119727 -0.35609618 -0.14780444 -0.689101 0.27094668 -0.3456472 0.29321036 -0.19772239 0.2754509 -0.8676988 -0.17881556 0.95320207 0.5634788 -0.6349826 -1.0855658 -1.2884642 0.63036513
信 0.21111017 -0.21344185 -0.18970183 0.116539046 -0.49542513 -0.2575685 0.008725441 -0.049749706 -0.2601178 -0.55212724 -0.016100235 0.21969141 0.7222199 0.41039735 0.44763678 0.3528831 0.98812926 -0.35178646 -0.2554012 -0.42309722 0.104724795 0.1715592 -0.60955566 -0.26946098 0.33999988 0.08476763 -0.14410277 -0.2837161 -0.42382115 -0.2940906 0.57081205 0.42379314 -1.7464715 0.18963991 0.34171242 -1.7454897 -0.8710347 -0.33510232 0.2079356 -0.13009815 -0.70991486 -0.29287565 0.39955226 0.68623585 0.7647678 0.6407478 -0.008918213 -0.0135408295 0.1253669 0.5917486 -0.16500832 0.6413901 0.08468908 0.79557073 -0.49879885 -0.02002836 -0.789024 0.6146276 -0.34014672 0.43361783 -0.13903959 -0.14264746 0.6792905 -0.5243389 0.1335568 -0.67231196 -0.6077728 0.65126246 -0.55044156 -0.7409403 -0.33445066 0.4137634 -0.43100813 0.3701403 -0.24655455 -0.1688264 0.30381584 0.054271556 0.5383416 0.13900721 0.61086416 -0.6494093 0.36352676 -0.03200591 -0.49572158 0.56061697 -0.4101067 0.41314384 0.22743422 0.0045288806 0.39394432 0.36834326 0.010612017 0.833483 0.43643695 -0.04611222 0.78915596 -0.16497688 -0.6345251 0.1330987
死 0.45393172 0.028946722 0.056095164 -0.12400995 -1.0924588 1.9881647 -0.5876756 -0.31155998 0.50302345 -0.8257531 -0.51323 0.09806217 1.0472158 -0.970419 -0.07019563 -0.71816933 0.9156925 0.32029572 -0.5239654 -0.9076641 -0.64833707 -0.49361005 0.9510622 -0.2424912 0.474007 -1.143625 1.5833104 1.1877078 -1.112193 0.06625945 1.3985808 0.24901421 -0.8778134 -0.85328543 0.50127715 -0.16414334 0.27181178 -1.7087041 -0.20074482 -0.6832667 -0.59868026 -0.5840638 -0.7588669 -0.78951734 0.2054926 0.57601714 -0.6730589 -0.4449418 0.3941529 -0.46464193 0.30915874 0.34445712 -0.3263969 1.9037013 -0.73024756 1.5120847 1.0955721 0.370505 -0.9120426 -0.5384823 -0.85146356 -1.3570477 0.74844754 0.55973625 -0.07700481 -0.0794208 1.1064644 0.1833428 0.8809727 -0.06862182 0.034641955 0.40013865 -0.983932 0.29825106 -0.38842478 0.5330361 -0.02591323 0.8720463 -0.6853685 -0.4650217 0.43416873 0.16746828 1.7396646 -0.30481428 0.25089985 0.18916698 -1.0604646 0.54317635 -0.029076817 -1.255995 -0.12146824 0.71761286 0.40427563 1.3668886 -1.0964665 0.11361579 -0.13628954 -0.048171684 0.549801 0.7637237
然 -0.553644 -0.5417618 -0.1563741 0.08657042 -0.27125698 0.64351577 -0.16402332 -0.7599495 1.1350327 -0.68326926 -0.031634986 0.10154247 0.16386886 -0.08307943 -0.070314966 0.027757889 -0.19324267 0.867406 -0.16002753 0.48792797 -0.429901 0.073479414 1.2376739 -0.21725336 -0.5045365 -0.1364201 -0.33217394 -0.7314337 0.07190909 0.2900629 -0.5638873 0.048186183 0.79071724 0.55242634 -0.9978087 0.1010824 -0.7441948 -0.62692165 0.6638135 -0.022499435 -0.7930837 -0.97746235 -0.68025887 0.39559224 0.44745955 -1.3531021 0.8874874 0.2452157 -1.0922215 -0.46790168 0.26685175 0.2732843 0.46981916 -1.2018079 0.022511447 -0.40721413 0.9578495 -0.020270694 0.34605175 -0.717536 0.96734613 -0.080646075 -0.40190548 0.032594915 0.41837156 0.06256492 -1.4903114 0.3468151 -0.5434959 0.28222722 0.5934957 -0.058001388 0.36556092 -0.62482506 1.165864 1.1842537 -0.32526156 -0.5192881 -0.90665853 0.6368456 0.9506052 -0.6090071 0.43310714 -0.5232424 0.3287028 0.59071726 0.28690413 -0.10023679 -0.6621409 -0.6306693 -0.1628385 0.19146523 -0.73306 0.613701 0.25755864 0.67045265 0.12513685 0.2626563 -0.4784348 0.38203704
《 0.013686357 0.4751328 1.0583276 -0.070574634 -0.29303566 -0.23425934 -0.10215925 -0.63855976 0.6629933 -0.7882305 1.1581208 -0.2972052 -0.17788474 -0.43959442 0.54894674 -0.15621515 -0.5759468 0.17003347 0.08548291 1.1866695 -0.4242698 0.098710656 0.05301325 -0.85459805 0.07976062 -0.5761112 -0.9014405 0.33555526 0.57290244 0.07493852 1.0754768 -0.0068169935 0.11788716 0.46189457 0.028174631 0.08246216 0.15964009 -0.36137694 0.14466162 0.065369815 -0.37106633 0.4483717 -0.12587844 -0.08347912 0.41759884 1.2492454 -0.05172841 0.19150504 -0.25676814 -0.21726632 -0.20141935 -0.49616486 -0.9153189 -0.35785612 -0.26856858 -0.20284177 0.3361804 -0.67730534 -0.3235316 -0.3736184 0.34268177 0.053126603 -0.04809586 0.35210797 -0.062234897 -0.5792448 0.67993 0.016701523 0.0065081595 0.4116565 0.065625854 -0.21112803 0.29126897 0.006224665 0.738481 -0.16756222 0.10995121 -0.5286492 -0.26699188 0.39596897 0.41945726 -0.20115508 -0.2512704 0.2659293 -0.0746566 0.42754218 -0.1192148 1.1180155 0.21492764 0.3944506 0.6667819 -0.19197941 0.42496258 -1.0367573 -0.110906124 0.89798266 -0.8114209 -0.33463013 -0.08230888 0.87976867
》 0.3750481 0.7119484 0.9748213 -0.3984105 0.008503518 0.5540569 0.22106504 0.04378373 0.5584849 0.18420805 -0.24855061 0.7276079 0.39859816 0.4267362 1.2818536 1.110546 0.33568433 -0.97830224 -0.42696393 -0.71724224 -0.8436918 0.95993596 1.1520022 -0.47871435 -0.6782655 0.7943886 -0.35268003 0.21768707 0.7689321 0.79795945 0.32167858 0.94239444 -0.96731704 0.5940535 0.4412865 -0.6515353 -0.3004077 -0.84254044 -0.5447081 0.004287766 -0.8211758 -2.1688879 -0.8027919 -0.36149573 -0.10203375 -0.6439479 -0.41940787 -0.4657162 -0.64442647 -0.34660038 0.9090029 -0.4279285 -0.69417185 -0.65143734 -1.6701565 0.37433785 -0.21278559 -0.3022862 -1.065595 0.5830284 -1.2934566 0.4689296 1.5892532 0.23075062 0.6724103 0.08125169 -1.10786 -1.2873995 -0.70862556 -0.58022034 -1.0225765 -0.77163064 0.18097243 -0.59560543 0.520831 -0.38077065 0.11129969 0.6847586 0.9344693 0.34196585 -0.1723713 -0.61291945 0.8340789 0.7123026 -1.6534793 -0.036645755 -1.3329386 0.35469136 0.17713714 0.83284044 0.4021336 -0.52672184 -1.6004633 0.33545962 -0.76391375 -0.3714169 0.24414764 0.7016909 -0.2833775 0.7887223
由 -0.5648613 0.58233494 0.8572454 -1.2540905 0.57815015 -0.80469275 -0.8813124 0.4760462 0.6440138 -0.35927722 0.32776573 -0.35599786 0.77714765 -0.74891627 0.26362404 -0.3560155 0.15670873 -0.6245874 0.19372773 0.41043633 -0.75299716 0.1765115 -0.9150266 0.9056747 0.98368883 -0.4814784 -0.41922453 0.07093677 1.148612 -0.7711055 1.0728943 0.50758165 -0.14921816 0.5342157 -0.63617086 -1.0060744 -0.36798036 -0.6750423 -0.6501261 -0.42137226 -0.13982281 -0.54329056 -0.8661016 0.27904716 -0.50424856 0.9564551 -0.50125223 0.61949533 1.1193322 0.10276478 0.26823643 0.96352774 -0.6334149 0.62681144 -0.39504907 -1.1525595 -0.88172084 1.1278924 -0.36806327 0.06944618 0.65168595 0.49497375 0.6636562 -0.40553597 -0.0906156 0.42382056 1.3812201 -0.10127962 -0.093544096 0.4951622 -1.4983389 -0.009615858 -0.36722374 0.960992 0.19075678 1.1027961 0.12029881 -0.062455863 1.1251162 0.7034921 -0.6786578 -0.45608208 0.05633198 -0.69727886 0.0074826176 1.5104892 -0.40534112 1.1695651 -0.96853673 0.32403886 0.91275793 0.6287847 0.31234398 0.7849618 -0.35318345 0.70109946 0.1383305 0.30559993 -0.21803989 0.22731008
仲 0.23137899 -1.2120659 -0.0228507 0.10929156 0.109061874 0.6615511 0.26172227 -0.49291044 0.7395262 -0.74654496 -1.0811851 0.8536571 0.23179229 0.0010252426 -0.69737047 0.62701976 -0.67060286 1.7458004 -0.7469285 0.23724855 -1.6796205 0.2064102 -0.22347982 0.2108803 -1.6462317 1.7058764 -0.81950754 -0.30771 0.23319735 0.9981086 0.012801773 0.12434159 -1.1181943 0.6955933 1.2422515 -1.3806407 0.15075813 -0.101024866 0.19463518 0.12064467 1.662742 -0.5895414 -0.74773353 -0.29660842 0.14220452 0.043401293 0.39608023 -1.2016613 0.06590453 -1.0653635 0.7633767 0.7035201 0.12935746 -1.9068468 -1.6291279 -0.60606235 -0.7972373 -0.446915 -0.117693566 -0.22417362 0.18067414 1.1516023 -0.02886425 -0.12704742 -1.1454444 -1.1716648 -0.45141947 0.14991216 -0.44540086 0.35597265 0.7903488 0.14967257 0.5527151 0.0855789 -0.085756145 0.83329517 1.4202788 1.1945614 0.6694941 -0.4861967 -0.72555715 -1.2854539 0.49322197 0.32835546 -0.7724513 0.6977943 -0.3895907 0.73919606 -0.6120355 0.9202644 0.8699502 0.07297506 -0.11314107 -0.5487775 -0.95368665 0.9604995 -0.3489024 -0.48303908 -0.9436495 0.53727084
