1352 100
， -0.002901384 0.23030779 -0.17231476 0.12232256 0.5336587 -0.19600917 0.71091336 0.007725483 -0.2124573 -0.16180433 -0.23789063 -0.09780711 0.020123385 0.35302505 -0.536078 -0.034173533 0.51219475 0.54161274 0.10146575 0.3391956 -0.16295326 -0.042754516 -0.53280246 -0.07602362 0.07683247 0.48819524 -0.15655349 0.10471122 0.23108362 0.09333607 0.51757747 -0.3658952 -0.60627985 -0.284948 0.31109303 -0.2003347 -0.51581 -0.67621535 -0.18638308 0.18457595 -0.16422337 0.55436075 -0.45218807 0.6008629 -0.15477952 0.0130119715 -0.49734953 0.48503008 -0.48422414 0.59581846 0.042125776 -0.095465444 0.5063002 -0.4951277 0.53200626 0.80807585 0.10997235 0.5840466 -0.12923634 0.059261594 -0.50856274 -0.007832604 -0.21585773 -0.47505078 -0.23788767 0.18220629 0.3147716 0.4858604 1.1920648 -0.35551414 -0.58464193 -0.060288426 -0.6699164 -0.09474588 -0.59445226 0.13890111 -0.55149883 0.07268243 0.45335045 -0.8084434 0.4999877 0.54774857 -0.03936669 -0.31289187 0.38747674 0.6856987 -0.30721667 0.49685097 0.31878686 -0.55667454 -0.014568637 0.49999347 -0.54570025 -0.10039061 0.2216694 0.057754014 -0.35051492 -0.54567575 -0.26831895 0.6152259
子 0.9696297 -0.31283212 -0.5928757 -0.027302554 0.2630668 -0.6101153 -0.66552615 -0.45166603 -0.56069356 -0.09804886 0.2787809 0.6086257 -0.32135162 0.31720224 0.81806356 0.7577381 -0.6015774 -0.03467181 0.5281775 -0.8222308 0.3570223 -0.51047593 0.94195 -0.084064156 -0.20175655 -0.5704197 0.15708719 0.3551668 0.6418968 0.44229424 0.24944021 -0.37176588 -0.6300603 0.67795795 -0.028888546 0.4359697 -0.97099596 -0.40470177 0.620214 0.40569472 -0.6647626 0.493211 -0.15714747 -0.12945811 -0.28159577 -0.08811402 0.6022067 -0.24798536 0.64225805 0.3068652 -0.37272483 -0.20925543 -0.65414166 0.3686409 -0.36935443 -0.44050676 -0.85365576 -0.090466835 0.106041245 -0.38370025 -0.4873278 -0.861427 0.7890834 -0.20060502 -0.39598626 0.044641122 0.4231613 -0.43957362 0.13409966 0.15139464 0.03435081 0.028913738 -0.5481098 0.8323787 0.286302 0.23060547 -0.5688021 0.406787 -0.25874963 -0.69851804 0.22401723 0.8125403 0.48855305 -0.2727239 -0.107031144 0.4668574 -0.66617906 0.23894781 -0.60735536 -0.16622108 0.15270254 0.48197904 -0.33952034 0.2571463 0.45277777 -0.7097394 0.83891356 0.61175656 0.070971526 -0.33854216
。 -0.19710843 -0.21684644 -0.59869623 -0.45861524 0.68758225 0.02311447 0.1803989 0.058227863 0.10244774 -0.07129787 -0.14809978 0.37429956 -0.030916922 -0.23323788 -0.11208929 0.5043464 0.034958277 0.08391675 -0.50560755 0.38946533 0.06927166 -0.07438442 0.083236784 0.67273116 0.37864095 -0.05795878 0.20767239 0.19247892 0.45660362 0.22810517 0.20194046 -0.20162821 -0.51265246 0.0852876 0.033074018 -0.10118313 0.21645787 0.1567682 0.1458834 -0.09068973 -0.32988027 -0.05592161 -0.5388655 0.109704114 0.13169746 0.0062125917 0.3653954 -0.11129834 -0.16796562 0.16585025 0.22673032 0.2515591 -0.38903427 0.077082925 0.28084308 0.13197246 0.012788791 -0.352212 0.11783929 -0.2632652 0.17905976 -0.396121 -0.21430027 -0.09985888 -0.31893945 0.0052409917 -0.39274153 0.40530035 0.37813795 -0.32623827 -0.60238755 -0.28002322 0.33989835 -0.76229393 0.35485595 -0.28897536 0.43722308 -0.01970946 -0.10924008 0.32364133 0.06808421 0.6389911 0.004898588 -0.5813419 0.72993195 -0.5671723 -0.031953566 -0.37849316 0.018376904 -0.096981525 0.09332607 0.56653214 -0.7013387 0.10536109 -0.2045576 -0.018108647 0.09150596 -0.2467669 0.07326762 0.16621983
： 0.6650384 -0.08859185 -0.41801673 -0.59508985 -0.15933976 -0.018602611 1.2083819 -0.70501566 -0.116920784 -0.21429628 -0.6787765 -0.48943955 -0.41216332 0.8092818 -0.07794346 -0.51198995 -0.547839 0.23421735 -0.07045422 -0.24712802 -0.43793908 -0.31059942 0.4361078 -0.3281091 0.5559196 0.45878512 0.32133868 0.21071543 0.8508946 0.59701896 0.124224395 -0.7744727 0.18717729 0.005354477 0.60976774 0.3823264 0.41890275 -0.669001 0.5235541 -0.36228806 0.26436517 0.061481617 -0.10457707 -0.34918267 -0.8179103 -0.45801413 0.22577798 -0.50826794 0.5684934 0.70078033 -0.10751991 0.5199708 0.19135627 0.22216061 -0.9717197 0.10972176 -0.45871377 -0.8920999 0.0141145475 -0.1545056 -0.4972103 -0.52011615 0.56129014 -0.62318623 0.0014421323 0.10176072 0.38244462 0.41616395 -0.22023104 0.348941 0.22208467 -0.4574643 0.44538215 0.08821607 -0.54801965 -0.0057338784 0.18370603 0.17297412 0.13375776 -0.35210592 -0.6418614 0.28795937 0.9225041 -0.3929871 0.4926953 0.57714784 -0.5568745 -0.026500318 -0.043017894 0.236208 -0.904304 -0.32623163 -0.40575683 -0.664928 -0.5063721 -0.11597107 0.27730846 0.56117314 0.82862395 -0.4885121
曰 0.33102712 -0.7094383 0.5959012 -0.70682245 -0.13110389 -0.35535392 0.3140617 -0.3609193 -0.27861315 -0.74055576 0.6516607 -0.47254375 -0.41945994 -0.5265528 0.47930682 -0.7052128 -0.30359402 -0.50536853 0.38574785 -0.38536388 -0.45939746 -0.0020924336 -0.031076059 0.27190524 -0.40107283 -0.2379696 -0.061931033 -0.45669425 0.58597183 -0.27872267 -0.8081092 -0.33582234 0.21565716 0.10906054 0.33747116 0.007432263 -0.5449191 -0.1620386 -0.2982534 0.544041 0.19243999 0.4857216 0.44503915 0.31042197 0.2122925 0.35097083 0.07090559 -0.67476684 -0.066536 -0.0032885436 0.18545389 -0.119876 -0.16427986 -0.34292224 -0.56442714 -0.2184515 0.19043337 -0.7091045 -0.2976962 -0.74802274 0.3483073 0.24276151 0.23603469 -0.22733748 -0.65578705 0.32834652 -0.09470711 0.33373335 -0.96259457 0.14631417 0.5550174 -0.00092949404 0.21925738 -0.30763584 -0.10029623 0.722231 0.051332977 -0.74185824 0.31214237 -0.334103 0.39766914 0.2410824 -0.23730448 -0.21437362 -0.16718608 0.09762971 -0.4366742 0.19763072 -0.21373011 0.109792784 -0.0645407 0.014195763 -0.4238714 0.24953623 -0.19125639 -0.35429788 -0.30207762 0.47209838 0.6313816 0.16316885
之 0.39040133 -0.52942824 -0.33775726 -0.10954969 -0.3024912 -0.37267816 0.011178802 -0.3355652 -0.68871385 0.43355063 0.12652154 0.32414412 -0.19581212 0.36181712 0.5586411 0.0067463233 0.051454455 0.116153285 0.25360787 0.5634118 -0.11020826 -0.0025772585 -0.17469859 -0.5303653 0.89864933 0.61461735 0.15571742 0.1931936 -0.56128097 0.6278536 0.2287376 0.024371421 -0.026034746 0.4011079 0.115994066 -0.2427799 -0.12814271 -0.2385398 0.31027094 -0.02280361 0.33409375 0.8850935 -0.28566873 0.62670064 -0.46095166 -0.42735648 -0.16609052 0.31220958 0.17215534 0.04414809 -0.9623734 -0.0006863531 0.24824406 0.08973641 -0.769586 -0.2101043 0.19758004 -0.42475867 0.35381183 -1.0460321 0.29411373 -0.0006452031 -0.3901128 0.045001753 0.106473066 -0.10580101 0.37232235 0.67287767 -0.13494875 -0.4161999 0.39925775 -0.4179906 0.42588276 -0.15551648 -0.58123237 0.40410045 -0.5391287 -0.3541259 0.24333102 0.33333018 0.45288876 -0.3021995 0.81970584 -0.3884314 0.1274667 0.53874445 -0.14273147 0.1019335 -0.38521394 0.46667624 -0.50183076 -0.22275932 0.09849674 -0.5915879 -0.4388012 -0.6929619 0.49135578 0.53008336 0.579623 -0.21228325
不 0.04373154 -0.4074433 0.3093423 -0.41811886 -0.65706515 -0.13082877 -0.79708064 0.44765255 -0.8031128 -0.42283705 -0.09717918 0.30760828 0.32320204 0.22014958 0.5277859 0.138418 0.044275723 -0.29010817 0.13793743 0.45013183 0.37216812 -0.026413934 0.43993208 0.33168188 0.030050691 -1.2204857 0.3286024 0.18477558 0.62777025 -0.023686178 0.0709019 -0.26689535 0.4266442 0.37966144 0.57900995 -0.9011465 -0.677105 -0.3640186 -0.6817859 -0.07083406 -1.1876328 0.5065602 0.39898992 0.34159255 -0.24448517 -0.4334602 -0.5661494 0.06453508 0.7291515 0.39030403 0.66689223 -0.24050848 -0.17166516 -0.67942864 0.271582 -0.098519884 -0.20164394 -0.38889202 -0.1205304 -0.8319956 0.6947458 0.41959038 -0.07241344 -0.4544675 0.2203523 0.3208054 0.48578387 0.19266322 -0.13384715 -0.17801595 0.08430168 0.62138575 -0.65982497 -0.2504649 0.084215984 0.94644344 0.6533409 -0.73104084 0.6808212 0.47829014 0.6152298 -0.6625509 -0.06644612 0.30914673 0.6721953 -0.2857252 0.81718653 -0.8980601 0.5117905 0.21448049 0.21846473 -0.0977886 -0.042305954 -0.47514516 -0.4245339 0.12423353 -0.7244337 -0.18368667 0.05822677 0.13425276
也 0.19995894 -0.27791986 1.0172694 1.077595 0.28537628 -0.23331131 0.31187922 -0.65309227 -0.54689705 0.071144015 -0.08904511 0.13586356 -0.47210145 0.25112674 -0.17933251 -0.43789148 0.21268947 0.23485987 -0.52427715 0.61016005 0.65103287 -0.40870637 -0.52021354 0.43667316 0.1507749 0.5637469 0.10865226 -0.05307749 0.08429193 0.28329533 0.13557462 -0.2044396 -0.5428521 0.25333318 -0.07643026 -0.9067253 -0.37047982 -0.5622337 0.8357322 0.417598 0.24192962 0.46946698 -0.11558917 0.64967734 -0.12033822 -0.09996866 -0.33733696 0.044935696 0.37111074 0.093784384 -0.57598096 -0.5925572 -0.56387264 -0.5247662 -0.4145558 -0.52047616 0.37906408 -1.1363145 -0.20933019 -0.40487802 -0.41800988 -0.1641607 0.23122063 -0.04521464 -0.44036856 0.4179259 -0.4433776 0.35953745 -0.42002547 0.20715897 -0.7218387 0.74408317 -0.142722 -0.76041806 0.9066544 0.4503672 -0.256189 -0.25143087 -0.35910857 0.11517844 -0.4289098 0.4530865 0.22066182 0.0316153 0.7610148 0.382143 -0.08323946 -0.22263275 0.0072617 0.54998285 0.82469934 -0.17935315 -0.1314059 -0.48023805 -0.12590797 -0.45737132 -0.18088695 -0.32499844 -0.13117373 -0.15789995
而 -0.3351979 -0.26054966 -0.66980475 0.52054226 -0.33892274 -0.801617 -0.11471585 0.05392487 -0.34977546 0.6301042 -0.012525928 0.13421248 -0.13473769 0.16064374 0.56445444 -0.21870793 0.30904385 0.0751972 -0.12682527 -0.1086574 -1.0917385 0.096099526 -0.39050135 0.07878487 0.13110824 -0.107924536 0.14712182 0.2051935 0.54450095 0.12963106 0.3466817 0.15528683 0.12051903 0.8208326 0.69458675 -0.3884011 0.799422 -0.5219251 0.12807912 -0.042997163 0.24730366 -0.13774876 0.9213608 0.005363399 -0.14023913 -0.17578204 0.0595954 0.7712543 -0.7196077 -0.55032355 -0.06704857 0.2554602 0.014576867 -0.10759736 -0.17472759 -0.3135259 -0.39803678 -0.47657955 0.17675282 -0.55059546 0.12649523 0.02246019 0.3651111 -0.6594585 0.31064007 0.3272234 0.07028563 0.7527923 -0.21791278 0.43188313 0.2400483 -0.5117339 -0.88506556 -0.07702513 0.2899832 0.07717076 0.31113642 -0.708529 -0.04175623 -0.007884723 0.045590788 0.13876651 0.46472475 0.3367812 -0.6734632 -0.026935034 -0.42888278 -1.1832861 -0.22601254 -0.49215743 -0.0589408 0.21961889 0.5561558 -0.6049637 -0.058080807 -0.9602572 0.6883387 -0.47209865 0.8231708 0.00020047116
？ 0.5688909 -0.17971018 -0.026200304 0.1323655 0.31795204 -0.13797167 0.41496482 0.061496783 0.5765377 0.002106503 0.7418959 -0.41199562 0.45645705 -0.18218157 0.32264465 0.46784875 -0.26279286 -0.124570936 0.08023307 0.21361575 0.36862227 0.019983087 -0.13083865 -0.24726637 -0.23123427 -0.24450506 -0.7271359 0.099782236 -0.35296592 0.5116883 -0.5642633 0.5597369 -0.49918398 0.020871982 -0.5036071 0.37963918 -0.028925668 -0.25599563 0.007928763 0.45348206 -0.39443702 0.6096645 0.2442927 0.6538051 0.107558 0.29521373 -0.37852508 -0.4377313 -0.34202275 -0.37608436 -0.745444 0.020882217 -0.4250652 -0.4312913 0.043358266 0.33077896 0.5048106 0.03687226 -0.32463992 -0.29496896 0.53136677 -0.26951993 0.6630463 -0.25398132 -0.11049165 0.080674134 -0.42641237 -0.20405711 0.028765514 -0.22362666 -0.23034517 0.41850194 -0.47235334 -0.58157814 -0.08537301 -0.065452084 0.021297896 -0.63566786 -0.35499892 0.40672585 -0.059966516 -0.42389628 0.17307976 0.16939971 -0.53510934 -0.11709383 -0.2837896 0.39371595 -0.7686588 -0.04406828 0.062168423 -0.76132053 -0.107116066 0.24819587 0.38709706 -0.018932365 0.8088444 0.12887204 -0.8118185 -0.06862412
其 0.21832468 -0.39601582 0.1160007 0.053126488 -0.20472951 -0.14498837 0.29496583 -0.22567979 -0.37574074 0.14849052 0.15535906 -0.15975979 -0.32709083 0.64825404 0.49105114 -0.8008624 -0.06441392 0.26026365 -0.12087024 -0.6520587 -0.34135953 -0.34084007 -0.57040113 0.20900483 -0.25624207 0.4593902 0.43674266 0.08152957 -0.42447498 -0.35173002 0.232922 0.4908388 -0.60610783 0.31562856 0.054668978 0.16110033 0.13607942 -0.44338128 -0.41251597 -0.03367243 -0.18103145 0.14824647 0.6723914 0.06427825 0.62948185 0.33392486 -0.35151958 0.7097322 -0.45051494 0.30254138 -0.6400303 0.4517032 -0.40200502 -0.36627603 -0.20368706 -0.07394057 -0.13181648 0.1127769 -0.06418013 -0.51024276 0.0065111006 -0.4053603 0.84291315 -0.4610944 -0.2878794 0.598324 -0.8782879 -0.9314339 -0.007880497 0.2518841 0.70684505 0.25142637 0.3063807 0.23450519 0.009141184 0.8353105 -0.02759388 -0.6387505 0.3122508 0.21252796 0.5374246 -0.1840666 -0.39092723 -0.7656603 0.24610344 0.13103427 0.4246481 -0.31912944 -0.018183587 -0.25484207 0.00023282573 -0.24805626 0.1148494 -0.73222095 -0.6696832 -0.64607 0.20102234 0.48465735 0.5082435 0.30391058
人 0.04623722 -0.51996994 -0.7803374 0.13890126 0.6355287 -0.19156423 0.67692643 0.486962 0.028759072 -0.4621119 0.60652465 -0.15074748 0.35578743 -0.7653306 0.89974195 -0.17155133 -0.26751998 -0.76677674 -0.08832727 -0.12866013 0.40483057 -0.47527292 0.43862247 0.20569505 -0.3589388 -0.6942894 -0.21232472 -0.28179154 -0.36993062 0.054043308 -0.2584291 0.31293413 -0.23707598 0.90490633 -0.09391061 0.08768925 0.20254923 -0.64490813 -0.3448056 -0.20101963 -0.21747337 0.25839394 0.3652223 0.90687823 0.40297076 -0.22131246 -0.74797857 -0.56148815 -0.42595333 -0.021329774 0.48590407 -0.07501339 -0.1811444 -0.62694997 -0.2121691 0.066662885 0.415148 -0.5539921 -0.92792195 -0.61341083 0.19066882 -0.17204693 0.091224134 -0.7441766 0.6305265 -0.39585584 -0.53312284 -0.07647189 -0.08756417 -0.1950708 -0.7521307 -0.053865217 -0.36816454 -0.4176872 0.42285746 0.079562314 -0.3761329 -0.10420661 -0.26550385 0.007185685 0.71211725 -0.25554952 0.42767665 0.083506025 -0.43668982 -0.7995518 -0.22222622 0.42052338 -0.7055199 -0.25834602 -0.23213533 -0.36184528 0.4654007 0.55367476 0.06278047 0.027969915 0.83190423 -0.113120034 0.4213285 -0.59340656
者 0.7108821 -0.061621204 0.010728467 0.79057825 0.19411814 0.92514056 0.28933826 -0.1977709 -0.23008697 -0.56026775 -0.518544 0.54119045 0.2281853 -0.19496174 0.6260138 -0.38253403 -0.28823537 -0.73499453 0.29835102 0.7638094 -0.18259683 -0.46515155 -0.06515132 0.7674533 -0.3631636 -0.80454576 0.22305168 0.13643989 -0.30308437 -0.32700068 0.46765524 0.34730148 -0.3394289 0.5582995 -1.0118651 0.7274631 -0.22405975 -0.8832138 -0.5595437 -0.075024575 -0.5191829 -0.092284255 0.23898609 0.22420567 -1.1549072 -0.68402505 -0.41897956 0.93225867 -0.083743565 -0.3339965 -0.82387143 -0.053890444 -0.49414545 -0.4866555 -0.006515439 0.89697665 0.16243862 0.64883393 -0.35482547 -0.28529966 -0.7791248 -0.22833106 0.48397607 -0.28850806 0.42514142 0.06088631 -1.1213855 0.692652 0.3954431 0.7448922 0.20072143 -0.6269574 -0.2797924 -0.94007397 0.8164169 -0.059507973 -0.59818923 -0.5677079 -0.2860944 0.28368792 -0.3483844 0.4243144 0.063307524 -0.29392385 -0.5430368 0.21117915 -0.5271927 0.043177843 -0.7306116 0.50605255 0.52486867 0.31739324 -0.46074954 -0.63070816 -0.22349551 -0.11684656 0.88632923 -0.11755108 -0.74111336 -0.88744825
以 0.2890546 -0.5321742 0.17053369 -0.44261733 0.092629224 -0.26486722 0.6335689 -3.4599714e-05 0.5829649 -0.15749656 -0.33833545 -0.047560506 -0.7161425 0.111409105 0.58907235 -0.5085657 0.344897 0.10258385 0.07985846 -0.0091978405 -0.5969141 0.08708967 -0.7067142 -0.7194648 0.18936926 0.08526567 0.575926 0.64022124 0.48298138 0.572773 -0.24296077 0.40322244 0.5905123 -0.05866362 0.26058218 -0.47389135 0.56761205 0.4623425 -0.71903515 -0.5617582 0.5758283 0.12110223 0.27300784 0.61190635 -0.7496895 0.048473176 -0.25923154 -0.08068824 -0.31931376 0.5731243 -0.2582355 0.61463046 0.11222908 -0.45451018 -0.51483166 0.105095804 0.50359386 0.09193451 -0.5155745 -0.4775146 0.1169355 -0.39288792 0.3403416 -0.49642855 0.43988544 0.70201594 0.6944391 -0.07121772 0.24819049 -0.26585975 0.2779202 0.04925367 -0.004261795 -0.4798939 0.15665811 0.31382716 -0.31107986 0.15970924 0.928275 0.14909372 0.022506122 -0.055967215 0.6003532 -0.16701193 -0.4780319 0.15225752 0.67699635 0.46661255 -0.68978816 0.04002589 0.014353016 -0.82013893 0.7070564 -0.86362165 0.28528014 0.28188628 -0.36239862 0.7357091 0.22635093 0.4494298
有 0.48389995 -0.5716399 -0.66023904 -0.52236444 0.66057706 -0.7537069 0.30705416 0.01683428 0.42343467 -0.103624746 0.5505581 0.7562488 -0.096575394 -0.30093077 0.9203604 -0.18811038 0.24367465 0.056009565 0.04752569 0.23022056 0.039590728 -0.18484329 0.754223 0.50462663 0.3857459 -0.5719246 0.3872408 0.7105198 0.6502755 0.6480966 0.3893139 0.60137165 0.021048037 0.34606495 0.56073713 0.09605775 -0.1057331 0.4431344 -0.034937285 -0.24793299 -0.8595789 0.27401552 -0.04296182 0.3876162 -0.24501583 -0.28164667 -0.6182435 0.42617247 -0.50717425 0.5651724 -0.073533736 0.29889026 0.17895965 -0.51924574 -0.01789609 0.2603209 0.22699839 0.8377292 -0.7437183 -0.54783535 -0.04207641 -0.67610097 0.15292335 -0.69583654 0.39153156 -0.13973671 -0.23315923 0.36451945 0.6839778 -0.5198089 -0.10985582 0.13800785 -0.82030654 -0.5484742 0.14633986 -0.3214559 -0.5196779 0.020129228 -0.26377022 -0.51998657 -0.57969344 0.0011620633 0.58116245 -0.061104782 -0.56514287 -0.44749376 -0.29187647 0.14988662 -0.9880734 -0.29651618 -0.40336642 -0.17072557 0.03454707 -0.5387467 -0.39174628 -0.03045354 0.24969769 -0.16105992 -0.4040983 -0.03994477
于 0.6288671 -0.48053464 0.3898833 -0.3953871 0.033738866 0.61201316 -0.028927999 -0.15064842 -0.10762496 -0.81732327 0.484781 -0.13933457 0.09957741 -0.49821737 0.82911396 0.5981058 -0.44758186 -0.63673747 -0.16005182 0.14259379 0.15209946 -0.37855238 -0.3117877 -0.18798819 -0.018449064 0.3115755 -0.002824753 0.21793754 0.13923581 0.5375305 0.37592474 0.68661 -0.27501765 0.3948201 -0.09554571 -0.23893885 -0.17015451 -0.4004912 -0.15764166 0.30929935 0.9824025 0.44553012 1.0908753 -0.02641868 -0.50260794 0.23221423 -0.7326572 0.30850974 0.6778035 0.19407965 -0.5728943 -0.5555182 -0.51153195 -0.73230493 -0.1998633 -0.17919624 0.5981797 -0.5906722 -0.38743737 -0.50601625 -0.15956452 -0.08454992 -0.18935464 -0.5432803 0.73897076 0.028425494 0.3237288 0.3182231 0.12494468 -0.08735386 -0.16845077 -0.313469 0.5392792 -0.148169 0.42023548 0.4728501 0.33353272 0.8912027 -0.050819136 -0.21140999 0.7641656 -0.047707558 0.47665572 -0.06953384 0.100603126 -0.29908454 0.78559923 -0.83453935 -0.64946514 0.0070279776 0.62508535 0.29099336 0.3666652 -0.5298931 -0.010506268 0.24296501 -0.031567752 -0.2108347 -0.41450012 0.9075506
矣 0.2550769 -0.21190459 0.035676107 0.060984172 0.23939015 -0.6607603 0.8415796 0.1274787 0.22167227 -0.7512215 -0.30648363 -0.22645321 -0.84651 -0.17373785 0.68460166 -0.46158913 -0.22572881 0.10246472 0.3723801 -0.3023851 -0.5031614 -0.14154676 0.23572865 0.059855837 0.18101902 -0.2627712 -0.15551062 0.3930912 0.26435563 -0.53722185 0.5110995 0.39996302 -0.35549355 -0.28231326 -0.05763161 0.3342252 -0.3941571 -0.7427914 -1.1888276 -0.12456649 -0.21128373 0.5191581 0.062412877 0.36170962 -0.1894097 0.34394002 -0.22063999 -0.069837116 0.149659 0.092329115 0.19014752 -0.04422026 -0.3304644 -0.5723668 -0.24212457 0.21282606 0.6846585 0.4706207 -0.36054152 -0.031851493 0.33182508 -0.5258044 0.112048686 -0.07820662 -0.4573929 0.65284216 -0.55202067 0.6355241 -0.14306176 -0.88852626 -0.39506456 -0.83730006 -0.5031874 -0.65227044 -0.00045894308 -0.14799249 -0.734193 -0.066936955 -0.006172 -0.81516373 0.15590078 0.26504943 0.7308149 0.40496916 -0.86739534 0.24140385 -0.76112264 0.10623433 -0.53298867 -0.79818565 -0.2908509 0.029991195 0.1321918 0.093530454 0.3530116 -0.54584855 -0.16057324 -0.3040428 -0.30106968 0.35255224
为 -0.14716223 -0.61152756 0.20482495 0.8154867 0.9307152 0.08417402 0.09458248 -0.32859915 0.30301926 -0.434679 0.383541 -0.0045434623 -0.20214747 0.7968086 0.7928286 0.55026805 -0.4262911 -0.43062493 0.5368705 -0.00035843332 -0.22767979 -0.15804553 0.844852 0.21306872 0.45944715 -0.52879655 0.4087744 0.5363428 0.03735895 -0.18645158 -0.18664141 0.68067783 0.038825456 0.021007782 0.0002440192 -0.44837183 -0.3379015 0.14105679 -0.049646515 0.4949587 0.36919293 0.45786855 0.24200922 0.5812976 -0.38741863 0.19695401 0.24131835 -0.010141588 -0.30956236 -0.17311078 -0.1324289 -0.19406687 -0.7067261 -0.1271394 -0.35726672 -1.069651 0.3337336 -0.5533809 -0.67683125 -0.31929418 0.10548931 -0.1757612 0.35797316 -0.3187118 0.8250096 -0.17065853 -0.0069990354 -0.19573924 -0.26044482 -0.19238217 -0.23552498 0.37254098 0.45105374 -0.2262487 0.20370397 -0.07133329 -0.049553577 0.70443535 -0.36327124 -0.24631454 -0.3555173 -0.6477075 -0.30217388 0.73150045 -0.62701935 0.16393758 -0.41516268 -0.63352174 -0.08218376 0.05529362 0.6774798 0.4844011 -0.008730023 -0.28731054 0.45958 0.8172854 0.3828371 0.09207207 -0.20320112 0.88031113
君 0.10830978 -0.13413025 -0.34347874 -0.23510776 -0.0897873 -0.7191917 -0.38917178 -0.5464709 0.600091 0.5149463 -0.46723557 -0.12884276 -0.5397951 0.4579904 0.20294486 -0.46511266 0.13384604 -0.35413954 0.07775903 -0.54004514 -0.40846965 -0.50160223 0.56393665 -0.49425092 -0.35902494 0.15282832 -0.49904847 0.576729 0.42310727 0.53167176 -0.051246285 0.11551366 -0.36199293 0.25124526 -0.119601235 0.6490694 -0.019144129 -0.6621 -0.28303626 -0.5196828 0.5159638 0.3975153 0.7468503 0.19126101 0.12276547 0.13250369 -0.3300159 -0.39458397 -0.121764176 -0.019652622 0.08724714 0.20166409 -0.376613 -0.4978967 -0.21979797 -0.19070923 -0.26455888 -0.4125325 -0.057693332 -0.31606585 0.15414305 -0.5236199 0.41387716 -0.5030061 -0.2831695 0.24325582 -0.050047603 0.5097834 -0.033408303 -0.50032395 -0.36466858 -0.90462714 -0.21181537 0.33329833 0.3688944 0.29636276 -0.10200835 -0.21761465 -0.4148113 -0.22735175 0.77254486 0.44113418 0.3138729 -0.2756837 -0.6264569 -0.75904566 -0.1554307 0.47495455 -0.006362941 -0.49377477 -0.04971465 -0.33187574 0.5189318 -0.4526175 0.6952113 -0.51547796 -0.60725963 -0.12043681 0.73628545 -0.1377509
乎 -0.26329494 -0.47901547 0.8880663 0.78523093 0.0899376 -0.1180132 -0.83324796 -0.28617045 -0.113036476 -0.18238154 -0.27239186 0.5529309 0.14345509 0.64045626 0.40723237 0.6371918 -0.017109862 -0.2717218 0.26690727 0.42821667 0.30455518 -0.39186513 0.5303567 -0.32783967 0.41194695 -0.2636034 0.29405266 0.41858324 -0.08882647 -0.31669778 0.16932057 0.45344114 -0.09956045 0.34894943 -0.029642368 -0.59399307 -0.75024295 0.32290852 0.60247266 0.25288418 0.07297385 0.7336659 -0.34656182 0.30822626 -0.3258428 -0.30824363 0.27970293 0.2670005 -0.5180658 -1.0766909 0.16677998 -0.1894415 -0.7138757 -0.040952303 -0.80160874 0.525728 0.32971495 0.31146613 -0.28387114 -0.34962153 0.1834871 -0.6964411 0.44973528 -0.22246072 0.24976891 0.29864573 0.18934616 -0.51105267 -0.67759717 -0.24501112 0.12206936 0.9146302 0.058034293 -0.9735243 0.24151164 -0.22387478 0.14693525 -0.7337045 -0.2476598 -0.12022032 -0.34207928 0.35164836 -0.7791515 -0.6778979 0.23914318 -0.51203966 -0.38078627 -0.17401615 -0.7791279 -0.3801792 0.6069539 0.43367192 -0.6373429 -0.5958682 0.58074534 -0.7118808 0.19447616 0.2276624 -0.3186426 -0.18143749
可 -0.15604593 -0.24237488 -0.23600832 -0.34198275 0.52586013 -0.2577458 0.2733732 -0.08012291 -0.09076318 0.4543313 0.46348375 -0.62761724 -0.8560186 0.76509416 0.9727144 -0.5058054 -0.0026830204 -0.06650245 -0.67711 -0.5941261 -1.1291231 -0.77004856 -0.049368966 0.23559986 0.27919182 0.40542883 0.36475363 0.21959546 0.29832914 -0.21496142 -0.6144365 0.37909222 0.15181185 0.143207 -0.06761245 0.12863049 1.0514513 -0.15294036 0.6538176 -0.5173071 0.26834744 -0.5677778 0.063421026 0.46742737 -0.17010154 0.40446597 -0.45557252 -0.17280994 -0.62430716 0.3121805 0.17209463 -0.015186265 0.13713285 -0.35095578 -0.80529004 -0.3038135 -0.18776768 0.31010163 -0.40306345 -0.21547045 0.27548957 0.3289843 0.274777 -0.4513119 -0.48511174 1.1207541 -0.017889984 -0.2437486 0.13430524 0.5429971 0.98515207 0.1291134 -0.58043617 0.29629 -0.68920773 -0.14214402 -0.053028647 -0.5060235 -0.05573267 -0.24793339 -0.7146585 0.3143871 0.65180266 0.081247404 0.14790031 -0.17633985 -0.1563933 -0.57285476 -0.029477336 0.14235476 -0.21190622 -0.5445138 0.37059993 -0.980082 0.33428463 -0.17902634 0.044804364 0.358254 0.8380812 -0.18003552
如 -0.078486465 -0.48938853 0.1319989 -0.70939606 0.36611676 -0.5153552 -0.11022542 -0.12716185 -0.14855702 0.098026596 0.31309867 0.24053694 -0.50697607 -0.37614337 0.66128117 -0.116749495 0.24104474 -0.20590562 0.6033441 -0.12934251 -0.016763126 -0.12511252 0.4800741 0.022541769 -0.050126206 -0.5768065 -0.035751227 0.11237941 -0.18378848 -0.23125885 -0.1326675 0.6752862 0.3807 0.47834352 -0.42891827 -0.121593334 0.038036674 -0.4543726 0.29075044 -0.35236138 -0.044970524 0.84116465 0.03005474 0.16727044 -0.050205514 0.4684167 -0.35629898 -0.40703526 0.3256888 -0.21098956 -0.013989533 0.05632907 -0.5101777 -0.480392 -0.7009234 0.1537265 0.325081 -0.019781236 -0.015627 -0.049589533 -0.18033285 0.4103934 0.21458508 -0.77571434 0.6000014 -0.54050344 -0.18569912 -0.03918751 0.4373371 -0.5138453 -0.2249347 -0.11601261 -0.122207135 0.4508525 0.60489714 0.042774472 -0.1313909 -0.1229868 0.063009635 -0.14426064 1.1212646 -0.09022751 0.12034253 -0.50756603 -0.31417802 -0.7600681 -0.14964849 0.53428316 -0.47514063 -0.718037 0.21482053 0.40198886 0.13558033 -0.5830737 0.6427118 -0.3509795 0.029273286 0.014839207 0.7330911 -0.35767287
与 0.11228536 -0.2934136 -0.25517732 -0.5575753 0.51157314 -0.26781523 0.5537209 0.03227644 -0.26836935 0.4805589 -0.4394255 0.087525085 -0.687009 0.47542277 0.33011323 -0.84597564 -0.34516764 0.60808647 -0.20496137 -0.68160826 -0.43809333 -0.51623774 -0.38237444 -0.15036733 -0.0659081 0.04936126 -0.79152876 -0.13426583 0.52772063 0.06174975 0.4009999 -0.45831022 -0.4585013 -0.42233112 0.88164306 -0.4459404 0.28584644 0.03394079 0.8348778 0.4005621 0.30261126 0.28238815 0.57620895 -0.009948075 0.3810804 -0.41778868 0.287984 0.35427207 0.17294163 0.6562663 0.33561742 0.044960342 0.10017514 0.03516227 0.5940329 -0.08603322 -0.20390019 -0.07548759 -0.49367046 -0.37167954 0.30480617 -0.46946436 0.8747054 -0.1698841 -0.20337336 0.80345577 0.3344196 0.9223096 0.21766324 -0.23098406 0.80197906 -0.41580534 -0.27181375 0.46356502 -0.5662144 0.9227176 -0.17382687 0.09597801 0.102113225 0.073028974 0.2549682 0.35460883 -0.13874468 0.2803348 -0.054239266 0.15486477 0.64729625 -0.27907324 0.2451076 -0.65478045 -0.6050598 -0.50878626 0.338503 -0.3503976 -0.827548 -0.70387304 -0.39216685 0.25920033 -0.20765162 0.5765541
； 0.7735316 -0.81744844 0.12128101 -0.2318738 -0.16798645 0.17300363 0.6382986 -0.5805897 0.11608905 0.38311785 0.2590907 -0.07459253 -0.027917081 -0.2974703 0.6118545 0.54629475 -0.4301553 -0.09017587 0.4059858 -0.18535176 0.49470234 0.5334935 -0.6812805 -0.6381947 -0.65790814 -0.49395803 0.22167222 0.82339406 0.4644456 0.22433583 -0.169034 0.2849728 0.2996338 0.40763637 0.14692906 0.29218608 0.6779275 -0.074745975 -0.18798913 -0.6792543 0.54798716 -0.4524225 -0.062033296 0.22162437 -0.6006103 0.33164796 -0.78329456 0.034976207 0.49421877 0.23127952 -0.36369854 -0.3325419 -0.116899215 -0.17848217 0.004234829 0.3761818 -0.1295409 0.038333803 -0.4556495 -0.4168046 0.17218912 -0.21374093 0.47718084 -0.68221915 0.33143416 -0.045456443 0.5036072 -0.43083283 0.550675 -0.15543586 -0.20569472 -0.59270936 -0.39575392 0.18952058 -0.15227665 0.37517923 0.47820577 0.44014755 0.53293407 0.047109436 -0.0788323 -0.50394076 0.216385 -0.22920157 0.12104766 -0.4087473 0.3473051 0.6840911 -0.47730884 -0.028402733 -0.99506855 -0.6980988 0.47346348 -0.8533551 0.39718962 -0.43670952 0.4612236 0.7944588 -0.052188836 0.558445
言 0.57554454 -0.5159063 -0.279368 -0.19383632 0.5048973 -0.8048824 0.19967556 0.1481099 0.17398521 -0.6057394 0.44810373 -0.02089392 -0.19087584 0.22374016 -0.073250614 0.14648403 0.59549534 -0.21376638 -0.015219599 -0.41640314 -0.14336872 0.0034246964 -0.2539051 0.7043133 -0.035104014 0.008788365 -0.0112282885 0.6001652 0.558395 0.07460358 -0.25131887 -0.5091786 -0.116560265 -0.028846286 0.25658417 0.038295742 -0.0024945796 -0.56587017 -0.023160432 -0.015966874 -0.6146773 -0.0139183765 -0.5527858 0.67954516 0.9054086 0.08167668 -0.609941 -0.031183235 -0.35346216 0.2350232 0.9279124 0.050722618 0.06290833 -0.67141783 0.4970806 -0.011761299 -0.61787677 0.46460074 -0.45421708 0.07556325 -0.10597759 0.20854387 -0.61479676 -0.3589309 -0.6488266 -0.7576604 -0.6007209 0.35922223 0.45691174 -0.5203858 -0.4339048 0.61918354 -0.5039099 0.7797112 -0.598199 0.4744673 -0.8074665 0.10628011 0.22391553 -0.5867772 0.45456836 0.77463114 0.28649217 0.040884614 -0.14188935 -0.4316063 -0.5343965 0.034680855 -0.7038967 -0.55165476 -0.8300672 -0.553232 0.39171666 -0.15384214 0.05125345 0.10385681 -0.05236676 -0.4678863 0.3347102 0.105364464
无 0.39494503 -0.51957923 0.113809936 0.1590398 -0.043034025 0.012114641 -0.34832394 -0.022668298 -0.3180636 -0.74793947 0.32030013 -0.77143234 -0.55903274 -0.19106244 -0.60056615 -0.2293538 -0.25521907 -0.09411042 0.823661 -0.057981677 0.4245371 0.47567305 0.2727119 0.51856226 -0.3051927 0.009542669 0.6658802 -0.037755575 -0.76161385 0.60000205 -0.7300058 -0.1716385 0.48090303 -0.014252159 -0.29101795 0.0038083454 0.37655693 -0.5228819 -0.18938494 0.019228749 0.83155096 -0.4140504 0.16650335 0.35601294 -0.47364074 -0.0022867648 0.07010688 -0.463045 -0.35585102 -0.63711554 -0.15725759 -0.5993072 -1.3951559 0.061900947 -0.3472232 -0.060606577 0.11032656 -0.5062481 0.3580171 -0.6709751 0.5373646 -0.26816136 0.48944426 -0.7161528 -1.3068393 0.023106355 -0.7502106 -0.2675383 0.17239876 -0.04031016 0.13833633 0.5295149 -0.46954855 0.41232005 0.4626709 -0.105095215 -0.5832519 -0.40980557 -0.20499869 -0.11386774 -0.27486032 -0.3690825 0.029689934 -0.6537214 0.30255976 -0.44062436 -0.16409759 -0.32500392 -0.71281594 -0.23345567 0.28584775 -0.55067265 -0.54548806 -0.18743604 -0.2629973 -0.29234037 0.6658567 0.6884955 0.5541463 -0.21500275
则 0.082386404 -0.037217543 -0.8880525 -0.123301856 0.39302137 -0.25599563 0.47090682 0.25956768 -0.033635557 -0.20729814 0.08616824 0.21788725 -0.406274 0.46387997 0.7376367 -0.29947123 0.4414669 -0.4307541 -0.5458415 -0.0050316113 -1.1603005 -0.23084988 -0.40759632 0.48655936 0.5784441 0.47381198 -0.21228628 0.6758368 0.41115957 -0.34599894 0.36316514 -0.3169717 0.053158917 0.17963243 0.48921278 -0.0067194235 0.7971256 0.12019455 -0.37630978 0.11416664 -0.019192772 -0.008319537 0.12098385 0.67158073 -0.16255365 -0.4112509 -0.8108127 0.58495635 -0.67139745 0.38286382 0.34384257 0.93525845 0.19857925 0.18625222 0.47182012 0.71438813 -0.33262166 0.36393124 -0.60408336 0.14664985 -0.30770713 0.41721937 0.06380859 -0.8005301 0.015275392 0.083534196 0.050314236 0.654231 0.57922465 0.20673946 0.051569115 -0.20445576 -0.87243545 0.32706589 0.1722251 -0.14838207 -0.74217093 0.04080833 0.43712854 0.26837647 -0.7448679 0.7359823 0.3987802 -0.12065995 -0.62633014 -0.47821 -0.040073723 -0.16114728 -0.4574197 -0.24487942 -0.11643563 -0.9565434 0.2535596 -0.8612228 -0.52552086 -0.46920952 0.36582893 0.41010028 0.07436018 0.38245335
！ 0.81078345 -0.5505009 -0.07190412 -0.58285975 -0.39160413 -0.718437 -0.35841572 -0.19440693 0.26045775 -0.20602533 0.37105322 -0.5936015 0.1966736 -0.7305032 0.18739928 -0.31141663 0.6648933 0.74953115 0.69707227 -0.20190321 0.44910643 0.56210476 0.72865605 0.10437759 -0.26524526 -0.24189991 0.062363602 0.3377518 0.30419028 0.8376269 -0.1616161 0.0087023815 -0.24392447 -0.2520637 -0.18218128 -0.045541294 -0.11192414 -0.46736255 0.18279286 -0.93418676 0.002174688 0.26203048 -0.7759776 0.74603915 0.046732336 -0.055397082 -0.1382731 0.90929955 0.4176007 -0.17188372 0.6131214 -0.6899813 -0.42801946 0.12398767 -0.21903609 -0.40116543 -0.29496738 -0.93765306 0.17627366 -0.8346118 0.5421947 -0.58528936 0.7754224 -0.35965386 -0.6532587 -0.47216526 0.5802159 -0.32065454 -0.3052638 -0.33345678 0.018845083 -0.37695333 -0.41252398 0.0013564491 -0.41278923 0.24302259 -0.81820965 -0.1456482 0.37283197 0.08053173 0.13621826 0.046644595 0.77256644 -0.6418912 0.15547493 0.19624613 -0.07390174 -0.5720083 -0.54948086 -0.5295173 -0.9206586 0.22476146 -0.42222708 0.30008146 -0.5863909 -0.44481853 0.22876725 0.45125592 0.6538308 0.39089283
问 0.24408028 -0.2968814 0.09457972 -0.23646264 0.19560008 -0.7039982 0.82917064 0.30358177 0.16203052 0.705673 -0.15935473 -0.2964295 -0.1684863 0.8579411 0.75306016 -0.5488476 0.31467685 0.25138628 -0.9836929 -0.40089074 -0.7218507 -0.7512774 -1.1849827 0.17372279 0.7396212 0.9397419 -0.69104135 0.19271922 -0.30263534 -0.16738588 -0.55059445 -0.015453125 -0.5394788 0.052541394 0.369889 -0.3132413 0.46760836 0.06463667 -0.23223728 0.55021393 0.8148063 0.03207748 -0.69835114 -0.39735043 0.0012805618 -0.18463142 -0.28673944 0.059541672 0.365964 0.07068742 -0.65506995 0.59782904 0.03590756 -0.068002045 -0.16756158 -0.16364105 -0.3305397 -0.18793489 -0.5630212 -0.17009193 0.29754612 0.062430646 -0.021767538 0.09710841 -0.5923065 -0.15915464 -0.5021532 -0.1977683 0.018764896 0.020834891 0.37209797 0.3283334 -0.16467151 0.08507739 -0.62048304 0.9033954 -0.26832908 -0.36299798 0.19977543 0.6625558 0.12720397 0.6634003 0.905272 -0.2109963 0.30246136 -0.08919238 0.1658727 0.17622884 -0.3567744 0.03892507 -0.99908274 -0.49025342 -0.1745447 -0.74260294 0.18199958 -0.4629505 0.19704701 0.7667746 0.37047374 0.5031092
知 0.288061 -0.7661204 0.017476276 -0.29526454 0.13331397 -0.46547204 0.41662416 0.029414251 -0.4498786 -0.12758105 -0.22702771 0.6843082 -0.6465837 -0.55688274 0.47414848 -0.85253173 -0.19132377 -0.015532299 0.40591782 -0.2394825 -0.5566583 -0.045989685 0.020269848 0.5837134 -0.0014236567 -0.016168848 0.3849072 0.13773252 -0.77900743 -0.10180933 0.24701662 0.8334901 -0.5226403 0.7316323 0.1608214 -0.06485589 0.39874622 0.1413949 -0.33182395 -0.054840263 0.02325146 -0.35630748 0.14923146 0.58296806 0.4733171 0.73314714 -0.06638924 -0.42580816 -0.8360923 -0.813783 0.08567432 -0.1115112 -0.6534821 0.26823857 -0.29510674 0.09804966 0.47888035 -0.64259523 0.1712401 -0.86423767 0.12031496 0.33953118 0.85727304 0.17821121 -0.03944981 0.47815636 -0.3995472 0.20206042 -0.46814406 0.20790315 1.0670875 -0.410906 -0.16285379 0.015349399 0.631784 0.9694384 -0.67060584 -0.6406907 -0.2600818 0.04716487 -0.23001632 0.37334767 0.42391056 -0.18453461 -0.40249628 0.35925213 0.36893559 -0.23189682 -0.16925263 -0.06814064 0.46311516 0.43925673 -0.11798231 0.057521757 0.1971326 -0.36824486 0.9524299 0.5721302 -0.016586341 0.039436553
何 0.537069 -0.44428462 0.76291066 0.103569165 -0.34605613 -0.27278194 0.4350114 0.17211957 -0.16575246 -0.42628258 0.2653778 0.89745444 0.7426878 -1.1061494 0.53167444 -0.6428063 0.32556766 -0.16459851 -0.684904 0.27244803 -0.34866357 -0.24577415 -0.5300653 -0.9072152 -0.15569887 0.68937385 -0.15012768 -0.4382574 0.16286606 -0.19887914 0.042972673 0.4626232 0.18002793 0.12397395 -0.33568254 0.37539726 0.21669324 -0.75264496 -0.13078168 0.33368123 0.4927485 0.57174784 0.3919988 -0.7529902 -0.72279406 -0.36265972 -0.5862705 0.55048686 0.5409853 -0.14006259 -0.29476205 0.62577057 -0.6083758 -0.4636135 -0.07732122 -0.44418126 0.32298827 -0.6226261 -0.14720443 -0.5621963 0.32296714 0.02030542 0.26825103 -0.042931676 0.18484662 0.03919328 0.38609377 0.41763005 0.058737967 -0.9988268 0.33004758 0.101947375 -0.5653051 -0.4553698 0.5439217 0.17144485 -0.4249678 -0.3615463 0.4110041 0.60377735 -0.28241315 0.1160759 0.15215772 -0.58694404 -0.66393757 0.8839167 0.36517832 0.6570609 0.31211826 -0.44156516 -0.13668531 -0.075865105 -0.26384723 -0.62425566 0.3463187 0.22528876 -0.073094375 -0.3204769 -0.19906662 0.5709303
吾 -0.12609091 -0.27502438 -0.21657978 0.60731435 -0.5122212 0.26204044 -0.3442699 -0.18731904 0.27827075 0.33604085 0.32345468 0.2055909 0.111675374 0.91543067 0.009188837 -0.3814609 -0.13337812 -0.59585917 -0.61757064 -0.03278468 -0.24507172 0.2692281 -0.7235442 -0.6915877 -0.84013146 -0.09743179 0.11469314 -0.10100118 -0.588044 -0.15796979 0.43181065 -0.16246961 -0.27564132 0.6235834 0.10271929 -0.6730561 -0.44703004 0.9724075 -0.08590807 -0.1440048 0.81576127 -0.6524685 0.060989298 0.86024904 0.57044035 0.7568848 -0.26462165 -0.4060315 -0.76355016 -0.681015 -0.61730653 0.058082927 -0.8079598 -0.3220311 -0.030095167 0.12437267 -0.4571784 -0.5965823 -0.14323373 -0.19259362 -0.12909023 -0.54344165 0.50532293 0.63006335 0.30539134 0.4147316 -0.1724805 0.26529133 -0.23050961 -0.2081342 0.80740917 0.69820297 0.556845 -0.7585994 0.30988774 0.5771599 0.17668954 -0.68414325 -0.605667 -0.5735029 0.42707306 -0.019226972 -0.63581145 0.0944142 -0.1756959 0.32777438 1.0035921 -0.7184864 -0.20109305 0.015034085 0.83987844 0.45790312 -0.42300916 -0.7758659 0.1754906 -0.85055333 0.18332247 0.030578682 0.17382358 -0.30135506
仁 -0.28483334 -0.16277702 -0.4734455 -0.60655695 0.5175829 -0.5200716 0.5728953 0.5344987 -0.06853393 -0.5080063 0.49237543 -0.31887472 -0.49135077 0.36173508 0.60050833 -0.8081027 0.5897913 0.07743857 -0.27812758 -0.80602646 -0.33835638 -0.25646603 -0.34716138 0.3860656 0.11389421 -0.10774963 0.65816 -0.21380801 -0.015370882 -0.16309893 -0.052977193 0.22388348 0.120018914 0.097423665 0.24232179 -0.32854736 -0.020451192 -0.0025738904 -0.20416439 0.23117834 -0.09195974 0.078024685 -0.0954519 -0.006461385 0.3755693 -0.0523455 -0.589325 0.35682628 -0.6867654 0.77702993 0.21689492 0.5516512 -0.20871416 -0.7047212 0.39227387 -0.31044677 -0.33008826 0.36400574 -0.41048375 -0.6884238 0.5447704 -0.14870493 0.4100009 -0.3480642 -0.42995498 -0.61379236 0.16553317 0.6190745 0.4643826 -0.13043295 0.560076 0.008831412 -0.81329477 0.633765 -0.07101273 0.7224751 -0.52270913 -0.2237666 1.0778061 0.46474904 -0.35225716 0.028123626 0.1048954 -0.13894819 -0.34377763 -0.25922772 0.8222935 0.07354702 0.3632343 -0.6882184 -0.4496964 -0.8543673 0.2466948 0.20233245 -0.7584518 0.17375866 -0.18219928 -0.21858422 -0.42419717 0.36996734
夫 -0.01128004 -0.054888926 0.25644138 0.8272109 0.5321436 -0.57711643 -0.944871 -0.02080806 -0.15434165 -0.24196438 0.12970369 0.039755844 0.16729686 0.17927517 0.42416468 -0.3234343 0.13995478 -0.43269172 0.43362665 0.8848529 -0.15605314 -0.80197614 0.3143535 -0.0028399252 -0.43733424 0.3081845 0.14182524 0.70321506 -0.38547462 -0.07354568 -0.03218456 -0.26560432 -0.6228567 0.8079624 0.1633863 -0.078464 -0.13412872 -0.6457567 0.062876716 -0.060864806 0.06693146 0.07233735 0.53179735 0.31760693 0.077289805 -0.21789448 -0.33555955 -0.27822825 -0.55438834 -0.7114307 -0.046704188 0.12911758 -0.1691105 0.09315715 -0.6205741 0.4167064 0.5426253 -0.78725314 0.2089626 -0.34938785 0.2420366 -0.21680239 0.32790956 -0.50897175 0.057450287 -0.11697609 0.19513229 -0.52973276 0.47789067 0.758062 -0.12054024 0.7788499 0.6279905 -0.6882291 0.96892214 -0.2974898 0.0029350813 -0.9349648 -0.7583074 -0.59355587 0.5165736 -0.58432066 0.14228477 -0.40700302 0.37795275 0.10333528 -0.8128411 0.09335928 -0.6635517 0.13492723 0.8829725 0.44868398 0.5051993 -0.77420366 0.428244 -0.37867722 0.050848573 0.37313068 0.09899528 0.01173056
、 0.18336916 -0.00010357011 0.06256416 0.059225526 0.425444 -0.101544745 0.031355776 0.06377674 -0.14932853 -0.0023514386 -0.1293498 -0.0926312 -0.3482921 0.17431338 0.73989415 0.20001513 0.032851797 -0.33791357 0.48572525 -0.38784865 0.022850389 -0.39794582 0.23521328 0.024515266 0.27228397 -0.2853664 -0.22478418 0.08514912 0.15176788 -0.46899742 0.42539623 0.68578213 -0.258045 0.52456945 -0.17766412 -0.04359326 -0.2821317 -0.23985918 -0.6910118 0.66579604 0.106338896 0.3117438 -0.08046793 0.1934341 -0.1345574 -0.5316515 -0.16204233 0.19321103 -0.21531546 0.35862932 -0.30757636 0.07097581 0.16310124 -0.359954 -0.18626484 -0.073819496 0.37353155 0.559445 -0.30694187 -0.56919974 0.31820753 0.09061736 -0.24612899 -0.58320975 -0.022040604 -0.5021831 0.9298893 -0.0020767264 0.2878999 -0.3168164 0.04390783 0.21835363 -0.54608715 0.030494984 0.20820335 0.3132322 0.024952298 0.3028559 -0.15075679 -0.48663518 -0.5017088 -0.17129296 0.45117098 -0.47182688 -0.3736043 -0.22517361 -0.3493399 -0.34936664 -0.45830807 0.13642281 0.39361367 0.3069782 0.489994 -0.03397249 0.53861624 -0.30431327 -0.34449348 0.5547727 -0.47829428 0.32448426
道 0.13370623 -0.6088079 -0.35845408 0.14081189 0.28292277 -0.81862193 0.072921425 0.48275268 0.42778218 -0.15577868 0.91572446 0.25131392 0.5894308 -0.13999145 0.7499648 0.44528306 -0.34883136 0.10558769 0.87235254 -0.82261986 -0.33253223 0.36413708 0.8707286 -0.29099154 -0.7074587 -0.10894418 0.19270882 0.39523146 0.20129955 -0.098322846 -0.94795465 -0.50725555 -0.18469287 -0.074758604 -0.32519224 0.51058346 -0.18488714 0.020486835 0.19632562 -0.18718448 -0.0413431 0.3083903 -0.21185178 0.44610107 0.20696487 -0.00461882 -0.6092545 -0.30819765 -0.3150901 -0.15198001 -0.26219323 -0.023398824 -0.2200094 -0.043226015 0.3776736 -0.1871753 -0.13793942 1.0377079 -0.79578215 -0.46712002 -0.6247181 0.3814531 -0.08666579 -0.85810685 0.043751992 -0.042167004 0.33636442 -0.78155035 0.6511659 0.15905449 0.229933 0.51786697 0.04282613 0.6196403 -0.13100252 0.34632462 -0.94099265 0.95201695 0.037276026 -0.5007023 0.29677495 0.19949193 0.5129514 -0.25052223 -0.40977335 -0.11849822 -0.43222892 0.27525964 -0.4423247 -0.26625797 0.11779394 -0.6081 -0.07005614 -0.17901652 -0.1423963 -0.23929098 0.11815058 0.6281516 0.3006168 -0.13877416
焉 0.33617803 0.23202349 0.029948538 0.13366796 0.6534672 0.12353827 0.06744767 -0.582604 -0.048986845 0.66628015 -0.6815257 -0.5422154 -0.43409973 0.35830277 0.6462507 0.25472814 0.24213122 -0.5059838 0.2302211 -0.19801353 0.5400324 -0.40949723 -0.45295537 -0.57277507 -0.14171444 0.44278306 -0.0047829757 0.49834967 -0.07273327 0.58230776 -0.0882972 0.063459754 0.6956372 -0.19062121 -0.5322958 -0.47990212 -0.5604971 -0.39799044 -0.4747566 -0.064944044 0.55417484 0.39532447 -0.19266976 0.28013548 0.084694065 -0.7793581 -0.43968955 0.46148857 -0.15022065 0.44736534 -0.59961605 -0.6273335 -0.2900073 -0.45285198 0.33879623 0.2002383 -0.013971919 0.6153535 -0.44133198 -0.32357028 0.60795444 0.32375073 0.43214795 -0.28002837 0.24018955 -0.19147801 0.71482986 -0.83726275 0.42789188 -0.5380432 -0.403138 0.27319002 -0.37888268 0.39410165 -0.56487423 0.5584667 0.51018053 0.68117756 -0.35865402 0.13602243 -0.69065714 0.073080406 0.08941572 -0.69250745 0.12651783 -0.5098681 0.369462 -0.11029554 0.12607689 0.5697198 0.76190627 -0.4320479 0.74894583 -0.613147 0.8779127 -0.16178852 -0.4313114 0.12050745 0.22205333 -0.24327524
行 0.3759363 0.019680632 -0.5654577 -0.76683146 0.318848 -0.19732852 0.30084142 0.40522966 0.32871222 -0.40068328 0.46357998 0.07407565 -0.45014593 0.2803295 0.054348327 0.3236428 0.20761798 -0.629568 0.7324569 -0.7441978 0.51894325 -0.053646337 -0.021557145 0.6992962 -0.03897702 0.31512535 0.67264974 0.4688879 0.61720407 0.00724887 -0.474762 -0.56388795 -0.17568843 -0.035334043 0.48827335 0.24857986 0.11502998 0.5346406 -0.3918013 0.04677155 -0.45929888 0.9191456 0.06551756 0.6316635 -0.31264743 0.086873196 -0.20516172 -0.47268045 -0.18139844 0.3773347 -0.17415895 -0.49049136 0.6093536 -0.3900216 -0.023293674 -0.5142013 0.50619394 0.8718112 -0.17895211 -0.058656454 -0.24712704 0.27742827 0.09601926 -0.80126643 -0.18388301 -0.76966405 -0.15482232 0.44254237 0.5315137 -0.19775967 0.0021054286 1.0118101 -0.47242433 0.6528739 0.06428511 0.16348845 -0.45608652 0.3264233 0.1742836 -0.6752932 -0.12380629 0.0791203 0.6531106 -0.22734933 -0.020419503 -0.82209826 -0.4281378 -0.0045505785 -1.0330063 -0.3557286 -0.116263084 -0.75220954 -0.4226667 -0.045931354 0.849176 -0.5951827 0.35766485 -0.37578237 0.6467929 -0.3292096
谓 0.87631464 -0.32020554 0.75914556 0.50324965 -0.018257344 -0.09318426 0.12428581 -0.7351899 0.30678186 0.24899735 0.30014986 -0.511184 -0.12918775 0.18482985 0.48062956 -0.3827044 0.41403565 -0.28923142 0.26122725 0.09051355 0.74925315 -0.42951912 0.067640804 -0.34693143 -0.26474926 0.47008893 0.07732506 0.44944417 -0.3863507 0.70975596 -0.44229367 -0.17708702 -0.12843193 -0.214009 -0.27953392 -0.08656972 0.18844496 -0.44391528 -0.57254755 -0.28912705 0.76022786 0.43537816 -0.12317502 0.39588234 -1.0021188 -0.019091398 -0.49695325 -0.37283003 0.5397785 0.35613835 0.43122205 -0.741255 -0.47222272 -0.55895275 -0.5575756 -0.006572812 0.6181776 -0.8398815 -0.45130017 -0.7124217 0.36096248 -0.56922525 0.21709822 -0.10511913 0.7373933 -0.42921504 -0.15169252 -0.059205715 0.01675127 -0.25182432 -0.710965 0.1885059 0.31135675 -0.45135894 0.06800376 0.30204034 0.45219865 0.41830352 -0.5470148 0.54100156 -0.08026365 -0.1418396 0.13389805 -0.23513126 0.7416974 0.14160357 0.18339786 0.4162006 0.39361987 -0.17294505 -0.10762091 -0.29142562 0.60775244 -0.5901067 0.071871854 -0.011531229 0.48712152 0.1345043 0.25898978 0.757689
必 0.27989352 0.494111 -0.1402906 0.14735681 0.65461 -0.8932554 -0.6827876 -0.17431822 -0.99897355 -0.270307 0.5291636 0.7780967 -0.16326879 0.08518658 0.6839277 0.10136479 -0.065034375 -0.20262516 0.07577603 0.5052847 -0.34846592 -0.2383031 0.7220486 0.6662304 0.61340433 0.60811716 0.09607472 0.498886 0.6882604 0.42888272 -0.9338253 -0.23640819 -0.56845266 -0.00916818 0.45592052 0.110953405 -0.18158668 0.008413011 0.01715878 -0.026166184 0.50902927 0.4437487 0.050632376 -0.03175716 -0.50002533 -0.39119157 -0.19428122 0.5392047 0.34584516 0.4411079 -0.34628877 0.35578814 0.2726275 -0.2651061 0.20955831 0.5923456 -0.12018026 0.6863955 -0.6824594 0.15139575 -0.46974683 0.1405984 0.569688 -0.6237472 0.012437887 -0.32083932 -0.48969942 0.2577414 0.5308339 0.21423079 0.17792518 0.03940278 -0.70756733 0.4967471 0.20952088 -0.107925795 -0.25932345 0.0037020918 0.44421434 -0.08932601 -0.06339557 0.20770994 0.9088575 -0.6555714 -0.1630557 -0.7799836 0.011554843 -0.31178758 -0.79691726 -0.14411357 -0.032456677 0.5256062 -0.3761441 -0.5708444 0.02566751 0.07556969 0.5548352 1.1790017 -0.5267003 0.29703844
礼 0.30971798 -0.093644224 0.45324776 -0.34541577 0.056161933 -0.06383695 0.26391315 0.13392022 0.22363675 0.18240575 -0.06853385 -0.13667153 -0.5984079 0.17895652 -0.013313832 -0.46864578 -0.055192694 0.09980986 -0.0101753585 -0.5144052 0.121522546 -0.2336611 -0.017145563 0.27015215 -0.2286898 -0.19624461 -0.2254263 -0.43711013 0.57870024 0.45463297 -0.08795808 0.15390861 -0.439131 0.25425196 0.10171622 -0.12770338 -0.0059489114 0.1943722 -0.41420066 0.024975289 -0.056392517 0.20248239 -0.1468614 0.13100715 -0.14373255 -0.048053686 -0.12672567 0.010787639 0.37580848 0.3639303 0.14611529 -0.31003755 -0.24174266 -0.071517564 -0.61210024 -0.2532212 0.30520743 -0.41877365 -0.60999817 -0.39978302 -0.52031016 0.14691195 0.259515 -0.19853126 0.32844332 0.065804474 0.011091815 -0.045119576 -0.11950729 -0.2244027 -0.3107644 0.34334174 -0.043281343 -0.5175787 0.047556505 0.73975796 -0.1876516 0.62931806 -0.2896793 -0.64392525 -0.17482768 -0.06265275 -0.46424955 0.049819313 -0.18821764 0.014767503 0.5165894 -0.16404544 0.00899746 0.08272313 -0.1147679 -0.584843 0.031293374 -0.54847145 0.12558742 0.34806195 -0.1993024 0.3025137 0.19107184 -0.17476024
孔 0.4897455 -0.35455248 -0.41107154 0.2103868 0.4784622 -0.47882047 -0.036755297 -0.4158616 -0.10772665 0.108713195 0.94861996 -0.06928787 -0.6004529 0.10599406 0.12858623 -0.58704627 -0.0048449007 -0.25195983 -0.09798134 -0.08739891 -0.07983591 -0.43996823 0.09536666 0.36601827 -0.43473774 0.53239733 0.22354347 0.6190482 0.13699245 0.3128047 -0.20259257 0.03836302 -0.35061142 0.1620272 0.13265929 0.22169583 -0.5682561 -0.33951035 0.30579883 0.2517516 -0.05825878 0.37411582 0.1785027 -0.04396979 -0.025779814 -0.29948094 -0.34667197 -0.2823094 0.11095086 0.435442 -0.38446978 -0.25356835 -0.32012576 -0.20461424 -0.254822 -0.24576053 0.12360983 0.7031196 0.038158823 0.3734317 0.13227625 -0.15412751 0.32760412 -0.80320567 -0.26121458 -0.33461964 0.07905335 -0.3504206 0.49412146 0.34957394 0.19847883 0.5850207 -0.48338938 0.26471028 -0.14269741 -0.27130327 -0.3125895 -0.15473458 -0.42593655 -0.12705864 -0.20103376 0.4047314 0.5930075 -1.0003169 -0.10007855 -0.05103432 -0.4963342 0.14291999 -1.0407279 -0.07831505 0.24574947 -0.3675851 0.27542478 -0.27418554 -0.03937435 -0.44325843 0.13529585 0.10449912 0.116865404 -0.49753
斯 0.42889014 -0.40618974 -0.2564162 -0.577551 0.7290138 -0.19387662 1.3428302 0.14301708 0.4338636 -0.4391746 0.40783483 0.49478903 -0.36244377 0.33872634 0.4154042 0.23180807 0.19202311 -0.1832032 -0.07449493 0.07487813 -0.32253733 -0.4430392 0.2520936 0.530464 -0.012200085 0.20583361 0.65424603 0.20971613 0.6106632 0.3892337 0.27442202 -0.40122482 -0.28983912 0.18362017 0.43856385 0.5042562 -0.06871359 0.7316892 -0.41539288 0.22405411 0.20274952 0.32133895 -0.8170496 0.38636428 0.5892103 -0.27814022 -0.4212973 -0.16490051 -0.2693337 0.4515201 -0.20118389 -0.3017423 0.081880026 -0.16175395 -0.43856525 -0.35509107 0.34497246 -0.027545664 -0.48034668 -0.25119278 0.6328981 -0.35335886 0.1273918 -0.38855347 0.41284034 0.41847757 0.48658928 0.28215948 0.44253495 -0.11052022 -0.50302964 0.5993829 -0.09877764 -0.75391537 -0.76766866 -1.1765726 -0.40586233 -0.61833704 0.14984135 -0.2774422 -0.692982 -0.33743784 -0.65535647 -0.264786 -0.22864959 0.36469957 0.40656576 0.3768181 -0.34532285 -0.36155364 -0.70789796 -0.48003525 0.21294986 -0.4679944 -0.4313271 -0.23571767 -0.9183021 0.02753828 0.10292034 -0.34487292
三 0.279658 -0.49917924 0.09149131 0.25084043 0.60085213 0.11180086 0.6864087 -0.6770248 -0.3776794 0.44489187 0.5750608 0.27819443 -0.17406689 0.4861405 0.22032776 -0.41807365 -1.0642918 -0.21278635 -0.3441811 0.28709543 0.7294643 -0.44008178 0.3071033 -0.6172805 -0.36620182 -0.017273646 0.7733325 0.098559745 -0.41127384 1.0591205 -0.61531025 -0.44067678 0.007867429 -0.18921673 -0.07219579 0.94741416 0.19129625 -0.5501834 0.73459756 -0.73652774 -0.516461 0.06330013 -0.2676455 0.37273318 0.24351425 0.65344054 0.17865616 -0.1943723 -0.43545863 -0.22305459 -0.0053720684 -0.5607036 -0.43178052 0.026108531 0.059492815 0.03743236 0.5131108 -0.2810233 -0.21763535 -0.5050813 -0.15613362 -0.61795735 0.45365682 -1.005064 -0.15077433 -0.5366404 0.055957846 -0.52960056 -0.34432432 0.84267384 0.24925128 0.6012152 -0.58156914 -0.32989398 -0.2692412 -0.60175973 0.06322636 -0.34473947 -0.45624048 0.68852806 -1.0253286 0.12118105 -0.55273384 0.060563248 -0.05570379 0.26243287 0.56675667 -0.056670032 -0.43622884 0.7328708 0.009765467 -0.3025005 -0.3722943 -0.19111444 -0.62895536 -0.31278044 0.9052758 0.06621092 0.9314807 -0.25663438
能 0.19577125 -0.3458898 0.7175989 0.90130174 -0.04701061 0.40047476 -0.10017394 0.513861 -0.72736776 -0.8401536 -0.21539898 -0.62165064 -0.3107043 -0.62513226 0.038334504 -0.8097478 -0.16283312 -0.2729654 1.0185201 -0.32916993 0.095501766 -0.0006159513 -0.031262554 0.6104146 -0.4892191 -0.6356377 0.0070625185 -0.15054813 -0.3075903 0.836161 -0.06947365 0.8949014 -0.27043998 0.2624884 -0.6921395 0.06203392 -0.3283706 0.21389022 -0.10041123 0.271053 0.13846727 0.296821 0.105237655 0.7207868 0.40064245 -0.019437918 -0.79279196 0.27584603 0.4802268 -0.9897489 -0.2547766 -0.082965545 -0.65917 -0.040699482 -0.53978896 -0.017144982 -0.18918596 0.02008019 -0.46287218 -0.9086968 0.12002409 0.37899694 -0.1648636 -0.5950492 -0.04190962 0.17058195 -0.2336375 -0.76862884 -0.35574403 -0.09022637 0.22659239 -0.17696947 -0.18578073 -0.7382245 -0.19079068 0.24597637 -0.9519366 -0.37799594 0.002699146 0.39371848 0.06887004 -0.5790624 -0.6947747 0.21065098 -0.14855917 -0.39642534 0.62955236 -0.6737258 -0.7463828 0.2340286 0.25894937 -0.41926774 -0.3656761 -0.101294264 0.12441819 -0.49722967 0.17771193 0.3133901 -0.19595231 -0.24270436
见 0.9273118 -1.1066904 -0.3193654 0.7675506 0.32523528 0.13658378 0.31934014 -0.5143069 0.22980659 0.22499843 0.2999897 -0.6703346 -0.8349564 0.30052838 0.3137229 -0.69122833 -0.26319855 0.5115443 -0.7965374 0.9835222 0.22803465 -0.061427083 0.2521248 -0.59877926 -0.42841333 0.24117827 0.48659754 -0.23490416 0.35344586 -0.5878234 -0.19690648 -0.53660685 0.640166 0.014251207 -0.6169692 0.327277 0.19355948 0.07715204 -0.053962834 0.1491181 0.9453293 -0.7342482 -0.34810957 0.85206014 -0.06932165 0.16827016 -0.6958447 -0.053851098 0.25849724 0.48342362 -0.28743085 -0.08401228 -0.32245702 0.43012136 0.71414405 0.2726537 0.18304838 -0.17606936 -0.5628522 -0.012871184 0.34107488 -0.24740416 0.09145436 0.07346735 0.86385345 -0.00044768228 0.19406562 0.20982662 -0.2817463 0.50474685 -0.383807 -0.92095673 -0.5452989 -0.50703216 -0.25722358 -0.48144943 0.34534472 -0.4290576 -0.28401485 0.23266442 -0.8699511 0.19070305 -0.26874316 0.35929522 -0.71946824 0.29755327 -0.34128943 0.5066767 -0.17552069 0.26870385 0.8090143 0.007974792 0.14594811 -0.3052182 -0.7269527 0.43282548 0.7784854 -0.06551744 -0.6973171 0.68514097
学 0.5939905 -0.11550459 -0.5850377 -0.045390237 0.076372094 -0.078797825 0.6606389 0.4243574 0.40947238 -0.45038807 0.35366085 -0.17115484 -0.3974482 -0.0641706 0.43640077 -0.40319267 0.08768038 -0.6985345 0.65953034 0.08017823 0.2959198 0.48207453 -0.09479644 0.33821747 0.0362119 -0.1106051 -0.40982094 -0.52896047 -0.093473256 0.70311004 -0.7153565 -0.09127924 -0.1759601 -1.0291618 0.09040072 -0.37106383 0.014338439 0.37503928 -0.37267023 -0.27356255 0.27771163 -0.5250796 -0.13651304 0.59058833 0.52623004 -0.42448226 -0.60093653 0.074187525 -0.5500471 0.4197684 0.9188505 0.34105882 0.062676415 0.26605132 0.0722422 0.7063651 -0.3757615 0.38991332 -0.3236589 -0.88985753 0.06507474 -0.22201546 0.20037608 -0.48921496 0.12713064 0.11364809 0.24913493 0.41885227 0.14381841 -0.220043 -0.18047848 -0.3064054 -0.55274844 0.27007282 -0.3942025 0.14225793 -0.5851047 -0.23044483 0.057461694 0.44674546 0.47702113 -0.31780642 0.2585667 -0.11698031 -0.52537274 -0.5075285 0.734782 0.1773075 -0.19864416 -0.64748484 -0.22525612 -0.8855783 0.5244112 0.12157699 -0.14502817 -0.6546922 -0.0046782107 -0.13027535 0.53098273 0.00242334
事 0.36227226 -0.42082918 -0.39143303 0.93812835 0.7155662 -0.68696004 0.80348235 -0.51123524 -0.045648906 0.040862583 0.40675682 0.12645708 -0.31945854 -0.754246 0.6318752 -0.5802262 -0.31477237 -0.481647 0.5521332 0.16031605 -0.52671427 0.71992636 0.42972696 -0.5674776 0.33204463 -0.06258805 0.41776952 0.10058548 0.49211138 0.405504 -0.5588356 -0.5132288 -0.1763794 -0.538695 -0.0997057 1.0793294 0.48563936 0.14065579 0.41277605 -0.09616937 0.09774371 0.056934018 0.5103531 0.54745764 -0.16403255 0.56323284 -0.56016475 0.17215592 -0.29434517 0.68905073 0.61463577 -0.6130156 0.5197936 0.42141715 0.37869087 0.3627785 0.59465235 0.31005022 -0.033711933 0.5364247 0.3872262 -0.24639319 0.25016093 0.22830571 0.7672154 0.78456295 0.61141324 0.6333209 0.4696145 0.5784432 -0.8618497 -0.2386961 0.026793115 -0.15018067 -0.4873762 -0.7133428 -0.30434868 0.10719623 0.5390061 -0.36753693 -0.37213388 -0.4349022 0.33071792 0.44944733 -0.07114493 0.08299575 -0.23987682 0.49372214 -0.14209153 -0.5245512 -0.19128276 0.24926005 0.4888716 -0.41464138 -0.4038437 0.4114789 0.4018038 0.6019998 -0.018317373 0.45206887
是 0.602752 -0.36271057 0.39233008 0.90540206 -0.44236985 0.020177813 -0.028914226 -0.6458101 -0.5868058 -0.85989773 0.0041166125 0.10016692 -0.03646731 -0.0038991459 0.47325048 -0.13737851 0.5143423 -0.1365465 -0.052885007 0.73944163 0.18296823 -0.7106789 -0.13281624 -0.00019702343 -0.54296726 0.1516441 -0.101862855 0.013776932 -0.56490386 0.4063728 0.09705285 -0.014586664 -0.5080246 0.61379975 -0.02925321 -0.41190368 -0.19653355 -0.6647722 -0.052396208 -0.36422235 0.22772329 0.623931 0.45590597 0.61246663 0.5749432 -0.56089664 -0.583314 -0.7787244 -0.23745182 -0.47664583 -0.5300894 -0.44596383 -0.5834648 -0.5052475 -0.29809752 0.544058 0.6832291 -0.57654107 -0.5182658 -0.63200504 0.22130087 -0.34292278 0.24288653 -0.5332367 0.8221399 -0.8742788 -0.42366645 -0.11710162 -0.13396204 -0.24269997 -0.3716108 -0.07152089 0.490878 -0.28640044 0.35392645 0.59524953 -0.44384283 -0.28260356 -0.420444 0.20004742 0.73089457 -0.3209946 -0.27940992 -0.09168601 0.75547296 0.8162526 0.50128275 0.2608008 -0.50239563 0.43415633 0.8221843 -0.016936064 -0.32787257 -0.5494629 -0.062703624 0.21403784 0.6290593 -0.120025426 -0.040761188 -0.42620865
哉 0.6536309 -0.9670508 0.32070398 -0.029166264 0.20367353 -0.2538658 0.5609052 -0.049240675 -0.44292074 -0.27227655 -0.12139836 -0.060555156 0.31463 -0.093180925 0.29351696 -0.68791485 0.20723438 -0.5538154 0.39515513 -0.3553226 -0.5249453 -0.32636446 0.378803 -0.7664468 -0.018307203 0.94606316 0.38600767 -0.28178447 -0.11246652 -0.0029197175 0.49840218 0.095901445 0.3189046 -0.7276033 0.3500281 0.70351666 -0.4234619 -0.31236622 -0.3404079 -0.7123699 0.7680289 0.30319133 0.789639 0.2494792 0.22888337 -0.82041043 -0.44147515 0.5127598 -0.04206778 0.58083373 -0.57886386 -0.49574536 -0.59593153 -0.53853905 -0.2751443 0.16326657 0.6539953 -0.64644414 -0.667899 -0.7297847 -1.1352544 -0.16779058 0.475191 -0.41675213 0.7538372 0.673883 1.0135516 0.37537596 0.10184571 -0.8458165 -0.5118564 -0.7805161 0.7444822 -0.34739178 -0.4826254 0.8039283 -0.45620406 -0.23115619 0.31445783 0.6581861 0.48480463 0.6929694 0.6346508 -0.34287724 0.20787773 0.056978974 0.45433342 0.9290939 -0.5174068 -0.39260924 -0.7070164 -0.069247976 -0.31726608 -0.38712326 -0.03859014 0.06399068 0.41739154 0.78653806 0.20596401 0.55201435
闻 0.21020594 -0.17871788 0.25198382 0.5363918 0.32323396 -0.357107 -0.678466 -0.4001738 -0.30455047 0.90666455 0.09708152 -0.22706647 0.2856791 -0.69525576 -0.27208856 -0.8329166 -0.14999956 -0.42768732 0.1731488 0.58081806 0.030498795 -0.9871625 0.42954436 -0.12448544 -0.62887573 0.23006682 0.22429587 0.42051595 -0.56077087 0.22581278 0.39638034 0.062316265 -0.59266895 0.87502414 0.35019207 -0.44802922 -0.24037935 -0.3589803 0.30698597 0.6039644 0.4294277 -0.14212596 -0.0019651046 -0.21493658 0.027542483 -0.19746575 -0.37689137 -0.43118447 0.19105828 -0.3917523 -0.29719993 -0.53906167 -0.807763 -0.36386186 0.04805999 -0.48259428 0.47009656 -0.49831933 0.21196616 -0.5671184 0.311769 0.7501865 0.6199254 -0.17165826 -0.068468206 -0.4810999 -0.44002888 0.3949276 -0.529967 0.22368586 -0.2616115 0.36936122 0.49497825 -0.25689566 0.44029343 0.18149754 -0.27678472 -0.20347878 -0.6088197 0.1910477 0.91408765 0.12401289 0.3943026 -0.5513096 0.19352631 0.377345 0.38928798 -0.5766634 -0.48702747 -0.16660243 0.30320084 0.035386205 -0.51926243 -0.028549373 -0.378245 -0.338646 0.45553458 -0.24216186 0.68202305 -0.6821863
未 -0.46244743 -0.521414 0.6053712 0.5118697 0.477958 -0.56317556 0.19903083 -0.052219946 -0.25393012 0.1999878 0.070365004 0.141545 0.053020753 0.45849764 0.27083507 -0.034219336 0.5716381 -0.07032354 -0.4232576 0.59255445 -0.64462894 -0.099496834 0.24331127 -0.58730423 0.47005096 0.44788927 -0.50988877 -0.06641841 0.28392965 0.16628052 -0.6346234 -0.16312593 0.6591722 -0.07883309 0.012252533 -0.40697393 -0.5526803 -0.029566448 0.31879726 -0.6766194 0.48370448 0.20492223 0.4055585 0.5098934 -0.34739146 0.45509204 -0.5645049 -0.18751949 0.4476868 0.45952114 -0.61462486 -0.18801764 0.024382846 -0.54728615 -0.52222735 -0.36450064 -0.4451851 -0.6307454 -0.3991658 -0.52409905 0.3462907 -0.23789677 0.3650712 -0.034028344 0.15065438 0.39525074 -0.03370176 0.51290035 0.5015079 0.14777203 0.81871814 -0.45715398 0.27515048 -0.27373704 -0.07273315 -0.25626808 0.3081146 -0.5587452 0.34703752 0.189604 -0.6130433 -0.48602855 0.60739106 0.16341804 0.067201324 0.33382592 0.03942253 0.23833725 -0.42406052 -0.21772754 0.027169634 0.4496887 0.4777835 -0.42380017 0.055818 -0.53337646 0.33042893 0.35287586 0.39541054 0.49123788
公 0.1447565 -0.39437902 -0.39179686 0.45909387 0.48000956 -0.43151605 0.4573972 0.381967 0.25311294 0.13274394 0.58562243 -0.33516628 -0.15842928 -0.12105027 0.15216455 -0.34680682 0.31120458 -0.27636525 -0.037163965 -0.085553244 0.5062557 -0.12864177 0.04868048 0.6697604 -0.034100763 0.21840368 0.48335633 0.3839045 0.14389329 0.2763635 0.38048175 0.5135362 -0.3518662 -0.22050206 0.35250142 -0.23931484 0.054923948 -0.47224176 0.2886143 0.6529672 0.262978 0.14302324 -0.48506856 0.41831747 0.14940192 -0.33649385 -0.44164062 -0.6667393 -0.19071491 0.3062317 -0.19125776 -0.566439 -0.21084249 -0.4058683 0.5660075 -0.27162334 0.56270254 0.47583732 -0.25802448 0.03144267 -0.06544497 -0.09909682 0.22431523 -0.4926117 -0.8067945 -0.044244584 0.0037350808 0.040656492 0.5244424 -0.4870836 -0.5066098 -0.5227004 0.7832572 -0.22944003 -0.17472237 0.2597052 -0.33971632 0.46574396 -0.30820173 -0.44611564 0.31016976 0.56074226 0.4378078 -0.49288252 -0.47127512 0.3497891 0.33642054 -0.5354668 -0.32171258 -0.52144235 0.40028602 -0.6947038 -0.75562215 0.45547912 -0.66555864 -0.5285061 -0.5370069 -0.100933425 0.19913591 0.16708048
好 -0.19252422 -0.159256 -0.25492707 -0.43450785 0.28295782 0.5944335 0.8153966 -0.14128955 -0.15133648 0.14279781 -0.46782878 -0.20998335 -0.8126866 -0.6596246 0.47475797 -0.72894907 -0.6083641 0.031474885 0.40673473 -0.35930777 -0.6056033 0.06551074 0.31765124 0.26974967 0.5789592 0.076232664 0.040043592 0.48076198 -0.30439904 -0.38116065 -0.04857952 0.34958258 -0.44372064 -0.15360454 0.21196699 0.33533755 -0.5663823 -0.8900926 -0.39740068 0.2674548 -0.034591045 0.20682026 0.1063149 -0.11859935 -0.63713706 0.3035118 -0.6386583 0.20237619 0.9192359 0.37121797 0.3057006 0.24175905 -0.015193859 -0.7743963 0.05159445 -0.06313915 0.20205602 0.13597116 -0.74335283 -0.1357386 -0.3149353 -0.23579201 -0.718672 0.53798825 0.67662865 -0.124447934 -0.54669684 -0.6942686 -0.24236906 -0.100341536 -0.40905637 -0.49866858 -0.34909433 -0.75585836 0.2978178 0.10016933 -0.21718076 -0.58493 -0.58446664 -0.26915136 -0.33146322 -1.1119379 0.091515414 0.20517299 0.36889854 -0.59074175 0.06760322 0.7393781 0.73182565 0.6426017 -0.06017536 0.6855745 0.26559922 -0.2239929 0.46700644 -0.43439645 -0.57110107 -0.009761115 -0.43508255 0.7619691
我 -0.047574643 -0.41174015 0.16535722 0.74365085 -0.61803144 -0.8596099 -0.22885445 -0.48536223 0.22797047 0.22143908 0.847651 0.06627967 0.13972682 0.75241405 -0.98743516 0.07295987 0.06075718 -0.5120761 0.05746792 0.6963653 0.7751648 -0.038068064 -0.40290472 -0.013647176 -0.9449816 0.118665345 -0.05657157 0.055498257 -0.11273313 -0.013466877 0.008703236 0.52580637 0.15159263 -0.2594273 -0.3290329 -0.07584222 0.087947406 -0.6508791 0.92552066 0.42831314 0.007019646 0.49393085 0.14622848 0.54821664 -0.059979703 -0.63905466 -0.53310746 -0.34067523 0.12687632 0.8039044 -0.722424 -1.2394722 -0.7531437 -0.64229393 -0.004510867 -0.55688906 0.23476477 -0.21173704 0.3568974 -0.097068034 -0.4883581 0.07124455 0.008846674 0.8816802 0.06686463 -0.6288831 -0.12327205 0.62031776 0.65987855 -0.045046546 -0.5571672 -0.67872125 0.49318203 -0.49248043 0.46679658 -0.4015747 0.7110057 0.7184465 -1.2156681 0.2711125 -0.012330957 -0.6783184 0.20926514 -0.70365655 0.055290412 0.71732175 -0.10614038 -0.31018952 -0.09418396 -0.3909998 1.0833498 0.41696966 -0.09712791 -0.03655537 0.45423853 -0.38820407 -0.003153878 -0.728109 0.2546363 -0.22769469
路 -0.30220506 -0.12341725 0.38892993 0.28571248 0.20360832 0.16630475 0.6936756 0.37302318 0.05376261 0.07448732 0.73767614 -0.28173485 -0.15528336 0.14432189 0.30453098 -0.047000587 0.48350257 0.27300724 -0.04066231 0.03874084 -0.122969404 -0.7679731 -0.13033171 -0.07570912 0.5756306 0.11626727 -0.6032811 -0.28047678 0.41975704 -0.11973451 -0.025922034 0.25476098 0.19456819 0.42586976 0.11586269 -0.2602943 0.060660385 -0.21879883 -0.56616205 0.055888243 0.79885477 0.2634502 -0.18054275 -0.20731899 -0.3952578 -0.2925291 -0.05756958 -0.8005284 0.63133425 -0.11767304 -0.29863614 -0.12876569 -0.25535697 -0.20523076 0.16296118 -0.7061064 -0.045300797 0.64780146 -0.3682145 0.1759235 -0.095215276 0.5819515 -0.60833716 0.23719259 0.027183836 -0.29958606 -0.23216252 0.48355365 0.12725165 -0.06211703 -0.24157831 -0.7323147 -0.5773708 -0.33731335 -0.46138078 -0.9242166 -0.695564 -0.1803592 0.58843744 0.5083357 -0.36519742 -0.24796571 0.1257318 -0.026328633 -0.057538245 -0.6577089 -0.16665706 0.09587569 -0.1877033 -0.084746726 0.36039776 0.040946413 0.19550794 0.46633583 0.20901562 0.37052193 -0.39940202 0.699481 0.60948986 0.5958194
在 -0.026663097 -0.65226084 0.75293046 0.5759929 -0.71928585 0.35556978 -0.1604236 -0.13957895 -0.6698714 -0.1032366 -0.6360493 0.54167926 0.08688244 -0.05890644 -0.5914637 -0.8426957 -0.21814467 -0.15750816 -0.589161 0.363623 0.045681365 0.48643675 -0.15002404 0.5639723 -0.8264017 -0.5313953 0.05681838 -0.031404547 -0.59079796 -0.14580803 0.24632794 0.076633856 -0.61772746 0.43235925 -0.1055831 -0.6970972 0.32584342 -0.77537733 0.007338045 0.30608216 0.23423146 0.2524886 0.61664265 0.1052378 -0.37958667 -0.08633212 -0.098586574 -0.80590653 0.15643151 -0.5353746 -0.66421413 0.32460555 -0.6590365 0.01662795 -0.66134727 0.048484735 0.0926399 -0.24694787 -0.044183753 -0.647279 0.052343536 -0.6566147 -0.018375538 0.5036362 0.8945994 0.23684128 -0.6660685 0.39890483 0.37590688 -0.5740809 0.21514241 0.12136441 0.3678923 -0.9267603 0.5330116 0.34697515 -0.61582637 -0.8289649 0.061968558 0.81216127 0.17224585 -0.40712368 -0.44361186 -0.5162215 -0.13103056 -0.055570632 0.08547571 0.31448367 0.109521195 -0.03341907 0.39942113 -0.6379529 0.5484549 -0.21018414 0.11120434 -0.103327535 0.3775151 0.4276088 0.32810378 -0.43863
已 -0.0688515 -0.25293747 -0.20101508 0.17698699 0.82875717 -0.23331363 -0.69909537 -0.7882364 0.54335606 0.63946855 0.18523556 -0.3864282 0.9171688 0.61417973 0.009533985 0.23065436 0.5172694 0.004017478 0.38280073 0.41500193 0.26674667 -0.47921965 0.86205053 -0.25901476 0.51030755 -0.50524175 0.015683534 0.2065145 0.20560934 0.16647434 -0.49831724 0.5395618 0.5989831 0.40693754 -0.15943818 0.6707538 -0.17785351 0.015528508 -0.43414846 0.016895091 0.6316724 0.034131512 0.5803198 0.1441808 -0.11228811 -0.42014349 -0.04726751 0.31146723 0.82911426 0.49793872 -0.63463795 0.4373563 -0.16874668 -0.18315437 -0.2548582 -0.5462427 0.122726575 0.2544367 -0.30497268 -0.32778335 -0.20191538 -0.57632834 0.15749253 -0.868615 0.101345554 0.5530285 -0.046319924 0.32654232 0.47063828 -0.45472556 -0.3800415 -0.7022193 -0.47049814 -0.5298776 -0.10784384 -0.37674293 0.013133 -0.4599487 0.012898747 0.2049612 -0.17693894 -0.743453 0.24761038 0.05326939 0.0058269617 0.07784595 -0.77495754 -0.27220267 -0.5381894 -0.4162316 0.48760903 0.83008575 0.46979904 0.15968043 -0.28819153 0.22193082 -0.13933843 0.026342073 0.3855475 -0.04236259
得 0.34049433 -0.8322572 -0.7309087 0.039436243 -0.26917654 -0.39561847 0.3674438 0.3185782 0.2669731 -0.058338277 0.030738182 -0.73044074 -0.6508675 0.7739867 0.8730684 -0.2921206 -0.30755356 0.034911916 0.28101632 -0.2630462 -0.5123845 -0.543096 -0.49349886 -0.54552853 -0.58272076 0.43401074 -0.060666233 -0.118425414 0.19531976 -0.5562641 0.1966333 0.046286818 -0.5927868 -0.28551435 0.5326494 -0.0049992367 0.1518353 -0.14049464 -0.40001875 0.013250059 0.027762152 -0.20820536 0.7605051 0.19086447 0.5347169 0.028066192 0.21988785 0.34147865 -0.11152357 0.7165429 -0.34814996 0.8023968 0.25217906 0.30821037 -0.5022545 0.015739568 -0.6584345 0.38908595 0.03172634 -0.6418558 0.25123322 0.1990659 -0.1417822 0.3915331 0.0473892 -0.32140183 0.31495252 -0.9116049 -0.024964266 0.38723415 0.45422977 -0.3430034 -0.26395246 0.49077109 -0.44907573 0.8970924 0.38720042 0.0773561 0.39253876 0.039470613 -0.13957404 0.110987015 0.2778577 0.08212284 -0.9219284 -0.5266484 0.20753035 -0.76886714 -0.12637027 -0.26098832 -0.35973442 -0.73414236 0.82144904 -0.057014205 -0.44385442 -0.60057837 0.27571198 0.55020624 0.39427114 0.7306147
所 0.711447 0.26392752 -0.21317096 0.85729903 0.8372698 0.7561808 -0.4584728 -0.49471727 0.4921995 0.46881717 0.2453281 0.092118055 0.49172896 0.26567727 -0.18521231 0.7717371 0.18354031 -0.4533338 0.5630121 0.6548884 0.78276753 -0.6150182 0.21282923 -0.38023606 -0.36864263 -0.11015284 0.09695331 0.10940527 -0.011827374 0.22347753 0.5328132 0.57777476 0.29318073 -0.2637922 0.067899235 -0.07398214 -0.47843945 0.045459095 -0.67045105 -0.61444455 -0.03245524 0.17770453 0.5318965 0.28760216 -0.3064606 -0.51284266 -0.62963754 0.82966346 0.18561697 0.33281562 -0.3588852 -0.3924293 0.046900034 -0.65670806 -0.08549646 -0.48362935 0.67520344 0.49380678 0.09448953 0.05203896 0.7024694 -0.72339743 0.62331206 0.07077042 0.44223523 -0.14546728 0.5904543 0.7956704 -0.6370413 -0.67876095 -0.79495037 -0.26702958 -0.20971055 -0.53048295 -0.7483013 0.00053768745 0.35095826 -0.20253715 -0.8885194 -0.09209744 0.480389 -0.7022522 -0.021235662 0.7560224 -0.651003 0.4732835 0.51469684 -0.23879658 -0.36921304 -0.60614634 -0.35252318 0.30742297 -0.71602637 0.2921387 0.36281103 0.46650046 -0.3813384 -0.599499 0.038424507 -0.8206637
民 0.40413326 -0.15832326 -0.14454679 -0.2218946 0.40306717 -0.68102384 0.50163203 -0.18741713 -0.062841214 0.01375352 0.17585403 -0.3603371 -0.6770998 -0.23773128 0.4245931 -0.589427 -0.030026773 -0.38322306 -0.10221127 -0.24256478 -0.57829964 -0.12112188 0.09858278 0.077612504 -0.24132952 0.5271181 -0.1730527 0.45719 0.3358222 0.042004343 0.028591158 0.10541363 -0.38056675 -0.07264544 0.27484912 0.24612164 0.066544324 -0.40024763 0.28329176 0.42600265 0.10773037 0.40388125 0.5191964 0.2249725 -0.31895956 -0.25664267 -0.7241293 -0.009294284 0.39666417 0.39164883 -0.202419 0.23619165 -0.18138508 -0.14900449 -0.0028544823 -0.33712703 -0.0828242 -0.43261087 -0.24715081 -0.28219992 0.116684236 0.13961564 0.00086253375 -0.1185661 -0.15699954 0.4245673 0.044078246 0.4353056 0.23589331 -0.08949126 0.09829385 -0.514255 -0.3441304 -0.2023973 0.37298894 0.28648072 -0.48341164 -0.16600892 0.16263127 0.58651346 0.33101106 0.15454577 0.591216 0.24517135 -0.2741977 -0.2941432 -0.20385145 0.08911779 -0.02522734 -0.6118602 -0.4628773 -0.14350818 0.1860862 -0.23439857 0.10980821 -0.5095837 -0.3665761 -0.05763554 0.34102336 0.35466287
小 0.07945206 -0.39140576 -0.59604836 -0.36406568 0.5891829 -0.8046841 0.07799522 0.41058373 -0.12140129 0.28216076 0.2292055 -0.062371008 -0.28231633 -0.4114902 0.49700415 -0.32128155 -0.46159157 -0.20043388 0.53183335 -0.37807915 0.4171236 -0.42505822 0.0962714 0.052883454 -0.7530209 0.2553892 0.31031203 0.43037817 -0.4783756 0.27800754 -0.24595839 1.151881 -0.42863482 -0.39375043 0.6111913 0.32168794 0.4179853 -0.23467751 -0.13185462 -0.0683035 0.5154897 0.110087246 0.11228161 -0.49211705 -0.78107136 -0.079950646 -0.39418414 0.65386754 0.6698023 0.48436704 -0.14434521 -0.49826533 0.055195667 -0.55439365 0.16473451 -0.46719858 0.012669083 0.46467134 -0.29939792 -0.048449695 -0.33679214 -0.51949644 0.5999821 -0.49922222 -0.46713117 -0.25499776 0.29835618 0.53853416 0.46837017 -0.48490292 -0.36348355 -0.8495834 0.95992213 -0.21265662 -0.15443271 -0.18254262 -0.2883413 0.12048641 -0.22924045 -0.021907033 0.4037922 -0.3319015 0.85358125 -0.050346944 -1.1236352 -0.6171909 1.1109719 -0.56485724 -0.690353 -0.3220086 -0.29023552 -0.8753677 -0.12596749 -0.111967154 -0.2853163 -0.34966353 -0.8538007 0.24941306 0.031741656 -0.28198504
天 0.4186521 -0.6580235 0.7130888 -0.116204955 0.20155379 -0.78989124 0.19883017 0.035780225 -0.78976494 0.8699913 -0.12806043 0.47453165 0.23419495 0.20417783 -0.47908917 -0.23494077 0.48358148 -0.51059365 -0.3592991 0.6681111 0.45847428 -0.21781597 0.47959575 -0.4729124 0.11384935 0.7256512 -0.10580993 0.16962117 0.27419505 0.09650881 -0.4267475 -0.164493 0.5724969 0.47119552 0.103764266 0.88316554 0.10830443 -0.47822037 0.62869 -0.31886256 -0.03633131 0.5016045 0.62690526 0.5320443 0.07003115 0.26054856 -0.68210053 0.16401795 0.29961252 -0.14567149 -0.6903358 -0.10702335 -0.10462819 -0.9093143 -0.45006162 -0.20924944 0.0841252 -0.97397524 -0.25572124 -0.51815146 0.7210231 -0.45577967 0.11087897 -0.43428904 0.4177114 0.54665095 0.64277375 0.84564406 -0.11247164 -1.1276591 -0.763524 -0.2350843 0.6904866 -0.07036874 -0.33819625 0.24348488 0.7904545 -0.39274487 0.07169584 0.67794234 0.14772442 -0.5757896 0.05249851 0.62743795 0.8286483 0.23940359 0.49146867 0.7602559 -0.04276082 -0.40428606 0.16083726 -0.06344416 0.058767855 -0.1884673 -0.13810088 -0.12922594 -0.20476629 -0.80066097 0.69140303 -0.06348674
乐 0.45703042 -0.66020465 -0.48517546 0.68325293 0.454821 0.30805218 -0.0030784085 0.37430203 0.2122348 0.4831139 -0.086657524 -0.03376425 0.9148076 -0.46162415 -0.4256071 -0.18211815 0.33423808 0.21514682 -0.024734514 0.42740318 0.44626483 -0.3239328 -0.18465598 0.23617578 -0.67641467 0.018715462 0.03112628 -0.4059415 -0.55698526 -0.6165301 0.6412553 0.5014824 0.031493716 0.04196273 0.032786503 -0.2667852 -0.13625355 -0.10871264 -0.36636642 0.53371793 0.37288162 0.19657753 0.41919267 0.38175932 0.18234599 0.42274106 -0.5794832 0.40326962 0.301267 -0.2072208 -0.6193286 -0.56817216 -0.56474346 -0.36746824 0.614017 -0.45633608 0.46678203 0.048981275 -0.53162336 -0.37371907 0.031004604 -0.44648087 0.37634718 0.30703968 -0.5227279 -0.77396774 -0.34418005 0.52400565 0.20476328 -0.42544538 -1.0329888 -0.47342768 0.18392926 -0.65902287 -0.6702896 0.21251065 0.17977239 -0.5427064 -0.60626346 -0.5525405 0.4558463 0.36677223 -0.3180237 0.02070335 -0.3504464 -0.039098084 0.34272218 -0.2067975 -0.17863198 -0.3239795 -0.100602046 -0.03967328 -0.60084075 0.07564524 -0.22192332 -0.67899734 -0.4266983 -0.57160616 0.04711 0.22335401
邦 1.0435572 -0.69491 0.141496 0.10638733 -0.038333964 -0.6176594 0.24647298 0.7368969 0.24454492 -0.41830954 0.52742314 0.03441137 0.40405127 0.37114266 0.0011068189 0.46032608 1.0412534 -0.20770805 -0.043981235 -0.17047189 -0.49647924 -0.55854636 0.05606103 0.040714137 -0.06626714 0.21582627 0.27432814 -0.37089914 0.21363236 0.02947711 -0.40584573 -0.36606506 0.28725827 0.34432057 0.680743 0.041141484 0.35735533 -0.41300344 -0.0023194724 -0.7925797 0.09789729 0.71497774 0.6233132 -0.078720614 0.18577565 0.01855693 -0.7963824 0.26763114 -0.43596342 -0.26426697 -0.18481356 0.15963525 0.36250445 -0.09994745 -0.69308144 0.34044895 0.104445435 -0.4433393 -0.49630865 -0.6834014 0.23924282 -0.27971458 0.23793943 -0.77685994 -0.106932685 -0.16830252 0.6941466 0.44874468 0.42361218 -0.3395413 0.15253305 0.31518114 -0.23416682 0.08358957 -0.86131424 0.597743 -0.7158692 -0.32654947 0.8817885 0.051854268 0.59770876 0.075003356 0.78916603 -0.25715658 -0.20545065 0.066886745 -0.03157384 0.27205795 -0.29602328 -0.32588354 -0.6395561 -0.089314215 -0.24515864 -0.553545 0.7005558 0.14852957 -0.4908153 0.36816552 -0.2334313 0.09106416
亦 -0.32320797 -0.36500996 -0.670013 0.75825626 0.53628117 -0.41615975 -0.009871299 -0.71417457 -0.11624764 0.25286743 -0.03912546 -0.6049697 0.26765123 -0.48417687 0.4078599 -0.72011286 0.48472998 -0.14550672 0.08047925 0.68982613 0.40238103 -0.3687413 0.33194873 0.31881887 -0.6866661 0.13182469 -0.31067148 0.31932008 -0.5788156 0.23189102 0.4932683 0.5327101 -0.36996064 -0.097976334 0.44880834 0.5533563 0.17270651 -0.85849154 -0.6688645 -0.020084823 0.5766279 0.7827916 0.6143301 0.31129274 -0.663777 -0.19296712 -0.3547409 0.36705783 -0.3121757 -0.018523071 0.22113322 -0.4732847 -0.67107046 -0.6597426 -0.26852435 0.16191389 0.61385196 -0.6787378 0.16094787 -0.34499833 -0.24594922 -0.114949234 0.49499542 -0.3373995 0.19952299 -0.5868876 -0.014567258 0.5894666 0.18423727 -0.7859435 -0.70848316 -0.51033884 0.007617206 -0.7252744 0.22404353 0.06755304 -0.36215907 0.41390532 -0.55865943 0.56396276 0.37549102 -0.49548835 0.54503524 0.16810015 -0.30317008 0.27561423 -0.4119174 -0.4767726 -0.08129273 -0.3396925 -0.31428716 0.0063432143 -0.5118065 -0.0602012 0.15018702 -0.66755134 0.54883885 0.08120737 -0.13406496 -0.18304329
使 0.22276178 0.047614668 0.06460982 -0.19382995 -0.15164581 -0.40809706 0.5928011 0.90517175 -0.5199492 -0.46068984 0.2866794 -0.60238737 -0.6725679 0.2239386 0.06969917 -0.63748825 0.70063627 -0.21262252 -0.11799046 -0.824774 -0.27931985 -0.7303883 0.6325259 0.7579558 0.93843997 0.29022828 0.22643398 -0.63204163 0.3912797 -0.38066822 -0.22808243 -0.6332674 0.030145232 -0.32095173 0.43841982 0.5800631 -0.04352069 -0.1929195 -0.34123328 1.0196921 -0.5484973 0.2346831 -0.045292255 0.07508866 0.09286352 -0.56779176 0.059838723 -0.7075252 -0.060282778 0.43581188 0.18850876 -0.21326362 -0.25488636 -0.054075744 -0.43559465 -0.21656227 0.3990222 -0.36876947 0.03699555 -0.0946645 -0.2791734 -0.5147892 0.12831153 -0.16823083 -0.33125103 -1.000793 -0.16115484 0.29236406 -0.08646887 0.096583076 -0.37454543 -0.41749874 -0.093719974 0.01058332 -0.1890519 -0.36205846 -0.3175914 -0.29170704 0.94131505 0.23089065 -0.12953088 -0.3624093 -0.052646093 -0.6496016 0.013753706 -0.15921317 -0.2014489 0.20910648 -0.14252205 -0.099711515 -0.17867984 -0.31799358 -0.16023181 0.71693194 0.40739396 0.084220365 -0.11566902 0.11144994 -0.20316778 0.9870639
大 0.23399456 -0.5856673 0.547718 0.4598905 0.4298898 -0.75046605 -0.9200355 -0.67920613 -0.17814392 0.38718244 0.29962656 0.1809403 0.16954741 0.41787884 0.35737953 -0.54331976 0.27172187 -0.05848076 -0.88977385 0.51397884 0.02131641 -0.47944948 -0.11118485 -0.13145338 0.3081422 0.4307696 -0.46215317 -0.6027573 -0.8477467 0.20077316 0.47617036 -0.060978394 -0.035814412 0.68928117 -0.7999934 0.5655807 0.14691065 -0.38947687 0.08323922 0.4925664 0.70733124 0.48395872 0.8979524 0.20943205 0.4203412 -0.21952099 0.6805377 -0.45783028 -0.76562905 -0.7943472 -0.32141843 0.08708037 -0.54983944 -0.09546886 0.052484915 0.08990853 0.57233906 -0.43888813 0.4230654 -0.28118518 -0.6118552 0.68074745 0.034428507 -0.6423911 0.07117124 0.76371664 -0.4122564 0.0023398988 0.26577988 -0.18178888 0.45877063 0.46425486 0.67508787 -0.21003953 0.8615166 0.11492637 0.12617141 0.07729735 -0.475427 -0.042668443 -0.1508726 0.12698337 -0.3105755 -0.43354684 0.43151608 0.078442216 -0.44392526 -0.083672784 -0.81129897 0.10453028 0.68313915 -0.056514353 0.51010066 -0.35320038 -0.5702025 -0.3214608 0.27738962 0.24870682 -0.13426206 -0.47932628
下 0.30046996 0.15090777 0.92948395 -0.016981792 0.48374096 -0.23387472 0.42005143 -0.09645928 -0.65059197 -0.85345465 0.63798577 -0.29905617 -0.18428925 0.11006106 0.10943228 -0.3603772 0.03862588 0.53189754 0.67058575 -0.6891723 0.6615233 -0.22063074 -0.14064968 0.3136991 -0.07236453 -0.6935531 -0.44745868 0.16229798 0.3617691 0.60918516 0.2445636 -0.5057108 0.46468106 0.53375757 0.18128575 -0.366496 -0.17180614 -0.22784951 -0.5485362 0.043930657 -0.5516446 0.9853269 1.0631092 0.4245105 -0.478785 -0.6321844 -0.008557505 0.29411066 0.20034681 0.31147 -0.15954767 0.47141603 -0.5070294 0.618608 -0.39113718 -0.3236615 0.34485066 0.42995438 -0.20532371 -0.04210915 -0.5619649 0.41711223 -0.60508597 -0.58564574 0.07537829 -0.35779908 -0.66524255 -0.1260752 0.008301418 -0.2984279 -0.5170109 -0.5623062 -0.1520574 0.18724357 0.5754668 -0.1735186 -0.071482345 -0.026521707 0.5971568 0.17833751 -0.08218701 0.0057554264 -0.50798875 0.04688463 0.6916622 0.31240118 0.22199367 0.4301706 -0.18118942 0.6468268 -0.75543165 0.7131169 0.19635431 0.38550937 -0.13313413 -0.3755711 0.25213453 0.035978824 0.54376966 0.74805635
贡 -0.22906016 0.35835746 -0.21293546 0.39304757 0.055191457 0.10544229 -0.0360105 0.1932481 -0.61767066 -0.14498673 -0.60256946 -0.82544947 -0.14827962 -0.23517308 0.27588153 0.010245163 0.3262522 0.20360559 -0.32102814 -0.018241195 0.046956707 -0.1378508 -0.2441267 -0.30105966 0.65713453 0.19762605 0.31873024 -0.12252657 0.63210726 0.2984974 -0.15513028 -0.1413065 -0.61618376 0.80499023 0.82281435 0.020188367 -0.95713747 0.014418275 -0.14683701 0.39315882 0.3320563 -0.052804016 0.8517023 0.09080621 -0.019720742 0.17920831 -0.2982772 0.5478206 -0.17015135 -0.083025895 -0.030445172 -0.12166821 0.066256456 -0.48098975 -0.12046546 -0.45143163 0.32660064 -0.33706838 -0.15082876 -0.24538647 -0.048237115 0.0020785413 -0.67680556 -0.18745342 -0.2879889 -0.11757051 -0.16853231 0.82246673 -0.21417688 0.26383132 -0.7773973 -0.38755667 -0.39410856 -0.47162244 -0.23928133 0.29743925 0.020110296 -0.16745234 -0.19525816 0.8131343 0.5003796 -0.01276577 0.49938956 0.0056982473 0.6808255 0.030183706 0.42794877 -0.14302407 0.19058888 0.17141214 -0.06483244 0.2670898 0.29712954 0.0910284 0.04087348 -0.49917206 -0.11962069 -0.06901796 -0.105675556 -0.008491303
欲 0.7345489 -0.5038742 0.53327054 -0.5646277 0.11124765 -0.6351941 -0.25712413 -0.51128274 0.2622379 -0.4946986 0.30420405 -0.5969355 -0.2739877 0.69534934 0.080048434 -0.04419238 0.07136335 0.18306659 0.43620634 -0.592727 0.22275886 -0.31107408 0.21550122 0.53155726 -0.112915285 -0.3843175 -0.082313985 0.2481742 0.72950596 -0.038870964 0.32160276 0.61274487 0.1979212 -0.20350803 0.33847588 -0.07847864 -0.5682564 0.010450979 0.09923899 -0.4955211 -0.12720878 0.6135489 0.37625623 0.117438875 -0.3404681 -0.25616205 -0.40782067 -0.06713184 0.6064168 0.6914753 0.19209999 0.14909759 0.30807588 -0.2823489 -0.9024311 0.1861504 0.31901616 0.22304636 -0.80035704 0.11439044 0.15992679 0.0970748 -0.21194856 -0.61059403 0.022870056 0.96198714 0.045977566 -0.67149895 -0.21378936 -0.19201972 -0.82310194 0.6740108 -0.22575188 0.28629822 -0.1207132 0.45956668 -0.18575226 1.0776384 -0.03832775 -0.3492816 -0.08316558 -0.25414285 0.43252423 0.25883633 -0.33481312 -0.09527786 0.084445015 -0.14325315 -0.5095432 -0.35835454 -0.18756972 -0.14677231 0.7157779 -0.49411747 -0.16380027 -0.36384624 0.40012088 0.7448919 0.12931928 0.53209007
诸 0.12393896 0.2779437 -0.59944344 0.48911765 0.539632 -0.27869296 0.2683631 0.6441494 0.3376295 -0.36320105 0.6525485 -0.22581641 -0.07818273 -0.96553594 0.83102685 -0.5536565 0.49690914 -0.6537692 0.16774791 -0.038355168 -0.2992072 0.26952982 0.12284541 0.013254419 0.76905304 -0.44322857 0.35800582 -0.29004842 0.72974575 -0.7720694 0.045960475 0.7630651 0.0048134304 -0.31730434 0.45205784 0.78508633 0.1651618 -0.4535025 -0.12835923 0.40593144 -0.40320674 -0.3487054 0.3230588 0.2258842 -0.7083421 0.39362264 -0.3597004 -0.41865617 -0.76509535 0.5873921 0.16248453 -0.33934245 -0.18247816 -0.29278982 -0.22721727 -0.12647288 0.6930977 -0.9771684 0.0030273334 -0.21823268 0.663407 -0.36532474 -0.2614527 0.031183876 0.590419 0.004489131 0.4767147 0.5848452 -0.47851166 0.08932267 -0.7517427 -0.8600615 -0.14819258 -0.39685985 -0.43438515 0.06655038 -0.36747715 -0.61258507 0.5909155 -0.29509717 -0.123767346 -0.08646688 0.673607 0.39243236 -0.15308414 0.74692905 -0.3211747 -0.12050963 0.8385783 -0.8707792 -0.74896777 0.6547637 0.3999125 -0.06408466 0.5179038 -0.29246777 0.045098145 -0.35521123 -0.19021624 0.95103455
从 0.47779253 -0.39352244 0.055592824 -0.5719404 0.06494955 -0.55933404 0.5329021 -0.3347144 0.36262187 0.037942596 0.14944996 -0.56258154 -0.09632046 0.384063 0.30656144 -0.59586364 0.37484124 -0.30790746 -0.21595702 -0.24323432 0.22930805 -0.46190807 0.42058593 0.35744664 -0.09924567 0.019898806 0.22987321 -0.05277824 0.3452686 0.16573395 0.18568109 -0.62018394 0.45748207 0.3508462 0.73335725 0.2588292 -0.47051993 -0.019335048 -0.3192158 0.453338 -0.050437562 0.28367096 -0.16461508 0.23026858 -0.41596138 -0.0971337 0.1894079 -0.22790548 -0.49720258 0.55102855 -0.08134747 -0.26278913 0.5365166 -0.032117937 -0.24097607 -0.44561315 0.5109067 -0.52170146 -0.39453468 -0.5867563 -0.3343773 -0.22693719 0.095231175 -0.7428814 0.7198955 -0.13932712 -0.25622553 -0.15929472 0.07963312 0.66450477 -0.488539 0.022673815 0.40469196 0.017593026 -0.17561659 0.528433 0.09244805 0.54255086 -0.28014278 0.052296925 0.2946242 -0.38442248 0.17527653 -0.1687248 0.0834655 0.43659648 -0.4703671 0.5385188 -0.18442942 0.38377947 0.928933 -0.6909375 0.07764731 -0.078089535 -0.06927225 0.50386953 -0.14426135 -0.057362307 -0.65331894 -0.5316569
文 0.45883211 -0.13795197 -0.68981785 0.7364992 0.7108722 0.19397306 0.4226452 -0.4792733 0.40268472 0.38537052 0.053519975 -1.0207796 -0.0725771 -0.39471492 0.41502935 -0.018440878 0.15460028 -0.49904245 -0.22800921 0.064324126 -0.8954515 0.01813688 -0.13497849 -0.113760896 0.18279342 -0.15944774 -0.51767695 -0.23545158 0.72703373 -0.7205517 0.43538377 0.2289852 0.41189247 -0.7403696 -0.48361152 0.1512458 0.26723155 -0.7259664 -0.36706668 0.3364566 0.16467364 -0.097119786 -0.090472944 0.015681088 -0.26617855 0.31881982 -0.062538266 -0.37550682 -0.5669589 0.9988876 0.36191866 -0.24150957 -0.09121883 -0.34029254 0.33941904 0.22372282 0.12154351 0.5160722 -0.41056457 -0.30965346 0.16173719 0.3615568 0.2853066 -0.111150324 1.0188403 -0.23889466 1.0506443 0.16550356 0.43694738 -0.36252496 -0.43705183 -0.51945955 -0.45376644 -0.071386226 -0.7441184 -0.26227278 -0.4441712 0.65500784 -0.47445953 0.31637967 0.036407664 0.22172521 0.14082666 0.8467716 0.36625165 0.5233495 -0.43715766 0.13890569 0.026876053 -0.29333752 -0.63411385 -0.12996875 0.062497146 -0.051639955 0.011656926 -0.18881476 -0.031587258 -0.6109357 -0.5431441 0.7838181
政 -0.15653615 0.0056417393 -0.041947104 -0.083063126 0.67787755 -0.8990936 -0.19433148 1.008375 0.7415737 -0.61197346 1.2541139 0.099495076 -0.05746339 0.50539535 0.07958442 0.058758743 0.30930093 -0.48481068 0.579866 0.07829408 0.06949144 0.43798187 0.62872976 0.081006326 0.40141505 -0.8464981 0.72048986 -0.15626775 0.23603307 0.79002464 -0.4081975 0.6364274 -0.048717797 -0.3140474 -0.60800135 0.65233773 -0.43192187 0.08740175 -0.4336635 -0.053181943 0.60965145 0.8395625 -0.13693641 -0.2790927 -0.3816724 0.1207655 -0.84669185 -0.56572497 0.41306555 -0.22357893 0.012599701 -0.51234686 -0.19040942 -0.39474562 -0.23642527 -0.15883592 0.20249875 0.14452869 -0.6416916 -0.2543007 0.19239818 -0.41957358 -0.70315593 -0.5896611 -0.68726367 -0.6297125 0.55032635 0.11754624 0.08608428 -0.29568514 -0.5907279 0.6039966 -0.54933983 0.93140036 -0.077126816 0.4117709 -0.11099356 0.95139897 0.43815342 -0.887056 0.68897814 -0.14920862 0.61347216 -0.50237745 -0.65953857 -0.14473806 -0.30088398 -0.44546857 0.08156215 -0.06010504 -0.31139278 -0.3674177 -0.04981856 0.3158054 1.1507099 -0.28155208 -0.5792345 0.5419841 -0.2979356 -0.06433501
食 0.25970307 0.41584954 0.21297532 -0.3826982 0.8029193 -0.40876353 0.4451641 -0.1012321 -0.43828392 0.53520906 -0.5848866 -0.23475905 -0.43481532 0.36063707 0.11310019 -0.6291324 0.67810047 0.5885581 0.29601896 0.28769743 -0.27573222 -0.359684 0.07795887 0.2614347 -0.3116532 -0.08591448 0.1856084 0.22048064 0.13529707 -0.2129624 -0.2492724 0.24492954 0.1836074 0.20974903 -0.3160247 0.67768526 -0.47422683 -0.3538325 -0.41422614 0.47829834 -0.26728392 0.1301692 -0.7138568 -0.2293467 0.13680081 0.19216993 -0.46888104 -0.16482387 -0.012584017 0.87142265 0.086894505 -0.12365439 0.74163485 -0.5110698 -0.16984786 -0.2254336 0.0026879825 0.29517978 -0.33894542 -0.80460995 0.530328 0.21454243 -0.23260202 -0.21503209 0.011816857 -0.55126333 -0.08657542 0.6439622 0.45881024 0.04849005 -0.17816238 0.30568957 -0.8204005 0.35870075 0.096719235 0.3061865 -0.3117393 -0.27671626 -0.29669878 0.1152532 0.39389077 -0.4572372 0.41621 -0.6973684 0.06953624 -0.30462217 -0.9195528 0.5691288 0.10894983 -0.45569405 -1.0043811 -0.348082 0.6482905 0.21268103 0.718515 0.8585912 -0.2252098 -0.40221488 0.029243922 0.08002173
善 0.5817165 0.20743223 -0.19725896 0.22406569 -0.048590235 -0.75345975 -0.30153722 -0.44010827 -0.30501312 0.0056834286 0.54560804 0.40527633 -0.1796096 -0.11270927 0.64197326 -0.44119054 -0.24405532 -0.65397775 0.74106956 -0.0035988556 -0.38131985 -0.54138553 0.83544105 -0.26776358 0.36050904 -0.73143226 -0.26133794 0.38438758 0.6688127 1.0165408 -0.8078837 -0.93702525 -0.4770304 -0.253631 0.45365006 0.6322666 -0.7265157 -0.061500125 0.22633229 0.39118358 0.24949044 0.48484087 -0.044863228 -0.21070245 -0.19046102 -0.07507113 -0.42085943 -0.7388929 0.07955797 0.015557779 -0.22904693 -0.34632692 -0.063754566 -0.064391434 -0.17652829 -0.38840196 0.2143016 -0.20267741 -0.4752582 0.072601356 -0.567408 0.0068470864 0.4214703 -0.6631394 -0.13044125 -0.12614042 -0.44079027 0.12809068 0.70053315 0.10056693 0.001217122 -0.2679281 0.68061 0.7583939 0.52146333 0.29790682 -0.3386757 0.47756878 -0.5052791 -0.071819045 0.1324953 -0.3269271 0.8259486 -0.6982741 0.07660993 -0.97084665 -0.84858495 0.71501887 0.14191435 -0.5633295 -0.015180903 -0.23917156 0.57624316 0.3450213 -0.18962096 -0.011583636 -0.5819264 0.7250674 0.5012669 -0.42243
后 0.34281754 -0.42070082 -0.31487826 0.083996005 -0.15148549 -0.02659889 -0.14623168 -0.11850282 0.16436395 -0.1325138 0.008223514 -0.0444242 -0.13258004 0.1618567 -0.07831661 -0.45113412 0.33141395 0.18221912 0.2754728 0.24127658 -0.027767396 -0.6359794 -0.10529088 -0.3805628 -0.12465838 -0.38005766 0.67139864 -0.34750554 0.36874935 0.23765877 0.10074615 0.7174041 0.112913646 0.004039486 0.11749494 0.47322932 0.6796801 -0.25785077 -0.24812281 -0.060922008 0.07663674 -0.09369104 0.42254978 -0.01666282 0.038676873 0.4782557 -0.42589825 -0.17001493 -0.074688986 -0.10716601 -0.42002726 -0.19619103 -0.45620596 -0.4131951 -0.7481175 0.16240062 0.8576863 -0.08117762 0.036514062 -0.683057 0.055442303 -0.69880617 0.36963218 0.1015118 0.6459681 -0.45870614 -0.4341378 0.49547127 -0.54746073 -0.42773888 -0.0089521445 -0.5286248 -0.4254558 -0.43947884 -0.31171203 0.50816226 -0.6319713 -0.15518339 -0.15922762 -0.1512855 -0.11471113 0.21904716 -0.051180627 -0.06731856 -0.32569084 -0.029900445 -0.5226258 -0.5539798 0.1487733 -0.13560398 0.114079945 -0.17592058 0.059614047 0.38301054 0.21390842 0.5402239 -0.33466655 -0.017889762 -0.14524528 -0.36006823
德 0.20881592 -0.56659317 -0.48602977 -0.50820136 0.010513848 -0.6564019 0.4810747 0.3606643 0.27665696 -0.05074437 -0.35645893 0.57394034 -0.5427023 -0.00030861935 0.5695157 -0.18939191 0.53431803 -0.6240278 -0.2333187 -0.14648363 -0.4993318 -0.005419914 0.38750878 -0.07468853 -0.36490142 0.004869153 0.13908312 0.6307856 0.15351976 0.6206563 -0.48740277 -0.40408066 -0.32580236 -0.18746006 -0.2025947 0.7305515 -0.52541137 -0.3149056 0.113236874 -0.08642135 -0.041148897 0.42925012 0.07526068 0.44353738 -0.6224137 0.18215711 -0.12476614 -0.23793392 -0.2940925 0.78803676 0.31294683 -0.015037976 -0.5313404 -0.5428348 0.20629124 0.43870208 0.14841156 0.12187695 -0.63451725 -0.09965459 -0.5859921 -0.03762115 0.10315804 -0.088166 0.06518622 0.072257385 -0.03223247 0.48055273 0.55136347 -0.61986315 0.057759244 -0.36964756 -0.56098324 -0.17676103 -0.90044665 -0.07572492 -0.57340163 0.54331064 0.30290842 0.060416184 -0.027507704 0.374694 0.7139142 -0.28582358 -0.19931416 -0.29599988 0.12023106 0.5350548 0.2878295 -0.5999017 -0.037835672 -0.72673726 -0.3079764 -0.49638474 0.39868057 -0.31093788 0.045951426 -0.29768103 -0.013909333 0.5256039
求 -0.13479467 -0.2740107 0.54284877 0.34966147 0.4377716 0.2510626 -0.38124543 -0.45329213 -0.82053983 0.35044253 -0.73183966 -0.3563351 -0.34161302 -0.11873707 -0.16098042 -0.044896413 0.06864581 -0.3244042 0.29372758 -0.16212617 1.1549084 -0.40551737 -0.27174762 0.029478604 -0.65981644 0.060917955 -0.39282075 0.4657052 0.11702188 0.07109971 0.8475082 0.14089756 -0.80111814 0.7499428 0.33657703 -0.0844105 -0.7565301 0.41375366 0.13352126 -0.4663049 0.060401056 0.4548023 0.23229177 0.0038553432 -0.26265547 -0.1314576 0.31148884 -0.60198736 0.38609335 -1.0402064 0.14152943 -0.37844446 -0.54289645 -0.026552869 -0.5355583 -0.032709245 0.8680682 -0.30407977 -0.08546481 -0.078380905 -0.011700817 0.49195802 -0.7129816 -0.070491195 0.42596203 -1.0384997 0.04225584 0.25222763 -0.75153077 0.08407459 -0.13704482 1.1470116 -0.32384863 -0.087808765 0.5080717 0.6238694 -0.48815003 -0.34902382 -0.66247755 0.101943605 0.3529511 0.3750683 -0.51727176 -0.75499785 0.44502982 -0.46442896 0.57971376 -0.08171686 -0.68093455 0.8094735 0.16291642 0.020800963 0.43614677 -0.33626118 -0.0047154 -0.739527 0.23247759 0.39033377 -0.48361143 -0.5334809
对 0.45999703 -0.6916299 -0.4869493 -0.053929683 -0.10542821 -0.47887182 0.5491428 -0.23114672 0.6274687 0.070554346 0.41151688 0.563558 -0.2788269 0.07547245 0.5859914 -0.46404725 0.84668654 -0.6329678 -0.17160484 0.695399 -0.54134536 -0.5034215 -0.359747 -0.01535166 -0.09760025 0.23085037 0.20169938 -0.19538882 -0.03267273 0.5114757 0.36472785 -0.3647155 0.12932557 -0.13059178 0.55076724 -0.1582789 -0.002507586 0.011351258 -0.066674516 -0.12867045 0.71014035 0.4740412 0.052952807 0.1421796 -0.04635596 0.007399505 -0.6735504 -0.85891545 -0.5293347 0.04006322 -0.7067819 -0.6499934 -0.010325107 -0.5683914 -0.036824822 0.57149565 -0.020790063 -0.7020902 0.19048925 -0.10128321 -0.44202384 -0.013975583 0.5601854 0.8208624 0.5335877 -0.6145497 0.13671775 0.61823875 -0.002156835 -7.150397e-05 0.28496283 0.017968498 0.3318311 -0.042261556 -0.59445786 0.4555624 -0.056584217 -0.14107081 -0.41016772 0.61997 0.11941458 0.020796293 0.5718651 -0.42901227 0.042727236 -0.19419543 0.16326508 0.592803 0.59852296 -0.7852247 -0.018387847 -0.041037295 0.38444903 -0.398382 0.04529461 -0.5706349 -0.56495285 0.5302591 0.5884402 0.066546164
恶 0.3507327 -0.18140966 0.15350552 0.48271352 -0.25398782 -0.2881762 -0.22580934 -0.621836 -0.8091409 0.41124335 -0.3674004 -0.15715803 -0.48324856 0.18282206 0.5143421 -0.4306797 -0.11994446 0.7229579 -0.020591956 -0.06564043 -0.114866465 -0.52759147 0.5494039 -0.4802417 -0.27780706 0.9414725 -0.1610437 0.39676064 0.56555134 0.154888 -0.05170865 -0.50063306 -0.56711084 0.6007279 0.39429843 0.1983059 -0.34151345 -0.060418755 0.43871206 0.17351964 0.3028291 -0.038237546 0.27517053 -0.56279004 -0.4866955 -0.004753702 -0.22765446 0.63075596 0.6077052 -0.112567455 0.1036497 0.50287056 0.5130817 0.30317035 -0.50881046 0.5979328 0.63836133 -0.18640317 -0.10075173 0.071071155 -0.019472944 -0.11919205 0.30102634 0.19587651 0.2055297 -0.13318293 0.20061806 0.27378705 -0.12378392 0.2755697 -0.16308361 0.7713373 -0.33098507 -0.37479702 -0.052889295 0.37329954 -0.47455838 -0.5618341 -0.19344307 -0.23675844 -0.0843394 0.5084703 0.1841481 -0.08443238 0.60855347 -0.04503221 -0.8722117 -0.2224138 -1.0135796 0.49193314 -0.6732475 -0.1745905 0.6343845 -0.7377914 -0.352684 -0.35754845 0.67022747 0.35730517 -0.027222507 1.5770913e-05
信 0.7995649 -0.54433376 0.45146534 0.40367046 0.15428361 0.5295025 0.5122586 -0.053726375 -0.2516881 -0.49376243 0.5013822 0.05721049 0.61476666 0.4178636 0.48124427 -0.13427626 -0.009654399 -0.91625994 -0.16294722 -0.12649435 0.704224 -0.76743805 -0.2871444 -0.041481845 0.29061717 0.100328155 0.58971864 0.1612208 0.7565695 0.17423286 -1.0090464 -0.2740602 0.851106 0.16267888 -0.014391012 0.42838943 0.14587337 -0.30526635 -0.21676292 -0.8797743 -0.12824114 0.52017236 0.6046459 0.2535316 -0.32745826 -0.22701432 -0.6245691 0.55278915 -0.13122968 0.35351282 -0.32336655 -0.034271177 -0.40031335 -0.61827826 -0.9724944 0.08467538 -0.1337211 -0.14300129 -0.42756763 -0.36540452 -0.26035103 -0.82244515 0.4413185 -0.72147673 -0.14829186 -0.6625195 0.7988178 0.054305535 0.92907166 -0.6900396 0.5237198 0.35334796 -0.24618453 -0.7057355 -0.4031802 0.63583905 -0.44347474 -0.03868534 0.12745886 0.18381618 0.34086153 0.29669195 1.1104382 -0.48701194 -0.18403894 0.4978309 0.3237951 0.57556945 -0.1400156 -0.047451213 -0.7936546 -0.42809325 -0.15691315 -0.36399293 0.007912043 -0.3350292 0.53584784 0.3916964 0.4343732 0.003977227
死 0.65731096 -0.22128728 -0.037580166 -0.8891469 0.012424302 0.09364804 0.80583954 -0.98115355 -0.30280438 0.0661304 -0.6359781 -0.15703681 -0.44599476 -0.24319242 0.5427763 -0.02534848 0.087750964 0.40199924 0.21575888 -0.47266182 -0.19829112 -0.31095877 -0.6363322 0.19854192 0.22586785 -0.34764412 0.19840634 0.39571428 0.30790186 0.48436886 0.11091165 -0.6722049 -0.5288858 -0.03368589 -0.4132043 -0.82635415 0.13862744 0.26997367 0.027868168 -0.3027838 0.2744099 0.39022627 -0.3874633 -0.0401936 0.03335587 0.15955645 0.032912895 -0.08480374 0.1550515 0.672617 0.3646827 -0.23280774 0.1314852 -0.31633362 0.28988463 -0.08683057 0.25197715 0.22496828 -0.6697863 -0.09640175 -0.6394203 -0.16861904 0.23454343 -0.043103274 0.42547315 -0.00781081 0.037406698 0.21984375 0.19077139 -0.74251986 -0.5567012 -0.16254763 -1.1485819 -0.19829471 0.6505829 -0.13852185 -0.8050054 -0.38885903 0.12983458 -0.56561065 -0.1503142 0.08266761 0.5120699 0.32558805 0.47562125 0.0064992453 0.6984526 0.305984 -0.32930446 -1.0411294 -1.2264255 0.08637544 -0.14213094 -0.29459426 -0.4246526 -0.2836656 0.6680214 -0.59971696 -0.73434806 0.47544602
然 0.6515986 -0.64138496 0.72442144 0.35350096 0.7205392 -0.029188683 0.35928625 -0.39863333 -0.699303 -0.19873816 0.25122923 -0.021937639 0.17328024 0.10667602 0.5197795 -0.17628866 0.1774938 0.04734582 0.51588774 0.26820937 0.14051451 -0.39026278 0.34326723 -0.42470297 0.24759823 0.29109693 0.37593055 0.74251664 0.41617274 -0.015911654 -0.8070459 0.20302734 -0.10710227 -0.23217909 0.4471332 0.26495904 -0.045582417 0.017921858 0.22392052 -0.54923886 0.26280943 0.44432122 -0.2112007 0.83331656 -0.23347083 0.18936007 -0.7130705 -0.28883958 -0.4328102 0.2092879 -0.49577773 -0.46430036 -0.7010411 -0.6427376 -0.6324976 0.66836655 0.33892667 -0.5198895 -0.759703 -0.3975917 0.51300657 -0.19314323 0.860285 -0.7174208 0.31066528 -0.21924485 0.42746544 -0.29905036 0.7326406 0.0364245 -0.25696847 0.054140043 0.06370726 -0.33500043 0.05454258 -0.10155235 -0.42999142 0.29617414 -0.053995743 0.29656664 0.06858312 -0.13441141 0.48953843 -0.55557317 -0.44874704 0.70652825 0.3520417 0.38627756 -0.87901133 0.6406046 0.028778248 0.3552182 -0.5638592 -0.053610634 0.3545251 -0.49079952 0.58462155 -0.09347841 -0.04105655 -0.046094928
《 0.5328448 -0.39572918 -0.10794484 0.4726511 0.30029213 -0.551321 0.6224048 0.16475996 0.3566468 -0.26978597 0.63783574 -0.068354346 0.3027678 -0.030970957 -0.05838249 -0.4157821 -0.071425684 -0.003485195 0.50594914 -0.23249471 0.6090154 -0.1663235 0.3714524 0.03886694 -0.056903396 -0.06590577 0.54141605 -0.5890983 -0.15896346 0.5670073 -0.46142936 -0.18060571 0.28813115 0.39131105 0.15276563 0.5190964 0.15487185 -0.12691242 -0.47896382 -0.43963334 -0.15916608 -0.19513556 -0.5084532 0.14868766 0.071237266 0.19184554 -0.4403474 0.30568105 -0.28523174 0.58863354 0.13868283 -0.22275113 0.07775489 -0.13020986 0.21754162 0.072808325 -0.02743365 0.11918552 -0.13642973 -0.30015635 -0.018539917 -0.25827453 -0.038097657 -0.41099748 0.4437753 -0.3892047 -0.012053851 0.43144464 0.063003734 -0.099406034 -0.66965806 -0.1473488 -0.22432943 0.1062635 0.16807315 0.1662038 -0.41255948 -0.20165241 0.26090235 -0.42253 -0.32206392 0.09093414 0.12174498 -0.22442654 -0.027063692 -0.36872864 -0.36634266 0.21344838 0.004217401 -0.6262717 -0.3252483 -0.29971474 -0.035665233 0.027566934 -0.3119621 -0.0025767416 0.039684057 -0.35837707 -0.5693201 0.23934543
》 0.34732056 -0.8065395 0.50630766 0.8675935 0.45055553 -0.5872675 0.6970069 -0.32041708 0.6696084 -0.2190124 0.55574274 -0.35698986 0.5496968 -1.112926 0.23163404 -0.3586141 0.6706601 -0.46374294 0.02550951 0.78383017 -0.5845618 -0.10562387 0.5638047 -0.58318824 0.12827325 0.6014834 0.42239758 -0.40500072 0.5453536 -0.086556576 -0.49413055 0.24509647 -0.1349136 -0.4425546 0.3326276 0.6648341 -0.3503885 -0.4900743 -0.27184492 0.07969966 -0.31536555 -0.5084013 0.37900922 0.36220965 0.09353203 0.6536857 -0.54928195 -0.7220288 -0.32282948 0.61181706 0.24254899 -0.19886479 -0.304444 -0.1033879 0.14741124 0.47186288 0.5080464 -0.7969945 -0.17178619 -0.3069816 0.46917564 -0.16029155 0.3434372 0.8882329 0.66723055 -0.48110524 0.28322196 -0.13016164 -0.20809989 -0.07240316 -0.60854006 -0.56679285 0.37820828 0.11681531 -0.72665966 -0.40859458 0.011192308 -0.109485336 0.21974611 0.39762902 0.42622915 -0.70175004 0.56686544 0.08571887 -0.15338448 0.5374636 -0.72515786 0.50723714 0.24711539 -0.08407704 -0.016175075 0.40580797 -0.30883035 0.16756336 0.03944464 -0.40538839 0.80892676 -0.41655117 -0.58602035 -0.14250246
由 0.10326246 -0.046963774 0.79855746 0.6012124 0.42991716 0.07331546 0.18594101 0.53234065 -0.412691 -0.79893446 0.24906038 -0.17163502 -0.29646817 -0.89393336 0.4544752 -0.49327675 0.6137014 -0.27432874 0.5144029 0.19689049 0.13329501 -0.041057885 -0.42536592 -0.2730874 0.69827557 -0.47773263 -0.5695839 -0.5705412 -0.3862579 0.14158529 -0.12989762 0.46550524 -0.8066708 -0.45283413 -0.14812489 0.16428593 0.6212193 -0.4933697 -0.36460653 0.4158781 0.67332256 0.1704113 0.21616097 0.38819066 0.011721559 0.41904134 -0.53925943 -0.14197241 0.47948495 -0.6280038 0.37080535 -0.5642854 -0.56101316 -0.61969286 -0.04510979 0.4575855 0.66862327 0.013542631 0.25516546 -0.5196006 -0.6803857 0.5209328 -0.49450472 0.2599959 -0.01848076 -0.046122614 -0.83506405 0.8912184 -0.55833036 0.2422514 -0.15700342 -0.6550064 -0.10602084 -0.9090026 0.15970872 -0.7760416 -0.6375269 -0.30357802 0.5996189 0.1251442 0.2074108 -0.34047505 0.08696297 0.1054047 -0.22551207 -0.03412867 0.6114944 0.5319923 -0.10385772 -0.40261576 0.13554773 0.06261776 -0.33636335 -0.38164604 0.50034624 -0.42174685 -0.21474423 0.23454887 0.0064583006 0.8288901
