1352 50
， -0.10330466 -0.7294202 -0.44525892 0.034057684 -1.6957663 -0.190249 -0.77555573 -0.6532821 0.14094077 -0.5051193 0.16973507 0.014143171 -1.6514506 0.011533989 0.4879266 -0.5762691 -0.21420713 0.5836398 0.5063123 -0.85594916 0.86988986 0.489989 0.07169105 0.76166135 1.6933483 -1.290441 -0.9978399 1.3152045 -1.2181315 -1.2124273 -0.450753 -0.10655596 -0.19259222 0.75003356 -0.47974056 -1.4477628 -0.07858613 0.3029892 0.045650773 0.3837621 -0.58097404 -0.18015562 0.9520265 0.07201925 0.26942787 1.5761231 -0.67378825 1.0732274 0.56741464 1.3057579
子 -1.1646233 0.99458975 0.15478404 1.5246087 -0.507025 1.3011273 0.9036229 -0.3180379 1.048795 -1.3579825 0.42259005 0.503026 1.0937387 0.47747907 -0.06884024 -0.66035116 0.61604196 1.1857522 1.5048772 0.21809578 0.96079177 -0.5229807 -1.283346 -0.15902847 -0.4560492 -0.14269607 -0.85729 2.127762 0.6605596 -1.0886588 0.11807111 -0.42286938 -0.3988499 0.76388955 1.3069798 0.29282558 -0.822309 -2.1538866 0.18429007 -0.26840717 0.9931594 0.3876591 1.7325742 0.25231305 -1.4637835 -0.28312647 0.27869543 0.34344977 1.0033487 0.12220445
。 0.23709814 -0.4485089 -0.47708225 -0.12470663 -1.0970304 -0.4370939 0.19473307 -0.011483423 0.78086424 -0.023488037 -0.16542852 0.50035423 -0.51488817 -0.50540376 -1.2380928 -0.31999278 0.111575134 0.2353174 1.7734574 -0.3401566 -0.70786345 1.4545271 1.209556 -0.14517246 0.33359718 -0.9705356 -1.1180967 0.78945595 -0.05707482 0.26236674 0.24155566 -0.08813901 -1.0922353 1.0159245 1.1681261 -0.28992411 0.26823676 -0.658268 0.18608297 -0.6819241 1.1200044 0.36781588 -0.42641744 1.0821679 0.6404506 0.748273 0.6316074 0.33791158 -0.82608074 1.2992946
： -1.4134558 -0.7956469 -0.6352604 1.1820261 -1.5996428 -0.09932899 1.0786122 1.536539 1.2771548 -0.3341871 -0.19292182 0.4492642 -0.11204374 0.5832299 0.32015604 -0.2298156 0.3920878 -0.12943098 0.6440474 -0.5838799 0.6560928 -0.04396824 1.4391544 0.2371115 0.12168489 -0.1801705 -0.40320683 0.12470172 -0.2031768 0.11831208 -0.6223751 0.48395392 0.16170509 0.8861791 0.32050946 -0.98720574 0.1820989 0.7830444 0.058210734 0.13369179 0.67672926 0.40383652 -2.059707 -0.5921027 -0.8066942 0.33157566 -0.88404816 0.6408222 -0.09579085 1.1761423
曰 -0.19308117 -0.6277514 -0.26334512 -0.89693004 0.08975937 -1.9394364 -1.554336 0.9858687 0.47809857 0.28735188 -0.22242434 -0.048503194 0.041297395 -0.4146444 0.2970994 0.23723681 0.51653445 0.07942097 -0.8202654 -0.2617753 0.08841594 1.0748773 0.43081707 -0.8509351 -0.011842098 0.9575134 -0.82223827 -0.5912032 1.036551 0.8000337 0.7625339 1.1768423 0.28842497 0.36549586 0.10053914 -0.5604932 0.99623865 0.3185862 0.8706939 0.22704972 0.39043167 -0.094625026 -0.0424371 0.22468615 1.865441 -0.25795564 -0.5901864 0.20477538 -0.24583878 1.0642672
之 -0.6177201 -0.24081577 -0.54131114 -1.0094767 0.10570525 0.61421794 0.80973333 2.077973 0.8546177 -0.7295544 0.3989273 0.5173863 1.0361162 0.32947236 -0.1352298 -2.3734624 1.7713869 0.51468235 0.6621771 0.019349182 1.4682621 -0.9537737 0.069019176 -0.17070888 0.4578887 -0.4671803 0.22734126 1.0180159 0.7395636 -0.9116253 1.7856787 0.19413422 -0.00238827 1.440248 -0.19888125 -0.32174546 -0.31853834 -0.43820363 0.14514418 0.6154978 2.1177127 0.22796176 0.15177122 1.1811324 -0.09622445 0.44568676 0.907601 -0.10948958 -0.5451527 -0.15808648
不 0.7828059 0.7723271 0.85750806 0.89501095 1.1797917 -1.0519735 -0.76062393 1.7955115 0.423364 -0.5087635 0.043004725 -0.081820495 0.7404484 0.4859428 0.876385 0.36662036 -0.418023 -0.50781727 0.5938943 0.1588008 0.05038993 -0.50719935 0.9553456 1.1876537 -0.710021 -0.07997599 -0.5380652 0.14826429 0.33640704 -0.36757803 -1.1401851 -0.5602933 0.6798526 0.24436226 0.47633427 -0.104246944 -0.46942118 -0.6046686 0.9378139 0.17924759 1.7339274 -0.58829594 -1.16843 0.058152664 0.5621764 -0.7091733 0.030857263 0.1412195 -0.7855931 0.32687473
也 -1.6725217 -0.37799042 0.6829854 -0.7149186 -0.3606277 -1.2541394 0.73244447 0.21450043 -0.32195485 -1.0139112 0.23006603 1.0226047 0.2201758 0.05418807 0.35956088 0.6586962 1.3802328 0.12628467 -0.43114138 0.52820265 -0.6973347 -0.49025 -0.13979442 -0.89108473 -0.33988777 -0.16763495 -0.5283643 -1.2082258 1.5568888 0.45336694 -0.2473121 -0.13719524 0.59677094 0.93754864 -0.079978526 -0.7366169 -0.12101973 -0.2672142 -0.30549556 -0.086982876 -0.10823099 -0.32826996 -0.269251 -0.17478073 0.24810362 0.5620026 0.5293383 1.2370466 -0.132671 -0.5191694
而 0.015066594 -0.5293714 1.0212494 -1.2289199 -0.1735516 -1.5878764 -0.50711644 0.36098367 0.85938597 0.14914444 0.4862026 1.1164821 -0.27295223 -0.7600656 1.0532184 0.577419 -0.5972566 0.110045314 -0.18145896 0.93040895 0.65739495 0.6501595 1.7207208 -0.27049303 -1.2008636 -1.1159854 -0.6800347 -0.14485593 -1.1519786 0.3080982 2.2380614 -0.73166937 0.84152764 0.6128968 -0.57024026 -0.8274416 -1.2101665 1.2475421 -1.0280046 -0.15329394 0.0070930542 -0.17549889 -0.32984298 -0.3557495 0.6452067 0.22395174 -0.4474048 0.8067564 -0.24473852 0.42356533
？ -0.13514613 -1.1228114 0.9496485 -0.46193793 0.14914 -0.16792515 -0.12632093 1.3232585 0.10524305 0.060704038 0.8026234 0.010302916 0.13527316 -0.53726935 -0.37505683 -0.12168669 0.9174533 0.41235563 -0.33101058 -0.29709408 0.8211058 -0.2889865 0.45624748 -1.2390164 0.24264453 1.3741693 0.4657777 -0.26031163 -0.3237587 0.68857145 0.7086885 0.83914125 0.26324564 0.61665916 -0.43496504 -0.09360237 0.5517197 0.09973946 -0.108804755 0.24549489 -0.31950378 -0.10548188 0.26431397 0.1343122 0.7182795 -0.21814872 -0.4204554 0.49979362 0.3872697 0.028589804
其 -0.6796049 0.6089883 1.8819261 -1.3018728 -0.24987781 -0.4941171 0.10188553 1.1855613 0.43337137 1.0997247 0.16598313 -0.13093905 0.36363336 0.692421 -0.1405995 0.23060319 0.72991824 -0.21955885 -1.1526159 -0.0049461043 -1.3605249 0.11627737 1.5612417 -1.2357762 0.037120953 -0.8032575 0.6433377 -0.7345071 0.15249304 -0.2990067 0.3846425 0.18051292 0.3198555 -0.75468296 -0.6043429 0.57762516 -0.36639515 0.57220185 -1.2940029 0.15682237 0.0027889994 -1.7416713 -0.78832203 -1.2928004 -0.90179706 -0.9030541 1.211387 0.7024547 -0.57203454 -2.1270878
人 0.027923465 0.65100497 1.7401122 0.11361164 0.9229755 0.5645508 -1.3296003 0.9287446 -1.6696576 0.18175788 -0.6740916 -0.30556053 -0.5175186 -0.6654377 0.4232931 -0.3883934 -0.2365753 -0.09907108 -1.6458169 -0.93152416 0.058940098 -1.2849082 -0.30449575 -0.26356956 -0.009023089 0.7170672 1.941104 -0.7399226 0.28267753 -0.36642814 -0.078843646 1.125505 -0.86691207 1.5139008 -1.8892764 1.2134601 0.7246076 0.07322103 -0.6541313 -0.42078218 0.15245013 -2.1525831 0.47114724 0.12022488 -1.6078631 -0.7810594 -0.71176416 0.24123298 -0.43921193 -1.14181
者 0.84474134 1.4303643 0.65554965 -0.122086525 1.5068243 1.3309754 0.6327729 -0.23396635 0.104049094 -0.09196664 1.3141459 -0.99805623 0.13519397 -0.91665405 0.4776515 -1.0356288 -1.3205562 -0.9729347 1.2545614 0.9637867 0.7270941 -1.4025391 -0.26977888 0.04260498 0.5896841 0.24530752 1.3476584 0.72796685 -0.45338094 -1.8074217 0.8159926 -0.0018500194 -0.5372836 0.7244391 -0.87411463 0.20049584 -0.17018627 1.1188201 0.75291425 -0.23154905 -0.49662176 -0.77583736 -0.009824302 -0.63144153 0.71166307 -1.4093999 -0.8177525 1.0479035 0.482806 -0.43960887
以 0.51056784 -0.38672075 -0.46441093 0.61294323 0.29497933 -0.5265338 0.60984373 -1.4898765 0.9944916 0.7598058 -0.19562031 -1.2014852 -0.8028264 0.11197033 -1.1755534 1.1044003 -0.430297 -0.5519667 -0.13925809 1.0277328 -1.93437 -0.6613167 -0.7729817 1.2467122 0.81543773 -0.8898308 1.1710576 1.0482286 0.8708799 -1.0011951 1.0960004 0.5047299 -1.1359615 1.2513623 1.2404249 -0.49893558 0.6406205 -1.0273954 -0.221321 -1.6517662 0.3630301 0.7487878 0.3891575 0.8774461 -1.0397632 -1.1497159 -0.6179991 1.2528656 -0.04999412 -0.539607
有 -0.47493246 -0.15605085 -1.187982 -1.5939274 0.5228888 -0.10441244 1.1981177 -1.0143675 -0.6781735 -0.6659923 0.5187945 -0.8527778 -1.2502153 0.30690444 1.0851771 0.032018572 0.6858278 1.4204221 0.4079991 -0.46896285 -1.9168172 -0.3420551 -0.8372128 0.08746095 0.9115366 0.08007261 0.966017 0.32520622 -0.14786676 -0.84514874 -1.3714032 -0.54729795 -2.0603683 -0.28123957 -0.65371376 0.22524844 0.25548592 0.7571201 -0.45466968 -0.45741305 -1.2860987 0.44080126 -0.7083713 -0.35338172 -0.6372755 -0.79733044 1.6000366 1.6334332 -0.030106483 0.30975512
于 0.16651417 -0.5358818 1.651902 0.21457621 -0.2214686 -0.46392727 0.67832106 -0.2113356 -0.33361244 -0.039271265 0.4730056 -0.5767465 0.97750473 0.6979286 0.048377637 -0.013783405 -0.61594564 0.3640419 -0.4462958 0.60610485 -1.9949301 -0.33994085 -1.1542534 -0.62932885 0.97265744 -0.5127778 1.4594291 -0.78625774 0.7080945 -1.5088127 -0.40714693 -0.08235467 -0.38189447 0.62921554 -1.2188654 1.8543767 0.29654002 0.28791377 -0.5986671 -0.843531 -0.3366142 -0.06303497 -0.2310272 0.857653 -0.7162565 -1.5805961 0.17300856 1.9153392 0.26097885 -0.18019821
矣 0.6738774 0.92850983 0.26093712 -0.06406432 0.5071777 -0.16601758 0.39750424 1.1781697 0.93936163 0.23640072 0.28713372 -0.1570298 -0.076618485 -0.0436755 0.13937418 -0.55510044 -0.15268397 1.4889575 0.17875004 0.44185612 -0.2938665 0.36201316 -0.7384801 -0.046222102 0.25571555 0.2665762 0.21036832 -0.354997 0.937513 -0.22053811 0.81527257 -0.70213985 -0.68889546 0.78864974 -0.35202402 0.52780807 -0.02609164 0.6960369 -0.6874121 0.093244925 -0.31202063 -0.89817625 0.6168845 -0.080919325 0.008674626 -0.86357754 0.12563139 0.273322 -0.52741987 -0.32844156
为 -0.8848232 -0.16624312 2.220838 -0.05526672 0.5774707 0.05367692 -0.12647805 0.10871238 -0.25915816 -0.26380426 0.3733464 -0.78076553 0.53023005 0.6702834 0.38016856 0.95538574 -0.015388885 1.1586435 -1.0182875 -1.1295934 -0.10238526 -1.748861 -0.50090295 0.03386006 -1.0570276 -0.8359843 0.14555885 -0.6511635 0.31163287 -1.4864912 -1.0728227 -0.9403584 -0.91345406 0.87189233 -1.2158799 1.5788627 -0.18605974 -0.36926174 -0.79916596 -1.1006658 -0.7730285 -0.89889276 0.8253438 0.20203006 0.2491415 -0.6020399 0.26836258 0.8660704 0.44598016 -0.6161845
君 0.6679533 -0.16775684 1.0187134 -3.499492 0.14524129 0.6626005 -0.7629894 1.2022514 0.42456254 -0.46944836 -0.41234034 -0.1638033 -0.5659582 1.4973158 0.6366199 1.209247 1.7808503 0.4393883 0.74930745 -0.4072517 0.4392751 0.32586944 -0.13108994 -1.3661 -0.5503978 -0.39394385 -1.3935181 -1.5951984 -0.0069395527 -1.1168516 -0.5958479 -1.4366803 0.58830833 0.30203477 -0.9826326 1.1195871 -0.7893213 0.109005734 -0.86018956 0.37199947 -0.067564994 -1.0759826 -0.9807861 0.010128341 -0.086401865 -0.9603666 -0.3779562 1.4164473 0.04646783 -0.2521058
乎 0.045177914 -0.9870549 1.6969204 0.20468846 0.12605771 -0.0004231045 0.277312 0.58461386 0.0058358675 0.2861345 -0.15556829 -0.2448496 -0.8282248 0.58083844 0.20501587 0.1745363 1.1246653 1.336159 0.24128191 0.47304943 0.47193846 -0.49954456 -0.45634258 -0.31365332 0.07993303 -0.05137949 1.2424681 -1.1621093 0.25357428 -0.8733092 0.77514845 0.0163439 0.19312988 0.80989414 -0.7437511 0.60939574 -0.70988876 -0.14599817 -1.5598315 0.40817362 -0.8678455 -0.9512262 0.56231314 -0.4801316 -0.77134424 0.403484 0.36225182 0.9319153 -1.317694 0.027256712
可 2.322733 1.2169399 0.38513908 -0.9678294 0.8909017 1.0746655 -0.075773485 -0.10616202 -0.5638889 0.92081714 2.0598848 -0.614367 0.05018153 0.14853485 -0.5262163 0.5728309 -0.037106987 -0.29195574 0.65121037 0.8126044 -0.3418465 -0.49738368 -1.2472502 -0.51665604 -0.7147011 0.8406575 0.8651601 -0.8045529 -0.32457602 -2.0684552 1.6006951 0.9895568 -0.77363294 0.08214597 -1.7554984 1.8922967 0.040895764 0.5197504 0.61688036 -0.9544689 0.3323336 -0.5530233 -0.98183095 0.38347146 1.2758547 -0.6956249 -0.16778599 0.28012696 0.78423816 0.16266343
如 -1.6741717 1.3582128 1.541114 -1.0613931 0.16316469 0.4011099 -0.4518772 0.574553 1.2118949 -0.20049195 -1.0738518 -0.21880627 -0.93698055 0.007090341 -0.42597437 -0.36913165 1.1091673 -0.46375662 -0.054732654 0.88283217 0.39464077 0.75321686 -0.9060589 -0.7100117 -0.1286822 -0.7674897 0.24792317 -0.34800002 -0.059385914 -1.0197759 -0.7066041 1.5099033 -1.148932 1.1013979 -0.61198324 -0.6835652 0.44034213 0.17525968 0.34026435 0.11679063 -0.03690797 -1.1410942 1.0868745 -0.8431924 -0.18481418 1.2788236 -0.5770532 0.25088918 0.3426136 0.0050447932
与 -0.13356274 -0.0732463 1.496573 -1.9895303 -0.9669388 0.23282978 -0.2999772 1.6544383 0.88290054 0.55520666 -0.108343564 0.44978887 -0.46918076 1.4062026 -0.087883525 0.17719905 0.6388744 -0.63733536 -1.4870842 -0.02083017 -0.49196535 0.23099674 0.709582 -0.3736021 -0.9840889 0.43616927 -0.3156766 -1.8370001 0.047152486 -1.012151 -0.23260796 -0.72038573 -0.24487923 -0.14628601 -1.3674772 1.6479899 0.62966186 1.4675492 -0.68958205 0.17366102 0.58910924 -1.8183756 -0.26032874 -0.07547857 -0.41022468 -0.5333743 1.2742358 0.4125003 0.32916906 -0.92828405
； -0.72013456 -0.039776836 0.559975 -1.1605924 0.007841295 -0.86805236 1.2912318 1.8950555 -0.59989995 0.9228051 -0.15502061 0.2492394 0.24102195 1.1803242 0.62595546 0.28819045 0.008674272 0.13356875 -0.9077714 0.2182387 -1.1038353 0.0030823452 1.1017395 -1.1202127 -0.6008669 -0.013663337 0.7365208 -2.4956489 0.3253802 -0.9412316 -0.18180358 -0.10353143 0.91114175 0.30133924 -1.766363 0.7793357 0.09071676 0.5900996 -1.8255297 -0.38756418 -0.44992623 -0.21155941 0.35266367 -0.29254866 -1.2008061 -0.6036153 0.18197636 -0.6152497 -0.93062747 -1.3326889
言 -0.52870023 -0.8581564 0.32566983 -1.1879587 -0.52330106 0.56101984 0.6778547 -0.6572168 -0.043273006 -0.7715852 1.0400808 -0.17612268 -0.04994372 0.49806854 0.2625997 -0.3498562 0.6740551 0.08746309 -0.36540723 0.260178 -1.6981233 0.38215014 0.6171013 -0.92747724 -0.1153021 0.018964214 0.32065186 -1.657341 1.3359607 0.031826686 1.0778029 -0.29020193 0.102354355 -0.2591083 -0.85731846 0.9931085 -1.3800251 -0.043046013 -0.613451 -0.42141256 -0.21148475 -0.7564526 -0.07852656 0.844222 0.79402596 -0.51421267 0.21849918 0.1722858 -0.63354653 -0.43842724
无 -0.0931882 -0.22165221 -0.07267053 -0.20045696 0.21807593 0.3715026 0.5864862 -0.09959281 -0.28340483 0.15528102 0.28717023 -0.1250831 -0.30014625 0.6272773 -0.5756071 -0.28438702 1.8027822 -1.1328764 -0.30768108 1.0186486 -1.2616444 -0.09901816 0.3298776 -1.4429651 -1.658432 -0.10462115 -0.32266417 -0.15599571 0.43300372 -0.6918287 0.6240461 0.3040879 -1.1742951 -0.41358882 -1.1649768 1.1153882 0.5418812 -1.8510337 0.21748982 -0.35340866 0.07474384 1.4467736 -0.6137549 -0.44593996 -0.7787498 -0.5798427 -1.5259796 -1.3785211 -1.6465517 -1.6494812
则 1.2192115 1.0748752 0.40964013 -0.7354937 0.10478843 -0.12447065 0.5026769 0.56198996 0.19071831 1.5015211 0.57134974 0.15288891 1.0633707 1.291031 -0.75488377 -0.29694787 -1.5343537 -1.264372 1.1487353 1.2171736 -1.1594646 -0.8933378 0.8586592 -0.29004735 -0.79693985 -0.09718263 1.3592511 0.11766247 1.8018805 -0.9528963 0.27534685 0.31589264 -1.0688134 1.686795 -0.8565805 0.72194684 -0.19974607 0.020524463 0.65374273 -0.15922976 0.284069 0.22351882 0.062445525 0.7808109 0.5002809 -1.0481446 -1.1117809 0.24546906 0.65877825 -0.5626447
！ -0.8340754 0.379523 0.49519986 -1.4073582 0.596922 1.8779036 1.2202369 0.6980292 1.071696 0.9365598 -0.06787271 -0.22629236 0.1985783 -0.2663033 -1.2960106 0.12232007 0.2097142 0.8056245 -0.18865791 -0.015499958 -1.1431825 -1.2391213 1.2797729 -0.35191244 -0.7152263 -0.9032197 0.63245726 -1.296522 0.9566391 -1.1851064 -0.18900217 -0.5227196 0.10269368 -0.15383911 -0.95511603 1.102295 -0.74716365 0.15949789 -0.5492668 0.76010454 -0.58679193 -0.5335307 -0.111909986 1.140399 -0.48938808 0.39645314 0.35851812 -0.27516523 -0.56323165 -3.462086
问 -0.15917698 0.3297057 -0.034520693 -0.59288293 0.37021065 0.7409191 0.7845651 0.027221894 -0.011160626 -0.7880609 0.035823897 0.8940712 0.2601066 0.14888589 0.1241099 -0.03263223 0.75188637 -0.0649458 0.28262785 0.14384979 0.29761147 -1.1719079 -0.37324563 -0.1742936 -0.23007533 -0.47050098 0.1060632 0.06972913 0.09111106 -1.1576883 0.75625384 -0.35448682 -0.31306767 0.8511262 -0.24248207 0.046064112 -1.0468023 -0.27399 -0.2897388 -0.42682165 -0.09931631 -0.4765358 0.7899407 0.21750997 -0.23504345 -0.85189044 -0.16862114 -0.19559819 -0.20110087 -1.0350233
知 -0.4223262 -0.41343364 0.71449655 -0.7050558 0.65342695 -0.8625986 0.04857225 1.0734875 -0.7172204 0.658463 -0.257839 -0.36272255 -0.55919206 0.51736283 0.10898004 0.24185672 0.646455 0.28200814 -1.3155048 -0.4311664 0.24241592 -0.82973826 0.3385823 -1.6142709 -1.4614468 -1.2344625 -0.048564166 -1.5894123 0.38439807 0.8334324 0.45512676 -0.25374937 1.5823355 -1.2704669 -0.3817769 0.43564305 -0.5933309 -0.54283476 -0.64001864 0.4255392 0.33973083 -1.6147715 -0.22288866 -0.5055664 0.4398704 -1.2345896 1.141957 0.17073368 -1.592741 -0.4624899
何 -1.6142977 -0.66528815 0.19718963 -2.047022 -0.25786197 -0.09119531 -0.90150446 1.5226305 1.5348101 0.12961839 0.041330136 1.6222632 -0.24733694 0.112102345 0.14430848 -0.6384993 2.9701715 -1.0505186 -0.5699341 0.83634603 -0.1412453 0.08845006 0.27193168 -1.8394486 -0.88485104 -1.2261828 -0.09241782 -0.5670351 0.69189185 0.1962253 -0.005477817 0.56206006 0.58034176 0.5612386 -0.8107905 0.49569577 -1.5628543 0.02360109 -0.14486052 -0.539766 1.590152 -0.72340804 -0.8670759 -0.5024059 -0.48570082 -1.4503367 0.2927891 0.55641985 -1.2667675 0.10636449
吾 -0.9073084 0.7532127 1.0214658 -0.34563377 0.9184663 -0.6204095 0.80136645 1.7372452 -1.1506048 -1.4900993 0.8618137 0.18463828 -0.37956685 1.6015598 0.2697127 -1.9091492 2.2847826 -0.26053715 -0.7828281 0.5166126 -0.43920425 -1.3950667 1.3581442 0.22169626 -0.3998962 -0.5827182 -0.04723047 -1.3152694 0.40134597 -1.3762242 -0.47437385 -1.2292043 -0.015755942 -1.1634326 -0.80645907 1.0611506 -1.0604273 1.1309205 -0.15641527 0.5627081 -1.0951005 -0.018103816 -0.018531198 0.2266666 -0.37322846 -0.37289482 -0.40709358 -0.8526743 -0.7192517 -0.40931877
仁 0.11310429 0.26493144 2.0697002 0.43095285 1.3594468 -0.8549234 1.4194984 1.2011942 0.309896 -0.82035834 -0.98883694 0.99743164 -0.127221 -0.47077572 -0.8442951 1.0565385 0.564134 -1.4204013 -1.7458878 1.1777278 -0.897528 0.22552715 0.006149181 -0.18175763 -0.2082717 -0.7622517 1.1303967 -0.45595634 0.68767035 -0.5044925 -0.98366714 -0.3075288 -0.17600968 1.4259838 -0.5820286 -0.17222425 -0.5045998 0.39475882 0.834956 0.7828063 0.72860885 1.1670692 0.7953106 0.9939404 -0.677493 -0.93671614 -0.15611531 -0.070516236 0.29965922 -0.40759987
夫 -0.61746943 1.7171952 -0.09506078 0.097339205 1.3470585 0.6414733 0.54003334 0.027053008 -1.0279762 0.16381395 -0.42619234 -1.2069262 -1.8059379 -1.0983094 1.2261897 1.8378352 1.6327443 0.2490209 -0.47606173 0.8790956 1.3636515 0.056074105 0.31339332 0.21420412 -0.47885853 0.21461375 0.19031125 -0.9773775 0.11390416 -1.1157664 -1.3437818 0.6663169 0.6816698 0.43019152 -0.5356796 0.08630021 0.8305747 0.23302908 0.0979431 0.36769468 0.11345091 -0.16619883 -0.43069935 -1.4447988 -0.33295256 -0.08749574 -0.69673693 -1.7622415 -1.4068016 -1.6503402
、 -0.43413886 -0.2568638 0.6473638 0.88504374 -1.1269583 0.773551 -0.7363545 0.7098749 -1.1431468 0.38521022 1.1060035 -0.11789119 -1.8242455 0.4685411 0.6045799 0.58799744 1.4067336 0.034120392 -1.1031182 -0.2860494 -0.55603045 0.19862847 -0.57299674 -0.28741854 -0.089327596 0.6264865 0.6170268 -0.61320066 -0.31310618 -1.423376 -0.0030362436 0.09959493 0.6276669 0.09001986 -0.55862004 -0.27520823 -0.24963789 -0.5051545 0.69684136 -0.5111456 0.075466685 0.8391024 0.96909654 0.34266004 -0.37240514 -0.9981396 0.73566127 -0.21039927 -0.27645832 -0.80043215
道 0.05634574 1.9865775 0.33258322 -0.15091212 -0.46127138 1.4797186 0.8946058 -0.717765 -1.0436567 0.3049006 0.015468411 -0.6302072 -1.1475408 0.46553126 0.29563367 -0.4806966 -0.38126633 -0.1500422 0.5758287 1.3631283 -1.0176848 -0.2599117 -0.8701272 -0.70597166 -0.7233375 -0.36647332 -0.30070648 -0.91027474 -0.40761083 -0.29483786 0.08989616 -1.012693 -0.63655967 0.10005985 -1.7326933 0.32975793 0.114310764 0.94182074 0.009100892 -0.67046034 0.34007615 -0.4620309 0.4578497 -0.53970283 -0.48511195 -0.67514247 -0.59106153 -0.51341116 -0.24643861 -0.8429219
焉 1.6893601 1.0785432 0.2534615 0.072471924 0.77680135 -0.64577883 0.22146057 0.29649928 -1.3588688 -0.7695575 1.0643998 -0.58411294 -0.53356236 0.6507522 -0.35595274 0.07155386 -1.7696196 -1.9132789 -0.5020863 0.5196005 -0.6031264 2.0045502 -0.06906736 -0.31730372 0.4662145 0.54574853 1.7171148 -1.5948603 -0.54025257 -2.2743962 0.014554361 0.8132566 0.19391282 0.31673372 -1.3984944 1.0353876 0.88878626 1.6388466 -0.3708892 0.057437643 -0.22253388 -0.98192424 -0.11907638 0.63881874 -0.60538185 -0.8161546 -0.49793756 0.6677222 0.04714228 0.3838432
行 -0.2120048 1.492654 -0.3236649 0.24915451 -0.28248394 0.2531411 1.0806971 -1.1154212 0.924176 0.8881297 -0.69721025 -1.0088927 0.2152927 -0.31281847 -0.98633236 -0.39137954 -1.1987821 0.9025761 0.9044816 0.6225472 -0.25266916 0.45332804 -1.1743852 0.6304615 0.38637125 0.8452804 0.01271192 2.0523393 -0.37817064 -2.7879593 0.13295743 0.7021583 -0.3758136 1.2212481 0.1588378 0.6533902 1.5695713 0.8604832 -0.7072352 -0.42509288 0.57797766 -0.53177404 0.27301395 -0.6614469 -0.74909335 0.23592572 -0.7817645 -0.7180606 0.13671945 0.09855961
谓 1.2891318 0.23301615 -1.4381839 0.09021892 -0.6363436 0.42539135 -0.37128076 -0.5225758 0.5168993 1.1312617 -0.7307284 -0.36815473 -0.4719218 -0.3066095 0.26459783 0.57205606 -0.2861045 -0.5288574 1.0474948 -0.8845304 0.4543125 0.2777028 -0.67169774 1.4274353 0.629438 1.783945 0.6822714 -1.3426846 -0.10284177 -1.282179 -0.9445533 0.26509386 -1.5042858 1.1287135 -1.0316457 -0.7951203 1.6940522 -0.5725289 -0.62904537 -1.3380038 -0.38295716 0.18843564 1.7134914 -0.98987395 -0.1913781 1.3569036 0.3944196 -0.33122522 -1.0429908 -0.043003973
必 -1.0084926 0.019946951 0.6283594 -0.10643365 -0.87591475 -0.13502996 1.2840594 -0.124007285 1.0102203 -0.016611155 -0.2211176 0.7989154 -0.951811 -0.14969617 -0.47922313 -0.30274346 0.1162063 -0.07533558 0.92019695 0.04107528 -1.2211748 0.23513353 -1.2026579 1.161216 -0.52883863 -0.39737856 1.0628924 -1.081685 0.11559473 -0.0028125783 0.7237013 0.26584774 -1.0384234 1.5050634 -0.38428915 0.9672733 0.19503383 0.43289012 -1.2259033 0.903344 0.4238414 -0.64894336 0.4882344 -0.02980109 -0.90067923 0.025425375 0.511778 0.0501911 -0.35933667 0.047216628
礼 0.002920035 0.49257508 -1.0848397 1.1955305 -1.3283515 0.11367303 0.24313828 -0.6745198 1.1941415 1.2261635 -0.20961125 -0.49203208 -0.65467465 -1.2872455 0.6814698 -0.37894884 -0.8005062 0.43021357 1.2451475 -0.6085262 -1.0294319 0.72665113 -1.4796866 0.3193932 1.0172448 -0.27402815 1.0629252 -0.7969691 0.084391706 -1.8113538 -1.7432505 -0.4725393 -1.5148383 0.56032 -1.7639836 -0.018843615 0.049409006 0.13359307 0.101897515 -0.5664849 -0.6742036 0.59246254 0.6495401 -0.41200563 -0.4835135 0.3804742 -0.47072756 0.64060426 -2.2469387 0.04736265
孔 -0.73912036 -0.23974726 -0.8634616 -0.03573742 -1.3748093 0.13231803 -0.3563334 -2.8608673 0.98031425 2.366376 0.1978946 0.19828756 -0.2156974 -1.4842348 -0.36419842 -0.16849504 0.36301067 1.2558355 0.40469941 -0.7089463 0.41834036 0.073851235 -0.17550734 -0.04573614 2.0619488 0.83637017 0.7598497 0.50137275 0.0037780416 -1.4622754 0.3344859 -0.88089246 0.02125742 -0.3207759 -0.70384663 -0.2801492 0.89134437 0.95128226 0.65705454 0.03185284 0.7628379 0.0956349 -0.16624129 0.23210216 -0.8080263 -0.26164064 0.21800926 0.3014024 -0.6316415 -0.80484915
斯 -0.033462748 -0.17556557 -0.18034483 0.449789 0.36323932 -0.103934534 -0.22867998 -0.9569657 -1.6110333 0.3849992 0.441331 -1.2060134 -1.450784 -0.7085471 -1.3000934 0.6566631 0.4522171 0.42713282 -0.28576842 0.5702454 -0.12452897 -0.540235 0.75796384 -0.40001562 -0.06894504 1.3359622 -0.005233971 -0.03182951 -1.1267204 -0.30521458 -1.1488351 -0.27048686 0.75252223 -0.49171993 -1.4791533 -0.64762884 1.210694 -0.394631 0.10279294 0.042580448 -0.8171123 1.0036005 -0.32566497 0.56919855 -0.22931863 -1.421886 -0.7406166 0.2757796 -1.1366662 0.61984587
三 -0.0044726273 -0.21555638 0.68131745 0.38050595 -0.10262242 -1.0336947 0.0098986635 -0.8399927 0.68024606 0.18131831 0.21869828 1.1158888 -0.09548552 -0.28206766 0.5860746 0.15979831 -0.07972943 0.48167726 -0.15771918 -0.9476686 -0.074790895 0.7908449 0.062380433 0.5785594 0.38676915 0.22106837 -0.060797364 0.18352528 0.480472 -0.43073642 0.8147143 0.6169243 0.2612979 1.0962679 0.034250773 0.17278494 1.2433757 0.27024806 0.1396097 -0.42036983 -1.0564644 -0.3918422 -0.10106161 -0.13981695 0.31010792 -0.14305507 -0.22672844 0.16884239 -1.2083377 0.35310736
能 1.8604281 -1.6850195 -1.6866232 0.027932387 -1.1447874 -2.0272477 1.1690562 -0.49101382 -0.17509533 -1.4415529 0.63917047 1.4019214 -0.69782466 0.40665132 -1.1409343 0.18744881 -0.73283577 -0.2572479 0.22291692 -0.49343288 -1.3182335 1.3719682 0.8228007 0.16607659 1.2766827 0.025403986 1.5518149 -0.07339 -0.2144433 -0.36351192 0.07963986 0.062301684 -0.31052026 0.80201805 1.2073826 -0.16467181 1.3515141 -1.2129668 -0.5857405 0.71684706 -0.76453394 0.4071209 -1.4595923 -0.21229579 -0.99046165 0.8560456 -0.77814686 0.4515688 -0.57746875 1.84035
见 -0.57660973 -0.18054852 -1.2001351 1.8635294 0.5832108 -0.1307302 0.5631024 -1.2010958 1.4608649 0.08616952 1.0594343 0.08804466 0.65251845 0.14632668 -0.9542874 -0.6202418 1.1072102 0.9559267 -0.8293115 0.86530626 -1.0450884 0.11553082 0.5483615 -0.45548528 1.010606 0.42737964 1.2777313 -0.045853477 -0.1736822 -1.5019575 0.8631534 0.10560203 -0.538981 0.20852032 0.5736956 0.012541678 1.7829841 0.07781825 -0.5397785 0.8188562 -1.4882077 0.012543056 0.1521611 -0.44721526 -0.018795375 1.1503513 -0.9872851 0.9808776 -1.2474697 0.08108093
学 -0.1399434 -1.2108058 -1.202679 -0.13507667 -0.2726966 -1.2297674 -1.0053284 -0.044724166 0.003848581 0.35307464 0.7296977 0.94689995 -0.44014043 0.280152 -0.45416436 0.15443352 1.1143486 1.7175883 -1.9109966 -1.1297481 0.41369838 0.2842343 0.49572927 -0.9286003 -0.77172977 1.2277168 -1.0775821 -1.1217486 -1.2844422 0.7446539 -0.33202976 -0.20194846 0.51083237 0.2019387 0.09707118 -0.14037035 0.8122684 -0.39456064 -0.818898 0.19854742 -0.47709855 0.7999759 -0.8839515 -0.32011563 -1.2718011 -1.2821729 -0.36885476 0.9525147 -0.6652698 0.069781244
事 0.24471575 -1.0379497 -0.6838353 -1.1600852 0.09004928 0.43855593 1.5582635 -0.7854957 -1.3282247 -1.4219853 0.2964504 -0.7468445 -0.6636442 -0.23452619 -0.9074734 0.9158086 0.97968554 0.9892114 0.011739985 0.4977572 -2.1115506 -0.0681403 0.979595 0.30967146 -0.07506667 0.31825748 0.17559938 0.68398976 0.68803877 -0.9154095 -0.3043909 -0.1531497 -0.7418201 -0.3369332 0.71395016 0.7156133 0.68551016 -0.93494403 -0.54856384 -0.17641781 -1.8401214 0.8721568 -0.87548023 -0.17200579 -0.27860472 -0.063647 -0.7430425 0.050258633 -0.29909265 -0.80939984
是 -1.2973728 -1.2494707 -0.50395894 -0.61189204 1.1835798 -0.21315779 0.22884871 0.9242197 -1.3359455 -0.7714828 -0.21128203 0.31699103 -0.25006095 -0.0017222295 -1.0697192 0.5955721 0.8611176 0.9110175 -0.3523961 1.0250099 -0.18811391 -1.6978111 0.1768327 -1.1987228 0.028962178 -0.34026757 0.55004084 -1.1035525 0.8477373 -0.77024305 -1.2955786 -0.21129325 -0.6766296 -0.48152676 0.048995595 0.2953254 0.48828638 -1.4243001 -0.28550994 -0.52575195 0.06474476 -0.20937875 0.45418936 -0.28858566 -1.5040032 1.0010953 -1.9736624 -0.030506868 -1.5664557 0.77153665
哉 2.2264042 -0.0845939 -0.11698385 0.11018407 0.9881899 -0.7508192 0.65235686 -0.3016231 0.8586307 -0.33860698 0.17793709 1.8721616 -0.38669613 -0.5672325 -0.9621836 0.4043877 0.96760565 0.088012785 1.0990573 -0.92969036 -2.3367271 -0.35579184 0.2702478 0.94540554 -0.5308224 -0.46471557 -1.1151239 0.47549763 1.7287326 -0.21745507 0.44638914 -0.106909886 -1.5358276 0.0994781 1.759236 1.407322 0.7327712 -2.2551136 0.25731924 1.2446697 -0.2159605 -0.14033844 -0.17571813 0.5168543 -0.17663126 -0.4235601 -0.7528451 -0.99004346 -0.8516294 0.5876602
闻 1.2521366 -0.8000268 0.2214917 -0.3103334 1.2825176 -0.25056717 -0.90560263 1.2919508 1.1670816 -1.6546106 0.015311907 0.50842273 0.13769414 -0.37070498 -1.334175 -0.66439277 0.87570626 -0.046257805 0.11710062 1.1671788 -1.2554631 0.15675774 -1.1920304 1.0274363 -0.31548682 0.8929534 -0.041474424 -0.26135296 0.27639994 0.3519834 -0.6238436 0.7187464 -1.2151009 0.621231 -0.0051373434 0.7091978 0.18787004 -0.8954846 -1.5277413 0.6570617 0.20940468 0.54189515 0.42967528 1.7118756 0.3924533 -1.5074564 -0.15492433 -0.66713595 -0.0773911 1.5677985
未 0.92518187 -1.836819 0.9480391 -1.4978974 1.6582698 0.4678913 -1.3222344 0.5828926 -0.15542872 -0.06715365 -0.3367414 -0.16595277 0.5240063 0.061859637 -0.3130311 -0.30757514 0.80370206 0.53151995 0.1686349 -0.42052266 -0.9001139 1.0729566 -1.4195487 -0.9787281 0.29991928 0.53092563 -0.28378177 -0.59275544 -0.5477748 -0.4880558 -1.2760785 -0.5946174 1.4079443 0.32668045 0.97433424 1.1475434 0.40141067 -0.5306314 -1.6480823 0.09881124 -0.5491496 0.55571306 0.21315394 -0.96880937 -0.27445608 -0.68173945 -0.19845363 0.547454 -0.7856243 0.64794487
公 0.20881319 -0.9531816 -0.09948884 -1.689628 1.0667366 -0.6111926 0.42894435 0.35828254 -0.33601612 0.633155 -1.1382554 0.40704206 -0.73140454 0.047405325 0.7888442 -0.17967653 1.5319068 0.83684677 0.088591866 0.6422936 -0.06730058 0.9788943 0.21949907 -0.3197606 -0.601598 0.098808706 -1.8532207 0.08999582 0.0876644 0.47124845 -2.380496 -1.15765 0.85500515 0.75718784 0.6026463 -0.18172817 -0.06590391 -0.5496456 -1.4944855 -1.014525 -0.55982804 0.4617254 -0.19919579 -1.460235 -0.6070673 -1.5369089 -1.2652655 0.48233858 -0.9743457 -0.61680174
好 0.16711132 -0.2984352 -0.40339112 -0.9925253 0.8075192 0.26571825 -0.13238426 0.7941672 -0.297344 -0.03393281 -0.26800892 1.1102644 -1.1945969 1.3084052 -0.07106158 -0.7019849 0.19977397 -1.1554824 -0.24889089 0.63054705 -0.42772883 -0.5008756 -0.45462903 -0.72203887 -1.0266893 0.0553756 -0.30524233 0.16336182 1.3392469 1.1500803 -0.62976617 -1.5631094 0.66004837 -0.1290531 -0.3933872 1.1665883 -1.450131 -0.7356821 -1.7242573 0.22421516 1.3683766 0.18286675 -0.9589883 0.7503593 -0.4504449 -1.8937978 1.3478365 0.23346339 -0.53508896 0.70595187
我 0.048231952 0.2860438 1.3950367 -1.0540537 0.5542288 0.41048223 0.024337508 0.9456936 0.06358963 -0.2193312 -0.59942603 0.3958145 -0.6009978 -0.060026243 -0.107744284 0.42820397 1.0124204 -0.21513775 -2.1471455 0.85473675 -1.0934083 -0.9391933 -0.79995656 -0.8621093 -1.590179 -0.66076535 -1.5184143 -1.202248 0.38066873 0.7908416 -1.3161013 -1.3020902 0.80277157 0.61340785 0.6920473 0.7806318 -0.8943148 -1.3300242 -0.79875773 -1.0986289 0.99074906 0.49199107 0.9613543 0.5886987 -0.45000717 0.9850393 0.71992886 -0.17820363 -0.09761457 -1.2184235
路 -0.11696079 0.4562521 -0.2652011 -0.011724456 1.0039233 0.25667912 -0.6821143 -1.8568734 -0.14118351 -0.6130294 -0.7052136 0.058755748 -0.81303 -0.013885866 -0.9641815 -1.1843972 1.1607717 0.5903973 0.2514037 -0.043503355 0.62978524 0.77040625 -1.426729 -0.3355905 0.13864213 0.2784448 -0.5458251 1.3260881 0.1633958 0.11039775 -0.011705366 -0.6897747 0.3195196 0.45582414 1.8199601 0.43088475 -2.1903255 -1.1251287 -1.417031 0.47167146 0.91840684 -0.45369574 0.27273256 -0.26451162 -0.3172259 -1.234116 1.8602483 -0.13204193 1.0434583 0.21928164
在 0.8086058 0.26761228 0.0564292 -2.2881396 0.6583913 -0.71158737 0.7803989 0.4315549 -1.0658994 0.50691056 -0.096612744 1.0422443 -1.428797 -0.3082585 -0.26573706 -0.29384905 0.2598527 -0.6025482 0.38800734 0.06937395 0.41024217 0.38348338 -0.39810482 -1.5804559 0.7000274 -2.0149333 0.16420136 -0.6231641 -0.41376066 -0.53327876 -0.08297739 0.048250545 0.85878026 0.82121426 -0.52109253 0.6497417 -0.62076813 -0.96248895 -2.0379825 0.65698844 0.27351236 0.017648041 -0.631598 -0.16250451 0.4614772 -0.72139835 1.1559016 0.3360193 0.4464883 -0.5966587
已 -0.36762542 -0.16045955 1.4851282 -0.74061984 1.2569987 0.7389767 0.8806436 0.5070004 -1.2614772 -0.8476669 -0.45683673 1.1529531 1.3480241 -0.80253416 -0.58238065 1.0258471 1.092409 1.432747 -1.741875 0.96986216 -0.21486028 -0.95357734 -0.105925 0.41776037 -1.7398403 -0.8554397 -0.7360414 -1.7294918 0.7682329 0.10206074 0.2093883 -0.39714748 0.71448123 0.5800652 0.47453615 -0.41089258 -1.227219 -0.6758405 -1.3907417 1.7975402 0.6130804 0.15563074 -0.511822 -0.2865304 0.6036606 -1.0726367 -0.53531665 -0.026477383 -1.3582847 -0.16154715
得 0.20789763 0.4121032 0.29247123 -1.8774054 0.9743426 0.24873519 0.42656702 -0.8268355 -1.6729279 -0.6547365 0.13674434 0.967794 -0.66168976 -0.023573507 0.2571757 0.60962754 0.31121695 -0.32916427 0.1685854 -0.17015134 0.11171939 0.4407843 0.3009885 -0.4179653 -0.26051033 0.13848239 -0.38059536 0.1526773 -1.328471 0.55890375 -0.23768035 0.07383977 0.60596055 -0.95948064 -1.0850079 2.4946802 -1.3420709 0.28039518 -1.4653072 2.1253603 0.18989584 0.59293 0.5476344 -0.5155326 -0.9004478 0.19500716 1.1189079 -1.0371239 0.7955328 -0.15382792
所 -0.30268523 0.14392735 0.33573565 -0.57348126 1.1912247 0.34468412 -0.41971007 0.2712013 -0.46101734 -1.5300552 0.16278529 0.7490069 -0.092130065 -0.21730907 -0.8163716 0.32546073 1.1483545 -0.2757534 0.23801605 -0.44447997 -0.5322818 -0.37333497 -0.4055465 0.24943282 -1.0506247 0.23140177 -0.11151981 0.75401926 0.24917257 -0.07092684 -0.46597493 -0.2078994 -0.21273598 0.27906755 0.3203543 1.0407202 -0.2979948 -0.70929515 0.102833204 -0.6114685 -0.007434142 0.4391341 0.31669098 0.56114626 -0.77755445 0.11529388 -0.33463 -0.02179323 -0.76986676 -0.15229943
民 0.5797576 0.6676885 -0.28368986 -0.28118822 0.375014 0.118727006 0.3736367 0.9330366 0.33617547 -0.4338355 0.89274585 0.6902872 0.18947576 0.03933274 -0.1801384 0.099908344 -0.8407453 -0.644214 -0.07041525 0.13089952 -0.5345543 0.12815815 -0.170417 0.2702868 -0.6531475 -0.18508054 0.60886633 -0.27386364 0.10797471 -0.14723529 0.10022555 0.20978738 0.2717667 -0.068261825 -0.62855136 0.5668938 0.23170982 -0.58899546 -0.55268526 -0.11540567 0.9429155 0.48213387 -0.8014112 0.3047748 -0.25713938 -0.4602805 0.31245542 -0.25947356 0.7195584 -0.16183256
小 -0.057671677 0.035933126 -0.107311964 -0.9700619 1.6005837 0.816149 -0.50043964 1.577755 0.4567323 0.51065636 0.17675228 1.2583959 -1.0716603 -0.23745139 0.6299049 0.41703257 1.6865842 -0.020705985 0.51062983 -0.19888672 -1.148895 1.0264168 0.49803716 -0.40745002 -1.3542094 -1.0050538 -0.6888223 -0.65161693 -0.5318198 -1.1418457 -0.8947776 -0.58404344 0.45017606 0.23957646 0.06805869 0.60718805 -1.1693861 0.1827125 -0.98043597 0.3614031 1.3639529 0.06392284 -1.1034048 -0.6150153 -0.61763483 -1.2510498 0.086242534 1.2484331 -0.28420296 -0.8903377
天 1.2967328 -0.049573604 1.6766316 -0.086119756 0.47901163 0.32946736 -0.8389445 0.99715763 -0.5738551 -0.58560944 0.42761302 1.2509807 0.9185573 -0.7886655 -1.3359848 0.0085146 -0.45213377 -2.2335403 0.9837633 1.4552319 -2.064185 0.1262223 0.56959087 -0.2896962 -0.09313465 -1.3788859 0.28612888 0.36966488 0.2165118 0.29732585 0.88217205 -1.3052232 -0.99220705 -0.07408733 0.2661805 0.71262914 0.61386853 0.111118644 -0.6236127 1.0687817 1.5036174 1.2342973 -1.5213976 0.88108224 -1.4061407 -0.45307967 0.39125943 1.1952255 -0.77884305 0.59644467
乐 0.5206693 -0.6131293 -0.32141316 -0.6466519 -0.08753781 0.8226725 -0.59189105 0.16271587 0.9022751 -0.31612933 0.76724243 -0.38897395 -0.5465573 -0.13978033 -0.081414334 -1.0956454 -0.3423114 0.77656096 1.3932228 0.7246001 -1.6973612 -0.59613055 -0.38009194 -0.38345587 -0.48585477 0.71587485 -0.34735432 -0.57447416 -0.29437655 0.6915649 0.6137075 -0.48034084 -0.107170515 0.3857315 0.2225557 0.033974987 -0.12404581 -0.8041665 -0.3228746 0.3320522 1.5575404 -0.3475897 -0.3705906 0.54546994 -0.53543216 -0.8759812 1.1157719 -0.6904105 -1.3148395 1.1932455
邦 0.014945933 -0.5435819 0.43567336 0.61740327 0.39673638 0.17265388 0.89314026 -1.2564094 0.06597173 0.4324015 -1.2319332 -0.009367393 -1.0250834 0.029391691 -0.7076616 -0.19434284 0.8160218 1.709228 0.29942602 -0.48685247 -1.3691144 -0.47701347 0.12364351 0.54322255 0.03242385 0.002074486 -0.2778028 0.23219845 0.7354527 0.32668182 -0.97879356 -1.0304067 1.6832433 1.1199356 0.01191454 0.3453571 -1.0398871 -0.96265924 -1.1134562 -0.25714216 1.5472764 0.84312546 0.79863673 -0.51476675 -0.36713877 -0.7962346 1.1774724 0.09510234 -0.7293706 0.3060608
亦 -0.09913137 -1.5385233 0.5869123 -1.0719506 1.1704096 0.21895693 0.0014617399 0.99956053 -0.029873466 0.26343155 -1.068956 0.4408582 -0.55562586 0.37801594 -1.0000881 -0.037916403 2.0312808 -0.14428826 -0.68558663 -0.3568968 -0.06834578 0.7232738 0.48995844 0.1619695 0.11014292 -0.46645474 -1.2065288 -1.2233086 0.7323086 0.4247794 -0.62731916 -0.9392958 -0.41390944 1.0154268 -0.05345208 1.3061723 -0.9932075 -0.8915082 -0.61054784 -0.34136012 0.7268536 -0.995944 -0.007388598 -0.3164521 -1.3055829 -0.72518927 1.7782061 -0.13771486 -0.98923624 0.16897503
使 -0.39904788 -1.5270758 1.5022416 0.06852809 0.4462502 0.27258235 0.3190711 0.18393524 -1.3035529 0.50551105 -0.8153782 0.89258885 -0.04891104 0.5346336 0.06362391 -0.32144856 1.519054 1.7410007 -0.5984703 1.0560501 -0.7828623 -0.8311176 -0.56542337 -0.54463905 -0.2578617 -0.22483855 -0.051697217 0.73034185 0.32980582 -0.7013286 -0.7034263 -1.4886534 0.6222245 1.6100377 0.5651468 -0.009772586 0.3992593 -0.9284038 -2.1264315 0.017456654 1.0910679 0.10664723 1.3429313 0.08257416 -0.61974216 -0.14430547 0.037275393 -1.4034411 -0.5529106 0.7882765
大 -0.481582 -0.60065293 0.26852897 -0.039078813 -0.51108783 0.1971417 -1.1317055 -0.11362664 -0.5240419 1.1996073 0.8678058 0.23064221 0.27831203 0.055108767 0.9333158 -1.796273 0.34874818 0.17901236 0.5723146 -0.43218458 -0.85540545 -0.809717 -0.6849643 -0.80572677 1.1955571 0.52628064 -1.3720217 0.93663704 -0.68682337 0.7915847 0.9885216 0.37648088 0.77404374 0.049299464 1.6177742 -0.28954107 -0.0922561 0.07284645 -1.2535284 -0.97371125 0.41939855 0.37041956 0.62596816 1.5753105 0.24964277 0.16805421 1.1932588 -0.042945325 -0.11071289 0.4049066
下 0.5767241 -0.21717323 1.12929 0.76298046 0.8351121 -0.95262307 -1.5925128 0.9963409 -0.5392805 0.659095 -0.22681761 -1.0502455 0.77828014 1.5226704 -1.3991596 -1.0807499 1.6531415 -0.92423636 -1.1430917 -0.53848344 0.70531243 -1.4094251 0.12550892 0.21513577 1.5892129 -0.40140194 0.25217444 1.0184869 0.58569515 0.0065313857 0.7277254 -1.4440111 0.6897903 0.17209221 -0.16597565 0.014852904 -0.79791474 -1.2820909 -0.14990509 -0.20592907 1.4169537 -0.39023617 -0.38085148 0.7731308 0.19459166 -0.79156446 0.55680525 -0.16329435 0.029592926 0.21777777
贡 0.24364103 -0.9826622 2.1684904 1.0239056 0.34883997 -0.5019518 -0.26717418 0.81342244 -0.32086095 1.1745752 -0.46575025 -1.7552466 0.6729537 1.184531 1.1296301 0.8644179 0.81460524 1.7863971 -2.2794993 -0.87170637 -0.29558656 -0.051692586 -1.0798229 -0.7401004 1.1631578 0.07995899 -0.2481528 -1.5497365 1.3137746 0.50225717 0.305941 0.33863574 0.6560965 -1.7789146 -0.5751029 -0.34520105 0.67032695 -1.3428034 0.5502952 -0.889545 0.22124334 0.9429154 -0.8684456 -0.0076124924 -0.17952636 -1.8263682 -0.7304043 0.9987521 -1.3760592 0.13597073
欲 0.72582257 -0.31637365 -0.21995436 -0.5337311 1.2546979 -0.07123931 -0.7680675 0.49756944 -1.5353762 -0.4204936 -0.56853175 -0.22273308 0.6401769 0.44455713 0.07397144 -1.2654446 0.4428813 0.6455622 -0.24804959 0.42957836 0.04053633 -1.4250302 -0.31407776 -1.0118308 -0.05608785 1.5251673 -0.43916738 -1.0045377 -1.3007003 0.3500251 -0.5531816 -0.5475478 -0.6732111 1.0888745 0.28093874 -0.29681906 1.1320778 -0.83913386 -0.8017418 0.7729989 -1.4397465 0.4582571 0.8469802 -1.1306971 0.22016521 -0.56456214 -0.3691304 -1.3794914 -0.3838996 0.09803842
诸 -0.18361416 -0.4756732 0.6167024 -0.51821154 1.2300102 -1.2273713 -2.1316845 1.8352193 -2.2415242 0.21390772 -0.14792956 0.730143 0.8116147 -0.35194167 -0.15051794 0.33288914 1.0973077 -0.31204262 -1.0168573 -1.754289 -0.024692038 0.19361168 -0.7423281 -0.6713121 0.4435082 1.0146244 1.8730463 -1.0738547 0.33500907 -0.5630935 1.1073483 -0.83658206 0.5651783 0.9178767 -1.0851101 -0.42290235 1.3040396 0.5399471 1.0416137 -0.5038272 0.750719 -0.83420557 -0.23354205 1.0832738 -0.13880847 0.16061313 -0.12713927 -0.4882012 -0.9390889 -0.7563861
从 -0.48373312 -0.6085171 0.83993876 0.8912233 -0.36419913 0.9823608 0.15702555 -0.9936709 0.3281552 1.7334969 -0.606645 -0.39846173 0.7974497 0.71075493 -1.138335 -0.1950952 0.06518899 0.14567703 -0.19907832 0.53246707 -0.56221306 -0.8790499 -0.6906976 -0.44362307 -0.46133286 0.047924798 0.39963463 0.39862117 -0.7990584 -0.5552061 -0.0026343616 -1.1595798 0.646163 0.86870253 -1.1872224 -0.7312362 0.252983 0.45917442 -0.062266838 -1.2310867 -0.5565258 -0.17004107 -0.4687621 -0.23421463 -0.13106908 -0.3649913 -0.6297368 -1.0874057 0.15169106 -1.446575
文 0.014459541 0.4940881 0.38523582 1.1634519 -0.20386106 0.13446964 -0.6204615 -0.8168912 0.30967143 1.5101122 -1.0623358 -0.07337857 -1.154512 0.20987542 -0.42247772 0.19234747 -0.43759176 0.5220409 0.75344694 -0.43695197 -1.3232138 -0.111416176 -0.37184417 0.71246547 1.5529743 -0.02024584 1.0206255 1.5129056 0.37499893 -1.1717167 0.15233909 0.34296212 -0.09474761 0.48752275 -0.6306868 -0.859227 0.93933004 0.077044316 -0.29769883 -0.94986755 0.7172427 0.44703612 0.04299576 -0.03337055 0.3383725 0.6605907 -0.9503585 0.58342 -0.07282002 -0.5862836
政 0.70769894 1.3464754 -1.1879529 1.9038018 0.027063707 0.60935795 -0.77282315 -1.1028335 0.30728725 0.2863545 -0.27671745 -0.26622882 0.24719016 -0.900055 0.0711499 -0.8106332 0.80443054 -0.5203907 1.260821 0.53924114 0.79025245 0.630209 -0.14365548 0.20909311 -0.6958032 0.30495912 -0.7037001 1.5954949 0.35746893 -1.2047305 0.311483 -0.5881757 -1.0699714 -0.32092455 -0.25124067 0.2986365 0.12010589 0.28259102 -0.15085581 -0.67707235 0.64736897 -0.32177207 0.9922261 -0.03743456 -0.40737358 0.06859614 -0.2299194 -0.60088634 -0.9177333 0.6910276
食 0.2726674 -0.72380114 -0.5972489 0.29649734 1.6748866 -1.757 -1.3420806 1.3643271 -1.176319 0.7346618 1.3222214 -0.5661981 -0.109385006 0.4215358 -1.4387687 0.04456417 1.8250722 0.40291476 -0.43632436 0.15028793 -0.023951026 1.5140828 0.4810932 -1.0323608 1.4180946 1.5976806 1.6254194 0.073871985 0.24602945 -0.52766377 -1.5410488 0.18201658 0.7920025 -0.23025091 1.9004893 1.0314426 1.212234 0.696988 -0.2287725 0.7169088 -0.29986143 -0.5476136 1.1352023 -0.18591636 -0.48549524 0.5226337 0.5209938 0.040609986 -0.4079858 -1.5210446
善 -0.73063093 0.3615967 0.21413435 -1.3793609 0.8600252 2.1549208 -1.2103094 0.07715316 0.4804382 1.1762019 0.042276185 -0.6441291 -0.088230275 -0.75015634 0.6615295 -0.07755054 1.655958 -0.33192483 0.74128366 0.6133973 0.3223661 0.26667035 -0.10817353 -0.32014805 0.6336528 1.4088379 0.25926414 0.65001583 -1.3189868 -0.8362664 -1.460761 0.9468572 0.9718778 0.54260105 -0.70988214 -0.7728706 1.3805233 0.459936 -0.38800338 -0.25699726 -0.5149281 -0.32999626 -0.12232972 -1.4263821 0.61494243 1.3886915 0.7778958 -0.8499163 -1.131733 -0.42696097
后 0.740545 -0.6784843 1.3541675 -0.26466766 -0.9343213 0.61945903 -0.58276004 -0.1084479 0.11389323 0.95119447 1.0299932 -0.87192583 0.39117923 -0.34525627 0.42631423 0.037342705 -0.013774223 -0.6229313 0.3540474 -0.24114488 -1.000691 0.018767707 -0.20894459 0.47622564 -0.23725739 1.6619097 0.6006451 -0.98628575 -0.63786566 -0.3745317 0.23698467 -0.4657599 0.78041357 -0.31909335 0.060699012 0.3751438 0.2824301 0.40384898 0.66413665 -0.10244709 0.37061328 1.1403173 -0.4713873 0.9258702 0.16230322 0.8043183 -0.76484406 1.1811638 -0.5196758 -0.6852937
德 -0.8302212 0.41916126 0.44885716 1.6823517 1.172715 0.05277886 0.6038808 0.9275003 1.0156397 -0.38854516 0.27424267 -0.15375504 1.2114029 0.09810581 0.48928264 0.13213563 1.2720504 0.32744312 1.7052788 2.168077 -0.11321053 -1.031987 -0.17832373 0.49786422 -1.4140555 0.27595186 -1.0821389 1.0059663 0.5855876 -0.6698357 -0.086074375 -0.59933907 -0.10197787 -0.013271558 0.40366042 -0.035885148 0.11018401 -0.36359227 0.01721994 -1.1199498 0.97628725 -0.23746146 1.0406284 -0.44948083 0.95766616 -1.6473022 -0.021771446 0.064252466 -1.5668801 0.31349903
求 0.5851392 -1.6226062 1.758651 -0.20388807 -0.35933623 -0.63848084 -1.3199216 -0.3386859 -0.5266743 -1.4654038 0.80193603 0.9316693 0.052137885 0.38456815 -0.505069 0.9383677 0.7223636 1.9890951 0.37991497 0.93038195 -0.4613767 -0.20861965 -0.05716827 -0.46950608 -0.91734225 -0.29632318 -0.21423186 -0.15947925 0.38602397 -0.5466148 -1.9167967 -1.2724622 -0.12155335 0.41418728 1.6136916 1.1783669 0.022512073 -1.7998328 0.18648884 -1.3058819 0.6321444 0.35388833 0.21466811 0.047290307 -0.16982418 -0.8957739 -0.06734485 1.4140799 0.03719611 -1.3001074
对 -1.0311487 -0.02519762 0.46038726 -0.358737 -1.6503204 0.10779276 0.45699227 0.49300602 0.4931669 0.64992017 0.51900065 0.19437793 -0.6370268 0.6119538 -0.67743534 0.0056662867 0.5011339 0.67117786 -0.48267603 1.6093048 -1.0862124 -0.34845152 1.4219902 0.85223776 -0.36528483 0.057770953 1.1451607 -0.12113944 0.3760304 -0.3746302 -2.5379949 -0.6787068 0.3625554 2.1890028 0.3940784 -0.19678478 -0.43332523 -0.4437293 -1.3262439 -0.39330196 -0.055279806 -0.98116547 0.08511498 -0.32219535 0.26435405 -0.01603271 1.9492201 1.6871887 -1.4774239 -0.30066368
恶 0.21083118 -1.0883442 0.15031943 -0.9886367 1.7442906 -0.14936465 -1.2946144 2.3533456 -0.7462808 -0.21071047 0.3211385 -0.15303285 1.0885063 -0.5356732 -0.1366432 0.4581349 1.3835723 0.39478064 1.2888124 0.12080885 -0.014006674 -0.36351937 0.1753175 -1.267192 -0.2801573 0.6125267 0.63161135 -0.21430573 0.5087711 -0.36062878 -1.5857966 0.6260973 -0.1321719 0.3802593 -0.48448685 -1.1454344 -0.12004074 -0.59266317 0.5388569 -1.0647599 0.67509323 -0.6949416 -0.322259 -1.3243951 -0.23377813 1.013442 0.69089526 1.4931993 -1.5934814 0.13756652
信 -0.2868196 -0.9854404 -0.8095864 -0.3963937 0.2917037 0.50845766 -0.6853451 1.0642979 -0.9492467 0.2511231 -0.06048746 1.2121234 0.14219898 0.5133915 -0.20464331 -0.85867405 0.47820047 0.14069246 1.4791454 0.96292347 0.332746 0.8453994 1.0660152 -0.018179193 0.66247034 0.028328547 0.33571655 0.8100636 -0.7266297 -1.7257799 -0.9062125 -0.35208267 -0.43090975 1.0127418 -0.12530181 0.37498853 -0.7162896 0.020370761 0.06722322 0.7898224 0.2891644 -0.06138651 -0.5463704 -1.2563802 -1.1182075 1.9285009 -0.77358437 0.14511868 -1.0643214 1.001899
死 0.9446447 0.20701183 -0.53775436 -0.66183275 0.8696021 -1.5347439 -0.31625414 0.35732204 0.33041617 -0.14504135 -0.735444 0.20004655 0.0806031 0.66593075 -0.70391893 0.713568 1.1340272 0.50023335 0.5985135 1.5907204 -0.26802444 -0.7519642 -0.7389521 -0.362081 -0.2641325 -0.4023638 -0.529959 0.1490519 0.57338184 -0.43370196 -0.52318573 -0.52045304 0.3339968 0.3934532 0.4659917 0.6887725 -0.68144953 -0.78217965 -0.66859704 -0.7944009 0.42918926 -0.14081387 0.44752178 -0.074754745 0.01463965 -1.2930528 1.0390775 -0.21568836 -0.6987462 -0.4756719
然 0.035968434 -0.92150056 0.67196554 0.46191624 0.21786854 -0.96450275 0.8946476 0.43564942 0.26577246 -1.5761276 1.0174145 2.11662 0.34232593 -0.70797575 -0.82315665 -1.0242084 0.5010172 0.8630025 0.27990302 0.32691953 -2.0012188 -0.6981932 -0.49824095 -0.34054276 -0.88146424 0.6231628 0.7493387 -0.74992055 0.8096661 0.7145413 -1.1612664 -0.31393534 -0.22892581 0.9717687 1.0404965 0.13974753 0.21172802 -1.0821424 0.5356729 -0.5062251 -0.6584263 0.42733923 -1.0176489 -0.16812144 0.031174123 0.54719144 0.04824896 0.3717372 -1.0810044 -1.3384064
《 2.3720407 0.5091423 0.34371516 0.101622775 0.7676137 0.41505936 -0.62507856 0.38898173 -0.038044166 0.023580056 -0.012969241 1.2601099 0.74086076 0.6687137 0.4701925 1.0533637 -0.1842224 -1.0924459 0.80509686 0.92240655 -0.1166118 0.7170535 -0.87377656 -0.9290436 -1.5647612 -0.98823524 -0.3752035 -0.43003392 0.9629574 0.08729535 0.1207755 0.60581154 0.5631706 0.4911116 1.9434485 1.8781534 0.17309666 -0.22535515 0.5942136 -0.10640758 -1.4664986 -0.25828177 -1.2530408 0.5382074 -0.44851917 -1.0809022 0.31120786 0.19135201 0.06469828 0.45118207
》 0.68152416 -0.24811152 -0.9209355 -0.29029432 -0.13806932 -0.29754013 -0.74009997 1.3570166 -1.0243869 -0.3297153 -0.5341986 0.37258664 -0.69278836 0.30560368 -0.31801587 -1.278837 1.1276139 0.25626186 -0.10204902 0.1512025 0.8633946 -0.5839565 -0.120446466 -1.2721692 0.17691328 0.13472958 -0.22599348 -0.46709114 0.26520175 0.9261736 -1.2624266 -0.12837444 0.36983824 0.44125563 0.7730143 0.51581115 0.0053235954 -0.32129157 -0.8398721 0.43491453 -0.8408001 -0.58012456 0.08897064 -0.3131355 -1.5221128 0.45116928 0.22937164 0.30579203 -0.29695502 0.41797468
由 0.14553362 -0.9675952 -0.42497164 -0.07164401 0.30006564 0.22362113 -0.37653053 0.9271599 0.06344036 0.010648367 -0.7007821 -0.43697768 -0.08260331 0.2697587 -0.5840373 0.018619953 0.10855972 0.82731843 -0.98543084 -0.4283174 -0.03452241 -0.82799 -0.6985159 -0.9077015 0.13677391 0.7495415 -0.7029118 -0.9033629 0.42837825 -0.0062451363 -0.76189524 -0.28367713 0.10220384 0.80114263 1.120631 -0.32628018 0.6251966 0.5940736 -0.4515104 -0.8052213 0.1970273 0.18433723 -0.8068681 0.12912896 0.44001094 -1.1631933 0.1598495 0.7245438 -0.67442226 0.597949
仲 0.30685255 -0.30778623 -0.3045383 0.44503802 -0.08865128 -0.61564237 0.3422787 0.09453089 -0.25618777 -0.36920968 -0.12420914 0.5159765 0.39494517 0.2755188 -0.44519028 0.3142248 0.17767967 0.6571938 -0.045043908 0.30264598 -0.98963976 0.60921335 -0.30336043 -0.09355237 -0.34119764 1.057492 0.76342565 0.5046545 -0.28076103 0.31927934 -0.14050737 -0.50764143 -0.07565706 0.8757477 -0.011801061 -0.52486706 0.0047567715 0.13045128 -0.772539 -0.18782556 -0.7615023 0.013824429 -0.20398001 -0.5154242 -0.33615193 -0.06592676 -0.5847181 0.09218339 -0.16159269 0.056111854
非 1.6796645 0.17898273 -0.5388725 1.4421959 1.3238102 -0.20144619 1.0273651 -0.98343015 -0.72618693 -0.05538712 0.08075128 -1.0194496 -0.575384 0.34914678 -0.35898337 -0.4197135 0.005356158 2.474994 -0.90222096 1.8685279 -0.22867157 -0.033466738 -0.42553484 -0.29673633 1.8085707 0.18036903 -0.32564595 -0.31746313 0.33547118 0.2076372 -1.0171828 0.75978667 0.21073025 0.617793 0.81537104 -0.9449901 0.6378725 -0.39313406 0.04774926 -0.21532445 -0.44143716 -0.46918905 0.40469053 -0.067000546 -0.18444303 -0.36274254 -1.4436039 -0.29970387 -0.03221942 0.29651174
出 -0.27856487 -0.36202523 0.5622453 1.3142561 0.34767988 -1.3368458 0.015520919 1.0162475 0.57974064 0.1101793 -0.4869113 0.1937625 0.42260048 1.4439377 1.8219489 -0.14215793 2.6799967 2.4090228 -0.96736634 -1.0922223 0.5129896 -0.69216734 -0.5473295 0.37602696 0.10075714 0.9695455 -1.1064329 -0.35732353 1.4546481 1.0003651 1.3367473 -0.017391015 -0.009155729 1.023631 1.9081204 -0.58621496 -0.14960366 0.6798753 0.57089883 -0.09594016 -0.07555042 -0.5270949 0.033375498 -0.37012592 1.1808488 -1.240708 0.051468804 -0.09212776 -0.5791091 -0.371819
过 0.2879762 -0.9790547 -0.1602209 0.72324526 1.2109056 -0.7876541 0.027725304 0.42367712 0.4544375 1.0565534 -1.0357254 0.8466411 0.5553079 0.14146902 0.11057372 0.38967413 1.5947587 2.053236 0.15639496 -0.3509836 0.15432584 -0.17578791 -0.22072688 0.46772122 -0.06799074 0.69635576 0.018747767 0.04371854 0.06981778 0.49046382 -0.13019563 -0.9410416 0.9645486 -0.12589332 0.09246337 -1.447248 0.79267234 -0.56269485 -1.3446343 -0.12283542 0.65067446 -0.60672826 -0.6225191 -1.7522987 0.53374463 -1.1727644 0.39420313 0.031858027 -1.228698 -1.6149908
一 -0.12797455 -0.73329043 0.5767981 0.10168908 -1.435196 -0.6193559 0.5674337 -0.41450903 1.4642189 0.9350329 1.553216 0.48158315 0.61230505 -0.2983794 -0.08810511 0.44151348 0.2906743 1.0599252 0.08412971 0.5659983 -1.6596578 -0.6465369 0.46550968 -0.33787256 0.09325024 -0.11866064 0.6397953 -0.49817777 0.33171874 -1.4737846 0.7510359 -0.55473644 -0.2374744 -0.80988806 -0.112050004 -1.159518 0.7115689 0.92618227 0.25987944 -0.51957256 -0.38639122 1.0592637 -0.6904377 -1.0037291 0.035933763 -1.8192788 0.20222065 0.98324925 -0.7531186 -0.9183518
虽 0.94017226 0.25401428 -0.9344588 -0.91669166 0.5535886 -0.9385031 0.5351762 -1.5007322 0.31989685 0.28822467 1.3377668 -0.6171299 0.58383924 0.5055428 -1.6383563 1.2869879 -0.9751153 0.056481108 -1.3678306 1.4494177 -1.5678588 0.758179 1.2813277 0.3618535 0.39612317 -0.7936731 0.4240888 0.88024324 0.5373385 -0.12903275 0.80645514 -1.7500026 0.48843065 -1.2626822 0.21446005 -0.21338695 0.58044076 -0.32310945 -0.11548341 0.48638073 0.42299983 -0.5197719 -2.409435 1.1837467 0.58101296 -1.3729647 0.69292164 0.45566958 0.07137399 -1.0667745
足 0.8109128 -0.17726585 -0.058607105 0.3335533 -0.5510177 -0.1648075 0.010515452 -0.9669749 0.36545706 1.6537635 0.09104391 0.53381926 0.47757986 0.42573413 0.10436428 0.18598144 1.1502627 1.2554678 0.051832292 -0.2890142 -0.26613322 0.18493804 0.8692869 0.7076127 0.55713767 0.0717546 -0.44041526 0.27183455 -0.46384045 -0.20280801 0.19122323 -0.57029116 0.72537476 0.15134795 -0.13943745 0.0059527727 0.40672427 -0.065275356 0.90812254 -0.069998965 0.8753427 0.6599256 -0.2387482 -0.8253569 0.21327248 -0.46757466 -0.5197637 -0.30065516 0.022803001 -1.4741265
居 -0.6836746 1.4101808 -0.07588477 1.0762953 0.17986341 -0.5924084 -0.29986507 -0.8839011 1.3006645 0.016468927 0.3544706 0.032933295 0.517824 0.5011963 0.5609743 -0.62731194 -1.2033356 -0.03997194 0.8619016 0.5315686 -0.6041009 -0.9361979 0.31829074 0.83521605 -0.5045471 1.0872225 0.057841748 -0.1677366 0.04658626 0.5169154 -0.3769011 -0.53971606 -0.40842858 0.37697762 1.1198395 0.61562544 1.6701013 0.8326358 -0.02314439 -0.17602323 0.18248107 -0.27933532 -0.7207657 -0.32478446 0.34526998 -0.14168072 -0.3913502 -0.7786289 -0.14284168 -0.10052393
尔 -0.08408086 0.92970854 -0.086941846 0.96759295 -0.71705765 -0.8934282 0.8759475 0.398577 1.416647 1.6057346 1.0693655 1.6889906 -0.5266704 -0.20912787 -0.75122154 -0.011845385 0.8992163 0.8639296 -0.15523061 0.44804406 -1.3903865 -0.17896852 -0.18356787 0.43847367 -0.33252373 -0.7242891 -0.3707372 0.6175297 0.2385699 -0.5166845 0.74947155 -0.6044076 -0.015520186 1.1445519 -0.44042376 -0.37755528 0.3945911 -0.02113242 -0.32782346 0.7793056 0.69537026 -0.55343944 -0.903572 1.2207929 -0.23033294 -0.5902159 0.03375384 0.71968573 -0.7413517 -0.64633626
夏 0.13688791 0.60234725 0.7130397 -0.90965337 -1.3708185 -1.9520675 0.7038586 0.8328342 1.6228931 0.44274384 -0.14035055 0.3135635 -0.026917579 1.202506 0.6862749 -0.63399285 -0.20364301 0.9222601 0.018057955 -0.20424506 -0.5134905 -0.90279746 0.3422098 1.215648 1.9777994 -0.6527363 -0.8596861 -1.2591505 0.35226452 0.78438294 -0.7398339 -0.59308326 -0.30334872 0.36796132 -0.17626199 -0.007451982 0.14178342 -0.20179288 0.04679676 1.2976353 0.16501297 -0.751959 -1.8836275 0.31278738 -0.04508549 0.15849128 0.43281156 1.6522453 0.035101812 1.4538543
父 -1.3393214 0.8539553 1.8069736 0.08859201 -2.1684077 1.5728484 -1.5446893 -1.2693875 1.236976 0.11672183 0.2071675 -0.01410494 0.7009542 -0.48732576 0.623805 0.57538515 -1.4257861 -0.18580267 -0.72079796 -1.2020309 -0.13224149 -0.20683248 -0.09966427 0.8191072 -0.06622828 -0.18603344 -0.38742587 0.09928084 -0.81636935 -0.13670404 0.236459 -1.0869653 -0.9715939 -0.05276234 -0.34372076 -0.19394745 0.95373636 0.08888566 0.12553743 0.50733745 0.63797915 -0.21386893 0.9556065 -0.7916737 0.38379127 0.29569224 1.2499874 -0.6668502 -0.42300126 0.36580724
及 -0.374691 1.6741519 0.2755496 0.763628 -1.8179034 1.3229631 -1.1359795 -0.96163094 1.6405299 1.9042159 -0.5319945 -0.35912323 0.0486363 0.4107215 -0.074434556 0.64654636 -0.9428105 -0.31946203 0.31113628 -0.2352439 1.2295685 -0.32961646 -0.20674585 -0.005132437 -0.2270692 0.50719297 -1.1641787 -0.8298576 -0.61424243 0.19472677 -0.25507918 -0.7310758 -0.304803 0.32117268 -0.4683392 -0.22745569 1.279181 0.05763013 0.73021644 -0.28352 0.8840198 -0.305428 -1.0295707 0.7157319 2.258758 -1.3487659 0.47495562 -0.7852312 -0.0586544 0.28255767
己 -0.8374651 0.73807454 0.44378108 0.96869975 -1.006126 1.2921847 1.4382986 -1.0289038 2.002043 0.23493181 0.3799956 0.7727022 -0.50535303 -0.4497588 -0.60303116 0.44345966 -2.293524 -0.77180576 1.385211 1.3457836 -0.6276514 0.3888052 1.1673373 1.385322 -0.8519519 0.3759769 -0.7780529 0.49625203 1.3855572 -0.7298726 -0.14035827 -0.018137686 -0.19762024 1.3424954 -0.7052 -0.18454015 0.7418056 0.21788527 -0.32676393 -0.025932234 1.4496272 -0.08314399 -1.1038077 0.8714318 0.48690286 0.24014641 0.15874529 -0.7219467 -0.44900525 1.5171047
予 -0.845965 0.1715413 1.2161173 0.6732641 -1.0632535 0.80355144 -0.15133423 -0.4739252 0.5402562 -1.3009253 -1.3212975 0.90380657 -1.3053833 -0.22254424 0.706319 0.40588582 0.9113358 0.35238928 -1.7660037 -0.055557314 0.40127975 0.8239089 -0.45615268 1.0176979 -0.57953084 1.8656564 -0.23738533 -0.1753388 -0.84292054 1.5122135 -0.86101836 0.39755645 -1.3509277 0.8360443 -0.88327694 -1.2049998 0.6251732 -1.2655663 0.2679978 1.4355832 -0.42458773 -0.5729258 1.0681969 -0.30978644 0.08793809 1.1090337 0.52665645 -1.7579302 -1.4835737 2.1471276
色 -1.1945859 0.021945134 1.0592183 0.14394291 0.7347819 -1.1459798 0.78376853 0.6361651 0.5163506 -0.36152428 -0.7783802 1.4643503 -0.3760303 0.8082944 -1.231596 0.19849582 -0.32022288 0.34812585 -1.0145222 0.040425275 0.45756286 0.14788957 -0.30248204 0.19133711 -0.4289257 0.6119685 -0.5165688 -0.8662179 -0.3006906 0.90895337 -0.6558522 0.14306575 -0.6050821 0.7943245 0.2314055 -0.2055412 0.35740432 -0.057168934 -1.365379 -0.18035504 0.4879258 -0.51360977 -0.33326003 0.73659605 0.22880423 -0.41419283 0.6538155 1.2784944 0.46942392 -0.39794978
友 -1.1121259 0.04238814 0.94469494 0.26567432 1.4031612 -0.35694674 -0.8339981 0.03929849 -0.24797139 -0.94927764 -0.92929894 -0.4515237 -0.7933206 0.3153774 -0.42789805 0.6563955 -0.30961353 -0.6113509 -1.7903258 1.5219148 -1.8815374 0.671379 -0.21280497 -0.32114044 -2.3210652 -0.39783254 -1.2745031 0.3263223 0.09051669 0.524845 0.0972883 -1.3096946 -0.8234215 -0.6495599 0.553063 1.1873184 0.78172404 -2.2087157 -1.2697561 -0.4845573 -0.23073606 0.80702937 0.34429324 0.7334363 0.7999421 -0.39962825 0.34306824 0.4929087 0.32481983 0.27125627
成 -0.42754832 0.5710422 0.027834328 -0.16119523 1.2174499 -0.036461648 0.42801794 -0.019082384 0.5567473 -1.0285212 0.29005346 0.20842184 -0.13809098 0.66068214 -0.8220597 0.60732263 -0.89432555 -0.8549749 -0.15316911 1.0143054 -0.51024264 0.626922 -0.25426328 -0.024503794 -0.5165376 -0.12635596 -0.20274922 -0.32259908 0.22249797 -0.25401536 -0.076112345 0.16063716 0.064080045 -0.116615124 0.5571525 1.0001857 -0.12542711 0.030701747 -0.5146523 -0.32801527 -0.12176453 1.3203644 -0.16997263 1.2287672 0.31753567 -0.52233654 0.63997436 0.14048164 0.3702596 -0.47536188
远 -1.0441874 1.3327199 0.5864265 -0.61862826 0.16251159 0.17902341 0.2818407 0.24141945 0.71827567 0.09217579 -0.27352324 -0.026050054 0.1816775 0.34046882 -1.3195094 0.20378146 0.9919384 -0.016358795 -0.13665529 0.3027797 -0.12534592 -0.6691384 -0.120970495 -0.08760178 -0.031303097 0.42498723 0.14761202 -0.31835818 -0.081082754 -0.24971338 -0.599122 -0.16538714 -0.07786367 0.6618582 -0.0008124755 0.756274 0.070822954 -0.69341433 0.5181202 -0.24223958 0.11597137 0.047418274 0.23729724 0.38334444 0.03085871 0.520334 0.71472764 0.041566074 -0.16369238 -0.62711054
上 -0.795181 -0.19638653 -0.8159945 -0.50390995 -0.98879105 -0.94145316 0.40363985 -0.9480843 -0.032493547 0.036332075 -0.91070855 0.6673791 -1.2430904 0.5240427 1.9584306 0.77390754 2.1616986 1.1358713 -1.2229924 -0.46514145 0.575978 -0.33579832 -1.3013932 1.2858714 -0.0014954621 -0.43721634 -0.38704297 -0.42997319 0.9972031 1.1990554 -0.55238485 -1.2090237 -0.33674183 0.05110862 0.9026719 -0.23020726 -1.1034997 -0.48762187 -0.021479476 -0.908143 0.41301513 0.07195847 -0.94248295 -0.8395848 -1.6387929 0.5328332 1.2822075 0.4197864 -0.86619943 0.01564272
立 0.27073902 0.46503606 0.3073925 -0.29774386 0.6680353 -0.14504674 0.40030855 -1.0975137 -0.2816029 1.3968501 -0.3971588 -0.9735884 0.01506371 0.049232148 -1.2742304 0.079728544 -0.34962365 0.83051187 0.7853119 0.83071965 0.4318041 -1.6364002 -0.27293107 -0.268286 -1.1575508 1.3689258 -0.6296598 0.5866032 -0.034563456 1.1347648 0.14766875 -0.35664865 0.75821614 0.9215201 0.75641656 -0.6935031 0.06413401 0.028377112 0.13055333 -0.55157095 0.38552582 0.9092065 0.33825466 0.61419785 0.44998947 0.41139808 1.1789567 -1.0085386 -0.19160452 0.10547032
今 1.2010399 0.24891062 -0.87801623 -0.3317259 -0.30939347 -0.03765338 0.19573627 -0.89541733 1.6765324 0.5038554 -0.14937219 -0.7957401 -0.5534907 -0.08091227 -0.021687664 0.29441646 -0.30518928 -0.04964455 0.3829218 0.05295388 -0.517 -0.9088539 -1.1872625 2.3053558 -0.46094942 -0.86709875 -1.8114148 1.2448688 0.63152736 -0.58826405 0.6706352 -0.85049385 -0.71744984 1.025563 -0.09383703 2.0004635 0.51963896 -0.80549806 0.31519133 -1.4161757 0.05793197 0.045853663 -0.60391057 0.3731675 0.1415592 -0.7543569 0.9501229 -0.27021512 0.589885 -0.77373344
张 0.04194725 0.9864307 -0.0541539 -0.434271 -0.40422246 -1.449777 -0.29256442 -0.9783193 -0.4932969 1.4223123 0.2788951 -1.2694777 -0.46419355 0.46819904 -0.5959668 0.23838188 -0.9478991 -1.896835 -1.1509329 0.010132537 0.21493109 0.38745964 -0.20994647 0.28796822 0.82547563 0.65217245 -0.47329646 0.8346382 0.28224504 0.9033434 -0.5533983 -0.37627763 -0.33855405 0.5782055 -0.6073259 -0.977289 -0.35327458 -0.24076366 0.27522376 -0.9673833 0.11108198 -1.3296561 0.15013823 -0.1824054 0.84260654 0.7212654 0.02288796 -0.34801415 -1.1040367 -0.24903758
中 -0.4633172 -0.24272113 -2.064673 -0.61274797 -2.2263114 0.8535279 0.32415327 -1.7339538 0.17576014 -0.4356617 0.36302784 -0.7190993 -0.49679267 -0.45151228 -0.55560875 0.61886585 0.2924931 -0.0036611417 1.692402 -1.0301058 -0.35560095 -1.3983067 0.0015801048 1.3438567 0.6070383 0.40254298 1.235577 -1.4326899 0.11571433 0.60731745 -0.96593535 1.5316335 0.31073302 0.31735525 0.3921257 0.56675947 0.9330933 0.4541914 0.8981377 0.017877404 -0.2973488 0.282155 -0.38022864 -0.22500993 -0.23633952 1.2293363 -0.24509908 -0.12573735 -0.8045545 0.08615406
季 -0.7504288 0.23024291 0.85536444 -0.5453223 0.8665 1.1749005 -0.34796014 -0.3401401 -0.53116065 -0.743297 0.19763307 0.28503028 0.6469981 -0.35897166 -0.82524675 -0.254356 -0.09214608 0.17436995 2.0125663 0.9235762 0.16069649 -0.77004033 -0.62973404 0.32536367 -0.63279474 0.03563698 0.020070925 -0.271805 0.014505686 0.6315004 0.3761443 -0.45892486 1.418156 -0.146928 1.0939072 0.35894874 -0.96289337 -0.7777009 0.9065854 -0.7984273 0.6465832 0.05025587 0.69614357 -0.42639214 -0.28339833 0.14700593 0.41301614 -1.0690116 -0.6007854 0.48981833
臣 0.2670789 -0.8805102 -1.4253688 -0.7934377 0.47481376 0.5172923 -0.944172 -1.3354884 -1.3463672 1.3023486 -0.46615428 -2.4699292 -0.40952078 -1.5532779 0.1788468 0.6317694 -2.3256252 0.2436234 -0.105481155 0.46395946 0.10808391 0.28411326 -1.0527358 -0.17305444 -0.18153036 0.7862184 -0.3720139 -1.062665 -0.7967822 -0.6584065 -0.32853973 0.1889125 0.65589386 -0.03883052 0.53394526 0.8236345 0.9976197 0.6159723 1.1604508 -0.5913349 -0.9193868 0.6767654 0.103369966 -1.6884413 -0.28268978 -0.7163051 -0.26554877 -1.2863828 -0.7027278 1.548343
贤 -1.4634855 -1.431084 0.27400145 -0.12280674 0.01882033 0.37460023 0.07728261 -0.30512285 1.832289 -0.11041056 0.114988774 0.74191135 -0.25099158 -1.1405315 -0.4896602 -0.4639293 -0.2645175 0.19631064 0.26380306 -1.0810665 -0.59200937 0.022935554 0.2568623 -0.23938031 0.025925038 1.362843 -1.0596192 0.003121664 -0.19186567 1.5617733 1.5355254 0.11943088 -1.43051 0.614576 0.95154035 0.49890706 1.1712236 0.8249334 -0.049130004 0.17960599 -0.64489293 -1.0431426 -0.2587573 -0.7307964 0.5088434 -0.2815131 -0.22392261 -0.13141008 -0.071424045 1.1703285
思 0.08974333 0.30186078 -0.721066 1.0537555 -0.6542323 1.1934566 -0.26025933 -1.0549176 -0.29164517 -0.08240268 0.76727265 0.7369932 0.08402247 -1.1682264 -0.96937 -0.32593712 -0.86539966 0.3103436 -0.31620368 -0.7333534 -0.082467735 -0.2584698 0.27769557 -0.70039093 0.83518165 -0.29829085 0.05240783 0.2885278 -0.059596222 -0.8836362 1.8118408 -0.76090324 -0.74832 1.444644 0.47488093 1.2348984 -1.0301166 -0.79019314 -1.0577685 -1.1099045 -0.53941464 -0.12260545 0.17701176 -0.21149306 -1.3071964 0.4172086 0.13628824 0.38744807 -0.87521154 0.37729
齐 -0.48253617 0.07053614 -0.52520597 0.77666235 -0.08396176 1.1694007 -0.56851274 0.61388916 2.8875067 -0.426066 1.8899367 0.31750113 -0.268167 -0.85575867 0.79507846 0.12115859 -0.7741036 1.3463748 -0.7059219 -0.7129995 -0.3523615 -0.8154918 -2.0915723 -0.57667524 0.64021635 0.2662884 -0.80856025 -0.9813653 1.3504465 -0.6938858 0.65479803 0.7295743 0.5181937 -2.3727238 0.24330895 1.7339569 1.077882 -1.2596191 0.5247503 -0.2290179 0.080801785 0.136091 0.44702086 0.81601334 -0.2933257 -0.9468593 0.43814152 0.952149 -0.12471146 0.12922072
义 -0.13344549 -0.061717857 0.22895642 0.11671674 -1.2597377 0.82660997 0.08990631 -0.63303703 0.8715611 -0.38763088 0.39846677 0.7026313 -0.08482216 -0.33886656 0.08567475 0.0605244 -0.96733403 -0.052504875 0.11342866 0.023838062 -0.34043714 -0.54062647 0.032310847 -0.34944737 -0.018458514 -0.31847057 -0.10934889 0.099315815 0.32104948 -0.49027672 1.1016017 -0.3007364 -0.110986985 0.27781662 0.49662054 -0.094246015 0.21610965 -0.040211134 0.19224037 -0.037962098 -0.09675059 0.12434967 -1.1890517 0.028817806 0.15878639 -0.67660046 0.0571677 0.1943744 -0.041578043 0.6170923
正 0.9518683 0.12937093 -0.8390166 0.46474564 0.46012762 0.342726 -0.80320233 -0.42303362 0.37002656 0.6659912 1.5797585 0.013876742 -0.5754524 -0.991966 -0.7922809 0.65591 -1.0253329 0.04391444 0.4323021 -0.5097644 0.2689134 0.8721687 0.01617888 0.1504925 0.37135667 0.36916855 -1.1453918 0.20248152 -0.34686813 -0.41122326 1.3776836 0.5477936 0.07132976 0.16326283 0.18650094 1.8194697 1.062604 1.5980401 -0.041640803 0.23376027 -0.38401031 -0.543281 -0.865189 -0.15036078 0.0028825686 -0.093805596 -0.9051343 0.42357028 -0.6577091 0.80457187
命 -0.11305458 -0.56375146 0.051205665 0.79568034 0.07551369 0.02532887 -0.6367413 -0.75212777 0.107888855 -0.42663446 0.81945604 0.61772776 0.12848373 -0.5318928 -0.53623575 -0.564851 0.02526064 -0.50460464 -0.08459329 -0.21104972 1.2712839 0.09502258 -1.071375 -0.93310004 1.9926233 -0.459676 -0.29521272 -0.30574438 0.17482528 -0.8170607 3.3601828 1.0876356 1.4288003 -1.0179638 -0.18879695 1.1764368 -0.6714472 -1.2431333 -0.48091185 -0.64892596 0.1467848 0.30023223 0.33167925 1.4661193 -0.57905143 -0.3281075 -0.6323155 0.051350508 -0.6274589 0.64553285
曾 0.9558494 -0.69646555 -1.0476441 -1.2003831 -0.7331706 -0.8993837 -0.23854177 -0.93423265 0.76349926 -0.66760814 2.3140671 1.0300437 -0.97795224 -0.7492887 -1.2097793 -0.25767875 0.03212067 -1.2095432 -0.28063616 0.4671686 -0.60285395 0.20977555 0.39590967 -1.0292599 1.2279874 -0.444411 -1.2736186 -0.21856654 -1.1620085 -0.31571603 1.6673673 -0.5032817 -0.41721365 -0.78154874 0.25717643 0.8748857 0.9382639 0.87681705 -0.12174449 0.030559698 0.7096627 0.68261856 -1.5358939 1.1302933 0.5859345 0.5183564 -0.4156335 0.52133936 -0.58346766 1.2193977
伯 0.5746673 -1.3399268 -0.13291651 -0.6125806 -0.82227254 0.2644811 -0.41778174 -0.1399932 0.5783449 -1.5877581 1.2061605 1.8505474 -0.10090451 -0.7200453 0.8299504 0.009805724 0.3546991 0.7462215 -0.5661208 1.1629245 -0.6727332 -0.41242084 0.6782948 -0.44215003 -0.1051869 -0.8557911 0.09595894 -1.8402283 0.100159496 -2.0062134 -0.4341586 -0.49957842 -0.33098713 0.45833915 0.36757052 1.283234 -0.7391772 -1.0535996 -0.1569286 -0.26029697 0.9558204 0.2948802 -1.2662568 0.05520585 -1.179727 -0.59153616 0.72695184 0.64347446 -0.23017982 0.5993094
门 0.4832756 0.3267901 -0.3197313 0.07970497 0.4274049 0.20352168 0.1430798 -0.2757897 0.6690352 0.48469228 0.38787013 1.0502303 -0.05054759 -0.4918056 0.35983327 0.38758242 -0.1481932 0.16839063 0.20210418 0.85256845 0.52006215 0.47075608 1.3836302 -0.3806401 -0.8469886 -0.34171122 -0.49451727 -0.18197688 0.04646133 0.2551282 0.68741465 -0.21338926 -0.0008190303 -0.0814693 -0.11779035 0.7441752 -0.10507314 -0.04870428 0.0949007 0.32479432 0.4939742 1.4699597 0.025881711 -0.28090364 0.20891863 -0.47189587 0.5870366 -0.5975672 -0.24031004 0.10614327
敢 0.0123414025 -0.7550092 -1.1129361 0.2194693 -1.4710848 -1.7200242 0.97233826 0.027965408 0.4396208 -1.1094891 0.8652803 2.425916 -0.83809406 -0.31380036 0.11813731 -0.26817676 -0.6955467 0.24680646 -0.23757283 -1.5875357 -0.2611192 0.57876563 2.0105689 0.1841601 0.32009882 -0.92849046 -1.0416611 0.11778088 1.0824019 -0.89348227 -0.41500208 0.49703676 -0.05637627 0.67937106 -0.8940885 1.0284518 0.27275923 0.27386963 -0.5472329 -0.18604806 -0.23216456 0.50379544 -1.4252516 0.05949418 0.10533306 0.22631392 0.46362868 0.509694 -0.39847675 -0.16654381
犹 0.8024684 -0.0051792837 -0.66661656 -0.60881203 -0.60307634 -0.011655582 -0.27805758 0.9864337 1.0367824 0.274078 1.0441041 0.40166762 -1.0276446 -0.16326419 -0.05460613 0.60803556 0.47090358 -0.8364024 0.13129975 1.623271 -0.6858511 0.04850792 1.0403868 -1.1315553 -0.6102697 -0.4724103 -0.22379704 -0.3288658 -0.4022332 0.27680492 2.6220996 0.80952924 -0.35768303 -0.25648433 -1.0680319 0.9475782 0.15108743 0.681768 0.13287807 -0.16027483 0.07015667 0.9966289 -2.1556208 2.4612954 -1.1315194 -0.5554353 0.29963973 0.9840891 0.06772677 1.6578933
生 0.2782993 -0.68308944 0.32864493 -1.2640575 -0.90632826 -0.37477368 0.6568509 1.9289696 -1.3657426 -0.019071901 -0.0049340255 1.5771703 -0.07623318 0.46382982 -0.66491205 -0.30802697 -0.49038756 -0.61617076 1.0266706 0.724102 -0.99980855 -0.10808333 0.57131374 -0.3521856 -0.13634011 -1.043156 0.9081111 -0.2745904 0.6928915 -0.7730016 0.6171035 -0.59202194 -0.7927188 0.6506746 -0.57042354 1.2875834 0.38060907 0.14924188 -0.25526503 -1.2228808 -0.20640692 -0.9297355 -1.1861856 0.58872825 -1.7332582 -0.7553658 0.6854172 -0.10121202 -0.97425133 0.5999447
日 -1.1433854 0.897971 0.55859786 -1.8501489 -0.86166793 0.6090644 1.031297 0.71728146 0.13313276 -0.06472181 -0.43212944 -0.89700586 -0.47084022 -0.7311671 0.23243819 0.15161045 0.7871865 0.2911231 0.2561692 0.55789745 -0.40741065 -0.2936182 1.588507 -0.6056142 -0.5587204 -0.6863679 -0.52261555 -1.7080947 1.2958685 -1.6199744 0.1659375 0.14354724 -1.2385249 1.2622635 -1.5142213 1.0697011 -0.26289624 1.9729909 -0.4309101 -0.013290706 -0.27445948 0.4181934 -0.90905404 -0.5005925 -0.3170909 -0.96534973 0.698312 -0.5193883 -0.1842553 -1.9449966
敬 1.59355 0.5972732 0.31569895 0.70002913 0.5271907 0.13757059 0.9890022 0.8950817 0.19877891 -1.4075342 0.44159207 0.15819225 0.50660926 -0.60652095 0.49918967 0.57489115 -0.8681423 0.0513436 1.2894553 0.037856262 -0.49397105 -1.1433153 0.025908012 -1.0498024 -0.6345977 -0.20524289 -0.53642 -0.30788186 0.09306493 -2.0898554 0.86674196 -0.5537594 -0.3195191 0.52481383 0.5509743 0.297164 -0.7124453 0.15043369 0.28992376 1.0795264 2.0549743 -0.29621333 -1.2357069 1.0234438 0.14738855 -0.53639084 0.11245148 1.0091219 -0.0360095 -0.65473574
难 -1.6612726 1.1493102 1.267428 0.431863 -0.088022545 0.28388444 0.7711288 0.8024885 0.5319237 0.9173457 1.5665689 0.3970641 -0.7175469 -0.47465038 1.0955675 1.0559133 -0.02883275 -0.42063335 0.5043943 0.13591062 -0.7181346 -0.29244113 0.37240744 -0.85956454 -0.84777564 -0.25872904 -1.9845635 -0.16947362 0.76047033 -1.2201942 -0.11384415 0.32530612 -1.2114229 0.13869353 -1.237962 2.022355 -0.19610696 1.6003402 -0.93609846 -0.09966825 -0.33782354 -0.0065718386 -0.34914434 1.1252193 0.0060924934 -1.3049577 -0.19871722 0.49894002 0.59038824 -0.33728606
直 0.14498892 -0.3972495 -0.2505735 -0.58001125 -1.112252 -1.140142 0.79390144 0.03667192 0.4441605 -0.0938699 1.8462797 -0.44760478 -0.9544229 0.84395206 0.04591149 -0.051462676 -0.89939654 -0.51768327 -0.22777218 1.13209 -1.2603433 -0.9132291 0.5041011 0.22853518 -1.4547287 -0.06068104 0.10119926 -0.44623345 0.05978012 -1.9564873 1.0665983 0.8089702 -0.963465 0.5082682 0.13894074 1.0684032 0.89242035 -0.16224575 0.29364294 -1.7039002 -1.5924411 -0.34897855 -0.93147373 1.371568 -0.46806794 -0.6847869 1.0526003 1.8873208 1.1378034 1.2234652
丧 0.040407304 -0.4381644 -0.6315212 0.07425784 0.093465135 -0.43837407 0.3580099 0.17960761 -0.26662174 -0.53860575 0.13610916 0.5383377 0.13937774 0.0712857 -0.38511518 -0.1833966 -0.27611402 0.057494782 0.27673316 0.23646289 -0.27548453 -0.056235805 0.06765555 -0.28412676 -0.06829621 0.05258799 0.02104214 1.0990862 0.17410223 -1.0387216 0.27672458 0.26655704 0.092290826 0.06490776 0.73131776 0.26470706 -1.0860887 -0.040603004 -0.92211765 -0.3742996 -0.71333885 -0.34296262 -0.2508515 0.24998751 -0.2814683 -0.43662798 0.0011706173 1.0942202 0.11014423 -0.029574838
说 -0.04615095 0.70834756 0.20503844 -1.0717047 -0.23923598 -0.18844676 0.1763062 0.84285825 0.71012187 0.10130656 0.24219488 0.5178895 -0.14990272 -0.729719 0.6037899 0.60956156 0.08775311 0.120283544 0.21547791 0.42104226 0.31303152 -0.25489664 -0.10231092 0.29869854 -0.25879747 0.37462276 0.34196883 -1.0418308 0.11830225 -0.23603323 0.40020072 -0.6603323 -0.34884495 -0.11196819 -0.6859852 -0.76795477 1.1654278 1.9641603 -0.70087516 0.77053183 -0.6365399 -1.2112254 -0.11467694 -0.24661139 -0.028491678 0.15734483 -0.08891398 0.88903403 -0.65922946 -1.1228225
自 0.66852254 -0.02809314 1.5331997 0.04827237 0.73249215 -0.30646873 0.124179825 1.6820674 -0.21111816 -1.61101 0.119415075 -0.0535207 0.30311766 -0.5013264 0.8551597 0.36711726 0.9810042 1.0738631 -0.41644692 -0.024599373 -0.8057503 -0.99023026 1.1331023 -0.023940878 -1.3999865 -0.991081 -0.42969844 -1.5983666 1.4896725 -1.2985607 -1.9512501 -0.2586755 -1.1111189 0.3725568 -0.49118587 2.091354 -0.8347902 0.3685158 -0.3852882 -0.065013334 -0.45494598 0.3971968 0.118106276 0.5098888 -0.2885983 -1.3841044 -0.88249195 0.3536586 -0.78387785 -0.6938572
用 -0.588903 -0.8758253 -0.45628655 0.11361616 0.61178094 -0.4562562 0.23756963 0.9381228 0.2921023 1.2735747 -0.43537688 -0.36403528 -0.4664935 -0.12670103 0.47095457 0.5499369 0.65234715 0.28672916 -0.0812276 0.11162987 -0.44753194 -0.4673165 -0.20734167 -0.6075988 0.14267477 -0.25552127 0.05273153 -0.051125776 0.2300269 -0.8539662 -0.8182001 0.30778092 -1.1186771 1.54861 -1.0868709 1.1577176 -0.62468857 0.3442992 -1.4522756 -0.83035153 -0.023468848 -0.9191904 -0.13076934 -0.15543963 0.42643893 0.15384977 0.32066178 0.80431724 -0.25311136 0.24491565
周 0.18767956 0.41128367 0.4066691 0.011717141 0.9168638 -1.3842875 0.6258099 0.23452705 -0.102994956 0.054728 0.41528386 0.02973361 0.0707971 -0.38354933 0.9081536 0.44795176 -0.95757884 0.41607735 1.6610813 1.9860967 -1.2306559 0.42168605 0.7067098 -0.11887173 -0.5879409 -0.8127489 1.6158816 1.449948 0.6300188 -2.4374642 1.2352059 0.29024535 -1.2859039 0.44008285 0.03919624 0.7373975 0.16350628 0.4708086 -0.03606128 -0.41161427 -0.717959 -0.93771803 0.24310872 0.19152044 -0.35728908 -0.70854163 0.12329792 0.69346654 1.4282417 -0.41668424
颜 -1.09756 -0.73610395 0.7078549 -1.4859878 -0.6527098 -0.39784655 1.7298497 0.6382096 0.30722615 -0.039307892 0.025403762 0.3678567 -0.096383564 0.1614948 0.38318336 0.42949128 -0.381192 -0.27107522 1.1409333 0.4626193 -0.70956707 -1.1866966 0.40165254 -0.48483655 -1.1989924 -0.14059268 0.45019513 -1.875381 0.97800756 -0.31747305 1.1064634 0.79712784 -0.09850436 0.7108359 -0.1690873 1.135153 -0.6668843 -0.4359775 1.2215978 -0.26677814 -0.32544237 -0.970191 -2.056519 -0.07204283 -1.0413095 -1.1757131 0.008074137 0.6386069 -1.0603491 -1.8172113
年 0.09718317 0.96610767 -1.1474484 0.6489474 -0.11507507 1.1562035 0.26398155 -0.23788975 -0.95745957 -0.12529543 0.72187567 0.3562742 -0.42851144 -0.4215801 1.3076648 -1.4549533 -1.259121 -1.3654486 0.3462793 -0.37287563 0.49474612 -0.90518814 0.22840269 -0.17738971 -0.3233602 0.72282726 -0.113311194 -1.3590069 -0.6331584 -1.3840426 0.78894323 0.09290629 -0.8044811 -0.16111106 -0.52055615 1.1719687 -0.326913 1.5375758 0.72563446 0.112751245 0.55320036 -0.31847262 -0.94051355 -1.1606681 -1.1951396 -0.5225462 -0.73956436 -0.2592036 -0.9021244 -0.10532669
告 -0.4900171 1.0567344 -0.44243416 0.15360393 0.5042231 -0.23977852 -0.45763502 0.9249051 -1.0347091 -0.4504848 0.3521287 -1.1905143 0.15281619 1.0201237 0.9979491 1.0981092 -0.60467964 -2.186334 0.8535259 1.1720691 2.3062844 0.3727951 -1.4086663 -0.019428661 -0.46920797 0.67907363 1.22347 -0.05012218 -1.2517294 -0.9905728 2.774494 -0.35684276 -0.0030161862 -0.9074702 -1.3789629 1.5283244 -0.12067987 1.0407646 -1.588621 -0.2844339 -0.006633777 -1.4588386 -0.53028446 1.1478568 -0.8825235 -0.34758696 0.035354614 -0.24617696 -0.5451937 -0.060710557
十 0.08460894 -0.44661552 -0.14446256 -0.76504683 0.74060065 0.78983796 1.0518233 0.35298538 0.77226293 -0.61951023 1.0266062 -0.5566011 -1.0515007 -0.4441665 -0.058041524 1.549345 -1.0146222 0.34330195 1.3483008 0.35528833 -1.407923 -0.98986244 0.35609448 1.0263872 -0.72110116 0.6220046 0.16770738 -1.0045962 0.5008547 -1.1765596 1.6557362 0.58623606 -1.1924862 0.7936266 -1.6757163 1.5588005 0.022190146 0.622335 -1.3172346 0.3112112 0.15250205 0.37657562 -1.77765 0.37994802 -0.5834767 -1.0410333 0.29825094 0.9907918 0.07355306 -0.3431708
怨 1.3473295 1.4375712 0.10104322 -1.802343 -0.2510563 -1.0158916 -0.08513211 0.6005366 -1.1674993 -1.1722215 1.1331178 0.47492456 0.18533874 1.0957576 0.3010758 0.67899925 -0.2560457 -1.3651947 0.07142782 1.7860764 -0.53835225 0.6671352 0.18305567 0.65093315 -0.8388001 -1.2684705 -0.040648293 -0.12423831 0.46615115 -1.119863 1.6759496 -0.29349506 -0.88119376 0.31389385 -0.57305104 2.0973647 0.5422971 -0.671765 -0.6136891 -0.075360596 -1.2001965 -0.6781135 -0.7218045 0.52558315 -1.0817859 -1.3168931 -0.23012495 0.35057074 0.5131782 -0.6332196
达 0.926725 1.5838355 0.08405669 0.9263795 0.2315585 0.3783921 0.33712062 0.16737904 1.1339431 1.1654329 0.45691517 -1.0098656 -1.0019557 -0.9342449 0.33499777 -0.43845868 -1.5145621 -0.4968498 1.5304879 -0.2360851 -0.5553185 -1.0337852 -0.588402 0.67606866 0.29779202 0.7213136 1.5614976 -0.7182479 -0.8445032 -0.8432263 1.9150057 1.2021911 -0.988846 -0.13324004 -1.7873001 1.7400936 0.86642146 0.79052174 0.78611594 -0.2907129 0.3120451 -0.90097433 -0.19967127 -0.011465235 0.652069 -0.99127907 -0.06712219 -0.7057721 -0.274933 -0.94068223
孝 -1.208249 1.2341859 0.43862686 -0.61918586 -0.5076006 0.64281017 -0.21563478 0.3189333 1.4216843 0.6757998 -0.27459037 0.11356701 -0.84138846 -0.40815443 0.16594689 -0.061529938 0.36875015 -0.30439228 1.6308016 0.11766196 0.5830649 -1.8725257 -0.09863404 0.4272303 -1.1584145 -0.06291533 -1.0320493 0.35800123 0.6306708 -1.216567 -0.17006916 0.54653233 0.0014076422 0.72679687 -1.5192931 0.28757718 0.6400352 1.2683591 -0.75266784 -0.08448993 1.0445169 -1.4565758 -0.52730685 -0.031516403 -0.25967926 -0.71521354 -0.5431669 0.041875847 0.4672888 -0.2431157
弟 0.16412811 1.3645021 1.3975955 -0.017784974 -0.7859141 0.14756383 1.0285114 0.35873076 0.69196546 0.64497584 0.36515266 -0.7750152 -1.0455259 0.07949567 0.2547047 1.355791 -1.3385519 -0.36232 -0.36132655 0.10299002 0.10164941 -0.62802166 -1.111888 1.471169 1.140702 -0.025399987 0.28656176 -0.93347526 0.9975156 0.49230805 1.4586256 0.75887597 -0.7992273 1.3902833 -1.0228592 0.037741505 1.6217502 -0.78167546 0.3935203 1.3893214 1.1991602 -0.7747784 -0.84344363 0.8318126 0.72062385 0.6550937 0.22719346 0.93443555 -0.53983784 0.2833505
至 1.4019043 0.12110066 -0.81534255 1.23037 -0.20048067 -0.7560632 0.6372495 -0.3018252 0.9991758 -0.37199876 0.41109398 -1.0516407 -1.7351105 -0.7484605 0.28475115 -0.8784237 -2.4664109 -0.6468092 0.2578651 1.050257 -0.28176332 -0.319969 -1.1307979 0.9328796 0.8031152 0.8197218 0.31922013 -1.1256548 -0.56814975 -0.29527655 0.16162011 1.8279037 -1.5884202 1.5873022 -0.3042448 0.6029217 0.52410436 0.9299178 -0.8009371 -0.7501222 -0.106952935 -0.23676175 -1.4144546 -1.2454705 -1.2498229 1.3425635 -0.19822165 0.22495963 -0.4941953 0.61381865
先 0.31713226 1.0292463 -0.8914263 0.23382543 0.1059617 -0.5237682 0.44624758 -0.40541142 1.0414267 0.9536541 0.7630617 0.6359179 0.31100738 -0.40293583 -0.11634002 0.198261 -0.95047843 0.68396276 0.5710426 -0.2988469 -0.25821015 -0.6327552 0.3799992 1.4729512 0.6244756 1.0345548 1.1048894 0.7772776 0.06973206 -0.22998968 0.6082605 1.7031547 -1.5174894 1.6088955 -0.27351585 0.30418167 -0.8337078 0.5642946 1.460355 0.059798695 -0.8194671 -0.007450268 0.062257603 -2.252647 -0.9573029 0.78282744 1.653523 -0.5925701 0.686555 -0.025355654
师 0.60767734 1.2523047 -1.1513461 0.51984674 -1.0064198 0.25753692 0.6577557 -0.70701027 1.1143385 0.769216 1.1273807 -0.35132676 -0.33632368 0.09022107 -0.36171734 -0.14313887 -1.9759916 0.6449846 2.246482 0.49853846 -0.22300316 0.3039278 0.30257115 0.867515 -0.26217252 0.6326765 -0.7321489 -0.27174056 -0.81205434 -0.252872 -0.5317374 0.15274 -1.3776127 0.25754395 -0.15647274 -1.5388082 0.27246025 1.1637882 1.1426237 0.090125434 0.2533797 -0.6622872 -1.093489 0.057276506 -0.14192739 0.09634552 -0.039797798 0.31775016 0.7518716 0.21878576
女 -0.108210854 0.26010913 1.0924593 0.9893135 -0.036968447 0.15354264 -0.4045075 0.15940656 1.707978 0.64050657 0.11162828 1.4224404 -0.5024285 -1.6230625 -0.03502103 -0.6621647 -0.5202768 1.4771843 0.5517814 0.506888 0.2718277 -1.04828 -0.11546387 -0.24533935 0.24389705 1.2292415 -0.13254756 0.15285487 0.22274034 -0.062251452 1.2248716 -0.94242615 -0.36309886 0.30082607 -1.2613426 -0.2615722 0.25081268 -1.3039461 0.3293415 -1.628505 1.2110667 -0.4277427 0.3101555 -0.5853193 -0.21110974 0.55072683 0.47849244 0.09173885 -0.37746766 -0.107167855
多 -1.0563041 -0.76270014 0.76811385 0.504363 -0.7566153 -0.59969765 -0.29486963 0.6670464 1.274208 -0.42995644 0.18249011 0.35387534 -0.49356827 -0.13459708 -0.673308 -1.0403384 -0.2490635 1.073813 -0.4879335 -0.18784668 -0.25584808 -0.5854296 0.52392673 -0.3400285 0.6333037 -0.682395 0.053823907 0.9850449 -0.64236844 0.39868948 0.19785807 -0.547166 0.43162325 0.71976465 0.4977604 -1.0312586 0.53782606 -1.5243288 -0.23089865 -0.8394503 0.66378427 -0.79724306 -0.11032163 -0.019307407 0.16802394 0.058625996 1.8974644 1.2271405 -0.5467279 0.55245054
忠 -0.55404466 0.09088655 0.786586 0.11973002 -0.23796666 -0.07719296 0.86877024 -0.71212286 1.9317136 0.17335048 1.7259133 1.3052444 -1.1140716 -0.20454572 -1.738829 -0.6536851 -1.3761472 0.8760143 -1.6000019 0.6166373 -0.17353189 -0.839868 -0.70704013 0.6426932 -0.64468455 0.5711835 0.4960516 0.0025430133 -1.3193854 -0.19718634 0.38714096 0.60300016 0.09298675 -0.21445866 -1.2155337 -0.69734955 -0.76700026 -0.7426318 -1.567006 -0.24602123 0.4192413 -1.2284435 -0.06363315 0.99350005 1.5831761 0.010973496 1.4063271 0.046580303 0.94326437 -0.8461675
四 1.2418033 0.010616664 -0.43642 1.3000686 -0.18641542 -0.88824576 -0.18959224 -0.30123 1.3041518 0.5510294 1.7081823 0.53445774 0.19198583 -0.2908766 -0.79497415 0.22537963 -0.4181183 0.6115519 -0.6824345 0.5568016 0.15134926 -1.3853422 -0.074756324 -0.70439094 0.21651094 0.2681118 0.5205779 0.43162617 -0.27337447 0.44047463 -0.24541229 -0.24164063 -0.2281186 1.1560324 1.0903994 -0.27903995 0.4967851 -0.5072741 0.08829096 -1.5014797 0.673428 0.3122982 -0.16066438 -0.24770464 -0.02375228 1.6451358 -0.1538771 0.70467865 -0.6298209 0.40460438
疾 -1.9075214 0.065690935 0.30187294 0.71037525 0.26486754 0.6968541 -0.95421654 0.9816792 0.917556 -0.62779766 0.9301979 0.7442108 0.12807839 0.41069967 -0.6050659 1.0270302 1.1795152 1.4684496 -0.80752623 -0.982682 0.53684807 -0.93140686 -0.47883615 0.21995823 0.7104912 0.2698992 -0.34150663 -0.16528924 0.14123924 0.6834555 0.6105381 -2.1474047 1.4280317 -0.7421512 0.5942093 -0.47880182 -0.6639931 -1.0146271 -0.45755708 -0.28345886 0.76262546 -0.7700888 0.6862991 -0.3950481 0.32530308 -0.2117752 1.335974 0.49926 -0.95339775 -0.5255504
服 -0.12045494 0.08768809 -0.7585956 0.35310656 -0.8770521 -0.12891166 0.33015934 -0.8789414 0.2541127 0.29240462 -0.57832456 0.9279814 0.13542143 -0.5061823 -0.2221985 -0.081511706 1.4370143 0.76362675 0.7556322 0.59298396 0.012195389 -0.46667972 -0.3814156 -0.61253816 0.55010676 0.15810192 0.46506497 0.35747212 0.13992882 0.35346174 -0.35774752 -1.0401628 0.7763664 1.1434683 0.6828111 -1.1389138 -0.33898413 -0.7773576 0.55444986 -0.49569735 0.8994669 0.76084405 0.8442882 0.7792375 -0.30004334 0.7887503 1.0884188 0.046873953 -1.0489515 -0.69001937
氏 -0.81247616 -1.2656603 0.7133598 0.59567976 -1.2313179 -0.43971452 0.7248349 1.5440576 1.2318728 0.62383336 -0.36011449 0.7495468 0.91969645 -1.0309482 0.7323955 1.0947431 0.97540945 2.0208702 -0.6916124 -0.29684183 0.31121305 -0.6739016 1.2181596 -0.05385356 -0.7276432 -0.9280334 0.88325 0.28128222 0.36916995 -0.029293941 -0.91830313 -1.7336698 0.7663171 0.5053715 0.2802643 0.22585917 -0.9728722 -0.26308975 1.0520111 0.054761697 1.6684017 -0.042251963 -0.16076413 0.7215782 0.8326411 -0.2460192 0.20669186 0.15025364 0.059822198 -0.22978954
冉 0.59976435 -0.6909464 -1.1469886 0.33847955 0.46983513 0.72222674 -0.7892111 0.41701686 -0.45677337 -0.7715961 -0.5683883 -0.14924097 -0.024861014 -0.18739012 0.12605089 -1.4673355 0.3624312 1.1376402 0.24280348 0.20624028 1.0731676 -1.8469567 -0.18862726 -0.121807754 -0.07069223 1.1111656 0.04731274 -0.62506783 -0.7651237 0.2921451 0.069271035 -1.1398209 -0.014349194 0.6955934 -0.2661571 -0.21037182 -0.4059742 -0.52698386 -1.548632 -0.27076453 -0.6427606 -0.7957546 -0.031851713 0.94137746 -0.12831734 -0.63970953 0.024098283 0.33920196 0.6907863 -0.106528684
将 0.90630186 -0.5341666 -0.87714946 -0.25903478 0.09102107 0.94416356 -1.1550127 -0.40168768 1.0254128 -0.8087443 -1.1465383 -0.7025122 -0.92540085 -0.6690701 0.20190518 0.28138655 0.8076496 0.6348058 -0.7491782 0.26827356 0.59699076 -0.22728834 -0.33772454 0.4789178 0.14219598 0.61961174 -0.6064705 -0.3864761 -0.24769409 -0.24348532 -0.54052275 -0.4841775 -0.6710954 1.1823704 -0.2254345 -0.013127907 -0.58295614 -1.1473668 0.10644101 -0.030677343 0.6415952 -0.029761607 0.22616245 0.6064741 -1.3533033 -0.06311511 0.33972356 -0.7165973 0.13851237 -0.02888896
士 0.25822875 0.06134343 -0.4251697 -0.04305638 0.66022146 0.44151986 0.14446363 -0.3825468 -0.30688065 -0.993209 1.2933208 -0.0447938 -0.21164133 0.48739815 -0.109350264 0.26106805 0.5750516 0.57703716 0.41270986 0.35908672 -0.43755415 -0.13872443 0.7022621 0.04985699 -1.8751645 0.23482038 0.0834497 -0.22628133 2.3975956 -0.62370783 0.26735246 -1.9516646 0.1637255 -0.65522367 -0.22877234 0.049563 -0.9059316 -0.5742557 -0.7727817 0.8211759 1.1123745 0.54942006 -0.2669329 1.102634 -0.5695217 -0.67804116 0.77908456 -0.86980957 0.21741666 0.3450373
丘 -0.18130617 -0.4572023 1.443205 -0.062556304 0.6842612 -0.39397514 0.07811073 1.2529637 -0.45033696 -0.41740975 0.8654129 0.8914567 -1.5973969 0.16428187 0.48808032 0.83596635 0.35298562 -0.13522398 -0.32763696 0.4083168 -1.0009078 0.09802416 0.15524314 0.41548413 -0.58180666 -0.29606223 -0.4296689 -0.13134639 0.44829 -0.9915836 -0.6208676 -1.5355047 0.1849646 1.1144416 0.22659445 2.3326993 -2.322289 0.20194714 -0.84300065 1.7084177 0.59845364 1.5160502 -0.20723376 -0.26591694 -1.4103559 -0.031513095 1.8862162 0.4703849 0.3898286 1.382261
身 0.5426524 -0.17841098 -1.0468698 0.13981152 1.080233 0.65618694 0.49775344 0.382874 -0.6921217 -0.6240415 0.3393768 0.42355472 -0.62018067 -0.2396892 -0.9558768 0.8815922 0.82007056 -0.2143666 -0.21400012 2.0255642 -0.9967636 0.6147234 1.0374347 -0.2967372 -2.1498904 -0.14164795 0.0872978 -0.81965715 -0.20478334 -0.7296875 -0.3917458 -1.3439747 -0.7282499 -0.12849036 0.19329 1.5450011 0.18839309 0.63177663 -0.72274655 0.35868168 -0.76641566 0.00731621 -0.7846988 -0.6141068 -1.1281489 -0.43353307 -0.89455444 -0.2807365 -0.075108096 0.91155
入 0.43886074 -0.8549766 -0.096615076 -0.16973269 0.5944095 -0.6762136 0.44694757 0.06959821 -0.42909604 -0.9589274 1.1828232 1.5952121 0.6186306 -1.1031106 -0.06881426 0.39759028 1.2298244 0.039583705 -1.0624521 1.2625549 -1.1239215 -0.09850663 -0.6297332 -0.5543213 -1.2283452 -0.9089557 0.53000116 -1.1782906 1.5500181 -0.42789117 0.7052416 -1.9481686 0.17874117 0.06040231 0.72565365 -0.32113266 -0.46901357 -0.019160205 -1.1767294 0.101620145 1.1388947 1.019534 -1.1187242 0.40488002 0.18203221 0.51621276 -0.5010966 -0.56694764 -0.5102551 0.41649818
志 0.1934646 -0.9223468 0.329315 -1.8788333 0.4543176 -0.35203853 -0.052642096 -0.15103509 -1.1376381 0.08966193 0.16469212 0.855579 -1.3511732 -0.26653603 -0.6043396 0.80918634 2.4800274 0.6097457 -0.6959101 0.52839464 -0.45776036 -1.4974238 0.3287252 -0.7696367 0.20176573 0.66201407 0.09227237 -1.3873943 1.1776245 -1.2639085 -0.55771685 -0.7836952 0.82505745 0.5696855 -1.5174886 -0.5403498 0.41074136 -0.3839626 -0.10165775 0.52775115 0.37250742 -0.74726206 -1.0485679 -0.93898225 1.1551205 -0.70652074 -0.49622616 0.5004588 -0.29848728 -0.7669617
耻 -0.38772634 -0.59001756 -0.11223357 -1.0281273 0.11397278 -0.7131538 -0.58195776 0.7944766 0.4430975 -1.281316 -0.00020988345 0.7579404 0.8116545 0.3655896 -1.0558791 0.49366978 1.1136065 -0.90410626 -0.8289542 -0.091175534 -0.13453668 -1.0752903 1.1031367 -0.8710416 -0.92122287 -1.3044113 -0.34122238 -0.6174645 0.7734474 -0.733112 0.6864149 0.49270916 0.053554572 -0.8901566 0.109548934 1.5666516 -0.33211613 -0.7656434 -0.1909571 0.6637349 1.6446338 0.65461975 -0.1833369 1.0150372 0.079611436 -0.01991538 0.7253487 -1.1310642 0.18530338 0.54815245
失 -0.79327065 -0.74419737 -0.49077827 0.47747394 0.27933833 -0.7651884 1.1959862 -1.1819519 -0.10579024 -1.2436297 0.3935414 0.086016856 -0.17048776 -1.3041799 -0.55084103 0.27319664 1.20756 0.06026601 0.24028756 0.062224973 -0.32958704 -0.6866297 0.24434629 0.19184218 -1.1217743 -0.3415107 -1.2254553 0.25863418 0.031887196 -0.07825115 -0.27200428 -1.2895526 -0.6171508 -0.12605073 0.33044815 -0.70786023 0.45427915 -0.34615946 0.42082036 -0.20288537 -0.24419908 1.0950447 0.3092662 1.8220472 -1.2717127 -1.4369649 0.7253053 -0.19889274 0.4938302 0.7655157
安 0.370013 -0.9771482 -0.95474464 -0.0026751724 0.14525433 -0.025118921 0.35813722 -0.040128786 -0.4854138 0.015681405 0.42357606 -0.0019580368 0.19743368 0.6151567 -0.4235443 -0.15598656 -0.71055907 0.1575154 -0.03842415 0.7236389 -1.4998097 -0.4206946 0.17746209 -0.03733185 -0.8485802 -0.11314777 -0.054835416 0.06885916 0.39568377 -0.52343065 0.338968 -0.508027 0.067645036 -0.37729284 1.3884933 0.287611 -0.29384995 -0.41891143 -0.33276552 -0.2171329 0.11260981 1.0440699 -0.2828207 0.62397164 -0.101410694 -0.28581876 0.6586697 0.087133475 -0.013964867 0.034107983
富 -1.1296117 -1.523898 0.49163043 -1.0163804 1.1413316 -0.072059266 -0.8909662 0.6766485 -0.4729535 -0.7240863 -0.023489662 0.20784582 -0.02972705 -1.2579027 -0.6828827 -0.08987957 0.9812562 0.38493913 0.1093102 -0.020337705 -0.36207056 -0.5488459 0.39725277 -0.7787994 -0.005627587 0.7414696 -0.35265377 -1.5644078 0.59045756 -0.1820774 -0.13116087 -0.49936497 0.7893272 -0.55402255 -0.40775234 -0.44747782 -1.2442385 -0.6536614 -0.49705893 0.44828793 0.3146017 0.19662595 -0.388003 1.2016019 0.75224227 -0.059863113 -0.39911392 0.4083975 -0.09492176 -0.15561995
赐 -0.14579737 -0.7881803 0.6258428 -0.89522314 1.3085114 -1.1899741 -1.4331703 1.9723219 -0.4625502 0.30992413 -0.19906265 0.10468913 -0.016477559 -0.8851119 -1.2305696 0.12470864 0.48775092 -0.3057508 -0.99173516 -1.5004779 0.92456263 -1.5573268 1.4496673 -0.83565897 0.94120646 0.61215806 -0.9635652 -0.7448644 -1.3210759 0.6952536 0.2041414 0.36991093 1.0668539 0.14458 0.278824 -1.0065013 -0.91736877 -1.2254429 -0.5389969 -0.6042374 0.94704795 -0.27229762 -0.38110197 -0.051566087 -0.46743047 0.5754709 1.7415359 1.0960506 -0.020784238 -0.26547554
患 0.57162726 0.33978727 0.81261975 0.5594985 0.6186294 1.4311951 -1.0554987 0.5748933 1.4752033 -0.13839518 -0.3008937 -0.3321676 1.1317381 0.38008505 -0.22667237 -0.24580957 0.44213152 0.0514038 0.6673342 0.8856914 0.88079745 -0.124714494 1.3025508 -0.7973315 0.7444557 0.45090163 -0.009817189 -0.45574135 -0.70147216 1.0778972 1.5488197 0.84769964 -0.31205574 -0.8759523 0.51827246 -1.2153263 0.37744862 0.6405478 0.17975146 1.2287606 -0.63208306 -0.3920707 -0.21173726 0.01819117 0.27232268 0.7282627 0.3094413 1.0515243 -0.1399099 -0.38358873
百 -0.34807906 -0.19775626 -0.47964913 0.8971157 -0.30610216 0.70523596 -1.3826026 -0.17154402 0.72251004 0.3267964 0.42431048 0.45271575 0.101912834 -0.43081042 -0.5586235 -1.3303721 -0.83230895 -0.9488177 1.1938398 -0.56910855 -0.008496914 -1.658482 0.4870196 -0.37292764 -0.23849756 1.539515 -0.8258547 1.0509756 -1.0313143 -1.5076388 1.3646336 1.2849972 -0.368601 0.7881264 -0.55809456 -0.75048184 1.0253617 0.6585996 1.9106075 -0.2603344 -0.34608078 0.06691146 0.18683244 0.67332435 0.6159529 0.2730931 0.2061758 -0.86799103 -0.187839 1.888822
回 -1.0122342 -0.41464546 -0.19737807 0.4495325 -0.2912497 0.9391553 -0.97986746 -1.0819958 0.3949654 -0.7142829 -0.33238682 -0.48665857 -0.5157691 -1.2172982 0.21396519 -0.26817477 0.4367537 -0.3819128 0.69778585 0.099420175 0.41890582 0.066969395 0.4019002 0.71967953 1.2678467 0.41573852 0.72434527 0.8719606 -0.30089542 -0.45443213 -1.139647 0.44751468 -0.21267778 0.4712165 -0.4725379 -0.5575009 0.5749004 0.31044692 0.5925086 -0.93307734 0.18418156 0.8961799 0.49584812 -0.031476296 0.29376885 1.2535062 -0.11519255 0.10408133 -0.54520226 0.76985276
宰 -0.22871517 -0.6113713 -0.48305297 -0.35326675 -0.079117075 -0.24305955 -0.47321454 -0.17541717 0.5403297 -1.2899606 -0.5468368 -0.6748402 -1.821693 -0.9617513 0.1754291 -0.31634244 -1.1264459 -0.6819587 2.8662753 -0.21893571 0.10325575 -0.010045369 0.5405603 -0.4731202 0.8296185 0.48174405 -0.3630784 0.7487861 -0.38001373 -0.39744413 -1.3199475 1.2840412 0.69144404 2.594058 0.9104107 0.2173192 -0.16638213 0.07562173 0.18618338 0.017636977 0.48064983 -0.8935431 0.090537325 -1.7744004 -0.4688408 1.4069022 1.4143232 1.0483979 -0.6434987 2.0257087
朝 0.24379514 1.0984265 -1.4427371 0.6503934 0.78751516 0.36123377 -0.6852614 -0.06442903 0.4935724 -0.18500546 0.33273983 0.6222415 0.9646188 -2.007995 0.23597676 0.8088234 1.1853528 -0.033407964 1.1988763 -0.5248531 0.88744444 0.5121806 0.82711023 -0.37307283 -0.55298024 0.4006463 -0.31075108 1.4583567 -0.5365496 -1.2265091 -0.08844665 0.25700963 0.88904536 1.0715886 -1.3203247 -0.45631063 1.2579422 -0.22342695 0.76468474 -0.78317416 -0.3172494 1.1396155 0.43699735 -0.9242407 0.9980469 -0.03170944 -1.312147 0.49436238 -1.2122571 -0.22359657
莫 0.039907873 0.8786594 -0.29670215 -0.517282 0.7478065 0.49467286 -1.1292809 -1.2795893 -1.3561803 1.4066199 -0.061636716 -1.3674253 -0.94838035 -0.77578413 1.1312772 0.56737715 -0.3687065 0.19029997 1.518449 -0.30077356 -0.67135864 0.2235186 -0.6097293 -1.1099541 0.26895016 1.2436612 0.9402147 0.80306345 -0.118438296 0.39707097 -0.75198716 -0.109643415 -0.18280606 0.23539688 -1.4768654 -1.9047912 0.571371 1.4054228 0.38534567 0.11522112 -0.5942302 -0.93097776 -0.95550764 -2.1223617 0.49092937 -0.12997137 -0.8323019 -0.6800085 -0.64114577 -0.2617053
若 -0.6772501 0.3294303 1.4100102 1.6976599 -0.4420866 0.05418743 -0.6891714 -0.87184566 1.1427219 -0.19202751 -0.99276155 0.47084576 -1.6687094 -0.1521234 -0.17268781 -0.00963349 -0.6278178 1.1799322 1.4493451 -0.2868855 1.2911817 -0.6324214 0.52508783 -0.4315051 0.06693314 0.27645233 -0.7609805 0.1893634 -0.6509769 0.14007038 0.07374905 -0.15306549 -0.7133381 0.820951 -0.6750022 -0.7557885 1.1989071 0.9866819 0.58425784 0.38639003 0.7648754 0.4371725 0.33764216 1.1842607 0.8749553 1.0455393 1.0220677 -2.0136735 -0.7535835 1.0889702
云 0.17179237 0.2589171 -0.049085062 1.6464945 -0.40488258 0.42950633 0.34161106 -0.89862144 0.21078275 -1.0483902 0.7121159 1.1444198 -0.81010324 -0.06314029 0.25093713 -0.52710027 -0.8348995 2.071559 0.17698136 0.7334499 0.24223535 -0.47868547 0.16997981 -0.57368004 0.41936928 1.1508454 0.0806755 -0.8438566 1.4706277 -0.7811705 -0.5266651 0.9547401 -0.52524805 0.6725525 1.2459908 0.7003183 0.6147601 -0.82000357 -2.0498514 0.549645 0.09457243 0.06699678 0.26177102 -0.8665625 -0.6391759 0.06398149 1.2639898 -0.7834352 -0.84081167 0.15203527
孙 -0.28724462 0.054727472 0.6756307 0.3844883 -2.9229898 0.44403785 -1.3407767 0.6489949 -0.029310491 -0.61944026 0.09729669 0.39090502 -0.5218864 -0.26130235 0.01304287 -1.1364464 1.3025522 0.66807675 -0.8520105 -0.9827359 1.31736 -0.16107108 -0.3807192 -1.0454415 0.2226194 0.5226075 -0.33118373 0.3687961 0.06957624 0.20221677 -0.77535725 0.7723619 0.023276035 0.12030115 -0.8754094 -0.32939646 0.71325433 0.62559295 0.8729919 1.2420789 -0.358516 -0.20922911 -0.055719625 0.035489623 -0.20144027 -0.28834212 0.05383812 0.51885897 -0.79551053 0.8938936
或 -0.5483316 -0.23181446 -0.03450421 1.4688898 0.39894432 1.1538546 0.4449736 -0.38776827 1.1421115 -1.0164351 -0.9467748 -0.7468777 1.2942173 0.13039431 1.2940872 -0.04789152 -0.20774011 1.2558794 -0.2540053 1.4079416 -1.6197784 -1.8587036 -0.717835 0.7388855 -1.1102471 0.86851954 -0.36157748 0.611908 0.7956785 -0.41699168 0.29982296 -0.9120977 -0.66244924 0.21729417 0.5273905 1.8197039 -0.05303847 -0.13711111 -0.19169214 0.14517449 -0.7540521 -0.23034683 -0.074834585 -0.07861215 0.6321123 -0.7700982 -0.88781846 -0.20821483 0.1927464 -0.39473614
勇 -0.9371271 0.59472644 1.383997 0.6067851 1.140409 1.1468538 -0.34744504 -0.09964424 -0.47440848 0.27664715 0.01919287 0.19906035 -0.4485402 -0.42956933 1.9049546 0.23611087 -0.2713533 2.5772157 0.4935588 1.6113634 1.0318935 -0.45499542 -0.43698907 -1.5867506 -1.0702399 1.5981394 -0.12792735 -1.7039576 -0.48228225 -0.24248712 -0.2939458 -0.5581922 0.42310435 -0.6156667 -0.33292732 0.76047766 0.21758166 0.66344804 -0.34983566 -0.6284163 0.5740235 -0.7018733 1.5620952 -0.25078413 0.41380072 -1.0649213 1.2983708 -1.0033765 0.37017387 -0.3375814
孰 0.1947055 1.0325252 -0.421715 0.5352104 1.8969201 -0.2912612 0.46934298 0.50118804 -0.47391686 -1.0645971 1.2015189 0.43986934 0.14173573 0.14409065 -0.37845922 0.78757393 -0.63291675 -0.13640445 -0.26720014 2.3105772 -0.54659617 -0.51997286 0.109215915 -0.81679195 -0.5328398 0.47120345 0.4242809 0.6926419 1.0647742 -0.41564798 1.132198 0.17813292 -0.8935657 0.32885733 0.062251978 1.89029 -0.081845365 -0.11082565 -0.7282092 -0.8880806 -1.1887355 -0.4644919 -0.86076576 0.46440595 1.5726177 -0.9358318 0.4722029 -2.3662016 -0.668154 0.022484478
叔 -0.46285075 -0.4052113 0.21653911 -0.52647513 0.12166324 -1.2094512 -1.6298667 1.1861923 -1.002613 -1.6546144 0.77836245 0.37124228 -1.0201387 0.84223866 -0.4374841 0.2899534 2.4647164 0.5455959 -1.5226622 0.111641586 0.08619506 -1.0068265 -0.34248137 -0.4191339 -0.6758628 0.9835353 -0.17590606 -0.29283834 0.70607364 0.1568552 -1.4150387 -0.3535028 -0.8335012 0.89404356 -0.84094155 0.6376568 0.6546116 0.37527013 -0.6587175 -0.48168316 -0.36279097 -0.19603053 0.27624172 1.1397098 0.43551454 -1.431215 1.8882201 -0.05639715 0.047168612 0.08208882
渊 0.19012977 0.32213247 -0.14442399 0.79570395 1.2679607 -0.3451562 -0.6369617 0.5050154 0.19985299 0.050118987 -0.38240162 0.655704 -1.3563236 -0.7063165 -0.9492798 0.77025795 0.14566618 -0.6714604 -1.8020245 0.5953176 -0.37281886 -0.08569544 0.70567244 0.6114066 -0.104621015 0.7763486 1.2233654 -0.006816664 -0.3309034 0.66222256 -1.0317495 0.16419365 -0.4426275 0.3992843 -0.68679017 0.7716525 0.99331826 -0.34979835 -0.989589 -0.48043075 -0.9594579 0.74328935 -1.4711896 -0.30343246 -0.42528367 1.3736491 -0.26546332 0.13005212 -1.2761756 0.7320013
方 -1.3378072 -1.8477093 0.42524922 -0.7329227 -1.1935095 -1.4395845 -0.36184198 0.53797275 0.9948802 -0.30195177 0.13060024 0.369779 -0.3762989 -0.3579377 -0.6547611 -0.47832504 1.029312 1.453782 -0.21908382 3.0216026 -1.1385012 -1.1804442 0.2727622 -0.79475915 -0.58407754 0.118629135 0.17487141 -1.1618756 -0.18248679 0.64547753 -1.7489346 -1.6272097 0.35850772 -0.027109148 0.4579369 0.21111293 0.36737192 0.70243263 -0.8928196 -0.6598054 -0.7003823 0.02073296 -0.4668785 0.17013584 0.3470281 -0.6569552 0.7624609 0.89452827 -1.1155734 1.0022601
乱 -0.31279138 -1.1336908 0.44272313 -0.34575048 -0.4205565 -1.1901029 0.2140274 0.7485034 -1.0080441 -0.6752129 -0.23094343 0.84783393 0.9322748 -0.30277503 -0.59146893 0.92551214 1.1455827 0.27693745 -1.1230361 2.3926194 -1.3946338 -1.4422415 -0.15323412 -1.4746791 -0.9531171 -0.37665975 0.36338133 -1.0250585 1.2462472 -0.5122428 -1.0078229 -1.3978571 0.047216646 -0.11853888 -0.10065643 0.9061215 1.4834076 0.8662715 1.210063 0.5325641 -0.74714893 1.0825864 -0.8159517 0.97768056 -0.31980684 -0.5320223 -1.0043515 0.4210282 -0.6107594 0.20949091
五 -0.667863 -2.4286654 0.01982098 0.31568107 -0.8019737 -1.0562303 0.035301093 0.46308067 -0.9918524 0.17573132 1.1718968 0.35836112 -0.44380784 0.61233217 0.30542406 -0.19571966 1.7724414 1.3753033 -0.7239511 0.5010876 -0.99793756 0.17543674 0.002247093 -1.4102825 -0.64786434 0.19188583 0.57281774 -0.5178851 1.0529671 -0.6017759 -1.8409487 -0.9238088 -0.67542785 0.021007156 1.0475816 1.5359229 0.4736106 -0.32345155 -1.1132443 0.66115624 -0.34310147 1.4205717 -0.23493826 0.38472024 -0.9782764 -1.439211 1.6585029 -1.273383 0.38538167 -0.26720208
