1352 50
， -1.2617941 0.5211801 -1.0137405 -0.00073273474 0.9658647 0.24825206 0.60997546 -0.17053302 0.88266814 -1.0440454 -0.63608766 0.47233468 -0.00487516 0.115624666 -0.5258875 -0.6431738 -0.2618504 -0.79923666 -0.4618801 -0.35416025 -0.808616 -0.83348227 0.45571867 -1.8012916 -0.63860565 -1.2797298 0.04036873 0.22711492 0.19352038 -0.6359525 1.0885687 -0.40441155 -0.4644293 -1.4275268 0.16294622 -0.5162728 -0.42049226 -1.1432941 -0.23064685 -0.6567387 0.9849354 -0.8015493 0.66121167 -0.9454424 1.6230131 -0.2008076 -0.8873958 0.73602015 -0.47366214 0.45417356
子 -0.06367477 -0.7242818 -2.4239635 -0.093103394 0.4548444 1.1647549 -0.06024469 1.3405787 0.11461188 -0.6138365 -1.2690856 0.27414414 -1.2945586 -0.49337855 -0.97687095 0.3436087 -2.0845714 -0.86213404 0.2459009 -1.3059486 -0.13836084 -0.59256375 0.33813578 -1.8512406 0.47884664 -0.5443849 0.2746751 -0.15399933 0.03372564 -0.83050567 0.5852584 -0.22194602 0.49130648 0.12969518 -0.20800841 -0.8778205 -0.83334625 -1.0565718 -0.3354285 0.55561256 0.34634054 -0.35901558 -0.2925646 -1.7798096 0.9930313 1.8151646 -1.3284621 0.5430272 -1.1217319 1.0558786
。 -1.8051057 -0.90836006 0.12908998 -0.767509 0.38205197 1.0845028 0.10552096 0.09511097 -0.9881619 -0.7555909 0.5311344 -0.5032622 0.18054354 1.8322682 -1.4383271 -0.059376225 -0.46669155 0.6970062 -0.6931154 -0.9461098 -0.48415306 0.8778788 2.118665 -1.2093397 -0.46225 0.7140227 -0.8598502 -0.08563848 -0.040832177 -0.43091467 0.008792613 -0.02563888 0.6451333 -0.66432756 -0.12724103 -1.1481044 -0.7937126 -0.92299 -1.6814259 0.427383 0.23797747 -1.3581985 -0.28513277 -0.8829535 0.51975775 -1.1316307 0.065673634 -0.12917235 -0.75608516 0.6398766
： 0.033223417 -0.794744 -0.7025042 -1.4445502 0.5338756 1.2171024 0.5209105 1.7388003 -1.1462218 -0.40633917 -0.40183443 -0.8210126 -1.3352612 1.0606937 -0.3632686 -0.7254162 -1.1435877 -0.45939463 -1.7451545 -1.6578923 -0.86645335 0.49400172 0.76599616 -1.3367549 -0.36256507 -1.5280151 0.3095203 -0.60982335 -0.7055524 -0.6401561 1.8640957 0.15401106 1.7596107 0.1437174 0.33451784 -0.072279945 0.17015925 -0.24712613 -0.73258513 -0.10128756 -0.6914103 -0.68704915 -0.31435946 -1.4806639 0.24609531 0.25284126 -1.6846651 0.79830027 -1.3424209 -0.31399867
曰 0.42165947 -0.8870239 -0.68065625 -0.5157147 -0.019109529 -0.6194915 1.0761126 1.3270366 -0.53234446 -0.58177847 -0.51032156 -0.33056948 -0.9708896 2.1853402 0.57367426 -0.7656711 -0.072158754 0.47524837 0.37412342 -1.0272645 -0.2792465 0.43761602 1.179052 -2.1935067 -0.12953003 0.45365477 -0.20723253 -0.5313693 0.19013625 -1.2429395 -0.08711483 1.5448338 0.8736756 0.5955192 -0.71181417 -1.4063997 -0.09878379 -1.5736443 0.8468773 -0.58969057 1.6011729 -0.6681143 0.22816467 -1.4765146 0.30543804 -0.10796758 0.15264246 2.0337012 -1.6288831 -0.6102703
之 -0.59538305 0.14555642 -2.5812674 0.23602542 1.4445438 0.09318476 1.3975979 -1.1813954 0.58661956 -0.019823527 0.29236248 0.41573462 -0.2321153 -0.50331306 -0.5451373 -0.8806422 -0.29794216 0.9833648 0.8474712 -2.3474286 -1.1027732 -0.5556409 0.57372123 -0.4340871 1.06495 0.5462 0.66984797 0.17124824 -0.66628194 -0.80496246 1.7693312 1.2662542 -0.7556119 0.2700589 0.026396466 0.52540594 0.45652637 -0.20564862 1.6281874 -0.4148629 2.4499927 -1.1045941 0.009738817 -1.5304755 1.8201747 -1.44005 -0.15532345 0.66074735 0.031381026 0.7279007
不 -0.6274974 0.4467089 -1.0727638 -0.48705566 1.0170469 -0.42111114 0.70179033 -0.0042884266 -1.0487703 -0.4495293 1.3993806 0.43652156 -0.299265 0.07314295 -0.21030469 -0.9752226 -1.3603971 -0.97132754 0.2904124 -0.35559908 -1.3910393 1.0034571 0.7621701 0.07528872 -0.8891134 0.24805431 -0.23028879 0.33566678 -1.1709893 -1.2386563 -0.35830224 0.72982484 -0.36999413 0.281095 -0.42128903 -0.36279005 -0.48124102 -1.1416669 1.2793036 0.23727846 0.51392454 -0.2956414 0.06979742 -0.15532841 0.7163278 -0.7684791 -0.2942777 1.3049079 -0.5248808 0.7499422
也 -1.0570693 1.3950884 -1.0882 1.0595903 0.1141923 -0.05540858 0.43099403 0.5420321 -0.8687688 0.7991484 0.98405415 1.0180161 0.31850332 -0.5434519 -0.54605305 0.02512822 -1.7595407 -0.9107226 -0.6972809 -1.2350986 -0.68065196 -0.403785 1.0535334 1.5891781 -0.9529782 0.065073125 0.74376094 1.4730709 -1.2430608 -0.57352436 0.5490439 0.99851984 -0.030173324 0.3813406 -0.031922333 0.65859497 0.070519984 0.29119986 1.0585934 0.14951876 0.7234148 0.19299732 0.829164 0.84709483 1.0144207 -1.5896577 -0.617347 0.44994202 -0.029973134 0.72780275
而 0.24390785 0.34145185 1.2428861 0.5377652 -0.19482982 1.4837295 0.6070169 2.0151086 -0.02247264 -0.12546246 0.4296047 0.11026244 -0.75357956 0.9562213 0.093619086 0.52384967 -0.08789111 1.6988206 0.29424912 -1.0730711 -0.64103377 1.4712764 0.7146847 0.9164346 -1.4785278 1.1022335 0.97576785 0.027048435 -0.17974861 -1.447932 0.45718247 0.2675064 -1.0858654 0.44819468 0.5579109 -0.9720657 -0.73989105 -0.5928781 1.4419211 -0.5225687 0.44040453 0.7261512 1.003259 0.0456995 0.0061477846 -0.5678585 0.46764717 0.7463983 -1.0760331 0.4344425
？ -0.20727381 0.5875688 0.77777666 0.9121629 -0.06977983 0.9131972 0.6309594 -0.42034426 0.06582364 0.55755836 0.7870583 1.3794619 -0.24327298 -0.37365338 -0.9970567 0.013760809 -0.30015466 -0.35232955 0.8298063 -0.23160602 0.022614738 0.17574596 0.41413546 1.2751436 -0.11106538 0.45447034 0.43841386 1.1988761 -0.7701525 -0.71410984 0.4979118 0.15182075 -0.59698194 -0.003980479 0.017553518 -0.8013869 -0.77590775 -0.4705664 1.3968004 0.7993451 0.32853025 0.4560343 1.759464 -0.5290159 -0.20646447 0.24939026 -0.3138771 0.72327954 -0.874721 1.1916654
其 0.20476471 0.9917291 -1.5316353 -0.026029753 -0.6294226 0.57087964 3.8730736 0.28323832 -0.00044574504 -0.4543435 0.5338909 0.046896104 -0.868776 -0.14744464 -0.8902147 -0.53644764 0.38732 -0.40578175 1.1536493 1.2524829 0.20673889 0.6666857 0.04459883 0.29936847 -1.2344882 1.4083174 -0.16577753 -0.12076486 0.03940694 -1.7945842 0.70240605 0.9080043 -1.6169033 1.2107071 0.42553815 0.5714953 0.43945435 -0.83608466 1.784312 -0.28966722 0.22188485 0.23822652 0.5783132 1.913659 -0.78188765 -0.76084965 -0.6649396 0.05344102 -0.092697665 0.5663296
人 -0.81372035 0.8145773 -0.76151043 0.3490594 -0.09790981 1.0179746 0.56887573 0.2834668 -0.5131119 0.44235066 0.39661247 0.9707777 0.7729103 -1.433346 -0.6140924 0.6941362 0.1708979 -0.15847701 0.09153911 0.11265156 -0.5326247 0.39949855 1.0189022 1.1993383 -0.2139645 0.32928652 0.97605026 0.47417402 0.35755342 -0.1844008 0.6571087 -0.53456724 -0.73023325 -0.6602154 0.015142355 -0.10508791 0.37902686 -0.3439529 0.026176076 0.23074785 0.14706655 0.65486693 0.9275908 0.6438297 0.82763875 -0.6211052 0.2467622 0.4351805 -1.2831576 1.0868294
者 1.3156178 -0.6285755 0.13810645 0.7931652 -0.17729785 -0.10525218 0.592509 -0.005107768 0.040487193 -0.024472134 -0.022711718 0.5362674 0.092091136 0.6293959 0.4552853 0.7001751 -0.8440693 -0.042213734 0.69032466 -0.09060466 1.1134522 -0.037559595 0.110637754 1.1457477 -1.1349145 -0.37541363 -0.60192746 -0.5922129 -0.25260934 -1.1257987 0.37410307 0.05662663 -0.5434653 -0.15477312 0.3354021 -0.061305285 0.2583503 -0.18732007 0.8743634 0.45249534 -0.37640637 0.36308935 0.9765927 -0.44903713 0.4586931 0.10706724 0.12757526 -0.53897786 -0.8685804 -0.03138893
以 1.0307393 0.16137472 0.5359672 0.37100348 -0.1321941 0.560271 0.9744443 0.05419828 -0.5612366 -0.11869173 0.06328694 1.6152902 0.17266554 -0.11907278 -1.2478074 -0.27935538 0.7963124 0.19304743 0.08534482 -0.6361116 -0.07042949 0.47030544 1.0683637 -0.04125867 -1.2856194 -0.5581032 -0.2505307 -0.45950633 -0.40042868 -1.5859152 1.4488435 -1.1188195 -0.6120502 -0.2985586 0.6157688 -0.6340489 0.44022948 -0.51785773 -0.13537659 1.2086811 -0.61624473 0.7732293 0.37628102 0.43470144 0.68286777 -0.21906787 -0.35937583 -0.48201567 -2.054969 0.8499529
有 0.05354684 1.5238652 1.1671622 0.6942141 0.2052424 1.4433581 0.7666251 0.81117874 0.20241469 -0.4332308 0.12294603 1.0328999 0.09515113 0.78936696 0.48040286 -0.67091334 0.6787224 -1.2558496 0.22615466 -0.1645083 0.0212025 0.3769227 0.6154727 0.74755055 -1.3488784 -0.5857104 -0.11741151 -0.49952167 -0.89411944 -1.5553712 0.55774075 -1.3305197 -1.0704808 -0.33332515 0.7482332 -0.45378503 0.15683866 -1.0273777 0.18853962 0.6662748 -1.0723503 0.74019074 1.493239 0.70673066 0.21637133 -0.4436049 0.06468527 -0.23903394 -1.8084061 0.6848072
于 0.12399555 0.69960994 0.39616773 0.75414246 -1.1171162 0.43472898 1.2542444 -0.17119457 -1.3384663 -0.08659919 -0.067578256 0.8898191 1.3067966 0.030125603 -1.4931132 0.86260855 0.50550824 -0.41943112 0.30404672 -0.25397548 0.45288908 1.120373 0.82342166 -0.033917975 -1.4131805 1.5955902 0.25190365 -0.036644664 -0.10836234 -1.1866806 0.41679764 -1.545061 0.17837726 -0.7708394 -0.5006158 0.032694463 0.074816346 -0.43394727 0.56233346 0.5120044 -0.8455421 1.6529691 1.8251941 0.0073247724 -0.22988272 0.07409451 -1.2176692 0.24631497 -1.1043764 2.207789
矣 1.3146648 0.051715113 0.0049900203 0.7397335 0.015385528 0.2229859 0.8564089 -0.82853305 0.04462792 0.2256273 0.3233819 0.17749901 1.1573248 0.5136707 0.6497204 1.1423789 -0.23252393 -0.16200389 0.6064372 -0.63433146 0.2485556 0.5791377 0.15608123 0.035317563 -0.6562661 0.86172396 -0.7655754 -0.7863427 0.020126961 -0.7792081 -0.13150345 0.10954529 -0.56011915 -1.0875098 0.26656094 0.56084 0.5022794 0.048012253 0.10858737 0.6172091 0.013722925 1.1863847 0.87897855 0.3428533 0.36807752 -0.08236869 -0.22725096 -0.5819662 -1.0284774 0.019886144
为 0.7938546 -0.6354804 -0.26580834 0.76187205 0.0019032103 -0.649879 0.7273173 -0.82131517 -0.075940475 -0.4625837 0.21295632 1.4026589 0.9004273 -0.24261585 -0.52154326 1.4339575 0.20050104 -0.06118158 0.50140846 -1.8227676 0.08777458 0.21047637 1.201946 0.24122223 -0.90505147 1.5997461 0.7677108 -1.8336146 0.9538272 -0.57356834 0.8413592 -0.47128612 -0.17678612 -1.2847116 -0.12894298 -0.8391826 -0.08153794 -0.51553243 -1.8020372 0.11745855 0.6249575 0.7880919 -0.013304196 -0.74911505 0.4040612 -0.6515218 0.67479914 -0.7356624 -0.9433189 1.4855181
君 -0.07713063 0.62104595 -0.28598958 1.047345 0.4189487 0.22219886 1.1189939 -0.8574656 0.06685356 0.19176093 0.76356816 1.4005967 0.7214828 0.21525344 -0.05995792 0.7868514 -0.09172712 0.60758597 0.65404207 -1.4088206 -0.046825744 0.32985523 0.20572768 0.11319655 -0.69892704 0.6929745 0.33689868 -0.22708678 -0.65428287 -0.79344624 0.18289034 -0.009938193 0.093818344 -0.19764213 0.6978487 0.22603548 0.4141364 0.02659138 -0.14413232 0.5129638 -0.0028180077 0.67713994 0.54668903 -0.16775359 0.39060554 -0.4300895 0.029450696 0.006924081 0.017891679 0.47041574
乎 0.17711629 0.28012905 -0.15276021 1.7918553 0.121194534 -0.9315626 0.18043125 -1.3541415 -0.18174879 -0.29445004 0.6260632 1.8672746 0.5989953 -0.9291907 0.116089806 0.42949283 -0.07193448 -0.8500072 0.38189188 -1.558384 -0.019594666 0.21014704 -0.26768368 0.7628715 -0.6018864 1.268449 1.9712762 -0.32156062 0.3805212 -0.77270645 0.8826392 0.32437003 0.34945008 -1.3786595 0.18945666 0.9271917 0.28183174 -0.95903444 -0.38057613 0.22834395 0.20290178 0.6574124 0.8230801 -0.7019455 0.31737605 -0.10465211 -0.8345777 -0.24891171 -0.5244994 0.4463986
可 0.1692489 1.3630223 -0.086107716 1.4922141 1.0113671 0.64022595 -0.3964608 1.2352194 -1.1694385 -1.7704144 0.6952605 0.97191125 0.07285404 0.6333123 -0.7970083 2.3670583 -0.3361087 -1.2734805 -1.1533728 0.59255034 -0.58890945 1.5948828 1.0359395 0.57171565 -1.185712 0.27118823 1.10909 -0.82722604 -0.94602364 -1.9954354 1.7074333 -0.124658115 -0.07867016 -0.9877256 -0.32734415 0.67720854 0.81807363 0.46078745 -0.50312513 0.6011233 -0.2408493 0.91192627 1.4145905 0.26925346 -0.21993013 1.2053955 -1.4293153 0.21998675 -0.9421976 1.106009
如 -0.8265986 0.753767 -1.5793996 0.95211005 0.47759098 -0.49251193 -0.26053274 -0.168291 -0.2504949 0.4044706 1.0683336 0.7236286 1.0989782 0.16040054 -1.0453073 0.2394876 0.89022046 -1.0498462 0.48128965 0.3846665 -1.2678213 0.24559551 -0.62695926 0.55640393 -0.8608795 0.9915077 0.34147474 -0.7720763 0.56754595 -1.0393854 -0.4698788 -0.44363466 -0.2909302 -0.91674995 -0.026791759 -0.9194187 -0.17345694 -0.20224373 -0.84139985 -0.038712572 -0.34598446 -0.17334996 0.9884379 -0.06577677 0.2666475 -0.66450703 -0.45999178 0.26303586 0.625575 0.9075469
与 -0.20389052 0.9755596 -0.86486524 0.71651685 0.6279034 0.734386 -0.09209213 0.9165736 -0.31285158 -1.1690961 0.51003784 1.5324267 -0.557296 -0.28474435 -1.0660414 1.1051434 0.450303 -0.24756968 -0.085853264 -0.93725324 -1.0207243 1.9720966 1.1227326 0.22157948 -1.5620297 0.85543805 0.7866319 0.4868657 -0.2267034 -1.728759 0.010891234 -0.25084323 0.26900434 -0.101671055 -0.94337827 -0.43877968 0.86292225 -0.15805036 0.3527054 0.44976628 -0.59156865 0.5644995 1.3286837 -0.8829394 0.15753597 -0.6653877 -0.27187887 0.4702404 -0.49885416 2.167706
； -0.19090705 1.1873037 -1.7859967 -0.31190002 -0.11938078 -0.48965362 1.278113 0.7090269 -0.054641604 -0.0147689 1.0316751 0.7284619 -0.4486487 -1.0246664 -0.87747574 0.4893372 0.08634971 -0.44392654 0.14965898 -0.49194622 -0.19658461 0.08193827 0.19745974 0.25027466 -0.35036382 -0.1809587 0.4643993 0.4680381 -0.77440494 -0.32458 0.7545573 -0.35330713 -0.11399239 0.4684024 -0.13195862 -0.94551 1.2166392 -1.5011895 0.32885584 0.7121066 -0.32025373 0.8125807 0.4899663 0.87822855 0.43159723 -0.97827786 -1.1505188 -0.046254005 0.2225782 0.4474421
言 -0.6261121 0.26051605 -0.79827344 1.3164095 -0.72883075 0.69743085 0.021398267 0.717477 0.3352487 0.6112497 0.98373955 1.2444133 -0.17887057 0.30814037 0.12029086 1.20821 0.25782794 -2.3089023 0.53348535 0.32815614 1.036485 -0.050855774 -0.019816061 0.15429625 -1.4008362 0.6349163 1.4264753 0.5498162 -0.56892693 -2.121305 0.5374039 -0.3325689 0.61489236 -0.9617624 -0.17416446 0.006242204 1.8871546 -1.6706471 1.1755207 -0.13184988 -0.5545269 0.2333152 1.5580955 0.9569978 1.1419734 0.14970025 -2.1437745 -0.8012537 -0.624326 0.48350525
无 -0.8753682 0.45783344 -1.2678508 1.6053381 0.8462505 1.3685502 -0.44756657 0.5388786 -0.40653205 0.43245044 0.8640601 -0.0064972434 -0.23369376 0.24260604 -0.10212441 1.5571439 -0.019507889 -1.2742083 -0.14766112 0.36920616 -0.04317174 0.9307836 0.9232245 0.74408937 -0.6224736 0.44374275 0.2582056 1.4505771 0.36235517 -1.5780499 0.7566248 -0.37391546 -0.14697875 -0.5371362 -0.2816807 1.0580968 -0.55044824 -0.15918629 -0.074284405 0.22900632 -0.022573296 -0.03884542 0.6101825 -0.106148526 0.43608043 0.07274402 -0.7651467 -0.7957737 -1.1396533 0.8237504
则 0.62633455 1.3022472 -1.2183863 0.08416598 0.24244057 1.0298157 1.2384343 0.53889513 -0.6724623 -0.767043 -0.107679404 -0.20122917 -0.060058717 0.23051392 -0.6309197 0.66180855 -0.45831972 -1.3821255 0.24772465 1.0335398 0.70749485 1.9990431 -0.19147047 2.1242616 -1.2939668 1.0423497 -0.4729355 -0.084401645 0.3746155 -1.6901848 0.14822279 -1.4916877 -0.88123846 -0.00554558 -0.7631413 0.94423056 0.04994796 -1.1449573 0.31842324 0.52401525 -0.47888938 0.39023128 1.7865984 -0.05361584 0.2656767 -0.3475004 -0.47018442 2.5898767 0.28972164 0.45381072
！ 0.24699101 0.49314258 -1.4359436 0.053735852 0.6874071 2.011504 0.57654536 1.0271124 -1.014704 -0.090846576 0.7515325 0.44607309 -1.3741236 0.31964213 -1.29174 0.8609235 0.40007988 -0.80199647 2.4510508 0.7737059 0.1466168 1.4595382 1.1422901 0.69487166 -0.8426195 -0.46791008 -0.3282203 1.2618378 -1.9253129 -2.2684393 1.3040177 -0.34634948 -0.42338422 0.69193065 -0.38923356 0.7956578 -0.5956874 -1.5810674 -0.0354827 0.8136419 -1.0817078 1.7309837 1.8660958 -0.673998 0.34805122 0.45042413 -0.7055983 0.86301696 -0.911782 1.45923
问 -0.42061064 0.2150348 -1.0297878 -0.9705218 0.41930807 1.0611764 0.19747974 0.94747514 -1.8590219 -1.368334 -0.175687 0.29848054 -0.7090754 0.86011934 -1.344571 -0.013339979 -0.80632466 -1.063008 -0.7351826 0.34850156 -0.0124257775 1.0273948 0.23996463 0.20331474 -1.2650084 0.6087379 -0.10937556 0.26381853 -0.52334887 -1.0812291 0.98572624 0.6513715 0.39207977 0.08652707 -0.079654336 0.35375947 -0.7242022 -1.7155106 -0.36221623 -0.67742395 -1.0796127 0.7753165 1.3345559 -0.636888 -0.17611389 0.25120044 -1.0698193 0.6509122 -1.0272048 1.1217582
知 -0.97026485 0.7138624 -1.4050804 1.1417785 -0.013654158 -0.050604917 1.0042013 -0.44151968 0.2040698 -0.45654678 1.1797193 0.36714444 -0.21431631 0.14413574 -0.096499234 -0.055142153 0.17108746 -0.9646698 0.5076779 0.73018503 -0.0668732 0.85307735 0.9796503 0.39690563 -1.2132655 -0.93802625 0.096694164 2.339657 0.38231364 -1.0718739 0.37913415 0.70265764 -0.51823175 -0.06851917 0.36598116 -0.27758718 0.07451581 -0.71868825 0.26322904 0.5180207 -0.44637448 -0.9426586 1.1754929 -0.098784804 0.57381713 -1.990377 -1.0169648 -0.5272262 -0.38327226 0.34290853
何 0.1649803 -0.25947198 -0.9014628 1.1534253 1.357804 -0.08954132 1.4785584 -0.38740566 -1.5020454 -2.4423478 1.7650578 0.6809069 -0.5681447 0.2537003 -0.7142931 0.72519994 -1.4402537 0.35842365 0.19219942 0.42564103 -1.0718015 0.58559024 0.20563102 1.2563443 -2.1634927 -0.039001264 0.6609708 1.9123359 0.032053944 -1.1796474 0.13742074 0.651612 0.1949557 0.0249469 0.06671181 0.006949086 -0.9992083 0.0631937 0.53791916 0.48887572 -1.1777127 -0.16028875 0.40801543 -0.4903055 0.27128193 -1.5354279 -0.5546147 -0.29959244 0.20145525 1.3689351
吾 0.6804964 -0.09393126 -0.40483403 0.615394 1.2528121 0.0025135207 1.0724927 0.24889286 -1.3323315 -0.9286252 1.3293499 -0.6027589 0.36064443 -0.13215934 -1.0997366 0.94955045 -0.82567185 0.5002613 0.019824283 -0.45493907 -0.6220078 0.7224725 0.44488475 0.08498173 -0.8495455 0.20908077 -0.2788484 1.2461971 -0.5068279 -0.8247283 0.65011257 1.1196089 -0.7749894 0.30623117 -0.7045571 1.2874297 -0.033900026 0.40437767 -0.32253382 1.3974606 -0.3773989 -0.26156753 0.67630166 -0.050023194 0.059136156 -0.2415589 -0.23765789 0.65071857 -0.13749433 0.8896495
仁 -0.58721846 -0.116344124 0.834172 -0.33256772 1.2571434 1.344368 -0.71759176 0.006819486 -0.16585082 -0.31358412 0.5968744 -0.8704609 -0.049844928 -0.5135348 0.78688353 1.6980867 -1.3799639 -0.793668 -0.21213931 -0.1845444 0.5589409 0.22889039 1.1405988 0.24335761 -0.4266362 0.23756833 1.1088412 0.9492161 -0.4248339 -1.1559849 1.5293893 0.3006587 -1.7125472 0.15615399 -0.7589796 -0.23131141 -0.2042348 -0.52389497 -0.90479743 1.3558239 -0.9577428 0.39895374 1.4556247 -0.88852286 -0.013102713 0.89231324 -0.7504615 0.7189052 -1.1958653 1.1668737
夫 -1.0404935 -0.08004438 -0.7223668 0.7855532 0.34151447 0.04068213 0.17789954 0.4438597 -0.8858682 0.15107805 -0.18292387 -0.24654743 -0.2885072 -0.60065883 1.2813075 0.01737369 -2.31477 -0.5587585 0.033628725 -1.3755064 0.16780055 0.8688412 0.8966312 0.34329075 -1.6235037 -0.4181257 0.91927236 1.5078298 -1.5258354 -0.67273706 1.0595558 0.8784811 -0.5598318 0.9737226 -0.09556435 -0.6518586 -0.27943674 -0.7356428 -0.59077054 1.0066911 -1.0661184 -0.2883602 0.5800763 -1.6019461 -0.22062005 0.059184268 -1.1977607 1.7526746 -0.27630538 2.7636762
、 -1.4314604 0.49355146 -0.35540658 1.4242264 0.09223141 0.7505026 0.85205525 -0.34933797 0.23289958 0.7996266 0.4556548 0.7347399 0.7907311 -0.68207204 -0.29799712 0.063652486 0.058086324 -0.24553737 0.7273378 -0.28524566 -0.32313895 -0.09297089 0.16814826 0.7196877 -0.99929124 -0.14767866 0.48221838 0.7842662 0.039978866 -0.6982659 0.24138784 -0.059276897 -0.08072931 0.69977266 -0.625128 -0.39221573 -0.6525922 -0.5032337 -0.25916672 0.759872 -0.91738844 -0.77232933 0.13592617 -0.5292075 -0.13053267 -0.36708036 -0.7314007 0.49407235 0.8257148 0.8018274
道 0.15902947 1.2604067 -1.7218317 0.17073065 -0.34841558 -0.8090553 -0.15195568 0.78927606 0.2239822 -0.60039103 -0.28051397 0.33932555 0.12000571 -0.0012442997 -0.57920134 1.6749941 -0.72881323 -1.0513486 0.24208151 -0.44377425 0.464428 0.4785808 -1.1964872 1.1052389 -0.74389124 -0.96961105 0.24052636 -0.36047533 0.5370066 -1.5552951 0.39351314 -0.51945287 -0.9075188 0.78958684 0.064003594 -0.13213359 0.8772335 -1.2286116 0.68275565 -0.006103972 -1.3820556 0.75133604 1.9821872 0.726037 0.10009318 0.056776505 -1.4236792 2.179779 -1.0684733 0.87057096
焉 0.5963676 0.17533956 -0.8939788 0.1537842 -0.023412215 -0.21456061 1.5180213 -0.07639026 0.1462137 -0.6859436 0.5477104 0.14249492 0.67881113 0.61203265 0.4093368 0.7724569 -0.7225194 -0.46186107 0.7700776 -0.10713778 0.9282861 0.37413442 -0.25716782 0.2418083 -0.9319233 0.2869812 1.3454038 -0.37978375 -1.2731231 -1.2743454 -0.16955978 0.3512464 -1.3378443 0.1080527 -0.23611186 0.8934128 1.1073341 0.3302628 0.66446024 0.30670604 -0.80369675 0.36763337 1.2009133 -0.05157097 0.25747237 0.50698006 -1.0904577 0.5408231 -0.7297993 1.0443189
行 -0.47910643 -0.26620382 1.1412787 -0.277013 -0.3523768 0.47822168 -0.23715931 -0.022488888 -0.6849669 -0.117123626 -0.7576168 0.5585064 1.6362586 0.30754426 0.0595969 -0.39386302 -0.49871767 0.4245754 0.1472754 -0.7593263 -0.7468335 0.49974486 0.1696303 -0.055170015 -1.5181582 -1.0955967 0.85132235 -0.8299674 0.58619285 -1.6212547 0.7847708 -0.68992776 -0.1945966 -0.4166222 -0.32876474 -0.29673478 1.530072 -0.4049538 -0.268654 1.5486993 -0.57888645 -0.62804115 -0.0099016065 0.15758476 0.11006616 1.1667229 -0.44307935 0.0796512 -1.4088897 0.6264395
谓 -1.0913209 -0.41122422 0.14275697 -0.34541458 -0.7411396 0.15951064 0.42800626 0.26545075 0.13583219 -0.54842186 0.07903748 0.41451684 0.032381672 0.048553072 -0.21064924 -0.5898862 0.21788521 0.5491662 -0.6034177 0.06845848 -0.58158505 1.3938004 1.285042 -0.4323469 -1.9027925 -0.8264522 0.38283575 -0.8908157 0.65363854 -1.5373241 0.319038 -2.0052767 0.491824 -0.04824906 0.008510768 -1.3046061 0.05206423 -0.028775714 -0.9746961 -0.14117281 -0.59806174 -0.90936303 0.22538644 -0.054889955 0.6855594 0.2511819 0.09289003 0.6350194 -2.4359589 0.19380349
必 -0.5044259 0.04435532 -0.24767514 -1.686602 -1.2596884 1.063854 0.20559797 0.9592273 -0.64076513 0.21287349 -0.7214159 0.1768707 -0.8729573 1.2625626 -0.83116746 -0.8772591 0.1745932 -1.3802282 0.36070356 -0.3335864 0.90697336 -1.1662378 -0.43575138 -1.0874022 -0.89633006 -0.6996747 0.4905771 -1.6390228 1.4959233 -2.3076086 -0.0631909 -0.7018435 -0.03582312 0.38911152 1.3055967 -1.3314114 -0.80809546 -1.1687877 0.17347124 -0.1763011 -0.4113386 -1.1091413 0.23996358 -1.043964 1.0154909 0.32152212 -1.4263222 0.98052883 -0.903432 -0.36330438
礼 0.97667277 -0.0050149956 -0.6620973 -0.022268923 -0.84286875 -0.26722723 -0.4880035 0.010137726 0.71778524 -0.7989485 -0.3965368 0.006842949 1.0700462 1.3651724 -0.16336545 1.3628063 0.33660105 0.7329366 -0.811354 -1.0548023 -0.31257442 0.16190337 0.028567687 -0.12936687 -0.18047181 -0.4132487 -0.99717736 -1.2070991 1.1772116 -1.3833047 0.27388576 -0.7971218 -0.1697673 -1.2552861 -0.44122905 0.8575057 0.9775304 -0.5943938 0.10839174 0.14134592 0.9123428 -0.015767239 1.3892417 -0.021730075 0.83698297 0.12671033 -0.067002684 -0.29686183 -2.3543615 -0.13884452
孔 1.0073055 -1.3866214 -0.44701186 0.6972566 0.08350089 0.57941437 0.07509248 0.6034061 0.8999052 -0.29871422 -0.1419929 0.013336527 -0.05246482 1.3168269 1.0171899 -0.0123048425 -0.04845304 -0.05963204 0.44840956 -0.7532137 0.26054555 0.42927122 0.60291636 0.20601606 -0.5640059 -0.9377488 0.8374176 -1.0952076 -0.117328964 -0.6560266 0.40913767 -0.47048372 0.2546467 0.19128984 0.3123064 0.07716433 0.26773217 -0.21241339 -0.27630344 0.49718672 -0.90983677 -0.51120186 0.030998252 -0.8462028 0.11902984 0.27388346 -0.3901554 0.58860177 -0.6590107 -0.05497216
斯 0.80268526 -0.3347483 0.26018292 0.29321733 -0.996175 0.7639595 -1.0667235 1.6191626 -0.010104709 -0.20580833 0.08936195 0.6182643 -0.38326895 0.8800873 0.937271 0.72636425 0.5427195 0.16585742 0.66082746 -0.97572994 -0.09389306 1.0032711 1.6026093 -0.795545 -0.762376 -0.13267729 0.3541919 0.68060946 0.5050279 -0.97743005 1.628251 -1.4317309 0.0011031531 -0.8930139 -0.2660074 -0.727323 0.5093859 0.063819684 0.35115284 0.60994434 -0.72069734 -0.19346727 0.6041781 -0.4294232 0.95583326 -0.5531526 -0.9496518 0.34164274 -1.5191572 -0.22463682
三 -0.3915584 -0.44999787 -0.5999638 -0.7480851 0.5272331 0.6424688 0.11954663 1.1468889 0.26227242 -0.20285743 -0.06377739 -0.01730526 -1.476227 0.959698 0.13354072 0.4553966 -0.2510227 -1.0300379 0.3857176 -0.39285013 0.10175078 -1.0077208 0.23628338 -0.71124613 -0.5836909 -1.1259491 0.36234528 0.50604266 -0.006232725 -0.3679757 0.70235527 0.19779663 0.3802503 0.02225043 0.8655185 -0.58166224 -0.27611282 -1.5704385 -0.4197339 -0.24857512 -1.0889682 -0.25571948 0.69491255 -0.9212241 1.2196983 1.354633 -0.05273463 0.04094466 0.0525823 -0.9451882
能 -0.13155213 0.15481362 -0.17541803 -0.22886874 0.09252445 -0.46575025 -0.70656204 1.0080599 0.6507745 -0.6926882 1.5927613 0.36458036 -0.4188143 0.99233735 1.5365981 0.65621084 1.2895218 0.35634607 0.35849908 -0.5042878 0.39397982 -0.8763582 1.1030837 0.33778584 -0.69594383 -0.42587763 -0.9883556 0.9319253 1.0849434 -1.3941934 0.53421897 0.13866393 -0.27926862 -0.79789495 0.5413348 -0.71807396 -0.68011534 -0.6258929 0.8001598 0.4891011 1.0096287 -0.35658962 1.1855996 -0.5262334 1.5273973 -1.1766256 -0.21989787 -0.78258365 -1.5916544 -1.135813
见 1.6942815 0.21770257 0.8427243 0.7550457 -0.07617709 0.7868295 -0.11357941 -0.7634561 0.214842 0.037890144 0.2539821 0.13861193 1.2162062 0.149284 0.54162824 1.0323318 0.9198427 -0.19519237 -0.09002875 -1.6627425 1.3898419 -0.11105169 0.51906484 -0.64772016 -0.13872083 -1.5678941 0.49448842 -0.39544415 0.9901693 -2.233961 0.6187103 -0.12513253 -1.1262963 -1.1107371 0.14571905 0.09697284 0.35426933 -0.2906609 0.80060333 0.8368523 -0.028063413 -1.2311977 1.6963006 0.20105837 0.8246046 -1.8255064 -0.16454244 -0.66205955 -1.44208 -0.65961874
学 0.54665077 -0.42281994 -0.08521366 1.0901158 -0.31576598 1.0127143 -0.29807726 1.1006136 -0.64655524 -0.07684018 1.3815324 1.2791449 0.04437466 -0.7009162 2.0442638 0.15979488 1.2209988 0.021460896 1.4122145 -0.7459865 0.06294035 0.9771879 0.88787436 2.0812657 -0.39963275 0.45087007 0.994791 0.7897418 1.1435325 -0.7820595 0.6298795 -0.49988142 -0.74689263 -0.22645822 0.8268937 -0.9725463 0.76662 -0.9919891 0.52209705 0.56099135 0.08141738 -0.6694595 0.65334076 -0.8283475 1.1356516 -2.2267578 -1.1501256 -1.0214635 -0.67074263 -0.12792303
事 0.20633852 -0.17438582 -0.5078951 0.7789066 -1.6874841 1.9791384 0.14317375 0.8727992 0.051015556 1.2843924 1.989089 -0.26560163 0.498912 -0.23365901 0.40853345 0.7914533 -0.36442634 0.055684417 1.4423816 -0.30408812 1.0109355 0.938382 1.7398028 0.895302 -0.75966775 -0.17725128 -0.4385319 1.8561932 0.53344727 -0.61805457 1.9711349 -0.10313888 0.18385057 0.46611658 -1.0644562 0.8421847 -0.067978784 -0.9024108 -0.069598734 1.4427383 -0.80500394 -0.419109 -0.18388894 -1.8323292 1.1421101 -0.40418693 0.8362143 0.05693344 0.49678227 0.29498532
是 0.33722997 0.8243474 -0.15910542 -0.19537437 0.6647714 0.8618425 -0.3051849 -0.016014662 -0.95256084 -0.29702562 2.006075 -0.3547327 -0.7277906 -0.3692172 0.96167594 3.0452504 -0.2519638 -0.37332696 0.46305397 -1.869295 -0.7786018 0.4208136 1.5276347 -0.15260015 -0.60048985 0.20373243 -0.83009934 1.4785389 0.1443133 -0.31418845 1.9017231 0.6605739 0.24417019 -1.7504922 -0.060448088 -0.01195038 0.7064417 -1.0559688 -0.44764808 1.0423945 -0.3543378 1.3932222 1.6338122 0.25218958 1.6071035 -0.72847587 0.27624857 -0.4166874 -0.680951 0.9491155
哉 0.29124248 1.0703613 0.22972403 -1.0555624 0.49063614 1.224419 0.50526303 0.7098737 -0.8633462 -0.017414296 1.7475117 -0.9823682 -0.18589458 0.011715199 -1.318906 2.158627 -0.97932386 0.19755119 -0.21297522 -2.0095613 0.60815376 -0.07768947 0.16238846 -0.9341688 -0.21082443 -0.51665837 0.76363736 0.9522562 0.41350192 -0.7532982 1.5045881 1.1784947 -0.13473995 0.5660941 0.1453388 -0.21177016 0.06412246 -0.7118329 -0.37440607 0.81670946 -0.307911 0.5268486 1.787935 -0.029040562 1.9186466 0.080358796 1.283783 0.99068093 -0.996369 0.16951512
闻 -0.25070646 0.91010475 -0.6650197 0.30692756 -0.25971296 -0.026532903 1.6686386 -1.1828698 -0.81918514 0.74922127 1.9367201 -0.06315344 0.40409017 -1.3933278 -0.7654683 1.4511231 -1.4197408 0.93577874 0.40142152 -1.5052178 0.09062603 -0.305564 -0.97847396 -0.4501396 -0.010210122 -0.0070883688 2.221273 0.5224157 0.31931922 -0.05705964 0.6230468 0.23504557 -0.22986285 0.50158787 1.5802848 0.2369192 -0.5586843 -1.1450697 0.5604133 0.9934626 -0.9044255 -0.2713544 0.51733446 0.6813172 2.6965983 -0.19731076 -0.7457729 1.316616 1.0049099 0.24595106
未 -1.0082525 -0.24206366 0.31605914 -0.57967323 0.90567297 1.882749 0.6447908 -0.5421269 -0.6522683 0.85287976 2.2708733 -1.7559781 0.60910565 -0.5908007 -0.9002002 2.1361783 0.8357711 0.9077961 -0.18102078 -0.74511147 -0.8087385 0.43450522 -0.6630868 -0.4936747 -0.34936973 0.53260225 0.43020135 -0.2538045 -0.59743124 0.058489386 -0.0020008537 -0.17460652 -0.61665416 0.8141712 1.0544578 -0.1800411 -0.52619004 -1.1561316 -0.79011387 1.2436532 -0.120958045 -0.1164585 0.29019567 -0.8439722 1.0906745 -0.05444739 0.90028745 -0.14784077 -0.1866136 0.00082745537
公 -1.1901925 0.22115202 -0.6099919 -0.293553 0.6419552 0.64607483 1.6856939 -1.6305585 0.10129998 0.6010969 1.7979751 0.23352686 1.0434285 -1.7719848 -0.93381906 0.8840346 -0.8536273 0.6836191 -0.13061477 -1.1206392 0.123528145 -0.42671347 -1.1539949 0.08586941 0.13493915 1.609613 1.0923915 -0.26902005 -0.04412453 -0.8133609 0.531327 0.07354724 0.20040628 0.19686392 0.62578034 -0.11895246 0.38338512 -0.5145127 -0.0053765364 2.2895906 -0.29573268 -0.05630413 -0.19758645 -0.41005307 1.7727545 -0.23026697 -0.5756192 -0.35988057 0.24587329 0.47575408
好 -0.7796618 0.031707056 0.37025356 0.20716466 0.79637855 1.1103903 0.49298444 -0.12667978 -1.4740844 0.43720925 1.3732866 -1.0464933 -0.6454191 0.55069125 -1.6539128 2.3601131 -0.57895184 0.9989122 -0.41276714 -1.5270151 0.5450363 0.08213928 -0.6494975 -0.34398577 -0.17439884 -0.9761962 -0.23295496 -0.04979772 -0.57861286 0.020281939 0.9124706 0.47122997 -0.2561068 1.3723804 1.0373515 0.44567192 0.8228764 0.08284029 0.22786382 1.3446474 0.19780165 1.0387679 0.7716072 -0.5881931 1.1113888 -0.3224637 -0.18255821 -0.30309466 -0.1953674 1.4443681
我 -0.9980007 0.8161985 -0.21923432 0.013322758 0.6596863 -0.7364618 0.691983 -1.2423321 -0.90319353 1.1046166 2.0318406 0.33727458 0.85986876 -0.4432856 -0.14663193 1.9931781 -0.65981776 1.05878 -0.50275326 0.1010621 0.5215126 0.08263852 -1.4401705 -0.5093601 -0.9717561 0.5596441 1.1645668 0.2835351 -0.8814036 -0.90869343 -1.1266149 0.4342464 -0.7903763 0.11942894 0.80545574 0.13806386 0.2594772 -1.3485626 0.3458743 0.88159174 0.15038097 -0.43460524 -0.03836349 1.0279118 2.4694517 -0.8390423 -0.4346211 0.40780628 1.3483123 0.11960331
路 -0.3921013 -0.14148599 1.5697154 0.4677015 0.97012746 -0.27030662 0.06955814 -0.7588092 -1.8043454 1.1661135 1.5611377 0.0035252753 0.33934984 0.23646638 0.1339038 0.9254283 0.3744542 0.6399841 0.23582089 1.2710499 -0.08825272 -1.7466648 -1.2922313 0.42971614 -0.66355985 0.13013498 2.386292 1.2359459 -0.29240972 -0.9012234 -0.5901292 0.14792544 -1.1704484 1.7799003 2.1074958 -1.0437672 0.017368548 -0.6438751 1.2924863 0.94403136 -0.6658218 -1.6335138 0.6576079 -0.8858463 1.1610222 -1.5345691 -0.3993864 -1.2663032 0.19973186 -1.1334338
在 -0.13897513 0.57522255 -0.10568738 -0.15285428 1.6388367 -0.38116342 1.2675921 -0.27177566 -0.21478155 -0.5935484 0.6662373 -0.067782804 -0.24805908 -0.8757438 -0.74569845 -0.18039122 -0.52665323 0.8173472 -0.42059484 -0.38158083 -1.0331019 -0.052447762 -1.039472 -0.8553645 -1.0094311 0.8241208 1.288994 0.015284466 -2.133627 -0.40755886 -0.63029134 0.935441 -1.689898 1.1796119 1.6712877 0.65191543 1.1453834 0.018091543 0.3102684 0.8292159 -0.0593291 -0.65974826 0.27000526 -0.6179287 0.7362425 -0.09497075 -0.29473177 -0.25720704 1.0144131 0.56027263
已 -0.63853127 0.045046974 0.53780425 -0.39606404 1.6807742 0.46156266 1.9449642 0.040285807 -0.7973635 -0.8294086 1.3797995 -1.638142 0.32687682 0.0877929 -0.18166241 1.5729003 -0.26373577 0.6801182 0.97495675 0.13167843 -0.5241044 0.3619659 -0.7795302 0.20371467 -0.52414936 0.6606369 0.54570806 0.75397074 -0.7127224 -0.124156855 0.393892 -1.221051 -1.0169789 0.12821671 0.3234057 0.69315153 0.94254524 1.7064178 -0.26572073 1.4188076 -0.32149756 0.32020682 0.5325931 -0.38177696 1.0400414 -0.8648425 0.52706045 -1.0474054 0.031993695 -0.43533656
得 -0.4642077 0.24294855 -0.1780424 -1.0162528 0.69194555 -0.44176862 0.37802947 -0.48568296 -1.5692183 0.32939148 1.2801652 0.326175 -0.29126978 -0.4908061 -1.250699 1.0043116 -1.0383147 0.50670487 0.31656402 0.22616531 -0.028890343 -0.56885874 -0.19898719 -0.6925552 -1.2455149 1.1649271 0.9224809 0.3590364 -0.4608397 -0.92590654 1.0634222 0.5176154 -0.11362976 -0.38591102 1.0277938 -0.48945272 0.48165968 -0.93830097 -0.14985031 1.4224727 -0.5711423 -0.1911035 0.37172776 0.6241519 0.74001896 -0.9598384 -0.59287006 0.5671763 -0.56531096 -0.19333719
所 -0.58720917 -0.11560396 0.036983892 -0.42368647 0.92360044 0.84526545 1.0859988 -0.7954627 -0.80308586 1.1451236 0.72127867 -0.092687756 0.13359433 0.4482583 -0.023504788 1.2505783 -0.40446043 0.64919853 -0.11915945 0.78858626 0.7211716 0.77735454 -0.05202831 -0.74401 -0.90746343 -0.24930735 0.7183549 0.6975701 0.43391466 -1.6365925 0.025995225 0.13540378 -0.7673795 0.15788084 1.2410749 -0.32440507 0.07315045 -0.61261654 0.9191844 1.57217 -1.1483492 -0.44472933 0.94967216 1.882156 1.2467977 -0.002878909 0.79411775 -0.03160715 -1.1645088 -0.3113273
民 -1.0277466 0.62913805 0.50162405 -1.2333381 1.4640564 1.2632267 0.52667004 -1.4539046 -1.9316672 0.29462832 0.58512414 -1.0981896 0.10784388 -0.7997107 -1.1017872 0.76745075 -0.5630777 0.8899197 -0.8453914 0.7411374 -0.231776 -0.106891945 0.47982103 -0.5576824 -0.543755 1.1530375 0.9171097 1.3621979 -0.21361293 -0.790749 0.60994536 0.6742735 -0.71487844 0.84250563 1.3720675 -0.22904426 -0.31630838 -0.09974075 0.19297157 1.3939769 -0.9055056 -0.55599475 0.5908266 -0.08745359 0.53385395 -1.3371272 -0.71160066 -0.19537912 -0.25126228 0.71279126
小 -0.51689684 0.77415407 -0.8011492 -0.1480583 1.0392294 1.1008546 0.8107471 -0.7800989 -0.04062371 -0.16446166 0.135179 0.5430414 0.17231241 -0.2671243 0.24347705 0.9741234 0.7071945 -0.4946003 0.60159737 0.25583684 0.619412 0.6589179 0.7703659 -1.3412983 -0.27854633 0.27295575 1.1345826 1.5697083 -0.3686128 -0.23121226 0.014851009 -0.16821194 -1.3170639 0.33177298 0.45124725 0.018669745 0.16321442 0.42508125 0.6378953 2.4130406 0.122641064 0.5724726 0.94060373 -0.3129237 1.0701448 -0.8347071 0.46765164 0.58122104 -0.21501003 0.114009954
天 -1.5663443 0.034873165 -0.35049707 -0.120130576 0.41501555 -0.5889223 1.9077679 0.010156714 -0.36907613 0.89488673 1.2445421 0.16470511 -0.5893533 0.04497104 -0.6629913 0.75743794 -0.08313504 1.0273519 0.47560096 -0.068205215 0.8304058 0.111765675 0.9164994 -0.13172592 -0.91410285 -0.5362111 0.7309076 0.16743134 1.0577902 -0.9731884 0.7778238 0.33086467 -0.37050804 -1.2149235 0.23363087 0.07203914 -0.59264404 -0.35097772 -0.34434164 0.40918648 -0.4555036 0.3169401 1.3885366 0.7732209 1.2407029 0.21110986 0.41781387 0.6290279 -1.8733932 0.36946115
乐 0.16073762 0.7270733 1.4769435 -0.3704381 0.42361975 0.24269567 1.0975685 0.35215282 -0.09583094 -0.5301555 0.8881785 -0.10980821 0.87589115 0.24983488 -0.49833184 1.3523568 1.3388077 0.93480647 1.2912714 -0.8704394 0.18072999 0.26297063 -0.9766866 -1.2452354 -0.45631275 -0.73970014 1.732722 -0.18379529 1.8948725 -0.5022422 0.28093392 0.24416122 -1.7710928 -0.40594703 1.3897779 0.6060406 0.58102894 0.03617923 1.2971358 1.755816 0.37462643 -0.11169428 0.2961732 0.15342264 1.369184 1.0565336 0.21515258 0.0056524305 -1.6203376 0.43739483
邦 -1.4392213 0.6961472 1.1825095 -1.0732172 1.4427999 1.5368956 0.31826788 0.84124 -2.425217 0.37826392 0.867205 -1.6794827 -0.31728333 -0.05754718 -1.8333509 0.62065506 0.73903334 0.64513695 0.9548534 -0.6208519 0.5152883 0.1900717 -0.9059863 -0.43503293 -0.37254605 -0.29457495 0.63254434 -0.80590415 -0.16046864 0.10027805 0.67364436 -0.32943326 -0.65365756 0.6881323 1.411745 -0.3817742 -0.6883107 0.4126224 -0.058504283 2.345425 -0.45110366 -0.87615216 0.5423244 -1.5431792 1.5675589 0.4638787 -0.37241256 0.08420595 -0.9334494 0.87649643
亦 -0.44767135 0.99660504 0.2486621 -1.6325679 0.3207266 0.43809703 1.4089875 0.18278234 -0.5249833 0.22954388 1.3271766 -0.60586476 0.6153401 -0.39458585 -1.3166103 2.0385804 0.37476283 0.49848598 -1.6071066 -0.84858876 -0.20357646 -0.28375685 -0.05591815 -0.72762954 0.25139564 -0.15139206 -0.15151954 -0.09843661 0.24500039 -0.7729881 -0.08258931 -0.49040404 -0.6109729 2.6130586 1.0864708 0.6732072 0.97919244 -0.40494633 1.0516367 0.6627757 0.2701228 0.3977982 0.6535087 -0.5762225 1.9155846 -1.0012072 0.3170557 -0.13038617 -0.09683812 -0.18762742
使 -0.8600725 1.5951498 -0.18614557 -0.38707808 1.1733447 -0.17509434 0.802361 -1.6286676 -0.41710055 0.2365756 1.2917527 0.039424907 0.37420768 -0.418693 -0.5528905 1.1357307 0.10376966 0.1076752 -0.38144717 -2.1582565 -1.0303632 0.17564575 -0.54368514 -0.8863789 -1.1548342 0.8079353 0.8320869 0.2091902 -1.6544119 0.47031742 1.428062 -0.5751692 -0.75699776 0.6325444 0.87546283 0.73822206 0.72038394 0.33590388 0.78130084 0.079281755 0.108734705 0.43318462 1.2957615 -0.9865303 0.50292313 0.56474906 0.21724908 0.324505 1.8221605 1.4553084
大 0.50037944 0.5958987 0.73202837 -0.36033884 1.0211512 0.35415044 0.6641041 0.3388117 -0.7892924 -1.2664922 0.7365156 0.4839118 0.35801977 0.09740525 -0.7212129 0.8971713 1.1739086 1.2077177 1.6581097 -0.97437304 -0.62242776 0.60790163 0.2942254 0.22935322 -1.1119876 1.8525257 0.6588883 -2.1812093 0.16466065 1.0535964 0.30042475 -0.13029292 -0.92931646 0.107902184 0.8800006 0.6377601 0.07638269 0.34029055 0.8304254 0.8797996 1.1957893 0.039300386 -0.23380993 -0.85468245 1.0878103 0.49316555 1.5104759 1.2857348 -0.8092728 1.6039791
下 -0.15501125 0.61387575 0.5749281 -0.30475438 0.043022033 0.5559016 0.12743035 0.25992492 -0.8544878 -0.7232497 -0.54122525 0.88487184 -0.18068095 0.39960733 -0.4369433 0.086404614 0.25134432 1.1353538 1.2168982 0.08861186 -0.38772315 0.22477879 1.1611558 -0.17871946 -1.4089988 -0.18358187 -0.23331499 -1.1369444 1.1192743 -0.37918735 0.05201728 -1.2429421 -0.76316136 0.2526499 0.6611412 0.068969086 -0.03625041 0.14497948 1.1859472 0.96027803 1.699564 -0.7991741 0.79638374 -1.4674891 0.28545487 -0.81349975 0.80759287 0.22821088 -0.59741145 1.2466791
贡 0.4645963 1.1958109 0.22080196 0.107460506 -0.1274303 -0.8520939 0.2089302 -0.34798956 -0.022504196 -0.6654647 0.68450415 -0.25082338 0.85898876 0.31481996 1.4725891 1.5715854 1.2237744 0.067498595 1.532164 -1.2855023 -1.3393519 -0.7527267 -0.7384184 -1.0643415 -0.45863032 0.39791304 0.8463646 0.9165083 -0.097981945 0.40436977 -0.44903445 -0.04675053 -0.3496701 0.15720753 0.9895538 0.64098245 0.52561414 0.36386752 1.120394 0.65684193 1.0816203 -0.19132538 -0.37882712 -0.9348338 1.0946391 0.4513636 0.44706962 0.6297318 0.18674113 -0.4730447
欲 -0.18198976 1.0899681 1.2557764 0.601973 -0.4537614 -0.34296292 0.122785345 -0.1798793 -0.77959657 -0.237912 0.843663 0.18369038 1.6026825 -0.1739225 0.21884984 0.55387473 0.803597 0.07880771 0.8674681 -0.3037873 -1.122398 -0.42577514 0.1075305 -0.051241174 -1.1746708 0.078053094 -0.008036693 0.8759097 -0.73888993 1.518296 -1.2225577 -0.17882936 -1.1875107 -0.49045828 -0.047952544 0.26944914 -0.2337364 0.297519 1.0430447 0.41479376 0.109458044 -0.23608328 0.01947088 -0.19574317 -0.33763114 0.32364416 0.30121794 -0.72137326 0.5651226 0.10749244
诸 -0.15483762 1.6232594 0.6421964 -1.3789895 0.5736329 0.13368425 0.49624407 -1.0036197 -0.8588321 -0.25903812 0.68056357 0.029875604 1.4073194 0.4731079 0.5089855 0.20491907 -0.4330736 0.3116349 1.1664034 0.20161815 -0.44780764 0.92793185 -0.5061218 0.7966469 -1.3885853 -0.39247662 1.1186819 0.6303058 1.4905474 -1.1887512 0.54129946 -0.61317825 -0.41485104 -0.07058933 -0.61419606 -0.24396746 1.0447726 0.24643384 0.42445025 0.52603316 -0.39469022 0.046755537 0.68198174 -0.15904984 1.241436 0.41243407 1.0142246 0.9225336 0.09173782 0.43493283
从 0.31611928 0.10109597 0.9285286 0.61168325 1.2286236 0.7126947 0.6430779 0.49476558 -0.6769252 -1.7513999 -0.0077510886 0.4057643 1.2788978 1.4164646 0.49339157 -0.609482 -0.45799714 -0.040721714 1.5536186 -1.1065321 -0.2974188 1.2569757 0.50975865 -0.05237177 -2.435898 -0.08609454 1.5874997 -0.88620687 0.717826 -0.18366003 -0.49558893 -1.2241234 -1.4813561 -0.26677042 -0.40608802 0.75854254 0.6123095 1.1471035 0.9085068 0.55705875 0.65531254 -1.300439 -1.2392951 -0.107158124 -0.55786556 0.9601749 0.6555787 -0.011817652 -0.46761054 1.4289439
文 1.3763179 1.4644607 0.7079764 0.6150893 -0.20432808 0.33180025 0.114426106 0.82632387 -0.50934553 -0.6334771 0.45743376 -0.19110729 1.1020523 0.9386691 1.3623945 -0.03446663 -0.4932275 0.34294865 0.6623592 -1.4188347 -1.1285155 0.8969017 -0.23812504 -0.31383488 -1.2157446 -0.9745324 0.13960598 -0.12326231 0.64449984 -0.7808388 1.2284069 -0.35317597 -0.61472666 -0.18887354 -0.5189926 0.49897015 0.5534094 0.43352738 -0.18969075 0.5775562 -0.6731093 -0.2516858 1.0001907 0.49098706 -0.4531152 1.0151265 0.9820813 -0.14793575 -0.46947598 0.079587534
政 0.9587384 0.041316144 0.8781348 0.57553303 0.21923858 0.9781165 -0.22746134 0.8141729 -1.167714 0.030752527 -0.1791886 -0.11502226 0.8447032 1.1718172 0.17000324 0.021293791 -0.7535289 -0.6764172 0.8203494 -0.7721009 -1.0453 0.55930704 -0.46533552 -0.1394897 -0.49157834 -1.0474273 0.0071517485 0.7935295 -0.88728243 -0.29022408 0.17099571 0.47921178 -0.643531 0.033400472 0.3068017 0.12645653 1.307498 -0.6200151 -0.23395064 0.6276977 -1.3243581 -0.7237756 -0.14854214 0.7304846 -0.31664336 0.6704302 -0.4478993 0.045841366 -0.9339689 0.3355964
食 1.0806692 1.5414662 0.9073226 -1.2328279 1.0794768 0.4830566 0.38018355 -0.13796532 -0.2840575 -1.3438497 2.0771787 -1.626209 2.1684432 0.4727907 0.32402343 0.6957612 -0.64043266 -0.22237308 1.3331358 -1.1541129 -0.8070533 0.9124004 -0.3858452 0.14108562 -0.7128027 -0.2907723 0.7811668 1.0169017 0.3427189 -0.74570155 0.19339947 0.58497846 -0.75470114 -0.031833433 -0.3364481 -0.27020958 0.07954059 0.028373387 -0.011855451 0.6788398 -0.74902135 -0.7477739 -0.009077685 0.046406902 0.9760616 0.1278675 0.6626893 -0.565481 -0.3345685 0.32322323
善 -0.53449446 0.6393757 -0.1385334 -0.03293312 1.1418434 0.95893735 -0.2380232 -0.38813084 -0.4741154 -0.40091366 0.31450728 -0.101472415 1.0160753 -1.289376 0.9398515 -0.06858591 -0.86938965 -1.1005993 0.65637803 -0.89674765 -1.4767133 -0.27560356 -1.4146744 -0.3749294 -1.1180806 0.32476878 1.0561417 -0.42167446 0.10520929 -0.36816657 -0.5516042 -0.605347 0.006501168 0.2713716 0.89562404 -0.52712 0.34901926 -0.2768263 -0.36240327 2.015759 -0.894425 -1.331241 -0.7328899 0.23360616 0.48296025 0.23606113 -0.48171133 0.021366736 0.6305592 0.24011384
后 -0.10591684 0.9350113 -0.4365652 -0.57981783 0.46602854 0.24088167 0.19740522 -0.7027922 0.13870268 0.28294495 0.9549593 -0.11311925 1.2087398 -0.8900648 0.64249176 0.695681 -1.1308079 -0.66643345 1.953629 -1.4689455 -1.4659964 0.9089826 0.10469988 0.95262927 -0.85406834 -0.07846458 1.023244 0.42247215 0.23839898 -1.2332916 -0.11423695 -0.90771544 0.30084044 1.0722123 0.21582247 -1.0695472 0.4128094 -0.25987926 -0.070433505 1.2140651 -1.9998806 -0.79107606 -0.45950288 -0.44779617 0.8282909 -0.2914832 0.15060993 -0.179845 0.94932526 -0.45155033
德 1.0811424 0.27583095 -0.37162527 -0.2239664 0.102407604 0.11385141 0.50145084 1.9461607 -1.403729 0.30334708 -0.1717994 -0.3458231 0.4432934 0.19318762 -0.3300642 1.0525566 -0.73304486 -0.94244736 0.07756853 -1.1031495 -1.4946032 -0.05082541 0.5897312 -0.99165434 0.010510902 -0.43375567 -0.23875508 -0.76309174 -0.9057708 -1.0092049 0.1710592 -0.23817898 1.1347308 0.221077 -0.59203637 -1.3228273 0.095687896 -1.0354031 -0.14559633 -0.16368094 -2.008802 0.028853128 0.0025865575 -0.37217757 0.78496414 0.82989794 -0.10325157 0.89763224 -0.80454624 -0.012273288
求 0.423653 1.0893732 0.60477024 -0.03987507 0.6649266 1.0940664 0.54163015 0.4400462 -1.264005 0.793745 1.7708404 -0.1500274 1.0109919 -0.36051428 -0.8753787 1.011189 0.96856016 0.2993028 0.40789443 -1.4276286 -0.91960466 0.227669 -0.625346 -0.33948693 -0.52155316 0.16146769 0.34830737 0.6757546 0.37979993 -0.57438165 -0.6906857 0.36241257 0.64280754 0.17016095 0.19293875 -2.1409757 -0.36990696 0.30649397 0.981178 -0.16181193 -0.45911017 -0.86998904 0.36976108 0.20817132 1.1618845 -0.5865295 0.21834204 -1.465918 0.3192039 -0.6362044
对 1.2845412 0.4409012 -1.063861 0.45210168 0.94600296 0.9754068 1.1827404 -0.8875195 -1.9086052 0.33849084 1.4024932 0.26421985 1.2596949 -0.6877399 -0.90470153 0.2311329 0.31864026 -0.38814074 1.7187084 -1.8220896 -1.5264809 0.6803781 -0.3102813 -0.15748563 -0.95495903 2.6188898 1.585355 0.6279957 -1.0190556 -0.1433265 0.18005262 1.5209183 1.401586 0.88003373 0.77045816 0.002122337 0.38998616 0.84445244 0.28282267 0.43332088 0.30570322 -0.8160404 0.18187582 0.0015132618 1.3047267 -0.2392514 -0.13481031 -0.056707315 0.7959572 0.9365947
恶 0.44069698 -0.548684 0.7196876 -0.22864486 0.48885798 0.81319135 -0.06401203 0.07190801 -1.3084686 0.32084554 0.6134706 0.44235292 0.8425939 -0.13886884 -0.43660352 -0.10085339 0.5997399 -0.5154165 0.045706056 -1.232709 -0.9389944 0.7808117 -0.70908517 -1.043583 -1.1146148 0.26351687 0.5346171 0.6026714 -0.15101871 0.34732586 -0.57824945 0.5560674 0.10210036 -0.48083493 0.12057648 0.1570363 0.3856065 0.24832249 -0.34773338 -0.20856586 0.6323015 -0.5046474 -0.71310085 0.31505707 0.95630586 0.21347322 -0.54047155 -0.46417683 -0.2186647 -0.01844437
信 0.57414716 1.0666928 1.0350189 0.15053785 1.625082 0.9780637 0.91077715 -0.08346627 -1.704463 0.19666521 0.20208119 0.119835965 1.6699868 -0.043224495 -0.5391447 0.11024909 0.21393394 -0.8309573 0.052581567 -1.6543646 -1.4284406 2.1630802 -0.14007771 -0.37777203 -0.7241583 0.57597876 0.4096612 0.58291507 -0.6532588 -0.24615462 -0.33399168 0.36889586 0.072971374 -1.3976371 -0.31333166 0.83279645 0.96791524 -0.4058152 -0.41750216 -0.23688965 -0.81736046 -0.36889175 -0.99246615 0.063894525 0.68142015 0.4155654 0.6475486 0.091679186 0.033889044 0.48402733
死 0.1283347 0.43559822 1.2004275 0.30483633 1.2122097 1.373705 0.15546888 1.1086856 -1.4162267 0.6600443 1.2935811 0.17464729 0.5851925 0.15767126 -0.8216541 0.28228128 1.2834545 0.1426302 0.5920185 -1.868016 -1.7640086 1.3867255 -0.3324725 -0.555524 -1.2060654 0.7309021 -0.4439321 0.71473545 -0.36514905 0.50797236 -0.500774 0.77302706 -0.59171295 -1.5135297 0.14474975 0.013819771 -0.44072857 0.17732213 -0.017575338 -0.09420146 -0.832955 -0.53135926 -0.10323654 0.1273823 0.64732903 0.8089734 1.1127626 -0.85637134 -0.56868076 -0.15012674
然 1.4835124 0.75556415 0.20501855 0.3470319 0.11956291 0.4283498 -0.29273584 0.6412858 -1.001631 0.13251293 1.6113265 0.24268563 0.43276125 -0.40070972 0.19822247 1.727425 -0.21078713 -0.10851076 1.253667 -2.291749 -0.35375753 0.6218355 0.09908009 -1.5717525 -0.6056664 0.9604378 0.34964606 1.2536105 0.21173045 -0.6136037 0.7179106 0.76658183 0.6731799 -0.1608676 0.048439745 -1.3638172 -0.25613317 -0.08021854 -0.3683257 0.74341565 -0.45321387 -0.54909027 0.32549736 0.99304867 2.1162794 0.69079065 1.2649478 -0.8664728 0.6357574 -0.22311535
《 0.40294963 1.0473022 0.9138656 -0.6012158 -0.30559388 0.5618624 0.7803342 1.1281518 -1.1016442 -0.26556283 1.183593 -0.5219177 1.1743515 -0.10924671 -0.23080862 0.9757648 0.182363 0.30417025 0.65463054 -1.0528773 -0.48552307 0.8323048 -1.1544117 -0.9920293 -1.6999065 0.25693867 0.2930369 0.67248285 -0.35573453 0.57485545 -0.44112495 -0.079388246 -0.7984802 -0.7017391 0.50979644 0.1133488 -0.078506835 -0.06861463 -0.27120516 0.40301615 -0.9370422 0.04112352 1.3239484 0.8405096 0.11020496 2.0147636 0.081278175 -0.21869811 0.19371061 0.08928729
》 -1.1305587 0.64403623 1.0319412 -0.061430097 0.7975885 0.2716966 0.7136859 0.5448993 -1.0823318 -0.03620671 2.0408654 -0.1901255 1.0005406 0.8435917 -0.45163384 0.89821315 0.3967429 -0.29813847 0.1474408 -2.0308273 -0.5952961 -0.053659886 -0.75012034 0.24352597 0.57994133 0.06515833 0.13884433 -0.3928594 -0.7452654 0.7842076 -0.9639177 0.37606254 -1.4269502 0.04691294 0.30337805 0.71937066 1.3770137 -0.65020293 -0.15114798 0.51620466 0.55865943 -0.5427566 0.2790311 -0.54254735 0.84002715 0.2747611 -0.05753644 -0.598943 -0.27854994 -0.2777864
由 -0.8087723 0.92802715 0.255304 0.7756163 0.9853781 0.6012525 0.90596604 0.0011807374 0.5030157 0.58204037 1.6063735 -0.40619814 0.5269684 -0.21082589 -0.6441123 1.1676987 1.1370742 -0.007195132 0.4319183 -1.1917052 -0.57298356 -0.72561616 -0.88980746 0.65878046 -0.43044454 0.8171738 0.73987496 -0.25042984 -0.65076655 0.5625988 -0.30770674 -0.00019147061 -1.0173806 -0.83380586 0.8925896 -0.4367975 0.22624008 -0.33817506 0.8728473 0.41134366 0.7582505 0.42287338 -0.017669458 0.18937396 0.29092005 -1.054879 -0.693227 -1.5257437 0.07295391 0.25210232
仲 0.4418675 1.0856272 0.291426 0.9130209 -0.6002562 0.37444064 0.5875183 -0.0113649005 -0.15561734 0.16589777 1.1173446 0.90872425 0.7482006 0.6956824 1.1344804 0.88726646 0.7227829 -0.09129062 0.36070532 -0.99167025 0.9338373 0.73256713 0.5283374 0.075363144 -1.0787001 0.70472026 0.20654017 1.6097897 0.41188642 -0.42823705 -0.7221863 -0.895069 -0.18054278 -1.2819586 0.13761243 0.7734999 -0.1563776 -0.2185974 0.69051677 0.52184576 -0.7337404 0.08078271 0.65780956 -0.14747384 1.2688246 -0.44314766 0.7701183 0.16763009 -0.5292887 0.11555689
非 0.9219283 -0.3777214 -0.11253993 0.63827115 0.011186639 0.6801237 -0.12033485 0.26045662 0.3783009 -0.23639546 1.7043793 0.17314069 -0.024478154 0.28721955 0.19790679 1.2996657 0.29822126 -0.30634695 -0.31396392 -1.1867799 0.052571326 0.7278899 0.5074552 0.8410487 0.22357205 -0.9672398 0.2046616 -0.011909146 -1.0145855 -0.076339155 0.61452335 -0.06830018 -0.5982625 0.109316096 0.124214634 0.16356054 0.10066699 -1.0821047 0.7349189 0.9676242 -0.58278507 -0.21977252 1.0129325 -0.35495573 -0.16104166 -0.9182392 0.2264709 -0.04459523 -0.09744437 -0.49935693
出 -0.363044 -0.083206885 0.42498702 0.187491 -0.41315928 0.10290034 1.0598184 0.4131044 1.0218219 0.09871734 1.5224196 -0.75986165 -0.08337747 0.43468058 0.56917715 1.6187794 -0.21064678 -0.13075869 1.4841443 -0.14619799 -1.0356791 0.3027644 0.4418841 0.46284738 -1.9068676 1.2453313 0.11464385 1.2515078 0.17452663 -0.27338508 -0.92478174 -0.82295257 -1.4969928 1.4245443 0.9115853 -0.41794658 -1.2757746 -0.82985634 0.54 0.5434032 0.504618 -1.4560037 0.9173611 -0.5831273 0.23274572 -0.040437102 0.73778975 -0.08678915 0.89954495 -0.546832
过 1.212636 -0.56765074 0.58594525 0.7547654 1.4272399 0.76616085 0.29670092 -0.019493416 -0.074308276 0.12008593 0.688972 0.11616155 -0.78166205 -0.26352116 0.60076594 1.3614824 -0.3402823 1.3791877 0.80547965 -1.8226193 -0.75341254 0.38595182 -0.11706676 0.74583673 -0.5657061 1.0173054 0.6461898 -0.12813412 -0.16927436 0.15118037 -0.20759931 -0.500223 -0.76127344 1.5327199 1.5202155 -0.61871177 0.056840893 -1.2791165 0.6579398 1.293621 1.115076 -0.46515 0.051216904 -1.1716088 0.12055062 -0.12602407 0.013120756 -0.2899841 -0.5636789 -0.7340019
一 0.71835244 -0.34436694 0.40291533 1.3056037 1.0514919 0.8007084 0.54870975 -0.1631329 0.51744187 -0.5925006 0.93094915 0.14888053 0.9092489 -0.033449102 0.55810565 -0.323924 0.35606143 -0.5700249 1.1277614 0.058837265 -0.80413514 -0.49614614 0.39138728 0.12041035 -0.40874547 1.3484484 0.12272895 1.2999538 0.9577351 -1.8283526 -0.4878193 0.7113212 0.5190006 0.5300356 0.5675781 0.16344112 0.3797575 -0.33044398 1.1318805 -0.64360636 0.82020557 -0.3648623 0.93375814 -0.97788125 1.0413358 -0.6168615 0.58984315 0.43345922 0.2832447 -0.82078934
虽 0.6517092 -0.469908 -0.09608523 1.373217 0.81065136 0.849245 -0.39342925 0.72979146 -0.74603397 -0.74029225 0.85145867 0.50394124 0.13567363 0.56214225 0.6947517 -0.44518033 -0.7398659 0.20192663 1.6863343 -0.3059276 -0.31338155 0.24274273 0.94138616 0.9264478 -0.42366213 0.41354173 -0.4041041 -0.5185932 1.4964188 -0.8762309 -1.2864159 0.31929508 -0.34606206 -0.16422404 0.8334801 -0.3953383 -1.1476493 0.17691262 0.3968437 0.3803052 0.7268257 -1.0251135 1.0799356 -0.21985565 0.10932631 -1.1357148 1.210506 0.23096387 -0.39483783 -0.59784424
足 0.724043 -1.906472 -0.16544056 1.2397004 0.8429099 1.3054186 -0.9331791 1.0285804 -0.9235413 0.25980854 -0.1709876 0.7398994 1.1563652 -0.16388908 1.5056034 -0.6943341 -1.3431561 -0.937578 0.43608004 -0.35855526 -0.48762342 0.52194846 0.510087 1.0756122 -0.7189979 -0.91564286 0.6557058 0.22789566 0.14300734 -0.46910664 -1.509204 0.06076341 0.81131953 -0.12846921 0.579129 -0.95260626 -0.8214753 -0.45407003 0.36093464 0.42264834 -0.35104376 -1.486923 -1.2156726 -0.7880176 0.5860682 -0.8834523 0.1273568 0.37944743 -0.30281934 -1.416057
居 0.7460056 -3.5727627 -1.0600747 0.2638338 0.4875941 0.4042063 0.3322857 1.1350423 -0.6653799 -1.6469779 0.9641059 -0.99391747 -1.1581552 0.78352726 0.9172347 -0.3583174 -0.37079626 -0.13418072 1.1761353 -0.022686502 0.16229004 1.4991969 0.3912739 0.30728707 -1.5493304 0.39298967 1.0449253 -0.43396485 0.71501464 -0.9196916 -0.39722905 -0.29660967 -0.10798731 0.32646564 1.1048038 -1.4340973 -1.4232084 0.7198529 0.5942118 0.79178804 -0.346027 -0.42352942 1.6625843 -0.2755264 0.56243634 0.03535265 0.20154512 0.6299222 -0.71978307 -1.0126566
尔 0.028911816 -0.33112106 -0.9510402 0.14022191 1.2553076 0.71588844 0.22812076 0.98222214 -0.15747312 -0.591671 0.121446975 0.7293991 -0.0881613 1.0054624 1.3142476 -0.15021802 -0.78486687 -0.953932 1.6430749 -0.6063529 -0.7292154 -0.15112992 0.30283058 -1.3582556 -0.43190297 -0.12935929 0.67624193 -0.75997883 0.78691894 -1.7510554 -1.8163275 0.6585703 0.43319288 0.63377696 0.9012352 -0.8400442 -1.2029141 -0.80838627 0.9385425 -0.03654401 0.5613533 -1.4499253 -0.08993666 -0.94783765 0.4694797 0.26353338 0.7735693 -0.52928203 -1.1284885 -0.29130346
夏 0.8637186 -0.0041111847 -0.8077797 -1.0445079 0.6779403 -0.09293937 0.098610096 -0.46078077 0.19940251 -1.869572 0.456439 1.1179498 -0.43588537 -1.1578844 -0.6756255 -1.1944741 -1.1501157 -1.0691845 1.1409034 0.22204159 0.29911494 0.069122635 -0.32223704 -0.34905732 -0.41646916 -0.46959043 -0.57429826 -1.0729485 1.7685424 -1.0597718 0.40481272 0.31885526 0.5337091 -0.2487394 -0.6361461 -1.2176863 -0.11437581 0.19282652 -0.56262225 -1.2080356 1.5665423 -0.091626346 1.2748107 -0.4935499 0.83358675 -0.9023907 -0.31635943 1.4527084 -2.0541492 -1.4077162
父 1.3030626 -0.0896215 -1.3880014 1.0347869 0.50494105 -0.37601542 0.36194265 0.043594126 -0.9990394 0.022041643 0.099047236 0.9119669 -0.04887264 0.32877356 0.074177906 -0.36698407 -1.5035093 -0.41377482 0.5456305 -0.29330844 0.2505779 -0.7378296 -0.21296021 -0.19080949 -0.34127307 -0.24236894 -0.67010653 -0.048625235 0.8117303 -0.8357641 0.5503466 1.3060982 -0.6417787 0.556983 0.123170525 -0.6583647 0.2420764 -1.2317741 -0.058521003 -0.32196584 1.0568604 -0.45779422 0.40655807 -0.32137382 0.39636073 0.003221192 0.32941794 0.6754751 -1.9218136 -0.8473084
及 0.82107776 -0.6480614 -0.71959794 0.08718544 0.2507337 0.12641399 0.30225745 1.0652801 -1.6249052 -0.2577124 -0.21924974 0.7061138 0.38363343 0.38926807 -0.6459695 -0.43282768 -0.6577796 -0.119728394 0.6875858 -0.37484604 -0.06736927 0.28601864 0.38858497 0.029383611 -0.25832036 -0.65636605 0.21505673 -0.3099347 0.5811863 1.1080159 0.2355666 0.056900397 -0.057333637 0.56994575 -0.30138278 -1.3436744 0.6487279 0.050826106 -0.73903435 0.76955944 -0.06700832 -1.2336034 -0.077073365 0.2605274 0.18323222 0.11324072 0.12720858 0.019623363 -1.4350215 -0.7291611
己 -0.46738863 -1.0232282 -1.2868229 0.050622385 0.86229295 0.10171861 0.1358089 0.5057264 0.3050842 -0.68784064 -0.2798521 -0.35110444 -0.6584167 1.3642154 -1.6989126 -0.36539936 -1.103459 0.07501911 -0.011017721 -0.6034741 0.2668737 -0.801345 1.3974644 -0.14802296 -0.6384428 0.38391218 0.1827028 -0.5256695 0.8165152 -1.259439 1.1312276 0.047609042 0.15444763 0.7330949 -1.4605753 -0.28042465 -1.0262214 -0.8828594 -1.4887034 -0.06478639 -0.2689597 -0.7466359 0.23702028 -1.1782734 1.5597745 0.1595481 0.16872057 0.7472892 -0.98727924 -1.4715872
予 -1.2584224 0.19921944 -1.9535719 -0.17012681 0.45329237 -0.8252143 1.3448201 -0.3376352 -0.014952348 -0.3114109 0.9785082 -0.65306365 -0.19139355 -0.9088008 -0.8026732 -1.1128243 -0.31610253 -0.43574134 1.189467 -0.39437202 -0.45440158 -0.41017753 -0.26661775 -0.34153458 -0.03278535 0.73808664 0.52160496 -0.3140069 1.7599933 0.38035312 1.0109372 1.3648932 0.474921 -0.22798282 -0.27937293 -0.7859293 0.16162613 0.24922228 -1.3856314 -2.3663154 0.5406073 -0.9363687 -0.06034212 0.1677962 1.893319 -2.2760131 0.037416134 1.1669619 0.7327794 -1.6379973
色 -0.5085221 0.9257632 -1.9539844 0.38581598 0.78870463 -0.29986256 1.9654274 -0.38439965 0.3022611 -0.04528269 -0.20795394 0.94873834 0.44090837 -0.49223274 -2.9226503 0.9352929 -0.7299406 0.5690868 -0.13233268 -0.51878667 -0.40069062 -2.6398468 -0.77857465 0.06711469 0.016875636 -0.11039683 0.33886078 1.0169998 0.088206634 0.26089004 0.81046844 0.6651723 -0.8135011 0.4506338 -0.4351971 -0.9722832 1.5916259 -0.3119543 0.5319585 0.39898175 0.8049217 -0.989793 0.575631 -0.764579 2.4615092 -0.9911451 -0.8102042 -0.1544605 0.25474185 -1.7700249
友 -0.07314535 0.4596909 -1.413542 0.124814115 0.6820714 0.12455864 -0.5559688 -0.9843383 -1.6699533 -0.58454156 1.524929 0.5447912 0.71839464 -0.41348538 -0.43122125 0.18715954 -0.4576675 1.0376785 0.3177077 0.39302722 0.32203463 -0.22680236 0.11813536 -0.50315154 -0.52463585 -0.8841079 0.7219773 -0.74062866 -0.72717845 -0.72098696 0.0739572 1.0385422 -0.06449554 -0.020797223 0.09081579 -0.49422675 0.44256857 0.3767581 -1.1285659 1.0438093 0.3605556 -0.8266411 0.13719487 0.7041687 0.14342138 0.3303101 0.38168284 1.8531755 -0.2984467 -0.46144792
成 0.38749662 -0.37904626 0.089488156 0.1775351 1.4994099 -0.008362849 0.36174598 -0.75117123 -2.2143252 1.306845 0.78606623 1.5504531 0.6805215 0.85564417 -1.6985214 0.10923349 -1.8425506 2.0477448 -0.31704748 0.5741895 -0.38013557 1.1779097 0.4225821 1.2711946 -1.9744056 0.28259516 1.0010481 -1.912172 0.22664952 -1.2919343 -0.85224265 0.41093424 -1.2299417 1.3690274 0.9379574 -0.8082949 -0.6174098 -0.87709236 -0.47034883 1.1401471 -0.79717714 -1.7546273 0.7143546 0.46082333 0.9338249 -0.5041214 0.30036965 0.83480215 0.22704718 -1.553372
远 0.9552252 -0.41361272 -0.21994583 0.9925377 0.861412 -0.42532033 -0.7686078 -0.21886504 -2.3759468 -0.05422046 1.7942978 0.59921265 0.5201004 -0.046500176 -0.5915139 0.40375617 -2.1045437 2.04643 -0.7641262 0.14591216 -0.6845266 0.48022377 -0.06668435 1.6085773 -1.4394665 -0.14202103 0.15861751 -0.07409929 -0.7376068 0.1875169 -0.43658257 0.5396839 -1.3432679 0.4746361 0.36489522 -0.33402094 -0.1501664 -0.3292921 -0.48595762 1.2078705 -0.62048686 -1.1518074 0.5144968 0.48161152 -0.34143502 -0.85617024 -0.52054363 1.2868899 -0.7142795 -0.61655086
上 -0.62087023 -0.4135905 -1.7612941 1.722703 0.5173719 -0.39373246 0.11572633 -1.0144091 -1.3938353 1.2484481 1.8131943 0.82154703 0.51614183 -1.6906283 0.51774293 0.35567597 -0.85918736 0.033058267 0.43609795 -0.50999886 -1.4915774 0.09127041 -1.2179754 2.0944364 -1.0360711 -0.5520873 0.45106518 -0.6295172 0.93715686 -0.1896539 -0.6231506 0.07627757 -0.8114956 0.63436776 0.82550776 -0.8605728 0.3805748 -0.1155901 -0.088671364 1.5012791 -0.71358114 -1.6475056 0.28716007 -0.513783 1.2125267 -2.1928062 -0.10553357 -0.6679296 0.064849034 -1.6806929
立 -0.31453523 0.6274751 -0.7519824 1.009764 0.9406805 -0.35979757 0.15470482 -0.83191574 -2.4271498 1.2779819 0.6359694 0.93032026 0.06473937 -0.60546875 0.31519008 0.43351376 -0.692728 1.2020569 0.33161035 0.58302504 0.30514163 0.056857225 -0.32740366 0.65608007 -0.35670418 0.15522815 -0.44109702 -0.13674404 0.2416813 -0.8727584 0.035488553 1.8319163 -0.7054497 -0.030879205 1.4484133 -1.1945257 -0.2666238 -0.2464493 -0.21406876 0.74446094 -0.30535308 -0.7617235 -0.35527495 -0.81494004 0.4966382 -0.6277584 -0.117122464 1.0790013 -0.68573266 -0.43061545
今 -0.4054694 -0.05985359 0.015558449 0.18803366 0.64085895 0.9165301 0.17147943 0.6790372 -1.1486769 0.10606602 -0.18950763 -0.48670483 0.027975088 1.331391 0.6979541 0.11807787 -0.5508608 0.7387069 0.28850567 0.08301336 -0.32672402 0.20093234 1.0420189 0.39116645 -0.6084428 -0.8501875 0.33913583 -0.6119317 0.045068096 -0.6187458 -0.59430134 -1.078457 0.3666139 0.83935744 1.9134976 -1.4949719 -0.633731 -0.8459111 -0.15063278 1.0863498 -2.1583104 -0.770118 0.56524324 -0.14748281 0.55038387 -0.29778665 -0.54747224 -0.17240743 0.002501437 -0.64219946
张 -0.064720325 -0.19590564 0.40308774 -0.19626085 -0.35313925 -0.8155035 -1.0643172 1.4064511 -2.2522275 -0.4122519 -0.9314722 0.5443445 -0.15292175 0.6986671 0.22128098 -0.9611158 -2.1209114 -0.2372866 -0.7994969 0.42267478 -0.7781638 0.56433505 0.3884119 -1.2919908 -1.2315568 -1.0484934 0.25980413 -0.48845258 0.4543935 -1.376979 0.30490616 0.998068 -1.082638 0.35034433 0.37453666 0.33927768 -0.53795 -1.3112502 1.1860785 1.1605315 -0.46163437 -0.99459136 0.33973908 -0.6668705 0.18773791 0.036978867 -0.86653733 0.7544543 -0.46010128 -0.98115915
中 -0.8234461 -0.841181 -0.66724855 -0.03749477 0.06639917 0.8836681 0.981331 0.4775751 -0.89065284 -1.1408534 -0.23331966 0.09723972 -0.74503577 0.41470805 -0.5392851 -0.083164304 -0.5819606 -0.023100788 0.26849097 -0.79956025 -0.039500754 1.7950746 1.0183499 0.5398917 -1.2032813 -0.59834206 0.10725378 0.57425445 1.116524 -1.3316007 0.1623447 0.0561209 0.6680598 0.10181306 0.6766787 -1.5515888 -2.0429358 -0.5380652 -0.4043225 -1.0686711 0.6556845 0.16097768 1.3147172 0.15422376 -0.3298393 -1.8879151 0.80348355 0.7743573 -0.03173216 -1.1240447
季 -0.49837175 0.3262282 -0.18175922 0.6931141 0.38343075 0.22649784 0.034178354 0.7670121 -0.8192543 -0.42931277 -1.3937491 0.959975 -0.030989405 -0.20130564 0.54154724 0.25365952 -1.7960042 -0.31436887 -1.0443398 -0.9597737 -1.0393612 0.17488112 0.772469 -1.2840974 -0.48687455 -2.5691528 -0.19642515 0.16772203 2.5373156 -0.10227674 0.26506704 0.92169195 -0.5734617 0.082535215 -0.29808667 -2.4756658 -0.44791958 -1.4307252 -0.52293533 0.30464524 -0.6727625 -0.7285124 -0.03322501 -1.6342795 -0.16126084 -1.6594532 1.6268786 2.072487 -1.4276633 -0.6563235
臣 -0.8087436 0.29259247 0.3640807 0.60271066 0.9971234 0.9465875 0.0035360476 0.093395784 -0.5885235 0.43584228 -0.57911944 -1.3647779 0.58479476 -0.4568224 0.7078149 -0.37064716 -0.36207342 -1.5379875 0.73779064 -0.43740728 -1.607267 1.4934338 0.4636166 0.2188603 -0.77864635 -0.17814553 -0.21129365 1.4579787 0.8269686 -0.45049402 -0.20224428 -0.045665875 1.4429595 -0.6607223 -0.015185013 -0.4649747 -0.7330277 -0.25482547 -0.89515656 0.6776545 1.0302933 -0.18908077 -0.9157909 0.58251315 -0.3169687 -0.1067134 -1.0439647 0.12080493 -1.1650091 0.13900685
贤 -0.8187076 -1.7098536 -0.06499484 -0.7319749 -1.0682712 -0.29640272 0.9115587 1.8762239 -0.08018031 -0.9480885 -1.7215054 -0.97475415 0.75570047 0.21143788 0.12288678 0.89578897 -1.2132707 -1.8746434 -0.28797537 -1.682318 -0.9351567 0.22926483 0.0024228862 -1.9955741 -0.9511767 -1.5201657 0.19080189 -0.4197565 1.845245 -0.8070382 -0.16006039 0.2404935 0.15701275 0.45668736 -0.09638553 -1.5616844 0.8063162 -0.732539 -0.71593875 1.1593399 0.4501746 -1.0265374 -0.76977515 -1.6953336 0.28520343 0.12862653 -0.9461721 0.2824924 -1.3929696 -0.59826523
思 -0.95461035 -0.94572145 0.5818019 -0.23084854 0.1296091 -0.021922674 0.13953245 0.76260054 -0.3014213 -0.5442556 0.26591736 0.16129899 0.046370484 0.28927055 -0.018258128 -0.3631654 -0.45228538 -0.20614111 -0.18723592 -0.407646 -0.24955577 0.35728565 0.49208474 -0.28230157 -1.1614125 0.24084246 0.96327955 -0.012816808 0.8412325 -1.1319989 0.5401687 0.22492667 0.38114738 -0.3243824 0.32374513 -0.47091553 -0.6659553 0.30348533 -0.35920852 -0.3680003 -0.7170872 -0.3003637 0.17267385 -0.41637167 0.4053708 -0.36628243 -0.22249189 -0.037273657 -0.53049845 0.19767135
齐 -0.40535912 -1.6460748 0.75620395 -0.50686127 0.15857306 1.9477808 1.3736864 0.9139283 -0.16259211 -0.4217948 -0.5559295 -0.3621012 1.4768639 -0.042707846 -0.15448931 0.86360794 -0.8472855 -0.9372334 -0.45972916 -1.2883449 -1.385026 0.954335 -0.012551051 -0.33916152 -1.7417482 0.21180597 0.20515041 -0.00862228 2.0312378 -1.3750587 0.26824757 0.9437079 0.5587546 -0.84590304 -0.56148976 -0.2377776 -0.022899168 -0.0916693 -0.06831404 -0.23726763 0.9923459 0.5381207 -0.33031666 -1.0410401 1.1256217 -1.223881 -0.7057234 -0.48271418 -0.9370476 -0.08074584
义 -0.08448083 -0.55764747 0.19471483 0.2967311 -0.106684215 0.38707584 -0.18264154 0.62297356 0.31004235 0.1400259 0.038472183 -0.25286886 0.2630616 0.4093692 -0.002482798 0.21531892 0.16684192 -0.31085974 0.024860458 -0.7707429 -0.7394859 -0.25140873 0.052211396 -1.4078444 -0.5266687 -0.6956304 -0.3696693 -0.07639188 1.0767552 -1.2056724 0.5793384 0.5951166 0.21574609 -0.4924489 -0.011210393 -0.057110846 0.22367164 -0.25476283 0.06162948 0.49448612 0.41778216 -0.046853166 -0.42230952 -1.2157639 0.5198601 -0.20382543 -0.19735567 0.4185886 -0.8474209 -0.11436232
正 0.83629084 -0.7493507 1.3137577 0.047924276 -0.75273836 1.0659693 1.6554202 0.87072843 1.0293963 -0.07684468 0.17242557 -0.059042156 1.3066512 0.3150743 0.4820655 1.4429721 0.041887116 -1.9306965 0.44272554 0.98023015 -0.8022945 0.6072131 0.75784445 -0.60012716 -1.3847231 0.10349214 -0.64031756 0.73282653 1.9168286 -2.293172 1.2783245 1.0290334 -0.98001945 -0.8910543 -0.60849386 -0.34598854 0.44922835 -0.5126296 0.6418344 0.6690936 0.28997928 -0.13151497 0.09265839 -1.71431 0.21935236 -1.0890898 -0.05397538 0.4091921 -0.71276444 -0.57881695
命 -0.5002668 -0.9361984 0.29446182 -0.3010505 -0.29476655 0.8149097 0.09568019 0.66843826 0.24205722 0.06569235 0.4153779 -0.36191958 -0.22380291 0.57921034 -0.51759845 -0.340117 1.1308422 -0.6761049 -0.0485549 -0.19640154 -0.64832866 0.034846965 0.80671763 -1.0764234 0.18313974 -0.64429265 -0.18272898 0.5226628 0.8731262 -2.1947575 1.7931124 1.2850578 0.06652652 -0.33849505 0.01931435 -0.45321164 -0.15793388 -0.36961842 0.6714382 0.7143073 -0.40562493 -0.6413319 0.25650576 -1.5139544 0.66545874 -1.1600763 -0.59569126 -0.5465029 -0.7132044 -0.8558424
曾 -0.7456304 -0.13774835 0.54726464 0.020336254 -0.5681554 1.860634 0.84584475 2.3201423 0.32331532 0.4841 0.37488225 0.17366436 0.07281517 0.56127566 1.1091363 1.9808903 0.3216254 0.032601345 0.8656894 -0.09295158 -0.42223242 1.8790513 0.49061245 -0.23507804 -0.87624526 0.3217788 0.88489866 0.51877177 0.43919274 -2.106867 1.4515979 -0.20529367 0.9699833 -0.36802122 0.4963639 -1.6678127 0.76728106 -1.6890292 0.17950627 -0.34487316 -1.3887347 0.38192344 0.353829 -0.7158392 0.9995029 -1.9539837 -0.8978647 -0.8189642 -0.38225535 0.6608219
伯 -0.25194106 -1.6701831 -1.1650697 -1.2250907 -0.5331077 1.1358821 0.93673176 1.584962 0.45757782 -0.19831888 0.11752249 0.08137044 -0.51025194 1.288112 -0.85461676 0.5750626 0.63384134 1.0530652 0.19353601 -0.7491132 -0.7843156 0.21824457 1.5830872 -1.6878165 0.23953448 0.0899126 1.3397024 -0.5988548 0.7514858 -1.4960455 2.425595 0.5129676 1.351561 0.81183624 -0.2547398 -0.6533808 -0.75704896 -0.54198384 0.21854782 -1.2504579 -0.5924807 -0.007122623 -1.5792052 -1.3668135 1.1129657 -0.65399224 -1.2436708 -1.1104687 -0.9075674 0.07990747
门 0.91590196 0.99444735 -0.7272824 0.40878853 -0.45888305 2.0094748 0.38015872 1.774163 -0.034469195 -1.5111336 0.05956026 0.42369717 -0.9562831 -0.2575086 -0.46581534 0.41530922 0.20713535 0.18484367 -0.49286032 -1.0244455 -1.0621572 0.46044764 1.527722 -2.0637133 0.13259546 -0.54835224 -0.667853 0.31083342 -0.37269965 -2.5556822 2.0284626 0.85900354 -1.0146453 0.79491395 -0.28907207 0.6848944 0.77856857 -0.5639311 0.62430584 -0.78091466 -0.589401 0.9898461 2.0276084 -1.809702 0.5175619 -1.3504428 -0.36897206 0.2635247 -0.14305556 -0.5023698
敢 -0.015708089 0.47959855 1.0425304 1.3434535 0.8117579 1.358041 0.26814252 0.7811938 -0.009812615 -1.4403651 0.7672986 1.2282951 -1.2525476 -0.33163616 -0.3123575 -0.121764556 -0.21324126 -0.38076323 -0.55916876 -0.534551 0.12888464 0.66788656 2.296959 -0.99105537 0.1107203 -1.5761019 -0.7991363 2.018085 -0.22682497 -1.7987764 2.4581556 0.25937128 1.0476966 -1.2664839 -1.3389896 -0.4688254 -0.46097848 -0.089834414 0.9928967 0.22675519 0.04368198 0.48634443 2.2073395 -0.8385818 1.3191388 -0.91617334 -0.9207779 0.36928445 -0.8533141 -0.16194016
犹 -0.7786773 -0.11592199 -0.5331975 -0.035703108 -0.4972448 1.8256437 1.1206119 0.6105245 0.83806497 0.7496829 1.4979264 0.26830855 -0.23970176 -0.17971171 -0.7076655 0.5874307 0.68294656 -0.66812074 0.7551442 -0.02094174 0.19220914 0.85224533 0.59021 0.24588014 0.35017183 -0.70530593 -0.70979863 1.6393551 -1.3313234 -1.3210335 0.8008527 -0.9727217 -0.55864596 0.41930777 -0.3463492 -1.0157249 0.34534422 -0.68471676 0.7963856 0.29215184 -0.25252753 0.105859675 0.75450176 -1.3481859 0.9631129 -0.56270427 -1.1708128 0.15473528 -0.3352626 0.3760286
生 -0.20136002 0.5874339 -0.8448146 0.07800349 0.027904747 0.8460775 1.087256 1.8132237 -0.53852236 0.22581287 -0.085778095 0.74858135 -1.6205211 1.5219742 -0.44373867 0.6275861 1.1016632 -0.87670094 0.7400349 0.6684854 0.5343208 1.4452848 0.8104443 0.49257284 0.45448777 -0.20039228 -0.22420718 0.4512395 -0.9043279 -1.2774305 1.7153105 0.055330563 -0.75986266 0.405576 -0.27419567 -0.85840833 0.40758005 -1.4288856 1.0171956 -0.79347944 -0.63111633 0.6374114 1.4141998 -0.15558322 0.34404868 0.9357419 -1.2303123 0.3971835 -1.8360053 0.9406493
日 -0.25100163 0.4887846 -1.4649795 0.6361134 0.5726503 1.3471959 0.40253487 0.5880536 -0.88849497 -0.026293673 -0.63848466 -0.5763465 0.08380311 -0.28504464 -1.1073946 0.46597365 -0.6784046 -0.23783544 0.7372105 -0.1693686 0.262183 -0.5281819 -0.18402006 0.6839309 0.6528704 0.42612687 -0.09683965 -0.41948563 -2.03711 -1.2548478 0.79394835 0.3718607 0.042091034 -0.5307916 0.14848405 -0.44336835 0.4514621 -1.6073283 -0.4335316 -0.18480255 -0.9000762 0.28420603 0.85731816 0.39210913 -0.8816562 0.15804316 -0.4023576 1.3091516 -0.6091069 1.2131785
敬 1.1714778 0.7573459 -0.9673962 0.75849336 0.9625196 2.118552 1.7897788 1.8433917 -2.419718 0.78293 -0.37434813 -0.63632554 0.34419483 -0.47550327 -1.2286168 0.4908859 -2.2814748 0.045390982 1.3456868 -0.46355045 1.1153382 0.016877256 0.5522425 0.5815069 -0.7128322 -0.112267055 -1.3197455 -0.28550464 -0.977644 -1.6930705 1.4250994 1.6784604 -0.2786162 0.6887404 -0.19990104 1.2852601 0.9851241 -0.3004854 0.21604842 -0.30241838 -0.3264041 0.8733935 1.8997883 0.47430736 -0.25261444 1.7689694 0.18597764 0.8063135 -1.5023842 1.5636474
难 -0.89926463 1.629808 -0.9437969 1.637016 0.7709159 1.5745101 1.9422199 -0.098216586 -0.94822574 0.24999467 -0.07644161 0.2706018 0.6560335 -1.4436884 -0.4778467 -0.57114625 -0.40410867 -0.63971335 0.71748394 0.4471166 0.2840085 -0.7702793 1.5724822 0.4023012 0.13722502 -1.5649751 -0.6935844 1.6401783 -0.65041333 -1.6596435 0.46775392 -0.2843635 1.0591276 -0.4787018 -0.10461621 -0.28031856 0.75081986 -0.8315171 0.7003219 -0.18539011 -0.06327222 0.89910066 2.6546447 1.3899057 0.84838825 -0.73183084 -0.16522537 0.74141175 -1.5621601 1.8341266
直 -0.5877449 0.2276714 -0.24726112 0.60377705 -0.97137827 1.828549 1.1014712 -0.13446558 -0.08068751 2.1201527 0.16699713 1.0683962 0.5214804 1.3155713 -0.813572 0.5394005 0.9511323 -0.072810076 -0.7040853 1.0461828 0.9988841 0.27947393 1.2838205 0.111956894 -0.34930056 -0.5354599 0.2804693 -0.4863986 0.68968403 -1.6444604 0.838934 -0.15703173 -0.8246752 0.35260722 -0.24470825 -1.2375858 0.52873886 -1.6683898 0.9861574 0.09541724 -1.5731211 0.5996711 1.4248104 -0.009713998 1.3515308 1.874638 0.4770853 -0.7372276 -2.0664175 1.0943539
丧 -0.42743772 0.86395687 -0.15191324 -0.21203522 0.91154045 3.2140913 1.028415 -0.09020023 -0.78995377 1.2798612 -0.65202737 1.0002279 0.8459215 -0.74639654 -2.448648 -0.45326936 -0.15688062 -0.10385928 0.35154754 0.6749007 0.212868 0.7297223 1.1209517 1.2403134 -0.07711484 0.32806256 -1.1677046 -1.5909054 0.44543016 -2.4393575 1.3609737 -0.3965398 1.2670535 0.41707227 -0.04321921 0.24586467 0.4457875 -2.0967321 0.24963582 0.43743804 0.6576223 1.5172935 1.2441163 -1.4105439 1.2060453 1.2632393 1.1590594 0.2506525 -1.8661946 1.0689077
说 -0.0637621 -0.013797346 -0.6197324 0.53711534 1.7469468 2.1728692 0.5187117 0.2883291 -1.0425847 -0.32960388 0.4243137 0.04802025 -0.11149207 -0.28770393 -1.7263873 0.5462835 -1.8480378 0.0035028735 0.09428674 -0.4301096 0.26628292 -0.3032624 1.0685878 0.24770546 -0.565723 -0.1580969 -0.5702171 -0.13222654 -1.0250727 -1.9390402 0.9397803 0.6263583 -0.11895228 -0.98775774 -0.9650246 0.5039461 -0.093037486 -0.6368484 -0.4991226 -0.38077247 0.16257307 0.6360121 1.4810277 0.98590004 0.7835872 0.16071138 0.44846514 0.47617155 -2.0682404 1.6378461
自 -0.20670769 -0.2786844 -0.6675153 1.1362355 1.6678914 1.5099508 -0.68016374 -0.10861856 -0.73230064 0.7642065 -0.038302265 0.8617631 0.78074056 -1.1603751 -0.96404153 0.15335736 -0.6963772 -0.49185112 0.62036866 -0.8671976 -0.08111964 -0.023789458 0.72959316 -0.42641053 -0.13584478 -0.6138846 -1.0625437 0.12869777 -0.87083036 -0.9679525 0.7975407 1.0568955 0.8694104 0.2658511 0.41056955 -0.20466003 -0.059201177 0.29992047 -0.33892965 0.20108774 -0.33962774 0.4195673 0.76896757 -0.9656385 0.94816756 0.56200504 -0.27025148 0.058181792 -0.81770086 0.8861043
用 -0.84773165 0.5203583 0.59482366 0.12935986 0.46690568 1.9704587 0.8543363 0.8327598 0.61208624 -0.45974988 1.3465776 0.34078962 -0.84318453 -0.8961436 -1.4830192 0.36871475 -0.7607419 -0.7111439 0.39007062 0.4804167 -0.05705684 2.8101153 2.0633595 0.10356049 0.0874688 -0.7393306 -0.89419717 0.94895834 -0.5615955 -1.8112363 0.43846107 0.260446 -2.3318133 1.2445922 -0.29121473 0.2195164 0.098683104 -0.5575302 0.8131939 1.0606749 -1.236308 0.3807307 1.7429885 -0.9354988 0.054449372 1.0824746 0.81108665 0.60520685 -1.2866678 1.3178713
周 -0.56708807 -0.09685425 -0.31913403 -0.11737455 0.22376049 1.3609523 0.212383 -0.28670743 0.25548872 0.40818253 0.20829876 0.46749407 0.65396845 -0.1591791 -1.1591023 0.9308006 -0.21131207 -0.3127234 0.38597322 -0.08159654 -0.017603558 0.18701297 0.24355143 0.5091326 0.1282953 2.1765006 -0.49790394 -0.9759876 0.18782355 -0.52476424 1.013382 0.22270273 -0.50200045 -0.733171 0.75872797 1.0214705 0.85579616 -0.59428376 -0.33331838 0.3122097 0.8844811 0.5649985 1.195138 -1.1792208 1.495893 1.8469716 -0.07948179 -0.4564712 -0.69174504 1.0612974
颜 -0.29475436 0.79594123 -0.40524378 -0.5575971 -0.55600476 1.2760708 0.92300314 0.6152796 -1.1619978 0.8212033 -0.103196636 0.61002886 0.19709942 -0.32842234 -1.9229505 1.2713761 -0.34541178 -0.8636587 0.8781159 -0.69721836 -0.5212463 0.6475157 1.1135004 0.8586918 0.31115 0.94823635 -0.7742719 -0.6444389 -0.50237584 -1.0348138 0.48939493 -1.206865 -0.73262626 0.22160329 -0.3695415 -0.25997168 0.36666456 -1.4546728 -0.37861356 1.4878379 -0.6422801 0.6301785 1.0259408 0.17130081 0.6113481 0.48969612 0.04211735 0.43122306 -0.13766907 1.2150832
年 1.367672 -0.59998125 -0.30381945 0.25721377 0.96168214 0.861719 1.385547 0.39454225 -0.8108182 0.13842167 0.6044102 -0.26168004 0.47855932 -0.24105741 -2.4389265 1.7057176 -1.0073649 -0.90837836 -0.4438594 -0.100576706 1.4578582 1.3545116 0.7112992 0.79051226 -0.99742687 1.1863954 -1.3879689 0.1769397 -1.2007245 -2.8720155 1.5121891 0.65573853 -0.8540736 0.0796293 -1.2501583 1.6862231 0.71182394 -1.3179715 0.20449814 0.9528014 -1.3876159 0.85440445 2.2905316 -0.7590604 0.53082883 0.7281999 -0.2623919 0.74705976 -0.99495107 1.7261475
告 -1.2003254 -0.011541418 0.43589365 1.8165584 0.43702868 0.8756388 0.65846205 1.1696417 0.15300444 0.36310136 1.2186606 1.1279966 -0.091430336 -0.12338539 -1.2947391 1.0136652 0.4261667 1.0963182 -0.66435105 -1.1633294 -0.8243754 0.51874113 0.5085575 0.56160414 -0.15260468 -0.5681635 1.494033 0.82873327 -0.50577736 -1.9811746 0.59434736 -0.28525075 -0.13164335 0.75091165 0.45045006 -0.17384626 1.2848344 -0.006073965 0.6787529 1.2047542 0.36988837 -0.7337394 1.9827863 0.21007769 0.44318107 0.40279397 -0.50919884 0.3538657 -1.4526124 0.9856451
十 0.17558809 0.27438855 -1.600267 1.02737 0.035452116 -0.3952434 1.4302325 0.5533474 0.30160823 0.89577055 -0.038497884 0.48858553 0.41216752 0.29227534 -0.63407224 1.1392329 -0.76862353 -1.2588081 0.7204228 -0.535871 -0.0866958 0.08192758 -0.20157072 0.16378021 -0.4442831 0.15328811 0.10066351 -0.511775 -1.0073806 -0.85946125 -0.3132659 -0.0058109546 -1.7081243 0.31965762 -0.040555086 0.4048408 0.51765007 -1.5110277 0.40708473 -0.16228397 -0.8916666 -0.3571938 1.6957729 0.4056704 0.5559204 0.3968348 -1.3521947 0.6444563 -0.3356368 1.1770099
怨 -0.10687541 -0.834569 -0.3300402 -1.1537073 -1.3049371 2.307866 1.5133938 0.8696915 -1.001174 0.6763505 0.29570067 0.93807685 0.7654354 0.94814664 -1.5034938 0.5453328 0.3216538 -0.56262594 0.861976 0.616254 -0.56264764 1.6982251 0.7318842 1.1431025 -0.21131691 0.30397442 0.5929358 0.19748318 0.62409765 -2.5661566 0.9716304 -0.95316905 0.39190438 0.5434441 0.39006108 -0.14453615 -0.9243539 -1.3526092 1.1967999 -0.051751412 -0.7788201 -0.13066515 1.3759067 -0.8015338 0.8064621 0.5369637 -0.51632345 0.05392402 -1.4450707 0.059573263
达 0.23694366 -0.10139772 -1.0787208 -0.06472214 -0.53270227 0.6869328 0.32013226 1.6452382 -0.36427104 -0.043902405 0.10876075 0.7569719 -0.21912566 1.0454429 -0.120547734 -0.7269514 -0.7504716 -0.9527084 0.85897326 0.3011893 -0.84275 -0.03779696 -0.31400174 0.59981734 -0.22769003 -1.3453817 0.66642815 -0.5484984 -0.09735226 -0.93411714 0.28072152 -0.6120027 -1.1063356 0.24872541 -0.11948785 -0.7976441 1.3060486 -1.7188635 0.8443312 0.8115456 -0.7380893 -0.074036665 0.2501984 0.7676017 0.08827251 1.4172037 -1.3771582 0.52246326 -1.3692067 0.6316607
孝 0.5684634 -1.1844193 -1.2751583 -0.5747125 -0.3104862 -0.06742638 0.17474893 1.9928819 -0.84222376 0.4070291 0.31791723 0.5604957 -0.07489828 0.7030581 -0.1795746 0.4563974 -0.25670367 -1.0952477 0.46517074 0.13531522 0.31535152 0.9280661 0.13764356 0.7991666 -1.9267013 0.5918049 0.2649733 -0.27087116 -0.22143611 -1.3718004 -0.66730607 -0.6524227 -0.87349784 0.85259104 -0.20803301 -0.53188396 -0.023256488 -1.8389794 0.68473685 0.61031884 -1.0722309 0.011557609 1.0226588 -0.25360754 0.48520362 0.633816 -1.3147172 0.4151755 -0.5442511 -0.5392738
弟 -1.0120233 0.84660167 -0.34390298 0.26101226 0.48218337 -1.1343492 0.07447055 0.7899759 1.147117 -0.65519905 0.34951243 0.5521924 -0.70739233 -0.8521427 -0.050038848 -0.45845208 -0.598388 -0.3103235 0.6933395 -0.47495738 -1.8204074 0.66533846 0.89091796 -0.5480418 -0.37855592 -1.3523821 0.10416478 1.1486211 0.4584223 -2.036868 1.2498959 0.47160304 -0.8444352 -0.5393008 -0.34034926 -0.41602847 0.20014456 -0.33995667 0.9186106 -0.16592911 0.4108939 -0.2983165 0.53486943 -0.7707838 0.08545031 0.6655326 -0.29921564 1.78525 -0.6254353 0.47123277
至 -0.6592965 -0.035076458 -0.8299578 -0.20129982 -0.220577 1.3710644 0.099809304 1.2203588 0.015411661 0.06295714 -0.67245084 -0.1464549 -0.7059527 0.6117372 -0.8449676 -1.3135839 1.3369509 -0.36971107 0.60184586 -0.074292906 -0.4385369 0.061928976 0.011416755 -0.70232683 -0.7568426 -0.31708786 0.50405276 0.0039397534 0.97745585 -0.49063087 0.36618283 -0.72034127 1.2722118 1.2561754 0.76585096 -1.1397383 -0.27233952 -0.11733502 -0.07420053 -1.172799 0.38959366 -0.33237347 0.22651377 -0.974207 1.2449075 0.80436075 -1.1125662 0.24788061 -0.48367816 -1.0144242
先 0.8674179 -0.43596393 -1.0438828 -1.1849364 -0.6688442 0.6359932 0.0756367 1.192796 -0.639543 0.6772813 -1.4240751 0.6833752 -0.6244593 0.5733885 -1.0561742 -0.03276996 -0.61287296 -1.799599 -0.49378002 -0.22255433 0.3454575 -0.016129192 -0.515567 -1.834394 -0.8118241 0.07570843 0.72632754 -0.5565534 0.9317322 -0.9610889 0.41324383 -0.5208989 0.73646975 0.8036931 1.1158863 -2.0535817 -0.041356932 -1.0813943 -0.1027603 -1.2492026 -1.5501933 -0.38228062 -0.12439206 -0.040337436 1.2611266 1.7748469 -1.7827493 0.04503111 -1.2600039 -0.990858
师 -0.11362482 0.011327105 -0.19841978 0.46936786 0.093687706 0.26205158 0.60796636 -0.14310694 -0.2175963 -0.23030715 0.0001024981 0.7943985 -0.5084725 0.8411882 -0.21584103 -0.06421726 -0.522873 -0.6161949 0.67644113 0.2861354 0.18661547 0.64951396 -0.08269057 -0.56909835 0.10853105 -0.09143968 0.25917116 -0.70746017 -0.1375538 -0.49261627 0.41297123 0.12843996 0.5748493 -0.32249936 0.45993695 -0.55163944 0.23744722 -1.4225192 -0.17638071 0.3273289 0.024105413 0.16906035 1.1061872 -0.5176319 0.51021916 1.3261751 -0.32096583 0.2047279 -1.1390297 -0.44459292
女 -0.28975916 -0.07064962 -0.91860664 0.36269245 0.8151972 -0.06610346 0.797974 0.5936353 -1.0808561 -0.47365743 -1.3116077 0.48569158 -0.6140503 1.0609697 0.31993335 -0.02143838 -1.7907445 -0.25896272 -0.03033415 -0.6588982 0.97563756 0.58624214 0.24330685 -1.3331863 0.06639358 -0.65396595 0.5293065 -0.7714625 0.5243028 -1.2121567 0.34767327 0.6315324 0.24543837 0.5807192 0.28865266 -0.55755633 0.8022537 -0.9276668 0.4324661 0.624356 -0.36182535 -0.30231997 1.1780181 -0.82927036 0.38082775 1.7650752 -0.69183904 0.3526487 -0.9708462 -0.2689869
多 0.13838716 -0.5395201 -0.52112967 0.54689705 0.84288585 -0.33177236 0.084412694 0.55813384 -0.4682093 -0.6282535 0.66996986 0.5202371 -0.8070889 0.8417391 -1.1189854 -0.12751028 0.0014199304 0.30999526 0.53454155 -0.7660472 0.35555422 1.0658451 0.08591391 -2.5502584 -0.7722828 0.00867503 0.47610492 0.23144741 1.3103569 -1.1577424 0.051945508 1.0374124 1.1017699 -0.54202545 0.7697855 -0.943586 -0.4486372 0.45132524 0.48826334 -1.5427246 0.025028478 -0.5986967 0.72546834 -0.79717696 1.5461994 0.48831418 -0.6637768 0.22621085 -0.34401253 -1.5043029
忠 0.2875142 0.48509923 -1.2957846 0.33917564 0.21630162 -0.31314373 0.43003112 -0.029563686 0.64058906 -0.26096112 0.023170078 0.24993047 -0.15847495 0.4216424 -0.21613955 -0.17170683 0.12186195 0.17697607 0.6623875 -0.21079901 0.25681588 1.2050502 -0.5030388 -0.6740511 -0.51325995 0.59841675 0.5932176 -0.47220013 0.8566595 -1.051619 0.106737636 0.60743695 0.37704483 0.13891362 1.4442104 -1.0788857 0.8429651 0.5517454 0.6395235 -1.1956836 -0.459835 -0.7175386 0.48520103 -1.1350311 1.7284343 0.97431475 -0.75706196 -0.17457649 -0.42801484 -1.5186801
四 0.6930948 0.53265613 -0.6129325 1.6125183 0.3124113 1.0632218 0.77870315 -0.84762686 -0.42751175 0.51789486 0.30003375 1.2284293 -0.81872785 0.5096279 -0.86770034 0.45378545 0.1229225 0.2924103 0.5217711 -0.8079241 -0.03580689 1.2695493 -0.3517935 -0.40300643 -0.3156903 2.0120246 0.59012574 0.29555407 -0.91007626 -0.60345757 -0.061885532 0.7821931 0.14864717 -0.18021019 0.79671013 -0.0375615 0.05648397 -0.6184793 1.0370219 0.4605586 -0.3292908 -0.033601303 -0.19947971 -0.15843296 1.6729532 1.9206911 -1.073945 0.14462066 -0.4552376 0.41803122
疾 -0.13358632 -0.28112218 -0.8104835 1.7051439 1.4437621 -0.35836467 1.1159635 -0.63054764 -0.35962403 0.5673798 0.7172681 1.1967232 0.625368 -0.3703976 -0.109800935 0.36825508 -0.40811232 0.38183913 0.5779986 -0.14237979 -1.0129226 1.1832575 -0.77741736 1.0076195 0.52573174 1.0795434 1.1061314 0.98531735 1.0798099 -0.5024376 -0.58962333 1.3094157 0.6258598 -0.2665405 1.5034865 -0.5291696 1.0595869 -0.14439197 0.019870799 0.59495854 0.32708338 0.27550408 0.7442958 0.78078556 1.2059989 0.9729822 -0.25455463 0.4282919 0.74230427 0.34564856
服 -0.6604292 -0.16114838 0.21172462 1.6440272 1.4450765 1.3030167 1.3366791 0.60239273 1.2597152 0.28645098 1.1865389 -0.19631624 -0.23071042 -0.9508735 -0.07118239 0.3553941 0.27956954 1.0089281 1.1244818 -0.08958874 0.17222653 0.70362055 0.45386213 0.44388542 0.8092499 2.1420457 1.4574918 0.5789306 0.4575878 -0.47918156 0.3039083 1.3014789 0.15620261 0.46625143 -0.5806965 -0.33689466 -0.32091746 0.06532548 0.65961933 1.2171794 0.80952543 -0.3355849 0.8923777 -1.1567675 1.5979259 1.1467419 0.84595376 0.041887823 0.4256453 -0.16458422
氏 0.061382294 -1.7671076 -0.8479896 1.5142437 1.0828508 1.147122 -0.54124945 0.31313524 1.0893009 0.7365816 1.4186751 -0.58720356 -0.8904749 -0.073238574 0.2146562 0.48421323 -0.7177216 1.5356627 1.5586314 -1.2272727 -0.9515631 1.519854 1.2920775 0.30108234 -0.27202597 1.733966 1.3646652 0.83299434 -0.17398545 -0.666947 0.4797907 0.24737978 -0.5474884 0.9111748 -0.044265065 -0.09719071 0.2933987 0.0719655 0.2883229 1.4768145 0.41611993 -0.39734164 0.43683726 -0.95314425 1.137613 -0.516581 1.0213751 0.7470161 -0.007572596 0.52878904
冉 -0.7328601 -0.84646064 -1.292443 0.1634851 -0.4264574 0.12749347 0.58593297 -0.9151049 -0.42092305 0.33422053 1.2231884 -0.506526 0.9565728 0.09701183 -0.81090033 1.1172512 0.051957432 0.21623233 0.10908145 0.28043842 0.13724898 1.4398763 -0.59751356 1.3170099 -0.31031007 1.3307934 0.5990722 1.0174782 -0.41880685 -0.3014548 -0.21935886 0.068485215 0.42731953 -0.012160744 -0.2733732 -0.22448646 0.07074097 0.4888395 -0.019543793 0.95706064 -0.23823263 -0.99833214 0.96912545 -0.20975624 1.823566 0.25332966 -0.9336554 -0.24351896 -1.0152093 -1.0925212
将 -0.7577314 -1.3737439 0.24094754 1.5714921 0.2078076 -0.124174565 -0.19776133 -0.81599355 0.9524365 1.9717673 0.86833465 0.110550635 1.6122135 0.15850385 -0.6958635 0.55922025 -0.6757532 0.88400006 -0.2907633 -0.09090171 -0.035242084 0.18211602 -0.20049995 -0.1679173 -0.37530848 -0.6392218 -0.60774547 0.06366051 0.5787338 -1.2091416 0.25780386 0.06503179 -0.34727752 0.1041273 0.66598725 -0.38781142 0.31326222 -0.57499945 0.7969671 0.6586399 0.8241156 -0.80516976 1.187905 -0.40091994 2.055482 1.0529293 -0.9324761 -0.7381351 -0.41270253 0.3150227
士 0.26888037 -0.3605063 0.41475162 0.53601414 1.0256773 0.35794437 0.44936568 -0.7146145 -0.40572336 1.3316095 0.7608918 -0.2929117 1.3157914 -0.36683276 -0.7460192 -0.07760524 -0.16418934 1.1703048 0.52631015 1.6540174 -0.7046614 0.14793096 0.48501164 -0.14549944 0.3927823 0.5631083 -0.8148066 -0.28407353 -0.20511377 -1.1177269 0.47903508 1.3583387 -0.6071141 -0.5152407 0.48362008 -0.65748286 0.40117592 -0.22784285 -0.5849796 0.947168 -0.21215667 -0.9371508 0.08092904 -0.07538667 1.7478718 0.12968625 -0.3265131 -1.4624269 -0.53665364 -0.3458456
丘 -0.052770276 -0.37785062 0.48274434 0.5581219 0.27404952 1.0119818 0.35180745 0.8820373 -0.470475 0.25581974 0.2835764 0.17779712 -0.33340934 -0.16143487 -0.53475493 0.3659788 0.08208889 0.5551983 0.51996225 -0.61112773 0.76320446 0.13187245 1.8564677 -0.09908267 -0.12555759 0.50844705 -0.118870415 0.074926615 -0.3719462 -0.46122703 0.80795956 0.99523246 -0.45953217 0.25611 0.23741776 -0.2714899 0.22389077 0.0354342 -0.070457645 0.6228858 0.72301096 -0.3978236 0.5410332 -0.68323714 0.9969415 0.18730363 -0.37964326 0.47671345 -1.0520325 0.5123507
身 -0.29720697 -0.7296423 -0.44508138 -0.2613977 1.0644069 0.83648896 0.49103966 -0.5820783 -1.271984 0.09162704 0.5788976 0.9968968 0.2706835 -0.8728744 -0.7824524 0.32049924 -0.0076162624 -0.26422167 0.075348124 0.1509125 -0.30866235 -0.015319727 0.06385301 0.57834023 -0.654774 2.5358038 0.30578884 1.0054524 -0.20360127 -0.48645446 0.34122458 0.50654745 0.2794927 0.36414215 1.3361596 -0.99256134 -0.15827987 -0.5890348 -0.20513031 0.57806176 0.64079404 -0.45356813 -0.81671226 -0.5471068 1.216957 0.05494747 -0.35503262 -0.1989941 0.77312636 0.5766417
入 -1.2462171 -0.6428717 -0.65878457 0.3161462 0.8712455 0.3062516 -0.0616031 -0.22146901 -0.27052987 0.97300476 0.7006533 0.878247 -0.51566213 -0.6067345 -0.23875864 0.4845664 -1.1549076 0.020606533 1.4302753 -0.20406322 -0.006192489 -0.037174314 1.0017412 0.40466064 0.30623543 0.24465714 -0.08013554 0.62832165 -0.7175897 -0.65492153 0.47930154 1.2777641 0.029115511 -0.069150686 1.0299165 -0.5010851 -0.13786295 -0.5642754 0.41346243 0.94058615 0.14199436 -0.2935276 1.3686987 -0.532547 1.0717697 0.6824581 -1.2189457 -1.5489093 -0.44013366 -0.10677234
志 -1.3086727 0.7065341 -1.1156985 -0.11650341 0.54411334 0.37383187 0.38973263 -0.42943373 -0.09423289 1.9903371 1.8574463 1.210169 0.3837989 -1.3362296 -0.98507106 0.38353828 0.50149727 0.15690368 0.7354472 0.37950674 -0.3955721 -0.5389278 1.1216143 1.1925418 -0.21384506 1.086074 0.33007976 1.1815437 -0.82083035 -0.04271218 1.8073397 1.3189038 -0.014895577 -0.17632103 1.4795753 -1.5163416 1.4031334 -0.6590242 0.13616222 0.455829 0.23735407 -0.28742918 0.021760866 1.4411619 1.6126951 -2.0748901 -2.3194966 -1.3611863 1.0355566 0.83331865
耻 -0.44006097 -0.73413146 0.3845238 -0.55134785 -0.06884661 1.1254363 0.24169816 -0.28920552 -0.21476656 0.066823386 -0.062055953 1.084865 0.26604536 -0.4199929 -0.8365416 0.23051849 -0.36110833 0.066304795 0.8469388 -0.40278208 -0.76876694 -0.058793534 -0.08875771 0.53945404 -1.0552615 1.0932965 0.7994243 0.6181575 -0.3909521 -0.49445146 0.8355214 1.2081841 -0.035830144 1.1733986 1.3129555 0.18680996 0.23426126 -0.27713203 -0.73299074 0.8572651 1.4519713 -0.38335449 -0.66860956 -1.4022431 1.1995522 0.55226713 0.47208896 -0.6055229 0.024965033 0.9104492
失 -0.5787709 -0.5358376 -0.2489487 0.014440087 -0.44005585 -0.18722801 0.4998142 0.14332412 -0.30804253 -0.6221426 0.387191 1.4580194 -0.7043984 0.22553846 -0.8674871 -0.0016623186 0.1354721 -0.5196873 1.3565539 -0.44368255 0.009323705 -0.08621561 0.93089813 0.518858 -0.50603527 0.6109433 -0.1889907 0.7390492 -0.5323315 -1.0121853 0.53888315 -0.09659474 -1.2785451 1.1888363 1.32902 -0.13074984 -0.40651527 -0.56726617 -0.39575112 0.034003194 0.36113942 -0.4987558 -0.81388104 -0.90651715 0.7661736 0.7313379 -0.73914605 -0.043829896 -0.09980728 0.5727283
安 -0.4472138 -1.0791087 0.105159216 1.2136025 0.04234078 1.4360908 0.6483535 -0.24934848 -0.32006153 0.5405126 0.53353393 -0.12719472 -0.39090016 1.0290774 -0.09153598 0.048550293 0.091186956 -0.38905337 0.41001764 -0.19040526 -0.008014859 0.020975307 0.663211 -0.6772188 -0.30851445 1.0844668 0.49334463 1.4195613 0.061578833 -0.34219545 1.5368423 -0.59434474 0.24195449 0.10119817 0.17335176 0.16909774 0.08998874 -0.90922946 0.24622463 0.32403877 0.7104851 -0.5032553 0.047609314 -0.8073621 1.2134908 0.091279894 -0.32019275 -0.18664461 -0.28275162 0.2859877
富 -0.6586929 -0.86343825 0.021626836 0.9784737 -0.38242742 0.4686338 0.2644893 0.37472188 -1.0929438 0.7474181 1.3826169 0.21620621 0.28666863 0.15354256 -0.07020154 0.61840403 -0.39082253 -0.9339866 0.07317583 -0.33351314 -0.23081048 -0.9486667 0.053677212 0.93500733 0.5345255 0.048322205 0.29746306 1.5503392 -0.41655907 -0.7702409 1.3297625 -0.17535432 0.85481715 -0.28568223 -0.23308015 -0.30330855 0.57823795 -0.76248765 0.37960237 0.9754147 0.5413533 -0.5977979 -0.5954249 -0.9174598 1.1249604 -0.7602641 -1.0287291 -0.6970351 -0.17970508 0.19567828
赐 -0.3807316 -0.17367075 0.103669606 0.72082955 0.41945848 0.6900129 0.5635039 -0.65023607 -0.26082262 0.7404832 0.61912775 0.91752344 0.3329055 0.94999266 -0.8590056 -0.94283813 0.12416493 -0.17865801 0.66937363 -1.0854806 -0.17722577 0.059660792 -0.76139313 0.86690575 0.2638611 1.1306492 0.47385332 1.264933 -0.84245193 0.72014445 -0.43082228 0.07097711 0.37329543 -0.50899714 1.3840485 1.1756581 0.6777841 0.75219214 -0.062281355 0.42648703 1.6636955 0.028534146 -1.2506956 -0.84597963 1.0611129 0.015866827 0.24047077 -0.25057387 0.15318939 -0.07875035
患 -0.87234503 -0.770701 0.97102636 0.42909938 0.42628136 0.5136078 0.1527527 -0.08264585 -0.9263376 0.112803675 0.28321192 0.20942895 1.683729 0.44362783 -0.01266562 -1.6113528 -0.78717995 -1.4076196 0.5992365 -0.75170845 -1.4652754 -0.4771128 -0.5474436 0.66708165 -1.3637798 -0.13848837 0.04671849 0.9146695 -1.0202721 -0.092647046 -0.71097666 0.26528364 -0.53171456 0.9071895 0.9347443 0.44421884 0.5163767 -0.5858874 -0.07719417 0.04596204 -0.3900515 -0.61982507 -1.6787453 1.6387671 0.32364273 0.6806759 -0.20016174 -1.2280568 -0.70232046 -0.14945513
百 -0.83283335 -2.2204905 0.860154 -0.068685204 0.3690256 0.31987396 0.96863943 0.541732 -0.21553275 -0.93844306 -0.41430917 -0.43822572 0.29571968 2.1454055 -1.1437507 -0.32784033 -0.18898858 -1.4056307 0.3914772 1.0637126 0.067759305 -0.26966465 -0.75419676 0.30477408 -0.845755 -0.3703641 0.9410371 0.5044765 0.7294064 -1.0848769 0.72480726 -0.38127404 1.0914496 -0.08512398 -0.17125702 -0.039179113 0.037963722 -1.2161475 -0.4093522 -0.568013 0.927284 -0.47571898 -1.0120425 -0.6254638 0.37712213 0.20602724 -0.8514473 0.09666702 -2.4428062 -0.93216056
回 -1.3817717 -1.748389 0.42820325 0.6739661 0.23857911 -0.069990695 0.7666665 0.08452552 0.39784992 0.0011247107 -0.06294255 0.014074584 -0.31636095 1.4175372 -0.762307 -0.89560956 -2.1015646 -0.8578345 -1.3588312 -0.42941996 -0.5295871 -0.9130246 -0.711143 -1.5334271 -0.7942223 -1.033536 0.5920404 0.5316857 0.8160174 -1.7974036 1.1289592 -0.112880506 2.0374458 0.32794967 -0.4959545 -0.5954212 -1.0366815 -0.24306197 1.1240592 -0.8729908 0.39917392 0.30873853 -1.1330885 -0.778062 1.591236 1.074612 -1.5020878 -0.21835358 -0.42465866 -0.046300255
宰 -0.9819786 0.063576005 -0.0050984286 0.3379639 0.36738592 0.1600802 0.29406154 0.9267486 -0.23351982 -0.6946941 0.49834254 -0.25021636 0.44431782 1.3114408 -0.35678977 0.07968666 -0.08649397 -0.42313698 -0.34559512 -0.36983573 0.062411003 0.36701202 -0.41303837 -1.3649435 -0.38041764 -1.8744817 -0.00241271 -0.095240146 0.6683749 -0.06261534 0.3301788 -0.053255647 0.61278015 -1.3139956 -0.029310802 0.28567743 0.08636855 0.2992184 -0.10350676 -0.1026385 -0.30822477 -0.3300863 -0.068539135 0.7128468 0.70944875 1.2211792 -0.30144963 -0.10262771 -1.2204591 -1.1730185
朝 0.6526891 0.11561004 0.62949663 0.54923934 -0.47847268 1.7045423 1.3247027 1.5919056 -1.1396499 0.22424728 -0.53376937 -0.76425385 0.99161905 2.5866208 1.3948944 0.13108878 -0.45699978 -0.6069503 0.57273036 -1.6941907 -1.1908051 0.40548015 -1.0393584 -0.30623132 -0.9363916 -0.9291428 0.724914 0.38262844 -0.50922084 0.0015323961 -0.19426976 -0.04950372 -0.83310586 0.81335455 0.8022205 0.6845182 0.97629577 -1.1361212 0.6009227 0.025258169 -0.5700981 -0.21159941 -1.8143206 -0.24235384 0.38632604 1.5004207 -0.30706203 -0.9805587 -0.12780519 -0.9047423
莫 -0.8053689 -0.29893667 -0.2239665 -1.1569803 0.96028876 0.6892156 0.2289622 0.5717224 -0.72741973 -0.51174384 0.11236849 -0.38129395 0.14691292 1.3659382 -0.9523126 0.06872365 -0.7751192 0.88631076 0.74453753 -1.1517193 -0.24180774 1.3356243 1.0692688 -0.9084781 -1.357059 -1.2288789 1.0164381 -0.89722764 -0.3586651 0.36584693 -0.51905775 -0.21301039 -0.7104396 -1.5916635 0.1633074 0.7166495 -0.30442932 0.150086 -0.57777613 -1.630045 -1.229481 -0.58569074 0.6118501 -0.006770518 0.63016003 1.0159947 -0.18286319 -0.5618146 -0.9893301 -1.2681456
若 -0.61725587 -0.37309912 -1.3034234 0.33331442 1.117659 -0.45530376 -0.11730179 3.3027644 0.030370794 0.20267569 -0.14884318 -0.40030244 0.18449451 0.92998046 -0.60597426 0.515967 -0.00036641848 0.56422174 0.86477715 -0.5363125 1.1605152 0.29442608 0.93051314 -0.58956265 -0.6040965 -1.505112 0.22113632 -1.0579884 -0.55977553 -0.18705511 1.017054 0.0005723254 -0.092394434 0.6315514 -0.060590353 -2.6513865 -0.2673008 -0.21404344 -0.95050174 0.1462421 -0.87838125 -1.174953 -0.6023954 0.4269359 1.3870709 0.35569662 0.06470971 1.0043817 -1.1552836 -1.3951379
云 -0.5209095 -0.74891245 -0.4074738 -0.030949099 1.4886738 0.20264862 0.9691398 0.78314143 1.8216115 -0.17430075 1.036158 -0.914073 0.14604974 -0.49931473 -1.2120702 0.3370854 0.21893473 -0.52328885 0.7493354 -0.041782036 1.149169 -0.1126707 0.4463763 0.5541785 -1.0807617 -0.7082201 1.4838187 0.12236472 0.21584736 -0.10093906 0.54350203 -0.12565306 -0.048038416 -1.5112013 -0.15568869 -1.3806207 -1.1012075 0.67107534 0.05960926 0.18942258 -0.68935865 0.74845695 0.33784208 -0.21708865 1.6045485 -1.4753444 -0.82918346 0.8898781 -1.5392286 -0.95588154
孙 0.2518371 0.13335358 -1.6631114 -0.026650118 -0.9742538 -0.6530318 0.6355915 0.22577277 0.80234057 0.054475103 -0.01783885 0.47491953 1.4664764 -1.0019124 0.9823607 -0.47583842 -0.30021888 -1.0409608 -0.28944248 -1.3297843 -0.17737588 -0.9848063 -0.39952984 -0.67881936 -0.27836496 -1.1992049 0.34153146 -0.42409086 0.61793226 -0.025167286 0.21912846 -0.17989816 0.35980788 -0.2077677 1.5262586 -1.041181 -0.15357786 -1.0568146 0.34877154 0.5102965 -1.231974 -0.8717293 -0.36621895 -1.6547933 1.9036429 -0.13457552 -0.7046259 0.33734107 0.23478857 -0.3313739
或 -0.40397176 1.192946 -1.2208471 0.59813905 0.43377396 -0.41021922 -0.63942826 1.7522781 -1.2003161 -0.14827731 0.123828605 -0.9066126 -0.29703254 -0.61158305 0.035010565 0.45135584 -0.7539381 -2.325651 0.41502097 -1.9423262 -0.013314762 -0.5923946 0.719674 0.31490874 -0.79003006 0.07626786 1.5763457 -0.16280465 -1.0055964 0.095791765 -0.5973276 0.21105821 -0.7932532 0.8978665 0.3191572 -1.160634 -1.2047021 -0.038585726 0.11392082 1.7928407 -1.4451394 -1.2832334 0.29297507 0.22273688 1.0041516 -0.06038925 -0.48328424 -1.10278 -0.1646272 -0.7971429
勇 -0.18355858 0.06323354 -1.6384091 1.5071137 0.65818477 -0.55638844 0.2710677 1.1704912 -0.27902657 1.0375136 0.41405064 -0.76942444 0.7471903 -0.6219156 -0.27217814 0.3856924 0.5361589 -0.7164809 0.6864841 -0.8959428 0.26040274 -0.047721565 0.78649753 0.20873784 -0.91485846 -0.65229857 0.99739814 -1.1025863 -1.8328217 1.3171217 0.51826394 0.24897338 -0.027171535 0.7613853 -0.6577329 -1.5238733 0.4927612 -1.1347264 -0.7099974 1.8509426 -1.2426766 -0.9525627 -0.6856744 -0.76850104 0.5184446 -1.5682771 -1.1804227 0.5029124 0.93350804 -1.2968585
孰 0.5608351 -0.68675786 0.93626094 0.029295571 0.5031804 0.72585917 0.26543704 2.0142705 -0.0300114 0.4030824 0.6375402 0.04432521 0.85124165 0.45511857 -0.82561564 0.34433502 0.9982417 -0.27051964 0.021831134 -1.1233388 0.9662275 0.4144666 0.4290608 1.0786471 -0.83327204 -1.0107089 0.91548556 -1.0675676 -0.09817392 0.8389636 1.1767179 -0.3935304 -1.7832575 -0.30653062 0.14765967 -2.4729695 -0.36324474 0.25923693 -0.6607468 0.9561554 -0.036014497 -0.32010344 0.20461589 0.05139175 1.0053848 -0.91104966 -0.7372633 -0.12487881 -1.2265704 -0.89395225
叔 0.4733268 0.107996166 0.13341792 1.0806583 0.8160977 -0.026665851 1.4186168 0.90735793 0.81908566 0.63357425 1.8925393 0.38952115 1.4939575 -0.6704832 -1.031627 2.295765 0.58052033 -0.96763134 0.72862995 -0.94312096 0.84198993 0.07053147 0.36441332 0.6245762 -0.17288482 0.7177614 0.77706915 -0.59712297 0.04206501 0.2331596 1.492315 -0.8450866 -0.37114143 0.09891915 0.6652996 -0.30774528 0.97227585 0.08319186 0.7311336 -0.46730176 0.04159056 0.16598399 0.5965036 -0.5264851 1.6024251 -1.4358184 -1.2083964 0.6047815 -0.2965614 1.0757054
渊 0.9948596 0.030530592 0.70384866 0.4365127 0.29844588 0.9687833 0.040123906 0.95576537 -0.11758503 0.2006534 0.7592061 1.3747228 0.5452769 -0.6788664 -0.34484866 0.8657578 0.63284934 -0.8056435 0.49345407 -1.4043947 0.53702927 1.0710588 0.9080751 0.89786655 -0.5946232 -0.51388085 0.6606942 0.19945373 -0.36279568 0.04163788 0.082178816 0.4627292 -1.0159593 -0.7760596 1.2959148 -1.3713458 0.18623273 -0.71046275 0.12806971 1.5300934 0.2706648 -0.26356032 0.9165791 0.41843027 1.2911313 -1.1177977 -0.7589507 0.29460564 -0.47916672 -0.20273943
方 0.1094904 -0.16880777 0.270616 0.18716472 1.5020903 0.07298036 0.24131925 0.3356075 0.028234718 0.77945197 0.84460247 0.6307029 0.7751578 -0.98026216 -0.58386856 1.4676436 0.4501703 -0.14392367 -0.1459301 -1.0024956 0.92565155 0.33571327 -0.19520873 1.4326588 -0.68781114 -0.27546796 0.51484746 -0.6474446 0.098746516 -0.49082333 1.4873004 -0.053241357 -0.7237893 0.0022288363 0.42708915 -1.2711064 -0.3279404 -1.003234 -0.8069681 1.3154627 1.1018835 -0.19152439 0.00887098 -0.2246783 1.248964 -1.2530631 -0.41555566 -0.2797771 -0.16320859 -0.02181464
乱 1.7356174 -0.68576294 1.8065814 0.5419199 1.4290596 1.190207 0.45708138 1.1142691 -0.031749856 0.44466093 0.6044566 -0.477082 0.61354715 0.30388737 -1.2990879 2.0902414 1.0036136 0.1039668 0.39249724 -1.0091553 1.0701432 1.0339344 1.1296064 0.9934518 0.36722326 0.046226744 0.29153058 -0.9137423 -0.47656655 -0.18012464 1.6671221 0.73312736 -1.0504515 0.98436886 0.43801543 -0.20429985 -0.021299407 0.45402148 -1.2078903 2.5756664 0.6501667 -0.5221427 1.3921477 -1.6373994 1.4984292 -0.56732845 -0.41580027 0.24703757 -0.8558824 -0.87046283
五 0.6085127 -0.7172667 -1.5659378 1.2520567 1.0125157 0.33713144 0.7213587 -0.5752391 0.77669954 0.29455054 2.0029938 0.30670732 2.2138636 -1.5994949 -1.3269868 1.4739978 0.36722568 0.6891297 0.25418276 -1.2256937 0.5823724 0.38614762 -0.23519892 1.189442 1.2472701 1.1582731 0.51615417 -0.41723645 -0.48401526 0.8741052 2.1607647 0.502626 -0.5601179 0.1863218 0.5187015 -0.7225277 0.7490505 -0.67550546 -1.6978368 1.3965381 0.5325915 -0.8350304 -0.6298286 -0.38515058 2.458411 -0.43109778 -0.71138275 0.1592821 0.7495158 0.38741267
