1352 50
， 0.06136573 0.04216395 0.19632865 0.41417342 0.4413957 0.40799513 -0.47739166 -0.46473047 -0.58447915 -0.5228172 -0.43546 0.43966275 -0.3040083 0.07830052 0.067805275 -0.33131254 0.49282232 -0.5245761 0.3803074 -0.30808023 -0.06616895 -0.46410078 -0.49817523 0.2685297 -0.84650165 0.14024381 0.09030221 -0.41230655 0.71996325 -0.09934371 -0.84921116 -0.35240144 -0.31238014 -0.24441151 0.09290744 -0.7397298 -0.46231896 -1.1572298 -0.43266237 0.2321056 -1.1566336 -0.2687128 0.407079 -0.48558587 0.060382493 0.31178498 0.24732113 -0.70327646 -0.349078 0.3304216
子 -0.17712307 -0.42423767 0.44796458 1.0609933 0.6653096 -0.39967096 0.42619658 -1.2457399 0.4730147 -0.6183402 -0.008184405 0.4434223 -0.37503356 -0.8925725 0.23290913 -0.21455522 -0.7203855 -0.06490482 0.36669576 -0.30067918 0.44534123 -0.6345038 0.29546767 0.45511407 -0.44500962 -0.75405043 -0.18353488 -0.23129092 0.6198275 0.4089546 -0.51236266 -0.47912955 -0.59978694 0.395423 0.35953388 0.3536828 0.58369815 1.010235 -0.4727198 0.76051545 0.18263033 -0.73255074 0.6490184 -0.2607942 0.81944424 -0.36136457 1.0518938 -0.95279974 0.84159154 0.81794345
。 0.30202726 -0.34667426 -0.57831615 0.17161278 0.8229423 0.14872064 0.31684163 0.3055722 -0.37482682 -0.09911457 -0.5106118 0.018648166 0.80673146 -0.12752391 -0.4156863 -0.058952283 0.412578 -0.07017906 0.7623518 -0.52776086 -0.18506606 -1.1146988 -0.7035307 0.25329843 0.5701036 0.3782772 0.57089496 0.029187538 -0.6776036 -0.3115915 0.0034123 -0.09720631 0.26763853 0.28487146 0.24473526 -0.876604 -0.3298788 -0.77341825 0.5763001 0.3028619 -0.0957357 0.010221384 0.5902211 -0.28544313 0.23882055 0.5312548 -0.023361316 0.5187514 -0.3893264 0.18444821
： 0.6785152 0.01547331 0.48254636 0.17596345 0.5483916 -0.5178877 0.69317555 -0.4079895 -0.16501832 0.8193983 0.4372262 0.84167373 -0.7940738 -0.14196277 0.74888074 0.40271476 0.44615287 -0.7029719 -0.33638003 -0.7603285 0.065417886 -0.62475437 0.28355443 -0.115391955 -0.3421089 -0.6635896 -0.5242815 -0.88885605 1.2488575 -0.91063094 1.0017047 -0.73519504 -0.7244367 -0.16621172 0.35724148 -0.16695243 0.63527143 0.6429019 -0.37359548 0.12255723 -0.57369983 -0.1298487 -0.1814273 0.48437572 -0.30860272 -0.045234572 0.024521552 0.25822067 -0.31895262 0.17504139
曰 -0.5538591 0.5050588 -0.3059922 -0.03962495 0.3859732 -0.020060781 0.8443443 0.69484824 0.28829694 0.67414063 -0.88713366 0.33413652 -0.18953742 -0.24437812 -0.051955212 -0.32189757 0.3532174 0.44416586 0.6075722 -0.0054535214 0.7057557 -0.4729273 -0.64142483 0.15888117 0.9291754 -0.28196472 0.27333328 -0.44764635 0.22529823 -0.7824183 -0.593903 -0.0037188458 -0.036781564 0.9867675 0.59594053 -0.94885623 0.60881066 -0.65614104 0.30682093 0.8885044 0.15956903 -0.35912982 0.81619453 -0.46983698 0.1529282 -0.66552263 0.5156748 1.1628222 -0.5749418 0.051755417
之 0.13316149 0.48868132 -0.47878653 -0.03428318 -0.3856783 0.015757388 0.44700027 0.4420159 0.38114935 -0.04136993 -0.2581403 0.47974834 -0.17020012 -0.09575222 0.60717493 -0.5570636 0.537521 -0.27852935 -0.0970296 -0.40940562 0.6313923 -0.16102785 -0.72624946 -0.10623431 0.18183297 -0.6548708 0.0931983 -0.007998687 0.45320562 -0.33213988 -0.055116083 -0.3496059 -0.024472916 0.08887209 0.99636054 -0.17538506 -0.38754356 -0.39783478 0.23404084 0.2053696 0.9006861 -1.0488652 0.5088112 0.23920806 0.80363554 0.6275797 0.008759275 0.5059062 -0.88884777 0.4925317
不 0.2269887 0.35408592 0.42017913 0.28373903 0.22825347 0.048642132 0.5551968 -0.1377389 0.6389212 0.23676959 -0.6335323 -0.15887703 0.08285556 -0.17142464 -0.06742305 -0.23186637 0.46348622 0.52635795 -0.008504889 -0.11198231 0.0450985 0.23997557 0.04208673 -0.11247188 0.1948231 -0.32567304 -0.09376928 -0.49988586 -0.1392744 -0.83323807 -0.4868467 -0.3783705 -0.065733574 0.21145274 0.43618682 0.039914105 -0.7070375 0.29161483 -0.043190002 0.5194718 0.0024234636 -0.26611477 0.43186802 -0.6477583 0.5181707 0.16730206 0.7316273 0.3446152 -0.77884674 0.6609528
也 0.3168929 -0.17016196 0.68209714 0.019790685 0.6797333 -0.29462674 0.33700517 0.18449043 0.4455915 0.47592944 -0.24839322 -0.2693614 0.08031447 0.3701734 0.4916646 -0.36325568 0.064712845 -0.31620768 0.32780552 -0.37854064 0.123775154 -0.46608725 0.2544482 0.25507855 -0.29541454 -0.25743154 -0.4016753 0.17924862 -0.37989113 -0.3947082 -0.45692667 -0.93111414 0.17169215 0.27403635 0.011223851 0.05420506 0.10682888 0.7081497 -0.17571123 0.03974955 -0.21513559 -0.47736067 -0.11612929 0.54072624 0.41731015 0.35459185 -0.09876585 0.7851723 -0.38944525 -0.059721574
而 0.59615517 0.504559 -0.15518646 0.06281311 -0.35885164 0.053682175 0.2608382 -0.13136184 0.07753071 0.45361593 -0.36503965 0.18314609 0.826115 0.7042464 -0.11222949 -0.19070762 0.5993015 -0.04639342 -0.07326998 -0.8354108 -0.27822703 -0.096322395 -0.23965858 0.27014464 -0.34402356 0.06512573 -0.0053671473 0.06362937 -0.039145652 -0.8157203 -0.027217424 -0.36167982 0.023629762 0.12874019 0.53392994 0.76616555 -0.43259108 -0.4982835 -0.22601402 0.5312258 -0.04819906 -0.12792839 -0.3851581 -0.4413838 0.527343 0.51240635 0.064978614 0.25599962 -0.45645455 0.5413056
？ -0.6732333 -0.27245423 -0.11463936 -0.5648624 0.4364423 -0.11047835 0.5122058 -0.98151296 0.58711725 -0.061736755 -0.7527613 0.62385166 0.3127722 -0.63961893 -0.66085345 -0.64213634 0.739175 -1.1095576 0.7501567 -0.20341888 -0.04854036 -0.46502334 -0.69398063 0.023013761 0.031745933 -0.582324 0.30805188 -0.4571627 -0.016877564 -0.3756437 0.28344816 -0.075391054 -0.80128604 0.64707357 -1.0140091 0.42285055 0.55599076 -0.046431012 0.049373362 0.5632912 0.65904224 -0.5108954 -0.5553606 -0.029065177 -0.15913989 0.26801214 0.30363542 -0.08508382 0.042340625 -0.2732775
其 0.40306795 -0.5148478 -0.22421701 0.8457777 -0.9053508 0.5467159 0.092198774 0.8760197 -0.0070397924 -0.455555 -0.18634255 0.34862998 0.5058912 -0.47957218 0.37278637 -0.7601924 0.6304783 0.46104062 0.319183 -0.43781424 0.5565056 0.85101134 -0.6401243 -0.14060417 0.036825098 -1.0485957 -0.08395338 -0.784357 -0.15734811 -0.34802592 0.109338164 -0.59418297 0.92449206 0.6682392 0.93189794 -0.82644117 -0.42828554 0.19319463 0.6888747 0.7568011 -0.43186522 -0.19429639 -0.01457782 -0.58965117 0.11200705 0.95042497 0.52660567 0.029900227 -0.6733309 0.8101037
人 -0.14446594 -0.1355037 0.520079 0.9337796 0.11811238 -0.30945638 0.18130454 0.18334483 0.43618745 0.3928426 -0.6323937 -0.5480676 0.01774553 -0.023322852 0.44827637 -0.5938008 0.41660893 -0.20072551 -0.20310426 -0.62240744 0.45497274 -0.5344669 0.6149178 0.7414751 -0.34000283 -0.4142339 -0.62793416 -0.4261314 0.7338744 -0.71368456 -0.3249956 -0.5014747 0.9569961 0.44907317 0.43352562 -0.714955 -0.20960465 0.6013852 -0.17405102 0.60988945 0.6481348 -0.56653196 0.4305819 0.522825 0.114214115 0.6550703 0.42015746 1.1094176 -0.4584905 0.2812522
者 -1.0041637 -0.075123616 -0.38965335 0.9597984 1.032461 -0.036199946 0.3111121 0.15681286 -0.060542643 -0.50340194 -0.67980355 0.03835151 0.9045491 0.03824274 0.4343783 -0.14589179 0.44696876 -0.01885894 0.1155543 0.9270018 1.1067829 -0.14572433 0.022930391 -0.16918848 0.826204 -0.38987514 -0.106618784 -0.96827054 -0.12514041 -0.2332806 0.18850437 -0.26892328 0.75812286 0.78228277 0.059126947 -1.094851 0.9858517 0.05944991 0.50171614 0.39986205 -0.3395302 -0.3930687 0.93757105 -0.43244264 0.3477209 0.14940995 0.6576065 0.3266746 -0.36182877 0.5637196
以 0.30128056 0.16658431 0.7560123 0.51664203 0.24134119 -0.2737883 0.34308872 -0.22673409 0.047023308 0.015162866 -0.7119019 0.429063 -0.54881734 -0.5533424 0.64215356 -0.5091119 -0.24136186 0.07255183 0.20229416 -0.24140155 0.12975289 -0.17816398 -0.09331984 -0.45792922 0.39766926 -0.1899476 -0.54626083 -0.4237501 0.11204203 -0.20250767 -0.15395792 -0.21503484 -0.21263792 -0.04755056 0.5948709 -0.11892862 -0.20463514 0.1725919 -1.0096738 0.15470079 0.056505427 -0.559366 -0.14981443 0.3376349 0.287427 -0.16148594 0.51546395 -0.17518492 0.03908856 -0.29971206
有 -0.71852076 0.38058317 -1.0763696 0.25690362 -0.34931564 0.22713749 0.7556598 -0.7951363 0.814646 0.084240876 -0.1963587 0.8558583 0.18336962 0.29129744 0.9013858 -0.35126 -0.7923933 -0.6127222 0.4269022 -0.049505178 -0.14606369 0.47733933 -0.20105349 0.43980262 -0.45163745 -0.45197567 0.73428327 0.8319647 -0.4850129 0.12799276 0.18118617 -0.6683372 -0.020042434 0.23503569 -0.020563463 -1.0123838 -0.71453154 -0.069635056 -0.01941035 0.85299087 0.4686865 0.12951325 -0.34755772 -0.83612156 0.022115832 -0.40021402 0.07253847 0.24134143 0.5126609 0.08633988
于 1.069758 -0.2663675 0.48165005 -0.07066462 0.6951428 0.15992314 0.5334822 -0.045284342 -0.58195233 0.11551684 -0.9312477 0.051563405 0.37559077 -0.4946801 0.3133136 -0.5121136 0.23631302 -0.5226401 0.41461653 -0.87270015 -0.33729398 -0.5633717 0.291601 -0.7363539 0.6829301 1.0757654 -0.76246625 0.801089 -0.308777 -0.30305874 0.81224054 -0.061381463 -0.57060283 0.5980732 -0.11094918 -0.63315886 -0.06518689 0.011611993 -0.7165856 -0.14455995 -0.6766519 0.927966 0.7442891 -0.34387514 0.8100744 -0.3337051 0.19483458 -0.25868204 0.2453737 -0.52411056
矣 0.18396549 -0.08345645 0.35226423 0.7091861 -0.05883551 -0.6073937 -0.8013285 0.9100672 0.09812155 -0.18637423 -0.15778695 0.78515375 0.5987739 0.3687758 0.78270084 -0.5575748 0.11210285 -0.32965228 0.11765499 -0.3359523 -0.3173158 -0.08170785 -0.38887495 -0.45242807 0.7163793 -0.72884995 -0.46819022 -0.39172715 0.050817095 0.0054352996 0.20361586 -1.3285843 -0.67121094 0.43215254 -0.08202357 0.042091172 -0.3961531 0.19277883 -0.16886716 0.50001246 -0.69002235 0.43720418 -0.45989668 -0.7523076 1.0278589 1.1776594 -0.40817353 0.35553065 0.36915937 0.76973563
为 0.35966095 -0.645362 0.17915948 0.89193946 0.5319243 -0.56516355 0.8185099 0.2251273 0.32562032 0.63014257 -1.0968678 1.0340632 1.1439524 0.017877616 0.8066432 0.06850376 0.21212892 0.036835037 -1.0018089 -0.5785829 0.8093425 -0.6159713 -0.058826175 -1.1555017 1.0986502 -0.013241673 -0.48707446 -0.229914 -0.33537444 -0.05332596 -0.38356668 -0.18384491 0.06996975 0.5150297 -0.11031165 -0.83812547 -1.2323637 0.45746565 -0.21907614 -1.0036032 0.20095882 0.16657798 0.12934346 0.40923703 0.29465163 -0.64997864 0.3494886 0.490582 -0.24847627 -0.07422144
君 0.47798228 -0.16563371 0.3390068 0.1903686 -0.07755659 -0.17282727 0.0670554 -0.5759971 -0.29073784 -0.84762585 -0.030828107 0.5752567 0.49358055 -0.76736325 -0.5558085 -0.59203136 0.74960124 -0.56576383 0.65062404 -0.43670738 0.13323137 -0.21856336 -0.292568 -0.015803399 0.1369718 -0.1082699 -0.8197994 -1.2464814 0.005545467 -0.1667701 -0.15153633 -0.2626 0.105003074 -0.16013333 0.6039069 0.5690047 -0.29095814 0.41380054 -0.02472817 0.15325756 -0.87496877 -0.0641958 -0.10630048 -0.88714755 0.32803717 0.58450466 0.5390942 -0.762293 -0.16881219 0.5600319
乎 -0.18181512 -0.33022162 -0.88443035 -0.46030164 -0.02190109 -0.05779112 -0.06787261 0.23157157 -0.2581411 -0.08113196 -1.0398409 0.3549161 0.33695918 -0.21337524 -0.023019746 -0.35571483 0.27904934 -0.59411824 -0.40677258 -0.06966432 0.43259656 -0.014846509 -0.47089437 -0.55289656 0.3403997 0.3096053 0.27032012 -1.225834 0.043405533 0.4436002 -0.06373381 -0.16083035 0.47944355 -1.0211847 -0.10663641 0.032971404 -0.64464206 -0.8286957 0.2913292 0.3601397 -0.093556665 -0.99302536 -0.027770478 -0.4624364 0.45949492 -0.41715112 0.2235652 0.27045068 -0.1591926 0.61301994
可 0.181155 -0.1862858 0.051663153 -0.5114705 -0.26701495 0.21548736 0.05269374 -0.8382339 -0.37309045 -0.5268998 0.510283 0.44640046 -0.6269974 -0.6264192 0.7332927 -0.6393805 0.7161135 0.36639076 -0.13261564 0.2917728 0.47993213 0.15253304 0.19090706 -0.5920105 -0.047366075 -0.80865777 -0.64079374 0.17804746 -0.60898 0.28979748 -0.49407277 -0.7299112 -0.10280354 0.17706911 -0.69374794 -0.4646635 -0.47413787 0.061830383 -0.19486597 0.26752135 -0.8754945 0.015507046 0.5420226 -0.7402574 0.15893345 0.395169 0.6984504 -0.27600804 0.78590065 0.6501772
如 -0.6238776 0.3387598 -0.35897192 -0.04342488 0.0897369 0.21172494 -0.18037874 -0.6552059 -0.39732945 -0.041776415 -0.3481951 -0.12842417 0.35011932 0.3270853 -0.7183803 0.25091007 0.19097336 -0.38892946 0.16886032 -0.7583899 -0.15616512 -0.35958284 -0.38067588 0.080780044 -0.26429877 -0.22437322 0.6039348 0.6431474 -0.08358953 -0.50089824 0.6303644 -1.0744879 -0.91729444 0.5810646 -0.1900019 0.8282937 1.2158382 -0.73263294 -0.05367494 -0.12779199 0.3829169 -0.67431337 -0.08146219 -0.87972945 0.535376 0.44507042 0.32820114 0.97913104 0.76096594 0.18895663
与 -0.22124542 -1.2900603 -0.99844956 -0.657311 0.012722879 -0.16787827 0.4042651 -0.44198295 -0.5944075 0.24793504 0.9060435 0.23661168 -0.5981449 -0.5825582 0.27026615 -0.49805543 0.036324926 -0.09521724 0.42157677 -0.33967695 -0.9748652 -0.10568308 -0.03112389 -0.5223648 -0.6631849 0.109375775 0.1557795 -0.7046735 -0.035650037 0.4214672 0.23703375 0.16014515 -0.16248561 0.43343544 -0.43270305 0.73502016 0.039303396 0.37460652 0.5964531 0.0628423 -0.8403033 -0.7309693 -0.12911132 -1.0803584 0.42789057 0.759771 0.5344259 0.41502607 0.7267365 1.1659056
； -0.0776307 0.31151852 0.11188287 0.6948255 0.10999855 -0.36694816 0.08404739 0.3834741 0.40233117 0.69618946 -0.8383986 0.3007082 0.0475002 -0.5021468 -0.1834773 -0.59953105 1.213142 -0.5298804 -0.9941971 -0.7686048 0.055473167 -0.5562136 -0.33503717 0.62517 0.15010421 -0.65306807 0.13498928 0.3113754 0.4580059 -0.06624202 -0.8070641 -0.013510082 0.3395341 -0.20354858 -0.40231517 -0.38890362 -0.31564695 0.5015305 0.38968012 0.10835118 0.8943746 -0.8959942 -0.67519164 0.55246055 0.2895997 0.27962446 0.19613779 0.13477714 -0.6832836 0.46327233
言 -0.13969867 -0.47733614 -0.82295847 0.21519479 0.6342564 -0.7142431 0.33810553 -0.07319551 0.6635865 0.6062621 -0.18777327 0.019762667 -0.40542495 0.16084954 0.163489 -0.25336704 0.32067153 -0.7361651 0.74088144 -0.55404246 0.10165953 -0.22145297 -0.41060406 -0.3070429 -0.066624574 0.08451446 -0.46105734 -0.25165746 0.45759675 -0.7139584 0.32013512 -0.4468177 -0.38689554 0.17900328 0.4923031 -0.5802931 -0.10481068 -0.5887572 0.6694198 0.59928375 0.36705232 -0.46852824 -0.03808312 -0.24056616 0.040848974 -0.3044323 -0.74957013 0.8000523 0.029955976 0.1681319
无 0.27109113 -0.58319014 0.46771297 0.32738906 0.7643399 -0.26758593 0.023313373 0.081546605 -0.10586437 0.4887314 0.5767126 0.48484808 0.017629188 -0.37392184 0.2456052 -0.3978993 0.6403417 0.05421428 0.063994884 -0.22662109 0.06727335 -0.17269334 0.21530786 0.18613525 0.4677231 -0.6054863 -0.37150663 -0.42298716 -0.008119229 -0.071372144 0.33899075 0.20435701 0.06420422 0.115285344 -0.6002301 0.26017526 -0.10186906 0.35870346 0.008908855 0.37722194 0.08922013 -0.05560923 -0.20451266 0.22978345 0.29878128 -0.18386202 0.79719347 0.10379152 0.38325092 0.2152845
则 -0.58199596 -0.26689035 -0.15029989 0.6863995 -0.12580144 -0.21259779 -0.2052637 -0.086476624 0.7542181 -0.3914999 0.6858122 -0.8363958 -0.7836283 0.04082855 0.55971956 -0.07590435 0.40432835 -0.5132501 0.4893875 0.4611317 1.0464778 0.18536255 -0.0953338 0.46424723 -0.28188464 -1.0752887 0.71685827 -0.056255937 -1.027282 -0.30564308 -0.44138768 0.19402172 -0.026758052 0.08550697 0.23193714 0.41272727 0.44617411 -0.14062154 -0.5929531 1.0828346 -0.49034753 -0.8315167 -0.3657514 0.21558355 0.40083444 0.117557086 0.7684685 -0.0042130332 -0.4792419 0.3530348
！ 0.7500141 -0.4957766 0.0042097727 0.72228575 0.45314777 0.6488413 -0.4831344 0.15228027 0.39839062 0.30474767 -0.40859345 1.0084608 -0.13877767 -0.255467 0.09895656 0.6863616 0.495002 0.42081842 0.07653947 -0.75592256 0.13400607 -0.4821125 -0.41698244 0.623094 0.9081045 -0.9659219 -0.50738615 -0.1360815 0.41497314 -1.0086744 0.95566005 0.0075899577 0.356775 -0.32551724 -0.4948893 0.5869588 -0.42521012 -0.079517856 -0.68269277 -0.021936359 1.0083302 -0.60316944 -0.45907784 0.9799105 0.5179477 0.25135165 -0.15383166 0.15801677 0.034904886 -0.18247683
问 0.1832282 -0.6075799 -0.5540349 -0.5297341 -0.3754556 0.629841 0.7612787 1.1506691 -0.6456345 0.5638657 0.37672576 -0.22838555 -0.8845017 -0.73923343 1.0256352 -0.84153193 0.012354178 -0.63417536 0.18322596 -0.33380628 1.1576126 0.01648075 0.51989067 -0.198109 -0.66609645 -0.7401591 0.21730226 0.10531539 -0.76242924 -1.0663668 0.20479558 -0.6325524 0.8827911 0.51317567 -0.3991115 -0.1156641 -0.37179738 0.3368796 0.021217478 0.3653612 -0.41199288 -0.23731934 0.14495203 0.19305761 0.57969683 0.99786854 0.4039203 0.84949964 -0.3439564 -0.2860393
知 0.18208793 -0.5676053 -0.5923188 -0.96568197 -0.28180736 0.31503454 0.03953407 -0.24692868 -0.12643296 -0.066766866 0.542869 0.6403133 -0.16925621 -0.08099421 0.72260815 -0.24393189 1.2483001 -0.5862463 0.56479555 0.7136382 0.41389474 -0.52920294 0.1145042 0.38702607 -0.3363685 -0.47545728 -0.039564855 -0.79137164 -0.7911185 -0.6149044 -0.03065501 0.3491743 -0.6269456 -0.6712262 -0.91987944 -0.6432491 -0.45231014 -0.62628007 0.1786406 0.4865524 -0.7875679 0.5098218 0.16618809 -0.28099453 0.39878523 0.8462671 -0.2778198 0.29535595 0.12721603 0.40142873
何 0.74186033 0.28217363 -0.4257068 -0.78165877 0.047986906 0.34879524 0.6709648 -0.22413227 -0.6647714 0.7600361 -0.19686772 0.4232009 -0.593247 -0.5129895 0.7309099 0.58599174 1.0355186 -0.6206514 -0.0068741003 -0.12570672 -0.54108465 -0.91466534 0.12090105 -0.66264576 0.39477187 0.46345475 -0.6476846 -0.8684203 0.6060799 0.41915694 0.117115825 -0.42719534 0.4923082 0.10586102 -0.30324855 -0.6797449 -0.33473396 -0.2354504 -0.39795333 -0.28486994 0.12596099 -0.78242993 0.8293422 0.58362025 0.7018948 1.0287842 -0.34013844 0.28654313 -0.3463856 0.48162767
吾 0.15000495 0.15176246 0.13275217 0.550858 0.13554391 -0.21875097 -0.8036465 0.023687508 0.25512865 0.7916917 0.028289642 0.6114882 0.048348192 -0.67058015 -0.08601697 -0.1823217 0.4214128 0.2094378 0.002679181 -0.68836486 0.20475419 -0.0064130947 -0.204733 0.5455725 -0.12851946 -0.25051183 0.041585755 -0.6127376 0.13365729 -0.35175347 0.18767011 -0.35568705 0.58560365 0.11730538 0.07307299 0.19370304 -0.12866165 0.22941756 0.047884777 0.1848137 0.11127897 -0.2020004 -0.19009697 -0.42922777 0.29822716 0.1770998 0.35120037 -0.70831215 -0.192702 0.4066131
仁 -0.2427196 0.7620875 0.76073915 -0.798127 -0.071629636 0.8734681 -0.2022066 0.29458064 -0.67835134 0.27019447 0.78180707 0.8308486 0.78677493 -0.84242165 0.7145967 -0.027568571 0.77190304 0.35409442 -0.35215068 -0.55539924 -0.45948443 0.09445462 0.26082325 0.7843979 0.22163466 -0.06630008 0.24649909 -0.4469737 0.1630879 -0.36703262 -0.5811396 -0.16524461 0.9320414 0.20580892 -0.098994836 -0.2189087 -0.44646832 0.44507888 0.1660835 0.50265104 -0.8158561 0.6125226 -0.0334355 -0.22746931 0.36449626 0.30877474 0.7466159 -0.5303097 -0.87038946 0.5121094
夫 -0.3218062 -0.5128626 -0.7824962 0.35109946 -0.22772373 0.45850426 0.12893042 -0.33310997 0.5063858 0.031397857 0.0107521545 0.14267041 -0.24738565 0.22495556 -0.037493613 -0.17372094 0.9932763 -0.29480305 0.33709225 -0.15997553 0.2099774 -0.6393275 -0.35811445 -0.7229899 0.37627164 -0.6799627 -0.18060485 0.13671513 0.24049236 -0.35048667 0.072773345 -0.8229817 0.05818532 0.7054705 0.16560708 0.0021444832 0.48420405 -0.6148748 -0.9719185 0.372371 0.88820064 -0.48636022 -0.3404789 0.26503706 0.13887534 0.04549166 0.55467886 0.38940376 -0.8230746 0.43207318
、 0.5435543 -0.21823053 -0.091968 0.39379957 -0.346521 -0.10118357 -0.3984522 -1.0041437 0.13918734 0.60832155 0.43312544 -0.42319176 0.6068227 -0.21066919 0.2673869 -0.49891776 0.7666015 0.47931957 0.2449383 -1.0177317 0.88670087 0.04430969 0.15474193 -0.9195306 -0.5021717 -0.8323566 -0.21594536 -0.46461847 -0.75638175 0.6494512 -0.38492003 -0.57057375 0.5802607 -0.3125805 0.24766347 -0.39470935 -0.6650603 -0.561643 -0.741415 -0.17561457 -1.0507146 0.8021076 0.652075 -0.71174836 0.45174178 -0.30899823 -0.011040849 0.81925374 -0.5319716 -0.18115121
道 -0.5408659 0.03341656 -0.029859629 0.7922317 0.37412775 -0.5955626 0.4385768 -0.38019425 0.24686746 0.21159263 -0.57399404 0.14215387 0.055453833 -0.050545737 0.08043694 -0.35004494 0.5411168 -0.56218415 0.36658886 -0.5885008 0.5172812 -0.6414234 -0.385481 0.43795076 -0.22537948 -0.47321644 0.5319479 0.09977784 0.047637515 -0.6102884 -0.07342417 -0.55750495 0.014230527 0.038526986 0.43497327 -0.5610942 -0.06694588 0.41465056 -0.20263962 0.6261187 -0.31822565 -0.5006765 0.14816344 -0.30751696 0.10020076 -0.015015814 0.21410418 -0.1524389 -0.6252783 0.24251106
焉 -0.38697124 0.14165264 0.113535956 0.4926957 -0.6019279 0.88491017 -0.022509536 0.1314115 -0.2843076 0.94378906 -0.5481666 -0.56059974 0.15261462 0.20098276 0.63215977 0.14571267 0.2988298 0.009609768 -0.13685684 0.066851564 -0.12794895 0.55242676 -0.5565007 -0.044954095 -0.4211503 -1.028609 0.6344635 -0.5997708 0.8414539 0.03471746 0.18127224 -0.68007517 0.5534701 -0.19445051 1.21497 -0.341022 0.108303696 0.36298966 -0.31810877 0.43218017 0.07365518 -0.1680803 -0.7711758 0.6334076 0.6146334 -0.46296754 0.904776 0.64544487 -0.4432121 0.67301846
行 -1.0041662 -0.20825572 0.7721185 -0.1943259 0.122361444 0.8187726 0.44064194 -0.058361474 0.9086476 0.7314371 0.20124605 0.4329917 -0.6754019 0.044093248 0.014928641 -0.10101177 0.06584115 0.11720177 0.38810053 -0.03521171 0.55445117 -0.30864534 -0.55174065 0.32396108 -0.85204035 -0.85605705 0.98961854 0.7893845 0.32458308 -0.20924766 -0.86359763 0.4786968 -0.1773539 -0.43961892 0.33488572 0.08435189 0.47902113 -0.79751617 0.08742002 -0.12027309 0.5495855 -0.80312175 0.0910991 -0.50134486 -0.8013036 0.10775892 0.23029189 0.47880012 -0.09163043 -0.53314614
谓 0.47090054 0.2609865 1.0810019 0.45592913 0.5104572 -0.7202114 -0.21570936 0.45520598 -0.8494381 0.72820115 -0.5147498 0.5755732 -0.78782934 0.42860806 -0.48818088 0.036834784 0.6094708 0.5303496 0.7590053 -0.8453202 -0.3992498 -0.50216985 0.29376093 0.34137028 0.14472415 0.20539747 -0.638625 -0.6939584 0.48188084 -0.34657258 0.23653923 -0.257886 0.50799423 -1.254726 0.15050164 -0.33785036 0.3996912 0.7449794 -1.1137321 0.3433862 0.52814853 -0.44223014 -0.47651854 -0.748604 -0.7239315 0.22539234 -0.023662196 -1.202626 -0.20346461 -0.30033153
必 -0.91619223 0.06613325 -0.3937704 -0.05154008 -0.18215576 -0.18863569 -0.74422497 0.12838526 -0.15731207 -0.62689984 -0.23526624 0.70396847 0.81162345 -0.15365559 0.71918327 -0.7773772 -0.22623606 -0.41926277 0.54195404 0.6277742 0.3742125 0.50530314 -0.59086925 0.4930372 0.031737033 -0.80908465 0.23348574 -0.19697636 -0.8140596 0.40101692 -0.6767753 -0.060549837 0.23697905 0.33037862 -0.50760126 -0.69002396 0.44176462 -0.60727364 0.54710287 0.09773432 -0.11511219 0.51751417 -0.16772681 -0.3250411 0.08279953 0.01595805 -0.009352957 0.66016686 0.411596 0.11552148
礼 -0.048997197 -0.14201573 -0.06018527 0.70705473 -0.32768407 -0.31691507 -0.8755416 -0.70366114 0.46200806 -0.99987817 -0.6325214 0.4816906 0.43943816 -0.55322504 -0.10453113 -0.5201057 0.6688486 -0.073072694 0.62419516 -0.51331174 -0.45508304 -0.33641753 -0.16579802 -0.62860435 0.10899322 -0.037056617 -0.8950925 0.29941803 0.79367256 0.20020935 0.2915404 -0.29919124 -0.28317657 -0.07687789 0.08103133 0.07245788 0.07204055 -0.8274554 -0.73540676 -0.17204683 -0.58826727 -0.44870606 -0.30660656 -0.97682077 0.57775646 -0.033560164 -0.02573878 -0.8195558 0.058850896 0.04890406
孔 -0.42442074 0.30033612 0.49522337 0.51211655 0.63239896 0.6057315 0.25125334 0.008771109 -0.3498575 0.26274008 0.30335155 0.30930322 0.09493811 0.10138198 0.6992249 1.1522645 -1.0009831 0.42822796 0.49007738 -0.71806663 -0.43914732 -0.59182495 0.7847526 0.19095373 0.20489322 -0.58008444 0.0138551835 0.3890325 0.9362585 -0.5358644 -0.7575273 0.17865138 0.07267164 -0.4519698 0.2583557 -0.84815216 -0.6585612 0.44230324 -0.03248829 0.08789145 -0.97638035 -0.6386979 0.26744515 -0.24609372 -0.24122702 -0.9173344 0.8170108 -0.25215146 -0.26864004 0.46508437
斯 0.37715122 -0.47088286 -0.31435016 -0.25556305 0.9846574 0.52249867 -0.6343008 -0.43659782 0.42963788 0.5404445 -0.6071169 0.2583324 0.60189015 0.19520044 -0.94137686 -0.4630819 0.3523708 -0.15519275 0.36774376 -0.082398936 -0.8054521 -1.0579783 -0.32926825 0.3766866 0.5716308 0.3510736 0.24097833 -0.24754034 -0.6340689 -0.7153366 0.17999767 -0.6494925 0.15826394 0.13280049 -0.9072666 -0.91327447 0.1499167 -0.64743155 0.24170513 0.9366167 -0.7465192 0.49865028 0.7924633 -0.4547144 -0.5170834 0.95760393 -0.16670433 0.3891538 1.1282947 0.65790695
三 -0.09964478 -0.48678052 0.47543928 0.72966063 0.8388338 1.2660211 0.14971207 -0.4158103 0.20669545 -0.24580061 0.34323767 0.102624044 -0.58374435 0.06578458 -0.20403416 0.01966516 -0.73854274 -0.7166321 -0.4100065 -1.033261 0.13114357 -0.89476544 -0.98708206 -0.09486648 -0.15902065 -1.0620701 -0.042001814 -0.2548836 0.30840036 -0.37041542 -0.6501601 -0.6025238 0.061751362 0.08427281 0.88948256 -0.9011531 -0.5132111 0.42505556 0.22528808 0.22426613 0.45297724 -0.02268753 0.22943711 0.5533374 0.034226514 2.6490161e-05 0.29276866 0.13646135 -0.8893102 0.786721
能 0.18810573 -0.043223567 -0.018374171 0.51715547 0.6255782 -0.5818613 -0.37761527 0.006195904 0.23419584 -0.037643213 0.50426316 0.613041 0.3227743 -0.5785526 -0.3485871 -0.17304981 0.36856624 -0.15822628 0.22357535 -0.57930505 -0.41408122 -0.27992263 0.22303528 0.016036836 0.6399414 -0.5756726 -0.534998 -0.5346549 0.1697157 -0.31132048 0.61727446 -0.47810057 0.2432574 0.6597278 -0.18993956 0.2075467 0.12881252 -0.06404444 -0.021881789 -0.11764445 -0.124436125 -0.28008077 0.010693421 -0.61706966 0.554326 0.49919963 0.014008914 -0.28785932 0.383589 0.29113752
见 -0.28312832 -0.0053007253 -0.29320684 0.3009698 0.68011117 0.29522392 -0.20158935 0.37013328 -0.42997786 0.13754652 0.18337107 -0.3121657 -0.34192517 -0.81601536 0.013943259 -0.22027084 0.26850247 -0.2729365 -0.93044376 -0.7537065 0.36274058 -0.070248425 -0.56406736 -0.42349917 0.11148438 -0.3784352 -1.3256632 0.22784899 0.39855886 -0.22046112 -0.02863275 -0.5625009 0.5213987 0.9356874 1.11567 -0.42182916 -0.68115646 -0.35847068 -0.47283846 -0.017498212 -0.58266747 0.72673154 -0.6387025 -0.05562063 0.38513437 0.012430496 -0.20731154 0.5565521 -0.44098672 0.59589314
学 0.17740957 -0.44610688 0.5403172 0.58846605 0.8512616 -0.61422104 0.3931054 -0.05718917 0.74469185 -0.9988177 0.072830796 0.30639285 0.4415181 -0.8227304 -0.32795164 -0.1391448 -0.21070474 0.13896096 -0.22428901 -0.7848141 -0.5580487 0.07001169 0.2446338 0.16473407 0.21684805 -0.6347369 -0.3393757 0.5256655 0.6755117 -0.73373497 0.7487551 -0.58694905 -0.6308723 0.646001 0.17940563 0.4628623 -0.48815492 -0.010402465 0.07708702 -0.3567902 0.38814545 -0.28023177 0.8497103 -0.827138 0.7776588 0.7300296 -0.26240355 0.33861098 1.0811983 0.6822686
事 -0.46392828 -0.81751287 0.4577337 -0.8365615 0.27227968 -0.16695254 0.099039815 0.11943598 0.60706484 -1.0249844 1.1918352 0.5995617 0.011828975 -0.39530414 0.45705587 0.26054028 0.34638909 -0.22652104 -0.031268425 -0.788061 0.9021282 -0.31446004 0.045020487 -0.10029843 -0.2038122 -0.49276534 -0.82683206 -0.34303045 -0.32595235 0.1069464 0.573927 -0.05256345 0.40331128 -0.017755406 -0.24019289 -1.1381893 -0.9197066 -0.77217686 0.1742811 -0.19415683 -1.1093853 0.15881325 0.2535828 -0.3178403 0.13187332 0.13142999 -0.4112238 -0.20073043 0.05641161 0.70900214
是 0.15028435 -0.24133676 -0.40306473 -0.187017 0.48740622 0.13766067 0.74740666 -0.33529335 -0.41161174 -0.49664763 0.10405786 0.50581455 -0.8116269 -0.42389938 0.53199923 -0.32980898 0.45999196 -0.67965716 0.50276464 -0.5534596 -0.5596819 -0.45028484 -0.32612705 -0.23090628 -0.7612659 0.20172247 -0.03493055 -0.06822145 -0.5859699 -0.3890755 0.099994116 -0.14086695 -0.8978566 0.817553 0.27403006 0.06792789 0.13922976 0.17640485 -0.022147683 0.684948 0.31754825 -0.0328416 -0.42415428 -0.49085972 0.9571123 0.2976014 0.3948158 0.40198907 -0.079297 0.30666792
哉 0.054181684 0.43302214 -0.44052282 -0.7296133 -0.6698022 -0.5441059 0.6693954 0.6079063 -0.051445864 0.84326035 -0.1703266 0.57581943 -0.65937924 -0.31191128 0.71606493 -0.7125428 0.5469023 -0.5577272 0.022347845 -0.6117226 0.15713839 0.60220647 0.43819144 0.40439638 0.32676497 0.6001888 -0.24360836 -0.70550036 0.16456206 -0.6356546 0.36835447 -0.2977529 -0.6070366 -0.30609095 0.2992525 0.7897362 -0.7319162 0.07050822 -0.47116578 0.31981716 0.09296954 -0.44595775 0.7019714 -0.715168 0.12683979 0.55030084 0.105332635 0.37329447 -0.7176441 0.043773007
闻 -0.32418334 -0.6378578 -0.8497612 -0.61260957 0.39863947 -0.3528147 0.22853656 0.020552257 0.93847245 -0.2584033 -0.5630376 0.15092072 -0.045410655 -0.088227905 -0.97525734 -0.5409149 0.015519611 -0.22389081 0.6272823 -0.5529298 -0.31569076 -0.31158975 -0.8555606 0.5900421 0.83208 -0.63997406 0.56569827 -0.15865412 -0.1260358 -0.13123561 -0.9703206 0.011393805 -0.1714606 0.7150461 -0.0007180272 0.68311685 0.8951845 0.1304507 -0.33585703 -0.19274144 -0.589266 -0.43997663 -1.1315368 -0.025992982 0.69880533 0.8083334 0.20894358 -0.5920446 0.24625708 -0.22101912
未 0.274444 -0.08708789 -0.8426733 -0.22445758 0.17937791 -0.23769236 0.5219174 0.08851417 -0.039256413 0.8317725 0.49364823 0.6124253 -0.5350961 -0.52793443 -0.004932423 0.21810931 0.45200706 -0.57056767 0.19298671 -0.76788694 0.58939993 -0.58619994 -0.5080941 -0.31447616 -0.68837094 -0.38521817 -0.33922398 -0.4294916 -0.7975845 -0.6976181 0.38964084 -0.66190547 -0.5445025 0.23148891 0.48350763 1.0023223 -0.8446216 -0.63055575 0.15501142 0.5304699 -0.84255606 0.68934155 -0.41517013 0.4565786 0.06612749 0.9031688 -0.82505625 0.7114031 -0.44453993 -0.64965534
公 -0.43412623 0.16379039 -0.6242409 -0.86624104 0.22021793 -0.6777127 -0.17196962 0.37356192 0.23652884 0.7835345 -0.7654182 0.38831604 -0.2678269 0.29491735 0.54413825 -0.5130769 0.3243358 0.8176078 0.09157712 -0.62564814 0.5628087 0.17331578 -0.31059322 -0.23885128 -0.17546903 -0.09710417 -0.5218989 -0.46554038 0.104428634 -0.7372397 -0.4476105 -0.5524907 0.5180556 -0.4057589 0.37683186 -0.40901542 0.16066287 -0.33847696 0.05277176 -0.15984939 -0.8785144 -0.23612319 -0.7664045 -0.5717486 0.6667779 0.70686674 -0.6401321 0.78040016 -0.6021206 -0.34233633
好 -0.24051766 0.19468746 -0.8009076 -0.39055762 -0.13035299 -0.5026344 0.86438763 0.8705708 0.057677805 0.37665766 -0.46044093 0.27871072 -0.18651392 -0.73913944 0.849084 -0.6476319 -0.16326597 0.5843276 -0.75295544 -0.3335771 -0.045611966 -0.084605016 -0.016447125 0.33612692 0.5921204 -0.035335265 0.8912891 0.028589219 0.328516 0.20464665 -0.20535193 -0.6589289 0.8345832 0.23743029 0.86129105 0.38624045 -0.92645663 -0.6139089 -0.7134325 1.112686e-05 0.563172 -0.40810564 0.50422144 0.34022474 0.50582725 0.3018151 0.36946538 0.21290702 -0.9330426 -0.2968206
我 -0.6264435 -0.05008219 -0.29743654 0.009905678 0.94455785 0.45754248 -0.24352261 0.80662227 -0.33381695 0.3335039 -1.0528013 0.95597994 0.4771317 0.24810067 0.11366093 -0.36399665 0.8202808 0.8254868 -0.05840709 -0.83914775 -0.582827 -0.08005581 -0.95244586 -0.6719866 0.42002943 0.57295364 -0.728882 0.032211214 0.051722586 -1.2102364 -0.24393328 -0.94165784 0.33117458 -0.2240311 -0.76059943 0.41157207 0.7935634 -0.35756424 0.15627046 -0.27503017 -0.10439875 0.14229189 -1.0037153 -0.12764882 1.0302477 0.5769499 -0.32095572 0.13455588 -0.033951085 -0.46316767
路 -0.97307324 0.9171429 -0.25036973 0.19436514 0.0007425717 0.74838084 0.05106115 -0.47592527 -0.87220037 -0.14080143 -0.4452025 -0.009206184 0.609138 -0.4397907 0.3853425 -0.68276006 -0.23174278 0.037671957 0.4480054 0.11929143 0.1469684 0.8696853 0.16616473 -0.7761788 0.7640906 -0.24244557 0.7616459 -0.38707376 0.17913316 -0.28813878 0.39299616 0.5709173 0.5542803 0.9491231 0.66104305 -0.88733083 -0.05812099 -0.14052075 -0.014428032 0.5225231 0.023103593 -0.56175715 0.11031137 0.10886168 0.60297924 0.2379963 0.33334863 -0.37205052 -0.1337446 0.6156256
在 -0.23951034 -0.7582195 -0.1983418 -0.05929654 0.663626 -0.117480256 0.3505623 0.57292354 -0.8999002 -0.24593154 0.23933397 1.0386655 0.12062434 -0.59760237 0.092824265 0.022043552 0.7943989 0.7166084 -0.2344668 0.86798453 0.15368044 -0.44297847 -0.6132611 0.27710447 -0.58177245 -0.38535628 0.12996918 -0.15987383 0.66983634 -0.22844484 -0.32542038 -0.5300547 0.32113066 0.96287006 -0.25640783 1.3425338 -0.37606698 -0.9157859 0.44556516 -0.025006784 0.58812875 -0.76663005 -0.10948201 -0.98212427 0.68980074 -0.1636199 0.48200992 0.55295354 0.6312292 -0.14584243
已 0.18554747 -0.29455796 -0.28025642 0.08729909 0.79710686 -0.9907304 1.1769838 0.09031634 -0.16964163 0.08964345 0.08607084 -0.014260828 0.25394422 -0.41114423 0.3858861 -0.39616686 -0.15287702 0.89619464 0.46771926 -0.43855283 1.0192592 -0.9641957 -0.747262 -0.8221232 0.1862978 -1.1087885 0.16185383 0.49764773 -0.3746456 -0.36588317 -0.7418343 0.14716126 -0.4013733 0.024425346 0.29619634 -0.62297964 -0.47354746 0.48373246 -0.29270145 0.7034679 -0.07560785 -0.015905667 0.6672622 -0.73424053 0.48042372 1.0226351 0.53634626 -0.59972376 0.19090559 0.06747582
得 0.5053596 -0.9888529 -0.25110877 -0.5532589 -0.7816388 0.18285286 0.07662822 -0.100211956 0.30740726 0.053634785 0.3167005 0.8914048 0.776312 -0.5239974 1.0750669 -0.6651946 0.4491795 -0.36069837 -0.5086983 -0.30752447 0.536057 -0.39456382 0.24101979 -0.40741342 -0.4443216 -0.091425695 -0.106156595 0.63828826 -0.4849313 -0.10664157 0.3936125 -0.64189386 -0.46553367 -0.13836569 -0.49862927 0.5041779 -0.73750496 0.4318196 0.18010063 0.09298757 -0.9411779 0.5709894 0.9967364 -0.4598405 0.67278695 0.3073969 0.86281055 0.2571585 0.11985527 0.10426391
所 -0.05122958 -0.7809615 -0.14328164 -0.37687677 0.2800185 -0.54510623 0.35234183 -0.52204496 -0.24073456 -0.7201128 -0.21596955 0.36066285 -0.43683314 -0.658235 0.08421038 -0.5717961 0.70853496 0.41939875 0.3807908 -0.364289 0.48114187 0.36164925 -0.29367423 -0.34659156 0.73411536 0.2504664 -0.7031971 0.01874069 -1.0802965 -0.33729097 -0.58775043 0.015043538 -0.5064833 -0.2606133 -0.35138437 -1.0352459 -0.27372047 -0.5848189 0.017259996 0.5769311 -0.49368623 -0.08965262 0.43248388 -0.57906055 0.65280205 0.7339449 -0.28243464 0.76993614 -0.30082482 -0.92605126
民 0.18116763 -0.25745142 -0.7255079 -0.73709506 -0.22611958 -0.10039801 0.12386221 0.07500895 -0.5736548 -0.70994496 -0.06390887 0.2950385 0.105964124 -0.23978357 0.92373604 -0.6012477 0.5635656 -0.18667504 -0.17525418 -0.12628914 0.41142505 0.027358493 -0.59186196 -0.7465113 -0.633102 -1.1345963 0.21211314 -0.42746848 0.03618766 -0.074319 0.013405041 -0.8834039 -0.04703452 0.4012894 -0.16184425 0.0030859457 -0.08171913 -0.13258986 -0.36529028 0.9109127 -0.6588564 0.2947891 0.2692447 -0.8927616 0.22032586 0.741814 0.7150692 -0.5000274 -0.748537 0.5330216
小 -0.8573856 -0.31722173 -0.11147688 0.30176324 0.2371409 -0.83825654 0.13492669 0.37119132 -0.3846276 0.4466321 -1.0452163 0.4238908 -0.09830464 -0.5218746 0.9807252 0.015321278 -0.25546077 0.33128875 -0.8103206 -0.67337996 -0.38147417 0.69681495 -0.7471623 -0.40841767 0.5167255 -0.36782178 0.24846584 -0.28531808 0.21620867 -0.64515847 0.03788225 -0.37963054 0.19378594 0.4426409 0.44502082 -1.117932 -0.10542001 -0.22207806 -0.3959539 -0.7877834 -0.14901185 -0.693745 0.8756854 0.35451487 -0.49578848 0.30588675 -0.90489006 0.91169333 0.07987002 0.15853418
天 0.5531922 0.47152156 0.10029675 -0.33998853 0.053610902 -0.8220977 0.8945173 0.5853635 -0.7572049 0.38799617 -0.329723 0.8909089 -0.928904 -0.29136053 0.8987775 0.095827565 0.758317 -0.18850145 0.3644774 -0.6419675 0.4604494 -0.7164659 0.19438577 -0.5114381 -0.7367241 -0.21725999 -0.30826837 -0.41844296 0.96090496 -0.7587143 -0.065467834 -0.44361058 -0.23465095 -0.99408674 0.800575 -0.6126437 -0.43993324 -0.052288152 -0.34886116 0.22124124 -0.55852497 -0.3532275 0.58692646 0.4255404 0.024072375 0.46808237 0.49308282 -0.209201 -0.7545303 -0.48392367
乐 -0.5437652 0.076106936 -0.08079798 -0.6952407 0.1594245 -0.109147556 -0.6311468 0.6847982 0.16573592 0.78335017 -0.3989777 0.6843868 0.13384418 -0.66306996 0.28376067 -0.67538685 0.5734933 0.14983992 -0.90674335 -0.88283384 0.010322546 0.26151642 0.27547368 -0.080313995 0.84004307 -0.2268741 -0.9549743 -0.34786066 -0.65156865 -0.5960728 -0.380703 -0.72637016 0.2018174 0.18611585 0.5341492 -0.4964907 -0.9076516 -0.10225114 0.40490088 -0.97843695 -0.2922626 0.11550471 0.6315111 -0.42154723 -0.297569 0.8936351 -0.3182349 0.59851134 -0.7932706 0.053292453
邦 0.0427866 0.54010695 -0.9022902 0.12806687 -1.0986502 0.040805027 0.11412152 0.26932523 -0.8674807 0.020312762 -0.16737652 0.2476733 0.20143461 0.6682532 0.063625395 -0.8618677 0.67633086 0.74706316 0.091064915 -0.9743617 -0.8739885 0.5816355 0.80374616 0.017565599 0.34666726 0.9509975 -0.11377737 -0.8931338 -0.65983313 -0.963715 0.18632863 0.20037544 -0.2932938 -0.11298115 0.16889335 0.47564155 -0.5643233 -0.40161332 -0.7882609 -0.11082448 -0.14307262 0.83239263 -0.9698035 -0.8362377 0.7151009 0.4914163 0.36693457 0.74918395 -0.6915442 0.101114444
亦 -0.5894795 -0.6948523 0.23811941 0.04554054 -0.2425938 -0.2934045 0.21481282 -0.5183957 -0.10009793 -0.3765844 -0.44997352 0.82601374 0.7259563 0.66938686 -0.16095522 0.59310037 0.4111653 0.7863025 0.41084856 -0.89816093 0.29588124 0.6528619 0.17855519 0.4114163 0.56219107 -0.20101792 0.26126015 -0.32436237 0.26178947 -1.0760609 -0.5358048 -0.20890394 -0.30494344 0.7880386 0.90508634 -0.6521909 -0.014571663 0.0067651966 -0.3745081 0.23020984 -1.1286992 -0.06283094 0.044676837 -0.5004231 0.27510628 1.3446186 -0.38229385 0.5359613 -0.6027802 0.8534334
使 0.09526829 -0.41432503 -0.5241838 -0.026378706 -0.20902134 0.61818725 -0.15697834 -0.07114885 -0.36706963 -0.13328318 0.10543158 -1.0323341 0.4273201 0.047402266 -0.07894376 -1.1162993 0.9784158 0.2001563 -0.038568955 -0.4051972 -0.12691596 0.11160186 -1.0176053 -0.55852437 -0.96244913 0.467287 0.78668165 0.029140325 -0.6538575 -0.3416033 0.74050105 -0.3977147 0.36790133 0.39303365 0.76540005 0.25835705 -0.40882236 -0.45017567 -0.09933253 1.0637746 0.053088926 -0.613869 0.0363496 0.38318473 0.9668436 0.1487802 0.7051537 0.10645587 -0.85656995 0.3384157
大 -0.3933036 -0.09740856 -0.08686527 0.46108422 -0.07358502 0.5460979 -0.4856123 -0.70400184 -0.20303966 0.00038517785 -0.33749375 -0.16095155 0.5417066 0.41589385 -0.69210523 -0.2910944 -0.13935964 0.24718207 -0.10725312 -0.008137326 -0.47194824 0.647139 -0.12513801 -0.07434149 0.68672377 -0.8495069 -0.2712955 -0.61162704 -0.9141878 -0.023292255 0.15450415 -0.7560349 -0.037579797 0.5500084 -0.5225102 0.41647267 -0.24007349 0.029203031 0.5745358 0.6263161 -0.10433223 0.2504674 -1.0180506 -0.8254861 0.77685493 0.60223264 0.39454964 0.8053065 0.85697585 0.80517083
下 0.94223005 -0.23943573 -0.2522319 -0.50519675 0.0412614 0.053811613 0.44071743 0.4212702 -0.5362347 -0.32462755 0.17042796 -0.15100008 -0.9848177 -0.68414325 0.9210361 -0.03986982 0.7005946 -0.9240295 0.33710858 0.20656088 -0.31747314 0.8738166 0.1055294 -0.07091914 1.1155137 0.64168894 0.12600823 -0.23262 -0.21745019 0.4770123 -0.04473563 0.1541106 -0.4894611 0.7950413 0.74034375 0.0046938392 -0.009661407 -0.34695733 0.53556085 0.94605994 0.24454391 -0.8029301 0.27110466 -0.68154216 0.66956705 0.074003376 0.74333775 0.7116813 0.26428476 0.83270305
贡 0.3115758 0.32807535 -0.050865732 -0.5002784 -0.48935542 0.5121079 -0.55555797 -0.70000696 -0.61523753 0.10913524 -0.6398199 0.15715471 0.25727412 0.11134376 -0.031875867 -0.15554182 0.57281375 0.5153137 0.9895395 -0.36856657 -0.6790535 0.65699 -0.44150624 -0.54258895 0.40154687 -0.21261555 -0.6890522 -0.62889963 -0.044423375 -0.77982026 -0.18865329 -0.7843801 -0.27388012 -0.2734457 0.3107021 0.60062945 -0.09053681 -0.41427046 -0.63250256 -0.22484548 -0.38255516 -0.57304645 -1.1500924 -0.66806084 0.6531513 -0.36737865 -0.39779684 0.75939643 0.37813592 -0.021282341
欲 1.3389431 1.1214685 0.77472013 -0.14652029 -0.08434723 -0.14599445 -0.7479994 -0.028119935 0.47243652 -0.6421891 -0.2022682 0.11736498 0.3048049 -0.22991672 0.20612606 -0.25092518 0.726025 0.14261709 0.8522833 -0.6580897 -0.6191504 0.009274514 -0.10683731 -0.5708101 -0.059754346 0.6090276 -0.3805588 -0.56454873 -0.29992315 -0.4143827 0.41705734 -0.45157212 -0.66839576 -0.24163163 0.69552475 0.36316296 0.4491779 0.15263191 -0.7825901 0.054589048 -0.5670696 0.07286559 0.016311843 -0.88471276 0.61518836 -0.46071726 0.7700805 -0.29968932 0.55019134 0.32032564
诸 -1.0418516 0.7709893 0.37802047 0.34646076 0.7652038 -0.65861464 -0.02078499 -0.37083852 -0.38983965 -0.40933934 -0.8361234 -0.25333828 0.42440355 -0.07132504 0.45143867 0.0728099 0.21937102 0.3139184 0.47252738 0.72743016 -0.5586754 0.8443526 -0.26453903 -0.032560147 0.18632017 -0.23732282 0.6530183 -0.33596864 0.5383601 -0.8117192 -0.0597722 -0.10226732 0.39536646 0.40304074 0.87355596 -0.10756016 -0.83170754 -0.6984265 -0.22345118 0.54366297 -0.7132063 -0.7141503 -0.2964621 -0.20218171 -0.13026488 -0.9115752 -0.80564946 -0.023936944 0.009438163 0.20157795
从 0.54111195 0.17843787 -0.020940075 0.20115076 -0.12556128 -0.24988313 -0.32382408 0.2334324 -0.29492295 -0.15761973 -0.7886564 0.38362327 0.010242655 -0.9141075 0.7718566 -1.0773143 -0.1493909 -0.2140107 0.26113674 -0.70709425 0.61909926 -0.54375374 0.6164814 -0.58341974 0.8022073 -0.28037557 -0.0635621 0.57229024 0.28020528 -0.1328771 -0.043689612 0.344599 -0.0009291343 0.18935344 0.4293599 -0.21756762 -0.70348275 -0.111858495 -0.04194999 0.008786292 -0.5367416 -0.2260196 -0.11771054 -0.3358877 0.11903694 0.02597104 0.4917776 -0.28818256 -0.78908247 -0.5094382
文 -0.96483076 -0.56089234 0.77203965 0.24095224 0.17958756 -0.93612003 0.84481233 0.36925578 0.49759096 0.45705733 -0.4042189 -0.15573837 0.4986375 -0.20008078 0.90865237 -0.1502158 -0.3609155 -0.08063636 -0.99766105 -0.639302 -0.6355704 -0.46605283 0.31424078 -0.12750372 -0.6585816 -0.08867652 0.5514092 0.27126908 0.20513737 -0.17582346 -0.4241823 -0.7690264 0.06890696 0.56912327 0.6361506 -0.8967779 -0.9495005 -0.43307322 -0.81509227 0.29466677 -0.21525759 -0.0413245 0.16621879 0.032797553 -0.13136405 -0.091907114 -0.13063899 0.9649672 -0.64280224 0.3241069
政 0.55269897 0.63735837 0.04238795 -0.28870672 -0.5558408 0.07141302 0.20456041 -0.02840731 -0.63244474 -0.35041142 0.33565336 0.820099 -0.40822956 -0.2986351 0.3195781 -0.43889034 -0.009526424 0.5551294 -0.07484062 -0.617617 -0.3975485 -0.399588 0.4780049 -0.20160188 -0.86861783 -0.73637444 0.842579 1.0673764 -0.5821442 -0.90899307 -0.82724047 -0.5051009 -0.9812405 -0.8453252 0.21907917 0.41097638 -0.24785414 0.29447186 0.5296621 -0.16082855 0.09372973 -0.2397836 -0.29785377 -0.2779138 -0.05229924 -0.5164603 0.99336845 -0.7238933 -0.423584 -0.8121278
食 0.12897976 0.69976974 -0.37993273 -0.27550834 -0.5692161 0.15577641 -0.54463553 -0.64461434 0.36742285 0.108027734 -0.8488949 -0.035818994 0.42279556 -0.42850223 0.9956902 0.5940328 -0.043462224 0.02852165 0.32370484 -0.7535554 -0.39325583 0.20197979 0.024661109 -0.53179646 -0.24677266 -0.8093992 -0.014775104 0.3282271 -0.60825276 -0.4598962 0.3402222 -1.028443 -0.19755386 -0.12268197 0.71195954 0.6082591 -0.69161487 -0.72184247 -0.29290372 -0.13325277 -0.1989586 -0.8033281 -0.7204833 -0.534952 0.3144838 0.04034627 0.5807844 0.57459486 -0.6414458 -0.6006696
善 -0.08797732 0.62556577 0.07754978 -0.091340736 -0.353144 -0.0392352 -0.23847218 -0.44727147 -0.5088703 0.41277057 0.004233815 0.29896697 -1.2104768 -0.83192027 0.9372583 -0.027705554 -0.18468012 -0.026606008 -0.7339315 -0.013820387 -0.38917845 -0.916358 0.6490742 -0.2587208 -0.4056739 -0.65079033 -0.3928957 -0.3923687 -0.30005705 -0.31587395 -0.27590227 -0.8489254 -0.45587212 -0.05498402 0.23627633 -0.5317515 -0.8622975 0.8483574 0.5191594 0.291405 0.34689298 -0.6631239 -0.052289978 -0.0273489 0.56254095 -0.015973885 0.48559204 0.12618999 -0.36039257 -0.11491914
后 -0.06124573 0.9531519 -0.2685999 -0.60777277 0.034004968 0.38087606 0.22220293 0.17925957 -0.23318417 0.13663481 -0.41273046 0.8390885 -0.17559741 -0.2847582 0.27395383 -0.05529183 -0.19963443 -0.24294361 -0.0502705 -0.054818626 -0.5558844 -0.23067445 -0.3697714 -0.4178598 0.6420733 -0.0574754 -0.24787961 0.31875682 0.05815454 -0.4693115 1.020949 -0.83855844 -0.65897626 0.7135911 -0.2685815 1.15048 -0.49269068 -0.28450125 0.63469106 0.7121287 0.053127963 -1.5476155 -0.8885332 -0.36071035 0.89054596 -0.6961074 -0.3219108 0.45079863 -0.36840275 -0.39379352
德 0.06440541 -0.18798262 -0.6388322 -0.12951511 0.47927964 -0.42151564 0.24949183 0.10758578 -0.45438385 -0.010009643 -0.56107503 -0.37908423 -0.4970929 -0.23552887 0.3443089 -0.35207596 0.7275019 0.7265405 -0.64832944 0.16097106 0.66338956 -0.18342541 0.13572875 -0.52371734 -0.52739006 -0.5044451 0.52872664 0.54444563 -0.7584388 -0.07302216 0.6736394 -0.7101096 -0.20332164 -0.50996226 0.16488543 0.1961769 -0.49912736 0.32442418 0.22259381 -0.22999448 -0.15256338 -0.4100713 -0.23658781 -0.111144274 0.685786 -0.12589724 0.73091954 -0.9074824 -0.35307807 0.551187
求 -1.0386101 -0.42089316 -0.56755507 0.16871822 0.38876307 0.0072011785 0.4846821 0.7627782 -0.27191693 0.41053927 -0.74820715 0.7318473 -0.44635013 0.29124084 0.5019965 -0.1068594 0.5943241 0.30777955 0.25058252 0.070155814 -0.7842812 -0.18198043 0.17225936 0.61937094 -0.27912197 0.17047663 0.25755116 -0.7544103 -0.36148646 -0.39459118 0.47918847 0.37246034 0.277173 0.93168885 -1.0712197 1.138717 0.97528064 -0.5359517 0.8877572 0.06536805 0.18826416 0.4516243 0.3593063 -0.68191206 -0.05775243 0.7430207 0.8451895 -0.5238106 0.53071815 0.29038796
对 0.81662613 -0.5839745 -0.16042002 -0.22972874 0.7182007 -0.5105301 0.5558815 0.41214937 -0.29248044 0.50080276 0.30968088 0.14661185 -0.8920922 -0.6162441 0.48083952 -0.5186719 0.32443914 -0.28243127 -0.91690266 -0.046014786 0.5130307 -0.72814053 0.29906583 -0.807494 -0.034641866 -0.37444848 -0.67272097 -0.9473159 -0.5348521 -0.28500122 -0.13478848 -0.12475452 -0.5376572 0.80920327 -0.47024918 -0.2210944 0.19316365 0.46973175 -0.0007395563 0.45141366 -0.122149885 -0.34907788 -0.8375751 0.20654163 0.92436624 0.14378415 0.5031905 0.8627342 -0.59654456 -0.08917744
恶 0.5037857 -0.6796398 0.23618974 0.08277583 0.96719474 -0.021372503 0.32262072 0.8282537 -0.4956396 0.5397226 -0.9272349 0.11473766 0.135458 -0.3246777 -0.5805494 -0.54191417 0.34271356 -0.539151 0.8404633 -0.54101825 -0.20561796 -0.5451314 0.0036183763 0.40655208 0.54008085 -0.2534617 -0.7656935 -0.738909 -0.47518215 -0.58276784 0.06585696 -0.027293412 0.07583205 -0.031410035 -0.33301193 -1.0787042 0.35524702 -0.7685013 0.6151374 0.24242115 -0.0073747244 -0.16472983 0.90169764 0.24593692 0.1273885 0.6976421 -0.15959541 -0.79773045 -1.2122539 -0.11432449
信 0.6579368 -1.0725118 0.045712374 -0.35432556 0.5622134 -0.42185852 0.600584 0.02727286 -0.073346145 0.37475517 0.47917616 -0.0051000803 -1.0786095 -0.36078033 0.5793976 -0.30488878 -0.090491645 0.40709677 0.12727267 -0.6306498 -0.38980314 -0.93213016 -0.15432735 0.0017467763 0.39446282 -0.19542643 -0.069553226 -0.44800028 -0.5301345 -0.48317027 -0.09699977 -0.68520737 -0.7807477 -0.43464327 0.1017629 0.6018663 0.28724846 0.9342351 -0.17826144 0.018354282 -0.106742226 0.48029587 0.11237056 0.9494457 0.9428465 0.98341507 0.61435443 1.0223471 -1.0659815 0.79186165
死 0.11595001 -0.039989986 -1.0329688 -0.40893564 -0.100370124 0.6213249 -0.976046 -0.27700517 -0.4281687 0.21338677 -0.21556091 0.20916533 0.37042755 -0.32262963 -0.066274166 -0.59798384 0.6075078 0.054585885 0.74201167 -0.15765645 0.92658454 0.1376814 0.9279624 0.055517755 0.3392895 0.5724594 0.011129497 0.1866877 -0.80941516 -0.8248098 0.6585042 0.65456843 -0.867635 -0.4243046 -0.3215072 -0.7385057 -0.6997443 -0.71565855 0.50262743 0.60318047 0.1354283 0.50253326 0.400437 -0.057295736 -0.1622703 0.75436205 0.94861704 0.32791954 -0.7508593 0.022555009
然 -0.3329209 -0.2127446 0.93259174 0.46361092 0.0029594665 -0.24171196 0.74736416 0.28363243 -0.1829846 0.3839171 -0.5124006 -0.28729287 -0.6015285 -0.7885751 0.45785058 -0.26142183 0.6159822 -0.1527811 0.14835902 -0.93104124 -0.103335716 -0.19755332 0.41525948 -0.4646525 -0.65899163 -0.49081832 0.24907278 -0.31443855 0.9495087 -0.8005233 -0.95805687 -0.050766326 -0.25473619 0.0070127603 1.0472561 0.048861425 -0.33167005 -0.21608423 -0.30583254 -0.49000737 0.80108535 -0.43182337 0.70178443 -0.29335165 -0.3133491 0.82804674 0.69478244 0.16363235 -0.46280652 -0.3367314
《 -0.8652156 0.85041726 -0.06258187 0.6520274 -1.0050652 0.6041304 -0.22307505 -1.108247 0.03775289 0.54137236 -0.85796446 0.2171462 0.45609897 0.28152826 -0.3358801 -0.847067 0.9202537 -0.17875546 0.20897298 -0.48648182 0.4164114 0.10232073 -0.66122043 0.62868 0.25036976 -0.13313176 0.2526244 0.7636405 -0.9854253 -0.6374204 -0.23118182 0.51876456 0.13288386 -0.32761043 0.26237053 -0.41873226 -0.3729517 -0.4125882 -0.12766251 -0.8528852 -0.9475247 -0.04220311 0.71393865 -0.35023147 -0.333621 0.20727436 -0.024880895 0.27006632 -0.37703875 -0.3557879
》 -0.62388456 0.2499502 0.167997 -0.0054679634 0.25140372 0.05503587 -0.005355255 0.4437178 0.66565627 0.82904726 -0.56699294 0.041288704 0.04320749 0.5987726 0.37657946 -0.031607628 0.338358 -0.64917636 -0.210675 -0.16907512 0.034674715 0.22135226 -0.04274326 -0.22635905 0.28944185 0.11220083 -0.5035736 -0.45740026 0.556762 -0.33564028 0.5865927 0.006859937 -0.32048687 0.6254497 0.032352697 -0.40134627 -0.05260512 -0.3751117 -0.093927264 0.49721143 9.554876e-06 0.285969 -0.12080945 -0.2372234 0.20443347 0.17928705 -0.12563366 0.40966144 0.024247115 0.5808364
由 0.0010065736 0.1519917 -0.23075347 0.06280928 -0.076038465 0.20848271 0.67933893 0.13902469 0.14812228 -0.039412484 -0.05299753 0.13622427 0.80073607 -0.16889086 -0.17179462 -0.0142833395 0.27224222 -0.39854002 -0.5937236 -0.40357468 0.35104564 0.1363679 -0.5546954 -0.11761987 0.09686821 0.13558465 -0.100467816 -0.65470064 0.46452987 0.050173014 0.40789646 0.038750686 0.5218695 -0.30676574 -0.009038553 0.060914785 -0.3514886 -0.46907923 -0.48536137 0.5165841 0.09702428 -0.22542804 0.30655932 -0.23805176 0.40004435 0.567117 0.13383843 -0.352267 -0.41241556 0.0065538613
仲 -1.0742744 -0.54252523 0.42111334 -0.77395725 0.5510091 0.19270992 -0.48020864 1.0203997 0.69355553 -1.211437 0.048342798 0.76705813 -0.019373195 -0.4255828 0.00038549065 -0.51677376 0.27664635 0.66591763 0.61650646 0.31625858 -0.6150219 0.38618642 -0.6971268 -0.40481302 0.30610913 -0.3837283 0.56268567 -0.4612636 0.22905424 -0.21043755 -0.16841248 -0.53881276 0.09617714 0.94395846 -0.10430861 0.81522536 -0.43583795 0.12466728 -0.21334411 0.15165898 0.39050552 0.3126336 -0.45253822 -0.643838 1.1197792 -0.1361157 0.043471575 0.96909314 0.121065855 0.015425093
非 0.747515 -0.5236455 -0.5864358 -0.6144916 0.040249195 -0.35499677 0.37714377 1.1319884 0.26698586 0.054878335 -0.008286398 -0.89714307 0.43675116 -1.02853 0.46604344 -0.29398128 0.4128367 0.30656916 -0.46289313 -0.7222677 0.7543473 -0.014322114 -0.5880945 0.10780917 -0.038370725 0.15073712 -0.3295621 0.25309205 -0.80365413 -0.41512346 0.3703986 -0.71056443 0.018029526 -0.04626708 0.8360782 -0.9005124 0.101350516 -0.5503695 -0.43574202 0.5398557 0.31719053 -0.55871546 0.64149886 0.5562185 0.87509346 0.4565908 0.49666432 0.29914936 0.07926881 0.3650958
出 -0.0084311655 -0.24441041 0.17386717 -0.20748474 -0.007314524 0.1538054 0.010752674 0.8711066 -0.2330068 -0.069481544 -0.4569859 0.018636324 -0.6070995 -0.38097847 0.522991 -0.7971591 -0.23737875 0.5887807 0.063502796 -0.57703674 0.7752965 -0.07214723 -0.9077383 -0.92580986 0.8085048 -0.8456044 -0.77709174 -0.10933916 0.06870032 -0.38290903 -0.09770444 -0.22213498 -0.63537896 0.91653174 -0.2725781 0.7822638 0.58761746 -0.21894844 0.15864955 0.55199355 -0.013736586 0.2105498 -0.9159725 -0.63472545 0.778028 -0.37549618 -0.27346593 0.31090555 0.8422117 -0.3161099
过 0.06873899 -0.0847645 -0.90612954 -0.0160525 0.61591214 -0.36734942 -0.9188807 -0.1822078 -0.7260985 0.61144155 -0.27273387 0.47912824 -0.31829074 0.07842604 0.75364536 -0.7452089 -0.015803417 0.4758093 -0.3212603 -0.79562724 0.55491126 -0.3932664 -0.049525354 -0.05245084 0.55473655 0.5342892 -0.9693798 0.20526469 -0.81127244 -0.32115865 1.1810502 -0.68164754 -0.4974494 0.8102606 0.72746235 -0.30049768 0.43396384 -0.079711944 -0.36164814 0.103315964 -0.57082295 0.016087549 0.9938024 -0.6180888 0.16183625 -0.06700293 -0.7890529 0.37952048 -0.22925104 0.25693187
一 0.40654126 0.36239594 0.5264033 0.59842145 -0.20231321 0.60411984 -0.38548982 0.5930506 -0.5335988 0.55387294 0.4428701 -0.20900926 -0.6374379 0.7474095 -0.19907115 0.48203054 -0.25244865 -0.49057922 0.25931615 -0.6046662 -0.07170525 0.036469664 -0.772577 -0.7289876 0.53475535 -0.6993648 -0.509321 -0.2713578 0.48281097 -0.54585075 -0.28047267 0.545765 -0.4500332 0.5577536 0.8426901 0.12315498 -0.12187238 -0.53184557 -0.29691687 0.51848114 -0.29430312 -0.7638193 -0.8350609 -0.30555207 0.37636995 0.5369508 0.3212375 0.28908703 -0.45682386 -0.031422097
虽 -0.2024998 0.57307965 -0.422904 0.7140749 0.597317 -0.40440667 -0.6935504 1.2685852 -0.6797607 0.56146437 -0.3833239 0.49518216 -0.922796 -0.24269758 1.0716915 -0.68577325 0.034783293 -0.13198559 -0.2314783 -0.36977616 -0.33245727 -0.5082056 0.45446637 -1.030007 -0.32780218 0.43392903 -0.9737018 -0.30082783 -0.25244388 0.39386046 1.2114698 -1.0682788 -0.26162905 0.8071772 -0.21646461 -0.845129 -0.40935367 0.039442223 -0.51769775 0.13878043 -0.12031535 0.22218075 -0.5145346 -0.26648507 0.52999365 0.18293771 0.35602784 0.037480034 0.18689558 0.7390557
足 0.7228449 -0.18001954 -0.79399 -0.10948673 0.33524212 0.007527609 0.35849854 0.015170028 -0.25925317 0.19898088 -0.7222779 -0.09291751 0.36499724 0.58969563 -0.9210656 -0.6527392 0.420541 -0.6629497 0.9195051 -0.26168326 0.02207351 -0.14979438 -0.44558007 0.3166331 0.33161926 -0.30855775 -0.6294792 0.14043365 0.04857793 -0.12437544 0.15121973 -0.29965582 -0.59760696 -0.20377706 0.82527256 0.8806438 0.2618831 -0.8725727 -0.2157493 -1.0334483 0.6257615 -0.9216156 -0.029292703 0.42992502 0.7210518 0.1834396 -0.11081802 0.6439232 -0.15631586 0.21868399
居 -0.86667967 0.44541875 0.1737472 -0.091296166 1.1425959 -0.81119204 -1.000416 0.6647224 0.22312036 0.90335906 0.682728 0.55838287 -0.42790583 0.17285752 -0.028157126 -0.033446103 -0.2422524 0.2585853 0.04928897 0.42413336 0.437499 -0.34232354 0.028005784 -0.44833374 -0.30804077 0.6343907 -0.77599514 -0.9397123 0.29469353 -0.008515829 0.94411653 0.35393766 -0.88982785 0.047183763 0.0977595 -0.3450704 -0.62028104 -0.027034558 -0.39984712 -0.113390096 0.10088608 -0.393784 0.20648417 0.572439 0.5031898 0.28035995 -0.4560102 0.14953731 -0.4294108 0.16441238
尔 -0.17115332 0.6708589 0.18832442 0.010976762 0.28672257 -0.088366434 0.041016657 0.4327977 0.07065814 -0.44349706 -0.29732147 0.64663845 -0.29532236 -0.6191931 0.21533565 -0.618411 0.1519977 -0.13415056 0.07082278 0.32935745 0.48068106 -0.5603472 0.39160946 0.24730575 -0.0520711 -0.23298247 0.59672856 -0.1029793 -0.39621747 -0.23308812 -0.46496525 -0.1335777 -0.233424 0.028008448 0.2095069 -0.6684962 -0.63791287 -0.48801872 0.092127025 0.23071262 0.51218075 -0.08535064 0.6240072 -0.54551554 0.208245 -0.17878982 0.717134 -0.025517756 -0.025290694 0.51399744
夏 -0.82378465 0.78140736 0.2925821 -0.03489788 0.6663621 0.45417482 -0.5189751 0.89857966 -0.31793836 0.674849 -0.08007211 0.04988841 0.8127681 0.7152935 -0.13631707 -0.5121943 0.7380293 -0.879856 0.5507933 0.57184446 0.10419494 -0.6307704 -0.27769095 -0.88820076 -0.75199497 0.3107149 0.6404224 0.134167 0.8097725 -0.631127 0.4076906 0.6198743 0.049928747 0.088269316 -0.862555 -0.56396925 0.120850936 -0.7271808 0.14739637 0.48102325 0.03332039 0.007966462 0.5689185 -0.4580295 0.04292383 0.35395667 -0.43287477 0.014648685 0.68393403 -0.15507515
父 0.2824152 0.82964957 0.02249136 0.08625146 0.6567744 -0.49646735 0.020112406 -0.64764667 -0.2846858 -0.2857569 -0.41360307 0.7074317 -0.52653944 -0.67190796 0.10503435 -0.43760246 -0.16398048 -0.029725173 0.08177776 0.15564187 0.26986346 -0.3704543 -0.47528753 0.26371303 -0.27932143 0.14450517 0.028463941 0.46575335 -0.14081591 0.06780764 -0.7196679 0.03227246 -0.44256273 -0.13930877 0.7398437 -0.05745774 -0.077113174 -0.07682974 -0.035818763 0.28957787 -0.5952988 -0.9087439 -0.04141442 -0.6086041 0.5530371 0.04205298 0.42536935 -0.14838141 0.08015846 0.6196424
及 -0.13321622 0.115178436 0.26307726 -0.2376897 0.15992954 -0.51708937 -0.35151765 -0.39962426 -0.38278997 -0.7349405 -0.73963904 1.1097087 0.3221045 0.29366216 -0.7731796 -0.52054316 0.63657254 -0.663745 0.22963685 -0.08447213 0.11240694 -0.29683754 -0.30191663 -0.11291333 0.18400827 0.11758282 -0.0029546318 -0.7683956 0.9203661 -0.50561124 0.67180574 -0.69109225 -0.23755072 -0.27714634 -0.46910226 -0.9141869 -0.7655485 0.19882117 -0.72682816 -0.043143734 -0.48647207 -0.09589504 0.63722277 -0.7377821 -0.07589389 0.9837035 0.3446682 -0.32485557 -0.55738705 0.8115293
己 0.66639835 0.043327007 0.94717747 -0.5418964 0.29414853 0.6213002 0.3575381 0.6399066 0.7663824 -0.30956158 0.027800573 0.8181143 -0.16269249 0.5366253 0.6058703 0.2357843 0.17276919 -0.1840308 0.43608144 -0.8732327 0.061420612 -0.3533477 -0.1999396 -0.50508785 -0.8536384 -0.74197894 -0.5950037 -0.5383467 -0.5988196 -0.42621943 -0.115881234 -0.45679465 0.04439008 -0.8095759 0.7458268 0.5773603 -0.39225703 0.4528272 -0.7090184 0.5669464 -0.413622 0.464737 -0.19740513 0.72222483 -0.7945662 0.10892408 -0.23705769 0.057232264 -0.29796803 -0.08616148
予 0.75464505 0.3703327 0.53076017 0.6637248 0.6604053 -0.6604384 -0.5814607 -0.5585996 0.34096032 0.6175866 -0.3857991 0.52457845 -0.5351713 -0.3286086 -0.19876587 0.4591055 -0.46819112 -0.9182768 0.2777007 -0.25632516 -0.26364788 0.48454145 -0.08146398 -0.5341935 0.66774595 0.60710824 -0.29118448 -0.8337018 0.18296523 0.23248976 0.42045814 -0.8112991 -0.33837166 -0.4809967 0.123833686 -0.56862587 0.06272003 0.09379374 -0.59187144 0.6569593 -0.35208133 -0.73922724 -0.16137953 -0.11152043 0.51435 0.11645712 -0.5026937 0.107911736 -0.4686719 0.9702241
色 0.8060524 -0.513967 -0.32927912 -0.40951905 -0.5275682 -0.15385693 -0.383435 0.5669523 -0.20480193 -0.52154666 -0.48729202 0.58697253 0.7161489 0.09051451 0.023074096 -0.43983474 0.27889985 -0.4349315 -0.6967263 -0.7708464 0.16340975 -0.56287855 0.04516662 -0.7864625 0.4588719 0.26130182 0.33812928 0.96801513 0.54588044 -0.6326636 -0.27039438 0.3860759 -0.7527643 0.4712217 0.2248983 -0.97156245 -0.12851708 -0.42823398 -0.7431114 0.7807442 -0.34785402 -0.29601175 0.1765764 -0.79397553 -0.13068876 0.5940129 -0.058879547 0.5553403 -0.6676371 0.039841015
友 0.17191377 0.18608296 -0.49645543 0.37373218 -0.2082659 0.32384974 -0.36710683 -0.5256627 -0.0058561484 -0.1434706 -0.46577972 0.9264068 -0.62023807 -0.09307411 0.19701941 -0.7778272 0.2693065 -0.7635467 0.2552454 -0.044905875 -0.090953454 -0.8854234 -0.12245583 -0.9317362 0.0714366 -0.19061331 0.17173931 -0.019293144 -0.068412155 0.042490512 0.61066204 -0.80527896 -0.74256665 0.3537195 -0.40097564 1.0575895 0.39568242 -0.095979564 0.53484184 0.49641082 0.104824446 0.31083778 -1.0156674 -0.44087306 0.4542739 0.3311415 0.3117245 0.332914 -0.3744958 0.69121987
成 -0.25176746 0.36110324 -0.5726022 -0.44173974 -0.21699536 0.24595204 -0.6991519 0.47010082 -0.3951069 0.62920606 -0.83665794 0.5348878 -0.31137067 -0.39546317 -0.5129905 0.5615253 -0.29468688 -0.08957055 -0.4328518 -0.42027265 0.5549569 0.024681967 -0.19379851 -0.672088 0.64722514 0.15105169 0.6438159 0.56594664 0.5910385 -0.9999381 -0.58506817 0.030095553 0.09234138 0.8520631 -0.21801612 -0.23023638 0.43202657 -0.688545 -0.38190988 0.6646979 0.38828498 -0.31613693 -0.33509758 -0.37212926 0.62572616 -0.3529964 -0.26955688 -0.15673178 -0.28427082 -0.16503537
远 -0.57623434 0.026370691 -0.9722944 -0.5991774 -0.24243516 -0.3214958 0.6751687 0.4261545 -0.2068085 -0.20316225 0.00024084306 0.43947935 0.516796 -0.7084719 0.9197327 0.24736248 0.6213885 0.40069452 0.5734272 -0.5808966 0.16946037 -0.5769802 -0.05732267 0.41584066 0.18509796 -0.16205478 -0.6874378 -0.2835033 -0.064954326 0.12116151 -0.3632871 -0.5985704 -0.24875417 -0.22866349 0.59671724 0.6119128 -0.5988025 -0.1242204 0.18884319 -0.09860118 -0.35106227 0.28487095 -0.21423258 -0.30025354 0.7051979 -0.39221802 0.7745495 0.7130175 -0.65696985 -0.36243108
上 -0.53771824 -0.5965513 -0.59830934 0.57721347 0.28991085 -0.039657198 -0.35700947 -0.3676124 -0.25884143 -0.07141081 -0.6801446 -0.17366813 0.03394629 -0.43564835 0.12699124 -0.18049946 -0.00074298354 0.5859701 -0.33089885 -0.5807649 0.7337078 -0.24781905 0.09906849 -0.53986454 1.0730399 -0.7249102 -0.59793556 0.7622054 -0.24741736 -0.27607203 0.83472276 -1.0908741 0.31415853 1.028389 0.10423009 -0.70741147 -0.962351 0.87674445 -0.71882784 -0.069207795 0.20814545 0.62009853 0.72193253 0.056567762 0.64428645 0.15663466 0.50019926 0.11795272 -0.57326967 0.6097216
立 -0.18267672 0.27210382 -0.17097227 -0.2829404 0.15189579 0.0027828033 0.29239577 0.2118625 0.14740057 0.17353325 0.09655088 0.35567263 0.40052944 -0.6176992 0.36995596 -0.21868883 -0.2664286 0.024155483 0.32322988 0.22778039 0.29148278 0.23895308 0.07625653 0.23551391 0.17893636 -0.32703516 0.2781392 0.74806195 -0.2964915 -0.38510075 0.11002751 0.019233324 0.27186576 0.24953364 0.3117287 0.059915375 -0.15204039 -0.4656132 0.48363972 -0.048733912 0.6537985 -0.14031503 0.20322399 -0.2641481 0.30135024 -0.039027967 0.15753278 0.3248605 -0.12801358 -0.47862017
今 -0.44181165 -0.21041797 -0.9871382 -0.30235568 -0.18755662 -0.7409822 -0.32109225 0.24658456 -0.09644738 0.35236454 -0.4062805 0.32908204 0.13386683 -0.33328062 0.9442593 -0.13161829 0.41816726 0.7244902 0.071017824 -0.68757385 0.5156941 -0.0784374 0.4333781 -0.32735077 0.93099755 0.0604696 -0.115798764 -0.8025366 -0.3537603 -0.09334897 0.76727486 -0.5288398 -0.024935586 0.6620711 0.46233395 0.089416176 -0.16696826 -0.5368759 -0.83693016 -0.7564289 -0.41577613 0.45187905 -0.2440801 -0.37404543 0.41904405 -0.65060943 -0.65064704 0.42148018 -0.575003 0.19685553
张 -1.1153982 0.3394425 0.44910538 -0.9245798 0.67875576 -1.1505288 0.092174746 0.34231785 -0.12972182 -0.090136714 -0.7475921 0.75771385 -0.08795531 -0.4503473 0.30010086 -1.1625602 0.18013541 -0.16555181 -0.2883366 0.8419295 0.52231 -0.05246103 0.22193012 0.415907 -0.1253474 0.28140166 0.8717444 -0.26661578 0.01959752 -0.7601398 -0.06814232 -0.20894575 0.098702684 0.40319374 -0.03803156 -0.7862053 0.24181107 0.74614805 0.20056279 0.3046446 0.40757525 -0.52844614 1.3564496 -0.1122038 -0.4426789 0.1343834 -0.061401118 0.6688922 -0.48587048 -0.76796585
中 0.5436997 0.30115154 -0.27540565 -0.009559229 0.37906024 -0.49206668 -0.62936354 0.5202361 0.6435832 0.8196528 -1.0368071 0.74278176 0.49852282 -0.12040305 -0.027666382 -0.4510259 1.0985191 -0.73590946 -0.1823724 -1.0178584 -0.64761394 -1.1583959 0.2827305 -0.12268246 -0.19081177 0.58542985 -0.7775071 -0.5159431 -0.069116935 -0.7759523 -0.2653177 -0.55849725 -0.47442368 -0.85865545 0.1691692 -0.7483067 -1.2576437 -0.85109454 -0.17061536 0.5278437 -0.72533727 0.42909902 0.32186085 -0.43148163 -0.24453454 -0.14991814 -0.33539274 0.2733916 -0.6639328 -0.083123475
季 -0.20490019 0.34632897 0.6595039 0.31118545 0.75110286 -0.062403876 -0.24963155 -0.16417006 0.41979218 0.4839004 -0.21135142 0.48201564 -0.167844 -0.50223386 0.4341443 -0.2986763 0.02087381 0.4981584 0.33299905 -0.70822495 0.22087625 -0.5881848 0.41331327 0.0030457943 -0.008142577 -0.67400753 -0.21522017 0.20428152 0.011233331 -0.5340181 -0.30432588 -0.38133436 0.036932204 0.43552166 0.032026812 -0.2880285 -0.18225414 0.46459627 -0.0769543 0.64587885 -0.47918364 -0.18632334 -0.54119974 -0.522746 0.30925873 0.26954052 -0.121593654 -0.48782003 0.15818657 0.48614234
臣 -1.1099318 0.7137039 -0.76163787 -0.2488415 0.34587952 -0.19883344 0.6490562 -0.7616091 -0.04720677 0.8930806 -0.4933919 -0.39566633 -0.36450568 0.21320745 0.26931602 0.2160335 0.53551346 -0.1588485 0.24103543 0.18550828 -0.54093134 -0.9442682 0.23719342 -0.21536244 -0.6698193 0.8872779 -0.46823078 -0.3809901 -0.37912136 0.17352529 -0.41491434 0.22061116 -0.5159823 0.43047875 -0.3627435 -0.3726387 -1.0470071 -0.9508142 0.84209794 0.3124638 -0.40099746 0.09754136 -0.84764034 -0.38777277 -0.0713738 -0.5060132 -0.39310154 -0.034707095 0.1624491 -0.69740236
贤 1.0176303 -0.40720883 -0.57943547 -0.18722187 0.35387722 -0.5602221 -0.5458824 -0.37370858 0.6594746 0.7547688 -0.19549678 -0.0417181 0.12323166 0.34177235 -0.7957363 0.3925846 0.76288444 -0.21676141 -0.10382405 -0.8181026 -0.22814004 -0.64834887 -0.43128917 0.19406115 0.1943518 -0.10454497 -1.2825375 -0.7810123 0.41794416 -0.1340911 0.22043501 -0.7638991 -0.58563036 -0.7560673 0.39708522 0.24116343 -0.30671698 0.22357348 -1.2493743 0.86725575 0.51013595 -0.68432033 0.89597976 0.6225914 -0.37501448 0.44165495 -0.99350923 -0.3129176 0.7674215 -0.38940907
思 -1.1780443 0.16805735 0.06183988 0.8399415 0.87082356 -0.77978295 -0.18113802 -0.43762535 0.93621695 0.58381814 0.37991545 0.36642694 0.18997674 -0.8178927 0.41726577 -0.38047597 0.5425654 -0.048093714 -0.054253493 -0.30906194 0.44799107 0.31892896 0.08984827 0.4202312 -0.65651983 -0.11833887 -0.3391236 -0.906738 -0.6664957 -0.2874995 0.7188004 -0.33956227 0.59895927 0.18654887 0.43810835 -1.0472944 0.022899935 0.8429083 0.3069933 0.7872076 -0.35981905 -0.26632026 -0.39994472 0.06814449 0.96406335 -0.5739344 0.8959982 0.00037798542 -0.1441317 -0.08072499
齐 0.8038108 0.94478124 -0.8866536 -0.8167715 -0.22931623 -0.50960684 -0.7206996 0.86527765 0.1669799 0.32661 -0.389135 0.27681533 0.03227647 -0.4888312 0.24491064 -0.79754984 0.7658222 -0.7244022 -0.5808209 0.23901613 0.48406774 -0.30401304 -0.14196886 -0.3361247 -0.03814952 0.26933387 -0.15148227 -0.87227136 0.5342854 -0.57018995 0.13825507 0.6175259 0.05949267 0.15644512 0.5234547 -0.25821346 -0.61465126 -0.36733997 0.1476902 0.6123382 -0.291315 -0.8810187 1.0143697 -0.6626392 -0.27555284 0.5135131 -0.70895547 0.5084941 -0.5725342 0.056646336
义 -0.24533434 1.0005779 -0.7321993 0.24910021 0.5952549 -0.21685942 -0.6034315 0.45837128 0.27846414 0.09201803 -0.38881522 0.78397644 -0.037453312 -0.5408614 0.32583448 -0.114693254 0.55479914 -0.7255708 -0.44638675 0.34220484 0.8823987 -0.04633955 -0.31459135 -0.4185108 -0.15395796 0.63124233 -0.18643773 -0.6279829 -0.22190079 -0.033524245 -0.06672627 -0.15716602 0.7217338 -0.041247036 0.62594867 -0.6770293 -0.49600637 -0.2775374 -0.4366727 0.8060314 0.021764046 -1.0500243 -0.62425184 -0.20647617 1.0709313 -0.85377973 -0.41432026 0.36934438 -0.3116571 -0.25522682
正 0.22147757 1.0478407 -0.8626014 0.3904119 0.15206383 -0.90677994 0.70141935 0.23398496 0.1863029 -0.55439943 -0.09811779 1.0142342 -0.5105806 -0.06086006 0.60664886 0.10776635 0.86946607 -0.6169235 0.04847114 0.38444504 0.3332382 -0.4212574 -0.1044006 -0.4101458 0.047365133 0.23777208 0.17818607 -0.7829548 0.22739713 -0.32972813 -0.24078386 0.21198605 -0.43895957 0.31759897 0.71938694 -0.6389676 0.5163569 -0.7699635 0.1669532 0.25532365 -0.32500473 -0.68306327 0.7727622 -0.3627171 0.42630035 -0.38064465 -0.2723708 0.8174154 -0.7268142 0.5467996
命 -0.98236305 0.4664518 -0.49222678 0.38998836 -0.14319181 -0.5019524 0.08657155 -1.1554399 1.1224041 0.48027188 0.6227119 0.41155428 -0.94697654 0.5549313 -0.18799767 0.3272508 0.54505074 -0.40222314 -0.10460767 -0.46939972 0.0018983987 -0.09321614 -0.033545677 0.3907617 -0.95523477 -0.79375833 -0.49342984 -0.69617146 0.11136184 0.009432177 0.30374464 -0.30794448 -0.4964361 0.26295745 0.10928019 -1.0963649 -0.38190177 0.7226146 -0.35737604 0.40904355 0.1822306 -1.0483706 0.81809694 0.41757354 0.31204844 -0.4165348 0.27602237 0.13922426 0.78794587 0.8264908
曾 -0.16660346 0.73624307 0.0567113 -0.01120337 0.6012533 -0.18653943 0.7870625 -0.8099683 -0.14485554 0.34636268 0.017717121 0.36703843 -0.82496023 0.31636053 -0.5967277 -0.6104304 -0.4809387 -0.2689222 -0.49138632 -0.32685584 0.89586705 -0.981206 -0.11901447 0.4048268 0.713822 -0.7517389 -0.13552594 0.28648806 0.85050374 -0.7781339 -0.12774828 -0.07503194 -0.7159595 0.9101098 0.34765407 -0.40481877 -0.12286835 0.25450876 -0.73636156 0.122062564 -0.460483 -0.37789512 0.17758493 -0.7631476 0.3872532 -0.45518366 -0.08322917 0.40060422 -0.07648239 -0.18272969
伯 0.50353885 -0.007941174 0.46759605 0.96132076 1.1391846 -0.27649742 -0.16464257 -0.49770468 0.21238858 -0.23522301 0.41052812 0.9549784 -0.14637332 -0.26871848 -0.8879792 0.84121746 0.49261963 -0.17050727 0.6749749 -0.6702603 -0.3180452 -0.42913687 0.6747454 0.406906 0.01989554 -0.3961021 -1.1341662 -0.39720905 0.7053301 -0.7894379 0.23848048 -0.1856825 -0.76952016 -0.19866772 -0.0832694 0.4372268 -0.76428485 0.29639167 -0.50836 -0.44449887 0.04193558 -0.030262139 -0.1933768 -0.8179799 0.81157845 -0.41575864 0.31996316 -0.6034302 0.66209745 0.72195596
门 0.780303 0.52730757 -0.1181469 0.07726116 0.031768996 -0.23674607 -0.051485106 0.18696333 -0.8173668 0.6474279 0.12654929 -0.18076856 -0.6595801 -0.7492175 0.40102738 -0.84393406 -1.0130711 -0.8482977 -0.15883733 -0.3280072 0.5056592 -0.41432092 -0.15522748 -0.7777166 0.006585981 0.508291 -1.0443996 -0.3551451 -0.5242396 -0.8099417 -0.9154223 0.04309405 -0.65011823 0.9218303 0.3713611 -0.66160226 -0.8594793 -0.121813975 -0.14147992 0.6946318 0.18855397 -0.42688465 0.21738139 -0.01908383 0.9316587 1.1074502 0.012083963 0.6237328 -0.20445846 0.24480273
敢 0.5404014 -0.5053597 -0.81247914 0.48779473 0.34410882 0.44313198 -0.4383809 0.3693926 -0.8438338 0.3750142 0.20385197 0.897698 -1.0005529 -0.1347077 0.34334293 -0.9650023 0.57973015 0.30275258 -0.5382966 -0.19084029 -0.2210797 -0.48149872 0.81783533 0.24806637 0.31507975 0.5442506 -0.37190196 -0.037009664 0.033749107 -0.7900731 0.37491524 0.30196616 0.2195162 0.5297248 -0.030911887 0.10074613 0.3621008 0.7123382 -0.544042 -0.48215368 -0.40220043 0.39300308 0.32654566 1.0580229 0.478588 0.33348158 0.9423597 -1.0144811 -0.2755217 0.09282833
犹 0.46828276 -0.11132692 0.057971198 -0.5985673 -0.39475182 0.5105468 -0.41814685 -0.63012725 -0.055868886 0.14647816 0.5900926 0.51995784 -0.091392204 -0.7727948 0.95648855 -0.2905858 0.66798156 -0.3840491 0.5269346 -0.2031949 0.2824681 -0.1760869 0.036782067 -0.5793799 -0.7034198 -0.32543707 -0.65075415 0.18694603 -0.5285319 -0.15071784 0.59354806 -0.46571797 -0.49597445 0.80011696 -0.32816005 0.43848523 -0.74731004 0.32369316 -0.7061488 0.28133613 -0.7773507 0.8251841 -0.7097339 -0.12395244 0.6811073 0.4422598 0.75013727 0.4894986 0.29954445 0.19944297
生 0.5818686 0.5890274 -0.7605938 0.46729958 -0.31328607 0.0045290706 -0.28003535 0.35524467 0.052859895 0.96768844 -0.7955435 0.70786226 -1.147956 -0.05864762 0.43707135 0.97455466 0.38774666 -0.048601963 -0.24230433 -0.8699128 0.34270284 -0.43959135 -0.75792974 -0.24040477 -0.02883592 0.2414779 -0.47041535 -0.6598155 0.64782757 -1.0701313 0.49944377 -0.039259274 0.25911263 0.70935047 0.7881285 -0.30330884 -0.4465061 -0.4297378 -0.59273374 0.43206775 0.016362611 -0.42483917 0.8997813 -0.32048282 -0.004827169 0.3530245 -0.67796797 0.43913066 -0.48184517 -0.12550049
日 -0.38171515 -0.05269764 0.6588644 0.5002875 0.24333909 0.079959355 -0.17131591 0.80976915 -0.09657902 0.4123174 -0.018057775 0.06882092 0.0050729266 -0.32939166 0.036395513 -0.37764645 0.950094 -0.4618364 0.12041398 0.10243292 0.2948949 0.15481362 -0.006532191 -0.339589 0.23263718 -0.51631385 0.18858682 -0.5053192 0.030993138 0.1851484 -0.5529914 -0.2747938 -0.30716914 0.48489973 -0.23942418 -0.9108379 0.59477365 -0.07842456 -0.46492192 0.81882805 0.0590054 -0.1520092 0.25093582 0.50320494 0.41091636 0.034900762 0.54780376 0.35591424 -0.09905584 0.4657585
敬 -0.7511142 -0.30498976 -0.46003577 0.5366166 -0.38188103 0.58346003 -0.027851861 -0.729848 -0.2575956 -0.14212064 -0.012758273 0.36600193 -0.28164628 -0.53266954 0.046865318 0.23247695 0.46541584 -0.962754 1.2282615 0.25331154 0.6462613 0.67348486 -0.44241226 -0.08099749 -0.04623656 -0.49842334 -0.21880245 -0.33527696 0.25263178 -0.5920818 -0.14400312 -0.305819 0.060106073 -0.09563478 0.3693143 -0.99901783 -0.18441918 -0.16855067 0.3104654 0.8642858 0.13049448 -0.32170612 -0.24917112 -0.986694 -0.027248345 0.17529114 0.6953767 0.6125299 -0.17999573 -0.37761223
难 -0.19190627 0.44442523 -0.26408318 0.34112495 -0.7715544 0.24894127 0.62092066 -0.050051633 -0.9084777 0.9967352 -0.274428 0.17579867 0.2596183 0.9217982 0.08455934 -0.7070087 0.86709774 0.38955706 0.5270632 -0.10016748 0.23413254 -0.8622263 0.15065248 0.44938254 -0.17529331 0.40757844 1.4031522 -0.34430116 0.35334396 0.43453807 -0.4735973 0.27739182 -0.2751099 0.14519101 0.1230672 0.17391895 -0.3944862 0.33207673 0.15107796 0.45555434 1.216783 -0.70806056 0.29143313 0.6863036 0.35434073 -0.17530705 0.7586288 0.6317715 -0.47645864 0.4135021
直 0.14824528 0.12437894 -0.23223272 1.230763 0.10191567 0.23722625 0.26605663 0.44569758 0.94185567 -0.08802323 0.27993482 -0.086391285 0.1111924 0.034805443 0.5618191 0.59173644 -0.3622254 -0.23572932 0.4576621 0.16158172 0.8238819 0.78079873 0.096163586 0.95650315 0.4725734 -1.0668648 0.23175442 -0.5414152 0.5151282 -0.5329403 0.31807643 -0.6267808 0.55175453 -0.014688323 0.9226803 -0.9393646 -0.004680039 -0.2495638 -0.40134853 0.9102179 -0.13989075 -0.5471793 0.067973405 -0.92526007 0.47858658 0.49687934 0.15553163 0.45995805 -0.44444162 1.0315384
丧 0.44846407 -0.14142558 -1.0708516 0.1665053 0.0017078689 -0.23126046 0.027089695 -0.13726443 0.25849673 0.49970907 -0.4726111 -0.13386376 0.6113736 0.36599457 0.49003354 -0.7108668 -0.71360016 -0.6822049 0.42877176 -0.12080721 0.92520875 -0.51471865 0.30345258 0.29556367 0.29552624 -0.80464464 0.5450375 0.5050518 -0.2480663 -0.2390818 -0.35886452 0.8237542 -0.6938193 0.0034280722 0.1279593 -0.57768625 -0.339646 -0.6655667 0.4095911 -0.8792001 0.27517706 -0.82834 0.8296928 0.51992106 0.9989103 0.51831394 0.9811755 0.48660967 -0.23228541 0.1573903
说 -0.023615545 -0.64821976 0.7988964 0.76208436 0.6501612 0.19344199 -0.12352849 -0.52606654 -0.26992354 0.37271246 -0.02266066 0.857899 0.8614247 -0.08667124 0.16166154 -0.45719218 -0.19475016 0.66807 0.62977237 -0.12794055 0.7240608 0.1521258 -0.5996926 0.27909777 0.60418123 -0.72229004 -0.036928046 0.5996722 -0.2699439 -0.37028193 0.47699812 -0.7061459 -0.5850152 0.66727877 -0.080499515 -1.240961 -0.7517946 0.43425596 0.4061708 0.8718586 -0.36450458 0.7374792 -0.19224598 -0.72776717 0.35270113 0.71379066 -0.014397425 0.3814734 0.2231259 0.26238486
自 0.43779436 -0.11195781 -0.67327744 0.46073872 -0.16658562 -0.23402801 0.37850702 0.8629908 -0.6225726 0.9414614 0.57939893 0.74081403 -0.18536094 -0.07390904 0.82894355 -0.49588042 0.6767471 -0.36308903 0.0772578 -0.3853139 0.6188458 -0.6477885 0.7839557 -0.29504997 -0.7372883 -0.33927608 -0.108046055 -0.36697415 -0.55504817 -0.36934748 0.067058794 -0.75264275 -0.3035226 -0.4266189 -0.78804344 0.5124955 -0.40485287 -0.8414832 -0.15882427 -0.20137353 -0.26652473 -0.3027568 0.48976883 0.44993222 0.6598629 -0.073172316 -0.008377177 0.3531913 0.072924726 0.081740275
用 0.48494092 -0.58584154 0.2312996 0.08519354 0.03347231 0.7310972 -0.25119936 0.3013659 -0.060429633 -0.7259538 0.30704516 0.0994849 -0.4414338 -0.39473692 0.27509135 -0.4977169 0.7210853 -0.13932292 -0.32530928 -0.29223484 0.2313372 0.35337245 -0.49040186 -0.23062725 -0.6746985 -0.6812456 -0.14426896 -0.82584924 -0.19141604 -0.120408036 -0.20401396 -0.5332032 -0.22029316 0.362538 -0.61605704 -0.50611675 -0.28215125 -0.39054272 0.01000569 0.63926303 -0.39816472 0.175961 -0.6323415 -0.93239516 0.41172403 0.6045969 0.4850102 0.4882638 -0.7393418 0.82582945
周 1.0640655 0.26503435 -0.6534234 0.38660246 0.22860035 0.23069619 0.16402882 0.2653076 -0.528447 0.07178472 -0.41466787 0.6067857 0.028288528 -0.57709855 0.5788778 -0.24936534 0.46479094 -0.7692262 -0.81878686 -0.8066535 0.27441233 -0.63501567 0.042136636 0.08736708 -0.17285919 0.8068767 -0.028395275 -0.83012444 0.05976007 -0.6300207 0.13740183 -0.65077835 -0.14564501 -0.43019345 0.04690059 -0.39230603 -0.40632516 -0.1664429 0.33989632 0.5792003 -0.88916963 -0.253905 0.60763645 -0.43244243 0.47885063 0.61849385 0.30108687 0.04296414 -0.9656847 0.75568414
颜 -0.08787907 0.055275578 0.62105715 0.29261693 -0.6235061 0.31533864 -0.7235069 0.063279144 0.13043374 0.8110692 -0.3215553 -0.06778015 0.3031496 -0.6483196 1.0370158 -0.6279913 0.8997413 0.39876795 -0.29393613 -0.66636735 -0.1045424 -0.42468238 0.49662876 0.5511608 -0.5933869 -1.1553578 0.8666641 -0.7813503 0.23065767 0.1243978 -0.83460927 0.063203216 0.7263211 0.50457996 0.33638948 0.14326759 -0.3044083 1.0643477 0.32831573 0.32141754 -0.2833515 -0.16147967 -0.4281592 0.10039358 0.64883363 -0.05713243 0.8774468 0.14267963 -0.9067138 0.06795855
年 -0.3469905 0.3234815 -0.92368233 -0.027886797 -0.3696558 0.13551638 -0.29709557 0.3151267 -0.27064338 -0.5621805 0.030203301 0.19508563 0.8394649 0.00600972 0.65792316 -0.33397484 -0.95751244 -0.086637236 -0.74889356 0.48151457 0.6663245 0.9623582 -0.24154115 -0.16966687 -0.1354785 0.04715321 0.26239866 0.27655575 0.36775807 -0.5287817 0.5544499 -0.60684574 0.8166009 0.70870095 0.37197405 -0.28479373 0.7344153 -0.3866005 0.025088597 1.0234643 -0.6244399 -0.92418796 0.4371417 -0.81805426 -0.20681407 0.49219152 -0.46001536 -0.3002128 -0.053677116 0.037532784
告 -0.53668296 -0.4398503 -0.31346875 -0.21618931 -0.35588014 0.30753067 0.33890066 0.845776 -0.40514064 0.41746452 -0.61158633 0.5127465 0.13871022 -0.58856577 0.6256617 -1.0100898 0.7486263 0.28105152 -0.39725417 -0.5911111 0.5809947 0.4872138 -0.42873046 0.1597154 -0.46165574 -0.79758203 0.24484144 -0.4363047 0.45334184 0.25170943 -0.037571207 -0.6319592 0.3936803 0.8030697 -0.13889948 -0.6885028 -0.18164349 0.3518748 0.48382267 0.8375083 0.72663903 -0.9787207 0.19509494 0.40755138 0.027532393 0.013252139 0.415532 0.040068585 -0.55123615 0.9166867
十 -0.605505 -0.40951526 -0.92036366 0.6979632 -0.35433772 0.75045824 -0.55115396 -0.497085 0.44005984 -0.16579399 0.59146583 0.8673296 -0.25872326 -0.3192399 0.06501441 -0.68357867 0.41067752 0.35843006 0.53221107 0.4016245 0.4166091 0.19195348 -0.40095866 0.034537934 -1.0370136 -0.89120567 0.6581922 -0.9573023 0.2307431 0.34243855 0.63359874 -0.59276706 0.46062213 0.82383156 0.6760763 -0.36380106 0.20354924 -0.090916604 0.53249604 0.3653351 -0.32896316 0.06601723 -0.4223515 -0.90810585 -0.08798547 -0.26378375 -0.43502393 -0.09728504 -0.895017 0.59781253
怨 0.2835941 0.067075096 0.26219627 -0.112251624 0.49775776 0.17718488 0.4329674 0.022349939 -0.046020925 0.111893035 -0.24312168 -0.22672544 0.39042944 -0.27422702 -0.26503968 -0.104079224 0.85890424 -0.59190726 0.7194457 -0.31215474 -0.4549492 0.2418612 -0.8682367 -0.07525234 0.33749592 -0.6552242 0.77836937 0.5726362 -0.91405123 0.2516718 -0.84424835 -0.6207173 -0.41880643 0.7050658 0.36376345 -0.3828182 -0.02702499 0.38767537 0.12041851 0.9020477 0.21170063 -0.7665464 0.12545347 0.5714446 0.861448 0.29249656 1.0383043 0.51968926 -0.22486806 0.6708872
达 -0.34489396 -0.087613985 -0.056303978 -0.106528535 -0.6599287 0.12435019 0.49268284 0.18639302 -0.12620108 -0.20815925 -0.3781972 0.19992931 0.18557219 -0.50750804 0.38031542 -0.7364027 -0.068903945 0.23333095 0.24321863 -0.41941142 0.6381138 0.26565808 -0.20886467 -0.51003295 -0.19429334 -0.43180433 0.8332176 -0.32307664 -0.23801754 0.33620104 -0.21037136 -0.01938245 0.09366726 0.43311754 0.06697983 0.54780865 -0.026600234 0.02290663 -0.33053467 0.2770365 -0.06387804 0.054296598 -0.32219657 -0.76095754 0.3551759 0.7100553 1.0395288 -0.030661995 -0.8816891 0.66330016
孝 -0.12988174 0.5128813 0.5630577 0.018893762 0.25611162 0.72446615 0.37281302 -0.40060633 -0.1222625 0.20293601 -0.1269937 0.38293815 0.23736225 -0.17633367 0.05602185 -0.67443216 -0.31580693 -0.0645437 0.51178795 -0.48919335 0.14328642 -0.24426316 -0.8069153 0.4138911 -0.1388946 -0.4000711 0.46194264 0.4953556 -0.6940833 -0.63763404 0.1904098 -0.4737636 0.13717903 0.23462553 0.81060505 -0.35390332 0.4148114 -0.16308393 -0.5624237 0.08130524 -0.036298793 -0.009922298 0.25771996 -0.45543757 -0.27776763 0.23024125 0.41783488 0.068929136 -0.40322044 -0.15200937
弟 -0.37878984 -0.10263052 0.10093112 0.12982023 0.115773566 -0.14313973 0.43562093 -0.33699566 0.22418359 0.043712698 -0.14305341 0.6196194 -0.39137617 -0.27051574 0.40744942 0.42195877 0.36879575 -0.09677146 0.08899694 -0.01716579 0.08011006 0.16528313 -0.194634 0.23558888 0.12273932 -0.15923753 0.27058533 -0.42285934 0.014862564 -0.25899276 0.37868863 -0.46900946 0.5171314 0.014881576 0.12091994 0.4601846 0.023565032 0.11028579 0.064095214 0.56956464 0.10256827 -0.5585291 0.2438919 -0.44575733 0.40402752 0.2683548 0.33387142 0.1743323 -0.39447635 0.91222423
至 -0.49217257 0.5962216 -0.11692761 0.52866083 0.15481915 0.099209175 0.3418346 -0.959558 -0.68752587 0.14331768 -0.8625399 0.5788382 -0.23336302 0.9041376 0.036381867 -0.32363424 0.50692385 -0.6796414 0.22211419 0.03468025 0.57532626 -0.599956 0.044250723 0.111157134 -0.8516913 0.09726665 0.5916353 -0.59280527 0.5100677 0.39608377 -0.60791034 -0.38292584 -0.20586962 0.31096256 0.17232458 -1.0108117 -0.42473808 -0.92855865 -0.7854456 0.64730656 -0.18813537 -0.21935098 0.08180581 -0.7526102 -0.63281125 -0.30525264 0.5992477 0.28544766 0.4906595 0.82285374
先 0.048899267 0.433995 0.3920561 0.23692642 0.28884056 0.09447111 0.44057292 -0.31319138 0.069303885 -0.5935716 -0.15370074 0.7302423 -0.12662232 -0.47397447 0.21588565 0.5058454 0.36796927 -0.07845627 0.12840979 -0.519099 0.036542233 -0.7003689 -0.3636832 -0.38169986 -0.21514623 -0.43106577 -0.58489996 -0.60084766 0.39963835 0.09142963 0.31919828 -0.8113081 -0.91138136 -0.49887222 0.20280881 -0.1364659 0.029031912 0.33511317 -0.76566124 0.17693292 0.085202254 -0.1716404 0.009582426 -0.044796806 0.079002224 0.21629892 0.32943675 -0.94175655 -0.75463337 0.9049888
师 0.5346847 0.6585426 -0.3228314 -0.35436726 0.014186179 0.38879785 -0.20242858 0.17076783 -0.6336192 -0.81233954 -0.117931016 0.7326097 -0.79835683 -0.33198765 -0.8658865 -0.422425 0.5103644 -1.0621322 0.6493503 0.12504603 0.17979924 -0.40203014 -0.1835912 0.33829847 -0.70269966 0.3540412 -0.16168673 -0.08602259 0.20787469 -1.2018434 -0.3956488 0.5294912 -1.1690778 -0.20421544 -0.22392976 -0.6150584 0.12760034 -0.4456957 0.29501662 0.10864289 -0.22077453 0.11067445 0.31414744 -0.24400742 -0.277885 0.1455297 -0.28941312 0.3527312 -0.57341206 0.97112215
女 -0.01958174 0.26924935 0.058656678 0.06305313 0.70703965 -0.16870652 -0.04000887 -0.26089403 -0.07150038 -0.013139345 -0.08426444 0.08264739 -0.6168075 -0.64260423 0.32870343 0.21584605 -0.057918575 0.28563115 0.029944517 -0.7331503 -0.017541254 -0.2776484 -0.6842005 -0.30423638 -0.15798543 -0.43448934 -0.052624267 -0.5951237 0.023998065 -0.57391196 0.39576095 -0.39911798 0.38363847 0.2545757 0.81049454 0.5640744 0.005884957 0.29334578 -0.7244252 0.21731177 -0.2041995 -0.10789516 -0.895419 -0.4565021 0.48964652 -0.06467726 0.658597 0.5214175 -0.57043654 0.16032016
多 0.35058483 -0.91609436 0.13258423 -0.7143852 -0.21279617 0.8811597 -0.10435647 -0.05947162 -0.41482928 0.270491 0.17415178 0.21074733 -0.04642038 -0.22268954 -0.3186593 -0.7238558 -0.15013129 -0.22522038 0.91685194 -0.64095545 -0.7037956 0.2543735 0.21066493 0.6656283 0.9815688 -0.79175675 -0.5419548 -0.1996058 -0.6587207 -0.812116 0.88476914 -0.032174435 -0.8541465 -0.43768162 -0.657651 0.37604347 0.22084777 0.8101843 -0.36448252 -0.21903937 0.6251899 -0.8174483 0.44708553 0.42772266 0.57292587 0.23587191 0.8622007 -0.009802949 -0.47963515 0.6017434
忠 -0.42557815 0.061212573 -0.3197643 -0.44608918 -0.11947549 0.53955543 0.13947219 -0.5405141 -0.30698648 0.64595014 0.018824164 -0.50672114 0.9028586 0.07433937 0.10217962 0.3899624 1.0923551 0.028843135 0.3399968 0.5676526 -0.11229698 0.008917465 0.47823432 -0.93094945 0.87339646 0.33962902 -0.54703665 -0.31869656 -0.095232934 -0.76960504 -0.39737764 0.11441359 -0.28899252 0.7347146 -0.023794893 0.9369538 -0.41632873 -0.60205245 -0.78279257 0.46651283 0.2124963 -0.26213205 -0.50326717 -0.73896295 -0.41301662 0.34426 -0.6429865 1.0745733 -0.9330739 0.0883736
四 -0.6912737 -0.30661884 0.15729167 -0.031029055 1.126852 -0.55627716 0.24598043 0.61999446 0.68583167 0.6741549 -0.8080516 0.45745763 0.8043242 0.41624573 -0.71384096 -0.1648246 -0.004467013 0.054878555 0.9056972 0.17037825 -0.19754282 -0.57856745 -0.22256103 0.6506932 0.6598172 -0.22062077 -0.35251686 -0.5225335 -0.32019094 -0.9920093 -0.061989132 0.1562333 -0.69023615 -0.25376597 0.015236503 -0.5043261 -0.1932037 0.69964904 0.6239995 0.45809615 -0.34092706 -0.6949832 0.78463894 0.3448211 0.7909837 0.45986703 -0.07400498 -0.29707167 0.18946542 0.7702907
疾 -0.10156705 0.6430732 -0.82198244 -0.5774172 -0.08877301 0.5372167 0.53523266 0.04287104 0.36077908 0.59596145 0.55320525 0.31232065 -1.0963726 -0.23835619 0.16430683 0.4736359 0.06259533 0.7315007 -0.36212683 -0.7268818 -0.8647549 0.3535967 -1.546777 -0.91074854 0.25439483 -0.9595917 0.10990008 -0.56349325 0.47091618 -0.3945082 0.6870568 -0.90313065 0.057376575 -0.563523 0.3056136 0.9764175 0.06844423 -0.2539391 0.0029992862 0.21766558 0.14292589 0.0013842705 -1.1839294 0.33817402 0.42140463 -0.677678 0.41757 -0.47881967 -0.557545 0.6230112
服 -0.22615875 0.39456922 -0.79569334 -0.39273745 -0.13428259 -0.7842029 -0.71435314 0.05456042 0.1315133 -0.40756115 -0.7828352 0.7348666 0.6395389 0.53746486 -0.3825611 0.6820734 0.7238998 -0.22025052 0.7196664 -0.4782217 -0.48275274 -0.7736697 -0.15354152 -0.11669777 0.7019394 0.28491533 -0.5561137 -0.46226606 -0.21098737 -0.8004144 0.25755674 -0.42997593 -0.3468254 -0.8528625 0.198467 0.62734646 0.14715631 -0.9528382 0.5351109 0.550654 -0.69282323 0.3619699 1.0342847 -0.6381754 0.2971943 0.67309636 -0.4465415 0.47229695 0.05933039 0.5083138
氏 -0.20156191 -0.39621907 -0.27463078 -0.13821454 0.33687294 0.015545902 -0.1223439 0.06286555 -0.022697415 -0.6192182 -0.47556356 0.9026379 0.53943986 -0.315327 0.3677997 -0.6295765 0.17632872 0.13191767 -0.11133409 0.15542616 0.03783185 0.01779752 0.6591638 -0.56077915 -0.1491597 -0.8463471 0.56921893 -0.9091738 0.6697775 0.79312867 0.35627195 -0.5587028 0.7040105 0.83053195 -1.124995 0.11383872 -0.055383377 0.046713505 -0.20502764 0.5416739 0.5144508 -0.1765571 -1.1518443 -0.7720576 0.8772659 0.554293 -0.10437327 -0.08090684 0.22844642 0.73941016
冉 0.4017631 0.61160725 -0.69245225 -0.22716315 0.39752 0.031274617 -0.6109767 0.017664531 -0.89956635 0.5364473 -0.4008827 0.7298599 -0.023471754 -0.3858392 0.64737165 -0.07143398 0.39808795 0.10161692 -0.053167332 -0.61065966 -0.69047326 -0.24845147 0.5096315 0.053245377 0.1412428 0.43700725 -0.7089896 -0.90152216 0.78996 -0.58390963 0.5920313 -0.28103027 0.00432164 0.4840402 0.45173758 0.8723978 0.66905034 -0.43006283 -0.3670897 0.6934622 -0.62448996 -0.27904812 -0.2350736 -0.112318955 0.8151668 0.6993228 0.75017166 0.7645117 -0.5873586 -0.09054987
将 0.8270598 0.41309807 -0.29590937 -0.33885598 0.41111904 -0.26665673 -0.24345821 0.052056734 0.22819018 -0.21424879 -0.78375703 0.17953357 0.8409738 -0.17238207 0.25959972 -0.778393 -0.7189459 0.14961024 0.011536708 -0.88483226 0.49836987 -0.70304024 0.043754216 -0.46389708 0.17729506 1.1900764 0.05509128 -0.4366467 0.0061251605 -0.24389352 0.6363655 -0.72710353 0.71952415 0.5201401 0.13577452 -0.6067516 -0.09884664 -0.3689653 -0.3836871 0.65102214 -0.60871124 0.35542145 0.46965656 -0.5681984 0.4026064 0.863434 0.08084335 0.5399924 -0.9239854 0.30909958
士 0.14582334 0.3984722 -0.5918843 -0.33774954 -0.18956979 -0.5533925 0.25187826 -0.38380378 -0.003453366 0.11662513 -0.60026 0.22937472 0.14124139 -0.2757985 -0.028465196 -0.1082551 0.47335225 0.26317424 0.0046795113 -0.6014333 -0.5539033 0.109883465 -0.07956797 -0.26269642 0.0558715 0.09103927 0.08592363 -0.052031837 -0.6606881 0.21242973 0.518815 -0.8898389 -0.68099874 0.27860892 -0.34013495 0.4640599 0.33200875 -0.6913529 -0.30766886 0.068573505 -0.26823413 0.047060456 -0.5335483 -0.564754 0.81451637 0.00027316168 0.2610187 0.19946095 -0.18461555 0.042480975
丘 0.42632547 0.39324096 -1.1106821 0.4965913 0.8240707 -0.3744386 -0.11103483 0.79926825 0.052803516 0.5423883 -0.20868172 0.46810305 -0.18486874 0.6582303 0.032148093 -0.68395317 -0.40675026 0.40940768 -0.57963675 -0.1304904 -0.058793515 -0.6751138 0.037475295 0.72833747 0.3865837 0.4021739 -0.007815838 -0.4996741 0.14211503 -0.52883786 -0.79890376 -0.24230695 -0.5648193 0.5059153 0.96890247 -0.618425 -0.5185549 0.20233242 0.89277714 0.80525887 0.010684589 -0.22315265 0.8647935 0.17082524 0.40158343 0.025845975 0.87840784 0.32717907 0.19194885 0.026406873
身 -0.3476801 -0.06534759 -0.5919987 -0.16682926 -0.39314616 0.6168966 -0.24755903 -0.001931276 -0.45822096 0.09003179 -0.8057027 -0.04625649 -1.0037215 0.2266472 0.28999254 -0.21794273 0.1906715 -0.36067936 0.8199146 -0.6367443 0.397637 -0.3379882 -1.0439576 0.36584848 -0.63535917 -0.8470603 0.3758928 -0.6715396 -0.33255512 -0.7435275 0.41628042 -0.09168895 -0.67911184 -0.07150464 -0.7868512 0.54427934 -0.2811964 0.08014137 0.65240765 0.05795521 -0.27157214 0.7074653 -1.2101579 -0.78662705 -0.08883521 0.32320493 0.48623377 -0.70037025 0.36648136 -0.20572586
入 0.45883825 -0.06843012 -0.56652606 0.073847815 0.30578247 0.008318355 0.2939053 -0.015546698 -0.9860278 0.8599873 -0.57493824 0.57211924 -0.6771161 0.2839669 -0.15786499 -0.5508494 -0.4355887 -0.2954092 -0.52293634 -0.8166048 -0.04263389 -0.59834695 -0.2306128 -0.11415773 0.42874494 -0.43810537 -0.174818 -0.56557465 0.3002348 -0.92009324 0.07212726 -0.1308289 -0.8390965 0.1782822 0.0722498 -0.3866639 -0.8835638 0.099345975 -0.22391509 0.65242213 -0.06818587 -0.22910368 0.77256805 0.4747224 0.34231174 0.6480692 0.35912582 0.5475722 -1.0070134 0.34420457
志 0.51665896 0.34052056 -0.32834238 0.19776572 0.31494707 0.2675044 0.13530633 0.4945387 -0.11260579 -0.5658521 -0.66989994 0.39234483 -0.7507372 -0.95157194 -0.20958479 0.29098883 0.19918095 -0.8073046 0.7433069 -0.39402255 -0.028504752 -0.19451407 0.95181745 -0.14580911 0.3766263 0.113077305 -0.41354036 -0.3047433 -0.14853996 -0.7481508 -0.18184054 -0.551536 -1.0403364 0.26060054 -1.049367 -0.38640058 -0.24167678 -0.011672586 -0.29527906 0.63993156 0.0615484 0.35427904 0.035649583 -0.79865366 0.8491516 0.019106824 -0.2884261 -0.09800598 0.31588176 0.3522437
耻 1.0441452 -0.7411946 0.033681773 -0.44171906 0.6511702 -0.40436676 -0.38824567 0.33074325 -0.40110704 1.013873 0.37334952 0.6237047 0.46192762 -0.68590206 0.0028398393 -0.65278065 0.3450248 0.48076028 -0.6858709 -0.49834487 -0.10596214 0.12846154 -0.21645407 -0.43001148 0.66995096 -0.3092663 -0.98996574 -0.72204244 -0.3878939 -0.55248725 0.5181132 -0.2905559 -0.32274798 0.17757414 -0.643888 0.70493346 0.07034537 -0.016354477 -0.7840803 -0.12560768 0.18540016 0.048718553 0.25706065 0.17545873 0.86719644 0.3994077 0.4801238 0.38504478 -0.1934835 0.07807731
失 0.39740878 0.34864202 -1.1975541 0.19986816 0.02320781 -0.25009716 -0.005718143 0.69649553 -0.27987936 -0.66433394 -0.62351227 0.9636214 -0.64760274 0.20447318 -0.26497743 0.33291462 0.6353419 0.015791835 0.45459795 -0.80586106 -0.5025217 -0.6013585 -0.4870943 0.22798975 0.5298528 -0.943378 -0.5126264 -0.12128274 0.5235816 -0.572453 0.15549845 -0.48813912 -0.13593146 0.63930494 0.029817881 0.025161179 -0.3577992 0.041677535 -0.071900904 0.56754565 -0.44574997 -0.6667852 0.09657269 -0.54239607 0.33388692 -0.22428739 0.16830683 -0.039859798 0.4087656 0.25111178
安 0.16428235 0.30391848 0.5621616 0.37552723 0.6732531 0.15791157 -0.049495265 0.4418725 0.6266494 0.19032763 -0.25690725 0.16754451 -0.08938633 -0.4160732 0.3277772 -0.39593077 -0.044293262 0.26124352 0.28121254 0.1387445 0.0389473 0.30479512 0.1564218 0.02376917 0.011964047 -0.66700304 -0.53564936 0.27672562 -0.23694545 7.292046e-05 0.1629346 -0.19995426 -0.3390226 -0.52966547 0.20573546 -0.48615035 -0.09316636 -0.2919166 -0.07207343 -0.024559204 -0.31691107 -0.3196682 0.55099237 0.33298722 0.08472332 -0.2494411 0.18707502 -0.2712927 -0.29368007 0.25339574
富 0.06085107 0.6616755 -0.082294084 0.048678026 0.17219889 0.20571233 0.1373559 -0.16698126 -0.13426527 -0.07786279 0.40790993 0.4323515 0.091275334 -0.72125864 -0.66697884 0.6738326 -0.52481884 -0.7828032 -0.721166 -0.06954052 0.06549351 0.47400585 0.27954695 -0.66659766 -0.43097132 0.4950438 0.07847 0.062307566 0.2483013 -0.33024994 0.60888946 -0.30328202 0.67105687 0.654594 -0.64640355 0.50113845 0.40281147 -0.4579937 -0.6518541 0.8001392 0.7655459 0.46646816 -0.9951256 -0.78582543 1.0636641 0.8488057 0.66081417 0.037190963 0.31059483 0.47854665
赐 -0.18192944 -0.12596995 0.3809132 0.39160368 0.4416746 -0.82018006 -0.39206564 0.5703322 -0.60627127 0.16152771 -1.2349641 -0.3887913 0.28080443 0.22768936 0.2728112 -0.34468699 0.7111489 0.009303452 -0.104676254 -0.27694058 -0.56174976 -0.5363593 0.07182944 -0.43946445 0.5185539 -0.84910214 -0.40797648 -0.94472885 0.194404 0.8962658 -0.7068575 -0.34713158 -0.1970438 0.07220382 -0.06378085 -0.39529648 0.354554 -0.41909343 -1.0896225 0.24841075 -0.7684701 -0.23585433 -0.9620039 -0.31162876 0.69303125 0.4147682 -0.3983541 0.2833402 -0.92043453 0.31199494
患 0.34013748 0.36765024 0.68464345 0.5964735 -0.011975377 -0.53290814 0.74042416 -0.242157 -0.07871531 0.13254873 -0.5967994 -0.20563884 -0.24806494 -0.29437694 0.0908746 -0.64419025 0.4658989 0.08351512 0.37028176 -0.26673388 -0.5307871 -0.675485 0.10660872 -0.5139586 0.835015 -0.068139985 -0.15573277 -0.7222609 -0.5671579 -0.83160216 -0.78188914 -0.6661906 -0.50021374 0.7090994 -0.80608475 0.5412887 -0.06285175 -0.08434122 0.97842056 0.43615955 0.03138191 -0.047940817 -0.020372748 -0.59140426 0.67073566 0.48782638 0.423145 0.38467935 0.27219412 0.20215283
百 0.30663756 0.07111982 0.16877954 0.41037142 -0.71218324 0.15438074 -0.019784763 -0.58160514 -0.28441703 -0.27999005 -0.2587476 -0.69212383 0.7984405 0.26092625 0.45145074 -0.98759335 0.32268742 -0.46540996 0.09253627 -1.1473045 -0.054204952 -0.584721 0.8599071 0.09923287 0.7942666 0.56489176 -0.5130301 0.3152534 -0.7403309 0.22660832 0.5248371 0.93780094 -0.95443106 -0.7047892 0.63382685 0.3615748 -0.8089603 0.26818115 -0.0795529 -0.6760832 -0.35588643 0.27938828 0.7639687 -0.15693511 0.14395498 0.8770208 0.33005002 0.80792916 -0.6747312 0.16788793
回 0.4794547 0.50873196 -0.013571744 0.5097378 -0.07084995 -0.7576347 1.1044323 0.057785183 0.08559204 0.81055146 -0.77694786 0.11954862 -1.120424 -1.072263 -0.3173828 -0.81873655 -0.22355364 0.57541156 0.23141825 0.4145163 -0.2579854 -0.3638528 0.73954344 0.29242966 -0.08748711 0.28244793 -0.037074808 -0.41291565 -0.31373134 -0.5463642 -0.2780531 -0.5959002 -0.33441326 0.5584546 1.1697766 0.5575044 -0.23510218 0.9078062 0.31546134 -0.023983724 0.05306064 -0.7899308 0.8477787 -0.34134185 0.42194018 -0.27420375 0.3250266 0.481822 -0.40494514 0.39018667
宰 -0.9472107 0.8958289 0.6081262 -0.36526442 0.420335 0.276782 -0.12450407 -0.5612431 0.5127559 0.45317748 -0.8795708 0.72932065 -0.057990454 0.20656672 0.031956576 0.09482407 -0.00844924 -0.59410894 0.51759344 -0.4631591 0.73137814 -1.0507145 -0.09342915 0.87964803 -0.24345149 -0.23652434 -0.036820807 0.9611627 -0.28116694 -0.2993856 -0.21088868 0.2952325 0.662369 -0.72055286 0.12308485 -0.7953468 -0.81265944 -0.5275032 0.8949628 -0.3873975 0.3827151 0.540668 0.78827137 -0.21098492 -0.4680393 0.09953044 -0.45210314 -0.33078358 -0.07720551 0.5509762
朝 0.33701825 0.42092636 0.2775035 -0.18743302 1.2824577 -0.71894795 0.87437785 -0.29989132 0.4668631 -0.663369 0.45263025 -0.6664882 -0.90879285 -0.81664735 0.46193424 0.24002296 -1.015137 -0.30900237 0.969442 -0.24350204 -0.18634929 0.17669025 0.48631832 -0.26039088 -0.10935985 -0.6221198 -0.7240193 0.9959896 0.4426261 -0.4062308 -0.071460746 -0.8435317 -0.79466546 -0.98688066 0.70008606 -0.68192893 0.044846054 0.41805974 0.73549986 -0.13093242 -0.5828556 -0.86683595 -0.37276888 -0.8121445 0.3704897 -0.8120195 0.05626894 -0.10931345 0.48270848 0.0054816925
莫 -0.4791751 0.31467992 -0.18743348 -0.016494187 -0.22480847 -0.33364 0.23192447 0.06356425 -0.15936303 0.7379285 -0.507722 0.7778376 -0.13927934 -0.11532848 0.2515858 -0.250295 -0.07646191 0.15488075 0.12708561 -0.8236488 0.5305396 -0.29483324 0.1160355 0.49587741 -0.39791358 0.1220005 -0.38050932 0.19618106 0.078540206 -0.49963504 0.029572587 -0.4413566 -0.7157962 -0.49640155 0.28154472 0.14571257 -0.4081115 -0.20471695 -1.073251 -0.69539857 -0.72644514 -0.18616183 0.7124781 -0.061390948 0.1526555 0.5176585 0.43389332 0.021731379 -0.669688 0.49733606
若 0.07493608 0.2237716 0.8000286 0.5638021 0.32664782 -0.59831893 0.20495476 -0.022080194 0.401819 -0.08176443 -0.21253197 0.236495 -0.07164575 -0.6629381 0.491688 0.7885936 0.3149653 -0.054272294 0.396308 0.106573656 0.26939404 -0.042877357 0.24218829 0.29094312 -0.7911095 -0.48433247 -0.35972464 -0.21407923 0.08046962 -0.1552623 -0.21642794 -1.0404224 -0.34001574 -0.24024346 0.3873825 0.11101802 0.16691282 0.5391159 -0.65748084 1.03648 -0.7884727 -0.99435383 0.38605988 -0.087952405 0.1043057 -0.47594276 0.9191635 -0.11980825 -0.24384458 0.99300987
云 -0.31455612 0.44209212 -0.63287044 -0.63223785 0.19408432 -0.35489023 0.67599195 -0.067153215 -0.51143545 0.4451164 0.12572744 0.1764227 0.25998506 -0.8979795 0.23570247 -0.28351647 0.85436755 -0.61221445 -0.06812199 0.4053512 0.2881095 0.18937728 -0.90961367 0.39280346 0.70612884 0.15607803 -0.5859318 -0.30191457 -0.71712464 -0.0059759547 0.25704536 0.39408952 -0.054569032 -0.3153621 -0.46688366 0.13407393 -0.7619933 -0.2208202 0.07630759 0.33872595 -0.15831326 -0.73126936 0.49254125 -0.09414971 0.9952074 0.622237 0.9019416 -0.13928334 0.7000797 0.12579934
孙 -0.36446178 0.5590622 0.011785881 -0.921298 -0.3201324 0.73738074 0.04965786 0.3752553 0.051088486 -0.21047786 0.32446757 0.92215604 0.3703605 -1.0580466 0.9729664 -0.49039698 0.3299853 -0.41567716 -0.8980717 0.060791448 0.8556508 -0.47581714 0.42084703 -0.041403733 -0.7581509 -0.65716034 0.76737577 -0.16377936 0.6361282 -0.7263135 -0.18585537 -0.343314 0.075904734 0.8687716 -0.017392024 0.78182083 0.021625735 -0.12997197 -0.02353962 -0.0523128 0.26572362 -0.4636855 0.3089016 -0.3799178 -0.25690132 -0.3385754 0.30474964 0.20082274 0.21114089 0.7600071
或 0.7963217 0.458439 0.17088607 0.16451596 0.42510825 -0.53965485 0.2281431 -0.027911736 -0.11372447 0.52212924 -0.20295404 0.087014295 0.18430334 -0.0063370657 -0.8485281 0.62821186 1.0560714 -0.22472766 0.6330501 -0.35631853 -0.6613503 -0.5041271 -0.8112375 -0.9473304 0.8056532 0.00433395 -0.560716 -0.20816077 0.22301497 -0.5852311 0.5535977 -0.18859497 -0.30417347 0.40703598 1.0006025 -0.43223593 -0.74099594 -0.26676324 -1.2401464 0.12376489 0.705143 -0.6886359 -0.2625313 -0.4123444 0.4562068 0.688075 0.4875303 0.47611296 0.08367348 0.30454096
勇 -0.061895285 0.42932937 0.14130862 -0.14239934 0.17494865 0.51488495 -0.086288765 -0.06031311 0.35107985 0.3229252 -0.3200522 -0.2793062 0.28629985 -0.5927315 0.25207856 -0.47523597 0.9306543 -0.57013285 -0.4267906 -0.23379476 0.65629286 0.1560335 -0.06475471 -0.14942993 0.33788624 0.12658058 0.5875365 0.010139586 -0.98196167 -0.5852108 0.9672222 -0.24879138 0.6720937 0.62961495 -0.8987978 0.98953646 0.052148137 -0.22707516 0.48468366 -0.24074152 0.5201199 -0.53027564 -0.5459822 -0.75036824 0.5906025 0.5705654 0.32358077 0.7574533 0.39980808 0.63206536
孰 -0.95844865 -0.73512805 -0.7239394 0.65932703 -0.0368131 -0.3139739 0.9436561 0.085874885 0.44253907 -0.4431429 -0.41542414 0.6420684 -0.5210385 0.14124 0.65268165 0.09751469 0.71682703 -0.4900041 -0.9810559 -0.66053796 -0.25189418 -0.55767906 -0.017269095 -0.5484459 0.82775825 0.14134473 0.17949723 -0.13505635 0.66191345 -0.012236564 -0.8083925 -0.5587934 0.13697946 -0.10528519 0.23875363 -0.82046175 -1.1500907 0.054752573 0.31499487 0.15499039 0.54781127 -0.5996726 1.056507 -0.60917765 0.21563596 -0.0222596 0.4229507 0.6708449 -0.023067646 0.28208843
叔 -0.5486654 0.45488966 -0.009532457 -0.57845056 -0.1623851 0.40612808 0.8733925 -0.5264498 0.024842795 0.3458521 -0.04023337 0.54114634 0.6684491 -0.49397936 0.48961645 -0.1201845 0.33093572 -0.22326013 0.36692536 -0.1283468 0.11497166 0.1394096 0.4767799 0.16598372 0.26513276 -0.5484485 -0.43380865 -0.9134646 -0.095088534 -0.2133795 -0.03714104 0.21068062 0.27545145 0.11859984 -1.0212511 0.4651229 0.58297086 0.4091918 0.22233064 0.44688398 -0.10470858 -0.5277512 -1.0907286 -0.56159484 0.9171332 -0.47724488 0.28219637 0.86364 -0.1940731 0.98808867
