1352 100
， 0.82610273 1.458868 -0.9761846 0.47362623 0.58053595 0.31027934 -0.03459816 0.03279866 -0.2927531 1.1671317 0.18390375 0.08350286 0.5796346 0.49143037 0.5015184 0.7011351 -0.39978465 -0.14928962 0.13409898 0.670113 0.6907192 -0.7566481 -0.421244 0.5165174 -0.953316 -0.25117385 -0.3962103 0.46775648 0.3089998 0.33721054 0.112144746 0.12559849 0.7002754 -0.88564724 1.0502862 0.65599227 0.036192086 -1.3790499 0.5777315 -0.6563201 0.44188645 0.8768218 -0.47169033 0.5629666 -0.21141303 -1.6339927 -0.13046533 -0.44396353 0.32313785 0.4391233 -0.5757787 -0.9002573 -0.37866226 -0.257641 0.20096417 1.5162839 1.0273507 -0.23751906 -1.6241131 -0.60734415 -0.0931993 1.1804006 -0.51706344 1.0177785 0.8584947 -0.45775852 0.0799972 0.39114478 0.3728521 0.77292156 0.09252475 -0.81382865 0.1003642 0.4222526 -0.23989879 -0.5624821 0.55934364 -0.011333695 -1.7556224 0.14241646 -0.5956542 -0.7798749 0.12673602 1.3559644 -0.4443948 -0.47004107 -1.0999136 0.057139 0.07096067 -1.4496002 -0.08664227 0.50830084 -0.58879733 0.26415652 -1.0444881 -1.0165789 -0.32577446 0.18484083 -0.34015012 -0.026917987
子 -0.6675574 0.12040894 0.3770482 1.6477408 0.02840474 -1.1852005 0.14852902 0.57416433 -0.4027711 -0.1508972 0.08616655 0.42554292 -0.15115939 1.5079067 -1.01801 -0.35867715 -0.566837 1.7297896 0.48511028 0.79622155 -0.14865066 -0.3334605 -0.9252818 1.0986797 -1.7899181 -0.6832668 -0.26900074 0.70905745 1.9496925 -0.15251087 0.33075744 -0.116070986 0.92215157 -1.6312642 2.165343 0.22130953 0.41827354 -1.1820182 -0.061071683 -0.65664524 -0.5991929 0.8669631 -0.40870106 1.164562 1.1823419 -0.7715313 0.20673019 0.24017148 -0.6479285 0.23577023 -1.9905083 -0.947758 -0.020276863 0.87585676 -0.85304964 1.2161701 0.8642908 0.83206445 -0.53299296 -0.49568102 0.8015383 0.24634148 0.971147 0.8608918 -0.6182317 0.07591653 -1.2281985 0.9966892 0.5951099 -0.79408324 -0.7528257 -0.8987922 1.225358 0.65583616 -0.727729 -0.526092 1.5391877 -0.10247523 -0.8097388 -0.50936294 -0.69766533 -0.22058967 -0.7526606 1.1380311 -0.2972795 0.18345566 0.34632763 -1.130863 0.029005697 -0.32870972 -0.23868473 1.0636637 0.2377992 0.84340525 -0.91812396 0.52748895 0.5485259 0.68855184 -0.7188348 -0.11400979
。 0.1586719 -0.5094064 0.4322952 0.2603917 1.0332677 -0.12990883 -0.6210687 0.2539025 -0.2005158 0.027710155 -0.77069455 0.28565207 0.19806692 -0.16569883 0.7111426 1.6045297 0.8047768 0.39802903 -0.17063938 -0.5812686 1.2619339 0.25209168 -1.2603151 0.37685075 -0.65687656 0.29758906 0.6759802 1.585396 0.11555498 0.47437933 -0.21684813 0.5768392 1.3794823 -1.4062177 0.9560705 0.3310113 -0.20123798 -1.5554595 -0.9206128 0.31004548 1.478384 0.11959169 -0.32941216 1.242927 0.70527214 1.4731396 -0.09457676 -0.36748675 0.16803999 -0.38189656 -0.8839795 0.18633868 -0.95666355 -0.056493737 0.14699927 0.17765473 1.01623 0.4186649 -1.1837761 0.025295408 0.08787761 0.65609103 0.1558752 0.5549746 -0.13311574 -0.88455313 -0.49345735 1.3909577 0.9791179 0.6156769 0.31434482 -1.2351683 1.647109 -2.2075253 -0.81269413 0.78260857 -0.42822248 -0.38174564 0.39929548 -0.0244418 -0.24322967 -0.7052003 1.60588 1.1023464 0.55460274 0.28465843 -0.39671704 -1.3680768 -0.7923396 -0.73428756 0.15205005 -0.46865827 -0.55742717 0.3382569 0.53293633 0.23011275 -0.74681604 -0.1882158 -0.95484924 0.24855514
： 0.4760381 -0.42729554 -0.09708925 0.45296392 0.8480968 0.33513358 0.6220207 1.0975947 -0.8253987 0.76635385 0.9942832 0.71869946 -0.18547873 0.42359298 1.0541996 0.71006405 0.8981719 0.26619738 -0.33211365 -0.32720807 0.69396937 0.01820129 -0.829819 0.6413257 -1.5409824 0.26643708 0.28910622 0.32617426 0.42117384 0.27031875 -0.06562655 0.46126354 0.8389836 -1.4136803 1.4288892 -0.39898816 -0.11312121 -1.1183132 -1.1488628 -0.9553034 0.17275415 0.07664164 -1.9316643 1.3306231 0.013329527 -0.44964114 -0.46996808 -0.5071035 -1.1705616 1.1525254 -0.910167 -0.20292939 0.95514566 -0.24189375 -0.4378995 0.56702214 0.8052993 0.52907914 -0.38597122 -0.6533962 -0.28604174 -0.59591967 -0.10194422 -0.09433871 0.66890424 0.5654547 0.6057489 0.08652928 0.6240308 0.7480129 1.0643011 0.37346464 1.0242615 0.17359902 -0.87065685 0.051910315 0.2602237 0.109511875 -0.52569544 -0.86094767 0.7209849 0.847058 0.79921156 0.92528975 -0.3273951 0.45457873 0.6654745 -0.40240675 -0.81450474 0.14910443 -0.1835213 0.0420387 -0.35470235 -0.24820158 -1.0600542 -0.53235114 0.22965302 -0.8321914 -0.007874322 -0.28699678
曰 0.93128735 0.65842783 1.6525561 1.2538261 -0.8598406 -0.5942112 -0.2649283 0.33175054 -0.8351059 -0.055841673 -1.2903093 -0.34166265 -0.2524297 -0.16848545 0.3388333 1.4170139 -0.24318275 -0.23398651 -0.54193294 0.17006962 0.48580357 -0.3953288 -0.73026955 0.3580495 -1.2703803 1.0341413 0.97771025 -0.16088031 0.21001555 0.9587426 0.76853687 1.5425059 0.7213372 -1.2530621 0.66063666 0.04654253 -0.2515481 -1.599921 1.720336 1.1674516 0.4913028 0.87255895 -0.0108012315 1.0897615 0.057112496 0.30146584 0.26941234 0.21947436 -1.6431001 -1.0385998 -1.0111222 0.09793385 0.8342217 0.3091391 0.32595393 0.69388115 -0.38280058 -0.19649868 -1.216979 1.5829061 1.1006918 1.0517215 -0.37871552 0.11070158 1.4812928 -1.4408468 -1.5208617 -0.25013858 0.1513542 -0.063034005 -0.41120014 0.26925108 0.46491295 -0.8010988 -0.08033084 0.12099988 0.4232422 -0.16924378 -1.1762813 -0.6586207 -1.1190999 -0.08519233 1.384122 1.4168041 -0.8388397 0.12705424 -1.3428665 -0.992737 0.37547925 -0.90089893 -0.5140821 -1.929767 -1.5487881 0.028242398 -0.2822193 -0.48043317 -0.039344706 -0.99300647 -1.414601 0.25761372
之 1.5681524 -0.20619132 0.16164431 1.4534373 -0.567174 0.6653907 0.7297378 0.5022303 -0.7752967 0.88060415 -0.7296271 0.22266027 -0.0020606294 -0.25045526 0.730548 0.96259534 1.3210193 0.5212066 0.16781795 0.049686827 0.5994069 0.4105725 0.29545847 0.12429629 -0.34623197 0.96101445 0.3265601 -1.1522868 -0.1035657 0.41302884 0.5063919 0.1444637 -0.012712437 -0.9252169 1.2515576 -0.52808124 -0.6371506 -0.93323535 -0.10303184 0.03386667 0.48084843 0.5985957 -0.22498223 1.2095892 -0.30155015 0.24983294 0.021929218 0.7651634 -0.5210994 0.84955424 -1.4612403 0.67262256 0.7265619 1.5887977 -0.72569436 -1.2925284 1.3321345 -0.3278527 -0.17733188 -0.2064353 -0.8856468 0.48751244 -0.80714065 -0.8263115 -0.32386148 -1.4116707 -0.13642256 1.033969 -0.24524492 0.4727097 -1.2014611 0.27468723 0.5129024 -0.8666269 -0.118087865 -0.45071638 0.5711245 -0.7452561 0.9016015 0.8724567 0.80919677 -0.48530176 0.2816344 0.342517 -0.93363357 0.077282 -0.14400774 -0.09594818 -1.0189734 -1.0759832 -0.5420267 -0.03745138 -0.49078494 -0.4822171 -0.31613427 -0.8654683 -0.6866877 0.64705396 0.71920365 0.05955336
不 -0.48587877 0.6196621 0.15567721 0.28712377 0.03134761 0.27457783 -0.8955413 -1.2411681 -0.033382762 0.40015936 -0.35306796 1.4490635 -0.49553734 -0.84411997 0.9854288 -0.5306831 0.060673695 0.23381864 -0.37910578 -0.63545614 0.5457192 1.463477 -0.24803764 -0.038542036 -0.8559009 -0.028227689 1.2952445 0.70954233 0.34623474 1.3119309 -0.5661834 0.87237966 -0.47101516 0.16817091 -0.88036567 -1.3406259 0.6606544 0.13554555 -0.4720192 -0.45130876 0.67493653 0.095782705 -1.1408539 -0.22104667 0.41414127 -0.5137574 0.97033364 -0.35347226 0.56955415 0.3297291 -0.68850243 -0.18893307 0.22163491 0.30639377 -0.13937512 -1.0431839 -0.2729151 0.07018278 -0.9289295 -0.65689754 0.40447935 0.07932939 -0.6872481 -1.3899845 -0.30152795 -0.06190151 -0.42076427 -0.52890956 0.46475068 -0.08966512 -0.33663183 0.5187067 0.41335222 -0.6544026 1.2066622 -0.26569247 0.51823175 0.7652457 0.833354 0.5239384 1.8139291 -0.10619229 -0.0023614832 0.3601228 0.1017027 -0.41103554 -0.5840329 0.32032734 0.11327436 -0.7577288 0.75530887 0.10423877 0.00851729 -0.6552022 -0.0831888 0.15122569 0.8734433 -0.19297409 0.4597688 -1.4044235
也 0.90347356 -0.82358044 0.17397109 0.5237382 -0.032475375 0.5997006 0.13951442 -0.19768375 -2.6634374 0.3085382 0.047719356 1.2967551 -1.4438274 0.57624024 1.2055402 0.70121425 0.7832227 -0.4791607 0.37753007 -1.1847587 0.9929524 -0.20474082 0.16299891 0.7015637 -0.55255145 0.70019704 1.0704921 -0.7051201 1.1108383 0.66796315 -0.3630469 -0.409238 0.11425661 -1.2563443 0.029520923 -1.2816571 -0.46152282 0.3972247 -0.56374484 -1.7973362 0.9179049 0.26705685 -0.9439609 1.4595412 1.050378 1.495194 0.09006272 -0.850588 -0.7282915 0.6941326 -1.1537559 -1.005705 -0.095848925 1.300819 -0.47369224 0.40736544 0.013471633 0.00063905347 1.3654002 -0.37269813 0.61385995 -0.5480409 0.19016457 -0.0318162 -0.46609324 0.6014582 0.5565574 0.11514793 -1.2478237 0.5993438 -0.18860994 -0.92671627 0.2994109 -1.3046106 0.19470228 0.5184194 0.23602152 -0.6815821 1.247315 0.12907356 0.7652773 -0.9102996 0.7437412 0.17799719 1.1902033 -0.053275764 -0.61987287 -1.2193009 -0.66895133 0.014125595 1.5461572 -0.12596601 0.5884668 -0.4857411 0.37347394 0.6305197 -0.36713243 -1.6452354 -0.33962137 -0.77384406
而 -0.17732643 -0.12492847 -0.18045075 0.347487 -0.39121565 1.1790621 0.72210634 0.93845785 -0.4789727 0.8255001 -1.6034616 0.37171566 0.16962025 -0.018350212 1.2797681 1.364372 0.3693345 -0.46947402 0.65700215 0.28120965 0.64079773 -0.75269186 0.9761011 0.12030685 -0.28538546 -0.11422647 0.5645296 -0.099977285 0.55641866 0.66924566 0.106191516 1.1358943 -0.3339046 -1.3769908 0.8100658 -0.44347605 0.0063631097 -0.64187 -0.06321607 0.41960886 -0.55658597 0.50501364 -0.3397592 1.5612661 1.0628234 0.31227118 0.60619533 0.41339675 -1.035813 -0.43923122 -1.2671564 0.63909906 0.6784247 0.29057363 0.20419024 0.048230294 -0.4542433 -0.31717798 -0.40229893 0.3934511 0.39205027 1.562537 0.29231226 0.587264 0.7120177 -0.07282705 -0.3861926 -1.6352829 -0.31948277 0.9827072 -0.14517899 0.19312263 -0.51075613 -0.7494137 0.7018429 0.13993353 0.18112259 -0.78899026 -0.38774952 -0.872594 0.10352686 -0.8800785 1.4470148 0.06164051 -0.40457734 -0.7760258 -0.17998305 -0.080751486 0.1484982 0.31581613 -1.3009892 0.27171263 0.18004203 0.8351175 -0.7749931 -0.5128516 0.07563695 -0.63334817 -0.42736086 -0.6610347
？ -0.03561915 0.4711299 -0.70169425 1.0026081 -1.1796823 0.5346844 -0.87447447 -0.3839766 0.22764617 0.97995454 0.05242968 0.8522937 0.6541975 -0.17013027 0.6622697 0.8871592 0.7393972 0.18247993 0.2761811 0.35033712 -0.108684674 -0.11591562 0.63977355 0.38492924 -0.16887583 0.7101874 0.83487403 0.15665396 -1.1310108 0.114296876 0.7699445 -0.0232801 -1.6813496 0.594522 0.2588008 -1.2481748 -1.3958982 -0.3427957 0.7284526 0.48972058 0.7452798 0.8512654 -0.40743437 0.23905475 0.38066784 -0.40027148 0.67774165 -0.5875736 0.6422252 -0.87551665 -0.58609444 0.5511876 0.3861606 0.49135268 -0.7221614 0.80111885 0.4436372 -0.8190062 0.791607 0.4910926 0.19925025 -0.51471233 -0.15674695 -1.2061204 0.21984282 0.19439763 -0.16821319 -0.48587704 0.084687814 -0.8799208 -0.0083330935 0.04617231 -0.17380974 -0.49308118 0.3008661 0.6942567 0.26500902 1.0784653 0.372299 -0.36804217 -0.6559809 -0.77023053 0.009722849 -0.8491916 0.6763083 -1.659852 0.23542108 -0.017211368 -1.5104693 0.06898789 0.4683677 1.702078 -0.6791861 0.06191702 -0.5803728 0.29774994 0.50833064 0.62400466 -0.57416844 -0.33972287
其 0.44233662 1.6741987 0.11700022 -0.41299596 -0.6223202 0.12167602 0.51928663 -1.6328448 -0.10789895 0.03370849 -0.31241262 1.3051479 1.885995 0.32132116 1.4860543 -0.41777053 1.0956706 -0.30177534 -0.04051294 0.32570782 -0.097056635 -1.2773894 -0.54370505 -0.66463876 -0.60068053 0.12806258 1.2295637 0.92279863 -0.1323955 -0.56997836 -0.3385317 -0.83200306 -0.49608666 -0.2801772 0.3758456 -0.47087386 -1.9923179 -1.0489482 0.5756733 -0.25817388 0.1419711 -0.5076586 -0.37434363 0.42017743 -0.608181 -0.45581555 0.8300197 -1.5705618 0.2346747 -0.66881573 -0.7734195 -0.013008609 0.103291534 0.89780265 -0.023272445 0.023625761 0.13140336 -0.087695025 0.3098609 0.17310558 -0.7724395 -0.08560786 -0.75179243 -0.5696776 1.1006045 -0.13045245 0.89065605 0.055458434 0.1293303 -0.31157976 -1.0712397 -0.10689959 -1.0082994 -0.85573053 1.6703234 -0.24067815 1.1646042 0.784331 0.6143733 0.34276152 0.4458728 0.35455266 0.6284607 -0.6536685 1.013448 -1.3923413 0.6861856 -0.38118032 -1.2924614 -1.2386779 -0.872061 0.432284 0.5576727 0.12849936 -0.30878997 1.1253159 0.28187487 0.25184888 0.22045526 -1.1474439
人 -0.37378338 0.12645352 -0.701561 -0.11534422 -0.6730044 -0.08661147 -0.7882967 -0.60657245 -0.50589675 -0.21066457 0.36478752 0.31193203 0.20197207 -0.34457237 1.3213927 0.76047057 0.06911391 -0.407669 0.3085028 0.5760524 -0.35208708 -1.3604873 0.58073634 0.49210408 -0.4249479 -0.2420111 0.6366015 -0.0779498 -1.2361586 0.13502249 0.0942819 -0.13814308 0.51938266 0.0035717778 1.2053629 0.12666935 -1.0415325 -0.865806 1.1601491 0.42415616 1.2687986 0.18565519 0.29633588 0.979066 0.46328762 1.3892844 -0.42407334 -1.2241639 0.22293255 -0.6486647 -1.2689229 -0.41866773 -0.16688007 0.40991607 0.47011513 0.5545987 0.79640734 -0.28481498 0.35899487 0.060020592 0.108529136 0.18477923 -0.20292161 -0.24481742 0.24712883 -0.88665503 -0.02950559 0.21315376 0.46339807 0.33869424 0.040456105 1.1526368 -1.1312741 -0.5868742 0.43840635 0.8297014 -0.1276691 1.0620326 0.4466845 -0.3656428 0.34240332 -1.0308945 1.5334963 -0.31880507 0.78070694 -1.8204046 0.42290345 0.6331371 -0.9564275 -0.004378733 -0.8694977 0.24558808 -0.13056332 -0.9215946 -0.981341 0.18590257 0.22607149 1.0073335 -0.53512 -0.30286658
者 0.29460257 0.814266 0.22048277 -0.46563208 0.3040052 0.50776 -0.57931715 0.08185064 -0.60065985 -0.10796782 -0.3170616 1.2518809 -0.39612105 -0.33151448 0.43827644 0.64599925 0.14237233 -0.43506473 0.58546895 0.7653782 0.17431943 -0.6035801 1.0522882 -0.062077593 0.6506984 -0.55988485 0.7516722 0.24545585 0.06603771 0.26995757 -0.5690589 0.07074782 0.3109601 -0.26763847 0.26258913 0.39951643 -0.18044828 0.26680303 -0.24179216 0.46304032 1.0247856 0.57500684 -1.0646495 0.5109465 0.093365 0.09627275 0.37807596 0.27110386 0.36207274 -0.8271561 -0.3513796 -1.2966627 0.27651122 0.08268306 -0.047927164 -0.11099369 0.79373187 -1.1109072 0.22473824 -0.061735697 0.6142231 0.72580886 0.46620873 0.5632633 -0.24718603 0.28086585 0.7070356 0.4712344 1.3676265 0.45765114 0.6149597 -0.2606825 0.3179307 0.49721086 0.16067012 0.31208304 0.10838737 -0.23898382 0.30142456 0.4824833 -0.16217752 -0.15850164 1.6873035 0.3472379 0.4284323 -1.9882706 -0.24301353 0.03298799 -0.8496152 1.3182433 -0.54900515 -0.54188824 -0.22803207 -0.45271084 -0.27104443 0.5331775 0.6359041 -0.22481886 0.7970519 -0.21983624
以 -0.21588224 0.56651765 0.3631538 0.6388765 -1.2114106 1.0790734 -0.567881 -0.7770088 0.004308288 -0.95680094 -0.68047714 0.9039134 0.23098971 -0.2453107 1.5523647 0.8052879 0.2564121 -1.5015392 1.4672523 0.6902887 0.6285176 0.0061011678 1.2598443 -0.21812744 1.0451648 -0.45087188 0.4956463 0.13719878 -0.48564854 1.1367205 -0.5401497 0.27639022 0.07126094 -0.5982374 -0.19191252 0.22537194 -0.8790059 0.056518275 0.21846868 -0.77581626 -0.5682048 2.0225403 -0.45349163 1.1535273 -0.50264287 -0.2700072 -0.6044493 -0.46459898 -0.26946145 -1.3186918 -1.9846033 -0.56822324 0.78011066 -1.2018206 0.09046886 0.6457349 1.3432766 -0.3985159 -1.0747226 1.2357403 1.7072634 -0.28499883 0.47514802 0.5533432 0.2432643 -0.20333746 0.7336133 -0.06923422 0.38931563 -0.6517105 -0.44474775 -0.51372504 1.0722911 1.2620894 0.7230156 -0.17865984 -0.38500032 0.7461417 0.009567396 -0.75822645 -0.11298723 -0.55805063 0.7088064 -0.16799892 0.7568199 -1.3611397 0.3062054 -0.36202028 -1.7484035 0.92344 -0.16161832 0.3602423 -0.26993787 -0.05429321 -0.8091973 -0.02573734 0.4891576 0.2946683 0.080878615 -0.7383666
有 1.1804426 0.7310027 0.2771325 -1.4161636 -0.4354749 -0.03612457 1.1096394 -1.1825992 -0.24811351 -0.39529592 0.079742834 0.62296224 0.18436678 -0.6904966 1.7011961 1.2005174 0.40446645 -1.4544158 2.0664842 0.75674176 -0.099302 -1.7714791 1.6048198 -0.006779277 -0.11718209 1.1207922 -0.088388346 0.375117 0.05841138 -0.6328725 -0.7160775 -0.18288891 0.2467263 -0.8236031 0.5303173 -0.0831218 -1.2807748 0.49374384 -0.38813436 -1.9531804 -0.020516956 0.9738918 -0.47059038 0.93978584 -0.71204966 -0.3759691 0.07396235 -0.8237629 -1.0625665 -0.68270403 -2.1482353 -1.3384882 0.45974526 -0.25531915 -0.18476263 0.1398257 0.09391906 -0.32341304 -0.53804255 -0.096564 0.22208983 -1.0284374 -0.078903675 -0.71946573 0.5977334 0.6254246 -0.0668146 0.14426358 0.84800875 -0.60072416 0.47922778 -0.57731825 2.2658765 0.7934965 0.77810305 0.2687495 -0.70438 0.79588914 0.5435327 0.6309671 -0.79684985 0.18171278 0.8900176 0.26937023 0.3911685 -0.84755695 1.3672794 -0.8663847 -0.9851571 -0.6211391 -0.051062297 -0.8784091 1.3972706 -0.64962524 0.500484 0.07271855 1.0537006 0.44184485 0.4024794 0.30691954
于 -0.09465012 0.7919209 1.3136919 0.33198693 0.016254375 -0.913724 1.5895048 -0.68276477 -0.07606332 0.35227624 0.38041836 -0.27388057 -0.18819508 -0.8923181 1.3491596 0.78596747 -0.13533185 -1.4112864 1.2649075 0.20313144 0.33088973 0.0044493964 1.6878409 1.0172501 -0.24155036 0.18791425 -0.78515625 -0.60342646 -0.9162421 0.53049266 0.15795548 0.25415176 0.3753841 -0.50494075 -0.60673267 0.18426697 -0.41481552 0.95721495 0.8951789 -0.89132947 -0.064432725 1.451591 0.026828522 -0.13340773 -0.7384106 -1.2186033 -0.73542255 -0.32993725 -0.39214712 -0.22419201 -1.8420343 -1.3819685 -0.26351845 -1.5868754 0.3977673 -0.32301122 1.1470255 0.23445196 -0.02393336 -0.8079963 1.3149965 -0.35130894 0.03610389 0.7095317 -0.95400953 0.27152866 -0.4465648 0.21972217 0.90201235 -0.23457012 -0.007086242 1.409216 -0.5673227 1.2082162 -0.18903989 -0.3718065 -1.3674337 0.7144858 0.2911416 0.11259893 -0.41041622 0.24322532 1.8664812 -1.0948845 0.22081254 -1.0304272 -0.27917975 -0.78565514 -1.0749288 1.7375516 0.77020776 0.30416256 1.41322 0.119286336 -0.33072028 -0.034705408 1.4738246 1.8187499 -0.3502345 -0.316835
矣 0.10461831 0.057376713 0.8424672 -0.4824686 0.0054318216 0.20937942 -1.0942192 -1.988328 -0.5015782 -0.87857693 1.0431943 1.3081998 0.4939794 -0.01826489 2.1543572 0.055584714 0.1536945 -1.2124199 0.48182824 -0.8413923 0.35775632 -0.99698246 0.44257498 0.25592738 -0.6374982 1.4596633 -0.55164653 0.9192599 -0.9122814 0.13295366 -0.49668077 0.5630229 0.90342665 -0.35836452 0.9281859 -1.1571878 -1.8098184 0.054352123 1.1628036 -0.4928678 1.1165786 -0.87844175 -0.44319448 0.49666047 0.2968681 -0.5170233 0.5916553 -0.85012835 -0.5297568 -0.48644266 -1.524991 -1.1339068 0.11270093 -0.008050632 1.0796943 0.18188342 0.49630558 -0.36107647 0.14498815 -0.99317884 0.53267944 -1.1040218 -0.13388465 0.47148022 -0.617722 0.8655822 0.59872913 1.1860665 1.5659902 0.081424244 0.020108525 0.3320103 0.97254187 0.05657455 -0.11764107 0.124326974 0.1350957 1.0469699 1.3777914 0.48815194 0.3320638 0.32032025 0.19132867 -0.7120863 -0.54043525 -1.4413909 0.3962968 -0.29098314 -0.53835446 -0.1658565 0.18713425 0.6018773 0.23329078 -1.0607997 -0.6887311 0.30731502 1.1322725 0.36026296 0.35577202 -0.04684843
为 -0.2304975 0.7850665 0.71864146 -0.37543356 -0.5778072 0.8958068 0.78879744 -0.51595837 0.5285484 -0.1750227 -0.029822383 1.462411 -0.08088979 -0.09215509 0.47217247 0.8640647 -0.04916727 -0.16924918 0.30068922 -0.20053396 0.75261486 -0.2681468 0.14281729 -0.41687346 0.1175086 0.58680826 -0.47607383 -0.13780448 -0.9480266 0.045641128 -0.8254307 0.79459864 0.67740816 0.07723004 -0.19895674 -1.0659947 -0.48718628 1.1160666 1.6213117 -0.019609295 1.0997107 0.31026962 -0.7046373 0.59013504 -0.24207914 0.44378278 -0.39598313 0.30831486 -0.60569984 -0.18589914 -0.21439503 -0.30830896 -0.34079683 0.32286406 0.29328227 -0.28991646 0.8062075 -0.7831474 -0.6009482 -0.47621298 0.21634135 -0.35340837 -0.8126438 0.881149 -0.29512596 -0.6811338 -0.4467564 0.49279943 0.4533094 0.32947806 0.11055767 1.0648443 0.21059425 0.64854634 -0.12468311 0.169837 -0.1201234 1.6106728 0.21426415 0.5570881 -1.4909976 0.5801651 0.15238117 0.5323588 -0.99669665 -0.7872822 -0.3550058 0.64785314 -0.16960737 0.29331642 0.51035696 -0.32097325 -1.2926886 0.9338781 -0.71640855 0.81953025 0.11979747 -1.3249284 -0.72198004 0.0111277
君 -0.29660872 0.3757863 0.8947627 -1.1165049 -0.6654247 0.45142338 0.114039764 -0.70989364 -0.29615837 -0.09701017 0.6093099 0.8942553 -0.8114684 -1.059955 1.4250734 1.1862786 0.014146022 0.25655475 1.3932692 -0.54596037 1.87319 -0.3195623 1.1473789 -0.25905064 -0.52293307 0.13790345 0.97336465 0.9361643 -0.60895 0.38463542 -1.680822 -0.21518478 0.32170677 -0.18917276 -0.98577154 -0.2724957 -0.7661768 1.1983352 0.8001181 -1.7454401 0.45621836 -0.9895424 -0.85417616 0.7260399 0.5264969 -0.6543369 0.10723241 0.027053876 1.4134164 0.08437202 -0.778408 -0.92609906 0.32250443 0.057644755 -0.081570156 0.23063432 0.38972062 -1.3942684 -0.36199763 -0.9940665 0.46367744 -0.006853751 -0.62308276 -1.6381036 -0.33311144 0.74730486 1.1596621 -0.18641816 0.7054556 0.5224855 -0.95597917 -0.21115017 0.07472617 -0.062367693 0.33628893 -0.33388224 -0.08118331 0.24257255 1.8720202 0.3080616 0.5127148 0.31286088 0.2974492 -0.91858506 1.4015592 -1.6251673 -0.118932776 -0.86542684 -1.5938367 -0.6818689 -1.0143248 0.49672768 -1.43841 -0.20569654 -0.46871766 0.6605967 -0.13904935 -1.1038418 -0.112978965 -1.1945807
乎 0.1348506 0.6539061 -0.022492472 0.26926178 -1.0416586 1.0812025 -0.15609233 -0.28078428 0.6378275 -0.009711796 0.23378253 0.19885275 0.003612095 -1.2444407 0.91678905 0.72733545 -0.8682989 -1.1901534 0.764498 -0.5945634 -0.17318049 0.44772765 0.08222966 0.08163966 -0.4258923 1.1269507 -1.1642408 -0.34406182 -0.42024088 0.86811084 -0.021548385 0.8198386 -0.14585139 -0.86924994 -0.06694067 0.010613145 -0.50566584 0.30574483 0.652339 0.085821 -0.03685335 0.27517372 -1.243972 0.8204934 -0.007619675 -0.5589431 0.6110896 -0.377009 0.16330796 -0.13647622 -0.25005546 -1.0726681 0.5606698 -0.23266003 -0.21968506 0.12223628 0.42046338 -1.5448275 -0.41764578 -0.59643304 0.65439683 0.30442697 -0.46895212 -0.527263 -1.0620112 0.15205617 -0.18024664 0.5731235 0.44018453 0.023424355 0.20171542 -0.45289734 0.11424808 0.58923227 -0.17251153 0.013673529 -0.13681333 0.56827307 1.111774 0.516959 -0.46310425 -0.12612103 0.78531086 -0.40477043 -0.98359257 -0.33891162 -0.194237 0.56537557 0.07219752 -0.0069551524 0.78574663 -0.42667764 -0.21784665 -1.061912 -0.56319326 0.26503858 -0.2757565 -0.007762398 -0.78610253 -1.017787
可 1.1235288 -0.35174173 0.98241264 0.15047833 0.02628958 1.5016447 1.0451165 0.19504094 -0.67033374 -1.0145004 -0.3090174 0.08353701 0.25613907 -0.15320623 1.115954 0.09502129 0.9170513 -1.8289626 0.5134461 -1.1662967 0.6850871 0.79956555 -0.3527733 0.61141527 -0.77611434 -0.12371243 -0.20856948 -0.10027445 1.2103558 0.7070028 -1.001184 0.23859166 -0.70010734 -1.050782 0.57662266 -1.0667847 -0.32259798 1.2156979 0.73072267 -0.8854275 0.5597083 0.2069909 -1.160627 0.38331372 0.94964856 0.66498804 0.3116896 0.37865457 0.99464375 0.95685583 -0.3396146 -0.8868863 0.06768306 1.3160717 -0.830748 -0.28766572 -0.71602887 -0.37957084 0.30889896 -1.2468228 0.2337801 0.113308646 0.0014086731 0.10990079 -0.43707326 1.7223877 0.41234908 -0.6613605 0.28120598 0.7368821 0.4615739 0.6204016 0.92740726 0.0411711 -0.042339645 -0.43434882 -0.115660384 0.41230312 1.3190951 -0.054220922 0.7117383 0.51245105 0.58504325 -0.4599665 1.3532531 -0.07727821 -1.907879 -0.28159404 -0.43373138 -0.6425541 0.3840472 0.25999102 0.064823896 -0.6269794 0.049487736 0.9396361 -0.17881374 -1.0152215 0.37697077 -0.16361874
如 0.4621069 -0.31972462 -0.09128939 -0.33890182 -0.25919268 1.0926456 -0.11262735 -0.60299313 -1.0677254 -0.72366774 0.24329701 0.6358232 0.5496049 -0.56487733 1.3418046 1.0138841 0.6862381 -2.143522 1.173471 0.007879494 0.803651 -0.15912773 1.1804923 -0.08785553 -0.61570144 -0.38904864 -0.028937034 0.6306434 -0.29845145 0.21756276 -1.5585436 -0.0648274 -0.18049258 -0.91815495 -0.2899286 0.08830833 -1.2492676 -0.08727001 1.2667302 0.48064244 0.101740845 1.493587 -0.13644585 0.41936332 -0.78929996 1.0932028 -0.07819498 -1.1357895 0.70772034 -1.2240213 -0.22160761 -0.51388776 0.37793535 0.69688666 -0.340732 0.68840253 0.09806436 -1.2099334 -0.51720226 -0.75929576 0.08687985 0.1466184 -0.5666467 -0.5092947 0.101464644 -0.9960141 1.0006377 -0.42029724 0.09268944 1.081219 -0.022162583 -0.034041274 -0.3348985 -0.17899916 0.07592168 -0.26297683 -1.1156358 1.8063731 -0.052606616 -1.4342579 0.030286465 0.24779467 0.8279008 -0.37256867 0.3641126 0.5249363 -0.8442883 1.4954277 -1.519473 0.75119966 -0.22576171 0.111543804 -0.42736405 0.32425115 1.5394244 -0.77413064 -0.61548895 0.40536585 -1.0008043 -0.9802101
与 0.7685789 -0.019027835 -0.005342013 0.15518557 -0.7165937 0.32202345 0.59848994 -0.7671771 -1.1969107 -1.5230542 -0.36597136 0.17569448 -0.56223464 -2.1557899 1.0210139 0.7000651 0.22902884 -1.5210671 -0.38442585 -0.047792744 -0.48245606 -0.2686178 1.0560534 -0.19162841 -1.3384957 -0.23304917 0.8335351 0.82958 0.30349463 -0.30022997 -0.15992348 -0.3647674 -0.9178712 -0.48907906 0.74061584 0.32874644 -0.8250115 0.48472413 0.37814543 -0.876715 0.30626944 0.96730673 -0.5412385 0.21449368 -0.9991603 0.43178406 0.17234331 -0.6411326 0.65362585 -0.5522664 -0.027849803 -0.30018198 0.57443345 0.70062464 0.65713066 0.26322353 -0.10374807 0.56525856 -0.26193383 -0.4758985 0.25792512 0.2753182 -0.3492137 -0.6799449 -0.15287583 -0.3275603 -0.12460292 -0.031151272 0.7913757 0.71174926 0.95862025 0.7538536 -0.0300329 -0.50061065 0.47010776 -0.26693717 0.18236104 1.2967865 0.07561614 -0.7956984 0.8581585 0.33282045 1.2526551 -0.39947945 0.69786376 -0.7242095 -1.476316 0.30921668 -0.05953247 -0.3914879 0.5514602 0.539699 -0.06641825 -0.39921895 0.6154129 -0.030463332 0.26074082 -0.19468157 -0.14803414 0.29612112
； -0.46070084 0.07857332 0.14280422 0.048389636 -0.0358408 -0.22747968 0.43807405 -0.4438684 -0.69257087 -1.0002953 -0.4328312 0.23960078 -0.35041636 -1.5301406 1.6410352 0.039383594 0.24720371 -0.39870584 -0.4209252 0.9818839 -0.13214459 -0.95558375 1.1224946 0.5229254 -0.35421178 -0.5067134 -0.18527767 0.68762535 -0.5284101 0.36226666 -0.010472821 -0.0054178364 0.7449956 -1.2578615 0.3456903 0.39091465 -0.67642516 0.33759013 -0.47889152 -0.2637349 0.60886705 0.37146467 -1.0009739 0.59966224 -0.23820478 0.60404867 -0.08599642 -0.020111728 0.37571025 -0.1435687 -0.20986427 -0.3359414 0.52457327 -0.36769813 -0.5757873 1.1974444 1.3332015 0.20052788 0.790115 -0.04182737 0.3466421 0.7689666 -0.4139946 -0.69631135 -0.06546174 0.43471158 0.5726079 -0.42235023 0.14931318 0.9138059 -0.44506034 -0.7734568 0.073453866 0.43621632 -0.35158667 0.4842773 0.51392233 -0.22627607 0.5060017 -0.7174619 0.68211895 -0.25260955 0.69408023 0.6423936 0.14711024 -0.8371952 -0.23696044 0.59624034 -1.5400535 -0.14153706 -0.06776953 0.6627268 -1.056851 -0.19502021 -1.2732462 0.71812475 -0.5675825 -0.040127624 0.39767256 -0.28122008
言 0.014820466 -0.9713222 -0.8902111 0.14279166 -0.15655471 0.18502429 0.4874083 -0.3054854 -2.172663 -1.3870792 0.064220734 -0.06018262 -0.10086303 -1.0782826 1.4518827 -1.1501131 0.85100436 -1.6225199 0.44108832 0.5487402 -0.07577242 -0.5114173 0.85571 -0.037597198 -0.16446401 -0.8155722 0.01576176 -0.026991842 0.4551686 -0.41825575 -0.7280299 -1.7546817 -1.4686952 -0.41634476 1.1117923 -0.65199614 -0.037317887 1.7992504 0.30944234 -0.39800656 1.4601581 1.144584 -0.33598438 0.7511655 0.6699628 -0.054366242 0.6125417 -0.19745278 -0.43016005 0.61508566 -0.86287403 -1.070355 0.5096284 0.91163105 -0.9735986 0.46558526 0.38360116 -0.615566 0.981353 -0.41347265 -0.23990844 0.86118984 0.27085108 -0.9002964 -0.4523011 1.7218378 0.65161574 0.06225817 -0.30101535 0.9556714 -0.0077896635 -0.10351586 0.59735644 -0.45793656 0.6547872 -0.3070361 0.09853873 0.14849052 0.5323918 -0.9009621 0.9474526 1.1046666 0.9612039 0.5332979 -0.12349847 -0.93249416 0.122719444 -0.27399462 -0.89571565 0.20655653 0.367713 1.0304526 0.330335 -0.24927266 -0.49111667 1.1404297 -0.19570518 0.20493175 -0.28866118 -0.9736875
无 0.996831 -0.11913635 0.035840694 -0.26285425 -0.26448047 0.46669513 0.35159782 0.25848782 -0.24358898 -0.6053615 -0.29660997 -0.058276903 0.008114376 -1.1132317 0.6957828 0.3823805 -0.009848388 -0.98219264 -0.085494176 -0.061017774 0.90917724 -0.0058438033 0.7848032 0.047321852 -0.20133664 -0.5816211 -0.06928191 0.8973582 0.38651726 0.34312448 0.28060257 -0.5687909 0.2960897 -0.8977494 0.6305322 -0.6360473 -0.6101204 0.8593311 0.27844724 -0.5464526 -0.54380316 0.89550006 -0.73470676 0.32015315 -0.06452435 0.31301144 -0.0069272937 -0.20053703 -0.22193459 0.15750062 -0.10067054 -0.17600252 0.53236264 0.47219753 0.74470204 0.5910879 -0.25583926 -0.1416709 -0.33381876 0.37887365 0.3817981 0.33495256 -0.9590166 -0.34364912 -0.22084701 -0.46748334 1.0240549 0.0936212 -0.19218369 0.5962381 -0.034457248 -0.48677987 -0.010574641 0.04416347 -0.21369167 -0.7124208 -0.8720266 -0.5522083 0.20467253 -0.38101038 0.35150963 0.21886465 1.1726234 -0.55583006 -0.17616838 -0.19159654 0.33169165 -0.3899274 -0.97723657 -0.1550602 -0.6673771 0.4063882 -0.65962 0.21728544 -0.7249269 0.082778014 -0.040931858 -0.7418728 -0.72337914 -0.90529007
则 0.30329993 -1.0202247 -0.26851937 0.46345505 0.4023194 0.24641305 -0.21331763 -0.05358877 -0.1398608 -0.79235363 0.65748125 0.3097648 -0.092343025 -0.6274407 1.2224795 0.15266956 -0.26935822 -0.485295 0.5982801 0.4897687 0.66569793 0.25383574 0.2735453 0.13276131 -0.57044756 0.384408 0.55127525 -0.09201056 0.67812306 0.22197188 -0.9573902 -0.594624 -0.4701655 -0.12329763 -0.05330384 -0.43735015 -0.25107092 0.7059178 0.16731179 0.3580574 0.051368468 0.16207373 -0.18332012 0.090529956 0.47482297 0.14622274 0.34866753 0.015455352 0.60260975 0.37848932 -0.53225577 -0.7677226 0.34790397 0.2693833 -0.6924413 -0.109897725 -0.6058902 -0.25304633 -1.1234269 -0.67213964 0.05798808 0.119488284 -0.44924903 -0.63681126 -0.04017881 0.25968596 0.30262092 0.19298935 -0.25469714 0.815361 0.03275184 -0.4537228 0.51441765 -0.3389928 0.69250196 0.02015722 -0.80899227 0.1089759 0.16273172 -0.5198403 0.3813897 0.52920973 -0.034971364 -0.10357081 -0.41932952 0.023852063 -0.33398873 -0.68108225 -0.36258486 -0.6807974 0.0052903476 0.07221762 -0.20637956 0.62148505 0.24303296 0.4496593 -0.04830991 -0.022536406 -0.4345669 -0.85395056
！ -0.12039782 -0.508045 -0.31881478 -0.31864214 0.48761058 0.21003872 0.8300421 -0.5690143 -0.5171401 -1.8279173 0.07747292 -0.25217685 -0.07314128 -0.43911403 1.4769493 -0.8493298 0.1361944 -0.86705434 1.095589 1.1025738 0.007633952 -0.5980936 0.27523926 0.116456166 -1.037862 -1.4620941 0.024982868 0.114078045 0.029445475 0.2727025 -1.1806303 -0.34445983 -0.5881305 -0.84115607 1.7131257 -1.2750906 -0.9499382 1.5170203 -0.5011272 -0.27311215 0.8039845 0.09062274 -1.2045811 0.81529814 -0.057852063 -0.7742891 0.5149481 0.49606913 -0.2933339 0.67767066 -1.0924329 -0.34105358 0.5086521 0.12916008 0.47695735 -0.45432845 0.03353435 -0.2563037 0.23566198 -0.36217955 0.63528985 -0.37961745 -1.5328991 -0.103208415 -0.54747444 0.7365555 0.0074499343 0.19939968 1.2901108 0.7188734 0.30051336 0.11333514 0.38941035 0.1655058 -0.28569472 -0.7466179 -0.50981444 -0.9690027 -0.5892691 -0.2846962 1.0032147 0.333513 0.95590997 0.0861597 -0.28158498 -0.9726205 0.49287987 -0.71366364 -0.57199377 -0.18938562 0.46792257 0.80263484 -0.27517882 0.21905163 0.30602354 0.33607906 -0.88552976 -0.17315184 -0.5246179 -0.93755794
问 0.7798 0.91131026 0.17398302 0.4443197 0.5399438 0.18653956 1.0292892 -0.24838899 -0.98233116 -1.2763183 0.09749711 0.026415372 0.7759154 -1.3915201 1.6022224 0.08301733 0.060189385 -0.97261506 -0.097224176 0.92656106 0.045313586 -1.8273402 0.524915 0.7685816 -0.5646689 -0.9510252 0.31422293 -0.21368706 -0.20450689 -0.6389455 -0.053492755 0.026393771 -0.5528036 -1.3788096 1.0501873 -1.1537277 -0.932893 -0.50646496 -0.6913818 -0.76810163 -0.3104977 0.59135234 -0.71630657 1.0856696 -0.2630072 -0.06783199 0.235986 -0.6782852 -0.9302626 0.65191567 -1.3045148 -0.4542619 0.89333165 0.2827899 -0.9731996 0.35020489 0.3576352 0.7255085 0.6549015 -0.32713816 0.25284448 0.45185632 -0.81719077 -0.47667003 0.4103886 0.13112758 -0.1850535 0.57303905 1.0607557 0.79888064 -0.08948993 -0.0043445188 -0.01165045 0.54230833 0.108083166 -1.3259692 -0.20341514 0.29502445 0.22769706 -0.41080284 0.7907016 0.2621177 1.0088872 -0.53196776 -1.1914026 -0.56675154 0.49065092 -0.5673914 -0.7525637 -0.74000204 -0.15130864 0.51760316 -0.32017723 -0.7842491 -1.0354233 -0.62548256 0.36673918 0.3013963 0.3275061 -1.1035458
知 -0.25807002 0.220218 0.14403833 -0.39993215 0.5055564 -0.08980767 -0.91030246 -0.73194706 0.09663538 -1.2973418 -0.15691815 -0.005298744 0.39993188 -1.3085227 0.7921663 0.13771595 -0.24776573 -1.1497782 0.031826805 -0.3629069 -0.75007594 -0.53760535 -0.45716783 1.0964463 0.005010972 1.3500491 0.38548926 -0.511523 0.1987641 -0.5514167 -1.5502566 -2.2543373 -1.3553746 0.023151487 0.22852868 -0.5834694 -1.0049543 2.1244586 -0.6303081 0.41742325 1.1197197 0.30991307 -1.510234 0.35197738 -0.14830703 -0.09876974 1.4736402 0.12708218 0.20436047 0.6484495 1.0050569 -0.9071302 0.80303997 -0.08402456 -0.68988395 0.67650735 0.5456288 -0.80591744 0.5741807 -0.09253748 -0.47327507 0.44596374 -0.5538706 -0.27131116 -0.4213904 1.3770194 0.790141 -0.50118136 0.1315974 0.7330206 0.5224617 -0.8892397 -0.7223647 -0.08626736 0.68718934 -0.86421657 0.40498707 0.72960657 1.6894244 -0.9573818 1.1521937 1.2760816 -0.2801388 -1.6984726 0.36112198 -1.6138424 -0.15902747 0.36382377 -0.3566208 -0.9717804 1.2838349 -0.9986523 -0.24785264 0.15757209 0.14730418 -0.31284916 -0.67923224 -0.55734295 1.3336942 -0.69645035
何 0.023095546 -0.53667164 0.46354195 -0.15893953 0.48297513 0.46135095 -0.23291144 0.4925598 -0.55804634 -0.5625196 0.20863083 0.776129 -0.60521543 -0.24669726 1.2859325 0.41755792 0.12241088 -0.49751422 0.66443497 -0.3662904 0.82838064 -0.77297044 0.036635574 0.36260262 -0.112271436 0.20142555 -0.31974062 -0.09518059 -0.057268098 0.34053496 -0.77227575 0.697982 0.16831565 -0.19972324 0.65740436 -0.16030727 -0.8112633 0.41706833 0.120768555 -0.4921433 0.6826704 -0.146237 -0.7119073 0.74297696 -0.045671534 0.58768135 0.24498592 -0.39235783 0.12046673 0.76147723 -0.92079943 -0.22246261 0.7199752 0.52140415 -0.022989266 0.21490934 -0.22809502 0.6023113 0.6399521 0.14954592 -0.03380163 -0.1008372 -0.3546187 -0.3810822 0.17620791 -0.08543761 -0.20016272 0.46442986 0.35581455 0.19792517 0.76880336 -0.15404028 0.42983314 0.3626088 0.59307444 -0.17358764 0.43103367 0.14240672 -0.25848737 -0.67434174 -0.10092571 0.21573399 -0.5472346 -0.7147769 -0.607426 -0.23439477 -0.34014848 -0.37836468 -1.0422902 0.395624 0.78219765 -0.5295591 -0.6810192 -0.18065552 0.32816952 0.8833059 0.741772 -0.16251151 -0.13497785 -0.6008198
吾 0.9240143 -0.21666099 -0.24826925 0.10460874 0.7093732 0.46106488 -0.9766198 -0.7273651 -0.007405645 -0.07411345 0.090771966 1.0659721 0.6864184 -1.5282896 1.5664042 1.5703105 -0.39325035 -1.6312368 -0.22972932 -0.8477137 0.7642153 0.11547249 0.56058687 -0.1886149 -0.30831447 0.27149233 -0.065280765 -0.34008867 0.80979806 1.1207242 -1.758643 -0.2847243 -0.209464 -0.3720606 -0.21874511 -1.2164965 -0.53844386 0.0029373078 0.25048977 -0.21137626 1.0547111 0.69856185 -1.4421576 1.0126541 0.8124774 -0.16998085 -0.1794355 -0.31638664 0.3807377 0.124968745 -0.45332873 0.063599 0.7768115 0.18142128 0.16112629 1.02001 0.54438883 -0.044259883 0.34259462 -0.5511936 0.5903536 -0.37744856 -0.98034805 0.6135128 0.18889369 -0.735708 0.27252322 0.008087665 -0.5074974 1.1453238 0.3777838 -1.2529733 -0.8599138 -0.12130522 1.1064794 -0.2669932 0.4978841 -0.26585135 1.0326775 -0.59478694 1.1497756 -0.5423037 1.06424 -0.57664233 0.5869629 0.41880435 1.2254332 -0.028928703 -0.7456637 1.2612363 0.09304741 -0.9030585 -0.59703386 -0.024321428 -0.29958412 -0.4573913 -0.20786907 -1.3227142 -0.29244187 -0.89472824
仁 -0.13151677 -1.2275169 0.4780105 -0.7188462 0.121289775 0.41247702 -0.6415489 0.9683782 -0.053309724 -1.2779338 1.6205634 -0.29466444 -0.92575336 0.07660941 0.63442713 0.72633755 -0.39997977 -1.2781987 -0.009235373 -1.0822419 0.57562226 -0.5453917 0.5960409 -0.106209874 0.31058577 -1.3387723 -0.52652735 0.08037807 0.9500184 0.47264117 -1.2978534 0.55502003 -0.7553572 -1.1678522 0.77061266 -0.8669309 -1.1427045 0.75246614 -0.8345511 -0.5220553 0.7802271 0.068233445 -0.4650763 0.43560103 1.0773531 1.1404486 1.6664448 -1.0244855 0.08969701 0.3909828 -0.44315913 -0.14982387 0.82697576 0.245487 -0.27459112 0.7304752 0.024653694 -0.18669651 0.084537186 0.1450911 0.7684845 0.6163657 -0.83580405 -1.1300879 -0.70616853 0.5875108 0.7084104 -0.0052975602 0.7857312 0.8389138 0.9482119 0.4784851 -0.02562039 0.021195022 -0.78792256 -0.5396393 0.10084529 -0.99641544 0.00022689487 0.34592378 0.47388268 -0.37910023 0.23879834 0.28507605 1.0076005 0.2520601 -1.4165096 -1.2678964 -1.1337874 0.073606886 0.7780438 0.11858064 -0.60076153 -0.8766487 0.13171493 -0.16609736 -1.2059358 -1.7937306 0.26676473 -1.5363365
夫 -0.07950487 -0.008560672 -0.10243315 0.807893 -1.0278751 1.1780553 -0.86481535 1.9772798 0.60772115 0.7925841 -0.37614012 1.3768554 0.049409352 -0.17725421 1.1634057 -0.87825257 -0.08730512 -1.4041442 0.0827713 -0.5178698 -0.23621501 0.31128082 -0.9576005 0.79121834 0.7778541 0.43573484 -0.20429486 -0.13891791 1.0841594 -0.5864211 -0.89645946 0.5946747 -0.6899901 -0.9208789 0.21780697 -0.46865818 -1.1853223 -0.69185257 0.33996162 -0.45618644 -0.1784662 -0.040301897 -0.8655647 -0.029232826 -0.20585907 0.5079761 0.1308277 -1.51782 0.3447055 0.43284044 0.84358823 -0.99923927 0.3460211 -0.92856926 -1.2663602 0.083609544 0.51225466 0.30606687 -0.62585527 0.12825952 0.043836806 0.08565774 -0.11547377 -0.118538715 0.3433173 0.9612276 1.0723014 2.5077329 -0.21969166 -0.0896112 0.5050116 -0.449299 0.21363859 -0.3347703 1.1837049 -1.1694303 1.6505686 0.67103684 0.7203991 -0.3246459 -0.2605796 -0.9614536 0.3675659 -1.9729251 0.49643746 0.23168188 -0.6663049 -0.87652767 -1.1305724 -0.058579084 0.23111287 -0.6480945 0.83344597 -0.11235967 -1.4474313 -0.106154725 -0.15489887 -0.044329926 -0.6308042 0.13557158
、 0.81500995 -1.1988332 0.62772405 -0.108632684 0.058708988 -1.0017133 -0.0045065046 -0.22742753 1.0338628 1.2639099 1.1917455 0.24444003 -0.1412152 -1.184299 1.3141232 -0.71877885 0.5302539 -1.0801052 1.3931468 0.0024464435 0.9107974 -0.24137387 0.3116743 0.43290848 1.0034342 -0.013512231 -0.8879355 0.33458933 1.1267383 -0.15334603 -1.1429144 0.017305495 -0.054663334 -1.6124235 -0.041687008 -0.10892442 -0.6277995 0.29899487 -0.32968625 -1.3068658 0.18669891 -0.63900316 -0.94593364 -0.36632052 -0.56562155 1.2449334 -0.6785915 -0.9193331 -0.052123766 -0.6509473 0.118334584 -1.3378272 0.81134146 -0.42230615 -0.86571366 0.2966952 -0.3212612 -0.54400223 -1.0567222 0.9716589 0.5807956 -0.7381754 0.8808692 0.15665112 -0.21194589 0.9848219 1.3692043 0.6532853 -0.16616254 0.46762222 0.28612003 -0.61952 0.5784468 0.23764417 0.6663965 -0.48986918 -0.10192244 0.67314583 0.4548731 -0.4000375 0.90122634 -0.6753988 -1.0825499 -0.8438326 1.1385697 0.7105542 -0.616656 -0.2810519 -1.1603789 -0.17776904 0.56005985 0.5666944 -0.3622812 0.08604329 -0.09705928 0.09974797 -0.36993238 0.33458844 -0.921367 -0.42316088
道 0.77329296 -0.4613483 0.68673044 0.24967735 0.3267457 0.282812 -0.6540958 0.5026242 -0.79435724 0.51894844 0.27652702 0.4242949 0.76472926 -1.5279636 0.9716949 0.23894341 -0.044193514 -0.69294816 -0.42441732 0.00905336 -0.112311095 -0.508425 0.4273225 0.5663063 -0.014126749 0.058862638 0.34202945 0.919474 0.83321863 -0.01594501 -0.013421188 -0.32437462 0.022020645 -0.8263391 0.26846978 0.03169552 -0.6283901 0.48418823 0.8924977 -0.09871363 0.18059354 1.7561085 -0.8360892 0.4383975 -0.4533242 -0.2581187 -0.4863223 0.0661077 0.94784695 0.532876 0.13707669 -0.69807065 0.52691084 -0.06062481 -0.7285269 0.5850294 0.37226394 0.021233125 -0.27443063 0.056110516 0.17456803 -0.32693446 -0.29209626 -0.43887955 -0.032094024 0.5834911 1.2340283 0.9001005 -0.056284435 -0.3104735 0.5218045 -0.5964612 -0.25010246 -0.38034448 0.18799216 -0.83216953 -0.084948994 -0.6090503 0.60096735 -1.0556728 0.9653043 -0.42526093 0.14515434 -0.75332665 0.2586628 -0.81700456 0.6189253 -0.41284657 -0.73920476 0.01701693 -0.34323686 -0.35205153 -0.12800997 0.3789424 -1.5613252 0.23633164 -0.55563426 -0.44291273 -0.2200837 -0.6342629
焉 1.0138545 -0.7392643 0.64474994 0.75799084 0.11240523 -0.96613353 0.3313765 -0.71779734 0.6562494 -0.4313585 0.020396156 0.49026898 -0.93432057 -0.40700495 1.0098373 -0.037478156 -0.10953083 -2.8725579 1.5192221 0.538044 0.5852474 -0.6055474 1.2834853 -0.5874086 -0.3659846 -0.9587523 -0.64788383 0.1448419 -0.5296628 0.15950547 -0.57367307 1.2099816 0.26554483 -1.5634313 0.7670243 -0.37364888 -0.0034475354 -0.5337576 -0.94052887 -0.842768 0.16184413 0.6284388 -0.35114744 0.16372594 -0.27426854 0.9931247 -0.120865256 -0.16959366 0.78254944 -0.49990037 -1.0142919 -0.3574032 1.0372 0.61772174 0.9301683 1.4803687 -0.44200844 -0.36699855 -0.36022714 -0.55373913 1.2046407 0.1424873 -0.6134706 0.16498819 -0.40709236 0.73424053 0.81298333 -0.012930077 -0.08838998 0.24349535 1.9449313 0.97341746 0.72159433 0.78625506 1.2530693 -0.5794109 1.0167402 1.3281597 -1.2838728 -0.045060717 0.9217809 -1.0429815 0.9748768 0.006032924 0.4702664 -0.33226848 -0.45038238 0.57716376 -0.45829824 1.1975981 -0.08141057 1.1323359 0.21437939 0.60819113 -0.7408855 -0.5818355 1.5313997 0.902887 0.013502008 -0.99677664
行 0.966947 0.8807862 0.1804148 1.7362064 -0.8348662 -0.77242196 -0.3283546 0.04243086 1.0076791 0.023994925 0.13380912 0.15890943 -0.55957335 0.24199274 0.8779842 -0.025971083 -0.24572298 -1.5519364 0.99809086 0.64327645 0.2546371 -1.069117 0.1312299 1.2238977 -0.5913437 -0.604135 0.15386601 0.37865975 -0.04092994 0.1564438 1.2647843 1.503817 0.5430814 -0.9614627 0.12604643 -0.26237422 -0.2845821 -1.3279107 0.28319827 -0.55478966 -0.18914802 1.4807465 -0.026187543 0.24141914 0.6305178 0.12819491 -0.9682203 -0.82328135 0.23594807 -0.58261377 -1.1082814 -0.5333484 0.92667174 0.1934991 0.24528508 1.9008856 -0.40859997 -0.573081 -1.3879955 -0.37369633 1.5231235 0.056408525 0.6106664 1.9974256 -0.8701698 0.7844849 -1.2888452 -0.2408231 0.68111926 -0.8656018 0.87702185 0.8934021 0.886811 0.5731056 0.38452196 -0.4794359 0.26148373 1.818034 -0.51272815 0.3979748 -0.72220725 -0.5505466 1.3096142 -0.7268717 -0.013165661 -0.55159944 -1.400889 -0.22564323 -0.6492186 0.3517274 0.37023124 1.0330725 -0.2709329 0.86180764 -1.0384411 0.064367816 0.7399725 1.483564 -2.855092 0.57759285
谓 -0.4111028 -0.2767098 0.61222297 0.78670573 0.2781171 -0.36029375 -0.18360305 -0.5773787 0.026684579 -0.7808536 -1.0408913 0.58509946 -0.81230175 -1.1693267 -0.8962422 0.7857263 -0.38135397 -0.58654284 0.24786359 -0.28646857 -0.8494939 -0.15867628 -0.054858226 0.999372 -0.1574105 0.0008753016 1.4692423 0.8458253 0.49679518 0.7532343 0.40852156 0.7827366 0.48917356 -1.5250137 0.115279675 0.49570426 0.5784792 -1.8474029 -0.07249135 -0.0060819727 -1.1512175 1.6383482 -0.48635343 0.20850685 -0.4764914 -0.9205722 0.05364444 -0.34652978 -0.4962116 0.41308394 0.022495989 -0.46424422 0.19251385 -0.55765265 0.044350076 1.3839682 0.8690974 -0.4544088 -0.81683236 0.29340693 1.0266877 0.27436814 -0.17258179 0.39082557 -0.3050914 0.48334354 0.238865 0.20609818 -0.2049865 -0.85292035 0.3126984 0.45543808 0.3327695 1.2081788 0.44350377 -0.7916543 0.9883326 1.1727724 -0.6960073 0.40886652 -1.4306047 -0.7231932 0.5538414 -0.5176856 0.71685416 -0.32002795 -0.3921107 -1.1326774 -0.637554 0.7035782 0.44737044 1.380398 0.2406689 0.03908457 0.31210747 -0.75787234 0.78889257 -0.6469419 -1.1666083 -0.19139923
必 0.3569554 0.59418833 -0.23632312 -0.7082935 0.007054893 -0.5750515 -0.02823378 0.54642797 -0.46676004 0.33029562 0.64836925 -0.19488192 -0.46218818 0.3119609 0.7852275 0.13934135 -0.117310636 -0.72740704 0.35353777 1.05689 0.24675226 -0.922193 -0.4254643 0.8360969 -0.34839106 -0.0991172 -0.76910245 0.119330995 0.7647284 -0.52780545 0.43849996 -0.42428374 0.6284968 -0.7237095 1.0295862 0.66127443 -0.118541755 -0.6226198 -0.5459149 -0.52518785 0.52088183 1.271098 -0.30952528 0.37219876 -0.17829435 -0.1938238 -0.66056734 -0.18899548 0.28440216 0.045132946 -0.1490571 -0.7842488 0.8550094 -0.306866 0.53775185 1.4962461 0.12600453 -0.21226 -0.09036263 -0.78543836 0.44267443 0.4861925 0.4907767 0.9932062 0.32479054 0.14568484 -0.21836686 -0.47419357 0.1425952 0.12284062 1.2353019 0.09789256 0.97877485 0.05208231 -0.9218097 -0.921507 -0.23933975 -0.6813889 -0.15309168 -0.5863851 -0.52777874 0.4278452 1.509703 1.156381 -0.34795955 -0.17648223 -0.4151111 -0.3922848 -0.19841954 -0.713843 -0.2193557 -0.079145975 -0.4576448 0.7499758 -0.76826483 0.682737 0.9191906 0.62605333 -0.37640938 -0.55818605
礼 -0.7409955 0.011356071 -0.5077465 0.11898378 -0.6348081 -1.372227 -0.29659534 0.12812641 0.29597783 -1.0345694 1.0987542 0.087996736 0.38184997 0.19700895 0.34914148 0.8268028 1.0944211 -0.92250764 0.7697034 0.9677714 -0.19421044 -1.6018581 1.3862438 0.79460937 -0.045873396 0.10886149 -0.0818803 -0.43316066 0.60644746 -0.32291642 1.1755314 0.815198 0.16440868 0.8324927 2.0854328 1.303682 -1.2080002 -1.9252872 0.21238457 -0.58974147 0.8103058 1.2498791 -1.1611091 1.3089632 -0.7064616 0.19701816 0.24805817 -0.12165074 -1.08286 -0.8837622 -1.3405582 -0.43879467 0.3675965 0.014631089 0.86275995 0.95869863 0.4675662 0.0934653 1.1079568 0.52131563 0.41857335 0.71552634 0.62233776 1.0112808 0.34734738 -0.35045853 -0.3545178 -0.014076285 0.04581755 -0.48802564 0.4552725 0.48954242 -0.41766143 -0.39346322 -0.56674755 -0.24912375 0.44991174 -0.118199185 0.43659893 -0.8168614 -1.141069 -1.5862217 0.47962734 0.22246149 -0.056196395 -0.8801931 0.4871945 0.2078529 -1.2837416 0.58322644 -0.1087735 -0.24169867 -0.07910984 -0.37884912 0.5744628 0.18581179 0.5918369 0.22052722 -0.46890017 0.24725623
孔 0.38243344 1.1343929 0.49360463 1.0631149 -0.33989602 0.10844721 -0.6584882 1.0827934 0.073423706 -0.6412625 0.69044554 0.10336313 0.13316043 -0.49395436 0.3145085 0.05849432 -0.35576603 -0.85453707 0.8757426 0.9020381 0.34972236 -0.7798928 -0.07092509 1.2296885 -0.7776171 0.003757719 -0.3350817 0.62803763 0.40170667 -0.14273682 1.1241664 0.32850114 0.18296352 -0.8593529 1.0858902 0.25113145 1.0138279 -0.5304093 -0.76325 -0.5329488 -0.247729 0.0524459 -1.0405511 0.50494677 -0.3711053 -0.8741516 0.20922801 -0.88942325 -0.14459433 0.09728974 -0.8315281 -0.9710597 0.7647873 -0.7585073 0.73357815 0.701576 -0.038590666 0.16958715 0.7693272 -0.3561716 -0.19652998 0.3849717 0.4114394 0.9571356 -0.48953238 0.2919203 -0.28951716 0.52378345 0.375333 -0.69439185 0.7999001 1.8358046 0.7639095 0.877544 -0.8023539 -1.9852004 1.0505308 0.5944472 -1.0239887 -0.64382696 -0.08351122 -0.6754989 0.67115146 0.26446375 -0.9620673 -0.41149783 -0.085539274 -0.18522395 0.6105079 -0.30347046 0.55959266 -0.5430019 -0.06621519 1.3308644 -1.3254207 -0.43647292 1.5075794 0.23027168 -0.47238442 -0.14917758
斯 -1.5253727 0.8488247 0.09916622 0.3449106 -0.3578727 -0.27511063 -0.1406929 -0.07453822 -0.5812797 0.13826488 -0.10270755 -0.37253326 0.5725949 0.06366035 0.30974495 0.3010868 0.2417672 0.65464455 1.4722217 0.7398847 0.06861437 0.31271744 -0.8394648 0.5125853 0.04841968 0.044396106 -0.64566696 -0.8819413 -0.22516298 -0.14295202 0.776208 0.20029013 0.1291701 -0.24727596 0.9976335 1.1575006 0.032209273 -0.85319006 -0.201741 0.3890638 0.27199244 0.33027112 -0.8173523 -0.07336178 -0.5048788 -0.21921226 -0.43993574 0.5605453 -0.015277015 -0.077832356 -0.57464087 -0.6844893 0.12062266 -0.24987197 -0.017451448 1.1907876 0.3411357 0.031931 -0.11885944 0.3886096 0.7917908 0.84430516 0.5146759 0.9195241 0.10918065 0.46060073 -0.590605 0.051326856 0.01182813 0.075169064 0.039423108 0.10732821 -0.006723205 1.2504565 -0.48316368 -0.025117803 0.8758252 0.75029796 -0.18909231 -0.7856786 -0.890845 0.095967375 0.32018223 0.2134297 0.22914542 -0.5147109 -0.46715084 0.31741488 -0.2515664 -0.10291422 0.3687099 -0.3909423 -0.46294034 0.8036665 -0.37183505 -0.05798498 0.120211706 0.37167603 -0.6328207 0.15815571
三 0.39760682 1.7338207 0.80923945 0.37500584 0.51210904 0.7302278 0.750475 1.9332055 -0.6989898 0.86909586 -0.12281007 0.0030250307 0.3886266 -0.76602054 -0.32187212 0.6356463 -1.1712132 0.5534785 0.12394308 0.5994998 -0.09629267 0.54728055 -1.6422459 2.3937283 -1.4410535 0.29634902 -1.1296915 -0.103826605 0.762287 -0.59513366 0.7502334 -0.12213611 -0.28681678 -1.2563303 0.38356447 0.31433183 0.117012605 0.8193023 -0.4823041 -0.13153234 -0.15596803 1.906246 -1.4698886 0.14370674 -0.017289236 -0.14319691 -0.872024 1.8323814 -1.6143346 0.60870486 0.6983524 -0.40212005 0.408858 -0.23128852 -1.2065285 0.6412897 1.4961663 0.7650503 -0.500024 1.3168392 0.5132641 0.6150216 -0.048603147 0.12608089 -0.74403757 1.1318922 -0.41296175 0.064289905 0.31588823 -0.18471992 0.34993845 -0.33149847 0.48657992 1.2175941 -1.1323388 -0.24329007 0.7359426 -0.33656332 -0.41999835 -0.4821571 0.36935818 0.7896801 0.27537423 0.3874773 0.047406614 0.38925526 0.61610395 0.6780465 0.22795446 -0.41052043 0.50121105 -0.044991646 -0.25938132 0.8963469 0.42587617 -0.43900216 -0.44508377 0.20439374 -0.5355297 -0.4163839
能 -0.5279429 0.58747154 -0.86850464 0.5086981 -0.37586173 -0.8861962 0.23720169 0.789642 -0.25749642 -0.882744 0.36459565 -1.3384997 0.3654766 -0.9456003 -0.10761992 0.79278827 -0.23194006 -0.26022372 1.2430829 1.281473 -0.70680946 -1.15405 -0.96746844 1.0069381 -0.09813779 1.062204 -1.3858523 -0.03781453 0.23084074 -0.55134016 0.10804305 -0.68138534 -0.7949437 1.1024863 0.88776463 0.67838824 -0.823471 0.8611905 -0.73936665 -0.48845538 0.5788247 0.99670106 -0.90795416 -0.06714987 -0.81834865 -0.61894816 -0.25513902 0.8453477 -0.36966515 -0.33182758 -0.3650843 0.7923097 0.71011996 0.3717238 0.42305264 1.3287976 0.02637257 0.95742565 0.77066255 0.7228932 0.78764546 1.3772401 1.5122262 1.2123846 -0.1337206 1.153188 -0.8431188 -0.2863398 -0.022939399 1.025971 0.5418324 -0.48565206 -0.8345945 0.17720942 -0.5044718 -0.24284258 0.3077418 -0.40429106 0.12441286 -1.5207506 -0.7894269 1.365002 1.1404362 0.018223248 0.26633447 -0.5004378 0.49431998 -0.28458974 -0.39924043 0.4845722 -0.22758488 0.14253514 0.50632954 0.6761472 0.8859786 0.03279134 0.11929283 -0.7821833 -0.32836273 -0.63103706
见 0.13103452 1.5739864 -0.22499095 -0.31572095 0.9331493 0.17703174 -0.70769846 0.7283715 -0.54867274 0.6242227 0.9642163 -0.5997878 0.89397943 -0.91342884 0.43478376 1.7179742 -1.0570171 -0.23401383 -0.44521284 0.50553936 -0.16386949 -0.2875357 -0.35262534 0.52417177 -0.7184104 0.018516127 -0.6821794 -0.86888 -0.25499317 -0.85357946 0.08181863 -1.26436 -0.9081304 -0.5169939 0.6389696 0.021293882 -0.6176855 -0.085139036 -1.2127211 -0.68998784 -1.2142578 0.025991006 -1.2598817 1.2816073 -1.1424776 0.7117948 -0.21184829 -0.06239842 -0.86739665 -0.2286894 -0.43265265 0.3961475 0.013717032 0.6328798 1.3026918 1.4539362 0.22511433 -0.31877902 0.4166804 0.08505071 1.1862675 0.18062992 0.35838538 -0.38458434 -0.14259423 0.24750854 -0.02843561 -0.49779955 -0.70357585 -0.49643746 0.4754557 0.35549536 -0.20591597 1.1386746 -1.2270207 -0.70921606 0.35628575 -1.2095307 -0.45502734 -0.40162382 -0.72507536 0.34242833 0.85949665 0.25977015 0.8193717 0.712746 -0.13789488 -0.04382351 0.45454755 -0.5171483 -0.19285522 -0.08547612 0.5511655 0.4912788 1.0299059 -0.7898519 -0.15400852 0.13848644 0.26296976 -0.29250348
学 -1.5028387 -0.3546387 0.2900104 1.2705251 -0.7327924 0.71559685 0.4893868 -0.025150942 -1.2597764 -0.53382957 -0.12373173 -0.09865483 -0.06893461 -0.45138013 -0.09621552 0.056903474 -0.2115181 0.63877773 0.00756472 -0.39332807 0.8270464 -1.632443 0.16662908 1.2879368 -0.41551295 0.41687292 -1.1508877 -0.8170288 -0.31117523 -1.2812076 -0.89557564 -0.75988704 -1.5426635 0.18503931 1.4364951 -0.8015118 0.19532149 0.014041723 -0.12589274 -0.52210575 0.68884534 -0.2698167 -1.1965765 0.83713496 -0.19907469 -0.30018783 1.172296 0.06336083 -0.6576079 0.82127035 -0.4478388 0.33346316 -0.06349318 0.8756686 -0.06303744 0.25474423 -0.5513299 -0.30983892 1.4683162 0.09576071 0.49179575 0.23538229 -1.761151 -0.6837887 -0.67996573 -0.07177443 -1.614432 -0.70312035 1.4127704 0.25892636 0.19849712 1.3599689 -0.049946148 0.06725159 0.41238618 -1.2781693 1.1609011 0.33239752 0.07286423 -0.7660241 -0.5612176 -0.85183847 0.22837272 -0.9328081 0.3610976 -1.0662038 0.61014825 0.6660555 0.08464892 -0.03744263 0.76581764 -0.31332898 -0.18202816 -0.045367837 1.0396333 -0.0131479325 0.3495565 -0.5122674 0.56795186 -0.14357276
事 -0.79297405 0.3126917 -0.09882829 0.4582253 0.43134463 0.742128 0.50495493 -0.30834395 -0.29264852 -0.3667207 -0.9511146 -0.057116278 0.26685873 -0.1604354 0.16061454 0.036852673 -0.42390504 -0.97247595 -0.1548797 0.4942231 -0.2895769 0.16326593 -0.5857082 0.9034661 -0.5179594 -0.2678878 -0.49901715 -0.747886 -0.8674876 0.016501488 -0.15913957 -1.124252 -0.54360026 0.34905693 0.44124898 -0.93093145 -0.46219316 0.7190237 -0.28010774 0.09932958 0.21552989 0.397465 -1.0225195 0.30380544 0.0056496076 -0.48921797 0.54975265 -0.2798708 -1.3770708 0.7949395 -0.1939149 0.087020755 0.088202804 0.5488513 -0.27109623 -0.6002169 -0.0019575858 -0.48728547 0.37771535 0.079280384 0.27811325 0.5185751 -0.15249306 -0.6950126 -0.87479025 -0.068371244 -0.7121366 0.079329915 0.38789356 -0.23245154 -0.24056563 0.116930276 -0.37251946 0.450347 0.7421419 -0.0068637216 -0.0020914476 -1.1105038 0.8350124 -0.56027925 -0.57296026 0.0497259 0.46789753 -0.91869366 -0.9396779 -0.5996133 0.3007385 0.598556 0.08171339 0.38092735 0.09053079 -0.00011576075 0.26666996 -0.73470926 0.6297277 -0.3189153 -0.13771084 0.06713186 0.22896971 -1.1567315
是 0.332646 -0.24865884 -0.31817022 1.7475802 1.2995064 -0.5881656 0.6078688 0.2624606 -0.23940647 0.14833644 -0.17945376 0.17498562 0.10442729 -0.61020887 -0.19846906 0.6526371 0.10076963 -0.66103166 0.49408942 0.12609865 0.0637397 -0.62659174 0.3320763 0.76710796 -0.627324 0.18079782 -0.4031597 -0.53773224 0.5358279 0.3691742 0.092919126 -0.35630777 -0.31199378 -0.4102106 1.1916676 -0.37765568 -0.43603313 0.5182751 -1.1763955 -0.86952454 0.054438468 0.49284968 -0.2434544 0.33735722 -0.088961415 -0.0013298173 0.015548843 -0.45023748 -1.2299011 0.64268047 -0.60141647 0.03533961 -0.22101305 0.7212482 -0.96982926 0.2994651 0.43444788 0.19001982 -0.5810176 0.12600704 -0.4213801 0.3768027 -0.09496134 -0.095279485 0.06670388 -0.65064216 -0.9972491 0.8259491 0.23240477 -0.7604209 -0.65580785 -0.5625957 -0.17646427 0.07958054 0.35990465 -0.5843044 -1.0753646 -0.2828786 0.37157926 -0.31094435 0.30777276 -0.3819018 0.24065293 -0.40169725 -0.17310247 0.22820732 0.6582538 -0.15126424 -0.5584249 -1.0730001 -0.45569038 0.33483097 0.2671536 -0.551897 1.4484237 0.11152365 -0.7637962 1.8224276 0.24850559 -0.33927768
哉 0.6598982 -0.013926248 -0.97864276 1.3081899 1.5096953 0.27988514 0.24515964 -0.65104866 -0.6721452 0.87100756 0.69604546 1.0183171 -0.11291913 -0.21481667 0.39992046 1.6130419 -1.181453 0.18212424 0.87836176 -0.7956152 0.9694553 -0.722847 -0.07475392 1.0110903 -0.3306759 0.39891276 0.39513525 -0.4786645 -0.2309213 0.02594838 -0.27778924 -1.3203143 -0.37104514 -0.27246428 1.4357736 0.18840215 -0.9457366 0.7098451 0.14583917 -1.3585361 0.52603376 0.010173094 -0.30287054 0.98877364 0.5828116 0.35981148 0.30773312 -0.39147264 -2.0645874 1.2113074 -1.1546571 0.05401107 -0.19629855 0.98712856 0.02708242 -0.1102189 1.3242496 0.35369813 0.04466886 -0.8204349 0.7747277 0.46936798 0.55338323 -0.79267335 -1.4311367 -0.5029565 -0.9412551 1.5817508 1.2226694 -0.67006516 0.25264013 -0.7985423 -0.6929651 0.7821017 0.94181216 -0.5724783 -0.1511892 -0.51803344 0.4560705 0.7246881 -0.5541538 1.086015 -0.6726761 -0.5454873 0.12813838 -0.062158823 1.3998852 -0.39498547 -0.88717765 -0.7835042 0.14147188 0.6615771 0.30397952 -0.8887373 1.8222501 0.46330553 0.077063926 0.9691053 -1.4302475 -1.1148666
闻 -0.94128317 0.40906417 -0.22795612 0.3087532 -0.45153522 0.9450459 -0.00625686 0.07494201 -1.3310449 0.4976631 -0.74762917 0.611069 -1.2650293 -0.11714321 0.7239581 0.3717245 -0.82189363 -0.15948337 0.23482676 0.5304791 1.6248293 -0.5739838 -0.5849382 0.5836096 0.28120762 0.46060875 0.14451274 -0.11437159 -0.55895793 1.1162932 -0.35410172 -0.84103346 -0.32702675 -0.13100651 -0.28249812 -0.50197625 -0.33882576 1.1989349 0.67493665 -1.2277315 1.232146 -0.04206685 -0.21154232 0.8463021 -0.56040114 -0.14397177 -0.28660032 -0.1414604 -0.8032329 0.58574814 -0.8586997 -0.80317974 0.41642353 0.03180199 0.9259334 -0.14589204 1.0211229 -0.7914758 -0.5209567 -0.6950603 0.5130601 1.6242732 0.90085375 -1.107877 0.48111197 -0.73268163 -0.8517738 0.05037732 0.31210545 0.36082804 -0.085078575 -0.01865797 -1.0480689 0.3726705 1.4396207 0.09402238 0.44748768 -0.07514837 -1.3306043 -0.4951438 -1.1622343 -0.06115605 -0.48084727 0.17320488 -0.42057738 -0.13223273 1.1161857 0.6714157 0.70156354 -0.6900949 0.085090645 0.9897684 -0.9650243 -1.3321673 1.0412832 -0.24034522 0.2878251 -0.09845118 -0.404148 -0.27777973
未 -0.91217095 -1.1826185 -0.48965606 0.51467234 0.0209852 1.8464935 0.32131064 0.7893734 -1.05419 0.16723996 0.84673584 0.50622433 -0.53750145 -0.11130333 0.35192585 -0.17801005 0.24490997 -0.77529544 0.4163797 -1.3005053 1.5841644 0.39393196 0.061693028 0.8589847 -1.1176889 -1.3018178 0.57747865 0.796751 -0.49173832 1.0208493 -0.39707473 0.42990723 -0.3402382 -0.3579979 -0.05538834 0.6487216 -0.5931403 0.8356784 0.041996047 0.76302904 0.4891022 -0.3620636 -0.09873475 0.7341914 -0.25455892 0.36061922 0.82029015 0.8630298 -0.032443002 0.2525606 -0.6211103 -0.024877638 0.5740438 0.5043065 0.9646627 -0.2589933 1.3042333 -0.6855282 -0.015784658 -0.8097547 0.59188 0.5417933 -0.7894553 -0.8573993 -0.80963486 -0.791815 -0.34479025 -0.39144194 1.5018743 -0.33747318 0.27561948 -0.45139667 0.40276504 -0.02059857 0.82484186 -0.573149 0.5319026 -0.62395495 -0.92993087 0.6064644 -2.0967462 -0.8753192 -0.030237263 1.0864196 -0.8928506 0.14067858 0.26726377 -0.69594944 -0.76239324 0.37097266 -0.23683652 0.0019912599 -1.2880734 -0.51890874 2.211041 0.42787018 0.4266657 -1.17262 -0.86836755 0.60836583
公 -1.113136 -0.6712891 -0.056881085 -0.017431485 0.46675712 2.040777 -0.3730583 0.1351398 -1.1335398 -0.36150226 0.3747817 1.4406692 -1.2537044 0.024233807 0.42215654 0.014558531 -0.22685853 -1.1201088 -0.22000742 -0.6437089 0.81722695 0.82617545 0.1459375 1.1319203 -0.5103618 -0.6695779 -0.035635017 0.9795222 -0.5880788 0.70828664 -0.31737053 -0.080953784 0.17321703 0.06505331 -0.04741341 -0.49649727 -0.6979764 0.7682612 0.21491143 -0.6910904 0.8174144 -1.335219 -0.4566743 0.8959536 0.17884642 -0.97229636 -0.37297803 0.3340993 -0.15357736 1.598109 -0.6616012 -0.51908475 0.24285713 -0.43549842 0.5940131 0.74582285 1.8050454 -0.45805052 -0.80042315 -0.3928832 0.5449949 0.57216483 -0.058411997 -1.3229436 -0.58444065 -0.79447335 0.12742652 0.53585184 0.28837755 0.18942928 0.6732518 0.18880978 -0.7286101 -0.58675456 0.5043231 1.3495318 1.2311455 -0.66009057 0.9469974 0.0502126 -0.90579486 -0.092862904 -0.7416793 0.5063295 -0.33120114 0.2597343 -0.048114024 -0.5632224 -0.3054587 -0.3682944 0.12136564 0.6783766 -1.2654412 -1.1214675 1.7142965 1.1486144 0.27334616 -0.28686762 -0.12957181 0.7451336
好 -0.33908468 -0.723471 0.09335499 0.2978848 -0.34459946 0.6812905 0.30263042 -0.35865563 -0.35530812 -0.25423744 -0.07149186 -0.08525675 0.36856148 0.5442676 0.087503515 0.68875617 0.034405738 -0.09143834 -0.3802265 0.10187973 0.5548122 -0.24669507 -0.7584821 0.29576504 -0.5980816 -0.3087921 0.41119522 0.35152885 0.10075824 1.1717514 -0.18296897 -0.015162333 -0.66973114 -0.6676614 0.15485874 -0.017895287 -0.88071233 -0.36709753 -0.22651562 0.070976555 0.28138793 -0.34934634 0.03466949 1.000212 0.6815676 -0.7526586 0.2667818 -0.123159036 0.27080512 0.59461266 -0.9005008 -0.5454466 0.31746942 -0.20067632 0.115851976 -0.11460972 0.6404845 0.0025272986 -1.2178994 -0.27597272 -0.6678592 0.07496677 -0.9024094 7.22405e-05 0.2719142 -0.14062454 -0.43172657 -0.18388893 0.2910247 -0.08978119 0.3528743 0.38116598 0.6502016 0.1950815 0.38162482 -0.07099265 0.5044388 0.5447541 -0.08185272 0.2126087 -0.5215912 -0.27109605 -0.584207 0.12179761 -1.0985361 0.023839096 0.4132397 0.07980921 -0.5438014 -0.53483444 -0.03418583 0.08672238 -0.3871963 -0.763319 0.063611664 0.10760352 -0.5911136 0.37606284 0.22419764 -0.044853214
我 0.14006802 0.22132859 -0.053435035 0.3884724 -0.044616215 1.5524912 0.87791383 0.27547497 -0.4027769 0.43160275 -0.32661825 0.7094411 -0.6376146 0.6118317 0.30415028 1.1353039 0.35361907 -0.34590974 0.92172104 -0.829089 0.09435843 -0.4950672 -0.23981488 0.3093854 -1.8981161 -0.07855105 0.27095464 -0.17124021 -0.44049832 1.5429146 0.12193646 -0.12671982 -0.42773843 -0.3236618 0.29876986 1.1245471 -0.6429218 0.11284682 0.70561075 -1.9937716 1.6243142 0.22398975 0.648709 1.4860735 0.19738357 -0.117462985 0.4049367 -0.9425324 0.815292 0.7195371 -0.99610054 -1.9207426 -0.057230815 -0.9018393 -0.8285801 -1.16483 0.8866528 -0.7154296 -0.6794635 0.5040371 0.2394561 0.4924625 -0.8061606 -0.67681986 -0.19477431 0.7125075 1.78998 1.8261318 0.70045644 0.2949391 0.47204685 0.49246722 0.3267811 0.64601535 0.6097713 0.18478703 -0.13387121 -0.8628654 0.035267267 0.060466085 -1.4160502 0.3825065 -1.0090356 0.22621132 -0.77096677 -0.40019643 0.035319157 -0.27732456 -0.8584278 0.20121509 -0.8740198 1.6022757 -0.93520623 -1.0434111 0.7027861 0.4343677 -1.0640147 0.01652446 0.54313403 0.17064597
路 0.016928438 -0.14248472 0.6294144 0.50201 -0.00080612657 1.9101458 0.13286597 0.72367024 0.11924777 -0.26793277 -0.41158926 -0.6950193 -0.219491 -0.18339129 -0.32796848 0.10495836 -0.11481539 -0.3666454 -0.120368704 0.2882409 -0.16673155 -0.5386032 -0.61203825 0.84618527 -0.45962757 -0.15956396 -0.4786667 0.14399968 -0.50966513 0.32082468 0.2578918 -0.9271512 -0.38269186 0.089217626 -0.4815568 0.025576739 -1.5097022 0.79454064 0.1677773 -0.01374725 0.4226424 -0.25078887 -0.12307027 0.8951962 -0.08968936 -1.0832354 -0.52530026 0.19354965 0.695665 0.9254911 -0.7183993 -1.3130798 0.33144864 -0.13432392 0.54012567 -0.9222479 1.4415989 0.21229452 -0.9477757 1.1036389 -0.084424 0.93659985 -0.3542742 -1.1301342 -0.15843846 -0.14993687 0.081266016 1.6064765 0.09314536 -0.30286166 0.11440691 -1.1029606 -0.05477114 0.43743983 0.9569013 -0.21498002 0.52436376 -0.62147886 0.37969387 -0.31013256 -0.6626194 0.15034395 -0.8290672 -0.5499441 -1.2948366 -0.70765597 0.5065198 -0.47871208 -0.4352188 -0.05141538 0.009137883 -0.15476188 -0.8916192 -0.4205869 1.333783 0.39787328 -0.77584386 0.7586936 0.6912055 1.4503976
在 -0.3361825 -0.36377624 -0.1441153 -0.14847659 -0.28011453 1.2083278 0.09965214 0.45927364 -0.098234266 -0.16875888 0.6741834 0.24152884 -0.2526972 -0.8554097 0.25967672 0.60371965 0.010852375 0.18545327 -0.28070372 -0.088826835 0.033642028 0.06629321 -0.50188994 0.20558885 0.23429494 -0.513396 -0.14951573 0.58837223 0.45825595 0.37075478 -0.36439887 -0.9143693 0.025465218 0.74306315 -0.34329292 0.035483275 -1.1879169 0.9899445 0.27405 -0.8951211 0.09468345 -0.1293074 0.0077804923 0.46800983 -0.21572937 0.47729617 0.40357712 -0.013409288 0.32894212 0.46302673 -0.075748116 -0.62419534 -0.049341165 -0.27366918 1.3543103 0.3795517 0.88133574 0.20732066 0.009149555 0.6976543 -0.5334898 0.7582827 -0.72899103 -0.96062744 -0.1790558 0.61504203 0.51381266 -0.030788492 -0.28484032 0.013889475 -0.18501686 -0.3666512 -0.89742553 0.049834337 0.39457312 0.11367529 1.3254967 -0.7874175 0.23105977 0.14528516 0.63742346 -0.17971432 0.9423012 -1.12607 1.1057609 -0.48778126 -0.13724536 -0.9117763 -0.92783093 -0.22962667 0.2951522 0.037221406 -0.42933336 -0.31048018 0.87474 0.29089868 -0.4529939 -0.3626748 0.7576023 -0.5347856
已 -0.6415011 -0.260475 0.039774038 -0.8322059 -0.042627618 0.4969905 -0.7129122 0.2689629 -0.48177978 0.5001963 -1.0020384 0.38386288 -0.26839983 -0.7277237 1.4039562 0.28994918 0.75668585 -0.5828382 -0.38189304 0.13708782 0.8279337 0.0011872312 -0.039567407 0.4303704 0.07990857 0.6288524 0.21136603 1.0025771 -0.340705 1.2941025 -0.40644917 -1.3933626 -0.37075353 -0.45553702 -2.368853 -0.9300987 -0.8951815 1.3769245 0.23717451 -0.117484696 0.94595456 -0.3811281 -0.7312031 0.52226335 -0.3704355 -1.1461759 0.29044053 -0.05695476 0.68542826 -0.116839744 0.25075844 -0.7560352 -0.38430846 -2.1227977 1.0497211 0.8607751 0.6618871 0.47241148 -0.055918157 -0.17776346 -1.0020993 0.675525 -0.61555684 -1.1403656 0.8536986 0.3314115 0.7606846 -0.7148352 0.15111367 0.6603499 -0.87452555 -0.08785727 -0.57237524 -0.44564462 0.9946994 -0.0074616848 0.9166148 -0.033393037 0.5910216 -0.11902866 0.28549194 -1.0702832 0.2965838 -0.012188227 0.25042495 -1.4072055 -0.6476505 0.40461755 0.14393283 -0.07718061 0.26949197 0.09934778 -0.89895105 -0.5551602 0.28726208 0.31296924 -0.05200375 -0.29600048 0.6674638 -0.78944
得 -0.49572143 0.83541346 -0.71554875 -0.51241606 -0.31409633 0.5992686 1.0336618 0.49763852 -0.19877842 0.8607123 -1.1616913 -0.19096372 -0.5326884 -0.05767523 -0.022458225 0.7373674 0.25875404 0.5743007 0.3075776 0.48199773 -0.18234827 -0.33859718 -0.86719793 0.34903216 -0.18098623 -0.39212996 -0.19027525 -1.0076878 -0.3097754 0.815009 -0.25361168 -0.28319052 -0.48224953 -0.92130345 -0.15351136 -0.67860657 -0.8896065 -0.017512722 -0.3810382 0.90573627 0.24974005 -1.1401837 0.35141516 0.48575234 -1.0481325 -0.22130121 -0.10718222 0.45665774 0.3787923 -0.3138159 -0.51572895 -1.6969558 0.1496973 -0.46921512 0.039851572 -0.28137633 1.4965622 -0.6036841 -0.5369155 0.1444235 -0.8993564 1.2842215 -1.0310949 -0.13169822 0.85700834 0.27983516 0.08791102 1.4639106 -0.27670226 -0.26014116 0.28722158 0.78382826 -0.71577984 1.3561293 0.8086617 -0.28503552 0.6230576 -0.049465038 0.07277352 0.046603188 0.8370782 -0.5868613 -0.84126675 -0.46816117 -0.24212286 -1.4034014 -0.37993553 1.176965 0.16146903 0.11020059 -0.78587604 0.33243343 1.0444447 -0.35544655 -0.52551275 -0.20374066 -0.4052169 0.5981158 0.67788815 -0.3439761
所 0.5035908 1.029968 0.037425175 -0.6552774 -0.53274745 1.550097 1.2389858 1.6083208 0.078327335 0.23906046 -0.006745799 -0.74757797 -0.13079356 0.4621654 0.12977941 0.47470883 0.3679688 0.0499473 1.1182407 1.4046634 -0.55177027 -0.37612256 -0.95046914 -0.09965033 -0.35843152 -0.08243391 -0.86464053 0.08496507 -0.023386545 1.6719247 1.1673807 -0.32160726 -0.09004064 -0.8476728 -0.061966576 1.1110072 -0.9438373 -0.9223009 0.7908142 -2.6370835 0.61154467 0.20561877 0.36834222 1.0702175 -0.50748503 3.2591266e-05 -1.1010417 -0.27738234 0.07658421 0.10340563 -1.0842462 -1.5255216 0.3740514 -1.3654596 0.7639415 -0.06233182 1.2523621 -0.607403 -1.0787327 0.6128392 -0.39536417 1.7811325 -0.38223603 0.30860677 -0.36982992 -0.37273142 -0.8313935 1.0548321 0.21958344 0.0014850681 0.22542715 -0.37753883 -0.19126034 0.68805224 0.47178218 -0.39314786 0.38141444 -0.12547801 -0.5317068 -0.9002575 -1.1897084 0.052357577 -0.6422534 0.041287072 -1.4078275 -0.4056241 0.50141877 -0.5249085 0.10753303 -0.32095513 -1.3965173 -0.67976654 -0.68301797 -0.78261507 0.45641512 -0.36574712 -0.4151478 -0.8926501 -0.18880731 0.9923927
民 0.4111996 0.49379906 -0.08766929 -0.2298739 -0.027397452 1.5058386 1.3675632 1.1754272 0.0976308 -1.4624852 0.13843386 -0.2778954 -0.94662315 -1.2499186 0.7338821 -0.38758722 0.043951064 -1.3371737 0.74787915 1.4939965 0.10829211 -0.3516678 -0.14165582 -0.23784731 0.5401581 -1.0984827 -0.4400955 0.6461761 0.6273398 0.69208765 -0.030605009 -0.88254213 0.4500373 -0.8189287 0.016245442 0.6572662 -0.9351338 0.6223883 -0.4461391 -1.7245487 0.84121615 -0.14979744 0.17608261 0.69701254 -0.3330543 0.6683391 0.113851294 -0.15982608 0.5294081 0.59718555 -0.9840449 -0.7628095 0.6538584 -0.47633854 1.1255976 -0.8105726 0.5121187 -0.6695316 -0.06959859 0.18865196 0.22695313 1.0598109 -0.18354103 0.33442008 0.017405326 0.8511486 1.3295484 0.8350227 0.06381562 -0.02072356 0.6364087 -0.8643033 -0.05366224 0.9630757 -0.13005571 -0.46978316 -0.4585033 -0.9477114 -0.23784623 -0.80937403 0.3659993 1.1846381 -0.16159254 0.1657184 -0.20050034 0.28121325 -0.22093746 -0.7894685 -0.55576 -0.4399806 -1.1841578 -0.10302429 0.17901316 -0.6419017 0.19574729 0.8530131 -0.51259595 -0.6235682 0.09418586 -0.31755355
小 0.39633828 -0.08687571 0.4631191 -0.011512491 -0.28108418 0.5940621 0.5034067 0.69463205 -1.0436193 0.005471708 -0.38343766 0.08584893 -0.9062552 0.18510775 1.0327666 0.65798885 0.21608762 -0.21444334 -0.07122502 -0.1513381 0.405552 -0.31570137 0.31153172 -0.27751225 -0.6794218 -0.5147541 0.49723065 0.056719683 0.7143228 1.0279279 -0.45732757 0.5578226 0.6804613 -0.5563836 0.26566574 0.8775484 -0.7475448 0.25204065 -0.5268994 -0.79521257 0.39473954 -0.41578475 -0.18415707 1.1274548 0.76457787 -0.14578396 0.085268736 -0.017580444 -0.035308782 -0.035243202 -1.1059728 -0.7480481 0.20566492 0.18035378 0.5341251 -0.33088642 0.9307687 -0.018085033 -0.9828214 -0.09759848 -0.09456391 1.2584052 -0.18793808 -0.94489557 -0.7811534 -0.047448844 -0.49911273 0.68980205 -0.034169726 0.46083158 -0.23589183 -0.59953713 0.18541108 0.1842668 0.146814 0.058893725 0.50346565 -0.44706133 -0.21915343 0.116629496 0.21655412 -0.32327676 -0.1075853 0.39208502 0.11595608 0.33463842 -0.4099284 -0.9444407 -0.21619955 -0.09758944 0.45707196 0.5957983 -1.0165066 -0.87101805 0.68630946 0.31646326 0.041386966 -0.50776714 -0.21551621 0.15266588
天 -0.4263538 -2.4346948 -0.21518303 -0.28351724 1.1401806 1.5873759 1.4509408 -0.11858594 -0.3817406 -0.88027287 -0.51559824 0.32237053 -0.2790798 -1.0657569 0.96935487 -0.038679745 -0.8530089 -0.97769386 0.875626 0.49786395 1.5635473 -0.14634484 0.8528726 0.23737562 -0.17539711 0.0022858419 -0.4980171 0.27694893 1.5434355 0.22071363 -1.3767583 -0.47569758 0.82572633 -2.0456264 -0.0052331774 0.36262226 -0.17151201 1.1282592 -0.6244805 -1.1528366 1.1639374 0.41974762 -0.61134416 1.2635823 1.1025951 0.33482343 0.103578255 0.25570315 -0.06516926 0.3337147 -1.7383112 -0.3629365 0.38728234 0.55353475 1.6320348 -0.37596413 1.4549346 0.79390574 1.2411948 -1.5340947 1.1213704 0.5472806 -0.37515634 -0.028296553 -0.14040212 -0.21665992 0.47874713 -0.66478467 1.4712237 1.4383507 0.41109356 0.5130196 0.5326749 0.2279025 0.95692384 -1.0357915 -0.25138867 -0.035982188 -0.9935709 -0.5522884 0.6971411 -0.24585874 0.29076403 0.3523489 0.17074051 0.033216786 0.79141545 0.627721 -0.886699 -1.1318635 -0.5444264 -1.1175671 -0.3738353 -0.41945794 1.4295268 0.8596593 -0.09728854 -0.731556 0.09871651 -1.4035378
乐 -0.13349444 -0.8131001 -0.7513968 0.69060874 0.315339 1.257442 -0.64164704 0.17644763 -1.4003179 1.2173245 0.5565828 1.4881341 -0.29690596 0.56079364 0.66836643 0.34645647 0.2639014 -1.1089067 -0.30732384 -0.57755685 1.2964965 -0.1820618 -0.24770188 1.0161679 -0.70681536 -0.6685193 0.046960723 0.26501462 -0.63281405 1.3572667 -0.2538833 0.2665821 -0.07914866 -0.2171166 -0.41381395 0.06568028 -0.08001125 -0.36330697 -0.42102608 -0.10248846 1.4464935 -0.59810644 -0.5064909 0.38158345 0.12189233 -0.5129381 0.680196 1.0625603 -0.48455858 0.5275758 -0.82851183 -0.25738466 -0.04679883 0.2518892 -0.33089104 -0.15144591 1.1511594 -0.4498563 -0.34119025 -0.12264052 0.57830393 0.75480026 -0.87633103 -0.18926847 0.40924698 -0.45606524 -0.88202643 0.47452998 1.1427877 0.27389714 0.14106216 0.08919138 -0.22668713 -0.10884089 0.19167182 -0.3927953 0.023348946 0.37941527 -0.78471094 -0.6454841 -1.1353195 -0.3734246 -0.1089769 0.78737104 -0.23328927 0.41914734 0.026203118 -0.11140573 0.13846967 0.38402036 -0.65119165 0.69334835 -0.44738817 -1.8493755 1.3776093 0.95835376 -0.3096563 -0.78303146 -0.7172956 0.094200514
邦 0.056775883 0.094251685 -0.20374386 0.45379406 0.4082138 1.5863943 -0.06963794 0.80911374 -1.5120065 -0.61016124 0.058716573 -0.7546326 -0.50375634 0.2592616 0.23469403 0.47334832 0.20851098 -1.0023222 -0.4443833 -0.6478201 0.27207255 -0.2968698 -0.3688603 0.86046046 -0.79782856 -0.5796371 -0.06656103 0.8269293 -0.76722217 1.1396163 0.217147 -0.23728156 0.29027486 0.101329125 0.19342256 -0.39851865 -0.028020699 0.32740137 -1.2307798 -0.93681437 0.19767627 -0.06269032 -0.53900564 1.8724833 -0.15896806 0.12329169 0.46786174 0.90009105 -0.7493275 0.85674 -1.6814966 -0.6157098 0.6349851 -0.26195008 0.7239826 0.35989538 0.989234 -0.30303627 -0.1954807 -0.16407308 0.23727265 0.08750996 -0.43446687 -0.6674673 -0.3647614 -0.5888481 -0.5846131 0.5622549 1.2118076 -0.66069925 0.3809191 0.7256816 -0.82540417 0.80593795 -0.23771751 -0.47127897 -0.102702595 0.1769772 -0.26558837 -0.81842804 -1.2169752 0.6590695 -0.24145262 -0.033753946 0.3862413 0.6135332 0.5135869 -0.76356876 -1.0058933 0.115343474 0.13396974 -0.2209654 0.14586303 -1.3229325 1.9857198 0.068339065 0.4484738 -0.10945495 -0.08606755 -0.2772952
亦 -1.0448142 -0.6732953 -0.30784383 0.9862233 0.07307582 1.3501114 -0.0144091 0.51418084 -0.81654555 0.34330726 0.6693413 0.850707 0.046481896 -0.26216766 0.5739204 0.6136744 0.5610447 -0.33884245 -1.13258 -0.2925305 0.9880966 0.82976705 0.2998356 0.7159765 -1.0735509 -0.63104147 -0.035933338 1.3454665 0.20096634 1.4150199 -0.43599865 -0.024694722 0.031245565 0.37797597 -1.4577496 -0.47572675 -0.8878354 1.5400431 -0.44809094 0.1578151 1.2822533 -0.9054514 -0.98246187 0.6912839 0.78912914 -1.1480922 0.1436733 0.62490505 0.4400729 0.7697935 -0.6315495 -0.9719859 -0.0881603 0.28564852 0.24355562 0.47302142 1.6452345 -0.10544611 0.32524472 -0.8457427 -0.22869569 0.544992 -1.3998971 -2.4318752 -0.88017917 0.22236413 -0.60089225 0.17678739 0.42131624 0.96106803 -0.29997435 -0.15151717 -1.1908962 -0.62099904 0.4889007 -1.3242079 1.4350821 0.021853607 0.21503253 0.122531734 -0.4907025 0.014641544 -0.23777191 0.3175636 0.34092087 0.049240846 1.0044341 -0.98107487 -0.70085025 -0.4915604 0.5359126 0.67300516 -0.964384 -1.2700129 1.0737859 0.81619006 0.2272251 -0.44772282 0.38390547 0.05216987
使 0.78595626 0.46745902 0.089400396 -0.38932768 -0.17889664 0.37636355 -0.34268647 0.62961364 -0.6124887 0.5032464 -0.35538816 1.8208921 -0.13615958 0.26246578 0.45851827 0.7827489 -0.14444494 -0.046799634 -0.64569765 -0.6411462 1.8517053 0.5148829 -0.3959588 0.026799725 -0.9684111 0.9611995 0.6864708 0.32599056 0.434765 -0.3008476 -0.69727135 1.0490957 -0.3452342 -0.6278914 0.61745954 0.4580893 -0.19594353 1.8056657 0.19924247 1.305574 1.5527431 -0.090439536 0.3489675 0.9661989 1.0203074 -0.85641575 -0.537405 0.2389358 -0.09294146 1.1628735 -0.07641873 -1.9780707 0.37682235 -1.5267477 0.31962866 0.7535716 1.2164545 0.5354217 -0.26726097 -0.7780789 -1.1796306 1.0684327 -0.38022354 -1.602537 -0.56402946 0.23246811 0.969716 0.5444037 0.82346356 0.025083287 0.5530508 -0.05266403 -1.7932214 -1.4000059 1.1330187 0.9979163 1.656204 -0.30320954 0.85839957 -0.25000417 -0.1684822 0.11375827 -0.68064445 1.4453527 0.12485028 0.6409476 0.12731734 -0.43310735 -0.1329508 -1.1316702 0.6715767 0.09335137 -1.3910722 0.27577007 0.95200336 1.0061398 -0.077901214 -0.08744199 0.23862332 0.5501777
大 0.43458632 0.16483791 0.87080264 0.7350194 -0.69666475 -0.04094345 -0.9801964 0.12034149 -1.2925307 1.1691729 -1.2807914 1.0936472 0.50892705 0.6870892 0.9294503 0.018467907 0.48713925 -1.3836675 -1.4877409 -0.37042004 2.5266168 -0.27731222 0.9619384 -0.09504008 -1.3791802 0.7818332 0.6311813 0.16066761 -0.9672599 0.08981437 0.09543949 -0.1347598 -0.1991151 -0.03374799 0.3094523 -1.0975636 -0.55751836 -1.7070653 0.11702843 0.8565412 0.905548 -0.53937775 0.25532168 1.280015 0.556144 -1.1618634 1.4996542 0.7509522 0.6151245 1.0504317 -0.06034056 -1.1445022 -0.8446727 1.3903726 -0.4336811 0.11399261 0.6418888 -0.39529496 0.053210244 -0.8055189 -0.9538094 0.30841166 -0.6496248 -0.67249435 -0.71362555 -1.2273488 -0.6846452 0.58706945 1.5301872 1.151795 -0.6329367 0.28850925 -1.496086 -1.5906824 1.1391582 -0.8824467 -0.15395975 0.26808146 0.63290954 0.56780183 -0.67671376 0.03327681 -0.06511907 0.25501034 -0.8143268 -0.20042281 0.8124314 0.45430627 -0.40715882 -0.25422072 0.9619582 0.04043893 0.7900553 -1.2079052 1.0646504 0.43950793 -0.07510824 0.67747414 -0.25012013 0.7449785
下 -0.0067956275 0.8160879 0.7574231 1.0689164 0.19605693 0.4185895 0.36677256 0.47065443 -0.31602255 -0.5030604 -1.2256805 0.28479427 1.2836914 0.48897237 1.0176059 -0.3022013 -1.0174985 -2.4767106 -0.13321394 -0.06660269 1.1900367 -0.20396528 0.28409848 -0.27318412 -1.3267045 -0.37245402 0.19981067 -0.35386446 -0.7918468 -0.077845074 0.7577161 1.3942686 0.50016874 0.92565876 -0.18763037 -0.21593897 -0.5407399 -0.46962315 1.0728914 1.1996812 0.73376936 1.1592805 -0.18383192 0.48319483 0.9632233 -2.1844578 0.8834803 0.330987 -0.24535282 1.0234758 -0.466636 -0.29469213 -0.90298384 0.80537444 2.5090208 0.7603383 -0.33516935 -0.28841183 0.9876607 -0.4127385 0.9064183 1.3651797 -0.8224182 0.3102853 -0.691577 -0.21481195 -1.3323414 1.1708481 1.2901014 0.39891073 -0.09335521 0.4427134 -0.7210144 -0.223962 0.7408961 -0.36416364 -0.2135169 -0.15882696 1.0349903 -0.62322867 0.3133922 -0.039655685 0.79553246 0.31817064 0.43653557 -0.8137997 0.3715507 0.65291667 -0.82872003 -0.11661542 1.3974221 1.0523344 -0.75244105 -0.3510948 0.58405524 0.97733045 1.8631086 -0.9663945 0.023661444 0.13823996
贡 0.60800385 1.2413521 1.0720761 0.4766714 0.43083942 0.33312607 0.09765332 -0.06683582 0.20435947 1.6583428 -0.44238538 0.32022274 1.5748783 -0.37604773 0.47215283 0.4926285 -0.9781074 -1.220393 -0.0022693316 -0.27345717 1.0036814 0.06140047 -0.34214425 -0.13222778 -1.2484715 -0.29915407 -0.992854 0.8267245 -1.0806465 -0.23944364 -0.11114031 0.112075575 0.09424291 1.1970588 -0.39141977 -0.6014711 -0.66094697 0.35020813 0.33103105 0.32768103 0.25915188 -0.23589458 -0.25890124 1.0218474 -0.24758002 -1.0876375 0.46661484 0.30429223 0.034956265 0.6495733 -0.275883 0.15011467 0.2159751 0.9571746 0.38950142 0.56329876 -0.251322 -0.37927306 0.25622278 0.7863902 0.72380817 0.46751556 -0.08205231 -1.4324915 0.012551271 -0.25840038 -0.278009 0.99815565 0.23647434 -0.7435243 -0.23614185 0.53073555 -0.6995356 -0.6117773 1.3689862 -0.86610466 0.82109594 0.44516295 0.50870883 0.07902021 -0.15621532 -0.080015756 -0.086046964 -0.7551923 -0.39043957 -0.24351427 0.9210667 0.5552554 0.33472484 -0.39742735 0.74872285 1.2205962 -1.2512342 0.23282686 0.6289546 0.54276377 0.78799665 0.122711286 0.219566 -0.56660587
欲 -1.662065 -0.54699683 1.592522 -0.2515423 0.36952743 0.69739604 0.56276107 0.5304727 0.010013539 -0.11581295 0.17594312 -0.5256853 -0.4921748 0.5543738 0.23620813 0.13386324 -1.5015275 -0.35968283 -0.05151674 0.34740418 0.6201444 1.662176 1.4275526 -0.13351578 0.02987176 -1.2572018 0.4766286 0.44021806 1.2704197 0.7206297 0.16436264 0.8579142 -0.2042302 -0.18869765 0.1676485 0.5867784 -0.6367726 0.35620728 -1.0218906 1.267411 0.9226952 -0.24542302 -0.2379325 0.0033131337 0.06967809 -0.67864704 0.969709 -0.27235958 0.6155002 0.017637266 -0.091859795 -0.59716594 0.13566552 0.45413813 0.87491643 0.15130381 0.39244586 -0.857787 0.58523446 0.30451173 0.107217446 1.049352 -0.12637013 -0.62647057 -0.17838223 -0.13163194 0.015830789 -0.61977744 0.56992656 0.31883222 0.47655824 -0.60512966 0.18830927 0.41277465 0.933114 -0.39252797 -0.0940825 -1.757732 0.2187073 -0.46283445 -0.190449 -0.5694377 0.8882588 -0.120706394 -0.94978493 -0.33048123 -0.4949246 0.54706484 -0.45171508 0.3438889 -0.43119395 0.46415108 -1.2240552 -0.7107904 -0.07181482 0.24335442 0.35554692 -0.80001205 0.46384823 -0.2929179
诸 0.3142909 0.9127094 0.6966781 -0.012314542 0.32821682 0.47564334 0.93326735 0.121647194 -0.8222875 1.2693676 -1.2986727 0.11354027 1.1164804 0.19053997 0.59764063 0.57352775 -1.0811372 -1.0381287 -0.3930747 -0.8276276 0.6104824 0.58100003 -0.24257235 -0.1148007 -0.3128671 -0.23303142 0.27443948 -0.56728864 -0.15024346 0.27055445 -0.21568568 0.3801105 -0.069191374 -0.40784022 -0.16132534 -0.6948943 -1.1663023 -0.68666226 -0.87126595 -0.10684691 0.118697494 0.0828347 -0.56108177 0.5565178 0.12369899 -0.2713614 1.2244363 -0.6528346 -0.45486012 0.9717098 -0.5716916 -0.41701812 0.25014314 1.309204 -0.65668553 0.73731947 0.65030694 -0.6848455 -0.41133258 0.11934855 0.76704055 0.45434463 -0.47149047 -1.3634098 -0.47265336 -0.14599824 -0.05922174 0.6985633 0.21858378 -0.049900785 -0.06628684 0.1398461 -0.037959274 0.080338806 1.3884455 -0.7360683 -0.26537624 -0.9509736 0.38231966 0.22047666 -0.87017363 -0.14436288 0.72866344 -0.52831125 0.32148412 -0.062444054 0.31199312 -0.28531027 0.019916927 0.13373247 -0.47794446 0.20902452 -0.29469594 0.28618672 0.5715856 -0.34045082 -0.17251375 -0.2374781 -0.79255694 -0.38258234
从 1.640644 1.3745948 0.18571493 0.24635382 -0.26299834 -0.3226566 -0.44591215 -0.06274892 0.5722318 1.5405064 -1.3492277 0.75498056 1.0730596 0.5855493 0.3994821 0.5859346 -0.31514937 -2.408596 0.38210288 -0.21183957 0.7721614 -0.29064432 0.66701233 -0.24444902 -0.10356084 -0.7491909 0.15597205 -0.303152 -0.6150056 0.59204775 1.0356891 1.8861217 0.27304035 0.2616071 0.40513963 -0.7260948 -0.10719103 -1.6598505 -0.15051064 0.47443578 0.40799588 0.2997761 -0.9508732 -0.23903494 -0.6127053 -0.6340767 0.48990324 0.40841702 -0.0065201814 -0.45074767 -0.882987 -0.5358175 -0.47031018 1.0490203 0.30122888 0.35145536 -0.10795265 -0.67424923 -0.37281612 0.30393434 1.5146196 0.22928926 -0.63881713 0.20037162 -0.8038113 -0.5387022 -1.3302299 0.89729726 -0.03909703 0.5497335 0.3865647 0.47480264 0.7178234 0.9457327 0.42483765 -0.33487457 1.0201019 -0.004302976 0.19975099 -0.26259843 -0.01392255 -1.4292537 0.2963494 0.5093688 0.36138934 0.0080339685 -1.1423061 0.4235293 0.21666956 0.92341477 -0.7296495 0.008313011 0.32546303 0.07342984 -0.5661966 -0.281855 0.77130294 0.069587775 -0.95055324 -0.7165335
文 -0.43634456 1.3504834 0.023404935 -0.21843693 -0.33466014 0.3925584 0.48634738 -0.36086854 -0.19266365 1.2852391 -1.1563442 0.1677639 0.5451114 -0.35418618 0.4647339 0.1332239 -0.42415282 -0.6208815 1.0699203 0.42426687 0.5446181 0.25883102 -0.7788096 0.30065778 -0.62252325 -0.8074182 -0.66703546 0.49487934 -0.66167784 -0.3598237 0.29695582 0.6781919 0.1382203 -0.5764831 -0.24123628 -0.27182686 0.5423073 -0.9240328 -0.062373664 -0.5164656 -0.14230087 0.32681754 -0.79669297 0.5211766 0.3341204 -1.017782 0.13638021 -0.17558554 0.085179456 0.3103808 -0.7393911 0.08145476 0.47328612 0.5174365 0.28781766 1.3473928 -0.17720695 -0.65322363 0.34307945 0.5262825 0.30216718 0.8208395 -0.49030823 0.5774302 0.049592763 -0.19614442 -0.3421016 0.33844453 -0.028712466 0.29137754 -0.5376937 0.52382255 -0.44209433 0.50555307 0.9045436 -0.8686943 0.4453871 0.81137466 0.22220261 0.09309994 -0.4116292 0.29947156 0.7656682 -0.30395767 0.14383076 0.062148474 -0.0012900833 0.16221349 -0.04110135 0.43726656 0.44011223 0.30744672 -0.4897222 -0.2742187 -0.5950868 0.049689315 0.15361422 -0.5514139 -0.30660668 -0.67367405
政 0.103277706 0.25506943 -0.042850044 0.99309665 1.4625119 0.5974515 0.203739 0.70374763 0.26599666 -0.19506769 -0.3846529 0.25491852 -1.218005 0.26017964 0.57583404 1.002903 -1.2140697 -0.07770527 2.7550545 -0.36063123 0.17241201 0.63572395 -0.3233386 0.13417876 -0.038819015 -1.8559076 0.31840765 -0.9931271 -0.36122918 0.4793948 -0.29383504 1.0026301 -0.2077976 -0.19727506 0.31132525 -0.5784331 0.58727944 0.50180185 -0.13970527 -0.13759932 -0.41669148 0.69014966 -0.12550303 0.26623026 -0.7592773 -0.44321424 -0.8114695 0.9272127 -0.07908799 -0.21236776 -1.438922 -0.31543145 0.60566866 -0.3652896 -0.6269602 -0.037325397 -0.24342969 -0.4556641 -1.4233698 0.53961855 1.175843 1.1046239 1.0620575 0.9283838 0.19821092 0.841621 -1.5304787 0.5966202 1.1467077 -1.541879 0.4051239 -0.00995515 0.4121082 1.8299092 0.936481 0.24645235 -0.35226637 0.32587942 0.34759384 -0.9117053 -0.73998475 0.11726423 0.958634 -0.66221154 -0.77612597 -0.6975974 -0.020733714 -0.6073041 0.28183788 -0.15033118 0.19563884 0.8010362 0.22743085 0.6481131 -0.083773255 0.08873639 0.07999503 1.0292206 -0.04478209 -0.8865675
食 0.090065435 1.4261647 0.27547643 0.12985057 0.69221556 -1.27933 0.18191795 0.77026105 0.90104693 1.1676555 -0.91154426 -0.2764046 0.10704648 1.126961 0.11787772 0.51155496 -0.6384916 -0.75550735 -0.53161305 -0.042663634 -0.44243172 0.8082758 -0.643882 0.8624375 0.60485023 0.6290959 -0.11258437 -0.075351134 -0.53054553 0.015184958 -0.9321233 0.67070043 0.7531425 -0.7052247 -0.17328627 -1.5495005 -0.6515186 -0.6560658 -0.6928504 -0.46179578 -0.49361435 1.2720686 -0.37847698 -0.19154255 -0.15355511 -0.91591746 1.034352 -0.13086538 -0.59667176 0.8723314 -0.5353726 -0.6098965 0.28904215 0.547875 -1.3675228 1.2002565 -0.0016758335 -1.219512 -0.040636227 0.33088163 0.6748565 0.12436431 0.01798667 0.25520787 -0.03683542 0.18783131 -0.18708697 0.4304738 -0.4874222 -0.7670197 1.0725235 0.20869882 -0.48946053 0.6890572 1.2118813 -0.05469031 -0.41359776 -0.15998682 1.7098505 0.42079765 -1.0503078 1.0255748 0.43978083 -0.872394 0.57870966 1.1499248 -0.12234888 0.5456766 0.4504728 -0.58504987 -0.50389063 0.2739919 0.23073259 -0.14472748 0.5689329 -0.09397334 0.08009609 0.2882028 -0.5889679 -0.7034647
善 -1.3631234 0.25133383 0.73442954 -0.21258545 0.198997 0.8698172 0.18497716 0.8103875 1.3410157 0.19848947 -1.2609261 0.2673362 0.0097436365 1.0107181 0.79632086 0.766405 -0.31336215 -0.875085 0.046667967 -0.28097644 0.27624035 1.3063422 -1.4047424 0.46923637 0.32114038 -0.45497888 0.5206456 0.20582624 -0.10759315 1.0861163 -0.43202224 1.21283 0.54382414 -0.8757265 -0.9011035 -1.2341198 -0.18839325 -0.16937636 -1.1707329 0.82187545 0.57907146 -0.39896223 0.7499662 0.40931517 0.7871817 -0.14039323 0.08178429 0.681319 1.2295302 0.026723126 -0.08592297 0.4773611 1.9537338 0.14678985 -0.7071188 0.20265914 -1.3018711 -0.05036039 -0.58700085 0.5628167 0.3947688 -0.2914845 0.92631596 -0.19317125 0.33315027 0.87207043 -0.29522055 0.1073827 0.79683906 0.041208886 0.12268582 1.1054558 0.8704611 0.25566706 1.1768113 0.32283595 -0.57685983 0.5595429 0.30340362 0.17093611 0.50298446 0.32390648 -0.36217844 -1.0767533 -0.47000155 -0.74250597 -1.6740847 -0.36349612 -0.1491397 -0.33348462 -0.47326636 -1.5398629 0.26881304 0.8133353 -0.43492404 -1.8494656 -0.27877888 0.3677459 -1.2797611 -0.78117764
后 -0.17474018 -0.9765469 -0.87855834 0.6078961 -0.91932917 0.19464508 0.06807689 0.43244815 0.4699187 0.93016005 0.02259665 0.49760312 -0.021620516 -0.0833236 0.26145408 0.05688355 1.4253832 -0.079352304 1.0383657 -1.1602662 0.45568466 1.0514344 -1.3916095 0.28649834 -0.06677406 -0.06426118 -0.4309054 -0.12828411 -0.53019476 -0.12379305 -0.8526098 0.5770769 -0.39981434 -0.37095177 0.9471873 -0.28092173 -0.49288195 -0.7815907 -0.15853572 -0.69456756 0.33902824 -0.1653546 -0.16540739 0.2897708 1.5383579 -0.33823353 0.69105285 -0.50122637 1.2141616 0.30565822 -0.091420405 -0.63759595 0.0041582966 0.25020573 -0.21341538 1.5859027 0.48650885 -0.1968333 -0.9183906 -0.061051473 -0.7706638 -0.19830456 -0.09652666 -0.593593 0.07151892 1.1148193 -0.8108118 0.929783 0.20387541 -1.4031099 0.19065574 0.18901926 0.9109435 0.38102147 1.1300747 0.13368411 1.4220823 0.43995216 0.2868481 0.7463832 -1.2131017 0.020709367 -0.89521587 -1.7273579 -0.15778288 -0.033248164 -0.116543695 -0.32497713 -0.8196731 0.7108315 -0.41775468 -0.37754065 -0.29127482 1.2635794 -0.29183754 0.27691317 -0.15369554 0.2848352 -0.41884214 -0.5593278
德 0.3795859 -0.48319203 -1.7232507 0.8549194 0.38353008 1.0400773 0.6480558 0.8331943 -0.656474 -0.56078106 0.10509347 0.3630412 -0.24270925 0.34927785 1.5302675 0.4480719 1.714736 -0.6760959 1.182154 0.50637627 0.17515312 0.7709482 -0.26415434 -0.45603973 -1.0276648 -0.5411939 0.56719726 -0.5307473 1.1336651 1.3529012 -0.59878707 0.4995119 -0.4636729 -2.750124 1.7387311 -0.8102341 0.2242106 -0.25322297 -1.363562 -1.2207383 -0.049038414 1.0961025 -0.6435947 1.3432485 0.49549022 -0.8761692 0.34551927 1.0398792 0.5800693 0.7559213 -1.9551018 -0.571451 0.9538517 0.58107984 -1.6603898 -0.15989487 0.23677714 -0.2227711 -2.3927817 -0.10515052 0.24167447 -0.41313884 0.010623656 -0.54972076 1.1365696 0.43254814 -0.25669903 0.7618357 0.8427256 -0.6339014 -0.09734073 -0.21809155 1.0687561 1.5343555 0.26785243 -0.500833 0.7153359 1.0145682 -0.18297417 0.2323415 -0.28706115 0.59673375 -0.4639313 0.20060907 -1.8103194 0.77142805 0.028324217 0.22188663 -1.3432873 -0.3151319 -0.7671426 -0.21222879 -0.54421157 0.4969143 -0.35330802 -0.24015589 -0.43509582 0.8744566 0.36213794 -0.14168115
求 -0.012736528 -1.1214203 -0.21109296 -0.6566403 0.79786617 1.4020133 -1.1663816 -0.77541566 -1.1953577 -0.016902013 0.6160828 0.63696396 -1.2393581 0.47794387 0.21862486 1.2541139 0.33402312 -0.39887497 -0.80800307 -0.9027341 0.18353741 0.7468119 -0.66833586 -0.24669322 -1.4547377 0.5095812 0.94141215 0.60886633 -0.78927624 0.35270265 -0.6881903 -0.4162542 -0.35383528 -0.2128772 0.55559677 -0.23167881 -1.3132552 -0.73324364 0.59555984 -0.7125898 0.5350617 -0.32296816 -0.20581838 1.0164943 0.59101963 -0.98010904 0.75750524 0.5036364 0.745282 0.6940723 -1.0059777 -0.48813966 0.14999022 0.6745885 0.51383704 0.82110137 1.8376216 -1.4614176 0.45445028 -1.0325278 -0.27307892 0.098960124 -0.42940527 -1.9038898 -0.29076004 0.23459876 -0.62232834 -0.5657462 0.53231466 -0.82316345 -0.35534105 1.1130133 0.1724012 0.8296332 0.68631685 -0.66233677 0.81620246 -0.4741958 0.6655479 0.56143326 -0.36324725 -0.23514654 -0.46526927 0.32201883 0.27598223 -0.9885512 0.524728 -0.013690274 -1.5710032 0.15061851 0.7344053 0.25546092 -0.62671775 -0.53563017 -0.6483096 -0.16115806 1.5212145 -0.1272105 0.29909846 0.08241316
对 -0.5314016 -0.64798427 -1.2882767 -0.7683824 -0.10806808 1.0998106 0.0774123 -0.8356474 -1.2534091 -1.1786698 0.94060165 0.98395616 -1.0382818 -0.22128265 0.87403375 1.1296405 0.998903 0.07006135 1.0168699 0.49141356 0.6392106 1.4325289 -0.28198764 0.51312554 -2.1979477 0.34718242 0.42258003 0.28234363 -1.4085363 -0.29964125 -0.18467593 0.39243522 -0.83587986 -0.7548639 1.5260955 0.16133715 -0.59814525 0.2225675 -0.48638713 -1.1109943 1.8911926 -0.21782318 -0.93750036 1.3852519 0.22244905 -0.20760094 0.051059384 0.5244107 0.12838936 0.93279666 -1.1140702 -0.34717026 -0.19521886 0.6890972 -0.46264806 1.3469263 1.0744513 -0.13776898 0.49999797 -0.4134243 0.6993218 -0.056198567 -0.8182797 -1.4675304 -0.61119777 -0.8143623 -1.0617586 -0.63817006 1.8455311 0.109558865 1.4875131 0.34931746 0.11954099 -0.34289065 0.67701715 -0.42555395 0.14315109 0.15217905 0.562274 -1.0575346 -0.9031566 0.5509296 -0.7160119 -0.99213076 -0.52212244 0.043398287 0.15754639 -0.7128279 -0.43663076 0.54504985 -0.34776697 -0.28869548 -0.37765023 -0.07695246 0.50648534 0.5531368 0.43915245 -0.56538135 0.20199817 -0.392583
恶 0.41349527 0.038421094 0.032118972 -0.81198347 0.33335042 1.989836 0.055768657 -1.0449307 -1.4364612 0.23963578 0.07921944 0.6811759 -0.5595766 1.2164834 0.53683823 0.44612262 0.4769194 -0.910857 -0.10546553 -2.28521 0.43660128 1.6760153 0.050400585 -0.17516188 -0.84429705 0.9624349 0.36541104 0.23046254 0.33189374 1.3279226 0.19955282 -0.47251934 -0.6488731 -0.004918468 0.59258825 -1.670852 -0.645466 -0.46536088 -0.6646731 1.5279905 0.81743205 -0.7650115 0.24168901 0.5822581 0.2965532 -0.71293986 1.3167206 0.2838973 0.2903304 0.5290774 -0.2604901 -0.31804705 -0.07750875 1.2728958 -0.83455753 -0.5529103 0.7823381 -0.8996668 -0.9940884 -0.73744833 -0.6148846 -0.62756735 -1.3266985 -1.9574358 1.0754701 0.27128747 1.0151871 -0.77882254 1.3073949 -0.2959582 -1.3064183 0.066304736 0.53179896 0.38318786 0.95943993 -0.506629 -0.80175376 0.45369694 0.71079534 -0.28842136 -0.17736343 -0.32442477 -0.4011495 -0.5478294 -1.4054958 -1.1424366 -0.035282847 0.7571555 -1.0275452 -0.7463505 -1.1640975 -0.10616207 -0.68771005 -1.8264138 0.19540541 0.12642154 0.6742104 0.73784673 1.4694048 -0.5991495
信 0.20168744 0.43341604 -0.8405697 0.24394064 0.92793876 0.886224 -0.17277099 -0.84057266 -1.0760951 0.53770614 0.4059761 -0.22338258 -0.5554951 1.3515276 0.94593084 -0.20139338 1.7934873 -0.053953987 -0.43125972 -1.4855193 0.16804643 0.24690954 -0.5425648 -0.13079257 -0.619793 -0.8994193 0.53649807 -0.19931744 0.41046253 0.6800821 -0.88017327 -0.06394516 -0.14799696 -0.23043832 1.0621865 -0.8162425 -0.85711014 0.11479146 -1.3210958 0.7271593 0.099018924 -1.0026513 -0.00580417 0.33902377 0.022554211 -1.09318 0.5871427 0.8912535 0.8869038 0.35648623 -0.1941989 -0.63730365 0.25894716 -0.43271986 -1.5734652 0.15791076 0.31060815 -0.8034708 -0.5151488 0.6491825 0.2386761 -0.075998105 -1.1278208 -0.46181327 0.7459728 0.6851443 0.7485099 -0.10623479 1.7447704 -1.2598459 0.5691696 -1.1855494 1.3658434 1.0109404 1.2082076 -1.7576702 -0.5684981 -0.1950943 0.08347142 0.44789356 -0.31413865 -0.93919206 -0.64295715 -1.1220973 0.11087228 -0.38551363 -0.0369557 -0.53287685 -0.76108396 -0.8189555 -2.110436 0.3217678 0.44049934 0.13739528 0.37079182 0.23659725 -0.29688007 1.4653108 1.0241582 -1.3395431
死 0.18485302 -0.76348686 0.29388902 0.4461783 -0.018405432 0.8020235 -0.18411541 0.41841224 -1.4035791 0.5702686 0.30118993 0.89436394 -0.9443192 1.6926018 0.21887101 0.70299387 0.7494198 -1.155693 0.056920536 -1.0221446 -0.32936803 0.3258221 0.70601344 -0.6136265 -0.029456768 0.15795358 0.42079464 1.2198222 -0.22395587 1.2038115 -0.6106965 -0.07593886 -1.3057427 0.25712866 1.8057232 0.5372497 -0.29046234 -0.77686614 -1.6783009 0.771918 0.14382578 -0.28733292 -0.45557317 0.7558234 0.1785646 -0.2038264 1.6572962 0.5023216 -0.0019755599 0.0070597325 -1.2407187 -0.5312188 0.5806246 0.77448833 -1.1679777 0.6976275 -0.29914927 -1.2374498 -1.2141839 -0.049160745 -0.010168947 -0.014670818 0.31437168 -1.1556404 0.93389875 -0.47190803 -1.4147877 -0.29919925 1.1992283 -0.59050244 0.31483898 -0.54026145 1.203615 0.20737697 0.94851273 -0.69728863 -0.5930673 -0.73141664 0.3279411 -0.079376824 -0.41832662 -1.1855772 0.25797158 0.07850398 -0.89813894 -0.2936022 -0.31522715 -0.57887465 -1.7614388 -0.7551846 -1.1698002 -0.48882177 0.5797277 -0.6317896 1.3221617 0.7767573 0.6314474 0.54508305 1.3709385 -0.2249278
然 0.32670277 -0.5990564 0.07733467 -0.78538597 0.97603935 0.7328873 -0.40491694 -1.2527355 -0.28928825 -0.5557098 0.27897432 -0.14302061 -0.43841398 -0.26611343 0.83291537 1.2206025 -0.3833914 0.089848325 1.3513193 -0.1301698 0.6959845 -0.19112699 0.19206432 -0.064093 -0.67874885 -0.6356028 0.093391165 0.58918583 0.40048397 0.62830424 -0.48901996 0.07084792 0.37470752 -0.24208163 0.8530401 -0.08797071 -1.068811 -0.97597814 -1.2027897 -0.349955 0.72175246 0.3570891 -1.053737 0.711629 -0.037104405 0.1567684 -0.3559684 0.71826375 0.064574614 0.5336024 -1.0889161 -0.1063856 -0.088678226 0.63805985 -1.2346022 -0.19160485 1.0515479 -0.16781217 -1.6657648 -0.46452284 1.2464634 0.26991272 0.38787085 -0.8974437 -0.4851725 -0.07321338 -1.0647339 -0.3982485 0.13859485 0.36846456 0.23445438 -0.80928373 0.28899774 0.9426118 -0.5826849 -0.8942627 -0.4745598 -0.5883108 0.4655117 -1.0285356 -0.5538038 0.731821 0.5484842 -0.0981225 0.46540365 0.29806554 0.6236751 -0.8508716 -1.071297 -0.5187804 -1.0377455 0.15525746 -0.37860844 0.10968556 0.01183631 0.5084155 0.12437071 0.67750007 -0.88295025 -0.81398124
《 -0.13390468 0.78820646 0.118081324 -1.15417 0.73198754 1.6857777 0.044828672 -0.55952823 -0.0862157 -0.07764583 0.2599372 -0.2729649 -1.2833682 0.97036445 0.6711451 0.219761 -0.33178324 -0.45068806 -0.002890356 0.084962875 0.65314823 0.62217546 0.673005 -0.15897913 -0.09274535 -0.12124383 -0.9679966 1.0288249 -0.9225492 0.8927314 -0.19617552 0.92723393 -1.2625498 -0.0026272563 -0.27869236 -0.6416876 -0.4942966 0.63769376 -0.8924819 0.8520632 0.38091573 -0.4222679 -0.75406575 0.71950936 -0.0011979224 -0.028799424 0.018516453 1.2264924 -0.12526415 0.43703803 -0.6284044 -0.23418535 0.35851634 -0.01979669 -0.38200167 0.5964027 1.1412666 -0.08829039 0.06633908 -0.25864676 0.29997653 1.5603684 -0.06999773 -0.6310224 -0.3857738 -0.5394928 -0.35212263 -0.4059559 1.1643634 -0.5017339 1.3217471 -0.33856842 0.149012 0.63961375 0.8377733 -1.3781289 0.85405177 -0.19163018 0.61949295 -0.33539605 -0.99693286 -0.37346107 -0.55091435 -0.5016371 -0.72296166 -0.67679495 0.68947494 0.035676066 0.6936342 -0.6715521 0.3575499 -0.21011145 -0.3341137 -1.0871749 0.47789174 0.5302426 0.33404788 1.1749672 -0.5527436 0.22594063
》 -0.27080065 -0.07574748 0.42639986 0.0553478 1.0218713 0.90526956 0.5802514 -0.011948925 0.5676255 0.51868415 -0.25864062 0.3732516 0.038101524 0.5605476 0.3700799 0.44111374 -0.11296631 -0.41554543 -0.50693476 -1.4777198 1.0443962 1.4672234 -0.48667863 0.39409763 0.21988885 -0.42532623 0.08786816 1.0379326 -0.4149067 0.42015627 0.13298629 -0.08925023 -0.28082445 0.7544845 -0.18550842 -0.6551651 -0.56595683 0.957948 -0.82589734 1.319931 0.36489213 -0.051932964 -0.55874634 0.07442189 -0.6712465 -0.13682392 0.38608652 -0.3869698 0.22835587 0.781136 0.631555 0.13018538 0.10668943 0.5473253 -0.05963154 0.37849677 -0.41800866 -0.60205233 -0.044828136 0.78393584 0.32510632 0.78493375 -1.0037444 -1.8655813 0.16721971 -0.35606146 0.010009283 0.028739795 1.4289408 -0.49005148 0.18769895 -0.91188157 -0.3341839 0.1933175 1.1429728 -0.01351547 -0.17386729 -0.56265485 1.0499207 -0.790755 -0.8313894 -0.43674737 0.9644426 -0.8884695 0.3958602 -1.2445592 -0.2757543 0.048670348 -1.5018661 -1.432594 -0.04243447 -0.0705482 -0.894931 -0.6784382 1.164016 0.07669717 0.21405827 0.38334906 0.90159774 -0.11143987
由 -0.65866584 -0.22005227 0.58523387 0.68473524 -0.11580336 1.2569919 -0.22916354 -0.018545188 -0.67324734 -0.38185266 0.25557068 -0.32644898 -0.30236974 0.20408966 0.81225955 0.31552908 -0.62377965 -0.4585866 -0.10540858 -0.82769805 1.4464223 0.77451587 -0.77940065 0.31887853 1.1812581 0.34183764 -1.1287447 0.09473831 0.2083895 0.33284023 -0.124492936 0.08626741 0.31761146 0.98195356 0.6277709 -1.7618357 -0.60610783 0.2756737 -0.8842149 0.9310829 -1.2286564 -0.28273773 -1.5931331 1.3244853 -0.92214465 -0.63744867 0.5288581 0.1417248 -0.14031595 0.59556925 -0.6820502 0.309033 0.8207626 -0.059482552 0.848083 -0.051211033 -0.06301676 -0.07332181 1.1182052 -0.19656366 0.73536456 0.1930777 0.29329848 -0.30079496 0.52283293 -0.44368294 -0.8908194 0.6802157 0.16720042 -0.32146946 0.12676339 -0.64935046 -0.5957939 0.26215833 0.69252825 -0.7886728 -0.28106856 -0.98085743 0.5061078 -0.87114525 -0.9916914 0.0019418355 0.81028223 -0.53294325 0.8688578 -0.6160206 0.34919015 0.2890764 -0.78048974 0.03991007 1.0970445 -0.2765453 0.02513064 -1.2364295 1.5015299 -0.16833499 1.6365819 0.1392262 0.24164148 -0.1778744
仲 0.3264302 0.28972262 -0.39932236 0.82955337 0.6490981 0.60985637 0.7356164 0.072709106 -0.47785932 0.3889577 0.70830345 0.28483915 -0.55868804 -0.08548062 0.56979454 1.3415229 -0.044779498 0.3376912 0.7087036 -0.7388067 0.8541755 0.58146757 0.19917092 0.6795871 0.2885122 -0.35223052 -0.42172357 -2.0032444 -0.13513218 0.21701802 -0.3789043 -0.12124399 -0.35197565 0.3143888 0.29044744 0.21839358 -1.3155969 1.1161283 -0.20464636 -0.91173697 0.04323564 -0.5722233 -0.41631383 1.1174254 -0.6071078 0.21433029 0.030714331 -0.34749988 -0.39602548 -0.5719737 -1.2847766 -0.22307256 -0.36856616 0.6349759 0.178689 -0.07656947 0.07734044 -1.4047394 0.48458406 -0.9763123 0.8544322 0.8996873 1.3908616 -0.12095191 0.19406366 0.039845154 -1.0964384 0.016545001 -0.17077038 -0.87983483 -0.23991615 0.2641834 -0.80737287 0.9078045 0.7598972 -0.34555373 0.3342216 -0.42904764 0.9540415 -0.38324255 -0.9387034 0.36739007 -0.038122963 -0.16236393 0.5473233 -0.11831585 0.45734295 0.043886334 0.45035446 0.45012558 -0.039843295 -0.9890211 0.31620485 -0.039466493 0.45084623 -0.67137426 1.1622628 0.5331992 0.039606996 -0.63908094
非 0.32650295 0.21692528 -0.30012983 0.06179723 0.64846665 0.4904202 0.062043957 0.43528274 -0.46926433 0.47270346 0.59010714 -0.30015153 0.20700121 0.9583218 -0.40856603 1.3935063 -0.9759403 0.08968924 0.6540921 -0.55430067 0.3772551 -0.18749714 -0.41906115 0.722056 -0.7924528 -0.54777974 -0.32871446 -0.62939173 -0.8919941 -0.9702118 0.36473462 -0.12725613 -0.7512595 0.7695149 0.28407592 -0.1662355 -0.37465125 0.499524 0.60595524 -0.18049711 0.6702737 0.6162331 -0.15188779 0.84089833 -0.35506827 -0.42296186 0.15569712 -0.00959788 -0.83564883 0.4819604 -0.7683607 0.21055898 0.49792436 0.31972 -0.09703546 0.42531988 0.064360455 0.012388561 1.4409856 0.5260107 0.8725373 0.63007194 0.4775254 -0.9023461 0.27744403 0.10670989 -0.6140663 0.4860658 -0.13793913 0.108705394 0.39811838 0.9702256 -1.098941 -0.417979 -0.21235986 0.12979768 0.56895566 -0.48155683 0.5241404 0.06459639 -0.893564 0.7865623 -0.23543921 -0.41619852 0.6799746 0.31025606 0.30033606 -0.15747744 0.3626389 -0.09948977 0.6877865 0.072605915 -0.053049326 -0.008304533 0.7582257 0.4021264 0.2662019 -0.50565517 -0.17130493 -0.1515298
