1352 50
， 0.99308085 0.44815302 -0.49729535 -0.31423357 0.22791581 0.43062598 0.42247656 0.28983593 0.4312354 -0.47454336 -0.41603833 0.4755318 -0.34534276 0.9248812 0.27961108 0.21103217 -0.41635564 0.24095842 0.3504443 0.68541324 -0.4765975 0.30138794 0.42298272 0.29625964 0.39463705 -0.3646415 -0.16995172 -0.48917958 0.45445663 0.41822866 0.37756073 0.2534977 0.40781432 0.28142112 -0.43245155 -0.3012073 -0.60554904 0.5974316 -0.7824264 -0.13497606 -0.30765885 -0.36523664 -0.52110136 0.4695694 -0.49575305 0.29796422 -0.42974463 0.40246642 0.491045 0.31621262
子 0.6651798 0.45544502 -0.55713105 -0.17010726 0.021741541 -0.30387813 0.54526794 0.33906138 -0.9556902 -0.29851416 -0.14197685 -0.042625245 -0.3531999 -0.8325688 -0.25125214 0.8990332 -0.33007386 0.941969 0.5698094 0.21169119 0.82861537 -0.08805323 -0.604326 -0.0782871 0.6984376 -0.12587589 0.8191549 -0.7543669 -0.07322877 0.79470134 -0.3267613 -0.57888305 -0.79719293 -0.070972055 0.03638557 0.7830811 0.78323364 -0.9327595 -0.06902716 -0.24164605 0.43013853 -0.07662426 0.31410652 -0.85946345 0.092511274 0.05457621 -0.3107052 -0.5032315 0.12602045 -0.21483143
。 0.23678099 -0.24247275 0.44099593 -0.24640141 0.40696105 -0.50536144 0.28674126 -0.5639207 0.07630959 0.84724617 0.44189548 -0.55856955 0.736068 -0.23431274 -0.019288922 -0.18276711 0.34933257 0.56703055 0.37971696 0.13352221 -0.06954331 0.46134442 0.5657886 0.18550654 0.5403872 0.2784784 0.692147 0.63035697 -0.29079512 0.28406122 0.57773614 0.389171 -0.058220457 -0.29060698 0.43612793 -0.2039443 -0.54501104 -0.18223527 -0.44280878 0.43641636 0.4728836 0.716809 -0.53673047 0.91650474 -0.69849 0.2921766 0.60806704 -0.23506221 0.4316334 -0.6438354
： 0.045029566 -0.102793954 0.54061353 0.021102853 -0.01206138 -0.03872682 -0.18344432 0.4821541 -0.49768153 0.01664612 -0.01736334 -0.46869305 -0.30850288 -0.19427262 0.11327523 0.16311663 0.2024375 -0.086199835 0.48968178 -0.1498384 0.42780313 -0.168374 0.1658531 0.48453814 -0.04928595 -0.07282769 0.17026715 -0.023485754 -0.08148736 0.20020294 -0.28433546 -0.4728239 -0.2431114 0.09723558 -0.01274764 0.16578794 0.090583615 -0.41763508 0.44878137 0.34810144 -0.34066772 -0.015336999 -0.0015913022 -0.054198712 -0.39681938 -0.004360536 -0.041248284 -0.17457774 0.016526764 0.036556683
曰 -0.6564237 -0.041205242 0.1032711 0.432209 0.4121833 0.77813756 0.17314216 -0.11061098 0.69672096 0.5392329 0.07999042 0.19953272 -0.26409614 -0.40298697 0.0039214003 0.0023616503 0.040437516 -0.5615772 -0.012869362 1.0657547 -0.86170655 0.98159134 0.83592093 0.032695897 0.32811725 -0.49832276 -0.22890873 -0.09053873 -0.03865491 0.048557527 0.22958347 -0.4663457 -0.050873052 0.7981216 -0.0345769 -0.7716778 -0.328542 0.84938025 0.41197538 -0.0152887525 -0.39093164 0.08511847 0.90089303 0.017550496 1.2696415 0.3621776 -0.5275421 -0.08485419 0.70688057 0.30218557
之 -0.26768255 -0.46279964 0.75077987 -0.16127834 0.27595317 -0.6894056 -0.43035856 0.05223836 0.46789598 -0.34171292 -0.49785647 0.4426455 0.16444488 -0.29219028 0.24178644 -0.6568328 0.30717483 -0.21571939 0.27569294 -0.13601755 0.09930649 -0.45632043 0.26376584 -0.37831098 0.34304905 -0.5514191 0.25193503 0.5662192 0.38907087 0.7674229 0.53446054 0.42174602 0.45986325 -0.015006146 0.5185049 0.47274423 -0.6193625 -0.503366 -0.3441509 0.5484174 -0.39203334 0.18306077 0.26357862 -0.634667 0.99137115 0.38762215 -0.6481557 -0.719563 0.74278593 0.57220876
不 0.54717803 0.2090493 0.3142372 0.062261473 -0.9769124 -0.9399444 0.121215835 0.7302106 0.3773427 0.6332272 0.13370873 -0.059236683 -0.5952489 -1.0019007 0.2650599 0.29182255 0.17508774 0.53103286 0.7097081 0.57584864 -0.48287183 -0.5845718 -0.21389735 0.20206247 0.008803604 0.8371877 -0.34531042 -0.56974345 -0.87602276 0.24535997 0.67470974 -0.16204493 -0.19525422 0.46865973 -0.09508161 -0.031167401 -0.7086644 -0.34710526 0.46202216 -0.39105448 0.13194215 -0.22816303 0.2129448 0.19756408 0.4512949 -0.36539212 0.60253406 0.9352864 -0.19538836 -0.63093245
也 -0.037312113 -0.34656018 0.5009321 -0.48398966 0.26704064 -0.5331454 -0.6943366 -0.29460546 -0.19244187 -0.09414119 -0.78561 0.4323116 -0.15700443 -0.48707953 -0.2468933 -0.27666217 -0.0900098 0.18052544 -0.12139968 -0.23798841 0.06871063 -0.09427914 -0.42147404 -0.10268648 -0.30396545 -0.27631155 0.20330377 -0.18578945 -0.5751677 0.1992925 0.6857905 0.016556872 -0.15307353 -0.14568537 0.5572563 0.6433088 0.107706204 -0.78742284 0.39731565 0.4990642 -0.2169324 -0.7135359 0.6592646 -0.62161064 0.23469873 0.37196422 -0.5945081 -0.11595333 0.26228997 0.47035423
而 0.07640453 -0.63112134 -0.3160063 -0.17383932 0.3121241 -0.5341547 0.48759285 -0.2898005 0.5034117 0.70408636 0.24524917 -0.18332382 0.05092103 0.11515693 -0.5008242 -0.29491374 0.12550454 0.49163216 0.23162222 0.6875518 -0.29084077 -0.532822 -0.27831268 -0.3826684 -0.3699541 0.5974724 0.5603009 -0.05610455 -0.76235235 0.93100923 0.38575605 -0.0030614636 -0.11432702 -0.6508943 0.47484317 0.5757879 -0.07467667 -0.0866484 -0.041657854 -0.32248008 -0.6329256 -0.36983863 -0.30004436 -0.3136241 -0.6399331 0.71091914 0.70994824 -0.77356714 0.44591725 0.95815444
？ 0.11561492 -0.3955553 -0.06923493 0.43368313 0.5249516 -0.2289384 0.5732595 0.71831965 -0.32314232 -0.4877869 0.4644878 -0.04503794 -0.09188548 -0.4161334 -0.7733123 0.29344687 0.76546156 -0.5261135 0.41072544 0.770101 0.5599523 0.4449913 -0.3746954 0.3206823 0.5387454 -0.85496855 0.11171445 -0.721929 0.0730717 0.87122977 0.534084 -0.27151754 0.6818664 -0.41893482 -0.68517464 0.8193726 -0.20557739 0.7778012 0.0939687 0.7092627 -0.29936206 0.049046297 -0.7052417 0.40955684 0.08130549 0.19197108 -0.5920767 0.13639477 0.63332945 -0.50580466
其 -0.32062602 -0.26101592 -0.23243344 0.28109437 -0.7952028 0.7238563 0.3146127 -0.04712359 0.030781053 -0.59007806 0.19100298 0.7526476 -0.6353465 1.0190291 -0.25467598 -0.4226632 0.19151859 0.060932316 -0.3016357 0.27861497 -0.19145548 0.25372496 -0.20383132 -0.18574132 -0.7251716 -0.055354826 -0.7359188 0.09027119 0.317761 -0.79265267 0.4794909 0.8867842 0.026750695 -0.5324017 0.97286344 -0.3081526 -0.54725707 0.298182 -0.2016284 -0.89551216 -0.63141495 0.13690051 -0.043381464 0.9701208 -0.14777806 0.5363582 -0.3380861 0.5825006 0.42773485 0.20672959
人 -0.004685378 0.7352789 0.96115613 0.32391414 -0.12142402 -0.47683093 -0.36654797 0.6665712 0.36199582 -0.36710733 0.18832946 0.5508206 0.7062306 -0.49251512 -0.2882168 0.30536312 0.3028058 -0.61136883 -0.630464 0.012994846 0.1985096 0.39851752 -0.24591063 -0.42325845 0.78033525 -0.2648515 -0.6909483 -0.5482348 0.50857186 0.07619755 0.06945712 -0.13653982 -0.22272931 0.010789395 0.112392485 0.0796128 -0.33936918 0.78212285 -0.3494171 0.84335345 0.38803834 0.47560805 0.23768227 -0.57509 0.5845553 0.49882913 0.03957162 0.59331506 -0.026641395 0.503729
者 -0.40412796 -0.3304971 0.98695445 -0.39528742 -0.6547403 0.7817332 -0.23921822 -0.25044474 -0.539556 -0.59712785 0.38855803 -0.0023459007 -0.3862034 -0.0482543 0.18325268 -0.344688 0.51260537 0.14728901 0.041735683 -0.4982244 0.4080374 0.6329506 0.48525926 0.18938406 -0.16119948 -0.9683581 0.30650777 0.35244155 0.14240801 0.2590511 -0.06844484 0.59844506 0.6381738 0.3990456 0.5728736 0.8374658 0.47421575 -0.9160174 0.14869848 0.00038484012 -0.5916687 -0.79091954 0.6009831 -0.0030494665 -0.53699267 -0.37829542 -0.38545105 -1.0051329 -0.5359672 -0.22262266
以 0.056971967 0.50152534 -0.27940902 -0.69730353 0.05015889 -0.37147173 0.123391084 0.3911073 0.06925146 -0.21163566 0.05210094 0.2886253 -0.42857835 -0.03214211 0.18619516 0.13319278 0.37146404 0.06452168 -0.7036594 0.0602088 -0.10497564 -0.06978494 0.23249418 -0.574373 0.43300557 -0.08754952 -0.60866135 -0.6601481 0.7944178 0.570621 0.43006653 0.45538715 -0.8322491 0.5178948 -0.5761076 -0.138865 0.1434591 -0.9864886 -0.52999574 -0.72095704 0.755729 0.3736494 -0.9730152 -0.046618473 -0.15953347 0.49047735 0.70490164 0.10553283 -0.09525151 0.4110281
有 0.11529273 -0.33523604 0.68762964 -0.1388174 0.29670045 0.623761 0.17159572 -0.46718678 0.6564612 -0.8006045 -0.114203095 0.1831469 -0.20215464 -0.6488791 0.8324216 -0.23024407 -0.58469296 0.22863176 0.77606523 0.52641267 -0.3843286 -0.8398988 0.4981315 -0.2866429 -0.48487103 -0.70417935 0.23087715 0.61912537 0.11973018 -0.026271028 0.51545656 -0.2673775 0.22312547 -0.24859235 -0.55703205 0.25171354 0.23409271 -0.18978779 -0.25310475 -0.34670347 0.41148752 -0.76386285 -0.1694662 0.11419603 0.4147871 0.5833605 -0.011782516 -0.45370257 -0.36694378 0.15522419
于 -0.069795966 -0.19131248 0.5424409 0.62003374 0.63737196 0.46601033 -0.28337845 0.36983863 0.2808516 0.47928947 -0.45956072 0.5354487 -0.6280684 -0.5210435 0.1494231 -0.020250471 0.2848651 0.36519793 -0.6778027 0.46538666 -0.5887422 0.25084558 0.05324673 0.20060134 -0.7160598 0.844907 -0.660254 0.19335294 -0.85932714 0.24935384 0.25791192 -0.11698242 -0.33245295 1.0385602 -0.6162756 -0.42879915 -0.4215972 0.26525742 -0.41661116 -0.26767322 0.5033697 -0.57963747 0.4262925 -0.4197605 0.3608781 -0.41131198 0.28712335 -0.33013156 -0.7636751 -0.11303371
矣 -0.12845798 -0.73503834 0.1429044 -0.9131043 0.6110743 -0.5576449 0.33441865 0.029124184 0.061110828 0.1745477 0.31816703 -0.3892625 -0.75153816 0.37905553 -0.40670997 1.2098408 -0.4123839 -0.5993282 0.54248965 0.10555704 0.08889707 0.24549243 -0.18671268 -0.26144716 -0.17305419 -0.07692556 0.16154604 0.0011231482 0.17941812 -0.047262363 0.70274913 -0.28148574 0.29890487 -0.4775783 0.2775658 0.887668 -0.8317046 0.32348648 -0.40748754 0.06620633 0.7889574 0.08610978 0.17728055 -0.6268737 0.56363606 0.33726037 -0.22346954 -0.86140525 -0.059992507 0.42894495
为 0.25001583 -0.47292545 -0.45384404 0.11093959 0.51288074 0.11739848 -0.83825535 0.4429603 0.3168104 0.3303947 -0.416987 -0.08612533 -0.3242078 -0.4791726 0.034867633 -0.50593954 0.78651935 0.24800715 0.6095157 0.19132258 -0.13927017 -0.5098798 0.55370384 0.34151563 -0.29859802 0.097859636 -0.0768032 0.83914983 0.117052086 -0.76038367 0.13327281 -0.3087792 0.24122563 0.04778541 -0.100640856 0.12478094 -0.11335381 -0.025392009 -0.8736785 -0.74033487 -0.48862696 -0.885723 0.3064425 -0.888035 0.5678894 -0.23308706 -0.58217424 -0.066859506 -0.1648111 -0.17724071
君 0.5402556 -0.33722055 0.17658617 -0.32825196 0.26983544 0.36980355 -0.2406692 -0.21426703 0.020499911 -0.7119453 -0.29724932 -0.5980573 -0.14295448 -0.31615353 -0.87344015 0.36332294 -0.423917 -0.77613246 -1.0553969 0.9079712 -0.4812499 0.15213357 0.16937883 -0.5405074 -0.37397164 -0.38367268 -0.96088725 0.22215718 -0.14277197 -0.90682197 -0.24662422 0.21978195 -0.20287228 0.15418665 -0.19499205 0.14503017 -1.2166247 0.26048928 0.8411974 0.17804286 0.85925204 0.26405454 -0.3363878 -0.15559353 0.40563977 0.48060903 0.367919 -0.29444906 -0.89891213 -0.29650342
乎 0.479887 -0.8375029 -0.44819206 0.09337015 0.14727826 0.96661955 0.008195641 0.06958082 0.19816898 0.7810273 0.25408015 1.1062893 -0.25815368 -0.033730052 -0.5341499 -0.29926524 0.73432136 -0.0948096 0.6132398 0.79497236 -0.08959098 0.6352256 0.15013157 -0.049108602 0.17121287 -0.70031005 0.5817265 0.94154423 0.47795272 0.46662462 0.89512646 -0.010013463 0.077782795 -0.79220647 0.9033156 -0.13570307 0.53491396 0.6717378 0.08202302 0.2121032 0.13363142 0.82478243 -0.40618557 0.49981722 -0.9271477 -0.26789773 -0.33484808 -0.50750476 0.17668931 0.09244801
可 -0.123437986 0.4912281 -0.7491587 -0.65857744 -0.13375638 0.9169685 0.67398053 -0.12745777 0.0066177063 -0.9621505 -0.44934243 -0.2165819 -0.3000659 0.264882 -1.0564697 -0.23679855 0.057416365 -0.25106704 0.73117584 -0.123277895 0.3375661 0.3867658 -0.06930704 -0.11616953 -0.36029145 -0.016473627 -0.119086854 -0.16170205 0.24273297 -0.20642522 0.4258383 0.7647592 -0.74423325 0.20465146 0.07473602 0.13746713 -0.20724247 -0.64191717 -0.03519416 0.14309897 -0.5253687 -0.5517786 -0.8176753 0.85520226 -0.29434928 -0.8048908 0.57672364 -0.6156433 -0.47281688 -0.2498284
如 -0.17222448 0.47897297 0.034090396 0.033824604 0.0076070162 -0.26934746 0.113421835 -0.33610448 0.62673604 -0.0023304685 0.5211149 0.53660476 -0.4953669 -0.47231227 -0.009213643 -0.52333724 0.1119745 -0.4611771 0.035533488 0.5150508 0.025107937 0.21824357 -0.56221837 0.635557 0.46847123 0.030171357 -0.11347034 0.31198433 -0.43699044 -0.7484671 0.38680825 -0.11095364 0.16032326 0.066539586 0.5548861 -0.31204596 -0.8843879 0.46354246 0.10519239 -1.3676438 0.17974184 0.4851085 0.16423522 0.39114478 0.4215475 0.17140044 -0.016348533 -0.021567887 -0.033627924 -0.010439673
与 -0.020226663 -0.12038723 -0.45558852 0.031167507 0.38060412 -0.23994893 -0.09198993 -0.32889634 -0.08312199 0.20830369 -0.01927804 0.01760166 0.09215729 0.18740956 -0.21766824 -0.26468733 0.35330445 0.14702255 0.17363921 -0.016733445 0.034146998 -0.20498689 0.10223923 -0.40805483 -0.070916995 0.32409233 -0.2896784 0.010405164 -0.046760906 -0.0039313734 0.124192104 -0.23007923 0.31298187 -0.16629826 0.27151665 -0.12730438 -0.0024251214 -0.19390756 -0.24227992 -0.5762794 -0.37439996 0.02311576 -0.10342091 -0.060593557 -0.020824142 0.23797567 0.014450242 -0.033132903 -0.077074215 -0.0138722835
； 0.54465175 0.26232794 0.051510815 -0.31611612 -0.115968995 -1.0444272 -0.5523809 1.0528578 0.69492906 -0.56696403 0.6656665 0.4769332 -0.28470057 0.20437214 -0.7943448 0.4153176 -0.30451456 0.54145736 0.000918725 0.7348082 -0.13901255 -0.06291603 0.909941 0.44521844 0.3419662 -0.06568711 -0.043940663 -0.834596 0.3630014 0.57036155 0.7182043 0.3376473 0.28683057 -0.019950492 0.42203233 -0.17801978 -0.5686712 0.9470145 0.25405607 -0.91369563 0.3508563 -0.06463441 -0.3049642 0.29039517 -0.556271 0.27544385 0.09088799 -0.30341133 -0.6892233 0.40621623
言 -0.25514695 -0.37279123 0.71312726 0.60135084 0.5350149 0.66988087 -0.41064456 -0.33209428 1.0587338 0.47471496 0.3523482 0.74569285 0.70424163 0.19027984 -0.82751864 -0.71551144 -0.1640108 -0.0921223 0.7940049 0.66696316 0.10186273 0.4535036 0.57075334 -0.1472272 0.6878454 -0.17006473 0.09802483 0.12339051 -0.4338627 0.24758102 -0.2980101 0.4156566 0.0874428 0.32613048 0.63980395 -0.34709543 0.3602544 0.58963996 -0.40608487 -0.6174769 0.15778424 -0.6688217 -0.7499732 0.2319183 -0.06739191 0.002202144 0.7750878 -0.013358137 -0.8346954 -0.6213171
无 0.4546258 0.29484233 0.9224819 -0.38054255 -0.08868704 -0.13599055 0.29835662 -0.3823202 0.863573 -0.012646233 -1.0267502 -0.031040907 -0.45955387 0.14197542 0.41935876 0.6150441 0.3022267 -0.04255388 -0.1872111 -0.68030226 0.23267846 -0.64221627 -0.7137994 -0.5421182 0.31578118 0.4226713 -0.3455 0.84409034 0.6547114 -0.84268963 -0.14975844 0.36497086 -0.24633834 0.7613002 0.08502882 -0.0022601539 -0.60430604 0.305808 0.43278763 0.54135644 -0.2011625 0.31928968 0.15917839 -0.49690324 0.33356607 0.8722559 -0.4074422 0.55009115 -0.23841839 0.3824107
则 0.6964688 -0.8235129 0.9668489 0.4492302 0.06624803 0.08957951 -0.7867401 -0.6597504 -0.1877455 0.7234825 -0.12571879 -0.35692042 -0.05281217 -0.77929485 -0.5300723 -0.8493873 -0.054849025 -0.16943347 0.7705918 0.703559 0.34503475 -0.13235551 0.27590403 0.1782324 -0.606273 -0.38731438 0.47084072 0.2881851 -0.49461442 -0.6237952 0.22305581 0.50517124 0.7080212 -0.6049733 0.4816378 0.65336794 -0.09105767 -0.3554015 0.6297175 -0.40774727 -0.5511952 -0.25832856 0.06477626 0.7738489 -0.93088514 0.004918207 0.15552707 -0.43194976 -0.21036762 -0.5028263
！ 0.3475627 0.3610064 0.26356924 0.028518142 0.62581223 -0.69842225 0.6565752 0.6688177 0.23808493 -0.31004727 -0.24449302 -0.67423815 0.2286759 0.017006872 0.3931272 0.4634714 0.40909323 -0.72835064 -0.5078296 -0.5259968 0.6697232 -0.3459459 -0.5974695 -0.40501204 0.314798 -0.7468669 -0.5652186 0.16869044 0.6664818 0.23928288 -0.3217432 0.016059149 0.31397858 0.8184197 0.63545144 -0.5468896 -0.75544214 0.3798659 -0.24868836 0.57961416 -0.21668355 0.51634246 -0.21074176 0.12651026 0.6487708 -0.13912086 -0.0866077 0.99856883 -0.22437686 0.10154154
问 0.24692327 -0.6103578 -0.31915614 -0.37761968 -0.45496672 0.097963095 -0.022712022 -0.5941517 0.67151845 -0.6493495 0.09241686 -0.17153469 -0.6469708 -0.51165664 -0.61949074 -0.8519763 0.56170267 0.060754694 0.71215713 -0.698875 0.68618655 -0.44083104 0.10988811 -0.18856408 0.30503744 -0.45757902 -0.8345531 0.39064977 0.3249062 0.3314926 0.2010061 0.042594466 -0.5088402 0.45026848 0.7973296 -0.56940794 -0.7751896 0.55862284 -0.45800304 -0.5957689 -0.22976604 -0.30010355 -0.23329428 -0.1981216 0.1116674 1.072416 -0.2586266 0.22855893 -0.24423964 -0.51329476
知 0.39477453 -1.0280118 -0.39964938 0.099491075 -0.32472095 0.07154323 0.07833124 -0.66495574 -0.13271464 0.78590703 -0.116454296 -0.6474819 0.63071895 0.39343408 0.21929602 -0.76319665 0.39922282 -0.64789855 0.054206 0.7766834 0.388215 -0.6257266 -0.65894777 -0.70782214 -0.38973173 0.28538164 -0.82467675 -0.24346545 1.0359259 -0.5090027 0.9545111 0.48789993 0.25736877 -0.67238116 0.6085472 0.24465579 0.13410392 0.16709417 -0.6233733 -0.60384476 -0.59590334 0.056878947 -0.14897442 -0.29585496 -0.21023172 0.20149003 0.59031785 0.11496033 0.116050474 0.10947917
何 0.0036907163 -0.7931219 0.1963268 0.56807667 0.19753726 -0.97909874 -0.6805035 -0.289003 -0.10183992 -0.960014 -0.2679993 0.134974 -0.13065366 -0.5363752 0.01760668 -0.11543162 -0.54381853 0.17390439 0.26129982 0.5887564 0.6116834 0.8326583 0.21639426 0.022903059 0.84829897 -0.09361221 0.40969115 0.1955948 0.2934885 0.557882 0.49021655 0.44568464 0.45529634 -0.04992673 0.42761865 -0.3221492 -0.6097723 0.08695988 -0.9041944 -0.46140844 0.0018581657 0.061597396 0.102269046 0.5873496 0.24327344 0.8213387 0.26144928 0.21501254 -0.3067671 -0.29809147
吾 0.31649223 -0.6662986 -0.4601359 -0.21613501 0.45707044 0.10400196 -0.38707462 -0.5894817 -0.65344286 -0.22600935 -0.07836331 0.14659931 -0.7327962 0.37173384 -0.6519073 -0.6389986 -0.44040233 -0.71176904 0.28470728 0.74946517 0.3660912 -0.2889526 -0.10398316 -0.27312762 0.28557983 -0.10524501 0.74536157 0.40783423 0.051773034 -0.40546826 0.20916395 0.38368878 0.6300197 -0.64530957 0.64336604 -0.26551503 -0.07420354 0.54869646 0.08951034 -0.6403306 -0.13072467 0.5072776 -0.6975344 0.4003166 -0.67473865 0.30353904 -0.0980746 -0.22045246 0.30563664 0.6337325
仁 0.083667226 -0.59470606 -0.9595153 0.28937376 -0.26894668 -0.6733725 -0.39948195 -0.5616471 -0.4595866 0.71263814 -0.21232256 0.11485954 -0.5019439 0.6555038 0.04245385 -0.5268602 -0.09681635 -0.4521306 0.39302117 -0.026612805 -0.0970814 0.033754617 0.7710494 0.2280766 0.5626001 1.014842 0.033725787 -0.45987195 -0.26433945 0.3904834 0.602475 0.47418657 0.33292413 -0.60909724 0.5808485 -0.14873041 -0.04852037 0.54734063 -0.11005481 -0.44330648 -0.28206226 -0.5205641 -0.57801104 0.4593786 0.31628343 0.007966203 -0.30388 0.6499438 -0.01910758 0.68867606
夫 -0.08164761 -0.65831685 -0.2537537 -0.53227496 0.95908356 -0.39616075 -0.070514664 0.9318949 -0.7485059 -0.19608757 -0.12358023 -0.15508866 -0.26077092 -0.53420055 -0.05426858 -0.16207114 -0.14182436 0.50081205 -0.546969 0.82986736 0.39340955 0.1689945 0.20946869 -0.1334899 0.66957563 -0.78419787 -0.29497874 -0.7075438 0.48359203 -0.2061975 0.25172508 -0.36697212 -0.6187985 -0.7664644 0.5927177 0.14614815 0.38237128 -0.6641789 -0.060402967 0.55458945 -0.19352144 0.32685408 -0.42577583 0.2587531 -0.7264003 0.43564317 0.17651686 -0.03704813 1.1515254 -0.59563315
、 0.90939635 -0.10542797 -0.2870657 -0.36778775 -0.4289589 -0.034178205 0.13783126 -0.28309909 0.33074728 -0.6317414 0.45838675 -0.6444318 -0.41760647 0.41132322 -0.22838268 -0.38694182 0.4770647 0.4274683 0.20196787 -0.44010842 0.3475934 -0.720273 -0.59428513 -0.5006631 -0.572593 0.66060895 -0.5510622 0.4120124 -0.95296276 0.42204776 -0.09192949 0.28986603 0.14757812 0.5366817 0.83624375 0.79162633 -0.27693725 0.33367187 -0.5493966 -0.40520436 -0.2560123 -0.2399302 -0.1629308 0.31608495 -0.021034444 -0.40492845 0.15995477 -0.29823908 -0.56471145 -0.1698412
道 -0.8586211 0.2721999 0.31584507 -0.31089842 0.028959917 -0.6318253 0.13339852 0.75192916 -0.75340545 -0.92830837 -0.03936928 0.64827424 0.26776034 -0.2718672 -0.35013765 0.39575177 0.80033314 0.47778884 -0.55654824 0.4007533 -0.33144125 -0.581462 -0.23106258 0.45484963 1.0320816 0.7765635 0.28948998 -0.38594913 -0.25517136 0.26574016 0.9978358 -0.6665329 -0.55626464 -0.11159937 -0.24292813 -0.13473059 -0.33073157 -0.010940869 0.118243605 0.67965627 0.2016288 0.38039207 0.060743466 -0.7445649 0.21328293 -0.19565858 -0.4478385 -0.19362828 0.41909686 -0.40203282
焉 0.7678645 0.4967456 0.47595105 0.15866211 -0.2599685 -0.75424063 -0.6048449 0.21821603 0.7467149 -0.49326846 0.2096474 0.654118 -0.3917182 -0.5153197 0.7580012 0.2575003 -0.5227918 -0.059383918 -0.12531531 -0.66063625 0.12788773 0.32997805 0.28140056 0.20027898 0.5462602 -0.33046028 -0.83264416 -0.57221735 0.30638668 -0.5686117 0.48487502 -0.31077766 -0.29605842 0.36243495 -0.54263383 0.85572255 0.38184494 0.35010704 0.33980405 0.14398466 0.6210221 -0.31272638 -0.04885583 -0.36118487 -0.31267855 -0.014581256 -0.8047498 -0.4676435 -0.6065885 0.10440173
行 -0.48849323 0.6782726 0.73863405 0.059266377 0.13641182 -0.18984109 -0.21036766 0.44864964 0.16028312 -0.828802 -0.18569723 0.18929645 0.5364645 -0.73169255 0.6216591 0.2505656 0.23081172 0.62473476 0.74974996 -0.61154103 -0.5590436 -0.55350816 0.30876136 -0.3286356 -0.38984153 0.10128227 -0.21345808 0.09258884 -0.04135115 -0.08206959 0.12927811 -0.8290835 0.15021212 0.29717258 -0.6706195 -0.05915635 -0.12099128 -0.34706986 -0.7731458 0.15525177 -0.36238453 -0.72420186 0.5693176 -1.1659157 0.70163614 -0.43507716 -0.17528777 -0.41646323 -0.79527277 0.1286302
谓 -0.30040663 0.025664171 0.28749728 0.28414813 0.025596848 -0.86292565 -0.595886 -0.08391535 0.7991241 0.00036124117 -0.66796446 -0.13297243 -0.5013007 0.32715598 0.16043095 0.1764651 0.6493355 -0.038144793 0.29934168 0.07108012 0.409776 0.26511538 -0.2873141 0.44671062 -0.32345042 0.9605622 -0.4231565 -0.6613046 -0.20956297 0.08309709 -0.58127993 -0.35348484 -0.97116804 0.8124963 0.14801075 -0.79590577 0.74701107 0.24418038 -0.59895533 -0.29473934 -0.058264326 0.3120426 -0.29213235 -0.36175317 0.33550575 -0.33587387 -0.27604446 0.25921744 -0.7443845 0.76708937
必 0.13078468 -0.0023532056 0.2521705 0.42025948 -0.8024473 0.4177828 -0.14986178 0.31625226 -0.66608155 -0.676401 -0.24225405 0.17679562 -0.3238152 0.6638684 -0.7004362 -0.36756313 0.10203503 0.85006934 0.48205242 0.16518225 -0.36682177 -0.6895961 0.10991825 0.39568716 -0.46823952 0.59424156 0.40234253 0.07317154 0.10439476 0.65436184 0.5659583 -0.87144655 -0.4484158 0.393313 -0.054278806 0.7459596 0.043517508 -0.69617426 -0.57250017 0.21373717 -0.6764026 0.14092562 -0.19320372 -0.2794697 0.105950415 0.02805531 -0.4637225 -0.76560336 -0.6176149 0.1431893
礼 -0.92885923 0.5247475 -0.27787918 0.28829104 -0.9480003 0.34855154 0.085479625 0.3134581 0.21326068 0.1593835 -0.56709206 0.35327056 -0.3860587 1.1366707 -0.27221856 -0.38102028 0.5408069 0.21375583 -0.8386771 -0.20439333 -0.6582094 -0.81807494 0.008368431 -0.58389807 0.1264669 0.44876134 -0.037263706 -0.16634192 0.26755804 0.49688792 -0.9894505 -0.031695303 -0.48328334 -0.7679653 -0.7671085 -0.058282346 0.03517706 0.016927276 -0.031964596 -0.4785616 -0.046248518 0.3442406 0.10556098 0.5296783 0.3845571 -0.027000226 0.68398505 0.5297844 0.6801027 0.23211667
孔 -0.5941276 0.4464905 0.5110712 -0.14375855 -0.2619586 0.056322146 0.48816687 0.6545285 -0.43744272 -0.50150025 0.19266482 -0.5314194 -0.19573894 -0.73579663 -0.34601095 0.4467869 0.5575443 -0.12840678 -0.21204086 -1.3155792 -0.114236526 -0.49948 -0.40094873 0.7496739 -0.42247656 -0.08533946 0.6429592 0.031925518 0.13600539 -0.29402816 -0.27078244 -0.8884006 -0.5897629 0.34750968 -0.8767359 -0.44601375 -0.32219896 -0.5448559 -0.24556813 -0.25353682 -0.015802402 0.5665188 0.30844796 -0.6713024 -0.091289185 -0.05621381 -0.5519955 0.3378916 0.5938542 -0.20771605
斯 0.035981875 -0.33770034 0.21972291 0.24289048 0.16620433 -0.42810243 -0.21909218 -0.09139336 0.5956381 -0.21998383 0.26929867 -0.08373791 0.0557857 -0.47721526 0.068579376 -0.16631821 -0.17600988 0.10453555 -0.4339369 0.73661363 0.1580203 0.07376404 0.09146424 -0.7341339 -0.60174406 0.81910455 -0.36288083 -0.0008189213 0.22988626 -0.588672 -0.29126707 0.41855612 -0.44284138 0.11226281 -0.17751782 -0.33709437 -0.38756093 0.48929587 -0.38986894 -0.21713853 0.48308906 0.6889515 -0.3937595 -0.2469318 -0.72098905 -0.09957641 0.3564314 -0.20393601 -0.28342596 0.14943832
三 0.33873436 0.5328452 0.86090785 -0.45962864 0.7191856 0.16136569 -0.49744433 -0.14869164 0.13091904 -0.035266552 0.78312784 0.4812682 -0.86143875 0.04653032 0.8481465 0.052046217 0.7246851 0.6463428 0.90688515 -0.6787291 -0.14439884 1.1095568 -0.32137492 0.2834627 0.4258613 -0.91952336 0.073736094 1.2042532 0.13030632 -0.0138860615 -0.22376762 0.27294338 0.046644278 0.34789228 -0.60292727 0.08290466 -0.1080133 0.019706648 -0.33406347 0.015872164 -0.3824617 -0.15501784 0.26575434 0.4016719 -0.7264726 -0.6940333 0.63931966 -0.20523842 -0.42244917 -0.43363076
能 -0.52954084 -0.7420897 -0.23838605 0.9728347 0.29242766 0.2549124 -0.10646118 -0.5985777 0.17471209 0.4563756 0.6325683 -0.5660809 0.029462414 -0.6473043 0.6047035 -0.8637574 -0.11296472 -0.50272346 -0.701823 0.08728447 -0.3886311 -0.49685118 -0.54273283 -0.49356964 0.37280694 -0.21082748 -0.91060376 0.1325412 0.23854084 -0.3784794 -0.25617573 0.35460645 0.032109275 0.843721 0.018614998 -0.68566865 -0.68541765 0.14023311 0.8967384 -0.07190236 -0.011955412 0.17440756 0.08891129 0.26223812 0.68507934 -0.052376658 0.72522926 0.28346965 -0.39661053 -0.5789993
见 -0.6131113 0.35168505 0.64587915 0.22817631 -0.030794734 0.16424747 -0.30763438 -0.54379034 0.68636024 0.92303544 0.03487235 0.27432796 0.061576217 0.19204563 0.7515103 -1.0142696 0.4801423 0.018196747 -0.19099241 -0.4250744 -0.38954985 0.13090019 -0.37732235 0.6073971 -0.7707151 0.753643 -0.28929314 0.7533466 -0.29438892 -0.56289965 -0.5071028 0.4594136 0.17240609 0.20726824 -0.14578538 -0.28594992 -0.48787072 0.5847733 0.1139742 0.048635293 -0.057241905 -0.759581 0.72007614 -0.07152176 -0.0059860838 -0.20875771 0.4528831 -0.08680048 -0.5903769 0.065032035
学 -0.57101357 -0.097789325 0.9142246 0.80350274 -0.12524384 -0.75793767 0.045180086 0.18260129 0.2120148 0.2618611 -0.20468545 -0.10445719 -1.1805342 -0.37543646 0.7081149 -0.488117 0.6832548 0.3137251 0.16315569 -0.52303344 -0.047685474 -0.8773303 0.017373357 -0.17203413 0.37679797 0.5757189 -0.21163186 0.049031112 0.35483453 0.19707018 0.7665704 0.45400077 0.010320343 0.79317737 -0.6326901 0.35913217 0.55690604 -0.7878253 0.69647646 -0.14426026 0.14766411 -0.70432705 0.114339925 -0.58358043 0.73128307 0.7345501 -0.5062 0.7765389 0.24425991 -0.7887402
事 0.4301166 -0.20099968 0.19611482 0.34987283 -0.39132842 0.86347723 -0.55556685 0.1912314 0.639494 -0.2567804 -0.03444013 0.48748127 -0.77986145 -0.057193585 0.17857032 -0.21005382 -0.2889606 -0.23245779 -0.12001447 -0.5167091 -0.11349696 0.43846753 -0.36005414 -0.96304524 -0.8954426 0.60625595 0.022682585 0.47338316 0.3232699 -0.9082268 0.42166728 0.022465998 0.20723328 0.36719576 -0.6971878 -0.0009691592 -0.18122976 -0.21722552 0.5145019 -0.28881985 -0.015758857 0.0016385217 0.7196112 -0.9954207 0.3754893 -0.37638524 0.03413995 -0.32692617 0.06802996 0.44009718
是 0.68508863 -0.68644625 -0.47310466 0.68710023 0.11071565 0.1743863 -0.38020095 0.67122585 -0.45105076 -0.2317769 0.5947985 -0.3943712 -0.50481594 -0.009733423 -0.45578122 0.59627354 -0.7960605 -0.73383665 -0.3308318 0.14828546 0.24584737 -0.88412505 -0.6510436 -0.47363615 0.25837404 -0.29088423 0.8589567 0.4379834 0.3761621 -0.047210574 -0.25386468 0.053552587 0.684891 -0.16805579 0.22788212 -0.19237696 -0.6006462 0.5855166 -0.5439312 -0.21806535 -0.34530094 0.14517242 0.04118046 0.2734936 0.25807774 0.6391981 -0.86481315 -0.017174328 0.9389503 -0.12814298
哉 0.2860668 0.8896697 -0.85504764 -0.7514957 -0.05349663 0.97812897 0.08036744 -0.7151666 0.8105777 -0.8919616 0.35348108 0.57114816 0.58273315 0.07377962 0.63493556 -0.7188485 0.79830533 0.32166812 0.47350162 -0.6584402 -0.6118363 0.06910273 0.24664669 0.30095538 0.15614107 -0.35904148 0.3570027 0.6218589 0.8607558 0.24583405 -0.86101043 0.57394254 0.8083463 -0.074020594 0.9270367 0.39264187 -0.07712083 -0.7073292 -0.3040857 0.30397296 -0.066611655 0.4243476 0.08865031 -0.5896563 0.958524 0.030409941 -0.11090847 -0.23323527 -0.19196521 0.24334483
闻 -0.046501 -1.0163531 0.243468 -0.29706275 -0.5750722 -0.6225223 0.14432561 0.11781945 -0.29370174 -0.38533592 0.38329357 0.17201774 0.8824891 0.6331965 -0.17099956 0.20476729 0.5498828 -0.78892696 0.02275817 0.25839546 0.37389937 0.07000599 -0.21759938 -0.3739897 0.90529674 -0.54538894 0.64399755 -0.87759966 0.44714865 0.0076221335 -0.043144207 0.8674674 -0.2173098 -0.30139023 -0.5622922 -0.025934367 -0.003155039 -0.13361403 0.36600578 1.0137895 -0.13367845 0.13548431 -0.78673387 0.3685607 -0.060069654 0.70790696 -0.20567681 0.19966035 0.4022382 0.20461026
未 -0.09945391 0.18676732 0.41068405 0.15800786 0.119334325 0.42054236 0.45552862 -0.7372965 0.36034414 -0.63711727 0.19658661 0.21636729 -0.4352734 -0.7496705 -0.5713394 0.04145015 -0.8649949 0.32841834 0.4853306 0.06351193 0.43301055 0.19552055 0.29296494 0.53947645 0.8380208 -0.71607167 0.3865684 0.34636667 0.4362769 -0.73428243 -0.026938243 0.42000496 -0.19112617 0.06632733 0.6449613 0.7982218 -0.8018526 -0.32932252 -0.124770366 0.72821796 -0.27051115 -0.35233912 0.543651 -0.22806086 -0.41659454 0.62893337 -0.39911762 0.071305394 -0.4467841 -0.3276877
公 -0.1379955 -0.44385824 0.6713501 -0.12487942 -0.8025129 -0.54522985 0.57483196 0.2034062 -0.019648707 0.35341254 -0.5272563 0.5543267 0.47409716 -0.6766043 0.33688864 -0.903095 0.6785369 0.0048960107 0.22813065 -0.34261337 0.67217624 -0.82421404 0.14855088 0.15122895 0.27357578 -0.56541455 0.3826362 0.33207276 0.543219 0.16269113 -0.4580477 -0.4073841 -0.49021807 -0.018543616 -0.5250481 -0.61520684 -0.23644437 0.043158766 -0.42160237 0.67035013 -0.4158153 -0.56146896 0.23732771 0.6894884 -0.24021262 0.685984 -0.70950264 0.363903 -0.2655811 0.65817183
好 0.019015284 -0.31794447 -0.73195004 -0.6826885 0.1488077 0.2678913 -0.6355597 0.8832523 -0.0010501387 -0.60641617 -0.4042297 -0.44054517 -0.31954598 -0.8106388 -0.23214093 0.1450604 0.75861627 -0.7785843 0.064549595 0.66593885 0.5048768 -0.5048447 -0.20818 0.6913816 0.16671053 -0.059066292 0.2953884 -0.24938871 0.31179067 -0.7952562 -0.6046043 -0.14245401 -0.39184254 0.04522345 -0.1667911 -0.05567092 -0.5029051 -0.07807523 0.31063756 0.2780023 -0.36738235 0.7322656 0.7272848 -0.014950735 -0.4158612 0.51676303 0.14185148 -0.5375022 0.40801057 0.64024967
我 0.012465539 -0.39298415 0.26077798 -0.48846447 -0.13107224 -0.12756939 -0.045139298 -0.8050601 0.48060185 0.19532804 0.45039812 -0.08725939 0.62651294 -0.25660694 0.42037502 -0.23103805 0.27741623 -0.56227946 -0.13843235 -0.35361606 -0.3436516 -0.047931835 -0.3289967 -0.34920213 0.15097688 0.6934328 0.21425064 0.8486365 0.41733846 -0.18853036 0.241248 0.81151557 1.1178067 -0.30199474 -0.41839984 0.08212991 -0.28602996 -0.029534345 0.36933276 0.3677497 -0.2849147 -0.560371 -0.3788372 -0.18208326 0.8537573 0.19315603 0.26769716 0.14482868 -0.040922675 0.5688595
路 0.044103827 -0.410303 -0.9459511 -0.0541023 0.6415371 1.0839674 0.5051135 0.3368098 0.8751928 -0.07020879 0.3724615 0.2889748 -0.39912203 0.9381413 0.09581641 -0.37759098 0.025305083 -0.37718746 -0.63802016 0.5669239 0.102424875 -0.38852715 0.26851934 0.1421717 -0.2079159 -0.24122564 0.019989923 -0.34744862 0.9641868 0.19100548 -1.131924 0.38969377 -0.5091349 0.50374085 -0.61672276 -0.51449317 -0.8087746 0.08382191 -0.08677964 0.23245332 -0.37219852 -0.22352822 0.020327061 1.179911 -0.05161854 -0.0689494 0.119772315 0.8275808 0.27181512 0.7022186
在 -0.11407525 -0.018401109 0.33914563 0.7457133 0.83120483 0.8615254 -0.8744022 0.21008469 -0.6880978 -0.13327442 0.8364649 -0.14117251 0.48643357 -0.7637314 0.26236692 0.6077821 -0.69707304 -0.70889205 -0.23482148 -0.40091404 0.6185415 0.07316788 0.4083593 0.27709317 0.76753485 -0.76294094 0.41872957 -0.7037508 0.37565336 -0.94348806 0.7289293 -0.27577627 0.10081547 -0.58629286 -0.6387876 0.37326646 0.4205691 0.10801841 0.56155527 0.4683281 0.036355115 0.073874034 -0.45220578 0.3961353 -0.59933865 0.12670116 -0.20453942 -0.8447322 -0.10723933 -0.8098276
已 -0.0299538 0.44571733 0.4392602 -0.0981463 0.15454209 -0.68904346 0.8864739 -0.034790345 0.15742883 -0.17557813 0.016553123 0.6320009 -0.2936835 -0.1916027 0.4110548 -0.47032028 -0.7443367 0.50305367 0.19473162 0.08078391 -0.20876549 0.11352509 0.21001163 0.26348135 -0.86692154 0.72662383 -0.87673074 0.21727808 0.48021126 0.31975222 -0.40985397 -0.1992687 0.4451026 0.5578955 -0.3820217 0.6597179 0.86768085 0.18855934 -0.70055 -0.7233902 -0.20028722 -0.6723242 0.009836814 -0.13093598 -0.23169233 -1.0151142 0.58590376 0.4230255 -0.53599924 0.6546025
得 0.9260726 -0.82633275 -0.49082205 -0.424783 0.6615557 -0.33683744 -0.27323627 -0.4097289 0.7814713 0.84551805 -0.05987392 -0.2001301 -0.022470616 0.38092786 -0.63089824 -0.7771578 -0.09282199 -0.4835432 0.7560413 0.26811728 0.81308264 0.21877661 -0.03892214 -0.11878553 -0.05483742 0.46799308 0.44214955 0.09529396 -0.11981548 0.074338935 -0.18860729 0.89081806 0.08611217 -0.79105705 0.1637394 0.50197023 0.02330192 0.21011262 -0.11289671 0.18606393 0.23094778 -0.108754314 -0.48342592 0.23833558 -0.20695992 -0.19784684 0.435392 -0.3785835 0.037083905 0.3550601
所 -0.10831006 -0.85722315 -0.2894463 -0.8963761 -0.55668145 0.3765186 0.6736619 -0.34223115 0.46401575 0.2726144 0.47817522 -0.3304359 -0.038455088 0.12642619 0.02986256 -0.12971236 0.23535047 -0.6819504 -0.12245066 0.17621177 0.41986257 0.5286736 0.057861574 -0.8010148 -0.6208805 0.3660021 -0.088857904 0.8194995 -0.32635424 0.38724926 0.20769301 0.8594149 0.5108633 0.34724498 0.13230339 0.061226975 0.359363 0.2218112 -0.5215737 0.35403255 0.24122055 -0.85877645 -0.14893912 0.6315302 -0.21212652 0.012745045 0.31727907 -0.0859137 -0.68532336 0.12266603
民 0.6181621 -0.8416949 -0.22930406 -0.79910624 0.02732328 -0.09943092 -0.009416662 -0.3038962 -0.23401025 0.5449725 0.19576493 -0.31362048 0.05901943 0.5999744 -0.865047 -0.68537164 0.41724852 -0.16100629 0.35452303 0.9412877 0.11236528 -0.8080694 0.27233526 -0.2720765 0.2256648 0.19954453 -0.07919089 -0.37949014 -0.67045516 -0.61763823 -0.64246637 0.35397545 0.54100055 -0.66568804 0.7101527 -0.5179144 -1.0286599 -0.039482035 0.51322585 0.07438831 -0.25875986 -0.2295002 0.3014699 -0.12539756 0.14570993 0.34834135 -0.49385735 -0.20360391 0.35120285 0.40702695
小 0.4247914 0.6110291 -0.6019651 0.34040362 0.05798695 -0.05279473 0.2455186 -0.12565477 0.67616856 0.42350334 -0.812189 -0.61651367 0.7124604 -0.6210001 0.22093654 -0.4667179 0.5186438 -0.23305304 -0.59862983 0.010769592 0.22421058 -0.66645294 -0.18060268 -0.6839406 0.41941416 0.20223814 -0.61829334 0.6006343 0.67292 0.52994305 0.04638729 0.2891704 -0.67663366 -0.022957934 -0.23078012 0.30732295 0.052946337 0.4757486 0.24824937 0.0973709 -1.5029644 -0.38916823 0.0350418 -0.6229028 0.49987 0.06402529 0.58588284 0.5913505 -0.5307624 0.6291173
天 0.22266345 -0.45475695 0.16545671 0.014124765 0.12216159 0.15791692 -0.33231768 -0.40885857 0.36385086 0.659912 0.27871287 -0.103790656 0.059350245 -0.4736759 0.26562867 -0.54667795 -0.44927 -0.5478868 0.8388582 0.5058471 0.36041218 0.21001512 -0.09237463 0.31020436 0.82953024 -0.8311509 0.44981042 0.5285525 0.71351063 0.6143038 0.6406696 0.7506225 0.30520037 -0.20821449 -0.14818345 0.41260922 -0.75497544 0.17069457 0.62197447 -0.23798704 0.6366482 0.51398003 0.020872958 0.69429785 0.64467406 0.2249834 0.7579062 0.32606214 -0.19183739 -0.14283648
乐 -0.19793096 0.9020211 0.55525976 -0.46084824 -0.52473557 -0.87566364 0.3597505 -0.19207098 0.3612305 0.118556604 -0.485188 0.2978003 0.58882517 -0.9433011 0.7104098 0.16544028 -1.1113117 0.87017256 0.10544692 -0.29941505 0.46199077 -0.15913887 -0.023543544 -0.58438325 0.7548718 0.5614106 -0.09010315 0.53395176 0.613868 0.41740257 0.09494357 0.44156408 -0.17269482 -0.0984837 0.13976593 0.14874396 -0.15325171 -0.6245897 -0.5218551 0.1947187 0.26538545 -0.9620991 0.2726092 -0.9332388 -0.46511734 0.00902305 -0.21300045 -0.012362997 -0.29657623 0.66077447
邦 -0.31668085 -0.21066545 -0.44128433 0.68502927 0.6336713 -0.71696544 -0.7589784 0.066847764 0.25378254 -0.7938597 -0.09030049 -0.31769913 0.22648203 -0.3017429 -0.31720197 -0.065327875 0.043017913 0.56814754 0.8458453 0.16049322 0.006735508 0.80061376 0.18950519 0.20445335 -0.66720325 -0.48915133 -0.007068681 0.34196797 -0.05510286 0.41271988 0.881688 -0.4837389 -0.29604614 -0.5175152 -0.67778146 0.6687377 -0.30321056 -0.2302358 -0.40949735 -0.01927757 0.88182944 0.5509122 0.88124514 0.39845166 0.19510068 -0.5280761 0.14241885 -0.42819718 -0.57495517 -0.69924295
亦 0.6472418 -0.53897727 -0.47754204 0.45513505 -0.7759728 -0.3393539 0.7245282 -0.038603015 -0.044745076 -0.12649468 0.6895307 -0.32504123 0.50725335 -0.6968549 0.2159071 -0.6219667 0.061947033 -0.5191167 -0.028464599 0.6335058 -0.62345594 -0.3755961 -0.59051734 -0.11341024 0.24751721 -0.8609876 0.8871326 0.41723138 -0.26271942 0.056771174 -0.01916649 -0.22232036 -0.22641753 0.12339503 -0.6786646 0.13146538 -0.2408961 0.5609287 0.28114828 0.08179721 0.13170578 -0.5878004 -0.25854436 -0.6045082 -0.703987 0.2467669 -0.56698567 -0.17209585 0.6550292 0.35774884
使 0.28445435 0.16420417 -0.32088956 -0.10637088 0.43449202 -0.31537393 -0.26117477 -0.57194644 0.2274589 -0.10838126 0.38063157 -0.7226565 -0.39104134 -0.47721085 -0.093041524 -0.35087729 -0.2251746 -0.26574013 0.88114387 -0.035412163 -0.7662838 -0.49940804 -0.37105322 0.5950656 -0.5490888 -0.5784234 0.54705006 0.26449355 -0.54029894 -0.009585669 0.6244512 0.68001276 0.28968224 -0.17455363 0.09850779 0.2712128 0.55988693 -0.58160394 0.3754878 -0.48052645 1.3727529 0.22014676 0.41405284 -0.15297839 0.9053945 -0.24117571 0.61825305 0.6339108 0.6440842 -0.29356816
大 0.4050619 -0.62299407 -0.9983621 0.34360695 0.15266062 -0.23522416 -0.109688506 -0.13309936 -0.59710187 0.49779138 0.5716228 -0.15100676 0.5482837 0.06270832 -0.5026283 -0.54695666 0.2997769 -0.57157737 0.2046964 1.0052077 0.60942703 0.32025102 -0.731705 0.59510803 0.49091452 0.09193475 0.9021894 -0.3932688 0.7040157 -0.59125704 0.28329378 0.53731656 0.20190996 -0.23539329 -0.17147481 0.3802951 -0.016140932 0.22645457 0.6962443 -0.52161205 -0.7497288 0.46393582 -0.045946654 0.610657 -0.315863 0.3010695 -0.33262986 0.3691863 0.60299295 0.77974695
下 0.723856 0.026445568 -0.52996606 -0.057514396 -1.2285694 0.43262306 0.3637172 -0.660587 0.44720265 0.10886208 0.72960216 -0.013441059 -0.655299 0.053938247 -0.30085984 -0.8028764 -0.013544307 0.32880145 0.19581266 0.77286744 -0.5251537 0.08363954 -0.23265655 0.094663836 -0.11291342 -0.109803654 0.052748 0.26257965 0.03053521 0.09124977 -0.632153 -0.16663198 -0.42778522 0.8949516 -0.41424268 -0.6008671 0.3778558 0.19845401 0.81203103 -0.15249577 -0.51723826 -0.25979003 0.50339997 0.4347287 -0.41012055 -0.46613163 0.064882316 -0.12164299 -0.53442144 -0.1414464
贡 0.21582565 -0.49646863 -1.2887266 0.8909302 0.100723356 -0.43499267 0.38388535 -0.569344 0.3551961 0.8590243 0.26612324 -0.2100796 0.40135035 -0.21392469 -0.7257527 -0.079247884 0.22102784 -0.40185866 -0.70946133 0.7830149 0.47007337 -0.06736467 0.012106036 -0.12676385 0.5041226 -0.16996019 -0.43691653 -0.058838967 -0.09697804 -0.14333166 0.15706442 0.04384131 -0.06614173 -0.78319025 0.9921195 0.11968948 -0.12988167 0.5876418 0.73492104 0.20263022 -0.0661914 0.305043 -0.8497163 0.33769464 0.13935323 0.11569301 1.0757298 0.6383503 0.3280743 0.46497577
欲 -0.4983828 -0.24505912 -0.3430519 0.4130681 0.63908947 -0.6608822 -0.011452124 0.2482301 0.43201432 -0.07403907 0.32492587 0.13702753 -0.7431543 0.2080894 -0.08368523 -0.3762667 0.13086072 -0.0035152226 -0.8184319 0.90158695 -0.9583222 -0.5804172 -0.3797181 0.13226016 -0.79213226 -0.19231309 -0.07880445 0.6215641 -0.84479517 0.45670176 -0.50439143 -0.008190781 -0.042235196 -0.043358117 0.33975765 -0.06671671 -0.06467474 0.0369958 0.22344494 0.34194034 -0.12204776 0.6513023 -0.04787285 -0.036744058 0.23598936 -0.46877506 -0.30250797 0.88838243 -0.87576026 0.427797
诸 0.38251927 -0.087060235 0.10817872 0.9189614 -0.6501416 0.26042655 0.32585484 -0.41629604 0.5907939 0.8577283 -0.20308727 -0.3754136 0.40984622 0.12727425 0.117711835 -0.1528493 0.6727397 -0.20613612 -0.32015294 0.48420352 -0.6181735 -0.77259594 -0.49130076 -0.37784705 -1.0493373 1.1365871 -0.61866766 -0.20273073 -0.10628313 -0.37669533 -0.29793796 -0.08190606 0.04263746 0.2519543 -0.3732693 -0.15036362 -0.5320444 0.4950347 0.6962941 0.20192674 -0.32120478 -0.025362017 0.57971245 -0.4243882 0.63521045 1.153527 0.28133637 0.6494853 -0.88985956 0.05107253
从 0.1364953 0.60953 -0.2781905 -0.16089596 0.7383604 0.8886058 -0.19333664 0.037860375 0.34084874 -0.9391063 -0.80280524 0.7820729 0.645995 0.2135937 0.5263016 0.48006716 0.35065773 -0.4257532 -0.07895509 0.83557665 -0.80729955 -0.5921015 0.5473616 0.15870187 0.7545374 -0.22304031 -0.3521933 -0.17066833 0.24838986 0.68693227 -0.8836631 -0.5354102 -0.1703574 -0.17679638 -0.15180278 0.6142805 0.2934026 0.9845888 -0.26349512 0.22507499 0.5045261 -0.16059086 0.51742053 -0.74029416 0.048090562 0.7886183 -0.32369113 -0.89171857 0.22163907 0.6497809
文 0.0076041985 0.20900448 0.68157256 0.034503073 -0.17820653 0.19546427 -0.1800507 -0.74309355 -0.025936857 0.64940834 -0.5640536 -0.48649335 -0.25360975 1.0825573 0.36740464 0.9700082 0.14240214 -0.37642187 0.3187806 -0.46705315 -0.24525933 0.15177585 0.41703188 -0.36001852 -0.46433833 0.4751546 -0.2597305 -0.5415519 -0.7300356 -1.1672179 0.008017677 -0.11254779 -0.6394641 -0.41107827 -0.7994506 0.25661525 0.60524625 0.16006699 0.26955223 -0.13934228 -0.25427276 -0.8973214 0.47449777 0.40526178 0.30806956 -0.47034562 0.30261624 -0.3144687 -0.3419343 0.48595133
政 -0.678122 0.9454433 0.32508582 0.43441942 -0.8796015 -0.11055543 0.37066102 -0.5164517 -0.34139612 -0.92318124 -0.23891054 0.4020119 -0.46493772 0.8338272 -0.15726271 0.3764323 0.5035149 -0.44195822 -0.27706417 0.355516 -0.37390605 -0.082175 -0.18847123 -0.20482022 -0.23127465 0.9450146 -0.031001728 -0.13862087 0.29069197 0.29831934 -0.30522144 -0.9791132 -0.36170626 -0.2362352 0.21123086 0.37703422 -0.9297147 0.33582073 -0.2074364 0.15457673 -0.8526404 -0.28791845 -0.16565458 -0.4260343 0.31545883 0.33349144 -1.0259522 -0.3403093 -0.5779525 0.18219386
食 -0.23540719 -0.32573357 0.19321294 -0.917243 0.70944023 0.8699299 -0.5277888 -0.7288878 -0.3164214 -0.45553726 0.7877869 -0.26277688 -0.2609321 0.06412788 0.050698884 -0.5430858 -0.24555276 -0.18765254 -0.58970106 -0.37314436 0.9199015 0.9265068 -0.03634271 -0.08111412 0.68221635 -0.4654211 -0.027917303 -0.79259294 -0.2412855 0.8986738 -0.41019645 0.57316196 0.43676317 0.5444847 0.8047925 -0.37354007 0.12218352 -0.3422731 0.32563427 0.227199 0.64658487 -0.62767524 0.2404853 -0.6147302 0.38135412 -0.45019448 -0.6228649 -0.82378495 -0.74082077 -0.8062545
善 0.9520333 0.5010456 -0.65876675 0.49874192 -0.77295655 -0.10051199 0.11938596 0.55307436 -0.061404422 -0.57243645 0.75251436 -0.31710353 -0.15716653 -0.27665436 0.24658495 0.7249245 0.23305546 0.17213215 0.6281219 -0.6631199 0.04621477 -0.54238594 -0.42849126 0.0451964 0.13425556 0.51515174 -0.57872194 -0.5703471 0.48463604 0.5324357 0.45298666 -0.71972686 0.3214539 0.65488434 -0.7075371 -0.14210044 -0.035831366 -0.7922261 0.5722556 0.018084066 -0.3491967 -0.6204069 0.21051988 -0.5970409 -0.44654688 0.5235478 -0.6226813 -0.6499691 -0.101632 -0.09517192
后 -0.63859874 -0.64402086 0.3851369 0.79881454 0.08204756 -0.15545908 0.2707823 0.33562315 0.13871098 -0.01578796 0.11401773 -0.58437955 -0.24337055 -0.5518683 -0.024142567 0.008534599 0.11857528 -0.17560124 -0.7464828 0.38879094 0.46553198 0.30680737 0.49129978 0.44462126 0.029540654 0.1571735 0.052643258 -0.89817077 -0.40278062 0.5608797 -0.32385913 -0.53839535 -0.06747691 0.016519004 0.648091 0.03594575 -0.6584254 0.011529249 -0.1263156 0.4037209 0.8004764 -0.010498865 0.702735 -0.6695475 0.2604095 0.63945246 -0.4900484 0.3099444 0.23499684 -0.19402856
德 0.2400844 0.46152627 -0.6942921 -0.22282791 0.05345476 -0.27403292 0.78693974 -0.39700332 0.27310893 -0.23639244 0.6811456 0.84566474 -0.7282477 -0.45984632 -0.21247374 -0.52274835 0.72893244 0.820891 0.7567265 0.32059523 0.16637284 -0.23578522 0.27847502 -0.30190158 0.76231706 0.41801795 0.22522946 -0.12103217 0.41469505 0.6920174 -0.17519666 0.071929194 -0.84335405 -0.3125663 0.15644795 -0.04048776 -0.8403214 -0.67755365 0.063935734 -0.90217954 0.22090623 -0.2672949 -0.3114757 0.22631025 -0.46024358 0.41386858 0.08240072 -0.4138115 -0.10645243 -0.20133784
求 -0.55805403 0.28031802 -1.2179589 0.4752447 -0.07574963 -0.6701062 0.27051213 0.34009334 -0.5695126 -0.275248 0.4432539 -0.13138938 -0.27436736 0.34781647 -0.44507667 0.64550006 -0.21089989 -1.0207901 0.62100506 -0.5217269 0.8363599 -0.1633702 0.32079762 -0.22505657 0.5461276 -0.4073428 0.41968697 -0.6380378 -0.09660907 0.43031785 -0.15583794 0.79259664 0.12020927 -0.42409685 0.34865448 -0.49686077 -0.58169127 0.41536844 0.6656151 -0.49517453 -0.9651684 -0.046458695 -0.79887015 0.9026679 -0.6804479 0.21076222 0.53130376 0.89851993 0.49267265 -0.25996068
对 0.22493699 -0.6195149 -0.7692194 0.82645744 0.8774174 -0.10563693 0.7284432 -0.7436937 -0.7559894 0.021632383 0.019072855 -0.583784 0.21263285 -1.0858333 0.6331122 -0.54271 -0.029628688 0.002655676 0.09892782 0.20103237 0.4892613 -0.07167415 -0.76945376 -0.5188855 0.31002802 -0.85466725 0.10491138 0.025858866 0.0918651 0.7657842 0.21968676 -0.47937545 0.26079643 0.38314188 0.29730228 0.11850042 -1.1784064 -0.5515065 -0.32545802 -0.58342975 0.871113 -0.118065156 0.138391 -0.27888617 -0.18021266 -0.4091369 -0.55493677 0.12320264 -0.45682314 -0.41651636
恶 0.86147827 -0.5854258 0.23002619 0.16101997 -0.8887876 0.23235194 0.08118927 0.48610198 -0.27500042 0.33046618 0.20214713 0.7432478 -0.9818739 -0.015854528 0.0117733665 0.28990296 -0.2158964 -0.042911064 -0.23196928 -0.07903071 0.72835237 -0.16374202 0.13123907 -0.44711018 -0.81552565 -0.16091752 0.37662345 -0.23282553 -0.35679623 0.16722335 0.16363664 -0.1332472 0.49832815 -0.21408555 -0.542146 -0.94132304 0.39293155 -0.025697926 0.15987836 -0.9405207 -0.7450745 -0.49994195 -1.0667413 0.24409878 -0.22933342 -0.13694865 0.6251082 -0.022831058 0.90915424 -0.17107055
信 -0.4079477 -0.5449583 -0.2659527 0.546085 0.8662815 -0.09213169 -0.26522508 -0.19211227 0.16810016 -0.1377188 0.47420505 0.192254 -0.1464144 -0.0878862 -0.26087093 -0.59556013 0.12448492 -0.111295514 -0.24161634 0.16054943 0.30340046 0.2981961 -0.15612486 -0.48603645 0.48881495 0.0063536055 -0.6341083 0.8251058 0.09387316 -0.11836048 -0.25697112 -0.28683674 -0.21207963 0.49848047 0.21261665 -0.040295742 -0.9436943 -0.19453548 0.30766383 0.85808104 0.28334403 0.9203439 0.66780925 0.76362234 0.9904944 1.0108817 -0.6639863 -0.76865005 0.1310507 0.8696701
死 -0.44650063 0.27848822 0.5390581 -0.7460374 -0.011252354 -0.82746404 0.24346793 -0.83101803 0.3929819 -0.27845287 -0.18847929 0.2174845 -0.3986274 -0.15661068 0.6156203 -0.20310184 -0.20251185 0.5937762 0.42662275 -0.14826012 -0.88061064 -0.7492156 -0.18131047 -0.77897143 -0.48761916 -0.33171138 -0.6809705 0.27838826 -0.42542115 0.42714763 -0.57535315 0.040206283 0.756847 0.9432904 -0.7068595 -0.6815176 -0.4841434 0.564256 0.35500723 -0.7408067 0.6486205 0.25385523 0.75722253 -0.15317129 -0.046399865 -0.14047694 0.52434003 -0.46461794 -0.72898316 0.63459367
然 0.05960653 -0.024939992 -0.03739742 -0.20324354 -0.17206953 0.97432286 -0.014049369 0.4328011 -0.49431944 0.75026494 0.79448307 -0.9726126 -0.37185383 -0.23710358 0.8493744 0.09755967 -0.2952252 0.05116568 -0.07852196 -0.09910149 0.8941806 0.27054444 -0.9771131 -0.4697018 0.41680548 -0.15888241 0.46702963 0.7616576 0.118883274 -0.48107558 -0.15163428 0.23760568 -0.18937764 0.42515498 -0.057745162 0.43106318 -0.59832346 -0.056741312 0.95318407 -0.026220754 0.36904603 -0.5662776 -0.04372714 -0.33936352 0.25166464 1.0212022 0.57020473 0.4029533 0.20123985 -0.74060047
《 -0.68497956 0.9066439 0.7328862 0.64163303 -0.48121464 0.8466092 0.04183568 -0.47352841 0.16055639 0.37373316 0.6659027 -0.38927674 0.04145048 0.11888942 0.12735596 0.119886294 -0.21518141 -0.39816743 -0.15297765 -0.5518461 -0.42907274 -0.13229275 0.918076 -0.1822874 -0.40760896 -0.15345089 0.356176 0.72790504 -0.10953706 0.05468502 -0.33024478 0.63807136 0.5873078 -0.828357 -0.048310094 0.29677886 -0.86486423 0.19685993 -0.16063029 0.50879675 0.37090537 0.7370738 -0.030569404 0.10310055 0.104556575 0.87946194 -0.56231713 -0.65895635 -0.17806707 0.43484327
》 0.54842484 -0.051657427 0.77896523 0.120554894 0.09100948 0.39645535 -0.5255103 0.20057859 0.06625185 0.6548114 -0.29475376 0.2605937 0.72372586 0.063486144 0.17805327 0.28069395 0.11821698 -0.44348386 -0.36278757 0.3630188 0.35545114 -0.5023291 -1.1104413 0.8305251 0.2683138 1.1664857 0.5685757 -0.40853158 0.87080526 -0.28434548 0.77882516 0.4505946 -0.2708185 0.9922565 -0.6771227 0.7336524 0.075084984 0.04610793 0.06481724 0.06775412 -0.02443839 -1.0197124 0.40807673 -0.7260535 0.81884444 0.7655836 -0.40642408 0.64820397 0.37548584 -0.30751562
由 0.76184666 0.38728693 0.061562255 -0.009310169 0.5849185 -0.031218752 -0.6227308 0.081801735 0.5010252 -0.0667708 0.8016519 -0.58655417 -0.17998585 -0.52463156 -0.010238534 0.7090427 -1.0930551 -0.702853 -0.4759126 0.13634981 -0.29119295 0.12010954 -0.5085756 0.23290206 0.01723337 0.043630406 0.055128396 -0.09425986 0.51622087 -0.5881901 -0.7128252 -0.5397363 -0.4363571 -0.08827827 -0.5500057 -0.6341922 -0.51173294 -0.119986825 0.50890034 -0.39644206 -0.03717717 0.6989275 -0.026686633 0.3453541 -0.2187103 0.21959165 0.5687646 -0.735404 0.11594205 -0.44116238
仲 -0.045165222 -1.0885018 0.41927093 0.86034477 -0.11825611 0.88711494 -0.8393157 -0.3060256 -0.37607414 -0.1998953 -0.009475098 0.7728455 -0.14508967 0.42903087 -1.0810248 0.5613211 -0.38666904 -1.0469493 0.40631577 -0.21694294 0.42535743 0.14251316 0.42394018 0.43478486 -0.09971432 -0.298931 0.29234308 -0.69525135 -0.20981798 -0.46330887 0.17835651 0.587452 0.36819908 -0.71131873 -0.38306335 0.27616367 1.0548235 1.0075125 0.117082715 -0.001980116 -0.8226467 -0.3464442 -0.22435148 0.3486157 -0.038952142 0.2611067 -0.9633246 0.13318972 -0.06521213 -0.25876766
非 0.2694669 0.11568724 -0.022483286 0.39247754 1.0162934 -0.16105059 -0.5095236 0.05854731 1.1223 -0.06917646 0.79025143 0.8863729 -0.85203016 -0.8977441 0.124941096 0.5022003 -0.24909915 -0.2934223 -0.85450375 0.9631216 0.08251027 -0.039332096 0.093624905 -0.36389166 -0.965368 -0.56780773 -0.17924422 -0.107618846 -0.4300297 -0.785676 0.061238118 0.37127694 0.109868936 -0.48882255 -0.35499936 -0.18445209 -0.5024331 0.25845766 0.14229773 -0.2928039 0.23625818 0.7414777 -0.18863869 -0.10941231 0.4402822 -0.2767469 -0.31372255 0.056615025 0.2718941 0.3135473
出 -0.8037972 -0.8920618 -0.4532863 0.8385664 0.4665961 0.21499304 -0.6153753 -0.6635899 -0.3621091 0.7436531 0.66150516 -0.025880003 -0.43321714 0.029152846 -0.40831712 -0.649847 -0.085810386 -0.32767558 0.43010888 0.59256274 0.47508383 -0.10437234 -0.20969279 -0.4678345 0.14158848 -0.40314844 0.26691133 0.048888333 -0.004261379 0.23767467 -0.09342957 -0.052677803 -0.07848557 -0.7341404 0.24797682 0.5169287 -0.7113747 0.21268988 -0.044907365 0.23921189 0.35374165 0.7181367 -0.23722632 0.68939453 0.019686276 -0.47160316 0.77334565 -0.5967686 -0.24122375 -0.4780923
过 -0.4411208 -0.764501 -0.27564374 0.36831853 0.231953 -0.2710053 0.16666791 -0.8423901 0.12064373 0.337128 0.17983036 0.3576801 -0.7916712 -0.47306296 -0.25105563 -0.16442916 0.23830412 0.3797582 -0.115015455 -0.3661897 0.8081137 0.62729937 0.42317453 -0.49876943 -0.7760557 -0.1752344 -0.69233435 -0.2861259 0.38782892 0.1482893 0.5918692 -0.024758348 -0.36915842 0.14368102 0.07944624 0.3966531 0.43053752 0.11515583 -0.5506359 0.090482846 -0.8163781 0.10889886 -0.33131132 0.45014834 0.22521074 -1.0559629 -0.18133034 0.6945692 -0.7138098 0.36340132
一 -0.076295026 -0.68088496 -0.13969405 0.74966955 0.79208446 -0.23926711 -0.6594893 0.20598494 -0.24516378 0.8486362 0.19832718 -0.5807269 0.3938687 -0.78117484 0.24237311 -0.18649372 -0.5134305 -0.6164569 -0.11989417 -0.14318687 0.49150372 -0.26282734 -0.3883746 -0.047861256 -0.9062308 0.6241457 -0.33873013 0.3159983 -0.78522754 -0.7780512 0.011871947 0.59015185 -0.008313188 -0.10342412 0.4026773 0.4574065 0.006428749 0.066969186 0.3791469 0.0030452835 -0.123938985 0.71677464 0.52119064 -0.24751246 0.5241513 0.31898943 0.7503054 -0.51469827 -0.6826509 -0.52929443
虽 -0.22892012 0.671741 0.1360498 -0.36444378 0.33619815 -0.3048027 0.75465846 0.7139417 -0.44945908 -0.58590865 0.3671199 0.5896801 -0.76368517 -0.44796926 -0.51191163 -0.42914036 0.706153 0.06422897 0.5571479 -0.26797193 0.6502734 -0.20206216 -0.30462998 0.3575364 -0.6302382 0.18362106 -0.59257644 -0.8204208 0.3672313 0.2211788 -0.21970232 -0.24180686 -0.24838756 0.15082341 -0.15235528 -0.31630838 -0.3221647 -0.34356952 -0.37297547 -0.17942198 -0.52193666 -0.36627078 -0.11500852 0.62997586 0.2879707 0.6111481 -0.74650943 0.20156388 -0.5842331 0.22048377
足 0.4221901 -0.16110305 0.5919248 0.51149964 -0.0069831386 -0.33562014 -0.53423005 0.6186135 -0.14490794 0.3111286 -0.41131067 -0.43552896 0.46406755 -0.6566059 0.21169284 0.40753073 -0.5300553 -0.5371981 -0.27373976 0.29616544 0.60567737 -0.36144453 -0.045786455 0.49837494 -0.20421438 -0.107981354 0.54006934 -0.4668259 -0.23861353 -0.20043485 0.12313773 -0.76025426 -0.35014966 -0.45421404 -0.26092398 0.18781969 0.61428666 -0.6918422 0.5216265 0.70032454 0.35957554 0.18752478 0.28102875 -0.50417244 0.6416986 0.42945403 0.46962062 0.3538198 -0.49364161 -0.5461612
居 -0.12093702 0.17139451 -0.19749476 0.6283242 0.44809067 -0.20506704 0.16271827 -0.8058117 -0.4763205 -0.6073574 0.19647619 0.64048487 -0.04713146 -0.65470934 0.14760743 0.1356198 -0.1755003 -0.23072058 0.14291108 -0.5351113 -0.13861743 0.84483534 0.5953533 0.03475692 0.9783739 -0.8897882 -0.59293973 0.06929714 0.57173777 0.76762205 -0.28903976 -0.06347714 0.0052216197 -0.6977634 -0.13731866 -0.4273589 0.14598256 -0.68389374 -0.82251245 -0.5019172 -0.15160102 -0.6810471 -0.27346465 -0.07450926 -0.3591784 0.23802085 -0.21569635 0.45610097 -0.6903704 0.116060324
尔 -0.47930157 -0.39888173 -0.5236367 0.717475 -0.5035851 -0.29873177 -0.31198874 0.6730211 -0.35649088 -0.44036227 -0.32123476 -0.073880784 0.7095548 0.10209004 -0.5818886 -0.30842948 0.15986717 0.30520636 -0.37592348 0.7097301 -0.8805288 -0.75643194 0.20163707 -0.2211102 -1.229534 0.08963278 0.052938394 -0.67383903 0.7679507 -0.26342508 0.19490078 -0.8906121 -0.24956012 0.03771464 0.093402386 -0.8662015 -0.9432184 -0.058076683 0.1194764 -0.038734887 -0.3836568 -0.18522522 0.6608678 -0.80274045 0.9204129 0.5801469 -0.19993177 0.01902344 0.3611897 0.56894094
夏 -0.2247219 0.12402025 -0.92179126 0.24950755 0.18005154 -0.6243801 1.0086466 0.31944624 0.2973641 -0.30707365 -0.08236956 0.15145987 0.18910171 0.1974304 0.32266098 0.79130065 -1.0462928 -0.014651132 0.6743989 -0.07946792 -0.91274303 -0.16841705 -0.7440835 -0.14736009 0.91400933 -0.4833732 0.40338182 0.6315256 -0.075753756 -0.19418351 0.6305214 -0.26722348 -0.11106284 -0.93893963 0.11102683 -0.08633896 -0.3830035 -0.037556674 -1.013953 -0.09510889 -0.007200175 0.13484725 -0.550799 0.28627044 -0.43880835 0.6951937 0.28151295 -0.5526151 -0.01849065 0.58031404
父 0.0899999 0.6201556 -0.0822943 0.388833 -0.32222173 0.1850931 0.60426813 0.5469405 -0.012524839 -0.42474982 -0.62880087 -0.2135551 -0.21531895 -0.57490814 0.50082266 0.6468411 -0.41534594 0.45503837 0.6772476 -0.112674564 0.5462262 -0.83989143 -0.82607365 0.25988182 -0.2068778 0.7077013 0.7010612 -0.24228641 -0.13796058 0.33570364 -0.038168866 -0.76541066 -0.6959072 0.1717129 0.030755904 0.37498662 0.1928992 -0.7129008 -0.80022585 -0.06379292 -0.23959066 -0.42135194 -0.16245852 -0.104958355 -0.24753629 0.41041034 -0.5624075 0.20234199 -0.039981287 0.053421307
及 -0.33146003 0.8516281 -0.8447774 -0.7432927 0.20294657 0.27207673 0.091073245 0.27692595 0.82651675 -0.84809154 -0.1417033 -0.090461984 -0.2619801 0.7173211 0.33913508 -0.26098484 -0.73844004 0.34990343 0.4000772 0.924538 -0.58880764 0.2881161 -0.047553014 0.4433761 0.85766864 0.40189064 -0.16092452 0.041297827 0.55116946 0.73676854 -0.21252233 0.4259072 -0.19599934 0.3061205 0.06632261 -0.3059481 -0.4499554 0.057931494 0.34731674 -0.71159804 -0.27612743 -0.6789602 -0.062642574 0.062544145 -0.24172461 0.36824936 -0.57091004 0.77320296 -0.7485698 0.015186904
己 -0.61059904 0.4693556 0.91479576 0.19462448 -0.52735645 -0.45725203 0.6437005 0.07512379 0.2776866 -0.7233103 -0.60257035 -0.5852203 0.2926847 0.030147495 0.37906158 0.03132935 0.32852802 0.96580017 0.054587945 -0.54561657 0.16660772 -0.9708072 -0.4374808 0.731633 -0.79584694 -0.005740167 0.38598427 0.28470427 -0.68969035 0.9294408 -0.4526228 -0.19400902 0.22772685 0.36040452 -0.30749622 -0.2043161 -0.30840188 -0.63198316 0.11097095 0.6975516 -0.041419595 0.07750283 0.62084085 -0.081522204 -0.61202955 0.53009707 0.31838286 0.3442712 -0.1592406 0.15516788
予 -0.34562755 0.25906494 -0.48405728 -0.24148665 0.17969435 -0.7325258 0.682649 -0.5451791 0.3284499 0.27131405 -0.42996722 -0.705457 0.472245 0.25979835 -0.60353047 0.66375256 0.4431884 -0.54635704 0.24988787 0.45528078 -0.019524297 -0.46451345 -0.05235135 0.30725732 0.20871711 0.43345255 -0.4775977 -0.24758713 -0.036191754 -0.17164159 1.0756838 0.15605077 0.4521108 -0.32684425 0.587526 0.7153816 -0.2713977 -0.9310334 -0.7696259 0.12932323 0.013787764 -0.89769906 0.5742821 0.4823805 0.28244615 -0.5176004 -0.30829558 0.65336335 -0.022235582 0.93855715
色 0.22229847 0.20232128 -0.4439445 -0.58367634 0.020667614 -0.43579304 -0.70408225 -0.14453956 -0.56427884 -0.32592586 0.80888003 0.20559572 0.093620084 0.9462373 0.13788663 -0.12743245 0.32292038 -0.009863243 -0.3640429 0.47280154 -0.30668458 0.19346201 -0.2504493 0.3787054 -0.56568074 -0.13873474 -0.7648205 -0.2314417 0.16884379 0.36827773 -0.61347955 0.73119503 -0.3054188 0.40418035 0.4692155 -0.74361223 -0.06053006 -0.067609005 -0.47593662 -0.18061692 -0.30885974 -0.21217161 -0.8083892 0.83195657 -0.8392456 -0.6405499 0.47169814 -0.4887171 -0.76781964 0.79783446
友 -0.15776998 -0.7302064 -1.0178006 0.71320146 0.22956476 0.3120632 -0.64152396 -0.5094128 -0.9426805 0.133088 -0.27262726 -0.80433106 -0.5022339 0.23376414 -0.6796706 0.20255592 -0.9860001 -0.009323961 0.059081353 -0.006986883 0.058737595 -0.17418113 0.12705366 -0.91401595 -0.025474831 -0.81304556 0.10045042 0.5394668 -0.092194006 -0.6703953 0.41805536 -0.25734255 0.9772247 -0.56840795 0.7437028 0.6511676 -0.1474045 0.3405941 -0.580412 -0.43028975 -0.23440057 -0.6040478 -0.03454424 0.49078336 0.23623097 -0.14528061 -0.050931524 0.54278773 0.29474172 -0.21188924
成 -0.6605314 0.40096945 -0.1125218 -0.15293904 -0.6910876 0.13870314 0.7129293 0.6666138 0.5040379 -0.74583036 0.8044627 -0.3282036 -0.037539646 -0.68252546 -0.760559 -0.8680475 0.15799826 0.984359 -0.29429165 0.46584043 -0.07317437 -0.22457585 0.1635586 0.5069431 0.53811973 0.2067558 0.89690554 -0.3512345 0.8295233 0.49886703 -0.73202515 -0.11243411 -0.08389836 -0.2852518 0.45059466 -0.1011902 -0.70437664 -0.790224 -0.71558136 -0.3297649 -0.06044991 -0.4245058 -0.6027718 0.58452606 -0.535282 -0.51008475 -0.12697168 0.28911626 0.24726912 -0.20790994
远 0.5973836 -0.20346506 -0.40058097 -0.2517703 0.3619785 -0.33942792 -0.35412654 0.35424164 -0.81972414 0.5915889 0.5565714 -0.69528264 0.7306574 -0.68337023 -0.29304662 -0.80742 0.23598447 -0.6021937 -0.08009004 -0.41982657 0.92362446 0.6050625 0.2658481 0.48086354 0.34726673 -1.1085178 0.04147899 -0.87851495 -0.49166757 -0.30810237 0.35058528 0.035010077 0.36831215 -0.4356627 -0.51948476 -0.31304276 0.18399069 0.3687955 0.7819192 0.9323143 -0.029360063 -0.36082378 -0.53586555 -0.41994926 -0.012273433 -0.23956266 -0.21024255 -0.5675961 -0.08896538 0.12148909
上 -0.51558745 0.1437278 0.30155587 0.5192601 -0.48223707 0.5615804 0.77589905 0.12133129 0.08531178 -0.32553867 0.39149567 0.80542463 0.2724372 -0.8379128 0.18942276 -0.31570077 -0.037795004 -0.4171196 0.44355276 -0.25206816 -0.2724259 -0.17465642 0.5466874 0.33392078 -0.3852953 0.27372083 -0.1727393 -0.30137753 0.2904077 0.56835026 0.47017974 -0.9116858 -0.46024096 0.85230196 -0.40665525 0.5363221 0.32590654 0.013615213 -0.86358005 0.7961027 -0.55885094 -0.5534823 0.010534953 -0.1846622 0.494128 -0.27675012 -0.3944198 -0.42456368 -0.45633936 0.44442827
立 0.40902266 0.09943188 0.26421317 0.0069433665 0.56288004 0.15009934 0.01133025 0.5195501 -0.009782357 -0.1959648 0.34052926 -0.10161322 0.82566375 -0.43170527 0.7262264 0.34361392 0.3618141 0.02993526 0.6804561 -0.5699412 0.05023349 0.56295294 0.8267091 -0.13296737 -0.0802512 -0.37471563 0.09646504 0.2618079 -0.27155262 0.19730106 0.1884845 -0.38378322 0.39507088 0.18188044 -0.73813576 -0.4888816 0.36054215 -0.3502197 0.22440816 0.34385338 0.28868338 -0.65123683 -0.42634365 -0.32545328 0.31625357 0.38258258 0.39123395 -0.9223694 0.32096884 -0.22402935
今 -0.63051075 0.039153613 0.17513558 -0.40654182 0.08292208 -0.6106853 0.44102222 0.025533795 -0.40951705 0.4079991 0.008363511 0.28662544 -0.77609664 -0.7314277 0.119844876 -0.7489497 -0.32385847 0.13024835 -0.27812055 -0.60544586 -0.15667923 0.39929223 0.48807177 -0.37501305 -0.49076915 -0.69939566 -0.6343144 0.4373206 0.6669859 -0.29670686 0.01592481 0.5166542 0.5180946 0.53009397 0.53320944 -0.49476564 -0.014066484 -0.5961231 -0.30169258 -0.47513652 -0.27788702 -0.16468748 0.15454091 0.42338014 0.9171195 -0.13581653 0.22469775 0.7984487 0.19884446 0.40713325
张 0.05634569 -0.76370746 0.15515088 0.3301747 0.2515352 0.11700334 -0.052282535 0.47676867 -0.73047304 -0.797618 -0.0828681 -0.75298816 0.5022297 -0.8302285 0.19700652 0.5769148 -0.56895334 -0.60053265 -0.57297856 -0.446721 0.072421275 -0.34951043 0.19704774 0.093026035 0.033064615 -0.7263786 -0.3149049 -0.21136726 -0.6917761 0.5501986 0.29053792 -0.7292082 -0.66859454 -0.24639697 -0.049253933 0.21064961 0.7058279 -0.77343345 0.030084182 0.43600607 -0.19554281 -0.662216 -0.507782 -0.61789674 0.5704544 0.2576319 -0.42167705 -0.5305821 0.15646152 0.29246974
中 -0.45369294 0.33056608 -0.33984283 0.039076693 0.6900655 -0.92122245 -0.031639963 0.93808496 -0.4321154 0.15954086 0.49150681 -0.073569134 -0.039125968 0.3630732 0.788026 0.12824665 -0.06779166 -0.09136255 -0.85400546 -0.37376496 -0.5290502 -0.19235586 0.1402533 0.6572258 -0.017062346 -0.16908038 0.4205719 -0.026987666 0.62379 -0.1985949 -0.114766814 0.4599294 -0.7455691 -0.66815674 -0.33108962 -0.7750949 -0.5871565 0.0809826 -0.097354285 -0.7118783 0.014912259 0.5668827 -0.9102173 0.9222258 0.63663346 0.1393725 0.6830305 0.7059365 -0.02042894 0.16363733
季 0.120968595 -0.094807126 0.04399484 -0.14411381 0.0059488066 -0.5984146 -0.00949422 0.22927248 -0.017888231 -0.024379784 -0.1970774 -0.14458396 -0.097750455 -0.48132786 -0.120247796 0.45553112 0.42209944 0.28262493 0.48059246 -0.011367179 0.10819729 -0.1538167 0.07810272 0.7793083 0.2674965 0.1264582 0.3298567 -0.28616735 -0.017937368 0.31719682 0.33432797 -0.18711002 -0.2651177 -0.1330852 -0.06216596 -0.10352925 0.44282836 -0.21371178 0.05264768 0.52857745 -0.08534209 0.03405309 0.14612412 0.2752908 -0.13949624 0.011852602 0.57164973 0.01940206 0.22537653 -0.06851438
臣 0.16178319 -0.20024563 -0.21351735 0.24879208 0.033448894 -0.34010252 0.031641595 -0.0023874086 0.36758286 0.09697592 0.75464916 0.25707102 -0.063640505 -0.06262836 -0.117382206 -0.6294174 -0.2996845 0.59571445 0.4014806 0.30156925 0.07169193 0.08418338 0.77070117 -0.22876553 -0.24113095 -0.5864465 0.28204355 0.5803689 0.12449149 0.2535691 -0.32348835 0.36369726 0.5526219 -0.5873185 0.27712592 0.066122524 -0.8402953 0.13653947 -0.05074917 -0.028237319 0.18000041 0.31910086 -0.030389136 0.09858456 0.019285299 -0.1213989 -0.050551154 -0.3383679 0.357019 0.36796713
贤 -0.6692147 0.43540907 0.58756095 -0.1744399 0.739497 -0.12665375 -0.6113073 -0.18332225 0.28927296 -0.8466131 -0.4882338 -0.77514243 -0.99341446 -0.075633794 -0.5660857 -0.5986501 -0.6345367 0.089879744 0.2417549 -0.61855346 0.7074849 -0.1540622 -0.64501804 0.20935233 -0.009514492 -0.074553035 0.16956572 -0.5929026 -0.34143063 0.7389972 0.32264072 -0.19943152 -0.068254255 0.21379682 0.6811145 0.37783185 0.5524956 -0.5459327 -0.5360564 0.08584803 -0.052138783 -0.31601912 -0.6292348 -0.68239677 -0.6931738 -0.70541376 0.13880202 -0.29948822 -0.03401492 0.66189164
思 -0.012337559 0.3045811 0.66368604 0.7207565 -0.100127205 -0.34503788 0.02205649 -0.113763854 -0.31064188 0.25571445 0.2402542 0.797892 -1.0160543 0.62981546 0.81880283 -0.79142404 -0.8753619 -0.10241495 0.33708888 0.06751462 -0.106100455 -0.03937064 -0.07727492 0.7284233 0.40045807 -0.60507005 0.5309058 0.30783996 0.20746814 -0.23804483 0.25419733 0.30258742 0.42281282 -0.43585506 0.64599717 0.17680931 -0.5300325 -0.17745073 0.0072851307 0.41668555 -0.29849166 -0.98951805 0.16926166 -0.018689135 -0.12010647 0.10757655 -0.5143766 0.235162 -0.008845812 -0.06570907
齐 -0.033710808 0.118820556 0.87878007 -0.48446316 -0.64037734 -0.16647072 0.6384573 0.3600771 0.33115703 -0.20443179 0.13358977 0.10427658 0.78668463 -0.14106292 0.35246027 0.42376715 -0.82404417 0.5470109 -0.3927237 -0.41173774 -0.26439476 0.47549394 -0.08057659 -0.40644133 -0.9017457 0.6437875 0.72995204 0.20815517 0.6784166 -0.6711926 -0.3000762 0.54027516 -0.10528514 0.43963277 0.1715145 0.25095722 -0.52726996 -0.6038546 -0.24677332 0.6796834 -0.065052725 -0.4717173 0.67027074 -0.20100439 -0.056303494 -0.85511315 -0.11405377 -0.13863459 0.3542157 -0.0736742
义 -0.34455487 0.03701844 1.0682895 0.31158024 -0.031493705 0.24795905 -0.2165462 0.054580614 0.6305729 -0.4244381 0.49574175 0.32116616 -0.75608855 -0.12193094 0.7011994 0.8904437 -0.7501382 0.22277361 0.59673023 0.22451034 0.3565462 0.27064693 0.06669264 0.09027759 0.21609673 -0.48142153 -0.9129651 0.5684479 0.20557897 -0.30368847 -0.19365066 0.483942 0.868207 0.49136916 -0.7551632 -0.30503362 -0.026926387 0.19105878 -0.4539406 0.31376275 -0.36013076 -0.71141624 -0.16075076 -0.39264542 -0.28799137 0.21742311 0.12060548 0.2757107 -0.21274042 -0.24300568
正 -0.08845191 -0.20857988 0.8338737 0.6893488 -0.10648235 0.216912 0.053398922 -0.460304 0.69443053 0.079115696 0.4856933 0.05305156 0.78342307 0.48426133 -0.19760226 0.4042023 -0.112372816 -0.019138662 -0.82945126 -0.6089286 -0.77559733 0.7846747 -0.535811 0.47962734 0.17749225 -0.7032762 0.7476544 -0.45044905 0.3124925 -0.023647439 -0.6127499 0.11940363 0.59889853 -0.011079721 -0.24157558 0.10018321 -0.18607084 -0.11833879 0.07228724 0.3184692 0.66515994 -0.5088496 -0.1560691 -0.16418749 -0.18178701 -0.249472 -0.23694442 -0.51813734 -0.5647149 0.25666797
命 0.23028009 0.3877606 0.3457781 -0.19336742 0.18871368 0.18479729 0.32798594 -0.6182506 -0.060317587 0.40314224 -0.08412048 -0.09175785 -0.25211728 -0.22875132 0.6218232 0.9168741 -0.82103723 0.6480578 0.5106466 -0.83390886 0.12189718 0.84386116 0.57187074 0.48682287 0.4522081 0.19043756 0.8517676 0.40151176 0.17277141 0.1868848 0.338637 0.40127036 0.3483067 0.29335088 -0.14481573 0.8054132 0.18682651 -0.9762243 -0.69283015 0.3810954 0.76575553 -0.59249765 -0.5210838 0.35340622 0.27150518 -0.53412527 -0.07488927 0.4462315 -0.2914608 -0.103486754
曾 -0.2465985 0.37808657 -0.09322579 0.30707008 -0.5717023 0.19859989 -0.23637071 -0.7257872 0.47829336 -0.2906314 0.48577785 0.82049286 0.67464185 -0.8662392 0.724183 0.27228498 -0.1410145 0.3324159 -0.20815681 -0.9192733 -0.3618964 -0.08787371 -0.5150046 -0.21494822 0.21588114 -0.28419402 0.3016211 0.71519387 0.47289738 -0.33250117 0.12335955 0.6925443 0.22639371 0.34688357 0.046124667 0.7625407 -0.7506804 0.25202876 0.09144434 -0.42043513 -0.98169726 0.34664544 0.079632886 0.4293913 -0.37005618 0.22061911 0.4206782 -0.7634685 -0.020782582 -0.019801538
伯 0.03449 0.8687576 0.021388557 -0.28495455 -0.51173687 -0.61842793 0.5069262 0.33641025 0.3814546 0.2572191 -0.12789586 0.18985711 -0.053652685 0.44926617 0.69114786 0.4857688 -0.69030994 0.027528845 -0.17376508 -0.9674682 0.48270288 -0.9681311 -0.11089505 0.12318615 -0.0025218788 -0.12921904 0.28168994 -0.6136297 -0.17893933 0.4532216 -0.89558405 0.37352332 0.3144351 -0.30815095 0.21716635 0.58692807 0.6564745 -0.4294847 0.9045503 -0.057736475 -0.6342936 0.124106534 -0.8054079 0.2657215 -0.67306745 -0.23221512 -0.03410684 0.16897745 0.67409676 0.6407734
门 -0.45361573 0.1430549 -0.7390756 0.47602132 0.2212375 -0.32424748 0.09018189 -0.701151 -0.2692808 0.46648335 0.7467147 0.013435233 -0.23609342 -0.08574818 -0.26293987 0.8103343 -0.28819296 -0.11350356 -0.2220679 -0.46668267 0.31894675 0.59123576 -0.6161058 -0.7479596 -0.98823786 0.35819453 -0.033572454 0.31378695 0.38722253 -0.27911472 -0.739667 0.13683239 0.35386428 -0.70613235 0.896889 0.073376305 -0.5743914 0.8153469 0.419821 -0.4039907 0.20386955 0.499684 0.5372636 0.3415316 0.68456864 -0.7438371 -0.0048325895 -0.04162483 -0.012026687 -0.6234871
敢 -0.18630785 -1.0157378 -0.13490333 0.19952102 0.560768 0.39478004 -0.48755786 -0.47956228 0.12480605 -0.12442119 0.4499742 -0.7322521 -0.5474626 -0.5355384 -0.13688926 0.12621003 -0.45156217 -0.44682595 -0.3681493 -0.39448348 0.9666455 -0.34992588 0.01587512 0.13573696 0.04376957 -0.15042415 0.3585054 -0.44430095 0.14515176 0.6371513 0.20446126 -0.3105439 0.6148714 0.7502835 0.64715165 0.043682516 -0.3971785 -0.28528377 0.38463354 0.62618566 0.37086523 0.50833815 0.12906386 0.44172022 0.88705933 0.7782454 -0.8322813 0.051969264 -0.26309007 -0.46834278
犹 -0.016840428 -0.8591544 -0.2805907 -0.27953264 -0.8315364 -0.17287974 -0.76918316 -0.22876625 -0.298969 0.45790908 0.8420708 -0.71987617 -0.23918344 -0.024983393 -0.30704537 -0.01550256 -0.03155514 -0.1309833 0.05811651 0.26814544 0.6028648 -0.30773133 0.103228204 -0.033968188 -0.29472238 0.6676714 0.38182864 -0.08923186 -0.9405992 0.050009377 -0.8584266 0.057930972 0.044243004 -0.79941505 0.8966121 0.5725225 -0.14221744 -0.4573845 0.29956415 0.15399256 -0.63818127 -0.38831368 -0.12591004 -0.12510651 0.17199087 0.77828664 -0.08570586 0.21978375 -0.057803303 -0.20035014
生 -0.7868402 0.060103733 0.9365972 0.14477141 0.69033456 1.090884 0.27047655 -0.7968909 0.74746644 -0.9313549 -0.26319724 0.48154005 0.4093051 0.21322487 0.19397351 -0.8874323 -0.4462581 -0.583403 0.37729123 0.045761198 -0.41813156 -0.312144 0.009424396 0.14506692 -0.008785587 -0.8502332 -0.24611177 0.827092 0.86392623 -0.33447185 0.27549836 -0.37171218 0.20111391 0.18465109 0.3982421 0.19217433 -0.84701645 0.44056097 -0.7308146 0.41595933 -0.30864313 -0.28616363 -0.008188731 0.5118933 0.03284663 0.38023496 -0.26709175 0.1731666 -0.19003032 -0.045541354
日 0.17111991 0.74574095 0.24371828 -0.45370993 0.28850308 0.016137745 0.148227 0.22839986 -0.6540944 -0.4388142 0.5743876 -0.01896315 -0.5553745 0.11599685 -0.34454873 -1.0324724 0.9985156 -0.046943136 -0.2751268 -0.34350806 0.23458306 -0.16581899 -0.23815644 -0.27744883 0.56030095 -0.16286764 -0.8553264 0.5394661 0.4074998 -0.81519824 0.06487485 0.29215103 -0.86144996 0.17649342 0.57443285 -0.14246498 -0.7540102 0.61552066 -0.3659314 -0.6813013 -0.37160662 -0.09218728 -0.17406437 0.35357022 -0.6202584 -0.30344358 -0.42918602 0.115369774 -0.79221755 -0.41530088
敬 0.09746259 -0.43083498 0.57622516 0.04854423 0.12834358 0.83422375 0.10737874 0.030402336 0.53956425 -0.042644087 -0.42770222 -0.35556215 0.7453032 -0.30729744 -0.0947745 -0.48225564 -0.3496148 -0.1969 0.85620743 0.8125593 1.0133532 -0.58667487 0.19681136 0.03223479 0.07665301 -0.66583306 0.7687351 -0.005768851 -0.1712272 0.30908036 0.059673987 -0.279602 0.26829997 -0.39349505 0.6850557 1.0337638 0.063230656 -0.3436749 0.49008232 0.6344347 -0.3923323 -0.31842664 -0.01930796 0.17083958 -0.27448896 -0.3088791 0.13191964 0.06369191 0.6542974 -0.10881334
难 -0.53024954 0.42875865 -0.5193416 -0.6774735 -0.46295777 -0.39329475 -0.94424284 0.6294209 0.6917383 -0.33895713 0.39414692 0.2832742 -0.5419557 -0.5446444 0.049607694 -0.061738472 0.38829395 0.3001163 -0.1941282 0.73812497 0.6469547 -0.32906553 0.11153213 0.5160471 0.19334112 0.770991 -0.18515764 0.09325714 0.7401165 -0.20646778 0.0026280398 0.23145053 -0.41730732 0.56423044 0.8674377 0.08301512 -0.47383928 -0.015262315 0.29495403 -0.32613304 0.27339575 0.75106186 0.46901974 -0.20868506 0.5369306 -0.22182834 0.2895211 0.33226523 -0.43571126 0.48143423
直 0.35380238 -0.11514598 0.6143964 -0.68229014 0.53016114 0.37586212 0.8588984 -0.49016947 -0.5523902 -0.7161314 -0.76046306 -0.8994092 0.4876138 -0.41520226 -0.04369646 -0.07838397 0.61859596 0.043438777 0.23784715 0.72929245 -0.2394834 -0.49246755 -0.29378918 -0.3066164 0.27516025 -0.07686134 -0.075943746 0.36499813 -0.1711044 -0.61616087 0.79109 -0.24578282 -0.017081922 0.17240052 0.6667181 0.25282457 0.27539164 0.03769532 0.18737376 0.4264409 -0.12257096 -0.41813377 -0.18083175 -0.5877489 -0.50828373 0.7364476 -0.41542527 -0.25108525 -0.004782148 0.55061764
丧 0.14267676 0.5079119 0.56456494 -0.0925301 0.4491051 -0.38539347 -0.90846884 0.27614358 0.110108644 1.0568103 0.30469292 -0.05292183 -0.1392068 -0.43152103 0.7916357 0.26632845 0.18791947 0.35141438 0.006088857 0.94512737 0.2827888 -0.484109 -0.08429766 0.6489888 -0.7511346 -0.22676693 -0.70244 0.1232021 -0.53449893 0.14472082 -0.60911334 -0.3242135 -0.44900534 -0.3180095 0.38373262 -0.7379658 -0.66354644 0.44823292 0.6913345 0.5630904 0.2923489 0.42342427 0.68321204 0.40618762 0.13063216 0.5685218 1.0835493 -0.018760402 -0.39024276 -0.090242684
说 0.04071981 -0.792857 -0.77733535 -0.22725733 0.3260089 0.3169678 0.6987721 -0.19427618 0.6248121 0.27778178 0.075411595 -0.59382474 -0.16852783 0.091915354 -0.41837728 -1.1292 0.47016317 -0.3814951 0.08193177 0.55192125 -0.008448261 0.44934297 0.43406537 -0.0782049 -0.49144885 0.8836801 -0.36113253 -0.12790787 0.598272 -0.37290353 0.08366254 0.13489729 0.20018317 -0.6529201 -0.031984974 -0.022177259 -0.42077532 0.48187315 0.6004448 -0.130333 0.33185378 -0.6781629 0.60950005 0.13187514 0.49450222 0.7602997 0.8863576 -0.15110016 -0.5759095 0.16157238
自 -0.359598 -0.1933532 0.30167255 -0.011062417 -0.41557726 -0.50901324 -0.1504815 -0.5967302 0.017593812 -0.84921837 -0.80906826 0.64210933 0.89947313 -0.56250006 -0.17625478 0.30963495 0.8849258 -0.27821267 0.29041082 -0.28261453 0.69233835 -0.07664284 0.4660599 -0.8479724 -0.2817644 0.17625192 0.7280151 0.045154024 0.23842432 -0.14671384 0.17413318 -0.4637658 -0.9231368 0.31673828 0.6449642 -0.64730525 -0.84722227 0.590421 -0.41657698 1.1143456 0.5849485 -0.014405082 0.11657634 -0.404544 1.0117056 0.10105854 -0.92913336 -0.19054142 -0.62143195 -0.3892442
用 0.7037534 -0.69612134 -0.004966548 -0.056116313 0.748174 0.0826315 0.33085307 -0.100837305 0.2519195 0.7561129 -0.08766387 0.53457355 -0.7122899 0.13378727 -0.6138074 -0.0972182 -0.01786448 -0.09166202 0.7201656 0.12527117 0.37798044 0.3721808 -0.31981876 0.064292796 -0.70203876 0.12051966 -0.7670058 0.022403857 -0.64074737 -0.57874185 -0.6526826 0.6567971 -0.36037377 -0.6522985 0.5705354 0.010836529 -0.01970467 0.7096081 -0.31128109 -0.739372 0.12023429 0.10521 -0.60389036 0.064974524 -0.6543273 0.33369523 0.8396692 0.9473179 0.41561696 0.23886396
周 -0.7094194 -0.29454863 -0.37059218 -0.15331173 -0.033007 0.42692304 0.20426041 -1.1173922 0.02449876 -0.45150548 0.32863477 0.36915666 0.45546427 -0.65217584 0.4268998 -0.28491032 0.5189918 0.22160208 -0.4279276 -0.25364456 0.31871977 0.17466226 -0.6724921 -0.018505111 0.25646198 -0.71813977 -0.039266653 -0.72329324 1.0454537 -0.3461941 0.5137664 0.6712496 0.58404666 0.7014775 0.27596715 0.12724905 -0.74331725 0.41802925 0.63402176 0.4383025 -0.46331444 -0.15992853 0.36796764 -0.05095657 0.14129452 0.87748224 -0.6426994 -0.393214 0.07924987 -0.10023139
颜 0.51563597 0.269014 0.9043512 -0.084748425 -0.08121797 -0.7620485 -0.6065921 0.015213038 -0.2654651 -0.66441166 -0.42238396 0.15188935 -0.62979656 -0.38074422 -0.8489265 -0.028437262 0.40939316 0.09135804 -0.2810415 0.26633635 0.0837262 -0.38338786 -0.14777437 0.45010912 0.026351113 0.769383 0.0027028623 0.5631903 0.16451791 -0.4841051 0.36667487 0.62724245 -0.5636504 -0.7296543 0.5041775 0.4865876 -1.0721624 -0.207181 -0.031326063 -0.6849907 -0.33116758 0.66210693 -0.5359232 0.15275162 -0.10562713 0.30727357 -0.27317992 0.45314315 -0.61596304 0.46721065
年 -0.24713963 -0.34998217 0.4238257 -0.59468424 -0.2732673 0.39949328 0.16459465 -0.12625577 0.5143088 -0.5733192 -1.3363128 0.060622934 0.39616755 -0.100021884 0.29368973 -0.3559053 0.40101436 0.41161475 0.54705024 0.6936145 -0.18386485 -0.35940522 -0.06748051 -0.49583685 -0.009881072 0.35713577 -0.2575002 0.33169624 -0.14937918 -0.061707277 -0.83661014 0.7501554 -0.7006584 0.300423 -0.5408233 -0.64111215 -0.6118258 -0.5051224 0.17125267 -0.38272265 -0.5091241 -0.61238885 1.0635384 -0.31310636 0.5621748 0.50798434 -0.19064565 -0.063365266 -0.6823982 0.9634741
告 0.41732714 -0.40695462 0.16423322 -0.16307232 0.43119022 -0.051174935 -0.092673235 0.2539892 0.06415493 0.9628964 0.65093917 0.24497332 -0.4412952 -0.19272777 -0.84351635 -0.4572145 -0.20884313 -0.8263817 -0.44725987 -0.08262867 0.103146434 -0.16227272 -0.28451464 -0.2565858 0.24969354 0.1592908 -0.8173175 0.14139256 -0.09065289 -0.31573611 -0.048387222 0.22077115 -0.45800537 -0.046985764 0.4899908 -0.070503384 -0.5578323 0.8245306 -0.4286356 0.16828206 -0.59312624 0.23546505 -0.7685273 0.5520457 0.86838466 0.5124401 -0.030784016 0.44634 -0.71322036 0.1689921
十 -0.26918858 -0.4037464 0.10091668 -0.34405437 -0.19136207 0.83618224 -0.36369148 -0.549268 0.3320887 0.95209885 -0.38174263 -0.16904998 0.6732782 -0.22549601 -0.3454788 -0.7365269 0.75536585 0.26092273 0.297444 0.34163457 0.7484282 -0.16832225 -0.12131938 0.4438096 -1.0376186 0.12632278 0.501749 0.7356658 -0.19687541 0.697588 -0.33934906 0.4576777 -0.062756345 0.040897578 0.62858003 0.8101796 -0.081516325 -0.8331327 0.37209085 0.131773 0.019594455 -0.36807722 0.4083439 0.3712785 -0.95395535 -0.095894314 0.57275355 -0.82513833 -0.050755773 0.47502366
怨 -0.59359545 -1.1396849 0.87895215 0.11768952 0.6545401 -0.5686727 -0.32982722 -0.031322185 -0.6220655 0.6519582 0.19195656 0.5190648 0.6933408 -0.81591845 -0.20424953 0.47854668 -0.87832725 -0.05789198 0.28636497 -0.7946844 0.44580662 -0.019689335 -0.30538577 0.13421097 0.6498626 -0.231483 0.14982806 -0.123511836 -0.33229393 -0.16252069 0.6446157 -0.03416241 -0.7885252 0.31599125 -0.21108744 0.8496411 0.057463128 -0.6483038 0.45115826 0.41412023 0.24614753 -0.7801288 -0.2486872 -0.11575466 0.87731564 0.39170256 -0.37981465 -0.10434212 0.17433389 -0.03694461
达 0.29605627 0.11596645 -0.62183154 -0.72880155 -0.60854405 0.24813522 -0.031111754 -0.33546144 0.4526074 -0.5992424 -0.11854458 -0.5244208 -0.73689634 0.15534927 -0.3375044 0.085201755 0.8085469 0.15904531 -0.051871315 -0.015910376 1.0431236 0.073752806 -0.7369839 -0.68449014 0.35560805 0.75430197 -0.40979007 0.28631172 0.20993826 -0.7627739 0.16751234 0.72414285 0.96203494 0.19622932 0.2868873 0.31286195 -0.5774941 0.38343778 -0.48045552 -0.08333011 -0.9010547 -0.8068983 -0.68108207 -0.11311128 0.25893506 -0.078289844 -0.7775253 0.042523414 0.47949234 0.33113623
孝 -0.14904591 -1.0152 0.027489195 0.0034660795 0.12650856 0.26300392 -0.46663707 -0.027736535 -0.3812775 0.0045306943 -0.5310988 0.56611866 0.63050073 0.4045964 -0.10477483 -0.7734994 -0.2915593 0.32683444 -0.38382497 0.10641423 -0.6273351 -0.4446094 -0.52441496 -0.6511579 0.42716506 -0.08640644 -0.98973775 0.057996616 -0.1045781 -0.03694487 0.6702346 0.60522836 0.2906094 -0.074640274 0.6043966 0.45390108 -0.9044846 -0.07879372 -0.19985865 0.20399809 -0.24537398 -0.5543245 0.008509842 -0.13380492 0.6580668 0.45814458 -0.24607027 -0.5012943 -0.19821589 0.5186735
弟 -0.18181336 0.6720834 0.6717342 0.11117178 -0.42556998 0.18867819 -0.29394135 0.65409356 0.071546614 -0.8094353 0.17953062 0.4433808 -0.045364417 0.14027499 -0.024636421 0.76547045 -0.20948455 0.82592624 -0.3641342 -0.037336305 -0.68099487 0.15542585 0.44638306 0.7876837 -0.5369926 0.81423885 -0.5998981 -0.89726293 0.44557106 0.2617307 0.24622348 -0.44063243 -0.56723785 0.5154335 -0.36034125 -0.19195646 0.6023731 -0.18035991 -0.67492115 0.5897105 0.11874374 -0.7116354 0.27760175 -0.48932168 0.17459315 0.4448321 -0.3021508 -0.6184165 -0.587343 0.6184419
至 0.2194628 0.88679695 0.22134201 0.13772994 -0.07818695 -0.07344726 0.32658333 -0.35352552 -0.16941032 -0.36196092 -0.31762555 -0.4725404 -0.12571952 0.9509903 0.3083931 -0.74010694 0.84837645 0.744357 0.4346735 0.037944548 -1.0425403 -0.3285625 -0.1908537 0.642289 0.24607757 0.82514405 -0.41227975 0.5345336 0.2986448 0.25973135 0.42790318 0.35585257 -0.4197195 0.8988973 -0.7793269 0.20709895 -0.51459 -0.21533719 -0.36119416 -0.5656435 -0.18839018 0.03279946 0.061134774 0.75135505 0.72144085 0.3007695 -0.22857451 -0.85106903 -0.7622695 -0.026002804
先 -0.25783932 0.5739673 0.4549283 -0.42209288 -0.21449381 -0.11511079 0.26748756 0.23102885 -0.5742371 -0.5443865 0.13249128 -0.7015352 -0.8725133 -0.46916515 0.080855735 0.681016 -0.32543537 -0.01442973 0.39818606 -0.31428462 0.23224194 -0.62978774 -0.0766045 0.58201236 0.47314802 -0.51351845 0.47422117 -0.6411515 -0.41743794 0.10056069 -0.6803233 0.11758118 -0.37793002 -0.07251875 0.60041696 0.7722092 0.10907891 -0.7020527 0.022663824 0.069384694 0.49144232 -0.00532228 0.26117083 -0.66066074 -0.11088681 0.79248375 -0.89295185 0.5106621 0.5376741 -0.44928765
师 0.49632785 0.35053968 -0.09969873 -0.74981016 -0.21119925 -0.55980784 -0.10802845 -0.5280014 0.38858816 -0.29225692 -0.7154367 0.21505745 0.05402948 0.55296236 0.48484802 -0.4482425 0.10712333 0.564437 0.21839342 -0.06074637 -0.3533124 -0.7750528 -0.575076 0.008054599 -0.031014143 0.16254532 -0.3039037 0.27037558 -0.08783809 0.39024255 -0.57583535 0.61759186 0.19544697 0.9180422 -0.7696946 -0.35714588 -0.5792457 1.1197785 -0.076574855 -0.9809774 -0.71923137 -0.23378402 0.7873002 0.40911746 0.8475746 0.7186361 0.022970961 0.48069778 0.003370019 0.3417603
女 0.10063787 -0.123664096 -0.30030805 -0.7088193 -0.37600532 -0.17248541 0.064346015 -0.15598185 -0.19867028 -0.46237838 -0.2405399 -0.60969394 0.35469648 -0.45450786 -0.09101713 0.9229733 0.01669895 0.673098 0.72509956 -0.68930125 -0.32683587 -0.8052722 0.60459805 0.5441204 0.21679203 0.81012756 0.6828734 0.5195821 -0.013839006 0.032148212 0.51714444 -0.22325708 0.67929727 -0.426854 -0.47747824 0.4553294 0.64986765 -0.6162077 0.40082332 0.5151716 -0.80185395 0.099918656 -0.102398716 -0.3253465 -0.7990768 -0.44429526 -0.79887587 0.11510015 -0.040193565 -0.5622331
多 -0.3369584 -0.35538876 1.0525854 -0.4308034 -0.19886981 -0.2238083 -0.21385127 0.20609914 -0.016671516 0.5056942 -0.21925764 0.25514135 0.07646617 0.4854285 0.4039115 -0.48058158 0.27967685 0.47363004 0.7920195 -0.2586857 -0.21726197 0.4106358 0.28433374 -0.12919325 0.39505935 -0.81092864 -0.21124305 0.37507778 -0.8715161 0.77880496 -0.5431985 0.48404887 0.25281942 -0.69804233 -0.19948724 -0.625334 -0.83285236 0.72041446 0.5110988 -0.3646713 0.06597758 0.6044812 0.29427865 0.70218015 -0.71081764 -0.101686396 0.35050187 0.017186882 0.040231645 0.33494526
忠 0.2593488 0.13852462 0.73415786 -0.27696842 -0.7694867 -0.36875752 0.46059301 -0.15725423 0.48332226 1.1133823 -0.9622166 -0.19210997 0.30883217 -0.28031376 0.3194147 -0.043296117 0.09898296 0.227805 0.4090511 -0.23137002 0.7369748 -0.49496233 -0.40712124 0.2646022 -0.15820928 -0.025792707 0.9868883 -0.39410666 -0.12809719 0.46564284 -0.8061802 -1.1202102 0.17142141 -0.832491 0.25303558 0.041239507 0.360928 -0.18488917 0.5761036 -0.28961787 -0.5435695 -0.013675953 0.12948397 -0.47093594 -0.882033 0.34308472 -0.3712807 -0.3473715 0.7063856 0.06079077
四 -0.61512834 0.39093584 0.702 0.87173104 -0.525468 0.6093735 0.530526 -0.24657077 0.5918487 0.5729353 -0.49943224 -0.71574813 -0.23975822 0.41222718 0.23917843 -0.3856719 -0.39473867 0.32581022 0.43272778 -0.4369213 -0.048313748 -0.8380277 -0.24118973 -0.4899067 -0.18459739 0.47056806 -0.9422148 -0.15114418 0.08362365 0.6146089 -0.28392288 0.41203922 -0.5320263 0.63760495 -0.27744502 0.33319706 -0.8611406 0.6112809 -0.9161429 0.1904908 0.12882432 -0.26343396 0.16068186 0.45288286 -0.22614548 1.004322 0.41270772 -0.20957689 -0.29361197 0.02648533
疾 0.41426104 -0.565436 -0.86394393 0.48882267 0.012687 -0.47204077 0.3880027 0.44107997 -0.35079265 0.6554421 0.42802033 -0.6009182 -0.051896434 -0.55481243 -0.54758453 0.4481922 -0.5422082 -0.7386991 -0.12760134 0.50142264 0.5570293 0.17634347 0.02335304 -0.06222914 0.43673605 0.08777302 0.47606152 -0.45429075 -0.62949246 -0.22493081 0.4613126 -0.10993757 -0.123575695 -0.83517504 0.14187598 0.37167054 0.49402753 0.36839885 0.49185023 0.1363275 0.48913163 0.63577074 -0.4752956 0.24417645 0.4734224 0.014040728 0.040383406 0.6345208 0.55496234 -0.67012787
服 -0.19145674 -0.21527846 0.03867401 0.5189906 -0.34126133 0.46844274 -0.13591835 -0.7733957 -0.27366754 -0.39313412 -0.10957287 -0.28481248 -0.31868902 0.5415392 -0.761057 0.6421258 -0.90677315 0.10321767 -0.15255499 0.40592447 0.14967848 0.28626823 0.58556086 -0.94498193 0.34824774 0.25393867 0.20691423 -0.63844144 0.22026427 -0.14293824 0.028600661 -0.20248292 -0.06571154 -0.7466384 0.20406282 0.7107917 -0.43607992 0.83111113 0.24769217 -0.3871768 0.73078203 -0.22720364 0.16182739 0.32380107 -0.38216954 0.22478591 0.26641884 -0.5656357 0.8424254 -0.34730676
氏 0.35030654 -0.88472825 -0.49455994 -0.874138 0.72438043 -0.059040364 -0.4374374 -0.6964291 -0.237234 -0.2101699 0.4238474 -0.5030966 0.36494303 -0.114932016 0.21634129 -0.1633785 -0.6661347 -0.5218249 -0.42215806 0.29054388 0.021049723 0.24453945 -0.083442114 -0.046467856 0.73575336 -0.6952435 0.5407052 0.08557192 0.515781 0.083325446 0.20194757 -0.30610833 0.79610324 -0.12448056 0.3717535 -0.0073377485 0.84210235 0.61665046 0.8273171 0.23628615 0.2011349 -0.17382087 -0.50199634 0.6768562 0.40819547 -0.15168253 -0.30410033 0.26438364 0.33116412 -0.3921196
冉 -0.19630797 -0.26827526 -0.4887365 0.60448134 0.34375542 -1.0093416 -0.29618865 0.22592896 -0.18467772 -0.68836355 0.1298477 0.100676805 0.10569408 -0.42721862 0.18955901 -0.21146859 -0.4513539 0.33108518 -0.306105 0.73209065 -0.03863413 0.78191316 0.6657669 -0.4444386 0.6931434 -0.7965332 0.14118677 0.20764005 0.57649493 0.46224412 0.8529398 -0.8244691 0.31361875 -0.37433028 0.432873 0.36946213 -0.57465756 0.031847157 -0.18209174 -0.33943734 0.5563143 1.096892 0.3676975 0.36741132 0.32311004 -0.25599983 -0.22556031 -0.5760352 0.33214727 -0.31200957
将 -0.30304652 -0.04869069 0.015363893 -0.068610355 0.7701823 -0.31402117 -0.7521709 0.3793963 0.12183956 0.49878493 0.36943242 0.041195977 0.16995688 0.19043502 -0.38753983 -0.6885845 -0.39990094 -0.19792776 -0.6423336 -0.33209857 0.024582444 0.16706738 -0.14334601 -0.45439547 0.88481164 -0.4901663 0.5814985 0.05851741 0.12250721 0.9750184 0.8743064 0.7050359 -0.21674162 -0.26881313 0.61704445 -0.91288096 -0.35379192 0.15241338 0.37254316 1.0967029 0.17557801 -0.40311992 -0.628794 0.0220372 0.34898767 -0.1379346 -0.22256236 0.26559454 -0.76366824 0.55053645
士 0.17832424 0.114367135 0.082531646 0.25092074 0.4451035 0.007538722 -0.41100845 -0.15471463 0.09712855 -0.01903154 -0.11915278 0.067111604 -0.2259873 -0.6782182 -0.010183537 -0.6028805 0.1566703 0.10376771 0.2783674 0.03163644 0.27744082 -0.17309457 0.02308263 -0.13985662 0.4075132 -0.15173694 0.37692228 0.030946927 0.49096522 -0.08436882 -0.0826771 0.2387259 -0.24379225 0.08267744 0.29816812 0.19549629 -0.61137855 0.529796 -0.18857715 -0.094950035 0.058232993 -0.16039681 0.33044112 0.46416086 0.32083395 0.64399946 -0.3581302 0.4832358 -0.18790236 -0.6452948
丘 -0.44161987 -0.12964399 0.40690076 0.36582336 0.8545579 -0.20685306 -0.15996861 -0.24582948 0.72643447 0.5664827 -0.011883624 0.72116333 0.09573074 -0.26029572 -0.019827664 0.002741064 -0.024472035 0.547589 0.059245743 0.25428087 0.7855439 -0.025952997 0.30137333 0.44003898 0.45516634 -0.5874147 -0.03297784 -0.031496033 0.08877005 -0.48592696 0.4070624 0.5553965 0.08457855 -0.7661922 0.52837664 0.48146564 -0.25895137 0.8438951 0.34494165 0.59865904 0.20542702 0.6911645 0.014873458 0.817779 -0.22953172 0.69820684 0.18965523 0.4223257 -0.28296983 0.39471456
身 0.07165723 -0.030008482 -0.8127557 0.592328 0.59948254 0.8712307 -0.5369203 -0.49531004 -0.19173032 -0.20744891 0.003475815 -0.36645508 0.6333907 -0.66928285 -0.65067756 0.3666301 0.5296294 -0.010811637 -0.9521604 0.1380912 0.25262442 0.6760589 0.30632615 -0.51617813 -0.44294032 -0.4617254 0.89227104 -0.84509474 0.075044915 0.5097182 -0.5664194 -0.5342328 0.10122776 -0.79223824 -0.2339158 0.3756702 0.66305065 -0.43546396 1.0058267 0.8086086 0.096904926 0.39420056 -0.23361176 0.09593611 0.40569398 0.55059016 -0.40319997 -1.1916806 0.036252122 -0.84623927
入 0.78609866 0.21978177 -0.58227694 -0.2408301 -0.10112321 0.07097512 -0.31481937 -0.31044385 0.29314494 -0.24738042 -0.2575213 0.47161946 0.031970106 -0.80187863 -0.7135405 -0.38391963 0.17306128 1.047456 0.050840184 0.10598872 0.3010308 0.21729416 0.3200144 -0.11828349 0.46502134 0.031622797 -0.17749275 0.39203283 0.3473505 0.4131295 0.73692 0.29580748 -0.6926713 0.17928761 0.63805157 0.61595684 -1.1617259 0.62105274 -0.7555173 0.94439286 0.46582198 0.17122151 -0.76416016 0.77956283 0.20819262 -0.16172603 0.31722847 0.16748117 -0.69388366 0.5105632
志 0.61584973 -0.13099955 -0.10057175 -0.31472653 0.77969104 0.7342326 0.45845988 0.09412828 -0.17867804 0.31001285 0.23533909 -0.71890426 0.42380694 -0.22986855 0.30296496 0.43152314 0.34105453 0.5460383 0.48928738 -0.8902571 -0.19218874 0.8690686 0.23586223 -1.0332526 0.619722 1.1186986 0.46901867 0.12951875 -0.5712893 -0.23088099 0.7070047 0.1452049 0.50196725 0.3965124 -0.8391066 0.14168061 -0.1131755 -0.69787264 0.6891942 0.3558558 0.17367752 -0.69807625 -0.74583894 0.4145063 0.4266355 -0.13324441 -0.30575508 0.7946385 -0.22969563 -0.38443142
耻 0.54926306 0.22538257 0.54200125 -0.58255607 0.579381 -0.09247779 -0.022211073 -0.3204232 0.84893286 -0.26542795 -0.081984445 -0.62952834 -0.311323 -0.8877151 0.062228944 -0.065835536 0.039661348 -0.5277817 0.41633677 -0.28889298 0.49303162 -0.24952246 -0.24337657 -0.5866606 0.65023685 -0.13096635 0.8359157 0.097900495 0.87521553 -0.07657951 0.15948386 0.15546139 0.7327071 0.21928424 0.415815 0.21597716 -0.047034293 0.24428375 0.7116538 0.64261377 0.24704167 -0.10564628 -0.083730996 0.19290686 0.5423061 0.64426345 -0.69753486 0.71338636 0.5825461 -0.4541521
失 -0.336083 -0.9682137 -0.7308336 0.1539817 0.31547663 0.82685345 0.07118363 -0.05329282 -0.28625536 0.040742654 0.6238155 0.34361875 -0.9714948 -0.05894885 -0.9355168 0.02624412 0.12576404 -0.3086887 0.731598 0.17175668 -0.02543963 0.21610901 0.37271965 -0.5564178 -0.40244892 -0.19990107 0.18667926 0.1358528 0.16838473 0.5281146 0.47792327 0.47435045 0.57734513 -0.691727 0.7545825 -0.105971724 -0.2588521 -0.2789808 -0.56266654 1.2329937 -0.37377796 0.6831254 -0.5434912 -0.022189207 -0.5939672 0.23211461 -0.7017353 -0.24736854 0.57570755 -0.39219144
安 -0.7214858 0.9614279 1.0861427 -0.045009885 0.44940123 0.111591496 -0.7806762 0.101413555 0.3265813 -0.02310144 0.055048715 -0.34038886 -0.89221406 0.25367802 0.6174794 -0.07505273 -0.32665625 -0.13681187 -0.6666041 -0.47282645 -0.002453883 -0.20003937 -0.73928547 0.25135615 -0.6479817 0.9375517 0.19717012 0.1645249 -0.44030166 -0.53873587 -0.77382666 -0.1841362 1.1038728 0.78252286 0.16003212 -0.12417942 -0.24713968 -0.4071661 0.58902603 0.18004562 -0.31066978 0.5723191 0.74242336 -0.024644723 0.37037784 0.012449999 -0.48812923 1.0941714 0.55829656 -0.4999793
富 0.59774595 -0.2815888 -0.46390748 -0.59031767 0.5235951 -0.006465609 0.4085057 0.16620214 -0.8362989 0.32612148 0.5399232 0.6183843 -0.55131054 -0.25881886 -0.38502902 -0.038424756 -0.1831691 0.061305907 0.52566296 0.5957855 0.065262586 0.6067212 0.51248604 -0.49648434 0.33912313 -0.45713672 -0.3729479 -0.26506558 0.38014174 0.641865 -0.36655417 0.43479508 0.71950763 -1.1513723 0.82969743 -0.3526544 -0.13664232 0.46105912 0.104134135 -0.5708492 -0.01548478 -0.38419107 -0.95292634 0.60058355 -0.62109345 -0.5484497 0.088737585 -0.5551643 0.4018549 -0.294678
赐 -0.27963766 -0.11104556 0.7253328 0.5883895 0.5478486 0.47623694 -0.55164486 0.652164 -0.5850448 -0.6547318 0.36795828 -0.39677888 -0.37227243 -0.89963317 -0.19236189 0.6609296 -0.60161823 -0.34304106 -0.3289465 -0.23031825 0.2596811 -0.05576475 0.15013221 0.58101827 -0.1887753 -0.42053607 -0.21024723 -0.42078707 -0.5531817 0.11642984 0.117654555 -0.3013817 -0.81758773 -0.28015518 0.1407637 0.2120458 0.91974807 -0.030453946 -0.30265617 0.2292563 0.5053132 -0.05257262 -0.3158986 -0.8578873 0.07346344 0.6773424 -0.75751126 -0.08667563 0.2656808 -0.18990436
患 -0.63277626 0.6165952 0.11808325 -0.5385027 -0.2012528 0.38382277 0.34546936 -0.8615485 -0.29166377 0.45043325 0.87872005 0.38712758 -0.42451784 -0.80141705 0.30333623 0.17546923 -0.074975386 0.3909814 0.46692887 0.8478957 -0.16505685 -0.79984176 0.79704356 -0.08970999 0.33717752 -0.33441338 0.4630852 0.037132174 0.43391982 0.41630495 -0.68816435 -0.4228898 -0.17095576 0.20202899 0.42467597 -0.18574145 -0.39525858 -0.6833081 0.7915657 -0.47942463 -0.06260087 -0.4402503 0.71317595 0.5174561 0.31969526 -0.20052229 -0.35734728 -0.48636448 0.5346921 0.4185583
百 0.4778159 0.45377135 -0.01767268 0.7250693 0.92036855 0.638678 -0.022054601 -0.053063452 0.082643196 -0.94992787 0.063374504 0.36810172 -0.041483715 -0.56877285 -0.0024670705 0.21682483 -0.06540226 -0.7707449 -0.07201022 -0.15538724 -0.056063194 0.5803964 0.13235714 0.6132755 -0.12425754 -0.7005324 -0.84562296 0.08468616 -0.5133728 0.44320545 -0.4340371 -0.7506883 0.7522349 0.5560914 0.28959316 -0.08635278 0.6100849 0.9754524 -0.4722004 0.04396524 0.7183291 0.025307497 -0.51947415 -0.06694604 -0.10738159 0.61314845 -0.77566725 -0.6651278 -0.069900766 0.4184898
回 -0.6043895 -0.08553603 -0.4015334 -0.5089506 0.8077557 -0.15309161 0.024563627 0.80682415 -0.8970235 -0.072043635 -0.21701668 -0.036365174 -0.028215857 0.86847943 0.595665 -0.7578954 -0.36465952 -0.0018759754 -0.01744715 -0.006541995 -0.88217324 0.6992439 -0.0990912 -0.35395774 0.86545503 0.08203179 0.4372219 -0.45082754 0.3226204 -0.028758476 0.8822552 -0.16305774 -0.96553886 0.98979366 -0.17550668 -0.118592545 0.57881993 -0.6124261 0.0019580205 -0.9862787 -0.42876798 -0.49219313 -0.6917235 -0.22788796 1.014528 -0.8817795 -0.6438707 0.23748949 0.04788029 -0.15940711
宰 0.4413842 -0.21234138 -0.23341472 0.22073601 -0.20141561 -0.4522399 0.21658608 -0.73707217 -0.24793173 0.17699856 0.6484166 0.22092515 -0.90501744 0.23749964 0.12022051 -0.4018891 0.14449789 0.5562569 -0.32802847 0.37561923 -0.46717918 -0.008132324 0.040971912 -0.28634232 -0.078225195 0.33249882 -0.3519511 -0.03170475 0.17717186 -0.5049544 -0.24549155 0.45730293 -0.35283595 0.12526612 -0.547434 -0.21978618 -0.69730777 0.44131786 -0.13108613 -0.7148311 -0.25074542 -0.038181186 -0.2351488 0.90382063 0.20885506 0.1837042 0.5954958 0.34334436 -0.51757437 -0.080684796
朝 -0.1252616 1.1310488 0.53693813 -0.25340635 -0.9452511 -0.5310148 -0.30179214 0.84775263 0.019633492 -0.7428402 -0.97352546 -0.38978168 -0.02588488 -0.31221884 0.6302794 0.8099112 -0.092563644 0.4725886 0.110776596 -0.8172239 -0.38417372 -0.96530235 -0.81443113 -0.14436163 -0.76137733 -0.20672214 -0.33217692 -0.8087395 0.2723193 -0.1882679 0.099052474 -0.74138165 0.20941816 0.63887566 -0.05223009 0.22514077 -0.11451472 -0.8955949 0.34708813 0.63250357 -0.6736146 -0.4319345 0.49592185 -0.7422272 -0.28319302 0.32277766 -0.30594185 -0.4639084 -0.27542832 0.18817306
莫 0.2739313 0.3554677 0.0026429263 -0.054748297 -0.20725603 -0.4012002 0.11744225 -0.16284627 0.843519 -0.5579441 0.18207996 0.47657013 -0.4037719 0.6356862 0.8818846 -0.18788537 -0.014765239 0.5602948 0.49957535 -0.3502647 -0.2333689 -0.048626915 -0.12993026 0.2625696 0.053718746 0.08806986 -0.12320885 0.31438416 0.2384382 0.56033707 -0.81483895 0.55346256 -0.1727236 -0.8050073 -0.45157745 0.11142973 -0.23590112 -0.15949686 0.07998383 -0.24486233 -0.15518768 0.6227707 -0.21424867 0.4137031 0.23057051 -0.4601879 0.5862893 -0.09277589 -0.528653 -0.639146
若 -0.02825227 0.057529613 -0.30143663 0.14101635 -0.009539865 -0.37954363 -0.2979252 0.37102968 -0.0038560356 -0.004232772 -0.05994216 -0.49983528 -1.0779084 -0.5828657 0.05404447 0.14525972 0.062599696 -0.04581184 0.30871838 -0.0399097 0.42880145 0.01581496 -0.43595964 0.91834366 0.9008923 -0.38051158 0.7007765 -0.01984369 -0.26779288 0.31950822 -0.085898615 0.23159815 -0.5083383 -0.15558052 0.6916898 0.3912372 0.32838365 -0.25198328 -0.14342164 -0.17834954 0.056703478 0.31543106 0.30802593 -0.08619055 -0.8195125 0.6407004 0.17379223 -0.1857473 -0.15726256 -0.05053259
云 0.26729643 0.50682986 0.5388388 -0.129567 0.29619533 0.7813961 -0.60998195 0.50047725 0.04060795 -0.2696418 0.80981106 0.84987545 -0.7864785 0.4225358 0.111313514 0.6533719 -0.7536335 -0.16919233 -0.7029415 0.7819612 -0.39186615 -0.58374274 -0.27652812 0.659545 0.036534593 0.5083273 0.079171784 0.25952753 0.7546732 -0.31953463 -0.8421579 -0.20008925 -0.19888674 0.21306397 -0.23291583 -0.3698905 0.07934805 0.6619164 0.381514 0.037762463 0.58245397 0.67714447 0.5087137 -0.17485842 0.4023044 0.049766712 -0.28891453 -0.5753639 0.17666017 -1.000709
孙 -0.47599635 0.2321433 -0.20862024 0.20851387 0.03775837 -0.7427872 -0.2250489 0.71192044 -0.92594117 0.07140815 -0.4253823 -0.25009677 -0.12550724 0.4347035 0.28129354 0.31806347 0.09457029 0.21575387 0.76833254 -0.81220144 -0.034201033 -0.62853444 0.308984 -0.7461164 0.25323778 -0.80816436 0.12633637 -0.47773978 -0.19345336 0.42242786 0.41009033 -0.35475245 0.37081283 -0.29810244 0.15530835 0.23159117 0.02735445 -0.4506469 -0.4399467 0.39993572 -0.5252966 0.17644729 0.43213883 -0.5221333 0.8100532 0.4720685 -0.5613177 0.15665002 0.100022316 -0.4462218
或 0.30542567 -0.371047 0.22240919 0.09808984 0.4982421 -0.071053825 0.46817192 0.7269385 0.5981229 0.3089594 -0.30863464 0.13760605 -0.43471858 -0.6449883 0.3655284 0.23649845 0.5000903 1.0614393 0.26965004 0.76722026 -0.31222957 -0.49224922 -1.2283732 0.5961949 -0.05030087 1.2316583 -0.5154208 -0.6341573 -0.02034921 0.717824 0.2551519 -0.72870547 -0.5989314 0.65454835 -0.09256235 -0.6700162 0.07341319 -0.12680978 0.21709183 0.04616004 0.6083222 -0.1035715 -0.4217934 -0.09541569 0.3036583 0.30969158 -0.1709403 0.31047302 0.72850287 -0.76755357
勇 -0.76051503 -0.408724 -0.58443505 -0.56315196 0.1895634 -0.21210504 -0.4331872 0.41945606 -0.22247778 0.044218272 0.31102183 0.94537264 -0.39735508 0.74391115 -0.11067901 -0.7425366 0.11008687 -0.013071994 -0.01318125 0.038716823 0.31306866 -0.26470736 0.1624506 -0.13796586 0.19649383 -0.83167964 0.8707949 -0.041279465 0.9239097 0.36232886 -0.5834569 0.07021126 0.21672949 -0.6680899 0.82688534 -0.09925519 0.2260025 0.1867856 -0.15937386 -0.14214104 -0.8917557 0.18239461 0.386459 0.5320467 0.15985374 -0.8656042 -0.47717088 -0.56591594 0.64265996 0.10181437
孰 -0.1511807 -0.7007824 0.6063845 0.6621111 0.701057 0.69257057 0.32909504 -0.5046407 -0.021512559 0.64417934 0.48222232 0.60326105 -0.07406377 -0.29134884 0.13446173 0.3944096 0.64984864 0.45294133 -0.5051935 0.6097012 0.11312117 0.09843124 -0.39607367 1.1929797 0.063692525 0.42616692 0.67257196 0.10689415 -0.011617348 -0.250497 0.5303781 0.7600903 0.35353425 -0.050716404 0.039563663 0.44733024 -0.5558255 0.22673668 0.6383645 0.07790384 0.5817782 0.172304 -0.4846594 0.6175294 -0.009185178 0.6967265 0.6371324 -0.09810819 -0.034330815 -0.63058305
叔 -0.18751687 -0.68350863 -0.68472224 0.026020743 0.3948144 -0.36439016 -0.423335 0.6023927 -0.44642872 0.07132309 -0.055636063 0.41605046 -0.042218566 0.49230576 -0.09368922 -0.32270378 -0.16286242 -0.33782306 0.7284723 0.47326484 0.6064065 -0.33047804 0.07664239 -0.11603648 0.11920485 -0.5563745 0.37378818 -0.12771659 0.1839569 -0.32882455 0.5242778 -0.16102047 0.5708502 -0.723636 0.6405945 -0.42953002 0.1993364 0.15804863 -0.04123624 0.26468068 -0.7788784 -0.2852821 0.023720209 -0.13145387 0.16028668 0.21606368 -0.88504505 -0.9235405 1.0549061 -0.241551
