1352 50
， 0.6763998 -0.03842406 0.24618918 0.11267879 -0.53438157 0.8780987 0.74659544 0.16510084 0.529661 0.4948219 0.876103 0.9090793 -0.6395199 0.6107131 0.43474564 0.6473091 0.24625243 -0.52072585 0.6216771 -0.5550701 -0.08293676 0.4588817 0.44571644 0.2218791 -0.65493554 -0.37918058 0.3748855 0.4678952 0.10250391 0.23463984 0.3137716 0.6563014 0.51552016 0.15523338 0.63713926 -0.5917213 0.61671984 -0.78377444 -0.22254303 -0.08556901 -0.03999475 0.1633393 -0.65026885 0.62818015 0.7635035 0.0024711008 -0.4428469 -0.006306229 0.51392305 -0.4826441
子 0.77928394 0.014315238 0.74839866 0.79905826 0.10003907 -0.47666916 0.56680256 0.8654037 1.0146897 0.8810984 0.64328706 0.84349746 -0.64282525 0.7019063 0.8596325 0.46001306 -0.2422545 -0.62343746 -0.47351503 -0.26379266 0.11066354 0.53875947 0.29512513 0.15641142 -0.7465838 -0.37556955 0.62574214 0.13904238 0.11908559 0.07359198 -0.8863888 0.8407821 0.6501782 1.0756364 0.5170034 -0.28504923 0.6085461 -0.6747874 0.032096222 -0.14501402 -0.06789889 -0.14244837 -0.57345355 0.30501935 0.7962156 -0.012003747 -0.31519008 -1.1849796 0.31844166 -0.7985094
。 -0.9933267 -1.1107161 0.5789215 -0.03529684 -0.1476178 -1.1544219 0.68674505 0.1618695 0.5191532 0.73961765 1.1048471 0.3497081 -0.26053873 0.42098415 0.5181192 0.83855206 -0.08489976 -0.61399853 -0.9074471 -0.6259904 0.16297925 0.57788146 -0.051254943 -0.83271843 0.14871648 -0.011754718 0.45102054 0.58808357 -0.22040379 0.97229975 0.7118436 0.57122713 0.28706428 -0.62713236 0.5578261 -0.3723714 0.013476481 -0.21651162 -0.39556596 -1.2354606 0.15809923 0.07056112 -0.71621263 0.5267932 -0.00479684 0.31323665 -1.1366421 -0.5406674 0.0136876395 -0.20721355
： -0.13150026 0.1530599 0.5022149 0.064352915 -0.3113119 -0.3574683 0.39139256 0.27354997 0.5244074 0.39929113 0.49997333 0.17300586 -0.3198171 0.10139825 0.103298575 0.36932635 -0.32941958 -0.52172154 -0.8192005 -0.2735551 0.29752782 0.1893481 0.1341961 0.10052018 -0.09416821 0.2653827 0.07418059 0.22734958 -0.4347376 0.75816745 -0.48678166 0.55104417 0.52907777 0.29374373 0.7858985 -0.24252391 -0.25557798 -0.4091826 0.02475641 -0.58058476 -0.3310615 0.1994285 -0.27043834 0.10745773 0.16511934 0.3413088 -0.44127518 0.20264119 0.22025 0.14276594
曰 -0.08632121 -0.05724388 0.44615555 -0.26145133 0.22856103 0.22661856 0.3935269 0.25076672 -0.074264616 0.32992566 1.0752311 0.40990004 -0.35064778 0.031181527 0.41015187 0.55473226 -0.01850924 -0.18358459 -0.6893819 -0.4270105 -0.17940554 0.41331795 -0.10926749 0.11849002 0.09419362 0.10564847 0.03466581 0.11460102 0.08017704 0.8847498 -0.6227993 0.20026684 -0.022664033 0.020240175 0.0982068 -0.0035170545 -0.30388138 -0.010797557 -0.19934249 -0.94392025 0.08242573 0.25808957 -0.37944674 0.24643402 0.14926946 -0.11013784 -0.40303236 -0.45449945 -0.044481993 -0.12406899
之 -0.11513148 -0.1802698 0.79432845 -0.018382182 0.24479644 -0.019242518 0.49502522 -0.09498057 -0.25092888 0.3925319 0.8603092 0.37476668 -0.39303625 0.35455182 0.33351576 0.879877 0.11357849 0.02794116 -0.59266686 -0.13416842 -0.26167348 0.24369913 0.122592054 0.23476571 -0.05313638 -0.063929394 0.20265216 0.40303394 0.18709844 0.600422 -0.43946087 0.24335615 -0.42717823 0.59699607 0.7220684 -0.17854153 -0.41908368 0.04494203 -0.111872405 -0.60427636 -0.1950135 0.028258419 -0.71834445 0.08870605 0.25897124 -0.1074298 -0.36765194 -0.80951285 0.13950263 -0.1746922
不 -0.026317472 0.21172613 0.32646984 -0.3639957 -0.27703375 -0.14315961 0.6469271 0.076115765 -0.29688308 0.48238724 1.454589 0.9611207 -0.26783067 -0.037478007 0.58956134 0.29424936 0.17712584 -0.3291987 -0.5066843 -0.030346293 0.22177571 -0.15602237 0.402487 0.14339048 -0.10974377 -0.14473955 0.20437682 0.5382224 0.16347054 1.0885531 0.3886043 0.28289604 -0.07892648 0.2730876 0.33418384 -0.26202214 0.2223168 0.18778026 -0.3483805 -0.27752253 -0.100956395 0.23602809 -0.47430113 -0.30987093 0.017470106 -0.24860205 -0.14782102 -0.07605513 0.678351 0.2914655
也 0.08542093 0.33621168 0.17266345 -0.50043434 0.019434432 -0.36711708 0.03177044 0.5090341 -0.39987034 0.29180208 0.9589985 0.65324605 -0.3430671 0.019747816 0.8267298 0.5974234 0.03688598 -0.38235036 -0.8802456 -0.55828226 0.24432243 -0.13705783 1.0198624 0.12915462 -0.23026325 -0.04516248 0.20764047 0.116134286 -0.19628094 0.9035957 0.15874302 0.34641883 -0.13522251 1.1744392 0.59515315 -0.19701627 0.10196467 0.15319192 -0.63683045 -0.51682234 -0.10771841 0.10678763 -0.45352647 0.0829682 0.39653584 0.16536236 -0.32628095 -0.14646994 -0.026541565 0.6209876
而 0.080100045 0.50353074 0.020308513 0.0031634322 -0.86082226 0.15696794 0.8712016 0.11160028 0.025573848 0.3943905 0.22995026 0.9769567 -0.49093416 0.08537898 0.77878463 0.205707 0.36221722 -0.1355967 0.23427545 -0.11103257 0.24581102 0.07772999 0.3961285 0.7054481 -0.279409 -0.12772854 0.67454946 0.12913929 0.3196127 0.96980464 0.24205852 0.10058305 -0.007807066 0.9972825 0.70665383 -0.08529261 -0.0054192664 -0.04717452 -0.2141893 -0.8732686 -0.7023491 0.06817368 -0.3893177 -0.51442844 0.08361211 -0.01520731 -0.093666546 0.09071925 0.023541052 -0.030404963
？ -0.25028995 1.301778 0.062876604 -0.7330018 -0.3035919 0.3676777 0.028483583 0.4592894 -0.56258607 0.6442257 0.86654913 0.36390242 -0.4698721 0.04579043 0.8575797 0.8523251 0.79808223 0.07977368 -0.59557104 -0.24012057 0.41259167 -0.12872422 0.60554725 0.4549441 -0.06776622 -0.31646776 0.6064258 0.42398635 -0.13137466 1.0098491 -0.02909851 0.11650255 0.036051534 0.64804757 -0.108530276 -0.0551099 0.047905695 0.1283797 -0.1868446 -0.59715337 0.20401035 0.17142093 -0.44574866 -0.3562148 0.16145816 -0.1688322 -0.07795549 -0.48760036 0.034883346 -0.00018871843
其 0.15209813 -0.117147505 -0.017421365 -0.5043295 -0.9107681 -0.38017455 0.39275616 0.5923379 0.28920186 0.2614479 -0.004595768 0.5746101 -0.2966832 0.48830718 0.41031456 -0.062187847 0.9789206 0.16572273 -0.48985857 -0.24106818 -0.10553567 0.10031225 0.23608743 0.20980829 -0.28017274 -0.7740709 0.5984499 0.07808902 0.8793435 0.6408609 0.02870032 0.1414069 0.08994545 1.2136838 0.35696512 -0.13586923 -0.04172766 0.35573485 -0.4490323 -0.7251073 0.015417717 -0.11442689 -1.0620142 -0.108195856 -0.011670025 -0.28501213 -0.512435 0.14398238 -0.08922432 -0.25949845
人 -0.06592063 -0.1448334 0.40408087 -0.54001224 0.093960434 0.2965205 0.46630368 0.16426419 -0.35951048 0.5854225 0.4574348 0.49059558 -0.54520583 0.5520377 0.4787527 0.6926209 1.0222106 0.45154038 -0.3571742 -0.08807758 -0.11964656 -0.032562155 0.10089485 -0.007157454 0.14668967 -0.73995167 -0.07270507 0.3625526 0.3698291 0.8923224 0.18592557 0.059518088 -0.124087356 1.4632857 0.072014935 -0.18140388 0.19524941 0.1283348 -0.08870326 -0.5993659 0.31521973 -0.5037024 -0.90897703 -0.15063581 0.044150174 0.26249385 -0.20841812 -0.10036039 0.016580842 -0.27078733
者 -0.12624791 0.0773357 0.27506775 -0.18125246 -1.586957 0.32834116 0.38704562 0.05017044 0.47637683 0.23741156 0.13040476 0.08864571 0.09357708 0.3351679 0.3936491 0.41863197 0.70047677 0.17871085 0.70370185 -0.056296207 0.03521857 -0.08225387 0.767401 0.4334549 -0.31157142 -0.36161023 0.91040444 0.47145396 1.2305183 0.26100832 -0.34116617 -0.056228887 0.22759081 0.19429676 -0.23892047 -0.49509484 -0.30143216 0.38709366 0.099114455 -0.16664477 0.0032879368 -0.17613666 -0.7208012 -0.42513606 -0.21252736 0.3179237 -1.36075 -0.59401566 -0.08008594 -0.0081830025
以 -0.3190374 -0.15122724 -0.0030911968 -0.66554946 -1.5331247 0.39364597 0.4799362 0.0036225761 0.22574359 0.31347018 -0.17373271 0.25242448 -0.036065582 0.5223011 0.7738863 0.049392004 0.78685206 -0.10874509 0.67815566 -0.36369753 0.031800386 -0.1507597 0.49813187 1.0150104 -0.34503576 -0.44004735 0.5678014 0.29950666 1.174268 0.3115039 -0.38061768 -0.096482314 0.42352 -0.26890668 -0.324626 -0.52775323 0.13122879 0.41131818 0.12782858 -0.10159742 0.20841205 0.013132186 -0.5266497 -0.26257107 0.11827554 0.18391341 -0.43359077 -1.0837765 0.12899634 -0.067880586
有 -0.0060360157 0.17618378 -0.056109272 -0.2586177 -1.0117779 0.15116186 0.7203987 0.49860302 0.07480674 0.031393778 0.24974276 1.5153512 -0.26292974 0.3368708 -0.2914332 -0.028180977 0.25446174 -0.0034063405 -0.17218989 0.23589349 -0.08610137 -0.099732906 -0.37599996 0.65202755 -0.039809965 -0.22770375 -0.23187765 0.2965234 0.3758176 0.69789094 0.11079253 -0.13537802 0.58720285 1.848631 0.28014532 -0.118413925 0.44282183 0.26565525 -0.099384874 0.0327133 0.34219518 -0.11720795 -0.47013703 -0.28512862 -0.06789862 0.038051408 -0.53108746 0.21981095 0.2871671 -0.22320266
于 -0.21746114 0.12405859 0.13237824 -0.97295576 -0.8343468 0.2790752 0.06963523 -0.36966166 -0.2354186 -0.046555188 0.059837453 0.499596 -0.21203995 0.66832167 -0.69800586 0.07766546 1.1189502 -0.031630248 -0.12299752 -0.5394318 -0.6284822 0.0150508 0.19931224 0.75260544 0.06264275 -0.569298 -0.28227073 0.61212075 1.8696241 1.5679083 0.5111579 -0.5744618 0.95450634 0.8568676 0.18133856 -0.7670207 0.32058266 0.65083957 -0.19363704 -0.082269765 0.9192215 -0.0145402 -0.36857012 -0.7540388 -0.116566986 0.21108605 -0.26939777 0.040837448 -0.0040788236 -0.010735383
矣 0.37617287 0.23196073 -0.095931746 -0.18671584 -1.0940247 0.28836158 0.40850914 0.002251782 0.57022613 0.16990112 0.22952878 0.09935205 -0.12742355 0.34473482 0.31881 -0.15262674 0.33792788 -0.22741027 -0.038330697 0.16007577 -0.0019569462 -0.15550391 -0.022453738 0.21595386 -0.009990944 -0.52581453 0.0433087 -0.12286603 0.65854657 0.90815496 0.045199797 0.01369347 0.75624067 0.21269661 0.058529932 -0.029340316 0.06963855 0.17616676 -0.30759367 -0.19951285 0.06606189 -0.11296605 -0.45044437 -0.41654724 -0.0915085 -0.15364 0.023748437 0.01357409 0.10727288 -0.19820717
为 0.30791777 -0.12380788 -0.016125832 -0.0116548715 -0.564141 0.06916471 0.22709091 0.13384946 0.5867452 0.08972275 -0.11142602 0.35228243 -0.21576133 0.4768693 0.113700554 -0.20650317 0.019007627 -0.516943 0.076663956 -0.10914219 -0.40898395 0.015334137 0.053158816 0.24984594 -0.08792818 -0.3109825 0.036369413 0.33230075 1.0717498 1.351843 0.15269698 -0.23053768 0.3379284 0.2619191 0.065509066 0.27450544 -0.033477228 0.010595698 0.068609856 0.1317094 0.3591614 -0.0643958 -0.1944439 -0.11737245 -0.08530957 -0.05391256 -0.19164184 0.08577572 -0.13733989 0.0075850105
君 0.3832229 -0.027992189 0.2722548 -0.15614764 -1.074757 0.5602777 0.42680737 -0.19918376 0.8612022 0.53348625 0.44834942 0.49171856 -0.0023518638 0.38476557 0.33968997 -0.03252936 -0.13165388 -0.80685425 0.34452692 0.1731679 0.02961576 -0.05870338 0.0260261 0.848397 -0.14998108 -0.5613586 0.016461458 0.4870302 0.9966199 1.2623695 0.20137815 -0.5194038 0.84286696 -0.07310863 -0.094665065 0.28460243 -0.31175244 0.16714339 0.570679 -0.103237055 0.24059965 0.14576891 -0.2551833 -0.2482649 0.19351985 0.3662229 -0.101390235 -0.21697286 0.117601655 -0.10359325
乎 0.9537189 -0.85526824 0.5740976 0.1772057 -0.90624344 0.0994296 1.2725736 0.3476546 0.95299476 0.1980517 0.26257488 0.79698443 0.22450535 0.5985452 0.2581889 -0.1444978 -0.23104627 -0.8542631 0.038223278 -0.22233863 -0.05837622 1.0516683 -0.11856488 0.58844507 -0.598326 -0.43676376 -0.018808566 0.8681435 1.5742434 1.018002 -0.17885922 -0.44285318 1.0731999 -0.061407708 0.16676928 -0.023221014 0.45868304 0.017975992 0.47245806 -0.14097603 0.2268458 0.27872774 -0.46093857 0.26203346 0.27239683 0.35197303 -0.37771514 -0.28135213 0.43573493 -0.56021297
可 0.6076898 -0.63884056 0.21722476 -0.1190969 -0.81408066 -0.14803652 0.8712371 0.74647766 0.93904316 -0.030653961 -0.22447729 0.23817393 0.19254602 1.0618911 0.050196588 -0.9804799 -0.500299 -0.19284007 0.62374306 -0.43985704 -0.59832954 0.7696063 -0.0918364 0.9593819 -0.38788244 -0.21889694 0.85576206 0.4265498 1.7365746 2.533512 -0.07235671 -0.6658259 0.0586396 -0.4741812 0.60560036 0.17844766 0.172883 0.66588 -0.56863105 0.052534595 0.66351384 -0.09804383 -0.45746967 -0.18071121 -0.16474101 -0.13447326 -0.41221374 -0.2561701 0.034811877 -0.49362504
如 0.2990185 -0.81323653 0.60269165 -0.033924144 -0.18696135 0.037159033 0.39383662 0.43399495 0.40611124 0.20456333 0.13850681 0.4934293 0.0391153 0.97530526 -0.08677185 -0.028074061 0.298522 -0.11983273 -0.048179682 -0.248805 -0.4837985 0.35088503 -0.14597557 -0.17666088 -0.4440441 -0.365186 -0.020564854 0.5947973 1.0592965 0.65178436 -0.20603666 -0.19222197 0.7085988 0.36347234 0.20765236 -0.21790522 1.0375053 -0.1175201 0.3706704 0.03167273 0.36706313 0.2318583 -0.13281089 0.70582175 0.050136287 0.12694012 -0.23966102 0.19550887 0.1022696 -0.23012297
与 -0.068624906 -0.5715698 0.45154396 -0.22378536 -1.0703692 0.4830525 0.27367923 0.2158538 0.33007434 0.073896326 0.004004141 0.021966081 -0.16291353 0.08484142 -0.07417341 -0.29726893 0.20027332 -0.57180274 -0.5931669 0.0011670468 0.28387085 1.3529141 -0.2900908 0.50986767 0.2738512 -0.43860543 -0.23788187 0.0963355 1.4795002 0.6895194 -0.11674255 -0.57179916 0.5408422 0.41727823 0.19395691 0.2630902 0.8619145 0.19529758 -0.030336455 0.45198217 0.45767748 0.16189969 0.26744926 -0.15908778 0.54470354 0.05273245 0.43241653 -0.29407465 -0.017787568 -0.2290735
； 0.7004443 -0.07529175 0.9607985 0.6073372 -0.5363218 0.43645674 0.4480944 0.12965836 0.3085189 0.5236969 0.058665 0.18937449 -0.43991745 0.8747044 0.11432073 -0.6753461 -0.38365504 -0.47394925 -1.3283459 -0.7540593 0.027847396 0.90582806 0.038213626 1.1884745 -0.69773084 0.34588903 -0.51903236 -0.17575133 1.4797237 1.4067601 0.457935 -0.21956812 1.2985477 0.26772633 0.45012403 0.5040768 0.78132004 0.71486133 -0.07435789 0.29067248 0.3107562 0.5525441 -0.44191462 0.78370243 -0.12877344 -0.7786693 0.15673238 -0.3772481 -0.095681734 -0.45085695
言 0.7556523 -0.16405635 0.4095232 0.29404983 0.09038061 -0.224242 0.5288726 -0.3214431 0.4152553 0.18843217 0.45328388 0.41989052 -0.08671064 0.21919976 0.21629399 -0.45753318 -0.26186118 -0.3054798 -0.30262828 -0.04050573 -0.29236576 1.4731883 0.035969283 0.0035720873 -0.07737788 -0.11140341 -0.0094241565 0.022098448 1.3365513 1.0951716 0.44464308 -0.19533513 0.47202936 -0.15660805 0.023915296 0.17296772 0.67868865 -0.36275503 -0.4005292 -0.21888189 0.23234689 0.57016426 -0.21615422 0.462537 -0.09030731 -0.25824988 1.4320638 0.10072919 -0.29477832 -0.3361328
无 0.9647765 -0.032408442 0.8168939 0.28627264 -0.59001404 -0.18955979 0.69259304 -0.26558167 0.4166113 0.23224089 1.0660614 0.17889991 -0.08354577 0.059387997 0.1172363 -0.4093104 -1.159802 -0.723389 -0.5139734 0.05145081 0.1850767 1.0544361 0.077566236 0.7350777 -0.1078254 -0.29462445 -0.280391 0.11927844 0.4406682 1.174032 0.14535043 -0.09102371 0.826709 -0.15377147 0.2440063 -0.043820757 0.39430383 0.28448617 0.24290086 -0.34868 0.050870504 0.009757219 -0.32300663 -0.21631432 0.29332325 0.03545416 1.4400638 -0.017793758 0.40596914 -0.297927
则 1.3491887 -0.3240032 0.5185944 0.77542716 -0.5299125 0.32498327 0.5278498 -1.2255245 0.43736422 0.20688652 0.73800117 0.24799015 -0.24513343 0.2948291 0.23257849 -0.54009837 0.26932734 -0.090712935 -0.6840352 0.2669852 0.67757124 0.5572892 -0.38384235 0.8185432 0.06101091 -0.0328242 -0.2874096 0.16679582 1.1730473 1.6180755 1.0017434 0.033506013 0.40667474 0.061969683 0.38299468 0.7748787 -0.023523418 -0.49086004 0.5013511 -0.6947109 0.2903203 0.75330526 -0.38658887 1.0855507 -0.005920287 -0.20969287 1.0115283 -0.21131377 -0.11592413 -0.313858
！ 0.5804147 -0.7114575 1.1425798 -0.34357616 -0.35423484 -0.03055907 0.6166378 0.061239086 0.2524196 0.152021 1.0300854 0.26338163 0.5712982 0.19053076 0.28672686 -0.26587066 0.35477632 0.013905911 0.009382815 -0.18723999 0.046342526 1.1907305 -0.24129978 0.4032129 0.09488381 0.13703413 0.27980092 0.13165486 0.799733 0.39313856 0.1424412 -0.2988779 0.07516715 -0.0805323 0.32349768 0.3071683 0.95146155 -0.6085054 0.049828604 0.5146048 -0.28806743 0.66135466 0.2598154 0.5570957 0.13516065 -0.19217469 0.7274194 -0.010272014 -0.22485226 -0.55301535
问 0.45559904 -1.3925688 1.0489789 -0.10788991 0.258696 0.14084554 0.8426666 -0.85227233 -0.01846457 -0.1500646 1.5901479 -0.0058380226 0.6760709 0.21087815 0.039655417 -0.23538502 0.8584817 0.49267483 -0.49913612 -0.15822889 1.5300369 1.734665 -0.6021625 1.0140367 0.07067199 0.16037607 0.33138317 -0.306106 0.65904844 0.9555752 0.95277494 0.2803399 -0.10634821 0.26420137 0.4178129 0.29502043 0.9742411 -0.97541475 -0.24368836 0.061180264 -0.6690768 0.33510396 0.15096572 1.2403699 0.15830602 -0.7966368 1.4982846 -0.42803892 -0.043901626 -0.35971105
知 0.8357202 -0.37158743 0.31309748 0.27819023 -0.3086776 -0.22982618 0.73180526 -0.33022955 -0.19873603 -0.33592126 1.1100249 -0.2183432 0.29888934 0.21537365 -0.22256923 -0.22132108 0.9106924 0.4230862 -0.17882264 -0.09024747 0.67102283 0.83278465 -0.4418756 1.0482526 0.11639145 0.68515944 -0.037416477 -0.1581774 0.36151525 0.06536792 0.6805111 0.26233107 0.09438837 0.41584304 0.5594001 0.13311943 0.6329044 -1.2333549 0.26569894 0.17830436 -0.45095506 0.50551105 0.38368616 1.537191 -0.16079743 -0.9846804 1.4003619 -0.4919387 -0.48507413 -0.4022354
何 -0.1896383 -1.8834724 0.043661196 0.0104927225 0.24396339 0.30584595 0.2780073 -0.07541141 -0.25840116 -0.10143716 -0.09359176 -0.29562375 -0.5001556 -0.048002265 -0.054944873 0.0041025295 0.46728462 0.47904554 0.11865416 -0.1709057 1.0497075 1.5718992 -0.45584944 0.6779417 0.12991296 -0.23310222 0.3269145 -0.10035132 -0.13538407 1.0060878 0.14954042 0.17063156 -0.2777572 -0.24235891 0.5291792 0.14680336 0.3057717 -0.65290916 -0.22229151 0.5721699 -0.046315175 -0.0544004 0.2792237 0.53350556 0.11759989 0.01284913 1.3837271 0.09673185 -0.17151433 -0.25941882
吾 0.15469114 -0.90756524 0.44583315 0.28451917 -0.22306016 0.64285976 0.31943733 -1.1766624 0.017279223 0.2773182 0.774367 0.12945846 -0.3779607 0.45836094 -0.033888213 0.08833 1.2717633 -0.0625826 -1.0202904 0.0012660644 1.8431386 1.3469703 -0.024343116 1.6853051 0.09161374 -0.46218058 0.18214566 -0.24379179 0.025348447 0.5262294 1.2853181 0.5908573 0.4068888 -0.38296947 0.5996141 -0.2451834 0.25560892 -0.48252743 -0.32864043 0.35347307 -0.08419217 0.37905914 -0.175973 1.4397905 0.52966416 0.10845647 1.1965567 -1.5430751 0.62625366 -0.69614714
仁 0.31538796 -1.1114223 0.003266479 0.96121097 -0.16569301 0.5375672 0.19825613 -0.5576247 -0.13925503 -0.15451203 0.9608295 -0.113661386 -0.11375329 0.2657533 0.051229283 -0.18807308 0.9004469 -0.03657514 -0.55665976 -0.18354388 1.9486756 1.05348 -0.07429259 1.0428923 0.032634247 -0.45717376 -0.18620527 0.1540569 -0.052051343 0.2940013 1.3869277 0.5514693 -0.26343173 0.115282685 0.0068344027 -0.17277291 -0.22666074 -0.11940203 0.10764015 0.54098266 0.33429623 -0.81891876 0.21801478 1.1255081 0.29572037 0.104602315 0.7250669 -0.45718795 0.99319345 -0.108436875
夫 0.13278121 -0.8517504 0.012566108 0.8738906 0.27847177 0.37633482 0.36675408 -0.55104506 -0.27624434 0.059121642 1.2996627 -0.18288775 -0.054438677 0.13268761 0.17880017 0.4434504 1.0441427 -0.020180393 -0.75304204 -0.17924778 1.2872932 0.31335187 0.23270524 1.1249894 -0.067345835 -0.60487634 0.44774622 -0.21105489 0.07339037 0.44685814 1.3665025 0.3230637 -0.017961023 -0.47656384 0.37172472 0.12108695 0.40712985 -0.5105661 -0.0011500651 -0.69947916 -0.10297675 0.08446496 -0.46242318 1.4991102 -0.34670007 -0.014953277 1.2868882 -0.29560173 0.89781576 -0.28774965
、 -1.1056122 -2.1848793 -0.52731925 1.3492489 0.19936088 0.82247686 -0.21256721 -1.0159441 0.08418722 0.071146384 0.53648126 0.16623078 0.52985716 0.084002845 0.350356 0.6088968 1.4193995 0.37762976 0.8362657 0.40463057 0.7483447 1.1696893 0.059176445 2.334165 0.21415746 -1.4120973 0.15097266 0.747396 -1.0322908 0.5600546 1.1967013 0.34423643 0.31065518 -0.38336 0.04218833 -0.086900696 0.083257854 -1.3445933 -0.49600452 0.86782956 -0.20742811 -0.24978906 -0.15911049 1.3365046 0.14541978 -0.30043066 1.2156525 -1.0228732 1.0979145 -1.1949162
道 -0.4112819 -1.1608745 0.22335671 0.43712026 0.05985112 0.8109699 -0.27412835 -0.4231241 -0.08686254 -0.81014836 0.80531865 0.6852673 1.1521525 -0.029883703 0.15441497 0.23383702 1.4261488 0.350991 0.49886915 -0.2533249 0.99594843 0.81866443 0.85846627 1.9954845 0.06892025 -1.3317312 0.08484594 0.41089165 -0.07946981 0.25974542 1.160039 0.39643303 0.34429234 -0.18513131 0.57603276 -0.07840212 0.19866039 -0.72572553 -0.5916399 -0.070460424 0.29248762 -0.46546832 0.310764 0.70688194 0.17861558 -0.6585134 0.7352812 -0.372627 0.41780528 -1.2207115
焉 0.32366917 -1.987615 -0.28060663 0.231676 -0.72730386 -0.35311404 0.72551376 -0.4495879 0.022414617 -0.30801386 1.582606 0.7603968 1.1775357 0.55026037 0.10378953 0.36957556 1.213205 0.09141538 0.9582708 -0.7618664 0.58157337 0.28409773 0.48629832 0.7379547 -0.02073542 -1.0371209 -0.20007691 0.6113138 -0.90369034 -0.33236665 1.5216446 0.76191765 -0.00285714 -0.3530441 0.10099498 -0.24025218 -0.13714215 -1.5945133 -0.57480216 0.10012961 -0.37388343 -0.3408471 0.27735192 -0.14561796 -0.3838366 -0.3121644 -0.2058786 -0.5166351 0.40713614 -0.4762817
行 -0.08508259 -1.9383475 -0.16670424 -0.17862631 -0.7387874 0.7853902 0.19307221 0.0072104544 -0.033219617 -0.90004796 1.4481307 0.5722398 0.22635064 0.1968173 -0.040203255 0.8873703 0.4276954 -0.1487808 -0.314416 -0.2704668 0.31895483 -0.40584406 0.5663943 1.8059568 -0.19400403 -1.1125379 0.485558 0.28406724 -0.44273722 -0.077032365 1.3584695 0.33061433 0.29382357 -0.25939322 0.099480644 -0.26684675 0.27533066 -1.5191083 -0.33951047 0.13513495 -0.08392741 0.4509266 -0.16105048 0.1412021 -0.15105227 -0.28935397 -1.2071993 0.010408459 0.8499536 -0.03527876
谓 -0.028121067 -0.79445946 -0.22047783 0.59789455 -0.4137512 0.6607416 -0.18331385 0.45580918 -0.01346982 -0.82720363 0.111152105 1.8605145 -0.16850942 0.45327842 -0.41158557 0.41880205 1.1445348 -0.4657167 0.19087039 -0.4655934 0.14571242 0.32646152 0.94945705 1.8469205 -0.12233618 -0.71989733 0.49100807 0.4376438 -0.08950593 -1.4680073 1.3960587 0.45969105 0.39577568 -0.37372747 0.7938888 -0.46844643 -0.38149205 -1.8258474 -0.30383837 -0.87896395 0.7510408 -0.44508147 0.39201254 0.4735476 0.2745576 -0.33161825 -0.38367906 -0.57368755 1.8435105 -0.69490993
必 -0.17734778 -1.0481906 -0.6534571 0.14433482 -1.0124803 0.99611396 -0.32203263 0.345964 -0.29659566 -0.1067542 -0.2995872 0.54323536 -0.046196133 0.7510351 -0.08484915 0.2048417 2.1952624 -0.34957185 0.06952191 -0.2097928 -0.23078129 0.34104693 0.6373456 1.1754038 0.056568295 -0.17384765 0.4447858 -0.20005946 -1.3654923 -0.91082466 0.46450967 0.19946657 0.6400077 -0.55162185 0.941175 0.16132243 -0.19662803 -0.9350877 -0.8688455 -1.7197403 1.0190127 -0.5236914 -0.29949704 0.59919536 0.513567 -0.6213533 0.56884575 -1.1737815 0.823616 -0.32399198
礼 -0.30012265 -1.48137 -0.219234 1.0617623 -0.80559134 0.18768407 -0.07504325 -0.27146816 -0.039725002 -0.60713005 0.030404562 1.4273943 -0.08719226 0.60701656 -0.091464736 0.6847856 0.08023712 -0.5722866 -0.17571338 -0.59279084 -0.04752432 0.540065 1.272577 1.5984402 -0.47664976 -1.0902561 0.69333994 1.0398353 -0.29256052 -0.48966503 -0.01639474 0.12334206 0.47501013 -1.305785 0.018100942 -0.6918061 -0.28899804 -1.5291866 -0.49801666 0.02921863 0.93464524 -0.93575764 0.2476267 0.036212504 -0.16871178 -0.004615404 -0.8891457 0.21065363 1.340103 -0.29493576
孔 0.18075453 -0.8204408 -0.04790497 0.29702762 0.03969481 0.037870716 0.19567414 0.8296426 0.13009387 -0.7447912 0.37414715 0.50971913 -0.11724877 0.2910668 -0.050836887 0.4211569 -0.24834266 -0.942697 0.118796475 -0.5154729 -0.06876215 -0.14148939 0.087383024 0.6004766 -0.17807853 -0.7057259 0.26261753 0.4901034 -0.18872596 -0.38109353 1.5762663 -0.015035467 0.18708614 -0.459065 0.3049539 -0.26393625 0.34229785 -0.9287844 0.3096366 -0.9184127 0.90906096 0.5772335 -0.0012122409 -0.071303874 0.41903448 0.06674769 0.2656267 -0.5123977 1.4570869 -0.04938264
斯 -0.3941099 -1.7150116 0.60695547 1.4925175 -0.46725476 -0.61892176 -0.034963056 1.371344 0.23351283 -1.4066515 -0.97250664 1.7851467 -0.37873098 -0.02239992 -0.0087349685 0.40633395 0.1326111 -1.566553 1.105439 -1.1065476 -0.8818473 -0.13967444 0.42120662 0.7191565 -0.38705036 -1.1635408 0.752576 0.78616166 -0.024669092 -0.69012314 1.9148608 -0.11881349 0.64126873 -1.1052611 0.24479961 -1.4637376 0.12453408 -1.2020624 0.8721985 -0.26592785 1.1839942 -0.04706049 -0.05625492 0.00983544 0.74144584 -0.06112053 -0.26159665 0.64675146 2.9394403 -0.32561097
三 0.69783735 -1.8170353 0.14587496 0.100517504 -0.24399677 0.069636695 0.2976585 0.72792435 -0.050550632 -0.6086668 0.59763676 0.9592283 -0.25545952 0.18432465 0.54818904 0.5012287 -1.3374946 -0.38028553 -0.35360414 -0.85283643 -0.023556719 0.32612622 0.95070106 0.85153925 -1.0773097 -0.758631 0.5589414 0.73530847 -0.98988205 -0.22523686 0.41860214 0.0066162017 0.2853495 -0.2753231 0.33945236 -0.18501809 0.5144903 -2.0271966 -1.0218068 -0.21733092 1.5047402 -0.731008 -0.028438557 -0.60152566 -0.3265319 0.76571774 -0.23094684 0.232095 0.98639846 -0.52304417
能 0.035975482 -0.21135826 0.30446923 0.5050403 0.29577833 0.4757055 0.050254576 1.250287 0.21149027 -0.12805644 0.49493748 0.6636492 -0.38989973 0.012356727 0.22365212 0.07793627 0.20495999 -1.1149224 0.31130654 -1.3919182 0.193277 0.4770487 1.1285653 0.7895732 -0.3092983 0.3003627 -0.07024881 0.08604316 0.33226746 -0.83863366 0.10830863 -0.16345094 0.16331853 -0.15554622 0.23412353 -0.050477445 0.4092529 -1.1677324 -0.6311455 0.6064616 -0.31880817 0.62393314 -0.13120884 -0.036204603 -0.00769963 -0.12310774 -0.0879989 -0.1183606 0.7744771 -0.27779013
见 1.352728 -0.6982211 0.39359868 1.1594012 0.19709486 -0.41891003 0.11975562 0.6131614 0.03442447 0.09249056 0.879222 2.3005104 -0.8243352 0.5029794 0.47355846 0.9721797 -0.43314984 0.45703274 -0.38165554 -1.4706125 -0.5919461 -0.6672221 1.9170392 0.621549 -1.4486332 0.14447433 0.8881289 0.21139008 -2.3327897 -0.70519537 0.7868413 -0.57393444 0.6300254 -0.67569554 -0.12574475 -0.20694703 0.7204447 -2.0285912 -0.750896 -1.1835244 1.6409832 0.8431243 0.13682984 -1.0054951 -0.20881572 1.0803673 -0.6122412 -1.9967632 1.9604963 -0.4714133
学 0.364168 -0.47143373 -0.106868036 -0.16326728 0.090760164 0.12573455 0.07833874 0.2792267 -0.046688005 0.22728893 0.46867707 0.86920196 -0.12562574 0.7144648 0.6926946 0.5465801 -0.36551932 -0.003731342 -0.15083194 -0.661222 -0.21558422 0.23764183 0.89609313 0.41576838 -1.1107122 0.035446517 0.6695261 0.32142362 -0.38980183 -0.9624553 -0.044948872 -0.53637373 -0.07870778 -0.47089425 0.008966119 0.12377491 0.46909493 -1.2908337 -0.55558074 -0.06844898 0.25838074 0.20521888 -0.34480393 -0.17644246 -0.04744236 -0.118147515 0.02392564 -0.09811879 0.6682227 0.059662227
事 1.3081424 -0.3491456 0.30353183 -0.17105281 0.42188638 0.88983595 0.13638514 0.7518214 0.33947107 0.14110012 0.7281135 0.9664387 -1.2969762 1.3823755 0.8090533 0.4469088 -0.12819266 -0.9647836 -0.52259374 -1.2526014 0.26705354 0.21464127 0.6094595 -0.41858748 -1.8721452 1.0309505 0.19462638 0.5621103 -0.0833306 -1.0873723 -0.38249987 -0.3954328 0.54032135 -1.0477571 1.6229594 -0.1661019 0.45492202 -0.9594915 -0.4796195 -1.3329588 2.5274014 1.0993419 -1.1616286 -0.69890434 0.54211146 -0.43558824 0.11687349 -0.24683265 1.924532 -0.42683715
是 0.18011023 0.03929863 0.035018347 0.7175063 -0.041170448 0.02253673 -0.013674051 1.5945581 -0.0013393301 0.1637918 -0.46412677 1.1521688 -1.099994 0.13611096 0.66513157 0.3191919 0.2133186 -0.522504 0.18913364 -0.5971828 -0.14254977 0.41448346 -0.070271984 0.6679215 -1.0398748 -0.13438414 1.9122828 0.035679456 -0.15930548 -1.2342501 0.81815875 -0.19755556 0.37378582 -0.5487594 0.6603883 -0.47070563 0.38345698 -1.2015852 0.14633836 -0.5557124 1.2813586 0.78313035 -0.3247428 -0.0118447775 0.4743983 -0.21452115 0.94142526 -0.12989958 0.45997718 -0.583637
哉 1.0412685 -0.007270195 0.28364685 -0.29378483 0.111393884 0.36171296 0.31411675 1.1236564 0.47201186 0.041553296 0.22962041 0.03674331 -1.115176 0.9180516 0.6165523 0.546014 -0.018916188 -0.9562925 -0.21218053 -0.7476865 -0.2738304 0.17987944 0.022118839 -0.28196833 -0.23413058 1.0153378 0.28797325 0.102086514 -0.3459268 0.092877425 0.062882006 -0.16090547 0.14505975 -0.37661836 -0.043455597 -0.46922547 0.42389068 -0.9310708 -0.18717718 -0.01807367 0.04013796 2.1359653 -0.67949957 -1.008905 -0.063154675 -0.06208559 0.055945367 -0.12415239 0.5207153 -0.41171488
闻 1.5731616 -0.6637879 0.25459662 0.9996293 -0.021209372 0.59203273 -0.28759062 2.4680073 0.43535167 -0.10241835 0.9020032 0.7279076 -1.6386815 0.7921165 1.3666196 0.43266094 -0.057999153 -1.2180446 1.2681346 -0.6793798 -1.0960443 -0.093726814 -0.59393865 0.11737044 -0.746331 1.1292689 1.1124578 0.22446474 -1.5623379 -1.1175635 0.46089116 -0.32140148 -0.045015953 -1.2252111 -0.019197391 -0.8918816 1.0962565 -0.97172534 0.1055587 -0.8702893 0.79256725 2.384355 -1.1694144 -1.0547643 -0.28838336 0.33834982 1.44645 -0.0066714133 -0.22658136 -0.86486024
未 0.8653226 -0.4539062 0.09480217 0.435082 -0.28356382 0.9317967 0.05555932 0.26004988 0.48204216 0.64554465 -0.033163253 -0.020686876 -0.46352184 1.1279262 0.05723649 0.709547 -0.014054436 -0.10360305 0.101482816 -0.13142267 -0.19564612 -0.058381345 -0.17377828 -0.8858524 -0.9642114 0.354134 0.58125335 0.24304697 0.3273642 -0.1658825 -0.13562861 -0.100228116 -0.15415816 0.17257358 -0.06909902 -0.593731 0.30323595 -0.09946181 -0.22977778 -0.2252313 0.18885197 1.935945 -0.45326442 -0.39298207 -0.011115205 -0.31972662 0.08964894 0.031509057 0.4063302 -0.059322204
公 2.0535786 -0.573575 0.2796648 0.15893762 0.5191872 0.5219254 -0.13633561 0.7490382 0.20159368 0.12944724 0.076525904 0.2855641 -1.4991978 0.48651695 0.09828347 0.37189618 0.26809868 -0.2585673 0.038753383 -0.75382215 -0.019246703 0.02893571 0.15115961 -0.17958827 -1.2698216 0.46347287 0.8915652 0.30655822 -0.36903718 -0.51229566 0.5896154 0.14440688 0.10554406 0.2876763 -0.2265297 -0.052484278 0.2797093 -0.8227819 -1.1605968 -0.42858082 0.8259257 0.7343561 -0.032633703 -0.28935632 0.07921659 -0.3046708 0.5340428 0.45803213 0.44967556 -0.92070276
好 1.0879731 -0.091037095 0.87887895 -0.25528333 -0.78837204 0.5275162 0.24907191 0.23555414 0.73646885 0.97336036 2.1332502 0.2562346 -1.5947367 0.33948478 1.0691272 0.1785515 0.18898427 0.73259014 -0.47758204 0.084515944 0.6801295 -0.26262194 0.85036784 0.60565674 -1.065795 0.27968448 0.63341784 0.9176903 -1.6290295 -1.3817819 -0.07493693 0.12994501 0.25891513 -0.111984625 0.2966564 0.6569009 1.0876584 -0.2654202 -0.49976096 -0.67035145 1.3695562 1.4014062 -1.3417511 -0.19508155 -0.36470604 0.08489118 0.22415237 -0.05946966 -0.3864393 -1.0115762
我 1.6547841 -0.5132421 0.6259763 -0.20486258 0.16060176 0.21147384 0.020090302 0.9550125 0.51015764 0.3984327 0.4683896 -0.55083114 -1.0694817 0.39311147 -0.049562838 0.21653126 0.43143415 0.17521958 -0.28998405 0.1448246 0.13156375 -0.19075789 0.15309608 0.7777185 -0.942331 -0.28750128 0.45260888 -0.19256637 0.06496487 -0.48280802 0.37661716 0.6766798 0.21690774 -0.15894955 -0.30486733 -1.0524573 0.008464194 0.1873021 -0.5554084 -0.6633943 0.56067735 0.7968429 -0.40626144 0.40347677 -0.049468454 -0.42094776 0.27659664 -0.11156174 -0.74564177 -1.1708962
路 0.6522903 -0.4181323 -0.18765573 -0.1816938 0.49493855 0.19958502 0.39702305 1.1489766 1.2650716 1.7713885 -1.5186678 -0.80033594 -0.43991762 0.63892156 0.042904302 0.5278572 -0.2651439 0.54160756 -0.0024482394 0.012841854 0.2872479 0.3822494 0.38681272 0.44567168 -1.4528157 -0.13740551 0.37476686 0.23004389 0.564638 -0.5342235 -0.0019274736 0.43748155 0.36175254 -0.08331798 0.10202108 -1.0644138 0.35027802 0.38925666 0.2310431 -1.1006294 1.0624336 1.3317144 -1.0959375 0.28774267 0.07090921 -0.814311 0.14295477 -0.33719328 0.06050825 -0.16150963
在 1.2592063 0.20344625 -0.07257573 -1.0676451 -0.7810061 0.4966642 0.48667264 1.6173053 0.5009924 0.8611787 0.63415873 -0.70981705 -1.480471 0.9071932 0.29314792 0.19895117 -0.544761 0.050505847 0.0391222 -0.09628196 0.7152984 0.6211281 0.2875992 0.54031336 -1.7613395 0.27827418 0.29821295 0.502883 -0.35148573 -2.3372362 -0.09457548 0.5415117 0.23407416 0.5946705 0.069086194 -0.5580032 0.37923893 0.5576359 -0.1289716 -0.4297921 0.642515 1.5862975 -0.2970452 0.08908129 -0.49285412 -0.9113113 -0.32052788 0.14964469 -1.33134 -1.08448
已 0.9392387 -0.27261555 0.565054 -0.47495347 1.0688149 1.3375664 0.103711314 2.0001879 0.810207 1.4110532 0.20875856 -0.7998477 -0.6532078 0.4987894 2.106185 -0.15274298 -0.5991558 -0.151224 -0.67194027 -0.840552 0.017611742 1.1592743 1.0699247 0.3114322 -0.3486225 0.13051534 -0.95627344 -0.06836955 -0.49875286 -0.75210744 0.63579834 0.5594016 0.48280483 -1.3817307 -0.8276672 -1.4615539 -0.15963614 0.8055968 -0.9228579 0.0249895 0.64042777 1.0866677 -0.31881937 -0.6453117 -0.38875234 -0.7513652 0.08658683 0.93219614 -1.0226003 -0.5997034
得 1.2078714 -1.5491402 0.057288658 0.83598816 0.02440469 2.5749984 0.27059126 1.3523353 0.78493065 1.1477919 -0.6664628 0.03865549 -0.50258166 0.5004969 0.19707961 0.8607072 -0.53718764 -0.4662188 -1.785762 0.20167792 -0.13179423 -0.46503812 0.19586134 0.7097354 -1.297675 -0.21147716 0.023521703 0.26300806 0.35248354 -0.378201 0.10457806 0.0739304 -0.2585163 -0.48209813 0.7654207 -2.0977714 -0.060051445 0.77232546 0.2358299 0.76771754 0.8141517 1.0619526 -0.8018026 0.35701478 0.33305725 -0.22463173 -0.19714344 0.25263202 -0.8723967 -0.64865303
所 1.4530776 -0.9834103 -0.04933097 -0.38226497 1.1417332 1.20029 0.052308135 1.7024856 1.422895 0.12566577 1.1189338 -0.9349471 -0.63136786 -0.10317302 0.4539335 0.57275784 -0.06986306 -0.29271778 -0.07021553 0.19526197 -0.17299081 0.32299116 0.406823 1.9424835 0.79440796 -0.38741794 -0.29720956 0.1146742 0.9082483 0.20762745 0.037171617 0.37897152 0.28159845 -1.1246551 0.6475539 -1.3997486 0.4060078 0.6873891 -0.6877284 -0.71011317 0.07827453 0.38519582 -1.1539202 0.50640243 0.019837778 0.7373116 0.14492542 0.3899855 -0.84082764 -1.0645684
民 1.5087502 -0.8788467 -0.15783985 -0.4474488 0.95385945 1.227838 -0.16290963 1.3912894 0.5380485 -0.19306722 1.5508332 -0.3623543 -0.7982583 -0.0828249 0.4098694 0.11778912 -0.16807716 -0.35178587 -0.3828713 0.14434598 0.65934896 -0.41214097 -0.14837827 0.6015687 -1.3804339 -0.20856047 -0.87018 -0.24673261 0.22937854 -0.663414 -0.16664256 0.115162015 0.01257417 0.1369777 0.35224062 -1.0104816 -0.28472906 0.88969684 -0.9220319 -0.21753521 0.3831889 -0.0076042553 -0.0013141385 0.9419238 -0.17155638 0.053416964 -0.8668657 -0.182623 -1.0085528 -1.3679335
小 1.8353624 -1.1436046 -0.29433352 0.56344354 1.1394489 0.6939876 0.3126558 1.1087054 0.38150883 -0.052788597 -0.19520462 -0.10483287 -1.7016821 0.028000208 -0.06583022 0.33297107 -0.6555692 0.03486628 -1.0787699 0.14376281 -0.12001049 0.49082634 0.042826165 1.91984 -1.0368334 0.12375744 -0.40224954 0.015306379 0.18923035 -0.18444979 0.57359236 0.80718297 -0.15419614 -0.1862307 0.6665454 -0.3325021 0.36779216 -0.040540252 -0.10424231 -0.23109476 0.2988796 0.17139013 -1.0254169 0.6940989 -0.26997688 0.14513029 -0.89849675 0.16239896 -0.24899653 -0.97295237
天 2.2112954 0.14092961 -0.34526214 -0.3066008 0.98014444 1.5590454 0.15765385 1.6811421 1.1597426 0.2583914 1.1753365 -0.3959227 -0.6258661 -0.46262687 0.0772217 0.34866259 -1.5763351 0.06021679 -0.31105012 -0.78303653 1.9544661 0.15460049 0.47286132 0.9810445 -1.1947813 0.14495246 -0.66549027 -0.1173275 1.053356 -0.9334505 -0.45284507 0.6426118 0.79718745 -0.385175 -0.2802473 -1.8339981 -0.3515077 0.46439427 -1.073596 -1.9059285 1.0824199 -0.35789052 -0.869265 0.52567595 -0.32888556 0.35923514 -1.5860559 0.58848184 -0.34893483 -1.5918945
乐 1.418883 0.37400737 -0.29808563 -0.037968047 1.1358167 0.9759501 0.5363978 2.035624 1.2794445 0.09625072 0.29885596 -1.3373936 -0.64993733 -0.07237988 0.12340415 0.37737575 -0.5442951 0.08909816 -0.27736107 0.16106026 1.7965959 0.034224834 -0.41120815 1.4308966 -0.33030534 -0.5558956 -0.76783663 -0.25795358 0.8253365 -0.106753044 -0.2808609 0.5140254 0.5014592 0.15743282 -0.008614667 -1.7188288 -0.05076051 -0.007422458 -0.79864526 -0.65318143 0.01347998 0.09188572 -1.379618 0.8985485 -0.43253124 0.56018364 -0.5606125 0.47637573 -0.7491157 0.2935709
邦 0.8590622 0.571045 0.51417625 1.0073544 2.0457356 0.082787395 0.43806028 1.1754764 0.6768201 -0.610345 -0.86044747 -0.41045594 0.42094737 0.68909216 0.56347704 0.09297183 -0.647533 0.2730736 0.11115548 0.577039 1.0059059 0.8737545 -0.5700746 0.9731813 -0.5187545 -0.7158074 -0.24111165 -0.73151195 1.045708 -0.4444887 -0.47047848 -0.19332092 1.1802096 0.74085754 -0.5451402 -2.7893043 -0.4540904 -1.3437743 -1.2131556 0.008518057 -0.63867694 0.85718083 -0.06805328 -0.046047427 0.9194645 -0.5120161 -0.32054 -0.62741596 -0.66624606 -0.54488546
亦 0.72200036 0.68202996 -0.71698284 -0.1603713 1.0914332 0.30217716 0.0505364 1.0789648 0.6688472 0.61149716 0.5118708 -1.1603276 0.13179356 0.23022415 0.40171096 0.6552899 -0.13618384 0.04999752 0.5241085 -0.088931255 0.16408405 -0.04071922 0.5124278 0.42884508 -0.025066232 -0.51514256 -0.93748206 -0.10038797 1.4341274 0.13501097 0.18284898 0.27539667 0.9045892 0.30755985 1.1501788 -1.0297698 0.1597084 -0.029116523 -0.47232282 -0.40960583 -0.62322825 0.2948942 -0.24328387 0.85798097 0.25592905 -0.20867558 -0.20126732 -0.16623957 -0.62518877 -0.5889258
使 1.7291988 0.8970202 0.09688782 -1.793058 0.027688524 0.588445 0.58878773 0.010320253 0.4682398 -0.20373805 1.854512 -0.7725908 -0.3705099 0.49859667 -0.17363353 0.29660586 -0.1966694 -0.05716329 -0.13650642 -0.13116848 -0.1637855 -0.09059744 0.36745572 0.032411594 -0.5129427 -0.69137925 -1.0253257 0.09393367 -0.2923242 -0.5579882 -0.09679818 0.09619394 0.808594 -0.20142233 1.1792159 -0.9205418 0.21821398 -0.10378091 -0.17284355 0.45177308 -0.05173672 -0.04962857 -0.20392247 0.7074186 0.38876623 0.39952832 -1.1145233 -0.09167461 -1.1770697 -1.2166818
大 0.20551635 0.33282965 -0.33286393 -0.523865 0.60711795 0.09648382 0.09730455 0.7684701 0.15516002 0.20127568 0.49647313 -0.6663548 0.34503242 0.23541759 0.54959744 0.27996004 0.314734 -0.0017307228 0.081005864 0.018989436 0.5293612 -0.0890579 0.3629537 0.7586763 -0.24354063 -1.0418085 -0.31572208 -0.13494253 0.9578211 0.10510591 0.38287625 -0.057350583 0.6745299 0.018256472 0.4015541 -1.493817 0.09588827 -0.6505722 -0.08648362 0.055175934 -0.5396172 -0.084831625 0.010765488 0.46424684 1.0710603 -0.07143806 -0.014164107 -0.11192267 -0.8155085 -0.3723588
下 1.6846597 0.8664794 -0.41101462 -0.014359092 -0.28739423 1.0117836 0.12896346 0.8817994 0.47938442 -0.11080863 1.8277049 -1.8423512 -0.6073455 0.996181 -0.7018886 0.75449556 -0.034402728 0.06632887 0.87482995 0.8597227 1.1483568 0.047253735 0.63319427 1.2393098 -0.45486638 0.299046 0.42436582 -0.41770738 0.5988566 0.095473394 0.54768753 -0.23982796 0.23746474 -0.16571371 1.0686942 -0.16072764 0.13922757 -1.368656 -0.92839986 -0.88703567 -1.3089433 1.1882403 -0.65378976 0.3300577 0.4940849 0.006923101 -0.0683188 -0.6571799 -0.88613486 -0.37933987
贡 1.4751376 2.186395 -0.4043242 0.714306 -0.07717185 0.07832733 0.9059074 1.6047035 0.48761144 -1.2503405 1.9388981 -1.2260692 -0.8801394 0.42969888 -0.20495605 1.0241027 -0.22485742 0.12414644 0.9189955 0.4577465 1.2897769 0.0023510696 -0.34662744 2.3905916 0.67119706 0.30615848 -0.08818553 0.2296505 1.8543177 0.61514133 -1.1961432 0.045601357 0.622033 0.00086511066 2.8058052 -1.0627573 -0.29228514 -2.1869216 -1.1314974 -0.1575974 -0.26197085 1.3412535 -0.38958058 1.000943 -0.1689227 0.4484622 -1.4799659 -2.0509245 0.04191848 -0.37516266
欲 0.25495103 0.7441168 0.84313357 1.3566571 0.26132378 -1.2082813 0.8701274 2.4339514 0.18121998 -0.36931282 1.2582895 -0.9413834 -0.43512848 0.69343907 0.4067512 0.45007068 0.5629563 -0.36171225 0.7846791 0.1010106 0.47470656 -0.66707414 -0.47952795 0.8674026 0.15342845 -0.8143591 0.5691688 -0.17266293 0.9426338 0.4984764 -1.073731 -0.3910833 0.5277822 0.66992164 0.9850698 -2.0585053 0.0070823086 -0.97156674 -2.1776536 -1.0398012 0.03645559 0.9020894 0.042288482 0.9369109 0.6853549 -0.0581585 -0.48906085 -0.56167704 0.32101822 -0.017625997
诸 1.5924778 1.8969717 0.5479445 0.020335292 0.19351974 0.6003163 1.1765109 1.8640015 0.7878552 -0.83125293 1.3831493 -0.19978426 -1.0862719 0.8325517 -0.36271682 0.9886521 0.095189326 0.46755713 0.79104304 -0.26850015 1.0174961 0.5082288 -0.42139056 0.7539366 -0.21300869 -0.08426102 0.2878545 0.44844228 1.6653122 0.7693485 -1.6280941 0.0084212 0.7670353 -1.2087914 1.8001602 -0.8257302 0.2972492 -2.0328748 -1.1322349 0.8083537 -0.4950502 0.68666637 -0.3757889 0.72470534 0.9202985 -0.47284943 -0.59507304 -1.3200831 -0.3512387 0.042011883
从 -0.7484606 1.7442546 -0.06478272 1.1282791 -0.7411688 -1.2373157 1.5477709 2.1792686 -0.5017144 -0.6511036 0.14862846 -0.92094857 -0.45275763 1.6774768 -0.32426152 0.8109789 -0.34527662 0.23880744 1.4258003 -0.034369253 1.453959 0.30305445 0.5050823 0.70501524 -0.42965946 -0.55406207 0.2813923 0.96868074 1.063403 1.7276975 0.08129422 -0.13493252 0.62659645 -0.28570995 0.7432616 -1.5546955 0.7875008 -1.4419136 -0.108412564 0.81054586 -0.94681114 1.3246491 0.62756044 0.65136224 0.88404626 -1.2849038 -1.6887927 -0.64440286 -0.122457296 -0.099020585
文 1.3439182 0.59135234 -0.4500194 0.15163773 -0.07027714 -0.18748063 1.1663287 0.962341 0.1842042 -0.3526378 0.623537 -0.59470856 -0.52446586 0.48582423 -0.20443113 0.845953 0.20128147 -0.17083023 1.4224474 -0.33331904 0.84697276 0.41031346 0.18565686 0.87086916 0.09911248 -0.10747584 0.3473026 0.42370653 1.0796728 0.5157626 -0.7086525 0.10720997 0.7859438 -1.1387485 0.76378804 -0.09163371 0.35376024 -0.8800884 -0.4641517 0.6627236 -0.4714489 0.66509676 -0.060012132 0.28320137 0.6593679 0.3123859 -0.872451 -0.42869502 -0.19163227 0.022064304
政 0.39511943 1.7430859 -0.3599452 0.3179166 -0.4688642 -0.8055944 0.5566429 1.269433 0.047113027 -0.4067537 0.28252858 -0.5923216 0.093181595 0.7888477 0.05439288 1.3385224 -0.76307225 0.10445492 0.42947778 0.035451118 0.3840697 -0.31345502 0.9814049 0.761414 0.091588974 -1.2150319 0.24016169 0.22076716 -0.15834898 0.6094624 1.0439135 0.07739786 0.68964297 -0.07558201 1.0028974 -0.6509272 0.43688145 -1.3505853 0.69464123 -0.12738343 -0.71722454 1.7162044 0.2611835 0.33329105 0.6426525 -0.4758056 -0.0044458783 -0.86896235 -0.20905139 0.29307958
食 -0.24174413 1.1875166 -0.6530715 1.4749244 -0.5300268 -0.7382856 0.5054811 1.6093147 -0.07111047 0.01902521 0.55526835 -0.5263932 -0.21112713 0.9154149 -0.11426948 0.4093978 -0.13135701 0.5314745 0.2006135 0.54588723 -0.017287092 0.2856274 0.36390668 1.43515 -0.23965745 -0.5917498 0.82275707 -0.11477422 0.5329056 0.82663417 0.4451579 -0.09370547 0.114283785 -0.41632077 1.1989342 -0.6643805 0.10217776 -0.80670005 0.05149072 1.115676 -0.36360946 1.6816081 -0.009664247 0.2877277 0.37605304 -0.52960277 -0.5247846 -0.15946059 -0.1342977 0.18963364
善 -0.6025968 0.8569654 1.2358717 2.4313922 -0.4207741 -0.88645124 0.7271522 1.3572338 0.1583443 0.23748346 0.066598944 0.3059981 0.30085307 0.56599617 0.5767453 0.14582673 -0.19708884 -0.07346926 0.1621662 0.80406994 0.6260622 -0.20536692 0.12794773 1.3953506 0.47981182 -0.822198 0.2208357 0.7311704 0.40094152 0.27886686 -0.32780388 0.48166752 0.42847547 0.2007463 0.66570663 -0.9478282 -0.2369422 -0.60553753 -0.8963182 -0.037064154 -0.016607316 1.6369675 0.3009826 0.65744185 0.94073683 -0.010349376 -0.03410155 0.38939038 0.74927896 0.06963092
后 -1.7361726 1.7336738 -0.1519954 2.3515067 0.4789656 -1.0873799 1.1426371 2.651066 -0.39133406 0.7688719 -0.6548573 -0.038625404 -0.3798807 0.10485796 0.5502171 0.7743976 0.07899269 -0.9869554 0.58938956 0.43893802 -0.39403498 -0.15098605 0.5066699 0.43287712 -0.17426307 -0.95509976 1.0801922 0.4395247 0.8427207 0.62337625 -0.13281563 1.2291214 0.21784659 -0.34639513 2.4257386 -0.83475477 0.39046842 -0.45852825 -0.40965185 0.42114836 0.1668524 2.2653947 0.09353989 0.3247363 0.6749588 -0.94257087 -0.35443634 -1.4478756 0.362088 -0.5877336
德 0.23653196 1.1292428 1.4936911 2.7923682 -0.16271852 -1.5755527 0.8475149 0.5211501 0.25528166 0.80275375 -0.19673568 0.5617999 0.21217446 0.45652768 0.5482094 0.15800315 -0.3918866 -0.16883224 0.043505855 -0.4101352 0.15432432 -0.009751942 0.13124038 1.9691308 0.042159315 -1.4716079 0.07372753 0.8054967 -0.35181925 -0.022139525 0.53533375 0.688126 0.17322558 0.3008473 0.5646807 -0.87258625 0.13317385 -0.24164362 0.15133269 0.1950342 -0.21354076 1.2125874 0.006974252 0.653932 0.46500787 -0.08240275 -0.19165045 -0.31038868 0.41089135 0.033524696
求 0.37057424 0.9137426 1.1446389 0.8461326 -0.754067 -2.0767775 0.115696855 1.1778717 0.29179066 1.234374 -0.09051391 -0.20374437 0.18523046 -0.6623597 0.21813138 -0.14517534 0.4543973 0.5652933 -0.30966374 -0.25571197 -0.87357295 0.43716905 0.24698707 0.86755407 -0.11796087 -1.1309175 -0.18870114 0.20741954 -0.1840311 0.8713855 -0.33283055 0.80781317 0.092328444 -0.12020202 1.4193925 -0.31383097 0.1991595 -0.41749835 -0.4755229 1.1368635 0.5766082 0.71153796 -0.039357986 0.63775444 0.3392317 -0.257372 -0.29816973 -0.22563161 -0.103060886 -0.07384223
对 -1.209252 1.720253 1.1166179 1.0429901 -0.7876848 -1.6787512 0.34161118 0.92307687 -0.032643605 2.4547079 -1.6518028 0.19107568 1.4472528 -0.8830844 1.1327789 0.20137766 0.09728867 -0.42666647 -0.452846 -0.4297895 -0.5276955 -0.37740687 -0.20943451 0.63481855 -0.23622483 -2.011675 -0.2799051 0.73838097 -0.6568098 0.60919636 0.7022818 1.051013 0.94906855 -0.24800366 0.9587367 -0.6311752 0.37353346 -0.9945373 -0.850689 0.428208 0.67499477 1.2957476 0.2194445 0.69312763 0.6087308 0.77626854 -0.77932405 -0.5778494 0.8368257 -0.101805255
恶 1.007771 1.3406079 -0.71988714 1.5424144 -0.42766893 -0.679793 0.5688025 0.81806684 0.3042216 1.0805734 -0.43393594 0.71180475 0.4970686 0.25939912 0.37838402 0.5512256 -0.4371092 -0.020906791 -0.5985295 -0.47290403 -0.16461694 0.45285687 0.013129032 1.0882093 -0.60239434 -1.1657649 0.12916733 0.43718007 0.36019886 0.030092634 0.45551935 0.6353706 0.11224496 0.33890784 0.52523327 -0.4617599 0.19295463 -1.2048033 0.21025205 0.039553057 -0.1423113 0.44289798 -0.16365495 0.80487794 0.31652158 1.5365646 -0.22152665 -2.0580983 0.5775163 -0.20285596
信 -0.45609036 2.0368383 0.58476555 1.6469605 -2.4331865 -1.0977993 0.514775 2.0082095 -0.2421436 2.1340475 -0.87879133 -0.21134445 0.8651617 -0.7671298 1.6020929 0.17146778 0.8575758 0.16762076 -1.0698338 -0.28981158 -0.72101736 0.66369843 0.355438 0.9546669 -0.0044588186 -1.492928 0.38748562 0.13306592 0.56381524 1.3530878 -0.938617 1.0779632 0.5457378 0.8085873 0.6847983 -0.45731637 0.26983365 -1.7100492 0.977964 1.2721487 -0.039656803 1.0536437 0.9098498 1.0176752 0.69281596 0.57644504 -0.42748454 -0.12692556 0.11188906 -0.55455965
死 -0.1985844 0.9327031 0.21247226 0.41492778 -0.30725938 -0.06738434 0.0103939865 0.61413485 0.23031706 0.741688 -0.53265417 -0.034450438 0.21437074 -0.28973007 0.6200553 0.19808528 -0.08660048 -0.4269189 -0.8565737 -0.27984768 0.17627802 0.08105563 0.14603424 0.12959248 0.117031 -0.45567727 0.626531 -0.3005973 -0.047739193 -0.2530361 -0.096014656 0.8384404 0.42709076 0.09656865 0.065303616 -0.3588723 0.020676104 -0.42329744 0.022438282 0.26996556 -0.6996532 0.3586903 0.20092645 0.3295933 0.36196992 0.40819666 0.20150463 0.10447755 0.29443103 -0.30805925
然 -0.013786191 0.83639646 0.8454441 0.899168 -1.1960695 -1.0586278 0.21035656 0.87659883 0.12687086 0.5669764 -0.6383674 -0.68741864 0.19489741 -0.07925791 1.3691366 0.16853876 0.17512627 0.07138605 -0.4278438 -0.10050176 -0.48004535 0.5942563 0.4790812 0.033815738 -0.018063938 -0.3160335 0.8354773 0.49778733 -0.15569943 0.39067024 -0.20590246 0.90203524 0.1422948 -0.12384862 1.0819159 -0.4162817 0.35678455 -0.38474888 -0.16230679 0.5777073 0.6796562 0.9015105 -0.07446525 0.17583346 0.31019154 0.9946272 -0.16648379 0.38429484 0.48952228 -0.41158408
《 -0.44047928 2.1832504 0.7217337 1.111033 -0.94461685 -0.8201755 0.46625727 1.4629663 0.13731356 2.0174708 -1.1987954 0.36966532 0.69014645 -0.4622762 0.70528674 -0.13564843 0.20444304 0.20690939 -0.8968432 -0.27339274 0.34001416 0.3429696 0.16318089 0.9952973 -0.36666998 -1.1635576 -0.049854342 -0.32055157 0.28274533 0.028294701 -0.872643 0.7776977 -0.26399475 1.1737212 1.317828 -0.47664928 0.16335192 -0.8391332 0.18101984 1.1800294 0.071177706 1.2910492 0.7907283 0.7672912 0.98931277 1.3859884 0.021030877 -0.18974686 1.0458999 -0.045510195
》 0.55704373 0.83496594 0.32434794 0.097826295 -1.1003067 -2.217822 0.2596307 0.6028626 0.8228273 0.9215414 -0.31517157 -0.44911444 0.9683164 -0.7814631 1.0404744 0.17287071 1.1971881 -0.2898785 -1.4140164 -0.56095773 -1.3311015 0.8936938 0.3848304 0.4481546 -0.5136526 -0.8385825 0.34433728 0.021876121 0.046858538 0.24370265 0.8196075 0.8773372 0.52369386 0.13537505 0.4097675 -0.59507406 0.35620707 -0.7323743 0.33936724 0.7838019 0.15058194 -0.14138885 -0.15893765 1.178243 0.289725 1.4823025 -0.9860396 -0.6827907 0.09633713 -0.4584622
由 1.4590579 1.6332983 1.2194443 -0.3115865 -1.8978354 -1.4213617 0.78522986 0.81769437 0.43108127 1.8861705 -1.0741576 0.19439973 1.5865985 -1.0821663 1.2667569 0.1280144 1.4747202 0.17374116 -0.35343772 0.013284095 -1.4067347 -0.36257002 0.086222105 0.20242356 -0.48535275 -0.5441946 0.9069931 -0.28471744 0.60120934 0.28044003 1.0501641 1.2897431 0.613873 -0.9751849 0.850025 -0.06066247 0.31706476 -0.78801876 0.0052668112 0.90215284 0.4479155 1.9177768 0.037427366 1.2415907 0.73036313 2.4244783 -1.7169608 -1.3947586 0.13127705 0.1660162
仲 2.5130904 0.98947775 0.96768624 0.5028881 -1.651277 -1.0996947 -0.28736788 0.17953931 0.95271033 2.9993901 -1.4222455 0.17958684 1.0792247 -1.8205163 1.6870694 0.118100144 1.9452926 -1.1353832 -0.62096214 -0.044424113 -1.4627912 -0.14301923 -0.5328125 0.0061658695 -0.2807755 0.865415 1.456725 0.31352913 -0.09111321 -0.6494924 -0.6123404 1.699594 1.0492969 -0.72177505 0.34152243 0.99440265 0.039501876 -1.7045714 0.2109833 -1.2665013 -0.08519646 -0.14452375 -0.906741 0.89845103 0.27655414 2.1923828 -0.6124488 -1.311847 2.5293972 -0.21606244
非 2.139651 1.2476437 1.9226823 -0.1089282 -0.34013587 -0.36385375 -0.23666883 -0.13494219 0.7398926 1.2554641 -0.43365464 0.11066851 -0.15050861 -1.2838509 -0.32857436 0.23550187 0.43368897 -0.6211656 -1.0718971 -0.39616925 0.3903414 -0.04831955 0.5171946 -0.14277029 0.13150692 -0.25787476 1.2671863 0.4584701 1.3681715 -0.383925 0.2302121 0.49453178 0.5748824 0.54803675 0.59870565 -0.89986235 0.0271115 -1.0196877 0.3155707 -0.5629436 -0.1962928 0.6395527 -0.308354 1.1220465 0.89798087 1.8175317 -0.9238889 -0.9533028 -0.011043853 -0.8737544
出 1.8444744 0.43681243 -0.17680079 -1.1508452 -0.21625239 -0.31848586 0.2203094 -0.15369062 0.3860887 1.0192163 -1.5376055 0.26674303 0.46627912 -0.28301555 1.183836 -0.20864752 0.96565497 -0.32695022 -0.35007006 0.1720821 0.23029967 0.48448664 -0.079199344 0.058342516 -0.2185338 -0.017908944 1.818813 0.051841836 -0.20688175 -0.6918869 -0.35207734 0.7622776 0.3456672 -0.011733279 0.51232 -0.41774437 0.050573666 -0.96075976 0.3543852 -0.08212195 -1.0906335 1.3204178 0.007602528 -0.17703184 0.93857396 1.0760882 -0.5614706 -0.7666305 0.8099794 -0.42075145
过 0.98637754 -0.011550805 0.8513547 -0.9462555 -0.59765494 0.12167602 -0.1832212 0.01292714 0.25149375 1.8333521 -0.38341597 0.10325474 -0.24327826 -0.6979398 0.079789914 0.16920702 0.78596514 -0.8761049 0.057791118 -0.25331974 0.9416909 0.464976 0.6789402 -0.1579249 -0.4598171 0.00227426 1.8623503 0.647264 -0.15402591 -0.5370135 -0.4330982 0.68782526 0.16528486 -0.24059239 0.6094237 -0.08125884 0.27406743 -0.7282292 0.1427622 -0.19088717 -0.5642179 0.14401351 -0.09515617 0.7279746 0.61748236 1.4677587 -0.5901882 -0.2478415 -0.14871792 -1.0192418
一 0.9756769 0.25354114 -0.34261847 -1.5074749 -0.051826984 -0.7454741 0.06920923 -0.29437038 -0.017286716 0.896225 -0.7051182 -0.20871404 0.47393334 -0.154699 0.99716145 -0.22576211 0.6231526 -0.051523652 -0.15225579 -0.2168145 -0.12597476 1.409231 0.069788106 0.07522826 -0.30016688 0.007478958 2.0020978 -0.3494147 1.1763464 -0.45736802 0.5014012 1.0400882 0.673859 -0.37777957 0.20473614 -0.57522124 0.39320853 -1.4956267 0.9127127 -0.17823108 -1.3639798 0.17553358 -0.029199466 0.16468194 0.14262488 0.77911544 -1.6954812 -0.91657174 1.6911527 0.0598777
虽 1.8422723 0.444641 0.029162634 -1.7293819 0.38636553 -0.70423824 0.13483313 -1.0070502 -0.08611649 0.36574993 -0.97890246 -0.082466386 0.16465035 -0.49437302 0.32504016 0.21322335 0.54948574 -0.88697624 -0.3088803 -0.5225409 -0.28835934 0.6977083 0.16580777 -1.0205365 0.5076697 -0.10905734 1.8395495 0.35766235 1.6489655 -0.12158453 0.9981425 1.2435946 0.89426935 0.64923525 -0.46567968 -0.21690166 0.021449424 -2.2971296 0.10202399 0.19575334 -0.74005324 0.58373386 -0.3572245 0.3133354 0.0108032115 1.0701336 -2.556374 -0.21564484 0.65244615 -0.12647279
足 1.0562817 0.10358725 0.36564347 -0.7869966 0.052226733 0.33792183 0.41414198 0.011896894 0.17850831 0.028589845 -0.050961964 0.63137305 -0.09950261 0.40188715 0.9878639 0.3982538 0.3148464 -0.49659574 -1.5756556 0.16455986 0.15031803 1.0498009 -0.11426228 0.264934 -0.38855517 -0.0011071329 0.41185492 0.8320425 0.46407112 0.5402778 0.69650614 0.49470237 1.110521 -0.79864705 -0.011267286 0.026238717 0.70529175 -0.85819805 1.036811 -0.83482075 -2.0941355 0.76257133 -0.98263013 0.15225093 0.8739703 0.40318704 -1.1351185 -1.2103661 0.4462527 -0.18339291
居 1.7245266 1.1151149 0.64957213 -0.6301696 0.63353103 -0.9130776 -0.49636438 -0.8145497 0.55031276 0.519742 -0.5608992 -0.25602475 0.59710044 0.32718706 1.3304856 -0.32386112 1.6910006 -0.4120287 -0.76792365 0.29962757 0.21534884 0.1904068 0.5959364 0.23704891 0.49508476 -0.5231402 2.4972565 0.74766064 1.1795336 -0.24578914 -0.4936488 0.7853978 1.2298392 -0.5486133 0.8704009 -0.17044221 0.5939043 -2.433029 0.76951 -0.6166955 -2.1168354 0.62298965 -0.8212876 -0.5189504 0.91742027 -1.0000608 -1.7022209 -2.168901 1.3317881 -0.8828535
尔 1.2926812 0.40598118 0.29870594 -0.48163435 -0.34896633 0.9508957 0.032293953 -0.4935985 -0.076555714 0.15239087 -0.9395146 0.20817141 -0.31694978 -0.2845997 0.19347696 0.5206662 0.34227228 -0.10633487 -1.7311087 -0.10275584 0.494954 0.4969596 -0.1753895 -0.6675597 0.6029373 0.27532253 0.6492627 0.6456977 1.4417914 -0.02596207 0.24374394 0.7550593 1.3498045 -0.39323655 0.07021225 -0.0550804 0.070845835 -1.3220924 0.6112281 -0.90587425 -1.7477508 1.0506088 -0.658334 0.16154024 0.91357046 0.8865056 -0.48134586 -1.2068675 1.5255884 -0.17827325
夏 0.70638764 0.7080073 0.6591523 -0.8972984 1.5566188 0.9303305 -0.33896682 0.05041167 0.061787777 0.9811507 -0.06371976 1.7250823 -0.9145381 0.13499574 -0.19916478 -0.23396768 0.36852184 0.27631533 -0.093612425 0.091505244 0.50641465 0.15682085 0.049555864 -0.19310437 0.24448751 0.24170774 1.3868403 1.3128155 2.5239813 -0.41649762 -0.9228163 1.0889015 1.4097724 -0.25268978 -0.1919638 0.012706437 0.3213308 -1.8556281 0.7649529 -0.6421179 -2.8382003 0.8237365 -0.5935258 -0.37348196 1.1745076 -0.7280243 0.014503028 -0.861074 0.94264555 -1.036459
父 1.0870533 -0.42430216 0.10485297 -1.3844788 1.4392271 1.0507774 -0.27344194 0.49515864 -0.52003896 0.411539 -0.31366888 1.2584199 -0.8659142 -0.03802772 -0.9942705 -0.08267969 0.7503818 -0.79041624 -0.39672816 0.40302163 1.6468339 1.0726651 0.0330638 -0.6394185 0.30848196 -0.13754402 1.5468308 1.4076157 1.0034398 -0.87885946 -0.25692788 1.3018646 1.6284657 -1.0032037 -0.45775726 -0.16835058 0.36839238 -1.8340417 0.9499016 -1.1897371 -2.2984128 -0.27703473 -0.61587983 0.045081723 0.85699946 0.0924772 -1.682416 -0.74804187 1.3402532 -0.4892315
及 0.59907264 -0.3411068 -0.19942491 -0.7103191 0.9102142 0.1360055 -0.24084167 0.15165849 -0.6160448 0.65144926 0.22372352 1.4163393 -0.33537555 -0.18209952 -0.42754465 -0.1595877 0.5131402 -0.13328639 -0.43041077 0.15277596 0.8876642 0.7759995 0.025112364 -0.5814631 0.21161926 0.24595001 0.8016085 0.6047462 2.03388 -0.56761646 -0.51043284 0.7055128 0.6335674 -0.18023196 -0.7479058 -0.097988084 0.13494402 -2.3482947 0.47583434 -1.1946656 -2.3744235 -0.22006513 0.03433442 -0.18357821 1.0080435 -0.8596767 -0.71586984 -0.26957804 0.7965993 -0.3458264
己 -0.35762066 -0.67888105 0.19085033 0.12210288 0.9929076 -0.032161806 -0.07402836 0.37051868 -0.010266969 -0.20939365 -0.01305838 0.081408665 -0.74024075 0.49918467 0.20158152 0.043891564 -0.14634871 -0.15256868 0.20842648 0.21530952 -0.34356195 0.69436556 0.34843802 -0.081286214 -0.00603212 -0.5402669 0.60650104 0.935698 0.5716201 -0.10110073 0.5057008 1.6931591 0.33168525 0.23926546 -0.0974589 0.09473474 0.67928743 -2.0256891 0.5385471 -0.86523676 -1.9324459 -0.16163772 -0.29710108 -0.1392327 1.0185415 -0.07839552 -0.8572081 -0.9433943 -0.026252022 -0.19880253
予 1.0595881 -0.5692238 0.2106135 -0.0676081 1.1469104 -0.7693129 0.149128 0.15845877 -0.23864734 -0.10508149 -0.44831264 1.2882723 -0.31720024 0.35898542 0.7689782 0.22741316 0.80446106 -0.018466787 -0.91506255 0.6741247 0.08144794 0.5576484 0.04133652 -0.029704582 -0.34367883 -0.27515492 1.6583908 1.5190498 0.7301722 0.12305374 0.2924937 1.7281895 1.2504972 -0.64742106 -0.57536864 0.52534986 0.41267374 -2.4766533 1.8824769 -0.47280636 -1.9319694 -0.1013088 -0.61950254 -0.5525325 1.2982272 1.9998451 -0.28997988 -1.1653556 0.8943792 -0.014976281
色 0.0387677 -0.09886457 -0.23487216 0.08196821 1.2861235 0.38919425 -0.046783596 0.69287366 -0.61196834 -0.26993346 0.829428 1.5777946 -1.2963133 1.1794817 0.49731728 -0.16401745 1.3846445 -0.36467618 -1.5211139 0.30083677 1.6214005 1.1633704 0.25807318 0.03130387 0.0087991785 -0.1065597 -0.13031472 0.4011369 1.199463 -0.5687231 -1.7116741 0.96005636 0.8399292 -0.7869523 -0.028747598 0.17547737 0.650216 -1.7159439 0.49337816 -0.52127093 -1.7798467 -0.6443841 -0.23462746 -0.56413394 1.8862605 -1.0710914 -0.14332151 -0.20485198 0.69144946 0.22857982
友 0.46457678 0.3677093 1.1094476 -0.555398 0.41045243 0.5569695 -0.07883899 0.12323974 -0.25059474 0.8472453 0.68853533 1.9422019 -0.2946402 0.6515139 0.02170947 -0.25662172 1.068105 -0.08633254 -1.445437 0.47051984 -0.63555014 0.8262346 0.005977609 -0.641751 -0.55492735 -0.26833078 1.0756509 1.1085602 0.5422925 -0.021948013 -1.2394705 1.0852355 1.1014322 -0.31361517 -0.2995975 0.57758117 1.0265656 -2.0088766 0.9313564 -0.34987646 -1.6913344 -1.1958936 -0.23965126 -0.58692986 1.5552502 -0.647471 -0.77827454 0.06856922 0.82011396 -0.31221056
成 0.80982316 0.17708 0.18600066 0.06770344 0.21743503 0.1537722 0.23766066 1.2408317 -0.11358164 0.1595728 0.18972997 1.3812573 -1.0719724 0.9417615 0.15234666 -0.07139526 0.48591194 -0.04106688 0.5061786 0.23298766 -0.2659154 0.5038932 0.19358352 0.35625872 -0.3532819 -0.5902433 -0.0927635 2.1575167 -0.5128048 0.6484784 -0.90446395 1.2753496 0.22138299 0.18394272 -0.41150248 0.25566262 1.3755826 -2.099239 0.45646876 -0.23079214 -1.8122531 -0.28378835 -0.08560817 -0.598879 1.9820123 -0.81419724 -0.3622864 -0.08535365 -0.427866 -0.05960856
远 0.137506 -0.026707537 1.108614 0.87463427 -0.54156363 1.8562149 -0.19077511 1.3725849 -0.7478753 0.8553452 0.8603141 0.7823798 -0.98312527 0.04424555 0.46326086 0.29307157 0.79903907 -0.18303908 -0.17123826 0.111272834 -1.0815697 0.038629 0.63863176 -0.3611342 -0.25865552 -1.5649623 -0.26243928 2.1603715 -0.9876104 0.7961983 -0.80412847 1.2417867 -0.09785238 -0.5201329 -1.1110398 -0.050765924 1.9926187 -2.2008698 0.36939603 -0.4124488 -1.0460929 -0.46473375 1.1185031 -0.8602094 1.8281115 0.2820828 -0.14687596 1.550407 -0.012884437 -0.30613652
上 0.07811873 -1.0089233 0.21064629 0.89299846 1.0462664 0.28678793 -0.7373385 1.2562295 -0.38936853 0.9796313 0.14448209 0.7465647 -0.23181106 0.26141033 0.15001866 1.2915466 1.0051455 -1.0980979 -0.3399622 0.54507804 -0.6514636 -0.18645564 0.45791465 0.25013334 -0.63976276 -0.15906453 -1.613644 2.2903068 0.14280978 1.2338486 -0.49791822 1.3530334 0.78536487 0.057157233 -0.8156037 -0.06407883 1.7729764 -2.3041427 0.87400836 -0.89467776 -0.45022777 -0.48223904 0.011513029 0.04494607 0.9386676 0.44751364 0.40701842 -0.047876008 0.057097774 0.24871068
立 -0.092685066 0.53829306 0.6665604 0.54806083 0.38575345 0.485676 -0.19064522 0.5307295 -0.067922845 0.10142816 0.8263528 -0.3918062 -1.1713016 0.9626121 -0.05923377 0.31576613 0.21067782 -0.626903 0.08612674 0.3500957 -0.9171093 0.33440122 -0.01374388 -0.0147213 -0.2830854 -0.7607142 0.3508977 1.1928266 -0.588066 0.030053377 -0.0672802 1.0727266 0.30918783 -0.5369416 0.19027439 -0.038371157 0.7525868 -1.5079807 -0.62707496 -0.033927467 -0.7093193 -0.6852888 0.25678518 0.026573123 1.5142709 -0.26892793 -0.26672664 0.3610279 -0.22499909 -0.03099654
今 0.23924212 -0.1596535 1.2030989 -0.32895267 -0.86246294 -0.18550123 -0.7004037 2.5239172 -0.4735913 0.42178893 0.17912486 0.35736874 -1.8326089 0.9839745 -1.0946891 0.6858442 0.26505542 -0.70664966 1.9185157 0.6975761 -0.4011904 1.508691 1.9424518 0.10809303 0.26601613 -2.2181017 -0.16935837 0.75564647 -0.788009 1.4309983 -0.80358416 0.6532155 -0.626956 -0.29426253 -1.229422 0.1688325 1.2493093 -2.208772 -0.4075116 -0.05990847 -0.8060949 -0.43729892 0.35143542 -0.39456016 0.81395185 0.5311479 -1.32909 0.6815268 -1.4411602 -0.8128183
张 0.6479231 -0.5801842 1.0021335 0.9153355 -0.6673449 0.2420823 -0.6077847 1.366621 -0.62213755 1.5857358 -0.39536032 0.86680245 -0.85717016 0.8163443 0.2058852 0.60984373 1.8714087 -1.5501288 1.6533083 -0.32317924 -0.651109 1.2148312 0.5930865 -0.34849 -0.47219926 -0.92596596 -0.4180472 0.46041018 -1.4243366 2.001108 -1.1592803 0.6117948 0.10357296 0.5810929 -0.5782496 -0.21316311 1.0844558 -1.3422363 0.56373155 -0.54846394 -0.9644625 0.08157503 0.058666404 0.20758365 0.88394314 -0.21825731 -1.7485038 0.3030856 -0.6307352 -0.58853775
中 0.14147255 -0.39854363 0.6547604 0.4593854 0.3685301 0.3785183 -0.68497443 0.69944906 -0.36921328 0.68750834 -0.382576 -0.12647605 -0.34048745 0.13425641 0.03299616 0.59864485 0.8610011 -1.284697 0.6671861 0.9656606 -0.64045084 0.07119497 0.1704948 -0.59134114 -0.2455181 -0.7616213 -0.70913583 0.2983756 -0.8861734 1.3981549 0.012825622 0.226491 -0.30325326 -0.4753545 -0.6680467 0.18392281 0.9522572 -1.2168574 0.09635075 -0.12612015 -0.11774999 0.13036533 0.20227908 0.24312015 0.26487496 0.30211583 -0.174506 0.012621634 -0.22594862 -0.26892263
季 -0.4272954 -0.13681501 1.3155965 0.56874865 0.029597273 1.347324 -0.08442 0.33956558 0.0041823033 1.6545373 0.35497507 -0.5798802 -0.6833929 0.7895508 -0.2276752 1.4739217 2.2445045 -0.592019 0.57072634 0.40494984 -0.3947817 0.8267566 0.37702525 -0.47911298 -0.6100505 -1.6447406 1.098555 0.7146829 -1.2265046 1.8699344 -1.1434067 0.45739967 0.2796801 -0.52122307 -1.853303 0.0973367 2.3870125 -1.1334041 -0.9163451 0.3637813 1.4734344 0.2199479 0.25713858 0.29528213 0.23414576 -0.060890812 -1.3183614 0.90233696 -0.15453671 -0.58290243
臣 0.9227279 -0.31901902 0.524848 0.75868255 -1.9921252 0.28661972 0.08785904 0.7960262 0.21643315 0.16050538 0.21131693 0.25411144 -1.7797612 0.8665466 0.3647003 1.085194 0.40109438 -0.07809041 0.22358342 -0.3483763 0.6710162 0.9269574 0.10689901 0.27317822 -0.49820283 -0.43639135 0.19806702 0.7980142 0.021421095 1.1246425 0.3345739 0.39383885 0.16130129 -0.40723974 -0.17830618 -0.3697341 1.5061419 -0.58183056 -0.42152002 -0.32443154 -1.1091472 -0.09794637 0.3853908 0.751261 0.5731947 0.1325096 -1.848441 0.35112 0.7462736 -0.3245593
贤 0.28595337 -0.91754943 0.0056267334 1.0221791 -0.32451695 0.054285347 -0.7588586 0.49964583 -0.17119075 1.1376085 0.10442681 -0.10161641 -0.5390208 0.023230724 -0.7001034 0.25261018 0.72508156 -1.0254141 0.8955273 -0.08753089 0.031078348 0.28842658 -0.2334932 -0.7003186 -0.3457095 -0.44595823 -0.5261735 0.7308464 -0.71053296 0.16361143 -0.03506754 -0.017573653 -0.1404886 0.43468827 0.118829735 0.01663953 0.8634652 -0.498162 -0.04397349 -0.039441172 -1.4227617 -0.13697383 0.64768916 -0.05048328 1.0793062 -0.25528708 -1.3178564 0.5705855 0.14043069 0.07064514
思 1.2531631 -0.6362598 0.057675872 1.7291062 -2.3181515 0.42380232 0.114578076 0.22884327 0.28921023 0.6016704 -0.15027037 0.2942854 -0.9070599 -0.13834575 -1.1818948 0.9772236 0.6724788 -0.7130803 0.7955159 -0.17611325 0.7432 0.9433885 -0.015388711 -0.23857895 -0.9904776 -0.5900386 -0.32992417 0.2515775 -0.117405415 0.94950783 0.21463157 -0.48911297 -0.14634825 -0.6817767 0.56816405 -0.1893164 0.80354893 -0.07931252 0.1362353 -0.49934477 -0.8945276 0.9161037 0.24203926 0.6554268 0.66996485 -0.10314173 -1.9167107 1.2810079 -0.053468052 -0.44314194
齐 0.25508818 0.48318583 0.19517958 1.3962016 -1.3291345 -0.2584008 -0.22356184 -0.31378222 0.3681705 0.5387662 -0.24393864 0.24041086 -1.0458103 -0.18668252 -0.20537381 0.6938426 0.13266109 0.18699774 0.94377005 -0.12655124 0.81082493 1.0783559 0.19557889 -0.3953574 -0.18615636 -0.17184734 0.2527359 0.25523648 0.34678298 0.02657928 0.24614345 -0.20035134 -0.12781493 -0.7650378 -0.18941242 0.10813915 0.6969236 0.13654827 0.14168009 0.013836233 -0.61172014 0.02093923 0.0759066 0.45839563 0.2969051 0.65403426 -0.32175255 0.33140418 0.29003522 -0.28326902
义 -0.05101297 0.096984915 0.350727 0.9213486 -0.9139893 0.42891213 -0.19186808 0.060386367 0.38516364 0.22547707 0.123478256 0.013332759 -1.4390045 0.4585858 -0.08724055 0.08449015 0.4824361 -0.72920036 0.37707147 -0.13125993 0.32625932 0.7947017 0.34597772 -0.22022313 0.015449403 -0.8552492 0.46660927 0.15712723 -0.138527 -0.48626724 0.008699611 -0.00207386 0.08952144 -0.26727635 0.72538036 -0.45302504 0.66417575 -0.10031608 -0.5259673 0.5109881 -0.44630012 0.22889835 -0.14895071 0.24549069 1.2755423 -0.07560823 -0.24328077 0.57343596 0.22609493 -0.55557346
正 -0.08166781 -0.6719036 0.01214926 1.597387 -2.279937 0.39337346 -0.68292326 0.6269547 0.45347184 1.2124788 -0.38489214 0.79630786 -1.3009343 0.61894906 -0.30041906 0.88358724 1.1065204 -1.010886 0.96203846 -0.33708462 0.34159538 0.818178 -0.023642896 -0.51485866 -0.87569904 -0.6616973 -0.2083129 0.106038734 -0.44064757 1.031207 0.49604204 0.028185857 -0.036019795 0.17050418 1.1136738 -0.18015233 0.6592834 0.2828273 -0.048314303 -0.18810973 -0.7457101 0.6796012 0.178924 0.68663824 1.4563867 -0.1770614 -2.1286263 -0.090601 0.79018235 -0.6584279
命 -0.1626272 0.0827253 0.33142412 1.5641657 -0.5524549 0.10968577 -0.39713022 0.121417806 0.03454345 1.01422 -0.74385124 0.5152914 -0.8397421 0.03731248 0.21815309 0.3965957 0.38311753 -0.22286546 0.5869121 0.24597242 0.84774697 0.008605073 0.12889594 -1.1498643 0.07578145 -0.97018975 -0.59128517 0.017378185 -0.04179225 0.34901568 -0.16261806 -0.25705817 -0.062419206 -0.68892604 0.080492824 0.0025713218 0.6963212 0.7210555 0.08167243 -0.0718184 0.017912824 0.52304524 -0.060828354 0.4028279 0.2263198 0.24988204 -0.051231023 0.35134402 0.119997405 -0.4035645
曾 0.517778 -0.26380056 -0.093541496 0.75789434 -1.3274893 -0.15182807 -0.5739499 0.98399246 0.64839965 0.8434823 -0.018406566 0.292351 -0.8791355 -0.1808589 -0.14780454 0.64909077 0.8686922 -0.84361213 0.6774705 -0.5544557 1.0253549 0.420809 -0.20192574 -0.12793072 -0.72482836 0.06558199 -0.48999944 -0.04917738 -0.3229666 0.63770103 0.40510163 -0.3063435 -0.31933165 -1.1471437 0.25452903 -0.30561367 0.6777769 0.94445145 0.17639725 -0.33328876 -1.1413487 0.18553644 -0.19839555 0.4381429 0.07297076 -0.19166379 0.26627907 0.5901506 0.6237095 -0.053884607
伯 0.55050784 0.15109432 -0.08949938 1.9493246 -1.0329642 0.13850853 -0.056721978 0.00034202178 0.22247468 -0.22246104 -0.04016326 0.7334731 -1.0405859 0.53208077 0.44046837 0.27638265 -0.24499765 0.48718825 -0.36231443 -0.19781065 1.787885 0.5345056 0.7664322 -0.049467538 -0.41870764 -0.19791606 -0.18052205 0.77873534 0.5649356 -0.10040224 -0.7545097 -0.5232826 -0.10646652 -0.5405396 0.747597 -0.42954877 1.1993481 0.9873467 -0.3222134 -0.31870663 -1.1847303 -0.24916446 -0.41233394 0.962415 0.66367805 0.7884989 -0.9886506 -0.11475579 0.933949 -0.4308477
门 0.7056498 0.50362015 -0.3537414 2.3093686 -1.4285841 -0.44929406 -0.30330884 -0.07015879 1.293734 0.5462463 0.1675722 1.1304243 -1.4352647 0.6211797 0.34689242 0.36427343 -0.51175946 0.19298829 -0.06389516 -0.04306889 2.073694 1.1887809 1.1931524 -1.1515459 -0.816401 0.33021995 -0.20974712 1.2793505 1.4941248 -0.49252447 -0.45881116 -0.50924426 -0.32157657 -0.6986867 1.7161471 -1.2905368 1.0898741 1.4998541 0.2540183 0.9934054 -1.3547217 -0.0873126 -0.34619144 0.49607784 0.81480616 1.6638727 0.7896278 -0.28683335 0.78046703 0.0059774513
敢 0.6319293 0.055143245 -0.29469875 2.0987453 -1.747857 1.2788078 -0.92239124 0.7823994 0.5840212 0.4444433 -0.6778289 0.6104582 -2.1002064 0.66885513 0.76812404 0.23478647 0.2013638 0.19635056 0.71033865 -0.57843786 2.0010078 1.0527318 1.0096395 -0.46914497 0.22389051 -0.29416287 -0.30842394 0.050159205 0.72329235 -0.29078025 -0.049611993 -0.3341995 -0.1556822 -0.29875737 0.8286576 -0.6524154 1.0399045 1.2369095 0.98103255 1.2648542 -1.068955 0.0016793091 -0.5552646 0.91500646 1.0318146 1.1649994 0.78266627 -0.07417254 0.6527458 -0.5721429
犹 0.6506742 0.060054544 0.029346786 0.70852655 -0.4220271 0.20947248 -0.12400152 0.2507611 0.5052928 0.9467684 0.35205492 0.79048294 -1.0444387 0.7573478 0.90659636 0.31547877 -0.17842904 -0.20549142 -0.3835759 -0.43143094 0.18961965 0.6964222 0.098201826 0.15303099 -0.056260917 0.2108709 -0.5505007 0.45790774 -0.0276342 -0.1463177 -0.38549447 0.16195191 0.2522145 0.1936394 1.1417166 -0.17821835 0.5199154 0.5783416 -0.09550011 0.18888211 -0.8849147 0.13438426 -0.53129596 0.4764514 1.2381295 -0.14765517 -0.120494105 -0.16003399 1.1621906 0.02723165
生 0.7171362 0.28967208 0.15064485 2.3548763 -0.46605983 0.85087657 -0.97063535 0.87720114 0.61978495 1.4036676 0.72015595 0.4488198 -1.5235071 0.86977506 0.92916465 0.34881377 0.9549263 0.2458512 0.644028 -0.40778512 1.569168 0.39798373 0.6432535 -1.3562746 0.0010526046 -0.5377136 -0.5606492 1.0430257 0.5879944 -0.45867848 0.73329395 -0.029567841 0.042507574 -1.3039138 0.60702336 -0.5017491 0.3584865 1.0114425 1.0705683 1.2330627 -1.16084 -0.39480075 -0.21717003 1.1325297 0.90234476 0.6000778 -0.00874303 -0.17330582 1.5122379 -0.080105364
日 -0.45448133 1.1442355 -0.204895 1.8385804 -0.26476654 2.0585 -0.39345068 2.2032592 0.84876174 0.13519101 0.36697352 0.7908123 -1.548253 0.78548783 1.4374946 -0.22198027 1.1596673 -0.1857326 0.08225031 -0.36861837 0.7995688 0.6510453 0.9836194 -0.22979878 0.1927443 -0.49681726 0.16434866 0.67925245 0.85967344 0.755568 1.2609699 0.023940792 0.18922178 0.24578919 -0.66614175 -0.69008183 0.06907143 0.3974374 0.26222342 2.0490143 0.1517353 -0.6446987 -0.28676847 1.0638269 0.20815253 1.5810357 0.084709875 -0.64475733 0.6205119 -0.65571535
敬 1.0739453 -0.36227906 0.10748032 1.1664528 -0.10178473 0.26510847 -0.19099778 0.7262343 0.96687514 1.2302608 0.852604 0.471364 -1.7598983 0.7328933 1.5059496 0.94246906 0.21424057 0.6196456 -0.14981717 -0.8324331 0.82091117 0.03354672 0.18391412 0.057906948 -0.2503731 0.21575241 -0.81073487 1.5522885 0.24278621 -0.59815836 0.07229472 -0.17662221 0.11478522 0.7764151 0.49941626 -0.8285199 0.29295725 0.91039294 0.6794142 0.9118423 -1.5201463 0.97132206 -0.061176173 1.7854534 1.4405134 0.47833988 -0.29883304 -0.001980625 0.86562234 -0.0147369625
难 1.459597 0.8250958 1.2776053 1.1840425 -0.6096565 0.34070057 -0.8587655 0.46389538 0.82753104 0.7447655 1.4212346 0.39454648 -0.8183715 0.82486224 0.3905596 1.013415 0.3267356 1.3615649 1.1035273 -0.63711375 1.2368335 -0.6353855 1.4018227 -0.4091848 -0.71968883 -0.52643836 -0.8133367 1.4302194 -1.037357 -0.70448023 -0.40780655 -0.6726398 0.06529495 -0.08189693 -0.6452122 -1.7697475 -0.07141192 0.27908266 1.4554142 0.55822134 -0.7857388 0.5022741 -0.48964226 0.9599803 0.94604886 1.302229 0.6669972 -0.5187672 2.1772292 -0.09482488
直 1.4736799 0.25719303 -0.10574602 1.5278691 -0.74722326 -0.20786986 -0.8426319 0.7589803 0.35989887 1.3783475 0.54472715 0.802765 -0.37383482 0.85229826 0.974699 0.7511135 0.9667608 0.56663966 0.22333355 -1.5352689 0.49674907 0.40556398 0.6743977 -0.5760412 -0.6832085 0.23771633 -0.64913535 1.775311 -0.10647571 -1.2680742 -0.14978348 -0.7864559 -0.5301412 1.0037943 -0.789762 -1.209321 0.21407124 0.63749737 1.0033526 1.8328663 -0.5165892 0.40514052 -0.15176123 2.0452754 1.1751802 1.0386933 0.15903834 -0.91478944 1.1175977 -0.020105252
丧 1.2078211 0.26357746 0.368366 0.7826163 0.32001922 -0.056638278 -0.28536108 0.25589433 0.23530068 0.15838209 0.5571927 -0.039271124 -0.028511364 0.8172863 0.53144085 -0.025914256 0.24955735 0.30308995 -0.26711473 -1.361213 -0.37393692 -0.3033258 2.010635 -0.82827145 0.000631769 -0.3052616 -0.39358312 1.693189 0.12946363 -1.1998898 -0.5693791 0.022817072 0.068535335 1.4991018 0.4458586 -0.12846772 0.21508954 0.886827 0.77645165 1.3356439 -1.0326172 -0.40659162 -0.6375798 0.99919164 0.41630194 0.47208065 0.84515667 -0.32355267 0.52249575 0.2251395
说 2.2150955 0.084938414 1.0416645 0.8724907 0.6381504 1.4698606 -0.79210156 -0.3441074 0.20286253 0.58021855 -0.10786747 0.23923044 -0.37990513 1.1433866 1.5086246 0.20636702 0.64618415 0.9434876 0.6280622 -0.6683614 0.5719616 -0.5666387 1.1265548 -0.017769773 0.04410766 -0.47444728 -0.63820904 1.3868226 -0.9119532 -1.9875019 -0.4890108 0.37770322 0.44547382 1.705039 1.1966634 -0.3890221 -0.17347746 0.51768804 0.30894396 0.66197085 -1.37061 0.16346481 -0.6598539 0.6294845 1.2399893 0.78342265 -1.0841442 -0.27154714 1.5966285 -0.12922402
自 1.5771681 -0.28880477 0.5960366 0.80940235 1.3959376 0.5214946 -0.20488474 0.005745342 0.71815443 1.151125 0.8639224 1.3276812 -0.25142446 0.8049663 1.3936498 -0.11454187 2.0709732 -0.19734405 1.0511836 -1.3435823 -0.7868932 0.5049111 0.32568362 0.46545583 -0.47943807 -0.004198343 -0.11351306 1.4801524 -0.06913465 -0.57120407 0.98499084 1.5289094 0.7474998 1.6721566 -0.1436182 0.20401576 0.029384578 0.6672762 0.5336062 0.23798046 -0.59999615 -0.7713216 -0.4561277 0.2787499 0.7746697 0.08657801 0.28650478 -0.40812656 0.24767388 0.4480584
用 1.1247873 -0.12128751 0.4821236 1.3691257 0.7003298 0.4610495 -0.8257762 0.58658856 0.40680453 1.1550343 1.3951061 0.13028176 -0.6944733 0.26235974 1.9232941 0.5710153 -0.101579025 -0.24279325 -0.33515725 -0.8367224 -0.06289061 0.33205515 0.27442458 0.33093023 -0.6754479 0.017383188 -0.50208795 1.2565217 -0.4008538 -0.71890795 0.545908 0.87093705 0.78581786 1.2607571 -0.02051687 -0.499631 -0.22576267 0.2949675 1.0497516 2.3463168 -0.7506225 1.2245903 -0.20626475 1.2762923 1.5297259 1.29884 0.074449174 0.3113252 1.2769889 -0.41180092
周 -0.7183491 -0.48423854 -0.6141362 1.171077 0.09999847 0.76797736 -0.52124095 0.56087255 0.8452532 0.7617763 0.6744973 -0.008379818 -0.8915367 0.06715496 0.9303553 1.1152636 1.0745986 -0.015244954 -0.84162587 -0.94761395 -1.0023779 0.6072342 -0.15638703 -0.1402196 -0.61396563 0.40055737 -0.27638698 0.8383687 0.2548516 -0.79687953 -0.14294608 1.2660323 0.3435825 1.259189 0.0010993916 0.19221829 -0.4407617 -0.5299137 0.42039832 0.74744326 1.0739104 1.3220292 0.21581285 1.5285394 0.81166464 -0.18137905 0.8294645 1.5557675 0.7076957 -0.10875259
颜 -0.023226226 -0.3809982 0.6973663 1.7122184 0.019672832 -0.2827859 -1.0634738 1.3823268 1.023168 0.99044424 1.3134056 -0.94303167 -1.1778032 -0.11075496 -0.41914096 0.9755535 1.2269368 0.83092684 -0.8882316 -2.2253673 -0.13178988 -0.12547866 0.0058650365 0.2973627 -0.7379833 0.14678124 -0.18331926 1.059279 1.7911272 -0.6555067 0.70586467 0.8451767 0.22945966 2.374991 0.070790835 -0.30809376 -0.2898343 -0.9371649 2.328414 1.0368531 0.35625845 1.2773407 0.40032265 0.6725368 1.1164081 -0.4322867 0.7886576 1.6457325 0.1869946 -0.34349108
年 0.34258157 -0.4551166 -0.53201425 0.65293056 0.33019328 0.20426406 -0.04881421 -0.03905697 0.32672495 -0.07409743 -0.0680387 0.27754483 -0.28493637 0.06979628 -0.06800137 -0.08777425 0.48352623 -0.50801706 -0.59079695 -1.0920342 -0.83585966 -0.09538559 1.3007495 -0.30619633 -0.14500156 -0.48219836 0.115658514 1.1221775 -0.28304 -0.4664257 -0.48014387 0.26191202 0.14616166 1.2846433 -0.5926815 0.004766309 0.13437138 -1.0390407 0.38751325 0.5557032 -0.1352485 0.41817385 -0.16766183 0.96334 0.5292095 0.3537838 1.1879206 -1.1276107 -0.4505353 -0.13964784
告 -0.21096775 0.50094515 0.56882864 1.1379389 -1.2570739 0.27077982 0.14205581 -0.021521598 0.29768953 -0.55531484 0.18620037 0.060473915 0.8456107 -0.24689247 -0.092290014 0.21715344 0.6215103 -0.21223542 -1.3386314 -0.46774513 0.35215917 -0.7961821 -0.3117377 0.057053354 -0.024132013 0.03039954 -0.74109125 0.5407715 -0.18858485 0.03877243 -0.14995463 0.3851561 0.6520443 1.2074667 -0.018871855 -0.40093553 -0.18402305 -1.0211964 0.6415185 -0.03022063 -0.49474812 0.57841265 0.32226896 1.1545773 0.95309484 0.073983185 1.5428582 -0.033530615 -0.4139471 -0.10824538
十 -0.29567444 -1.3790126 0.8807903 0.9191301 -0.6410589 0.12460814 -0.30981028 0.88786083 1.0573215 -0.29841724 0.40113607 0.47572216 -0.043529782 0.34352154 0.027452083 0.6274093 1.3714875 0.07107674 -1.3297606 -1.6941239 -1.3996476 -0.6392572 0.68757665 -0.6004659 0.24094605 -0.07747285 -0.60585546 1.4755629 0.64994687 -0.7833443 0.08095709 0.73239356 0.371638 1.367948 -0.08980991 -0.09991954 -0.08169829 -0.3771751 1.1814483 0.21123378 -0.8128718 0.35755292 0.068934 0.48753807 0.37881663 -0.44507653 1.5948801 -0.2061576 -0.04545163 -6.443128e-05
怨 0.7339238 -0.3890221 -0.22216679 0.6740741 0.16497453 0.22225423 -0.091453575 0.13653402 0.8651112 -0.5007703 0.87497085 0.8408174 0.22579233 0.5259632 0.4050745 -0.666015 0.86454546 -0.38823313 -1.2169793 -1.4588244 -0.92968214 0.12853661 1.0588641 -0.074653104 0.58391404 -0.46946022 -0.6446028 2.301071 0.20632936 -0.7152732 0.76141363 1.8391272 0.1617913 1.5798106 -0.45650214 0.30706948 0.45487824 0.63695294 0.45835137 -0.36968264 -0.068029046 -0.20502608 -0.39618292 0.98361397 1.0734384 -0.045250867 1.6177298 -0.4428454 0.6575426 -0.24715616
达 -0.22875184 -2.3948314 -0.8856628 1.1218717 -0.12363598 -0.58192 -0.3599072 1.70416 0.6628498 0.069691814 1.384639 0.39186102 -0.009491043 0.5880402 -0.006643105 0.27552816 1.1871803 0.10754296 -1.5587963 -1.348223 -0.111837305 0.11666422 0.04586037 0.13442184 -0.08055838 -0.07141433 -0.12626152 1.1717402 1.4240627 -1.0925168 0.105215736 1.0179685 0.27647477 0.21698608 0.41263106 0.5257657 -0.25880596 0.14622046 -1.1667936 0.8939411 -1.9563855 -0.14659153 0.010028582 0.5231382 0.28910482 -0.5994803 0.5959711 2.1732666 0.03878469 -0.52639955
孝 0.33471012 -0.70277905 -0.074921235 1.5567895 -0.46863136 -0.05916894 0.22926584 0.6440566 1.0260009 0.2909636 1.1125944 0.8427987 -0.54694295 0.49893078 0.82564837 0.11361094 0.77376366 -0.17454861 -1.7518327 -1.2382959 -1.023283 -0.54740685 0.57136714 0.3194209 0.32669136 -0.4898266 -0.49368376 1.1421994 0.112908654 -0.4616226 0.28622076 1.3936749 0.6941586 0.86347175 0.4851045 0.58372974 0.05422999 -0.87354213 -1.2401348 -0.46865863 -1.3357886 -0.09875089 0.36372322 0.55754274 1.041978 -0.7866917 1.5462382 0.46191874 -0.36857536 0.005100312
弟 0.058399387 -1.88462 -0.5426228 0.7508239 -0.32009655 -0.70192724 -0.18030682 -0.32197416 1.1794555 0.11560664 -0.19127284 0.22982895 0.35840312 -0.44652963 0.6327886 -0.23638867 1.2773788 -1.2137916 -2.0315568 -3.5718424 -0.8602007 -0.1861469 1.402382 -0.14322472 -0.2499773 0.21454094 -0.18614542 1.1982092 1.2536954 -0.48733127 -0.26217914 1.1643753 1.0029579 0.20455503 -0.4533581 -0.16558906 0.04855324 0.023989385 0.6278965 0.45211032 -1.7530951 0.054181386 0.2142287 0.64051634 0.1063705 -0.8203155 1.3820425 0.45792225 -1.5168741 -0.09188055
至 0.2398475 -1.7960075 0.3690597 2.313957 -1.4277917 0.8680232 0.38547075 1.5203025 1.3190018 -0.5143153 -0.35449588 0.18783572 0.48283598 1.051639 0.6193135 -0.6532937 1.8696265 -2.1832614 -2.052817 -2.3168883 -0.82314456 -1.1293072 0.45002508 0.25146574 -0.33293402 -0.14488144 -0.21927683 0.34933004 1.074557 -0.9912315 0.5655218 0.8986718 0.39539412 0.9678986 0.111106776 0.0803497 -0.2453144 -0.86621904 0.15680759 -0.012791773 -1.8254492 0.70023125 0.70072037 0.87306595 0.45615128 0.5177383 1.6476573 0.24561828 -0.34186602 -0.098728746
先 0.09379285 -1.3172386 -0.42783573 2.483956 -1.8005626 0.18901981 0.7288047 1.4525027 0.9651864 -0.8198876 -0.0072630346 0.2565799 0.54722136 0.15291299 0.2522056 0.231091 0.21445504 -1.6954365 -0.44448888 -1.5770775 -0.112041585 -0.37119943 1.1242017 -0.68910086 -0.134896 -0.6443236 0.32431352 -0.38410288 2.166363 -0.27232113 -0.016078565 1.2066272 0.09549704 0.5139828 0.13934238 -0.39373514 0.014755027 -1.5547304 -1.2671118 -0.5078259 -1.3824337 -0.35683256 -0.10004704 0.63869506 0.46616048 -0.6330534 1.8989068 0.29964492 -1.7967442 -0.17857155
师 -0.4562928 -1.0148286 0.4060595 2.002968 -0.6884583 0.2944582 0.7563062 0.79171824 0.5298179 -0.10182639 0.79641634 2.0451312 0.62214655 -0.5450681 0.65458965 -0.09989902 2.1556585 -0.7025694 -2.1038866 -1.2616938 -0.29072303 -1.3231455 0.21377088 -0.7128437 0.36940378 -0.5114049 0.64785326 -0.6076802 1.1677728 0.3071493 0.4030329 0.47258255 0.07810553 0.5219363 -0.28523108 -0.28317854 0.43064317 -0.13728113 -2.817214 0.20399708 -1.3328161 0.07733176 0.7938672 -0.37395877 0.03928137 -0.4621943 0.35060668 2.0230777 -0.6567799 -0.51140535
女 0.042115238 -2.374385 0.34491986 1.4712763 -0.20049936 0.6750591 0.5770712 0.20686135 0.4747929 -0.644393 0.41705322 1.9666162 0.21530354 0.14419994 0.17450078 -0.32516807 1.7978317 -0.906587 -2.3907747 -1.4993628 -0.79162955 -0.44334596 1.4843165 -0.2595222 0.13168523 -0.6792696 0.013341499 0.85417163 0.9107957 0.55589795 -0.28663716 0.95308137 0.27234545 1.3849782 0.26904547 -0.43394658 0.2900615 -0.37722236 -1.589949 0.7011357 -2.5713286 -0.3143507 0.5977363 0.19779116 -0.085848935 -0.9074233 1.2698278 1.2493907 0.6095075 -0.40891466
多 -0.04545118 -0.7102884 0.6822154 0.8126291 -0.030936282 0.7079061 0.36654958 0.09265374 0.62528694 -0.2307753 1.0438936 1.1591598 -0.215393 0.43049154 0.6169123 0.2659254 1.3726438 -0.2820388 -1.8993313 -0.66002935 -0.06698164 -0.36994934 0.5132191 -0.537586 0.5331826 -0.80150044 0.8570262 0.4112821 1.4193277 -0.015282518 -0.43370965 0.45014697 0.102693535 -0.2673137 0.023455016 -0.546604 0.26292422 0.07837228 -2.2451363 0.32429004 -1.6652057 -0.065927565 0.41802758 -0.21343158 -0.011415328 -0.33623624 0.21071875 0.7237261 0.005921674 -0.42099136
忠 0.8465361 -1.5709181 0.52676606 0.67072093 0.013056846 0.33540902 0.64567393 -0.23669562 0.55171525 0.39652964 1.5100918 1.0422788 -0.44457415 0.5638957 0.4122971 -0.09493881 2.333171 0.19613953 -1.9988531 -0.5077564 0.09509589 -0.98580444 0.48991737 -1.2566831 0.28849095 -0.632814 0.41642532 0.44327867 0.97949386 0.62277466 -1.3643984 0.49440706 0.33701253 0.13030982 -0.33141103 -0.9695245 0.5662589 0.99994504 -2.5226295 0.6340131 -2.5441196 0.1842171 0.117754295 -0.18665159 0.20989978 -0.24578501 0.5723589 1.0621334 0.015317378 -0.45413414
四 -0.46400592 -2.2329063 1.0208812 1.7773355 1.0247672 1.4458078 0.92596626 -0.850377 0.79851496 0.53744394 -0.422871 0.9148853 -0.18293516 -0.34123755 -0.3008372 0.04624686 2.9936175 -0.40315634 -0.7751485 -1.7847944 -0.9668629 -0.45325497 1.251839 -0.49795607 -0.007451055 -0.26333526 1.1465241 -0.5182868 1.2807196 0.95624346 -0.049874946 0.62302566 1.4214183 0.4926419 0.33108306 -0.7419196 0.37298143 0.32279816 -2.7135966 1.4761344 -1.9668628 -0.069860674 0.008543629 0.4189107 -0.44986558 -0.4438294 -0.2505762 1.2753774 0.8453664 0.071236126
疾 0.1399282 -2.626942 1.5199404 0.38070768 -0.07441677 1.0719968 0.53268826 0.3525947 1.0613198 0.12527038 0.9885049 0.3266306 -0.17077716 0.05008081 0.47256488 0.5178119 1.1420976 -0.7230569 -0.8639196 -0.31629422 0.421727 -0.8323653 1.0731198 -0.85511875 -0.042633 -0.50738096 1.2447406 0.45366105 0.4026951 0.6803379 -0.86661696 0.25971702 0.7607057 -0.597355 0.5715777 -0.767481 0.14407068 -0.01465135 -1.5704749 1.4670463 -1.5316632 -0.53018063 -0.37646875 -0.046058346 -0.4491616 -0.6907336 1.1711546 1.5060759 0.5270703 0.2219416
服 0.44960836 -0.092225775 1.3407705 1.0064 -0.13658828 1.0283478 0.6035492 -0.1412626 0.7053413 0.2604632 0.1708005 0.22700267 -0.433185 -0.21139698 0.2692055 0.02371266 0.43935123 -0.052761238 0.22568174 -0.43854904 -0.83635944 -0.18753833 0.74028087 -0.6865695 -0.31901035 -0.16508016 1.2196343 -0.923413 1.0432758 -0.3028438 -0.9041379 0.2982094 0.61250913 -0.07468774 0.49830183 -0.59247655 0.45488808 0.18296711 -1.6810488 -0.24767034 -0.439409 -0.0069980696 -0.0033732075 -0.15873496 -0.25180012 -0.16715765 0.2399488 0.9301391 0.45521006 0.09321492
氏 -0.35346833 -2.3317032 2.1108456 0.7426769 0.82299757 0.82070565 0.32565096 0.66915166 1.0570986 0.024776617 -0.09231388 2.4152822 -1.1494936 0.22892243 0.51980346 0.42216668 1.5528015 0.95326275 -0.11139638 -0.60533583 0.20723073 -0.8838616 0.7518228 -0.91927534 -0.4863467 -0.4366516 1.259391 -0.18316828 -0.4780289 1.6259166 -2.1196256 0.32872918 0.553723 -0.20004362 1.151887 -0.058248185 0.65492225 -0.036493614 -1.886497 0.72478074 -1.0681902 0.68124634 -0.70867586 0.18326469 -0.17920634 0.46878344 -0.44534934 0.6521554 1.8056767 -0.5773559
冉 -0.37204653 -1.510305 1.8497256 -0.053947933 1.6715715 1.0151781 0.72454494 0.5377838 1.0560012 0.5983194 -0.5409338 1.0184243 -1.2555768 0.15762027 0.79901254 0.6036499 2.1986403 0.24457148 -0.708945 -0.68555844 -1.2179973 -0.55411434 1.11029 -0.5738524 -0.2661002 -0.4066861 1.6322138 0.05676632 0.8835366 0.8883044 -1.4037263 0.4027295 0.96299607 -0.28203276 1.0131865 -0.19242252 0.5591972 0.64528304 -2.5291517 0.79712266 -1.7614527 -0.06619703 -0.09440112 0.13661069 -0.3490692 -0.3310554 -0.88176405 1.0875863 1.2638837 -0.6499635
将 -0.5909558 -1.074015 1.4424049 0.80668163 0.01950365 0.69630635 0.052662145 -0.11828102 0.7982724 0.40021265 0.55250484 1.4500816 -0.9479208 -0.59546876 0.15368634 0.03092476 0.9130784 0.24162886 -0.5572806 0.15134321 -0.75295234 -0.38900393 0.5709226 -0.6598597 -0.17823489 -0.17334464 0.050150916 0.0040556174 0.20851019 0.7994567 -1.5574094 0.55595404 0.1304645 -0.3319855 0.27178812 -0.56657624 0.41875964 0.03630176 -1.7709829 0.26883784 0.13384894 0.31519347 -0.028209 0.32017878 -0.065549746 -0.34813085 0.52483827 0.28623348 0.58407897 -0.40328935
士 0.23788728 -0.72445333 0.72779405 -0.004513342 0.40469325 0.78179294 0.15217574 -0.7595416 0.48672777 0.3461758 0.6457476 0.4330534 -0.6630273 -0.48518628 0.0592417 0.23040974 0.26719707 0.11394175 -0.62581134 -0.07300893 -0.52969944 0.12013053 0.6094891 -0.107612275 0.07746173 -0.036657322 -0.19633788 0.17658626 0.40458885 0.65802425 -1.5928932 -0.004608053 0.67661816 -0.61636984 0.30055207 -0.7846904 0.600707 0.19549829 -0.9927149 0.5558017 -0.8776934 -0.055162445 -0.25553158 -0.012308156 -0.110960364 -0.5218925 0.2403792 0.027478077 1.249482 0.04858333
丘 -0.9737263 -1.0391954 1.0289055 -0.8188187 1.2230979 1.6372396 0.115824774 -0.94888157 1.2067715 0.16891584 -0.29830575 0.7170488 -2.6527307 -1.017611 0.79687715 0.40979028 1.1165149 -0.21193402 -0.32543665 0.2679105 -0.8869886 -0.42618996 1.818742 0.3826532 -1.999557 0.28957066 -0.56332004 0.4224919 0.07164682 2.2422829 -1.737382 0.090506464 0.7716832 -0.5181253 0.42009354 0.540348 0.49602845 -0.9172325 -1.5980103 1.4402846 -0.4632644 -0.18368128 0.20840023 0.93397677 -0.639126 -0.736481 -0.17907698 -0.49041808 1.6039238 -0.60153013
身 0.55518025 0.17905964 0.67112976 0.5401738 0.701341 0.8085599 0.8349617 -0.7358088 1.1865742 0.100332424 0.21474761 0.6893921 -1.5905107 -0.6426408 0.7822889 0.14053655 0.43516913 -0.34054017 -0.31786537 -0.15568171 -0.52707154 -1.1386905 1.3416531 -0.59607655 -0.3793877 0.013943626 0.20023097 0.093658775 0.49210528 1.4238875 -0.54015917 0.59589756 0.9791943 -0.62872106 0.75569385 -0.3263606 0.9646067 -0.50803363 -2.409398 -0.31457567 -0.4484299 0.44245988 -0.13251445 0.5133144 -0.50812507 0.1120553 -0.27659404 0.55055207 2.3605378 -0.30662683
入 0.77968436 -0.55242515 0.5980653 0.15724517 0.48394656 0.47147632 0.85331136 -0.7564335 1.545812 -0.037503053 -0.2324187 1.0101289 -2.285155 -0.9604027 0.73425436 0.14795427 0.2828796 -0.039860528 0.6331587 -0.06404656 -0.7189215 -0.44260383 1.7319602 -0.51987964 -2.03509 0.0337667 -0.38371554 0.49044695 0.91786486 2.092086 -0.764031 0.5852245 1.2100863 -0.4316108 0.78411853 -0.28725576 0.51442134 -0.88296634 -1.722117 -0.25701144 -0.33372217 0.4762741 -0.24140935 0.5670921 -0.6730605 -0.043300427 -0.4101981 -0.6890949 2.2732794 -0.63596535
志 -0.37641472 0.33849022 0.2706322 1.1632293 0.13942958 0.20281547 0.9128775 0.5277398 1.2869956 0.32108563 -0.7956066 0.6763074 -1.481931 -0.49665132 0.35759214 0.30657518 -0.33143184 -0.26055974 0.24726413 -0.45883772 -1.2541678 -0.06446503 1.7138939 -0.3755583 -2.078576 0.4257231 0.79028445 -0.67257625 0.86980045 0.5833771 -1.3963557 0.8609223 1.243312 0.36196786 1.2520587 -0.21928282 0.55244666 0.02869742 -0.6826363 -1.204076 1.071111 0.63417 0.14678565 0.8579192 0.36702406 -0.039081823 -0.30501705 -1.055135 2.0446413 -0.903711
耻 -0.123949945 -0.35201937 0.36876774 0.09194544 1.0316963 0.8998201 0.7194231 0.5378612 0.9037806 0.48435307 -0.8308284 1.3728509 -2.5817358 -1.3344265 0.34511334 0.66407245 -0.055447735 -0.25702798 0.07457989 0.59771395 -1.2080957 0.100318894 -0.31722796 -0.28970435 -1.1742681 -0.037272304 0.92431766 0.42190212 -0.60049856 1.4672173 -1.6140599 0.6280421 0.42170694 0.0067342645 1.0591471 -0.25781167 0.87213826 -1.4239799 -0.6957979 -1.1679643 0.29788202 1.0669744 -0.30279547 0.43969738 0.12336444 -1.2058258 -0.52926195 -0.89949375 1.2167104 -0.85504544
失 -0.36973137 -0.7248955 0.27913252 0.05450627 0.23065591 0.27620807 0.44963047 -0.05995811 1.1080817 -0.016276103 -0.061471153 -0.34718674 -1.8242356 0.019700661 0.39545098 0.41957507 -0.0025392936 -0.15804194 -0.29060364 -0.17908207 -0.99001735 -0.10480011 0.74863976 -0.75837857 -1.5258596 -0.076528214 -0.41845205 -0.09102312 1.5036899 0.57504886 -1.2022275 0.5925264 0.61550933 -0.089997 0.87731504 0.17260133 0.5503028 -0.7349211 -0.11838257 0.31201357 0.37092063 0.4411776 0.035762805 0.598551 0.90981716 -0.7363581 -0.8717643 -1.1751546 1.323667 -0.013301081
安 -0.20737454 -1.8654234 0.099549964 1.2093086 0.2547613 0.7401907 1.1209654 -0.118330956 0.55301607 -0.19354628 -1.0536176 -0.41230896 -0.8400351 -0.31813443 -0.11546992 0.46518058 0.09048155 -0.22101651 -0.41321158 -0.113113746 -0.69441503 -0.30834302 0.8438443 -0.26538897 -2.240048 0.028406342 -0.041161723 0.24425066 0.9853722 0.84980917 -2.1053457 0.19525373 0.8292377 -0.42784688 1.1852685 0.49742052 -0.06634712 -0.15310906 -0.25605202 -0.14944777 0.7243808 0.15723602 0.08544207 0.4671204 0.6913867 -0.022219751 -1.2703251 -2.0745077 1.4843054 -0.49208903
富 0.89398664 -0.26092613 0.28259817 0.06336256 0.51803523 0.5766005 0.9161172 0.19126655 2.0033138 0.18575096 -0.32940528 0.6352506 -1.3372066 -0.924834 0.21786834 0.41759476 -0.5092337 -0.44655174 0.7656842 0.12360595 -0.8886404 0.37568343 1.1081927 -0.6611016 -2.030393 0.10397701 0.009006945 0.26818293 1.6324505 1.3846226 -1.418512 0.7173687 0.3438192 -0.40231967 0.88772845 -0.060316857 1.2302983 -0.872631 0.0440458 -0.09777165 0.5404703 0.7069702 -0.0382726 1.3277861 0.452758 -0.7898347 -0.061304614 -0.42197153 1.3740813 -1.0594642
赐 -0.26040944 0.6726844 -0.54602665 0.84255177 0.6902733 0.46882686 0.54364055 -0.6056886 0.53882205 0.111436896 -0.4148377 0.8814708 -1.0714383 -0.76671034 0.71862394 0.68482214 -0.99889916 -0.66711444 -0.22828746 0.46684897 -0.8865993 0.5610434 1.4814688 -0.33377725 -0.9017178 0.14187358 0.7924674 0.10265491 1.2561879 0.3968928 -2.634183 0.9947408 0.022088883 0.48197877 0.14555667 -0.31925526 0.6980089 -0.6310676 -0.14491251 -1.0479745 -0.51241386 0.9308904 0.18306492 0.39249435 0.55854106 -1.0501374 0.8076622 -2.0331254 1.7800326 -0.99915755
患 0.40069392 -0.38819125 -0.38353312 -0.28454506 0.81377107 1.8362004 0.6274815 0.7020179 0.27021527 0.47999147 -0.7597064 1.4825519 -1.7022685 -0.40945596 -0.42552683 0.8312979 -0.5381834 -1.4189738 -0.41398934 1.1082906 -1.8819989 1.1627816 0.7801498 -0.2671348 -1.01265 -0.1710113 0.6128053 0.17520072 0.31002742 0.082264744 -2.9469821 0.6476991 0.56338805 0.9306686 1.5117598 -1.4892012 0.57143486 -0.9110365 0.7722744 0.2312973 -0.53489023 1.3389943 0.5362294 0.33454388 0.5647522 -0.21602304 -0.07607546 -1.2155123 1.7841109 -1.117946
百 0.090618975 0.082292184 -0.9121668 0.48041275 0.058354463 0.79808444 0.71280706 -0.3501912 0.0066323765 -0.14248538 0.15864164 1.4363072 -0.59125584 -0.3615363 1.019416 1.0494106 -0.4257296 -0.4541432 -0.4783781 0.076588206 -0.7107694 0.31552473 0.6388925 0.035475828 -0.7752462 -0.0415049 1.4394226 0.029040536 -0.029318264 0.21499218 -0.8528769 0.27606738 0.045093913 1.2563663 0.47319108 -0.28516826 0.4337306 0.36316738 -0.029983932 0.009492687 -0.31668484 0.66004395 -0.012109654 0.8512747 0.47452167 0.35743636 0.18731247 -0.7141457 1.5969901 -0.041310832
回 0.34506825 -0.28228354 -0.13263816 1.4374471 0.31611088 1.7519969 1.1386008 -0.18756838 0.3313067 -0.5571597 -0.08028363 1.0073625 -0.5193075 -0.225047 0.2500392 0.69690055 -0.80106276 -0.06668292 -0.32652724 -0.13687347 -0.687278 0.035131354 0.88067615 -0.6278302 -0.6089409 -0.26404124 0.36999163 0.41923025 1.0312557 0.8353298 -1.828513 0.52195835 -0.056096733 0.43684974 0.20288908 -0.537108 0.14738701 -0.02277316 0.080158405 -0.70524764 0.1620124 1.7684894 -0.31270325 0.39741465 0.8951961 -0.13004267 0.23030636 -1.6160133 1.1800386 -0.36299562
宰 1.5211128 0.09119274 -0.6015131 1.3681525 -0.50161135 2.2181418 1.1734395 0.18418185 0.17017902 0.048900913 0.30015928 0.86694485 -0.8492692 -1.0780655 -0.0090900175 0.70010954 -1.2380809 -0.027044902 0.010512177 -0.68829465 -1.5734472 0.9353677 0.8991201 -1.2555555 -2.0528128 -0.4703323 1.1051668 0.2995651 1.3472265 0.43890715 -1.6279167 1.1341255 -0.4010355 1.2924336 0.6018484 -0.38435534 -0.22912554 0.98765385 1.1020304 -1.4366442 -0.5430732 2.3871303 0.28959763 -0.32472947 1.720051 -0.39915866 0.3103577 -2.294432 1.3770813 -1.3615524
朝 0.57337165 1.4740704 -1.0643455 0.29866493 0.17090468 1.3082205 0.9661953 -0.5239665 -0.23069924 0.3632786 0.19375679 0.68535113 -1.448057 -0.6123932 -0.13702513 0.4061502 -1.5145919 -0.07445333 0.040526994 0.059919402 -1.5676638 0.7628058 0.6848686 -0.78849953 -0.99890834 -0.37745506 1.8939139 0.4221725 0.4817022 0.45341262 -1.9494044 0.62643677 0.2826369 0.2522146 -0.05468499 -0.5192826 0.3478482 0.6253194 -0.004421908 -0.5404933 0.13134825 1.4941622 0.1517858 -0.029028479 1.0154535 -1.0400784 -0.33738098 -1.794395 1.1698594 -0.94955695
莫 -0.3909879 -0.098322414 -0.9679588 1.5246198 0.45645186 0.8170447 1.0491346 -0.39903 -0.5956934 -0.034106087 0.6145362 0.2226921 -0.4818088 0.05460734 -0.11257313 0.9594985 -0.7710061 -0.6957477 -0.47858527 -0.3363645 -1.0300924 0.34365907 0.38854066 0.26664585 -0.9612756 -0.45441133 1.1448869 0.58636135 -0.08349399 0.26783463 -0.15012953 0.4967168 -0.039780524 1.2732353 -0.015649812 -0.9678137 0.16596776 0.26591885 -0.03386307 0.5700326 -0.343343 0.7584575 0.46156698 0.14367391 0.6803618 -0.2698676 0.30884907 -0.6888952 1.386502 -0.21470663
若 -0.118851095 0.89180523 -1.3452771 0.077670276 0.026880402 0.80262625 0.28910962 0.6940348 0.20600311 0.3991477 -0.8293207 -0.32352847 0.10848203 0.073200926 0.43255228 0.42863077 0.31273067 -0.16677053 0.014008365 -0.5036584 -1.2089744 0.0838375 -0.27603534 0.104841664 -0.10322819 -0.8160718 0.9451362 0.85238296 -0.27071637 -0.28844866 -0.45233428 1.2195958 -0.020391416 1.1202607 -0.5470712 -0.08335181 0.17530489 0.14529313 -0.18226881 -0.31908783 -0.05304576 0.91398346 0.40303814 0.059382882 0.288548 -0.28752854 -0.1183532 -1.3617674 0.08275192 -0.959057
云 0.16888249 -0.7364387 -1.0811434 0.32251805 0.27061 0.2817186 0.31790224 0.11653313 0.1068084 0.18542649 0.30391467 0.42778167 0.7740504 0.19561699 0.8071363 1.5318265 -0.3569581 -0.950222 -0.37960517 -0.2034792 -1.6939752 1.4849627 0.10442217 0.65698475 -1.1375527 -0.00050858525 1.878233 0.9300406 0.75142586 -0.32103637 -0.3417623 1.1005794 0.025987023 1.1325573 -0.16233923 -0.6588469 0.5989258 0.5058567 -0.336861 0.34243205 -0.5107617 0.8410479 0.008984593 0.46038714 0.269269 -0.9036479 0.64619327 -1.0469909 0.29167196 -0.67477655
孙 0.26607275 -0.13029623 -1.6686019 1.1415516 1.1318133 1.7104039 0.776482 -0.66699624 -0.1199175 -0.41180974 0.862434 0.9187635 -0.06684446 -0.0507609 0.63007283 1.2994076 -0.9453319 -1.1346906 -0.20475262 -0.14675628 -1.6918769 1.6509409 -0.008498913 0.27744642 -0.7657531 -0.36440164 1.6275488 0.43929073 0.6380533 -0.04437636 -0.37723193 1.1643541 -0.22504944 1.761538 -0.8450636 -1.1083293 0.30609685 1.2049855 0.19053341 0.9275551 -0.43587047 0.61257493 0.009893706 0.1289977 0.22626105 -1.5951165 0.31916475 -1.7768024 -0.014350234 -0.6740033
或 0.8565403 -0.019389177 -0.5257985 0.29212683 0.14838754 0.14684626 0.37376457 -0.40593106 -0.062362593 0.17956866 1.047231 0.79297554 -0.24802174 0.016516032 0.2208399 0.083609395 -1.0476997 -0.47943828 0.5326423 -0.6621093 -0.7091672 1.0274966 0.55093366 0.3465553 -0.7521443 -0.03232667 0.93323755 0.8407267 0.12623164 -0.17732014 -0.36819178 0.6020364 0.1435427 0.6000097 -0.1608535 -0.52458876 0.03634485 0.98938644 0.17807384 1.1525581 -1.2601937 0.50129634 -0.13854621 0.39145526 1.0934384 0.26501295 0.21902296 -0.3528323 0.33780485 -0.6864695
勇 1.6637045 0.16278636 -0.4915475 0.57837987 0.1838411 1.0127527 0.8300627 0.69081813 -0.78826 0.7603465 1.1751108 -0.26770028 -0.08500397 0.24731894 0.010446926 0.030255498 -0.6252484 -0.57415295 0.99472016 -0.39131024 -0.42114076 1.1909642 -0.19786285 1.370259 -1.158177 -0.37978822 1.7653091 0.9283628 -0.35902706 0.24263869 0.56631756 0.1050312 0.8538902 0.86276186 -0.27769354 -0.29373556 0.29165792 0.74759996 -0.31183907 0.7753133 -0.847134 0.7728068 -0.6103841 0.31154534 0.68747246 0.137397 -0.2379528 0.3386979 0.22729607 -1.0972669
孰 1.0639908 0.39287257 -1.8829695 0.93763626 0.07506446 0.46223453 -0.37859195 -0.06449227 0.12604499 -0.31663474 0.09828433 -0.27308148 1.9384604 -0.58997935 2.007708 0.92702407 -1.0700508 -0.8750859 -0.5022848 -1.2786483 -0.8171471 1.5339366 -0.0819742 0.292229 -0.3222053 0.11303286 1.5788172 1.4835117 0.54376775 -1.0041238 1.4010353 0.8552423 -0.04709882 0.5506889 -0.08315008 -0.645751 0.013529342 0.6136718 -0.3527282 0.1452078 -0.80163807 1.2999871 0.454478 0.21644461 -0.32121962 0.15549205 0.27129337 -0.22183451 0.25570288 -1.1777546
叔 0.5774444 0.7605677 -0.61068434 -0.12381386 0.306154 0.660262 0.016925365 0.3231348 0.029607736 0.13971421 0.14633161 0.6166853 0.13291553 0.030398808 0.025191303 -0.1669614 -0.78071445 0.25725207 0.72384936 -0.37093672 -0.7514491 0.9712854 -0.09587013 0.4376364 -0.6987907 -0.6957293 0.7696056 -0.23283146 -0.11955811 -0.39982533 -0.42819315 0.91348106 0.35592154 0.40869343 -0.107633 -0.39818975 -0.048287358 0.6257429 -0.46861678 -0.11476208 -1.3349671 0.13497908 -0.23533332 -0.042086355 0.8636127 -0.30480036 1.0678897 -1.0308648 -0.71175134 -1.3865769
渊 -0.15822704 0.36333498 -0.6646471 0.65281045 1.4893745 0.09723098 0.40162534 -0.3934745 -0.59670186 0.1305554 2.033778 1.0166621 -0.33002898 0.57905746 -0.6676704 0.016714273 -0.82936513 -2.2472537 -0.13572322 0.20794708 -1.498187 1.5157354 0.14633633 0.7429061 -0.96733505 -0.43414062 3.5372622 0.8544642 -1.4394627 -0.047989607 1.3289798 0.87167853 0.5632414 1.8860165 -0.20079614 -0.64146703 -0.05537874 0.65480053 -0.53821206 2.609719 -1.0817677 0.38112947 0.050959013 1.0106645 1.2306988 0.15661292 0.69244474 -0.8485645 1.4917561 -0.7481671
方 0.34471738 0.014861456 -0.9068783 -0.17769204 1.1139151 0.34630468 0.9077245 -0.21351945 -0.5002233 0.012858579 0.44789097 0.10712437 -0.030900402 0.065022655 -0.42876825 0.48042157 -1.1293782 -0.24952996 0.6468483 0.048610967 -1.0066646 0.9037469 -0.73800063 1.1457084 -0.8533832 0.192401 1.8503562 0.089674145 -0.120539546 -0.34942913 0.13874875 0.662206 0.65996194 0.856853 -0.5253419 -0.49241197 0.31721237 0.9803333 -0.7829405 1.4007175 -0.958366 0.33822295 0.029727709 0.16345407 0.15540737 -1.1354942 0.63824534 -1.0537437 0.24168262 -1.0007341
乱 0.5098555 0.47746924 -1.8393754 -0.11837104 0.95223576 1.0663007 0.19770636 0.5633966 -0.07538858 0.3081953 1.0938025 1.139173 -0.044569477 0.7008454 -0.11160965 0.073081434 -0.45891574 -1.0126119 -0.620194 -0.61416554 -3.2091527 1.592131 0.30122298 0.75159127 -0.7568371 -0.875095 1.8288313 0.6651165 -0.1852708 -0.25253227 0.6092328 0.8497463 0.40519866 1.1909686 -0.56078494 -0.20918106 0.49598262 1.2644159 -1.2842754 0.79835826 -0.65935177 -0.19016834 -0.5678561 0.26059118 0.75389016 -0.658352 1.5768943 -1.0002705 1.005975 -0.92544043
