1352 100
， -0.1167664 -0.11954398 -0.26535952 0.03598619 -0.2808809 -0.2510749 -0.10388604 -0.13469686 -0.2093531 0.40083733 0.11690343 0.69668645 0.20141517 -0.05776229 -0.40674138 0.15480793 0.10598969 -0.008559469 -0.2627375 -0.111846626 0.24548964 0.011979456 -0.097146794 0.129406 -0.12052523 -0.15998803 -0.12711807 -0.10685233 0.042043313 -0.23793353 0.10353459 -0.19937964 -0.30182 -0.19876824 0.098275565 -0.19358978 0.22122306 0.15931316 -0.19504735 -0.2533242 0.44752786 -0.2740739 0.09185679 -0.12341889 -0.042221505 0.083897084 0.28286093 0.18894322 0.049995355 0.008781913 0.2065662 -0.0681328 0.18442036 -0.20324677 0.03209205 0.08253033 0.22028309 -0.047026884 0.2937345 0.081821285 -0.16827288 0.36440462 -0.17452745 -0.3058856 0.17298304 -0.020771913 0.7840141 0.13635129 -0.06783567 -0.299186 -0.053077456 0.048552513 0.07314545 0.12096439 -0.041862115 -0.21373646 0.04411418 0.18441819 -0.143215 0.20754266 -0.07346519 -0.2059114 0.16215912 -0.460151 0.07443515 -0.02617238 0.14347592 -0.07349474 0.23638266 -0.07385292 0.42389813 -0.14562072 0.04252433 0.19736207 0.03785228 -0.035520893 0.4647394 0.009054198 -0.5761725 0.045588855
子 0.16286439 1.1635331 -0.1806182 0.1120239 -0.28191665 -0.53826416 0.28035575 0.15000215 -0.10366712 0.15123425 0.33242816 -0.1294083 -0.5129261 0.08458712 0.13872506 0.08697049 -0.11250774 -0.051152274 -0.10459036 -0.007618447 0.060368963 0.15109752 0.22262762 -0.043088377 -0.15002356 -0.12603246 -0.07072771 0.1267221 -0.016427789 -0.08651149 0.10392177 0.21116328 -0.012590167 0.10205403 0.5768171 -0.14119421 0.11536241 0.014687233 -0.020359095 -0.014693874 0.060232308 0.005325214 -0.15537643 -0.17899202 0.03916802 0.04682156 0.15011695 -0.037952006 0.04776295 -0.0699683 0.29841122 -0.2545636 0.15339042 -0.15146853 -0.21288908 -0.15591218 0.15308683 0.03134062 -0.012758799 -0.011069308 0.182942 0.2564593 0.14456491 -0.16202177 0.12911572 -0.01707712 0.47001103 0.15434903 0.017853184 -0.14649253 -0.5373479 0.29923147 0.21591419 -0.060475897 0.054742068 0.020177245 0.54623735 0.11424469 -0.29113847 -0.18572026 0.0024248199 0.11353946 0.18435083 0.036913022 -0.06555575 0.15385646 0.44648066 -0.03571598 -0.029608138 -0.15275553 0.19793732 -0.5826647 -0.074478514 -0.38085154 0.09401452 0.05162972 -0.21282151 -0.042207975 -0.010734553 0.2416985
。 0.37389466 -0.22059177 -0.020079479 -0.079043165 -0.3475782 -0.9021896 -0.23712768 -0.08120651 0.14812659 -0.07098727 0.27357295 0.08618746 0.009037182 0.084660724 0.10844438 -0.14416882 0.07521436 -0.009081492 0.013759803 0.12376571 -0.17264433 0.12442082 0.25552887 0.18553106 -0.27230278 -0.23225184 -0.19158462 0.10692057 0.0870876 -0.073889665 0.21604615 -0.2703817 0.1835745 -0.005699021 -0.101666994 -0.41754016 0.039143655 -0.0756637 -0.24689129 0.0057100393 -0.12081192 -0.30411732 -0.38229343 0.04438727 -0.0053396616 0.29979843 0.16176125 -0.3156307 0.25890812 0.24449265 0.1720576 0.042886138 0.13980326 -0.1801666 -0.097833015 0.3799865 0.048256088 0.15731284 -0.09810397 -0.2066877 -0.113029 0.1529578 0.022781951 -0.26184312 0.19547495 -0.025212545 0.66559744 -0.17442451 -0.06219604 0.06819066 -0.0011849925 0.112903684 0.141478 -0.8749501 -0.091614805 0.2403523 0.3150496 0.15200774 -0.1387433 -0.24878812 0.06153309 -0.14475806 0.43323195 0.028893037 -0.023713212 0.15377894 -0.08459515 -0.13816683 0.08263109 0.15177701 0.1107867 -0.6637347 0.30493417 -0.016555421 0.07834068 -0.31439838 -0.099220105 0.1682735 -0.4969094 0.09771987
： 0.016234068 0.486788 -0.0458109 0.099528596 -0.012029603 -1.3761238 0.19271855 0.14092855 -0.26866814 0.34501535 -0.103710875 -0.24002177 -0.043116305 -0.027533997 -0.10008261 -0.08766145 0.22267298 0.042137664 -0.21688516 -0.015323729 -0.113203295 -0.07388973 0.1740675 0.019087764 0.074760914 -0.34393188 -0.15448035 0.0919782 0.12857173 -0.039449554 -0.049082547 -0.41571352 0.045509443 0.08452235 0.30108526 -0.269981 0.15867855 0.11609905 -0.16467799 -0.055773783 -0.13386226 -0.08096226 -0.28490815 0.10939571 -0.17713715 0.27975646 0.17622988 0.09923539 -0.11885631 -0.4698705 0.20106958 -0.14322518 -0.1670595 -0.25830537 0.18306555 -0.07881183 0.009476016 0.0127785895 -0.49970472 -0.006110805 0.013359597 0.30019337 -0.23564595 -0.02882596 0.02414835 -0.09288409 0.11415267 0.18143852 0.13462299 -0.023124658 -0.5435094 0.07696992 -0.17034598 -0.1781178 -0.03871049 -0.38273045 0.067322396 -0.3090322 -0.023644993 -0.08559794 -0.07477677 0.15757851 -0.0151996 0.010413023 -0.12076828 0.1623754 0.51146644 0.16690707 -0.12750073 0.11511292 -0.044750012 -0.74695903 -0.24646941 0.046476446 0.29431927 0.06260176 -0.07752714 0.22069825 0.120360054 -0.17996055
曰 0.041463263 0.4498996 -0.25164884 0.11779994 -0.115039624 -0.9196985 0.104794085 -0.18102261 0.18281113 0.085152976 0.12573296 -0.30277702 -0.22879231 0.022771278 -0.08140595 -0.053962953 -0.31851122 0.10003936 0.24136773 -0.11964814 0.10618008 0.2093476 -0.00020147707 0.073809214 0.10565588 -0.28109995 -0.2810062 0.06167642 -0.18418807 0.08477261 0.18922701 -0.45344085 0.051698297 -0.21950504 0.41888767 -0.23717375 -0.17432153 -0.012699412 -0.19687913 -0.26806718 0.07689734 0.26637718 -0.17163578 0.03344878 -0.06685039 0.07784641 0.21317099 -0.07517955 -0.2473825 -0.14685822 -0.08115515 0.0073104 0.06867132 -0.06125488 0.18832338 -0.07326674 -0.2299543 -0.19451277 -0.51062965 -0.16721837 0.28361186 0.019653091 0.1549302 -0.056941673 0.049653362 -0.050302252 0.13906191 0.28338727 -0.23513821 -0.112864494 -0.9178288 0.10746229 -0.20926881 -0.41458157 0.13368276 -0.14853151 0.041287344 -0.099215716 0.09931528 -0.057987075 0.20711955 -0.17020108 0.23781586 -0.116708286 -0.13696094 -0.26138738 0.40671813 0.11502093 0.05668894 0.037668444 -0.06645802 -0.7574093 -0.15654187 -0.16848105 -0.08672305 -0.014666323 -0.4046822 0.11933587 -0.27911457 -0.37945074
之 -0.27341217 0.95749414 -0.4564263 0.28784612 0.3241166 -0.23363735 -0.15273109 0.17050242 0.3237102 0.253695 0.31647858 0.63183206 -0.039984852 -0.08367032 0.026190786 -0.048758775 0.0008559916 -0.09333571 -0.19242105 -0.05532437 -0.18371111 0.28861806 -0.26297066 -0.10981184 -0.14640889 -0.54195243 -0.019550107 0.16432674 -0.112258025 -0.37472764 0.19396222 -0.39715543 -0.23720568 -0.13437097 -0.17018852 0.3005731 -0.12515245 0.26029184 -0.27461886 0.07972804 -0.07076681 0.02903663 -0.43236515 -0.25985107 -0.1453853 0.11317129 -0.09354762 -0.41609484 -0.19526646 0.17775908 -0.021238435 -0.17318079 0.1522548 -0.21492992 0.2236655 -0.050790954 0.07933234 0.24710435 -0.04373898 0.052223545 -0.114963844 -0.0056344764 0.019912357 -0.28242207 -0.18622138 0.015347122 -0.0529553 -0.030792892 -0.1962317 -0.15547064 0.3421625 0.061140757 -0.2529898 0.016444853 -0.17035519 -0.22208923 0.304636 -0.09867958 0.032825146 -0.18157555 0.073392585 -0.27447477 -0.006903747 0.04568867 0.30209196 0.100724325 0.279757 0.08166709 -0.02810558 0.20639952 0.31342545 0.29043123 -0.12137946 -0.0021117693 -0.046286453 -0.1902494 0.01377037 -0.08682156 -0.8694068 0.025036205
不 -0.13465416 -0.1499745 -0.036309823 0.20582873 0.08004713 0.2820326 0.07515664 -0.20400473 -0.28967512 0.07098298 -0.24605702 0.4516888 -0.5010418 -0.031065252 0.02755998 0.4170195 0.2792898 0.047985356 -0.099299006 -0.13283333 0.16112371 0.22417346 0.15190998 -0.2186408 0.05841746 -0.3028328 -0.3004857 -0.13377948 -0.13123009 0.13717012 -0.2047476 -0.14155753 -0.74467707 0.095503554 -0.038222183 0.01237863 -0.07017705 -0.44081768 -0.3216387 -0.14877757 0.18790026 0.3259322 -0.07177568 -0.28461844 -0.30525833 0.31261468 0.011912502 0.034727935 0.2333026 -0.30535874 0.14321926 0.043904953 0.109266445 0.054740295 -0.20068555 0.12647955 0.08488553 -0.19963065 -0.24215618 0.051270664 -0.39134833 0.14605269 -0.17941041 -0.2427409 0.1032429 -0.06567716 0.497103 -0.013223282 -0.043017875 -0.023996042 -0.7321375 -0.02194289 -0.0025431255 0.052052144 -0.35998413 0.020797022 0.2984906 -0.12590505 -0.051962398 -0.18350142 -0.46342686 -0.12691669 0.03596224 0.04587587 -0.08975599 0.19994573 -0.13129713 0.09518134 -0.14305215 0.26878735 0.13285667 0.20165478 0.06773499 -0.56337744 -0.1389076 -0.09821729 0.036270905 0.16338265 -0.45774597 -0.24213234
也 0.102859244 0.63836694 -0.19624805 -0.06328942 -0.16774854 -0.6390724 0.020199832 -0.042198308 0.17285565 -0.16980955 0.20847878 0.3592142 0.04064632 -0.056109343 0.11131834 0.13945471 -0.30887133 0.011276613 0.2295323 -0.14196183 0.14414446 -0.40555766 0.23394988 0.056122202 -0.071669154 -0.53619653 -0.2862474 0.16902131 -0.06346175 0.08227955 0.18660909 -0.47784024 -0.697912 -0.07789015 0.27103132 -0.025892692 0.040981434 0.0758659 -0.121238835 0.13125978 -0.19281529 -0.000333199 -0.30249587 -0.46976355 -0.037532825 0.15887748 0.34175378 -0.15117608 0.17465624 -0.01913794 0.23307255 -0.114164725 -0.10747049 0.33476084 -0.11302934 -0.21524571 0.017780248 0.29133323 0.33558762 -0.1259231 -0.23438649 0.26049042 0.10361384 -0.29376936 -0.04901844 -0.083102845 -0.14619061 -0.11950635 0.23278435 -0.19791625 -0.2681547 -0.07089991 0.3055782 -0.026242765 0.06620516 -0.22375123 -0.3707689 -0.045206085 0.019564098 0.05206327 0.17976893 -0.118175656 -0.030920938 -0.36941347 -0.23382536 0.21502835 0.11938801 0.04409519 -0.15490888 -0.22383665 -0.15151241 0.35138795 0.11897612 -0.41416743 0.113359384 -0.25725114 -0.06522004 0.21339262 -0.33179438 0.023377746
而 0.15455008 0.3594467 -0.14737293 -0.14431323 0.004598911 -0.49099556 -0.023073956 -0.32495153 0.0023143569 -0.09735369 -0.12678939 0.95090765 0.16597284 0.46642724 -0.5497694 -0.2234071 -0.03429375 -0.06589251 0.11131554 0.07219754 -0.025028847 0.19782881 0.014325026 0.26697278 -0.033912454 0.09345372 -0.1474124 0.1517266 -0.12139102 0.103667825 -0.3802057 -0.0062405616 -0.5961351 0.30547982 0.47778916 0.00018523168 -0.09391456 0.07099844 -0.14799365 -0.15474835 0.008597328 0.32515416 -0.13149871 0.14067824 0.23614305 0.13436395 0.05793228 -0.1154549 -0.4442515 -0.031312026 -0.22149847 0.14331172 -0.03530415 -0.29390192 -0.11304675 -0.36326873 0.13883992 -0.01582425 0.18134415 -0.55221695 -0.039396945 0.21348543 0.06700562 0.31686872 0.363749 0.22152781 0.26598778 -0.28301427 0.01161875 -0.00019188132 0.095667005 -0.4371906 0.08921418 -0.39649704 -0.02426384 -0.26703158 0.17217073 0.34835887 0.27739003 0.16026396 -0.4551503 0.054221265 0.12503497 0.05474608 0.049818747 0.22621587 0.045361705 0.19206047 -0.39378276 0.2519993 0.0899197 -0.022925107 -0.58523977 -0.49687707 0.06281069 -0.10222786 0.26492998 0.16368963 -0.15753245 -0.26450637
？ -0.226142 0.8126273 0.3376931 0.070096284 0.029237112 -0.26006585 -0.15445164 0.01150304 0.014137682 -0.2158643 0.4186559 0.23576556 -0.34239784 -0.040820867 -0.21853141 0.20739646 -0.044418603 -0.1502442 -0.105818145 -0.13593373 0.28733072 0.07725671 -0.0752766 -0.0108894585 -0.23458461 -0.37348026 -0.61933357 -0.24505396 -0.0297214 -0.054326776 -0.10881627 -0.7159473 0.06941788 0.0029674945 0.36946046 0.07682156 -0.24390383 0.024996419 -0.03034474 0.11523851 -0.101121776 -0.22432087 -0.065713905 0.25322875 0.11124614 0.024595935 -0.233859 -0.35617554 0.44104195 0.09751226 -0.17332429 0.026484303 -0.00597806 -0.25180885 -0.20011868 -0.34004405 -0.027013596 0.0012164133 -0.21619904 -0.48802328 -0.3561822 0.14502645 -0.39220554 -0.059587922 0.47791907 0.0856305 0.6136043 -0.1043416 -0.0989129 0.2686614 0.30195147 -0.27793494 0.27784136 0.39572355 0.118665986 0.19011667 -0.067571424 0.10871079 0.28531367 0.24784969 0.13644683 0.050016426 -0.050475653 -0.12679458 0.024515871 -0.08344604 -0.031787332 0.1687886 -0.058706407 0.15130982 -0.031893764 -0.7537143 0.20496021 0.09723155 0.31526595 0.24030648 0.01485286 0.35577762 0.5597154 -0.48041284
其 -0.040913522 -0.041045137 0.16540362 0.21300332 -0.22332892 -0.55579627 -0.11463297 -0.122616895 0.12898192 0.08228697 0.32619134 0.8344909 -0.08589865 0.2694775 0.051698543 -0.12632816 -0.40181115 -0.077151515 0.019683769 -0.13628983 -0.2775673 -0.44063112 0.12404162 0.18923375 0.023204045 -0.256432 0.25316104 0.030907355 -0.11835144 0.17810073 0.3927123 0.057191115 -0.49877536 -0.1565285 -0.017204147 0.07800787 -0.11890409 -0.07168492 0.010935995 0.37781122 0.3610886 0.60332566 -0.26527956 -0.5188477 0.020610983 -0.06898274 0.08748033 -0.22596772 0.36921412 -0.29450488 -0.12320508 0.12554964 0.034699995 0.017522192 0.4780646 0.15287629 0.036583517 0.043103512 0.4735515 -0.48120746 0.3643557 -0.2990421 -0.24354036 0.23811385 -0.10689357 0.3272108 0.09578744 -0.033681504 -0.19450372 -0.20853283 -0.6291359 0.34867764 -0.024823219 -0.015009492 -0.49543765 0.2872189 0.17262387 -0.3011958 -0.058258876 -0.17693438 -0.11641612 -0.11091119 -0.26044452 -0.26759884 -0.17901897 -0.06793959 -0.07224406 -0.14278468 0.29389864 0.1918111 0.31692228 -0.090682566 0.07720033 0.020610822 0.06732469 -0.061087724 0.21572989 -0.0848581 -0.34674004 -0.24511927
人 0.20953673 -0.1504674 -0.035595715 -0.0765573 0.202957 -0.23319767 0.3896267 0.5142558 -0.3569809 0.8794131 0.1138107 0.30416676 -0.37105158 0.4326678 0.008540889 -0.069599435 0.14670695 -0.009485305 0.007898664 0.033689335 0.049221914 0.3411749 -0.1989196 -0.11356283 -0.019866249 -0.2391572 -0.09667956 -0.09146258 0.38272312 0.3260142 -0.03383966 -0.6955898 -0.4566946 0.44678378 -0.25543562 -0.1276025 -0.08912795 -0.31983548 -0.06668798 0.27114603 0.03098018 0.41104537 -0.10537413 -0.2789029 -0.00946244 0.16344702 -0.16155928 -0.24766913 -0.14080542 -0.07218593 0.066144526 -0.5332963 0.041274905 0.027204785 0.08428905 -0.5923831 0.008354036 0.01001988 0.23509768 -0.15643801 0.08611991 0.28179836 0.32244793 0.2896083 -0.5458692 -0.003801866 0.22962043 0.088402644 -0.063530505 0.08942031 0.027936146 0.6003147 0.13481611 0.2059847 0.025339533 -0.1642142 -0.49781576 0.4494958 0.29980868 -0.20772126 0.43221426 -0.23121485 0.040939722 -0.083155796 0.29405284 -0.2869659 -0.0119210165 -0.033394158 0.13094626 -0.26839855 -0.100596935 -0.15900911 0.6336718 0.07852319 0.072960116 -0.23022686 -0.13325271 -0.033003792 -0.3334302 -0.64515114
者 0.24028519 0.3405134 0.019129492 -0.36146173 0.2475122 -0.3651447 0.090042174 0.11315493 0.1387399 0.16534306 0.36372826 0.38115993 -0.31420732 -0.0015161672 0.21321975 -0.0015970259 -0.4483442 -0.29929757 -0.2176975 0.30348146 -0.020226605 -0.008242874 0.14277697 0.23339096 0.4839154 -0.2381119 -0.17291164 -0.05882448 0.20556048 -0.0177608 -0.17765947 -0.49255133 0.051637396 -0.10093695 0.4325679 -0.24776036 -0.18296272 0.0015991239 0.14687373 -0.13921775 0.064535834 0.45792407 0.024683243 -0.06960503 0.13067694 0.37322044 0.16919515 -0.27846172 0.28682965 -0.34137145 -0.069443755 0.29018202 0.4593815 -0.09568107 -0.22803922 0.5073362 -0.25529042 0.1980824 0.0470257 0.11079043 -0.41261798 0.088283725 0.13784303 -0.07954127 -0.07459408 -0.12238586 0.53303146 0.02689867 -0.12611657 0.00428652 0.16521567 0.03203208 -0.057897583 -0.05460776 -0.027745076 0.19992521 -0.1528401 0.18884069 -0.15388209 -0.4885697 0.50809735 0.028896263 -0.55552036 0.13557419 0.02929305 0.23232034 -0.40423197 0.64173615 -0.11662385 -0.0022987518 0.18959936 0.3274333 -0.82950276 0.19772145 0.18231383 -0.23802634 0.12492676 0.11233833 -0.114548355 -0.576815
以 0.09965849 0.4620956 0.057030473 0.22767662 -0.35312623 -0.20139809 0.1731392 0.16455334 0.19834316 0.34223524 0.2137763 0.3376499 -0.37189153 -0.40567672 0.2935562 0.25123435 0.08061847 -0.086580105 0.10066195 -0.048554577 -0.12630348 0.056659892 -0.0119962385 -0.08742537 -0.21673493 0.15414512 -0.27781734 -0.113653295 -0.048044965 -0.085929655 0.55418444 -0.5808151 -0.5832282 0.07368234 -0.093525626 -0.09470307 0.19103715 0.123348154 -0.11056562 -0.16052583 -0.23196721 -0.13419959 0.32414746 0.08357115 0.5716795 -0.17491923 -0.03306502 0.10484116 -0.04952496 -0.098629355 0.039065555 0.47766894 0.1078468 -0.2144127 0.00958385 0.5308687 0.056787137 -0.51545227 -0.4626256 -0.22973756 0.30128354 -0.15893596 0.028510321 -0.28734556 0.045665428 0.05929606 0.39507592 -0.1718056 0.022134507 0.2927869 0.066133335 -0.04862643 0.10646755 -0.06973269 0.3108951 -0.08777404 -0.45356357 -0.5658358 -0.18381818 -0.1965381 -0.20634738 -0.25679198 -0.33467266 0.010953672 0.22773434 0.0011391172 0.52659607 -0.10946147 0.04043481 0.037440427 0.040633183 -0.12868164 -0.22920075 -0.38105828 -0.19979733 -0.28783113 0.11152136 -0.009416796 -0.08290615 -0.87873435
有 -0.036822937 0.28880283 -0.30562022 -0.37672332 0.19407363 -0.44134974 0.077962294 0.39488348 0.117143124 0.5593703 -0.1407162 0.496215 -0.5456666 0.046082973 0.60789645 0.47123605 -0.024652027 -0.21654026 0.08005543 -0.27124292 0.02119396 -0.5380074 -0.150938 0.22492114 0.16235341 -0.086018 -0.26023576 0.33179733 0.14035337 -0.29268906 0.011171063 -0.45284528 0.19245099 -0.46051633 0.29737043 -0.08588634 -0.087163374 -0.12715316 0.2300038 -0.13579342 -0.08952497 0.29569152 0.15416257 -0.2249393 0.136104 -0.24067688 0.19584545 -0.017902546 -0.16199729 -0.18518284 0.08772625 0.17886746 -0.30199412 0.13371724 -0.14196749 0.1827846 -0.061013747 -0.5478141 -0.5838381 -0.21873204 -0.22227776 0.08354403 -0.028563434 0.84059465 -0.40528363 -0.49955544 0.0629447 -0.46962294 0.23912795 -0.3331257 0.4710421 0.08089859 0.19222602 -0.5336428 -0.11728572 0.036377765 -0.09615521 -0.08997112 0.19980048 -0.14540029 -0.024458636 0.06520886 0.6016676 -0.22695291 -0.24990307 0.04710897 0.77682483 0.34216934 0.1472117 -0.44731447 0.41645437 -0.45365584 -0.08549966 0.144086 -0.32808837 -0.03662635 0.01732734 0.033337176 0.3699967 0.1824675
于 -0.34629688 0.20142151 0.0007364558 0.34612584 -0.41678506 -0.18442544 -0.13356927 -0.54791 0.2308202 0.25486973 0.1898885 0.3826799 -0.487457 0.6073196 -0.07926673 -0.5089311 -0.17978926 -0.15110634 0.46616098 -0.4127203 -0.44692433 -0.034286495 0.042906646 0.44750676 0.28328326 -0.37451348 0.12770852 -0.08359198 0.13637944 -0.33555582 -0.19941169 -0.032706678 -0.18357044 -0.36595407 0.2915834 0.057187192 -0.15317145 0.54757 -0.12102211 -0.033212468 0.12876871 0.029351627 -0.26613134 0.050355587 -0.22046116 0.35415328 0.33050078 0.15193582 -0.26999372 -0.01507597 -0.3992803 -0.012264846 0.31490004 -0.22667047 -0.3657263 0.0091229975 0.28228578 -0.01577868 0.027560158 -0.4862206 -0.22333868 0.043975044 -0.082519 -0.19583556 -0.050903115 -0.15249063 0.038567945 0.22237845 0.49398214 -0.14496964 -0.35475823 -0.23631589 0.06146857 -0.16573203 0.5253401 0.2769433 -0.51040787 0.036450468 -0.061109312 0.1744851 0.3604958 0.20547846 -0.0203613 0.5871074 0.06737557 -0.008649593 0.35772684 -0.23047109 -0.009763133 0.4067614 0.100048415 -0.10136564 0.70241445 -0.091321245 -0.12205293 0.06632657 0.18733563 -0.10109601 -0.4418489 0.030019812
矣 0.093788095 0.48395136 -0.14588606 0.49030554 -0.19841132 -0.9527998 0.32727322 -0.27972275 0.037978582 -0.117848985 -0.25292104 0.4551015 0.021435639 0.007128564 -0.033593412 0.3580616 0.28483883 0.11869044 -0.04965505 -0.09723232 -0.117588595 0.3629032 0.3908718 -0.11037715 0.6509394 -0.3239843 -0.3291701 0.2653558 0.12758291 0.14701417 -0.026823724 0.07383602 -0.40695965 -0.00091436104 -0.18312083 -0.0055485675 0.13013588 0.018457746 0.015360142 0.27955514 0.15700242 0.05074828 -0.07749139 -0.31416818 0.039025135 0.045033332 0.38111624 0.48104522 0.0973472 -0.2707302 0.23432615 -0.24967162 0.14222154 -0.017822634 -0.33140624 0.398312 -0.35177606 -0.38170758 -0.16272974 -0.57519597 0.11159059 -0.16525608 0.17279132 0.17200568 -0.4945488 0.15981585 0.16981089 0.20064579 -0.3423396 -0.23069736 0.29022846 -0.37510577 -0.061635673 0.24271739 0.119205214 0.36394835 0.24795645 0.33184603 -0.1008572 0.55275023 0.1174803 -0.008063391 0.053488113 0.5078031 0.287599 0.7246173 0.07253915 0.0875369 0.050601654 -0.13522018 0.0738984 -0.34979346 0.15905817 0.09746952 0.14306162 -0.059870537 -0.10612893 0.24935073 -0.13297164 -0.14466959
为 -0.011449565 0.44784343 0.16646174 -0.23854993 0.36564666 -0.4554492 -0.20445539 -0.24789603 -0.17424415 0.3625975 -0.15008786 0.34445456 -1.0113949 -0.40974906 -0.15249434 -0.117764674 -0.6884506 -0.17602147 0.33655635 0.195137 0.007156402 0.28844216 0.33835578 -0.38403267 0.52670324 -0.63079107 -0.3141452 -0.07607558 -0.049531028 -0.15256262 0.12012857 -0.43070313 -0.18633749 -0.07455617 -0.016903715 -0.6195886 0.16793334 -0.30637664 -0.41103625 0.24394117 -0.23090298 -0.13052794 0.1592513 -0.15889075 -0.16496348 0.68535453 0.19110821 -0.07191068 -0.14142676 -0.46693832 0.014672309 0.058218442 0.24931273 -0.17430298 -0.22003607 -0.3982762 -0.0057080677 0.10650122 0.036045168 0.16759218 0.5086777 -0.26446846 -0.20287316 0.6069058 0.21684608 0.2126796 0.45325005 0.053280666 -0.52262425 0.31442657 0.34954038 0.030088494 0.4360346 -0.34607962 -0.17631695 -0.42737636 -0.016720017 -0.3724926 0.12765826 -0.34856123 -0.022562636 0.19206484 0.07968254 -0.07240291 -0.30079305 0.36854154 0.30512246 -0.08639474 -0.10384785 -0.049506716 -0.122844785 0.16872863 -0.29043835 0.060241234 -0.06961025 -0.17309284 -0.051989406 -0.14697638 -0.15818559 0.29704422
君 -0.4014836 0.16849881 0.19506778 0.028614987 -0.42504492 -0.10993494 0.19848324 -0.038215593 -0.1119699 0.1933333 0.29751852 0.29719022 -0.021810178 0.42389703 -0.050912485 -0.024379747 -0.23585881 -0.39905527 -0.11350903 0.29979417 0.17474599 -0.55255353 0.04067782 -0.4448349 -0.21542892 -0.12695682 -0.26009312 0.10478517 -0.34035277 0.05390809 -0.22216102 -0.17599301 -0.51483226 0.16983874 -0.1607966 -0.13234392 0.024531614 -0.09999851 0.22706293 -0.060335293 -0.2300052 0.37658837 0.25985244 -0.38271704 0.11156187 0.013164425 0.119025216 -0.15177031 0.0131647615 -0.1616799 0.3345036 -0.053839702 -0.08384463 0.07240525 -0.6758936 -0.43137676 0.00032061292 0.20147623 -0.65427893 -0.20486073 0.19722465 -0.26486427 -0.08796048 -0.30747208 -0.3168919 -0.33879453 0.2916512 -0.08500482 -0.24449505 -0.27506375 0.16902184 0.5132895 0.102425024 -0.3874162 -0.17867121 -0.83909345 0.124036945 0.13997436 -0.48877612 0.11347861 0.5607356 0.09525432 -0.14313094 0.20498626 0.14299229 0.24929407 0.47877938 0.30418 -0.0506234 0.08344048 -0.08278473 -0.61430687 -0.042238027 -0.29288274 0.036027923 -0.20086135 -0.5589122 0.5297756 -0.34929773 0.50306374
乎 0.17727023 0.51170194 0.403317 -0.18390808 -0.07565077 -0.43386295 0.4524495 0.001995495 -0.17302473 -0.08533301 -0.12292121 0.28307366 -0.39478865 0.6410786 -0.1936386 -0.033342324 0.055229522 0.4594377 -0.48481625 -0.553758 0.06887158 -0.15660599 0.0871605 0.17998712 0.56744236 0.07460813 -0.37038204 -0.23676158 -0.14195898 -0.1260116 -0.047783237 -0.84928995 0.21459977 0.27395418 0.026718618 0.25639287 -0.1583927 -0.19891036 0.37485287 -0.2634445 -0.13735802 0.20523715 0.18505387 0.3518326 -0.2808948 0.1515566 -0.18962866 -0.49350262 -0.012379787 0.07786077 -0.06363385 -0.0768258 0.30125198 -0.636009 0.004260411 0.3465454 -0.051390044 -0.39798906 0.2271315 -0.239526 0.34913376 -0.15127964 0.0353544 0.13194595 -0.11257062 0.011178626 0.7820229 0.04061901 0.16048695 0.18796794 0.45068455 -0.19283056 -0.016531266 -0.22625661 -0.27622944 -0.35178554 -0.10410791 0.0563462 -0.24803174 0.4706651 0.48295 -0.580013 0.20150767 0.17289919 0.32690775 -0.06983229 0.4110143 -0.49718088 0.16379933 -0.20797287 -0.020347312 0.3580877 -0.32292995 -0.46573004 0.3643829 0.5706211 -0.2467421 -0.24136308 0.020063521 0.13835469
可 0.21390246 0.5572949 -0.22775753 0.22952817 0.7266001 -0.3395669 0.18784782 -0.19305065 0.075815886 0.039601613 -0.122238845 0.3642455 -0.3837581 -0.083153725 -0.48053646 0.00995295 0.097601764 -0.24025488 0.1868888 -0.03341787 0.07146654 0.30768603 0.1521686 0.3210237 -0.15915313 0.4572517 -0.59172106 0.0664278 -0.1864843 0.31396917 0.27772933 -0.55421823 -0.018028406 0.24896467 -0.23288213 -0.4233486 0.3110751 0.53698033 -0.45343375 0.0051821447 0.067854725 0.37065858 -0.016983122 -0.30522582 0.028446043 0.05123776 -0.32756212 0.12975419 0.15241063 -0.06417073 0.050192036 0.19625118 -0.013343975 0.09372556 0.18510859 0.048382107 -0.093943946 -0.29531786 -0.2982477 -0.283331 -0.36459777 0.31527075 -0.1984561 0.02280101 -0.27226606 0.42796528 0.1341256 -0.20563625 -0.2605586 -0.4326376 -0.48693216 -0.7673885 0.4637653 0.23339978 -0.53807473 -0.12846558 0.2521887 0.08671994 -0.37932438 -0.11510114 -0.034446593 -0.16956861 0.09623529 0.22824425 0.23941359 0.036661062 -0.3540264 -0.035022106 0.08443854 -0.20383458 -0.07121179 0.30576503 0.20783511 0.18296866 0.16209987 0.12111308 0.0527115 0.19498128 -0.36021128 -0.43196395
如 -0.2619845 0.5759901 -0.40518537 -0.40446204 0.18884009 -0.21453439 -0.17488869 -0.122886464 -0.17339323 0.037518144 0.052429423 0.56641144 -0.11955024 0.07787267 -0.26744682 0.008176723 -0.57652575 0.042282764 0.15955265 -0.15659298 0.2691941 0.40402576 0.026826458 -0.03583598 0.4035115 0.34656385 -0.027018247 0.26174715 0.36549836 -0.15421924 0.050945066 -0.62448967 -0.4761662 -0.006091241 -0.3628243 0.35992852 0.029381296 -0.05972416 0.17129694 0.5879478 -0.22324467 0.25415716 0.14946985 -0.18581638 0.033981014 0.013268245 -0.14220208 -0.12664352 0.41303292 -0.19896385 0.092241995 0.18115516 0.12070639 -0.13937719 0.47407448 0.44505677 0.15120612 0.18470426 -0.38471207 -0.29442382 0.013162246 0.5298534 0.7028792 -0.21116611 0.5149858 0.07896661 0.015312618 -0.25057542 0.07049317 0.55655825 -0.9740513 0.34530008 -0.16092174 -0.057853714 0.5299096 -0.38856685 0.21277696 -0.02031326 0.052810133 0.78061247 0.2728433 -0.074110195 -0.08574359 -0.09033554 -0.09675219 0.38469723 0.21314546 -0.052305143 -0.38208383 -0.15496305 -0.30782726 -0.06096406 0.09340527 0.78397965 0.024139185 0.04417513 0.10818826 0.35712633 -0.14565329 0.47514322
与 0.24113281 0.362869 0.25084108 0.043969356 0.017163202 -0.39373642 -0.31577817 0.28061113 -0.11520897 0.3605401 0.15743437 0.4827089 -0.64624715 -0.19530874 0.075403675 -0.26020992 -0.06989636 0.25736085 0.16347353 -0.03212741 -0.090745814 -0.83048904 -0.44807082 -0.24963562 0.19372448 -0.08613058 -0.04044149 1.0479516 -0.3245313 0.13930535 -0.95816797 -0.36194205 -0.04995004 -0.11012567 -0.38259137 -0.23729324 -0.08477076 0.17275085 -0.4302045 0.26235503 -0.22810757 0.026427718 -0.084993504 -0.058415756 0.3595101 0.24705878 0.19240664 -0.07617318 0.49386168 -0.13236168 -0.24526232 0.059132114 0.06618649 -0.40604827 0.65485096 0.13802405 0.10709308 0.04775618 -0.4113338 -0.095114045 -0.67338216 0.21906954 0.18425946 0.00807261 0.1460967 0.27166164 0.111782774 0.11392721 -0.21298066 0.056354407 -0.14361939 0.049909804 0.115256764 -0.2270702 -0.09829592 0.33442473 -0.2533783 -0.1925003 -0.14899844 0.360868 0.21063766 -0.13095796 0.15467982 0.1511272 -0.35958022 0.16659223 0.31763414 -0.2145823 -0.08854273 -0.17904226 0.05983623 0.16728127 -0.36773062 0.11655869 0.37635332 0.14817135 -0.17978717 0.32010737 -0.69566697 -0.3828686
； -0.29431564 0.29398292 0.06830624 0.0007835366 -0.703285 -0.14948526 -0.15994427 -0.012695003 -0.61218536 0.13513055 0.06584533 0.76087797 -0.18569776 -0.243551 0.08594692 0.26256278 -0.28504026 0.09281369 0.4723151 0.1287058 0.00877084 -0.4413116 0.13783097 0.33589536 -0.6296669 -0.065387316 -0.23306239 -0.30020386 0.36811522 0.02278102 0.08467884 -0.20675208 -0.17542028 0.24197794 -0.08129549 0.12347005 -0.07417926 0.21379663 -0.07235901 -0.62478733 -0.2345926 0.010269616 -0.005184345 -0.22860233 -0.38027138 0.22306117 0.03588765 -0.03309825 0.74062246 -0.058760032 -0.09116098 0.32635733 0.08124456 0.019132715 0.008603385 -0.27742475 0.17729066 0.40627712 0.11993091 -0.49131623 -0.10017945 0.95292425 0.24063179 0.34168485 -1.1054451 -0.5163793 0.35895514 -0.070349686 -0.5451691 -0.040883277 0.020528246 -0.35547304 -0.35893264 -0.51755035 0.31466916 0.25139105 0.48641267 -0.44541106 0.41164863 0.045968458 0.15163423 0.011271926 -0.028253922 0.253203 0.24521942 0.22897021 -0.7798084 -0.41208273 0.28248549 -0.071306035 0.00030760223 0.19521841 0.07545079 0.08874073 0.29704884 0.09837206 0.12309609 0.19926786 -0.7187795 -0.18784085
言 -0.17149332 0.12321 -0.61257213 0.13208698 -0.037433784 -0.41909394 0.1023029 -0.32744086 -0.3555663 0.37101868 0.2895192 -0.17883588 0.18475562 -0.1920797 0.02002688 0.74738014 0.49196774 0.038214356 0.50488937 -0.21351396 -0.008645119 0.18663785 -0.20332587 0.003566911 -0.00097337295 -0.22568072 -0.27485523 0.005263555 -0.25574803 0.25347936 -0.37323865 -0.38714114 -0.31795096 0.44677237 0.3833692 -0.12414071 0.40649918 -0.34550622 0.16943453 0.55048645 0.20263967 -0.0031765546 -0.0707924 0.034048576 -0.10485562 0.01203032 0.19093609 -0.6782926 0.45436847 -0.3636256 -0.13685395 -0.09662549 -0.037396815 -0.293461 0.5676784 -0.27820677 -0.07913691 -0.7293597 0.46789628 -0.23028868 -0.87482333 0.1590174 0.084504895 0.25945145 -0.26228642 0.36776307 0.25723866 0.5692159 -0.2160217 -0.6021927 0.09032048 -0.17610355 -0.1530304 -0.8273967 0.22848877 -0.21856421 0.009712336 -0.11662306 0.1625428 0.1826621 -0.2708246 0.19857293 -0.12673287 -0.10525426 0.23992757 -0.10269185 0.33303958 -0.41326472 -0.60281295 -0.16130237 0.21590014 -0.12812276 0.2608114 0.2697921 -0.30757853 -0.0494788 0.08620562 -0.018542554 -0.15785582 -0.23875952
无 -0.3328772 0.68763584 -0.11789893 0.059705514 0.105415195 -0.37418702 -0.26737487 -0.40602177 -0.16676538 -0.01906648 -0.2119503 0.6519058 0.19204453 0.15830876 0.26048127 0.26821336 0.09796307 -0.29374817 -0.25752795 -0.030271336 -0.10829827 -0.5880576 0.14249611 0.19757983 0.18527654 0.07699301 -0.53022933 0.92030734 0.30429932 0.6270528 -0.054044392 -0.6404404 0.13986428 0.23323765 0.14481294 -0.46770102 0.026521083 -0.4988879 -0.17463143 -0.14648356 0.2358754 0.13663635 -0.09825516 0.40890405 -0.28653908 -0.058757015 -0.30605653 0.07231924 -0.7022095 0.0714881 0.35637662 -0.15553172 0.16690686 -0.15690175 -0.5404714 -0.060560368 -0.3189946 -0.20944975 -0.010523511 -0.09509969 -0.46888894 -0.44470406 -0.11966538 0.41311088 0.37379447 -0.4731972 0.6228905 -0.07208466 -0.086029805 -0.28412053 -0.5593749 0.48910043 0.050611567 -0.19961363 -0.1570262 -0.13326144 0.2763089 -0.061103877 -0.28385934 0.05211637 -0.016166182 0.12743868 -0.044679724 -0.1756809 -0.08948548 0.08771297 -0.18244267 -0.5706989 0.34055218 -0.39967734 0.117563285 0.08329777 0.155223 -0.021675233 -0.6655126 0.016468063 0.005967749 -0.2547096 0.33411342 -0.3978776
则 0.16063589 0.95009995 0.2072853 -0.33138925 -0.13899335 -0.37393618 -0.25102428 0.07040703 -0.19902669 0.6370249 -0.17764987 0.4618357 -0.17403713 0.0794262 -0.29196528 0.18463673 0.076251544 0.38083193 -0.2526288 -0.019367145 0.11516269 -0.13759525 0.4874305 0.37106708 0.21257958 -0.17488077 -0.020324234 0.077745974 0.054107 0.6968874 0.069511995 -0.2403296 -0.9626265 0.33968058 -0.5179687 0.16993128 0.12542456 -0.26566553 0.17950945 -0.30505723 0.33082142 -0.19814739 -0.17717063 -0.077642545 0.2073384 -0.21586342 -0.1070235 0.0908445 -0.11116333 -0.15233326 0.6640103 0.72839135 -0.3217351 0.19354363 0.07801998 -0.24250709 -0.3062 0.413321 -0.1475099 -0.41770983 -0.6154649 -0.09744563 0.046250936 -0.124413766 -0.16428773 -0.4659834 0.3187645 0.55657387 -0.07947622 0.43374518 1.6819686e-05 0.089496486 -0.016317721 0.2683537 -0.28116748 0.11145092 -0.39004195 -0.021625055 0.03694247 -0.4336534 -0.13377425 0.2184186 0.22856238 -0.18246259 0.26447335 -0.3973284 0.24061288 -0.405418 -0.256138 0.5595941 0.06032195 0.43198645 -0.030076254 0.6257615 -0.78708893 0.00089926505 -0.27160236 0.18835321 -0.25392854 -0.120745726
！ -0.25163126 0.40631628 -0.2157878 0.0037885918 0.067257345 -0.2999523 -0.03072546 -0.24074075 -0.08459285 0.24082378 0.4844908 0.3091993 -0.5354576 0.22823843 -0.16929112 0.3257103 0.38100904 0.15165754 -0.38702598 0.18935002 0.102481954 -0.6566154 0.3125344 0.5458153 -0.30294812 -0.48282564 0.2581583 -0.033933293 -0.1415681 0.4108088 0.11653685 -0.1026952 0.0645714 0.24698867 0.05026395 0.08065756 0.14184317 -0.5243797 0.14873363 0.39319327 -0.4588625 -0.0384728 0.35554254 0.08768126 -0.07376218 0.20671698 -0.021012187 -0.27943048 0.43795967 0.16163905 -0.6268986 -0.68905705 0.14226599 -0.06191451 0.36504117 0.049914185 0.38540432 -0.02305783 -0.87447274 0.3897348 0.4981635 0.19872418 -0.025561348 0.26936582 0.21968657 -0.11950025 0.5383384 0.29797778 -0.057979707 -0.050688397 -0.14807063 -0.5565103 -0.46876135 -0.26457575 0.14228283 0.37939218 -0.14718442 -0.6444169 -0.09575583 -0.24589178 0.16179822 0.22924586 0.48004133 -0.14017358 -0.19222598 0.36191952 0.34530553 0.07056289 0.19075084 0.14166929 -0.24613671 -0.36940816 0.19402134 0.23437919 0.0123037025 -0.257512 -0.21202889 -0.13837068 0.07767569 -0.035348043
问 -0.3418573 0.24091934 0.32487926 0.11067032 -0.4649749 -0.7962374 -0.12663688 0.03845497 -0.012866863 0.24656186 0.06699313 -0.5893868 -0.17021777 -0.17085464 -0.5192559 -0.43838513 -0.33806542 0.0896583 -0.2296851 0.35104805 -0.17558953 0.7678615 -0.065070696 0.21624584 1.1390119 0.1251675 -0.5923105 0.5170204 -0.070478976 -0.056978185 -0.031791985 -0.3552772 0.15665819 0.044474788 0.6874074 0.0572935 -0.2074968 0.14765885 0.14091907 0.21746008 0.2105875 0.22188686 -0.23635103 -0.034017123 0.3242868 -0.5276894 0.36228383 -0.7847269 -0.13345289 0.12596986 -0.073393874 0.349469 0.12405484 -0.14855328 -0.3983941 0.08482681 0.04848915 0.2722107 -0.039632235 -0.09909076 -0.06471759 0.28184906 -0.64576757 -0.18295857 0.29427183 0.045703568 0.45411944 0.021805465 -0.18535143 -0.68346953 0.18504669 -0.31968507 -0.3415403 0.23751974 -0.079241924 0.111587174 0.063839674 -0.35433942 -0.20398904 0.022329208 0.30627117 -0.037458636 0.055899583 0.042074442 0.030438876 -0.27111214 0.47290915 -0.07212169 -0.5643784 -0.27821052 -0.13445695 -0.46349797 0.84758866 0.2433681 -0.34452784 0.09772296 -0.057123788 0.039907575 -0.66871583 0.36258304
知 -0.4319032 -0.1423242 -0.35654786 -0.04978705 -0.108266 -0.14227119 0.26786053 -0.05153445 0.21335767 -0.30990347 0.013390041 0.54119194 -0.24490836 -0.6105554 0.3620656 0.31616345 -0.31594723 0.12738614 -0.5682167 0.17585966 0.42978072 0.55117214 -0.039486423 0.5913777 -0.039021697 0.18504676 -0.4710903 0.716598 -0.19817497 0.0501411 -0.023059223 0.0034390427 0.29677126 0.76049143 0.3369605 -0.13444343 -0.14080827 -0.21822424 -0.51858693 0.16579153 -0.32360005 0.006422211 -0.2195454 0.082905576 0.37009576 0.3526826 -0.08040505 -0.30616248 0.28023937 -0.052341092 -0.27143508 -0.39262965 -0.03186352 0.123344876 -0.24603596 0.066604815 0.009537196 0.28247073 -0.038684744 -0.049161583 -0.28814164 0.22164728 -0.4108526 0.42934972 -0.4313209 -0.012182115 0.22354023 -0.37597957 0.7254841 0.28279957 -0.40209138 0.21095642 0.27941874 -0.6994144 -0.26503044 0.28288186 -0.5280723 -0.1466201 -0.45755547 -0.11185935 -0.23191527 0.007476096 0.1495342 -0.64892584 -0.1377329 0.43967697 -0.14044857 -0.14885055 0.2043575 0.39973634 0.6366983 -0.100912124 -0.11124138 0.019679284 -0.40641397 0.23857874 0.09336052 -0.22924417 -0.32426655 -0.4128467
何 -0.22844025 0.46910417 -0.64442366 0.01652712 0.4557189 -0.5160519 -0.3626723 0.58251673 -0.24417923 0.33746475 -0.07587749 0.024603538 -0.35195857 -0.08367989 -0.13162614 0.30650136 -0.16752855 0.016958874 -0.29223576 -0.02912978 0.6081628 0.40669617 -0.41111848 -0.005963005 0.18858652 -0.14829877 -0.37365627 0.06759436 -0.16040686 -0.0011234484 0.06476866 -0.7897728 -0.1195997 -0.29119918 -0.42827475 0.12212796 -0.8963782 0.04190858 -0.5770852 -0.13956995 0.6346826 0.2611821 0.036686473 0.314547 -0.26871175 0.0074737817 0.073568076 -0.37808967 0.79890126 -0.19767408 -0.18390775 0.27903157 -0.008159694 0.26592714 -0.13298775 -0.000629292 -0.25590622 -0.68830556 -0.105520755 -0.1478495 0.54670364 -0.439564 -0.41388935 -0.466333 -0.22049819 0.059807472 0.19196972 -0.5260586 0.13399106 -0.007422176 0.6083639 -0.25443494 0.051188882 0.07499817 0.5269542 0.05356413 0.1639991 0.3143121 -0.11967224 0.1929948 0.34334695 -0.18231907 -0.855324 -0.04719762 -0.12490141 0.13788459 -0.3184658 -0.31064653 0.30629104 -0.22441883 0.29522324 -0.28599152 -0.25371656 -0.1567248 -0.43802515 -0.14511704 -0.33074272 -0.06277822 0.28826106 0.4627656
吾 -0.17415413 0.49410066 -0.099884406 -0.07852242 -0.011661751 -0.31770018 0.24395989 0.015452274 -0.48779756 0.58250195 -0.17085105 -0.24419945 -0.15466763 0.48659614 -0.35965618 -0.22469422 -0.5227959 0.4327957 0.11584585 0.04692998 0.41165528 -0.46377075 0.2514696 -0.18853073 -0.5570986 0.18715398 -0.20686613 0.059172075 0.048799176 0.06889606 -0.19549648 -0.36425042 -0.07565484 0.011568052 0.29640684 -0.16287716 -0.17810751 0.090212606 0.32035613 0.2978395 0.21904655 -0.2724035 -0.12329129 -0.13825762 -0.09503953 0.4713411 0.48310927 -0.158895 -0.35149014 -0.04321034 0.09586101 -0.148635 0.012995707 -0.20416537 0.42598367 0.79853666 0.09175269 -0.43102443 -0.16174857 -0.2873173 -0.21251753 0.0012060787 0.13238984 -0.31652185 -0.15882173 0.033929933 0.28137597 0.055728156 -0.63636535 0.3841035 -0.4823101 -0.026371004 -0.20356414 0.30402014 0.31654748 0.584728 -0.5055562 -0.31937408 -0.48929614 -0.5159086 -0.061895095 0.33212957 -0.5847961 0.016860597 0.032726914 0.18125556 0.16463098 -0.027419282 -0.10894338 0.5561105 0.18811838 0.22988077 -0.31071138 -0.20920159 0.23605578 0.0075893085 0.029946556 -0.09654617 0.055217445 0.001513771
仁 0.28247714 0.24774662 0.51285726 -0.0059179263 0.111513436 -0.48847994 -0.2558618 -0.096758485 -0.051919885 -0.31777686 0.11479806 0.36752 -0.07447039 -0.31499475 0.24692054 0.057799384 0.59498805 0.1306656 0.018852688 -0.4233739 -0.54225457 0.341679 -0.46276557 0.12784782 0.4416216 -0.1541238 -0.46059248 -0.42611003 -0.15092784 -0.45404512 0.37937182 -0.4315186 -0.38400924 0.7224786 0.41243425 -0.2929276 -0.051834486 0.011913633 0.20694064 -0.42410153 -0.66572124 0.17150937 -0.24392155 0.09538356 -0.14148544 0.0016612929 0.07127281 -0.06520814 -0.16924801 -0.29769444 -0.49842408 -0.22449365 -0.46425802 0.30911055 -0.5084243 -0.15864907 0.17265517 0.032420456 -0.15449706 0.07660894 -0.25892976 -0.008963619 0.37623525 -0.24888115 -0.42311668 0.42540216 0.20955236 0.48763335 -0.4041734 -0.15876488 -0.39691594 -0.020724654 0.055105444 0.18967682 0.10704751 0.14248507 0.038836967 -0.046560515 -0.11095091 0.018187664 0.65942913 -0.022846311 -0.4880174 -0.42039403 -0.49863333 0.38478515 0.115220845 0.29459125 -0.16302925 0.16035344 -0.2340675 -0.3007833 0.16138752 0.13687125 0.25729898 0.049488053 0.27521726 -0.71337175 -0.0047622756 0.14435163
夫 -0.008825889 0.38164455 -0.5371561 0.2367219 -0.18991652 -0.17912005 0.08589385 0.17360325 -0.32512367 0.056725934 0.15855598 0.11215881 0.43012357 0.05276006 -0.4571849 0.11862067 -0.26785675 -0.43353182 -0.07529784 -0.27898493 0.27202368 -0.3056121 -0.117394365 -0.06507448 0.10670025 -0.17594498 0.05519256 0.46407196 0.20353626 -0.03925866 0.4651169 -0.004265045 -0.19375864 0.7026265 0.20291327 -0.13669683 -0.28912395 0.8610694 -0.23590323 0.87662876 0.26429826 0.06714914 0.059889276 -0.07751897 -0.15894486 0.7983886 -0.02134063 -0.016427787 0.57730436 -0.13760105 -0.27817923 -0.14084898 -0.17214918 0.025120607 -0.09627501 0.2781635 0.179303 -0.42437577 -0.4430896 -0.2563302 -0.6099613 -0.042814553 -0.054284535 0.04775092 -0.39685932 -0.4406363 0.12615654 0.15784651 -0.2238535 -0.057305064 -0.2908883 0.77027154 0.09541901 -0.3992318 0.42872882 0.17202966 -0.266743 -0.035432372 -0.17403968 -0.5208995 0.07526518 0.24681793 0.38192904 -0.5107064 0.100764476 -0.31800878 0.76653457 0.25865084 -0.17526096 -0.06221845 -0.30926907 -0.22548412 0.2209132 -0.5980544 0.34830973 0.08215725 -0.33373383 0.6529797 0.01082254 -0.036954395
、 -0.43787348 0.43367645 0.057601474 -0.04590876 -0.030980328 -0.25067768 -0.12593181 0.6401285 -0.042430125 0.21037747 0.5242073 0.22836426 0.02522106 -0.16478646 -0.032245453 -0.22396925 0.2634004 0.103935614 0.43962732 0.21501647 -1.1403127 -0.19676557 0.008889668 -0.51163477 0.5374504 0.20234975 -0.5267792 -0.15715256 0.07924003 -0.6135495 -0.3401261 -0.59869283 -0.13764638 -0.17788793 0.5595242 0.2521438 0.293081 -0.0072368765 0.16504815 0.20503707 0.26262835 0.009248204 0.26922187 0.50490165 0.4168175 0.26711363 -0.052774943 -0.32115605 0.19542426 -0.2297081 0.012423808 -0.06879303 0.23756428 0.15939222 0.73194474 0.31482324 -0.16948612 -0.18109265 -0.19609095 -0.027635764 0.5373364 0.3362635 -0.67412716 0.088462085 -0.20824938 -0.87451935 0.5527001 0.115059815 0.28969952 -0.265452 0.2686991 -0.56564915 -0.5496286 -0.06641526 -0.13576454 0.2491106 0.17505607 -0.46069935 0.3259337 -0.4137529 -0.043319967 0.22400667 0.033747546 0.22633892 -0.17747436 0.7809332 -0.29838973 -0.80889416 0.05357236 0.46063334 -0.18605447 -0.22630669 0.54475826 -0.4866411 -0.5363518 0.05426973 -0.015560406 0.7266203 0.07372494 0.2068553
道 -0.4154552 -0.17623 -0.086810686 -0.5630986 -0.25120297 -0.18631151 -0.17898034 -0.27576625 -0.13627215 0.58345187 0.06409435 0.47217572 -0.2343882 0.50420016 -0.07926358 -0.064442076 -0.42088977 -0.043496206 -0.16347428 -0.24349749 -0.044413313 -0.25965327 -0.44038507 -0.2725348 0.11260404 -0.2784405 -0.6053398 0.09806746 0.015674366 0.21163313 -0.13077302 -0.09077435 -0.05915618 0.179364 -0.19151743 0.30097204 0.17022078 0.3744482 -0.25707787 -0.07191221 -0.6011446 -0.077315345 -0.1793308 -0.33839232 -0.36590004 -0.2890993 -0.23101404 0.16020794 -0.3746444 -0.30558446 0.35795942 0.18580505 -0.08035903 0.4256669 -0.42292503 -0.087108724 -0.46119967 0.025514448 0.02749762 -0.1909216 -0.48629725 -0.3443593 0.039685182 0.013303123 0.24081711 0.43383992 0.2863216 0.09801281 -0.1408537 0.07169251 -0.37947193 -0.42550948 0.23056835 -0.14572427 0.5769434 0.45431235 0.88148355 -0.46122107 -0.10838561 -0.2377563 0.22750439 -0.102451876 0.15904431 -0.09344254 -0.50452596 0.15893766 0.39294633 -0.12576611 0.016438995 -0.5844212 0.13135833 -0.57292145 -0.00028459635 0.05594061 -0.038370166 0.57120204 0.040451344 0.1502614 -0.2880275 -0.6299662
焉 0.27282748 0.1323913 0.6402753 -0.3571006 -0.28125215 -0.045842726 -0.52775055 -0.07663203 -0.1825312 0.084162526 -0.35238773 0.45021453 -0.6182107 0.14152466 0.6379659 0.3771248 -0.4158313 -0.07271131 0.31590325 -0.44601142 0.46218893 0.27724203 -0.14515033 -0.40414882 0.1506211 -0.27606753 -0.11110568 0.37637532 0.05484614 -0.3508816 0.79871 -0.4820396 -0.3123235 0.35112363 -0.24417305 -0.46897855 0.4483372 -0.0077607064 -0.31697673 0.23495114 1.1971809 -0.2603568 -0.6488881 -0.2126467 0.16602427 -0.2932149 -0.5206958 -0.105049 -0.15219581 -0.012195867 -1.1147933 -0.1334255 0.3634808 0.42735854 -0.4023737 0.7368819 0.3368674 -0.38629016 -0.38304597 0.17650722 0.32992703 0.08682488 0.09169239 0.059493262 -0.2900951 -0.20509835 -0.078072935 0.21183471 0.2596159 -0.3546586 -0.18294673 -0.28624678 -0.052510913 0.28078258 -0.44493717 -0.14352262 0.0014969176 0.18273833 0.08180136 0.015242364 -0.16473436 -0.12989078 -0.28956974 -0.06374874 -0.22647144 -0.454578 -0.14988658 -0.25380832 -0.54133886 0.41734603 0.48556414 -0.3272111 0.07188313 -0.07741685 0.5167971 0.07115233 0.24144605 -0.023394829 -0.091438964 0.068764225
行 -0.14808477 -0.04652609 0.52912956 -0.05402271 0.3272924 -0.58630294 -0.31429327 0.0609052 0.34671915 0.047852024 0.5096222 -0.5187654 -0.24422917 -0.36267087 -0.02993264 0.9167226 0.36232087 0.475402 -0.7859742 -0.03699719 0.37474176 -0.557263 -0.10127657 -0.18452942 0.46514407 -0.25523964 -0.07341934 -0.32691926 0.08914933 0.5635591 -0.13401124 -0.30550307 -0.0064267567 -0.7201374 -0.21646255 0.5719134 -0.37038884 0.24956612 -0.26696238 0.47047585 0.3691309 -0.069220096 -0.32261467 0.118396185 0.10534212 0.24751545 -0.0123023875 -0.27267104 -0.34860793 0.18358146 -0.25342742 0.10345722 0.17597814 -0.44825667 -0.38543648 -0.28263095 -0.16843712 0.30514422 0.19717593 0.26932272 -0.26727518 -0.423064 -0.017176297 0.121911384 -0.22899199 0.23105142 0.615331 0.3329188 0.6142858 0.09449707 -0.3975117 -0.7569643 0.32022825 -0.15297727 -0.3280952 -0.31989032 0.26133287 -0.036475524 0.11969855 -0.20183812 -0.07490443 0.64463556 0.031029895 0.207025 0.32605976 -0.21674283 0.0019457488 -0.03266769 -0.09892959 -0.11404158 0.58381855 -0.45919764 0.498973 -0.35920495 0.2421639 -0.17064363 0.6982077 0.0468756 -0.01128333 -0.04845696
谓 0.011658596 0.41666296 -0.03489045 0.2974303 0.5984287 -0.48202208 0.12033254 0.5332929 0.33636883 0.64508784 -0.17984964 -0.1049048 -0.33335942 -0.2095402 0.6204822 -0.36283636 -0.22399057 -0.17213187 -0.13400388 0.46531892 0.20856337 -0.37173223 -0.12949671 0.59224963 0.29009962 0.58483344 -0.19861673 0.46699914 0.38829285 0.162114 -0.54272336 -0.7630462 -0.061530653 0.2392035 0.58346814 -0.31999543 -0.36149967 0.06770044 -0.54963046 1.1722263 0.10667197 -0.51026815 -0.18257299 0.15472144 0.23151031 -0.27798006 -0.09622277 0.10515889 0.41862786 0.22167961 -0.022421785 0.36491454 -0.15533796 0.53662527 -0.31623584 -0.2665146 0.27982214 0.005343157 -0.47303513 0.055233825 -0.11983455 -0.7804778 -0.006376918 -0.10870649 0.26759407 -0.3627349 0.19602071 0.33538273 -0.6303734 0.20115672 -0.73243576 -0.71965 0.5966048 -0.046291318 0.18702385 -0.21523224 0.42085198 0.13887294 0.059687953 0.24039859 -0.31948385 -0.35261133 0.18877472 -0.31713217 0.38167763 0.77125853 0.18835014 -0.16789038 0.104214884 0.55594933 -0.029323041 -0.14384402 -0.27485365 0.17763402 0.21624675 0.08656599 0.09373635 0.12485329 -0.3787227 0.8200645
必 -0.40134585 0.35670555 -0.8074523 0.52295506 -0.13401246 -0.3139708 -0.15321079 0.9602261 -0.1068722 -0.35320306 0.52688175 0.1199772 -0.3591014 0.41401064 0.58759 0.0039313156 -0.89828753 -0.15908733 0.1502768 0.20897114 -0.46078944 -0.05343776 0.1428653 0.015433071 0.13306187 0.2529984 -0.4121243 -0.5554436 0.09567028 0.5780987 -0.20686266 -0.19092362 -0.22151023 -0.26737204 0.19812964 0.6647208 0.4274815 -0.31360498 -0.16860387 0.06029131 1.0464253 -0.34012175 0.47664276 -0.22046982 -0.2628139 -0.108276755 0.097234756 -0.15278082 0.26181102 0.08791738 0.25413257 -0.23169164 -0.62651706 0.015677407 -0.7607298 -0.054864403 0.08788529 0.28873911 -0.042191852 0.107788175 -0.47401062 0.006570371 0.52318406 0.19309482 0.0906593 -0.1310518 0.105116785 -0.13008954 0.3399852 0.13773145 -0.570456 -0.14688571 -0.21782999 -0.05659232 -0.15625876 -0.082576185 0.0728986 -0.65730834 0.18876867 -0.0026552028 0.6511503 0.17370899 -0.11173927 -0.2784969 0.020922279 0.3375643 -0.23075113 0.26260236 -0.19519788 -0.21150091 0.41608053 0.26996484 -0.09394694 0.5061957 -0.0049490663 -0.035902433 0.26634732 -0.20993668 -0.5439675 0.054426994
礼 -0.37849203 -0.15241352 0.690781 -0.20536661 0.3666004 -0.21461485 0.002998236 -0.06150261 -0.21746482 0.2049871 -0.10648076 0.6982145 0.113276884 0.1534001 -0.06308098 0.27231312 0.029571483 -0.17710496 0.119493954 0.008734314 -0.45047602 0.3723673 0.16802573 0.64022917 -1.0154835 -0.35024193 -0.29648256 0.0013466533 -0.055910524 -0.7442101 0.7804083 -0.6545941 -0.7321413 0.382586 0.3078779 -0.041907664 0.031625226 -0.10349081 -0.4378058 -0.22797514 -0.19651583 -0.27263692 -0.09968778 -0.29114175 0.26398242 0.4646028 0.31816146 -0.025238153 -0.56087095 -0.37659225 0.41528502 0.6147118 0.30693963 0.17513904 0.6781137 -0.23954634 -0.42106602 -0.67250156 -0.41573378 0.48962182 -0.001309704 -0.27150193 -0.107748136 -0.32751063 -0.15019186 -0.06667622 0.15119874 -0.5129071 0.017575553 0.73525655 -0.03314823 -0.06512381 0.5562881 0.49849868 -0.058611687 0.49666184 -0.35698044 -0.031995688 -0.08606326 0.42481628 0.004666133 0.15212455 -0.010587562 0.15950617 -0.09008666 -0.34724557 -0.025987767 -0.3412406 -0.5994253 -0.42930597 0.39405888 -0.048111677 -0.059990045 -0.04884216 -0.28626838 0.39692456 0.0018935985 0.18621911 -0.14130287 0.22847271
孔 0.343012 0.40816644 0.06443349 -0.068830706 -0.49152792 -0.1366554 0.118647635 0.27333638 -0.26851982 0.05367523 0.10316514 0.038137883 -0.5158595 -0.68751043 -0.5751436 -0.05062804 -0.43669125 -0.3611847 0.21475966 -0.29085112 -0.013355515 0.70050216 -0.7677952 0.6933557 0.09473231 0.03865687 -0.3232967 0.7835992 0.44913554 -0.110151395 -0.61355555 -0.42862105 0.16625327 -0.2432448 0.11608192 0.079716094 -0.7890414 -0.05145177 0.026361464 0.016627617 0.5803982 -0.31441298 0.12958348 0.23843846 0.3726545 0.1538619 -0.036099125 -0.054563783 -0.3947959 0.024395064 0.3597578 -0.022021417 0.48354885 0.13689205 -0.31106833 -0.17506452 0.8673342 -0.45998135 -0.04007437 -0.6390251 -0.3593904 0.05366158 -0.5196238 0.3430486 0.536791 0.19875926 0.18541062 0.47455496 -0.17594612 0.09094774 -0.9207814 0.41188625 -0.46877185 0.32058737 -0.21431701 -0.09829881 0.5077348 0.71995026 -0.3147896 0.53795177 0.092413686 -0.27416128 0.05865945 -0.018466882 -0.053334136 0.41971567 0.20509902 0.42110577 -0.49181584 -0.10253104 0.8037688 -0.32137364 -0.48205873 -0.19396724 0.2223562 -0.08495202 -0.42716026 0.443394 -0.34001026 -0.43429092
斯 0.38657638 0.8758072 0.21723661 0.3908006 0.6277604 0.17261446 0.15347916 0.087008335 0.076583564 -0.22487968 0.4550887 0.75682914 -0.17888087 -0.19393137 0.37161842 0.10255198 0.044863854 0.3432838 0.0036140042 0.8978983 0.16933443 -0.49043387 -0.054071836 -0.22875144 -0.12844938 -0.19570148 0.14128737 -0.30971795 -0.85672784 0.28683808 0.4778681 0.046390813 -0.23775598 0.033605102 -0.35924816 -0.27510875 0.19249229 0.75822484 0.28671736 0.3273061 -0.10923475 0.33366156 0.018066935 -0.14196673 -0.14463992 0.33404347 -0.27203336 -0.16653456 0.24957253 -0.015816007 -0.06304544 0.627746 -0.039313428 -0.17629069 -0.12650256 -0.06432688 0.13564217 -0.0012265788 -1.1282172 0.05555256 0.15871653 0.017096242 -0.17427649 0.5021733 -0.30410722 0.051884055 -0.005222993 0.31486705 0.30614978 -0.3121126 -0.39431754 0.4592335 -0.7244645 -0.56487614 -0.25812703 0.3901652 -0.3961062 1.0927726 0.17221767 0.5572766 0.12011635 0.5305764 -0.24234274 -0.4533296 -0.070691794 0.19795504 0.21342786 -0.1579599 0.105295464 -0.48807505 0.04232481 -0.9133116 0.30653802 0.16426222 0.13223852 0.62569565 0.5600357 -0.7424747 0.4442806 -0.2142686
三 -0.29637197 0.09056662 -0.4463502 0.13824448 0.14073351 -0.44298968 -0.3042779 -0.38794866 -0.2224877 0.28481647 0.21476594 0.021505741 -0.21117581 -0.119587116 -0.31393933 0.45297843 -0.43615866 -0.21583651 -0.20868964 -0.23850471 -0.19108088 0.63402224 -0.313043 0.29292354 0.31278616 0.42702773 -0.35564637 0.8401766 -0.27616885 -0.082117334 0.18607707 -0.678349 0.050443448 0.01369865 0.10929957 0.21595235 0.16249554 1.0810026 0.08798501 0.11332756 -0.40732688 0.21997902 0.14769953 0.12499523 0.03340273 0.039862987 0.46575886 -0.6065124 0.45558137 -0.17303608 -0.00839911 -0.5359187 -0.09607245 0.26059306 -0.030811336 0.15570703 -0.029491244 -0.7119039 -0.05877027 0.040189404 -0.053899903 0.8144249 -0.45119706 -0.6913419 0.4937882 -0.4440617 0.30343688 0.37752238 -0.4866157 1.2523803 -0.29773912 0.5483691 -0.4117516 0.029176475 0.21973626 0.4186564 0.18345824 0.5285595 -0.22987841 -0.47310424 -0.53054553 0.37242973 -0.005931425 0.13263638 0.00022662128 -0.30317983 -0.29118246 -0.025770321 0.104078375 -0.9894794 -0.20066373 -0.062804624 -0.5711607 0.55657864 -0.2719546 0.38028532 0.6992703 -0.38493738 0.27346256 0.7981444
能 0.10345705 0.48146117 0.08437823 -0.5963506 0.14856248 -0.37967768 -0.5117216 -0.27458403 -0.015958505 0.1020755 0.0023584776 0.5082714 -0.30333123 0.04434207 -0.41423243 0.81343836 -0.042691946 -0.21229556 -1.3213166 -0.2360046 -0.5200659 0.42415497 -0.697079 -0.16928388 -0.62261015 -0.547634 -0.002343505 -0.0941227 0.22106001 0.04863635 0.23256859 -0.15061598 -0.5694108 -0.16445662 0.92810404 -0.37609053 -0.41886994 0.10256724 0.11299034 0.36478674 -0.13466133 0.2789617 0.49266914 -0.9487938 -0.42561036 -0.26617655 -0.2751949 -0.18948862 -0.5737575 -0.016936645 -0.18216608 0.6078041 0.6549347 -0.024243021 0.42240542 -0.0017386824 0.1271749 0.8919784 -0.6475925 0.11115922 -0.1870637 -0.22599766 0.071698956 0.45444545 -0.40901774 -0.3694685 0.24831921 -0.25962692 0.38507658 -0.052223206 0.06797176 0.29267892 0.8846163 -0.07680565 0.14588238 -0.11300084 0.6440821 0.37989286 -0.44435927 0.42654365 0.28682017 -0.034082215 -0.060898583 0.4107229 -0.27637717 0.046125546 0.108709544 -0.3938704 -0.24911702 0.10033318 -0.19248159 -0.11363567 -0.41967538 0.013266011 0.15424733 0.019789457 0.12569007 -0.11904046 -0.14429076 -0.1320649
见 -0.1055253 -0.1513596 -0.09558398 -0.02829631 -0.46683767 -0.38822806 0.3546786 -0.032058526 -0.4277648 0.7590434 0.06899952 0.2108292 0.080706805 -0.42151335 -0.40936673 0.0947123 -0.28065166 0.18248634 -0.07298136 -0.24351062 -0.4107353 -0.50794005 0.44271916 0.022287572 -0.23949392 -0.91187817 -0.18562445 -0.5204893 0.16002262 -0.5779507 -0.8100544 -0.51856565 0.010458213 0.48659885 0.8995163 0.26165476 0.08729098 -0.030892879 0.04086178 0.28855425 0.7089835 0.42068994 -0.4107264 -0.08968534 0.46405074 -0.11745223 0.20403942 -0.23500112 0.059240624 -0.017757462 0.91403687 0.7497074 -0.043124173 0.49049616 -0.8340123 -0.63081706 -0.05671376 -0.10191341 -0.27740124 0.31454587 -0.6024417 -0.15700457 0.72345746 0.16573815 -0.11797128 0.7092398 0.5060056 0.050094366 0.18889432 -0.7781862 -0.5275062 1.1352617 -0.97737485 -0.44626263 -0.17905231 0.42467374 -0.08094401 -0.19990642 -0.22141771 0.0852139 0.44813627 -0.068041794 -0.4736544 0.25278258 -0.3472299 0.016502785 -0.020398524 -0.41458556 0.060780205 0.42219338 -0.027961876 -0.3107339 -0.23001115 0.39192292 0.785379 -0.11685695 -0.2643762 0.050041668 -0.013978634 -0.19714476
学 0.5444392 0.62559944 0.37077203 0.33393177 -0.17904194 -0.6252235 -0.024939876 -0.14928153 0.14966495 -0.07438444 0.2786101 0.39055845 0.02178122 -0.21680045 -0.11808085 0.38753524 -0.093261234 -0.21303734 0.1042115 0.084793136 0.27667385 0.2791363 0.24275218 0.64431965 -0.21367139 -0.003651584 -0.22601873 -0.15538597 0.031194722 -1.308232 -0.13895002 -0.3304548 -0.13148853 -0.21546887 0.5354191 0.5204677 -0.18979977 -0.5851357 0.03203064 0.2309244 -0.48986912 0.880407 -0.35708514 -0.49654448 -0.36172858 -0.7540206 0.1625488 -0.052135598 -0.1355577 -0.18043894 0.1504801 0.68887776 -0.10981654 0.08219155 0.55168426 -0.5470155 0.093520865 -0.17776294 -0.56791395 0.15326753 -0.121381715 -0.074319966 -0.39768335 0.16587844 0.060449187 0.44866452 -0.03014576 0.6783551 -0.15235633 -0.17292361 0.22345774 -0.08162806 -0.83923787 0.2649105 -0.26572746 0.042142637 0.22493944 0.1896141 -0.2473576 -0.86835706 -0.009075064 -0.054424968 -0.116981976 -0.25267974 -0.20732726 -0.0018474595 0.14061223 -0.21290874 -0.11410003 -0.8167399 0.05589384 0.1992145 -0.050078887 -0.68954563 0.26267034 0.07337321 0.3460429 -0.20653966 -0.1599997 -0.39819393
事 0.16750321 0.13416088 0.15968336 -0.48824924 0.13915822 -0.15849264 0.11014853 -1.0717348 -0.43547603 -0.056604464 0.7417393 0.15883082 0.03789756 -0.11460894 0.6067624 0.28831148 -0.22310238 0.19867091 0.29637948 -0.35469052 0.0029241333 -0.5367838 -0.036783386 0.032082647 0.018055707 -0.23298642 -0.2029921 0.051223047 -0.56607634 -0.80398303 0.12850983 -0.2973215 -0.26579988 -0.12197637 -0.005442411 0.21717528 0.07869375 0.7706022 0.40617725 0.585322 0.115781374 0.35529304 0.5595015 0.09699409 0.7259732 0.66939586 0.13711295 -0.24996786 -0.69539946 -0.26034066 0.49526954 0.26925698 0.32678175 0.22728139 -0.4076781 0.3394004 0.06638243 1.3796067 -0.571817 -0.36841398 -0.032163598 0.64981866 -0.15836269 -0.17665151 0.1423843 0.11145805 0.41500825 -0.6008967 -0.057417102 -0.15999642 -0.054000504 -0.7155293 -0.2652521 0.055126972 0.18995275 0.3849138 0.2490278 -0.20546514 -0.11346627 -0.16754033 -0.7144723 -0.31269568 0.18992163 0.04972382 0.41761038 -0.1006606 0.012758733 -0.4566809 -0.6588426 0.16573493 -0.032931246 0.039897826 0.0872076 -0.15711632 0.0024260213 0.12525028 -0.0024482305 -0.37356952 -0.22954655 0.35515198
是 0.25833127 0.5464988 -0.28948155 -0.030266283 0.033133432 -0.004638402 0.8193656 -0.29249766 0.27046797 0.29303533 0.21326698 0.18975356 -0.17368276 -0.841725 0.0075317086 0.82806545 -0.25076422 0.20050332 -0.6315877 -0.073131494 0.0016232678 0.22690389 -0.055096854 0.57243246 0.86937404 -0.56188685 -0.059820868 0.00017219083 -0.3467118 0.06483205 0.11211367 -0.022072963 0.10448081 -0.3466309 0.07936598 0.16431811 -1.1977332 0.1088993 0.0325257 -0.44495705 0.50483584 -0.945222 -0.13213679 -0.37240463 -0.5269974 0.24557468 -0.05840394 -0.4401442 0.1416474 0.40861684 0.36813158 -0.021193782 0.3877977 -0.026098486 -0.26902965 0.079948336 0.30979595 -0.031728365 0.56489295 -0.12484794 -0.020170124 0.5511377 0.45887813 -0.6614666 -0.40845624 -0.43740574 0.21493688 -0.16647509 0.18925695 0.04325257 0.26020873 -0.4541594 0.02156066 -0.26673532 -0.19820043 -0.19409278 -0.8934519 -0.15265732 -0.25052243 0.2952918 0.1843712 -0.03516111 0.15694402 -0.6132911 0.4268802 0.23429322 0.5037209 0.35551178 0.083532944 -0.57318336 -0.57155985 -0.30207488 0.20149718 0.22840825 -0.54708916 -0.49790233 -0.033957634 -0.041805353 -0.33396062 -0.25308764
哉 0.26093036 0.3674986 -0.57646936 -0.07467911 0.05520802 -0.17720431 0.28077966 -0.16096576 -0.3975915 -0.4846688 0.29944268 0.13336115 -0.5315578 0.12919867 -0.24830543 0.027296735 0.034090962 0.06013986 0.35947993 0.90147275 0.25839046 -0.7274333 -0.6993808 0.18991174 0.8814212 -0.6088831 -0.4367395 -0.118676625 0.28682068 0.17842732 -0.33757275 -0.4047969 -0.18072148 0.28550664 0.41969365 -0.7850154 0.21867563 0.23609647 0.056497205 0.5277157 0.13526511 0.10955275 -0.5937132 0.24633487 -0.3706047 0.36330396 -0.07000211 -0.4402278 -0.05310529 -0.057574075 0.49928305 -0.11758962 0.15212196 -0.16688827 0.36786276 -0.22697963 -0.098058194 0.29861185 -0.8087479 -0.12920134 0.72206867 -0.030745551 -0.20365025 0.19195306 0.90679455 -0.3391663 0.4937324 -0.020884046 0.08666553 -0.19900183 0.82280976 -0.119348995 0.08728 -0.33107716 0.07376092 0.28060716 -0.35754034 -0.60062486 -0.09081874 -0.009170795 0.17503203 0.16819459 0.26086116 0.13002808 0.16388904 0.69257605 -0.13601853 0.15460305 -0.42531982 -0.24147967 -0.16237465 -0.17397708 0.3196633 -0.20819259 -0.38831303 -0.3838198 0.06227209 0.103765294 0.037028298 -0.5971835
闻 -0.21423538 -0.1531438 -0.07342429 0.08086164 -0.774258 -0.24576627 0.22326294 0.95522 -0.5921484 0.1356595 -0.12375247 0.05271796 0.27079168 -0.38002846 0.12668546 0.54419243 -0.41238207 -0.38742718 0.050221756 -0.1336055 0.11554433 0.6738655 0.12232429 0.9474601 0.025673352 -0.14793135 -0.20044366 -0.4830216 0.093976185 0.1469643 0.1608191 -0.3273384 0.120822065 -0.007874726 0.39414883 -0.06678074 -0.10225204 0.4512276 -0.3985721 0.2867276 -0.08759659 0.00096178753 -0.01904373 -0.095580496 -0.27817753 -0.094391376 0.23802805 -0.098012045 0.25666574 -0.61887383 0.018110396 -0.10776938 0.29220927 -0.28405467 -0.33440018 0.107247874 0.2732926 0.40534797 -0.4209328 -0.17257749 -0.2433108 0.15602745 0.5399435 -0.31249288 -0.6844113 -0.5265092 0.088232905 0.28610823 -0.18782051 0.057285283 0.21570154 -0.2841277 0.008881629 -0.23822741 0.2645795 -0.23595913 -0.08298437 0.55385846 0.06989275 -0.5129938 -0.44332483 -0.3683787 -0.75010115 0.59183985 -0.50892526 0.25387993 0.17563483 -0.40794525 -0.03655926 -0.7328929 -0.6898026 -0.4550599 0.8166221 -0.19917592 -0.22540511 0.96344316 0.24896045 -0.47814834 -0.3902189 -0.6748622
未 -0.26542237 -0.03252834 0.1365964 0.018043347 -0.78198427 0.0056002224 0.2067405 -0.21299703 -0.38976285 0.70641565 -0.17145182 0.4406797 -0.015520579 -1.0208306 -0.09817238 0.088555045 -0.3192471 -0.18661675 -0.17233302 0.09472171 -0.27570125 -0.8120771 -0.21669284 0.0020909016 -0.17951179 0.14459093 -0.25073984 0.14235301 -0.641248 0.23495696 -0.06605863 -0.1648605 -0.07892029 0.47452524 0.19389805 0.45091745 -0.15636194 0.17160827 -0.47230598 1.0327283 0.734875 -0.28061447 -0.49136615 -0.13953972 -0.20633747 -0.14362839 0.019351289 -0.17721146 -0.25201494 0.061677564 -0.025326084 -0.9372597 -0.24060802 0.08882575 -0.4952572 0.04467903 0.18270355 0.9494705 -0.06431068 -0.09591229 -0.25641343 -0.26390052 0.45826486 0.23135366 0.008420508 -0.17780891 0.16008903 1.0393182 -0.48244742 0.36932617 -0.14364669 -0.38743246 -0.30320016 0.43178025 -0.08071399 -0.002779081 -0.24688713 -0.19288665 -0.30503714 0.25038663 -0.052198246 0.12875198 -0.20172119 -0.12806413 0.29109606 0.50762594 0.09600148 0.03115391 0.09668327 -0.7127103 0.21052945 -0.3215695 -0.78059185 0.27460912 0.58959633 0.48588076 -0.31459853 0.23789999 -0.28347135 -0.4479422
公 -0.3661391 0.28626087 -0.30928555 -0.6492467 -0.38089475 -0.58519185 0.55369705 1.2240907 0.18341944 -0.0724206 0.38075534 0.25518602 -0.24796389 0.5632311 0.114934444 -0.44291446 -0.80707484 0.021366436 0.28629127 -0.12777591 -0.309628 0.35140303 -0.07038947 -0.23538686 -0.035653204 0.21813709 -0.06644343 0.99356544 -0.012336052 -0.5509413 0.13550007 -0.15407996 -0.24251975 -0.4244464 -0.074192174 0.12607647 0.10931599 -0.116074026 0.100005664 0.024854105 -0.4609284 0.10074476 0.29876328 -0.27557936 -0.0726396 0.10240653 -0.09129524 -0.5279004 -0.5081661 -0.3245774 -0.28500125 0.32972032 0.054117013 -0.26113886 -0.55188584 0.42892095 0.9183576 -0.13607462 -0.052956525 -0.13950539 0.30243996 0.25465697 -0.60061693 -0.7334852 0.23133855 0.871724 0.36788768 0.27388513 0.52810735 -0.147221 -0.26475975 -0.64482784 0.025256366 0.13578242 0.25875896 0.048165962 -0.38169113 -0.12059796 -0.30943576 0.3239079 -0.13472289 0.3045267 -0.19739312 0.6366197 -0.25519976 0.45152402 0.4841624 0.34079129 0.6156903 0.44013217 0.32685938 -0.47077242 0.3559347 -0.2825054 0.3339965 -0.55011296 0.05723561 0.1670506 -0.07151925 -0.5393018
好 0.30658004 0.3729203 -0.097525746 -0.1916945 -0.46320736 -0.1417453 0.0041462164 -0.359014 -0.052900355 -0.23951289 -0.043981172 0.7620518 -0.22165513 -0.0028668446 -0.3736055 0.75924677 -0.6584505 -0.2500671 0.49497062 0.6852963 -0.072076306 0.1719212 -0.1412432 -0.14718303 -0.102895804 0.33537865 -0.17421842 0.020496313 0.21098931 0.42555723 -0.16648693 0.021391753 -0.6340997 0.09480627 -0.93310183 0.5653233 0.078608 -0.42996356 -0.24403398 0.553479 0.70084983 -0.012701467 -0.19042207 -0.85739535 0.40253457 0.4795127 0.105643295 -0.2954918 -0.10274137 0.33195227 -0.3964984 0.78914 -0.27139142 0.5278513 0.7037576 -0.7582418 0.2680403 0.2953276 -0.21810187 -0.13623862 -1.0422615 -0.30664158 -0.63147146 0.3979623 -0.6051595 0.20941676 0.10348341 0.5744597 0.090855986 -0.099978834 -0.13268761 0.13967626 -0.17133792 -0.120521374 -0.34473082 -0.114197925 0.24868393 -0.42247882 0.1280107 -0.38335115 0.18205889 -0.13363276 -0.2720717 0.043753576 0.27619708 1.0038918 0.15998524 0.20649192 -0.15711153 0.38059586 0.37914488 -0.08939381 -0.061426558 -0.22331363 0.026843324 0.096035965 -0.53886205 -0.27280813 -0.25025648 -0.0078016943
我 0.487775 0.44276217 -0.21396276 0.16010508 -0.48106518 -0.6523466 -0.62118155 -0.06823777 -0.053911738 -0.16741247 0.056803256 0.5170781 -0.5110819 -0.6883212 0.04520378 0.13349791 -0.13986273 0.51320505 -0.22939834 -0.3863105 0.5843383 0.10019857 0.36624044 -0.02855581 0.45455235 0.2148825 -0.033937667 -0.22730865 0.44636023 -0.14366102 0.10818952 0.061336834 -0.022524156 0.5453251 0.09673939 0.31870568 -0.5710696 0.45480496 0.16466078 0.4109565 -0.021302545 0.06173382 0.18229738 -0.23885648 -0.21167213 0.1728943 0.14264648 -0.41963908 -0.17682344 -0.14018121 0.10763468 0.26740098 0.07953269 -0.32748014 0.11429818 -0.58498424 1.0747008 0.024461681 0.7301047 0.26576036 -0.32990304 -0.16215134 -0.17420128 0.26819664 -0.14640272 0.22938484 0.25297636 0.38111532 0.16890383 0.052615058 -0.010140011 -0.65545404 -0.29341465 -0.28040648 -1.023912 0.113270886 -0.4145696 0.7642823 0.01097382 -0.23984288 0.58920115 -0.5596433 0.09124248 0.2167468 -0.5451839 -0.11243893 0.37681806 -0.3103465 0.23988086 -0.0073920498 -0.63535833 -0.3720347 -0.24520418 1.0730634 -0.40347093 0.13505504 -0.18857607 -0.11343796 0.3397593 -0.4166181
路 -0.08419587 1.2502897 0.04673172 -0.31833896 -0.11720862 -0.091798045 0.27237695 0.17833328 0.09442958 -0.21748744 0.13998674 0.22673443 -0.38122675 -0.2540938 -0.23106855 -0.1713003 -0.45561445 0.53697747 -0.26140735 -0.27607203 -0.35753942 -0.98369914 -0.5030352 0.0748119 0.5363602 -0.03768636 -0.13052347 -0.31644732 -0.52361053 0.39173666 -0.26097333 -0.34236386 -0.25902274 0.23477118 0.43056792 -0.42057934 -0.055380784 -0.018773662 0.21331441 -0.5609298 0.4432231 -0.22925021 -0.23575668 -0.33491924 -0.050573714 0.030628517 -0.3011747 0.02570185 -0.9677229 -0.17015418 -0.19161433 -0.38810986 0.025465047 -0.9158702 -0.65245616 0.27254155 0.08565247 -0.3975306 -0.18905887 -0.13287295 -0.050708566 0.24341905 -0.51406 -0.3166852 -0.1584491 -0.13452446 0.22130707 -0.44244653 -0.27098185 0.54548216 -0.5548494 -0.4598773 0.27871943 0.25924116 0.22815408 -0.13178284 0.2954446 0.27759022 -0.0760569 0.18068576 -0.4839425 0.35815954 0.40336826 0.43614346 -0.24120781 0.0964312 0.4959914 0.048361078 -1.0096437 -0.5898723 -0.4988284 -0.22161502 0.05467491 -0.8977204 0.35262412 -0.14425479 -0.16295129 -0.063471965 0.15927501 0.1760476
在 0.14995098 0.0776824 -0.37747726 0.30278677 -0.062430672 0.000995599 0.3818536 -0.46587205 -0.7752788 -0.19838735 -0.3519097 -0.22267264 -0.3744726 0.053244166 0.53669465 0.22360174 -1.2807204 0.09912288 -0.033042923 -0.7941161 0.15806083 0.17095385 -0.2717033 -0.31060207 -0.67199713 -0.4502866 -0.53816295 0.33449268 -0.5232231 -1.0267135 0.056229226 -0.29170087 0.18131542 -0.5402026 0.20476577 1.2529279 0.2108454 1.1614009 -0.84484553 -0.10174249 -0.13800663 0.08644969 -0.18590339 -0.012815119 0.0946086 -0.10379762 0.33678573 -0.30493218 -0.08682986 -0.27675262 -0.020081168 0.51609594 -0.34199038 0.35902873 -0.5572315 -0.507586 -0.046133768 0.75140965 -0.030689504 -0.34923515 -0.47378677 0.45671803 0.20354278 0.9548853 -0.4073215 -0.31771004 0.665443 -0.6123676 -0.53767926 0.36015657 0.17519094 -0.14855173 -0.46348602 -0.04454288 -0.30199862 -0.79594505 -0.8143636 0.059636787 0.05894513 -0.6027309 -0.67148185 -0.30293578 -0.09232003 0.14793389 0.3824336 0.9001724 0.30917558 -0.39179906 0.25526503 -0.3074525 -0.19858652 -0.47558382 0.67803496 0.20377374 -0.21397509 -0.18519178 0.184434 -0.7047675 -0.19376332 0.16580294
已 0.046685476 0.28802595 -0.41618538 0.005381745 0.50375766 -0.71111524 0.05444767 -0.19027676 -0.26883942 -0.64151746 -0.2753067 -0.01346897 0.29680467 -0.06385502 0.3157167 0.39629743 -0.7295947 -0.051573113 -0.2036681 -0.8526275 -0.18811785 -0.6742611 0.38622805 0.427317 0.18799894 -0.2133705 -0.069430396 -0.18085343 -0.32191566 -0.15404955 -0.06452204 0.2671463 -0.21449988 -0.0717884 -0.0015987109 0.023376502 -0.0026725973 0.20198368 -0.19183804 0.40786773 -0.22513388 -9.7699696e-05 -0.07620511 -0.42850736 0.118419304 0.4112965 0.2710703 -0.2167775 0.23870416 -0.15915231 -0.11063257 -0.326999 -0.31617126 0.27921218 -0.5705943 -0.0650737 -0.23438746 -0.77162254 -0.10665671 -0.5050003 -0.39654577 -0.079331785 0.022729691 -0.20446773 -0.35093027 0.0053868564 0.08254056 1.1760746 -0.5247971 -0.5559664 -0.79245734 -1.039353 -0.67956513 0.74633557 -0.18993515 -0.62882817 0.0071117384 0.27236596 0.37187055 0.23459609 0.42321637 -0.23578447 -0.2813154 -0.2740643 0.77053255 0.57887733 0.32040867 -0.44102523 -0.5463231 0.5143995 0.35269895 -0.48436242 0.5329034 0.048885196 0.8916529 -0.0063588433 0.07580547 0.002901785 -0.47069663 -0.1486602
得 -0.2114711 0.21434067 0.3353745 0.6413666 -0.15023205 -0.2877876 0.21438885 0.35547605 -0.53367805 0.15812281 0.39923662 -0.06999933 -0.122316726 0.20448053 -0.09312392 0.7988203 0.0025108648 -0.6297428 0.15530126 0.10205877 -0.2645556 -0.15242927 -0.20664123 -0.07071766 -0.06356854 -0.6691035 -0.038204145 -0.3606338 0.48548466 0.33602208 -0.060663685 -0.36430955 0.0048020678 -0.29368973 -0.45262024 -0.021990666 0.19999014 -0.36438787 -0.2452897 0.5943377 0.66045135 0.08545262 -0.123534724 0.055203732 0.07192506 0.29402512 0.20166613 -0.024754208 -0.40668067 -0.388227 0.27806148 -0.19570449 0.28808665 -0.5879401 -0.09557353 -0.66905856 -0.065401234 0.08960549 -0.08914916 -0.15552582 -0.37212417 0.12276944 0.6374678 -0.9049281 -0.47808665 -0.18785816 0.24647695 -0.570321 -0.2645248 0.20792682 -0.46946505 -0.37444693 -0.38798478 -0.45975265 -0.67740834 0.1670812 -0.38256088 -0.20217864 -0.040182564 0.14549652 0.30927274 0.09439935 0.12675264 -1.0877309 0.12894687 -0.022774797 -0.0098069245 -0.27175543 0.08481974 0.21268728 -0.21396573 0.12642156 -0.21430129 -0.30845925 0.24793603 0.40626308 0.064878866 0.11548091 0.18282601 0.5316279
所 -0.20592205 0.46668395 -0.4171357 0.03407392 0.31249544 0.1810171 -0.0033654307 -0.14669867 -0.26793814 -0.6006126 0.8391183 0.42349353 0.03307464 -0.29958698 0.8329884 0.33070332 -0.15112622 0.012048194 -0.17551623 -0.1574975 0.58050644 -0.15496716 0.07301204 0.13570815 -0.62261933 0.16381335 -0.49974972 0.11274615 0.042863097 0.26090422 -0.08173011 -0.19608706 -0.26329106 0.492202 -0.329086 0.02975662 -0.62437654 0.6157164 -0.14634435 -0.3218807 0.13463606 -0.19720195 -0.49937674 -0.3732588 0.1720415 -0.09891537 0.16177493 -0.5705361 -0.41521713 -0.04153235 -0.2539435 -0.03777445 0.031161828 -0.043394696 -0.057135057 0.5598268 -0.5485788 -0.2369193 1.053635 -0.64772344 0.029866269 -0.2805157 0.36567527 0.4849374 0.35817045 -0.37707675 0.48050916 -0.30230027 -0.064084455 0.36792916 -0.32461694 0.45394728 -0.31739345 -0.38127422 -0.3560069 0.23013155 -0.15204957 0.05303937 0.20005177 -0.85950476 0.33397248 -0.36167237 -0.7793859 0.8960235 0.21367973 0.49006844 -0.13528539 -0.6194626 -0.4309131 -0.20459747 -0.115793675 -0.27677906 -0.685961 0.673392 -0.3136509 1.0032039 0.25264096 0.04828421 -0.24533334 0.030193128
民 -0.026804268 0.081987984 0.105683625 -0.22075334 -0.015762439 -0.52943206 -0.10238253 -0.52539545 -0.72336984 0.34556273 -0.06268713 0.013763487 -0.19022278 -0.1563594 -0.38482502 0.44688937 -0.01983039 -0.30066314 0.28600287 -0.16013694 0.305171 -0.08118132 0.51888436 0.29583767 -0.23004696 0.0064724195 0.027776087 0.2276239 1.1695758 0.38972342 -0.6250322 -0.4858166 -0.03161539 0.8169172 -0.5195694 0.1500066 0.46799016 0.36856753 -0.22628191 -0.37555984 -0.18198824 0.47448757 0.067989156 0.05238515 0.39338312 -0.4184132 0.3358081 -0.41181278 -1.0209793 -0.01374941 -0.2400476 -0.16673447 0.3570376 -0.34912905 -0.32051972 -0.2622064 -0.616111 -0.3754449 0.06323665 -0.041800663 0.07976107 0.09306696 0.48692644 0.37308383 0.5311981 -0.13041712 0.39304706 0.7055175 0.7422714 -0.23267391 -0.10784268 -0.54701096 -0.44421864 -0.61314034 0.36451343 0.48552215 0.18192226 -0.15277776 0.09072619 -0.20175187 -0.26178044 0.15429127 0.22584718 -0.86309665 0.14424106 0.8440115 -0.2471053 0.18060084 -0.29183653 0.5309074 0.57624876 0.1882855 0.87262213 -0.20211656 -0.37250865 -0.28010413 0.26386753 -0.28516793 -0.24012728 0.064069495
小 -0.108769424 0.20787562 -0.72793096 0.36442134 0.37559018 -0.3555773 0.3775346 0.068503775 0.036364604 -0.4962392 0.2927119 0.9185072 0.06582211 0.056185585 -0.31510022 0.46591124 -0.80006784 0.058162928 -0.19522692 0.35693586 0.1755256 -0.3626428 -0.32392275 0.65053475 -0.019123718 0.18660402 -0.030659493 -0.018346926 0.39732352 0.4281677 -0.6354459 -0.53907454 -0.30650765 0.4201947 -0.57920843 -0.13337222 0.15654239 -0.76055604 0.5759648 -0.18161646 -0.20995887 0.46328056 -0.6986619 -0.026814759 0.5643802 0.052689206 -0.024066761 0.0154447 -0.54605395 -0.22455311 -0.6651465 -0.14287451 0.17417592 0.57071716 0.05118842 0.27800804 0.33462065 1.0294651 -0.18864648 -0.033697415 0.4485522 -0.16257869 -0.24670522 -0.07287076 -0.37652737 0.2002026 0.4258067 0.4020815 0.18013833 0.18793286 0.16605055 1.0042126 0.4542211 -0.088548444 0.20646873 -0.29109764 0.5238733 -0.872025 0.3085736 -0.35642773 0.35569626 0.012607244 0.21648052 0.4625382 -0.41695562 0.5474909 0.15933457 -0.205285 -0.42646125 -0.781233 0.33325377 -0.18388383 0.48021793 -0.45284483 -0.20420054 0.08157361 -0.03179323 0.13573705 0.3280115 -1.0083213
天 -0.31829774 -0.14659241 -0.10597709 -0.51348466 0.44979778 -0.3738891 0.035144188 0.40733546 -0.33481905 0.3386703 0.19385356 0.42431703 -0.17916825 0.2136654 0.064077936 -0.040445276 0.7435565 0.34885904 -0.6777701 0.9694752 0.3255121 0.27851385 0.3305452 -0.12376908 0.13355784 -0.6255427 -0.09681994 -0.16582517 -0.18436788 0.017522372 -0.22412406 -0.14893773 -0.25938764 -0.2769528 0.47760147 -0.025072506 -0.19677028 0.47039002 -0.5628761 -0.08644743 -0.5872908 0.57207793 -0.56509787 -0.27713543 -0.044180702 0.5590416 0.119808145 -0.38710362 -0.2937007 -0.17470431 -0.4512568 0.3761665 -0.12279956 0.9023302 0.16086389 0.03155076 -0.3301322 -1.2500902 0.028943747 -0.058334053 0.07549585 -0.2110513 0.42224786 0.19998941 -0.30735108 0.33834994 0.33208746 0.7240919 0.19228767 -0.6357773 -0.0023993433 -0.15125574 0.23911275 -0.08258354 -0.3561645 -0.15581496 -0.19937456 -1.1773018 -0.23354854 -0.11114247 -0.59861743 -0.613362 0.6534606 0.048992045 -0.36502862 0.39874634 -0.41304952 -0.3032395 0.4652691 0.16743816 0.18225084 -0.328363 0.25200427 0.37711602 0.03265451 0.25986725 -0.11284498 0.61465937 -0.2698182 0.35355237
乐 -0.18078254 -0.17746715 -0.42041114 -0.49139118 0.29606777 -0.19746375 0.28481227 -0.36569348 0.20056796 0.07955385 0.6428992 0.68361557 0.020240564 -0.49904355 -0.083692126 0.4437402 0.02641786 -0.99663985 -0.71968716 0.21078394 -1.000731 -0.69641113 0.27888945 0.545821 0.29602093 -0.29618338 -0.30714366 -0.08101445 0.89204115 -0.43094903 0.4647025 -0.37286854 -0.02142779 0.34464708 0.016157709 0.40947056 -0.06256252 -0.4647722 -0.51444715 -0.5360237 1.0894744 -0.2547578 -0.1860431 0.07652167 -0.11071342 0.053005647 -0.041897446 -0.34935063 -0.13230228 0.20084113 0.6613109 0.5091551 0.35886574 0.25692624 0.42462435 0.06967968 -0.67359585 -1.0858897 -0.42416957 0.38611275 0.20671189 0.113279335 0.25693038 -0.26603925 0.14617288 -0.28071192 0.2744964 0.48033234 -0.23813652 1.2213962 -0.31661496 -0.36256057 0.27991703 -0.021089697 -0.13100016 -0.37432608 0.087021455 0.3596869 0.3751096 0.031513825 -0.02203076 -0.6886401 0.39225453 0.65430826 -1.0896753 0.24453564 0.18197732 0.39568156 0.41058794 -0.28663775 -0.14887235 -0.53427607 -0.5158558 -0.04444425 0.104122214 0.6459644 0.72996664 -0.07608896 0.22733618 0.0701986
邦 -0.2917208 0.23283754 -0.36378282 0.14708255 -0.55443233 -0.04347403 0.06671065 0.3423343 -0.31019825 -0.63385737 0.6869382 0.54691637 0.2773975 0.24771242 0.4106002 0.06595671 -0.20695084 -0.25740522 0.06937271 0.9374083 0.8850658 -0.34946167 -0.15416099 -0.42420825 -0.035262022 -0.22494194 -0.11614437 0.10595025 0.068673894 0.40996745 -0.21606076 -0.41756183 -0.5563517 -0.01605495 0.526363 0.3035163 -0.42828846 -0.0046978146 0.39402947 -0.47620466 -0.2375958 -0.35774446 -0.40431976 0.06895457 -0.54468715 0.31531268 0.6104027 0.057671178 -0.62129873 0.32738402 -0.5279651 -0.024136735 -0.11805118 0.0589778 -0.8500043 -0.116557494 0.8797047 0.22123256 -0.4327691 0.12087762 -0.0690044 0.051014178 0.81600475 -0.5619329 -0.4499053 -0.50282633 0.29629987 -0.068836115 -0.8306803 0.08603499 -0.21240798 -0.38032296 0.5661482 -0.11977886 -0.9356209 -0.3331838 0.6355172 0.41839045 -0.3531769 0.30340362 -0.6717003 0.03346003 -0.33380225 0.35744366 0.12897153 -0.39912075 -0.31977278 -0.27117136 -0.0052722297 -0.22218382 0.2820684 -0.45376548 -0.44624242 1.7282495 -0.18195106 0.047527485 -0.043275822 0.38760394 -0.30582634 0.24291615
亦 -1.1671455 0.35066932 -0.4683531 -0.23346448 0.11036056 0.011277283 0.06717708 -0.3502966 0.17162295 0.7817607 0.27935797 0.75253123 -0.5197813 0.8158573 -0.5815036 0.15391748 0.13516264 -0.6138223 -0.11847604 -0.7084604 -0.53416234 0.22662535 0.15952355 0.2299854 0.4762356 -0.055014756 -0.15938355 0.017753322 -0.21359268 0.4029709 0.14371523 -0.24161541 -0.44942215 0.91222644 0.08838732 -0.3023253 -0.31911123 0.22994702 0.011320734 -0.11960912 0.57266074 -0.18988755 -0.05789381 0.48751166 -0.30117026 0.37136853 0.19946678 0.25077817 0.7268949 -0.09041882 0.07311061 0.20724502 -0.34458143 0.47455385 0.09259049 -0.16573676 -0.19870332 0.0057323813 -0.504694 0.4584329 0.91973114 0.15860236 -0.19947131 -0.8372519 -0.18121107 0.03073794 0.09016727 1.131706 0.063890494 -0.12429992 -0.20584826 0.07520804 -0.6535554 -0.37187722 -0.5320603 0.13290495 -0.1293886 -0.22950603 0.4027734 0.0037768863 -0.3073097 -0.23493515 0.017037585 0.56862473 -0.12773463 -0.07605974 0.24521066 -0.06656195 -0.12242448 -0.17901786 -0.3105789 -0.17491122 -0.31993103 0.6651395 0.23054521 0.14344834 0.2829539 0.0502816 0.08318862 -0.62581426
使 -0.37078184 0.3902597 -0.049848318 -0.42821103 -0.52503884 -0.15989023 0.10350111 -0.16098386 -0.02573484 1.1689032 0.44677433 0.579704 -0.5570938 -1.6646142 0.3563281 0.28478307 -0.40739807 -0.007970724 0.19729231 -0.1480742 -1.1052531 -0.07362052 0.30908415 0.2752558 0.16605721 0.28750744 -0.20773703 -0.16626745 -0.010014592 0.054901153 -0.49488828 -0.5304972 -0.09523761 0.22345106 -0.19309062 0.12417511 -0.05003963 -0.4413096 -0.066470034 -0.03610895 0.40527084 -0.02803502 -0.26063672 0.20651752 -0.48246804 0.35577554 0.20069669 -0.23187284 -0.6051011 -0.008401786 -0.73505735 0.18194366 0.19854268 0.44701973 -0.43413395 -0.67420864 -1.412446 0.7976504 -0.1630282 0.122430496 -0.047271293 0.17959256 -0.23399046 -0.46113375 -0.008423701 0.1734129 0.18960874 -0.3069824 0.22935991 -0.1765853 -0.2615174 0.21687669 0.653828 -0.18636853 0.76475674 0.16928582 0.2826715 0.31090096 0.52530545 -0.26845235 0.2622222 0.027315583 0.19569334 -0.111118324 -0.5703787 0.8158844 -0.39124137 0.21578668 0.5185343 0.2146933 0.26160645 -0.31821623 0.11021284 0.0179533 0.08295259 -0.055406585 0.077265635 -0.25593635 -0.22140402 0.30505237
大 0.03556651 0.1468869 0.086329974 0.5284531 0.017050117 0.16108774 0.5119909 -0.28924388 -0.37437168 0.5778296 -0.16230805 0.25902498 -0.6405708 -0.66525126 0.288371 0.3887351 -0.37098908 -0.16987643 -0.47639567 0.8644609 0.12680921 -0.3634893 -0.040991016 0.12639625 0.097973004 -0.11992716 -0.27647763 -0.09398252 -0.31935707 0.6836682 0.6948538 -0.055095114 0.16182594 -0.0058942405 -0.3125028 0.5316539 0.5583645 -0.017369533 0.1163487 0.43664995 0.6797983 -0.121170215 -0.23713669 0.2951139 -0.42409578 0.13855349 -0.7252594 0.12263937 0.6143794 -0.09390394 -0.9564005 0.101725295 -0.079514585 0.4079707 -0.51508784 0.4523314 -0.97621316 -0.19476636 -0.548093 -0.1954374 -0.63939446 0.6068229 -0.31035826 -0.16673805 0.028133187 0.516023 0.30139858 0.089505725 0.09578112 -0.23600703 -0.64087147 -0.11645364 0.2619581 -0.4243357 0.14514431 -0.483716 -0.5120448 -0.30326015 0.28238794 0.65051645 0.43554452 0.92990446 0.45857924 0.575305 -0.1936662 -0.21930346 -0.32597175 -0.4848067 -0.3385967 0.73977244 -0.11556944 -0.35741955 -0.5038357 -0.82820976 -0.41765332 -0.4134961 0.4913304 0.5284268 -0.3572737 0.5667307
下 0.7119753 0.07302631 -0.16224001 -0.047939353 -0.007140313 -0.1821644 0.02934894 0.48885515 0.26866835 0.17454666 0.28877896 0.8922318 0.21208897 -0.1182994 -0.834069 0.2669676 -0.33910108 0.056403346 -0.1632686 -0.26779062 -1.145718 0.44923323 0.1942506 -0.1848008 -0.825504 -0.4464267 -0.035746884 -0.21395904 0.3636086 0.46143073 -0.8869316 -0.19248696 -0.46312422 -0.012432294 0.40057662 -0.11974982 -0.28474435 0.62977934 -0.5938673 -0.7404112 -0.1902095 -0.16030829 -0.6194289 0.1846704 -0.22757535 -0.5447133 0.09548588 0.33081812 0.3728549 -0.18759586 -0.58501613 0.23031726 0.4343081 -0.4323328 -0.61200505 -0.3472108 -0.31964335 -0.52852345 -0.21864842 0.36474073 0.46952376 0.21346086 -0.020408273 -0.19348386 0.24862957 -0.68196946 0.34212765 0.20160964 0.45856005 -1.0649769 -0.17252523 0.2003204 -0.0044256183 -0.5787332 0.2584142 0.12210347 -0.03816949 -0.5816168 -0.5358237 0.06872086 -0.21966095 -0.39716956 0.006790015 -0.41184542 0.33614132 0.48648933 0.4513012 0.05806676 -0.41661766 -0.21000662 0.4544278 0.19848296 -0.15151086 0.9917931 0.003475369 0.76321363 -0.21827112 0.29214144 -0.6393677 0.12935728
贡 0.2255582 0.8293797 0.0105548855 0.6608296 0.3866743 -0.60640675 0.20810418 -0.11280337 -0.25858605 -0.12087846 0.16512804 -0.10859469 -0.5845263 -0.5721848 0.34672922 0.090153 -0.6898205 0.9564612 0.25406545 -1.0096341 -0.18707979 -0.16040538 0.14524266 -0.4609597 0.28801498 -0.08832756 -0.33255503 -0.095733464 -0.49448806 -0.37577954 0.37664017 0.00024522608 0.051639557 0.42121735 0.19982177 -0.43069175 0.18222179 0.37305027 0.056053884 -0.13001908 -0.34640133 -0.0062068608 -0.17732987 -0.15299894 -0.31627366 -0.24322677 0.048521794 -0.16092168 -0.52543014 -0.17679773 0.25592247 0.00046343612 -0.43663704 0.51128566 0.4727302 0.40669197 0.13166715 0.0985193 -0.65385556 -0.4692948 0.19869368 0.0003359986 -0.43921754 0.018814933 0.24098688 -0.6489467 0.27268872 0.2372822 -0.59700125 -0.20215002 -1.0372219 0.4574477 -0.41802138 -0.52721035 -0.2764075 0.35491413 -0.051072177 0.3563931 0.12949134 0.7549736 0.41493565 0.4610431 -0.90674704 -0.11148707 -0.12617691 -0.38593367 0.5877602 0.07835398 -0.5130999 0.4557511 -0.044859894 -0.614626 -0.033640638 0.22884741 -0.8506911 -0.39495042 -0.45346358 0.33307365 0.22260453 0.32154787
欲 -0.031416435 0.11166423 0.24478544 0.2362984 -0.03865204 0.28718153 -0.032903485 0.45899597 -0.33834442 0.6353591 0.18994549 -0.0403334 -0.7170144 0.48186272 -0.07399299 0.2379855 0.3876299 -0.62743396 -0.5523482 0.1396829 0.073829964 -0.0010850178 -0.12764232 0.13067299 -0.062020727 -0.7533859 -0.5109831 -0.26215696 0.17646609 0.106582075 0.095260136 -0.7665714 -0.42339987 0.35120767 -0.07064313 0.5837473 -0.3438232 -0.44989285 -1.0634421 -0.13766496 -0.30956936 -0.29593486 0.5454541 -0.027714582 0.45642093 -0.28029782 0.4338627 -0.21306993 -0.6880361 -0.29907975 -0.9433194 -0.96561325 0.25407645 -0.1644132 -0.07738272 0.14865501 -0.3578759 0.063561104 -0.20749028 -0.15802333 -0.2627061 -0.19093402 -0.012544106 0.023421459 0.5607414 0.13416123 0.24971491 -0.35171562 -0.11306289 0.025708748 -0.49471864 0.7766571 -0.3942475 -0.022613676 0.54818857 -0.39150447 -0.06528678 1.1116192 -0.31859416 0.10918364 0.10086719 -0.03938309 -0.21221861 0.2980057 0.29506612 -0.5174822 -0.2891188 -0.3596033 0.40292573 0.37207472 -0.17967844 -0.054330666 0.41519043 0.3044035 0.68477327 -0.52287525 -0.089696705 0.51809394 -0.28168038 -0.46292174
诸 0.53894544 0.52386206 -0.7735757 -1.3039924 -0.28682217 -0.47806513 -0.3391127 0.3508583 -0.21172044 -0.18619636 0.36807674 0.10324536 -0.13884588 0.33533645 0.18640156 -0.14564946 -0.22897469 0.17835572 -0.36090606 -0.16410217 0.55193645 0.525885 0.54525256 -0.14546548 1.1014221 -0.56736624 -0.49930096 0.8130751 0.027139936 -0.09132111 0.94183105 -0.4345847 -0.060128134 -0.17609176 0.92662627 0.06572452 -0.122183055 0.6269613 0.0272309 -0.03859487 0.2482865 -0.45529014 0.3052532 -0.16714862 -0.6208544 0.3310419 0.20940952 -0.29735482 -0.30181256 -0.14563401 -0.11916555 -0.12526874 0.27659455 -0.10151043 0.74919605 -0.67374796 -0.47133937 1.4065566 -0.7633979 -0.21399443 -0.035376225 0.2997781 0.092954874 -0.19415379 0.21209422 0.25216118 0.15540983 -0.3736367 0.24848795 8.924864e-06 -0.4461948 0.44876444 0.24682596 0.17327416 0.568277 -0.030267244 -0.2189957 0.11724131 -0.20690581 -0.42234352 -0.14463587 -0.04547092 -0.52360827 0.25121042 0.06287427 -0.47875646 0.4403402 0.27566275 -0.013216764 0.40104067 0.0638276 -0.20413488 0.64386266 -0.9143351 0.4398857 0.4425 0.28831384 -0.49455222 -0.4044022 -0.5585991
从 0.2324588 0.8594842 -0.34888703 0.30655223 0.91313004 -0.89878315 -0.4828561 -0.140088 -0.40135312 0.27549985 0.11801787 -0.08989169 -0.47220677 -0.12330843 -1.0609915 -0.03975367 -0.3416693 -0.38959208 -0.02359299 -0.16664125 1.1699989 0.34899598 -0.13153403 0.24797353 0.95950925 0.57193947 -0.36663634 0.1669747 0.05286993 -0.014805848 0.19167146 -0.0759773 0.2293652 -0.031123029 -0.31751406 0.22916457 -0.14664102 0.06546832 0.022290116 0.077391155 0.1603251 0.030945314 0.521042 -0.29478008 0.003457376 0.37504333 0.16358523 -0.5347063 0.43658146 -0.3445998 -0.4399674 0.13792317 0.10699666 -0.2163803 0.285724 0.32895154 -0.76716703 1.2261597 -0.077257335 -0.33147466 -0.37562582 -0.045389865 0.79572356 0.3541609 -0.71971303 0.1319155 0.34893712 0.11191386 0.04364509 -0.31907892 -0.6795391 -0.004955155 -0.6915534 0.45152074 0.47390905 0.61442494 -0.2389316 -0.181928 -0.34920517 -0.81526536 0.27277583 0.0185464 0.13257286 -0.40867466 0.00829064 -0.33023122 -0.43077475 0.0010902225 0.25112906 0.5084939 -0.05133888 0.2610951 0.436939 -1.1247091 -0.6412964 -0.5132222 0.27895102 -0.17610408 -0.18596935 0.055188
文 0.96113735 0.38758907 -0.32589686 -0.102597915 -0.560315 -0.40246782 -0.30618384 0.24502404 -0.48005846 0.08217832 -0.1724994 0.40947402 -0.24187192 0.26655385 0.4156364 0.094473474 0.3034641 -0.52682406 0.18497407 0.7168883 -0.0372973 -0.11512079 -0.048081655 -0.28281453 -0.108004324 -0.77349305 -0.3741257 0.2675612 -0.32120043 -0.24545845 -0.3608719 -0.16541533 -0.27041578 -0.38893294 0.79427594 0.13314717 0.33442152 0.034710813 0.44272813 -0.4665503 -0.19337626 -0.29445705 0.20263074 -0.6796434 0.17846538 0.25321847 0.16067398 -0.44412014 -0.1713059 -0.37565884 0.14179306 0.16176212 0.29001617 0.20086208 0.31634846 0.8064463 0.09694575 -0.12375705 -0.19263764 -0.44188133 -0.30892444 -0.43443203 -0.15150219 0.55616266 -0.402532 0.679126 0.32182923 0.37360495 0.08776557 0.93087703 0.2559814 -0.8136009 -0.68758905 0.23962505 0.54455686 -0.055778936 0.3165264 -0.6530015 -0.79384804 0.31073794 -0.1621532 -0.25135428 0.5055806 -0.49087065 -0.29058412 -0.21248247 -0.49434787 0.37451407 0.35991302 -0.15670443 0.039675955 0.27215388 0.25326306 1.0689228 -0.4898407 0.11370491 -0.36693245 0.8017064 -0.3333682 0.3532402
政 0.15968798 0.8718923 -0.023279794 0.52309257 0.6901668 -0.41146153 0.29973698 -0.20883754 -0.20657493 1.0873014 0.15418963 0.026716018 -0.84055907 0.276762 0.3492453 0.10335384 -0.122340366 -0.20395093 0.3797452 0.3154984 0.6706414 -0.5856061 -0.3042939 0.25401425 0.2696698 -0.09434504 -0.08470315 -0.026475426 -0.34329608 -0.7942815 -0.39804515 -0.33754617 -0.35267535 0.38674828 0.1319011 0.17732589 -0.13235797 -0.37772983 -0.04978129 0.26768184 -0.15122272 -0.10642447 0.9338342 0.37748444 -0.7602262 -0.21285872 -0.37529448 -0.47754574 0.5315292 -0.30847257 -0.8511683 0.40575838 0.092896864 -0.3618777 -0.9633104 0.03429432 0.18947034 -0.1675111 0.18100679 -0.06217175 0.3406526 0.048427556 -0.25688356 0.21249625 0.24476746 0.55840385 -0.049829405 0.7463575 0.25935158 0.38834822 -0.808445 0.08377305 0.45060325 -0.1426906 0.52948517 -0.31357607 -0.105889834 -0.49026832 0.14230622 0.5455811 0.14767686 0.44927683 -0.23813604 -0.0040630144 -0.27968663 -0.50747705 0.110134736 0.6378307 -0.3809283 -0.25676253 0.19331945 -0.21185762 0.11651664 0.56928885 0.32640228 -0.55947834 -0.15261509 0.19231935 0.0532191 -0.030072061
食 0.18761392 -0.07778554 -0.06364182 0.23598544 0.6806616 -0.4641798 0.10155183 0.2198754 -0.24484096 -0.24920021 0.30652207 0.55342805 -0.2941989 -0.2645062 0.69768584 -0.77938604 -0.44289008 -0.44231206 -0.2920366 -0.031022597 -0.6411144 0.18878832 -0.36193174 -0.40042454 -0.83411217 -0.014089153 -0.27242395 0.02179735 0.5628422 1.2423495 0.6807742 -0.4437816 -0.42992526 -0.21635656 0.39804918 0.3155871 -0.24321118 -0.4704258 0.22599368 -1.3908548 1.0660994 0.13042267 0.49923813 0.51424646 0.2163924 -0.57662094 0.33266276 0.1611437 -0.17075105 -0.5863698 0.18668738 -0.25470737 0.33466762 -0.3474331 -0.17697468 -0.1025164 0.15160403 -0.2666765 -0.48767695 -0.09549782 -0.16043742 0.17548758 0.8080586 -0.09637585 -0.28673694 -0.31706598 0.47535607 0.51776457 -0.45314175 -0.116153345 -0.13754109 0.20049547 -0.33163834 0.031622346 0.055977903 0.03196842 0.12506473 -1.3598254 -0.55992115 -0.30016255 -0.6509026 -0.11845437 0.028824434 -0.42006058 -0.24104334 0.22860302 0.46193755 -0.14964972 0.14193355 -0.01054862 -0.11509762 -0.4268977 -0.0699918 -0.041519497 0.46359107 0.9049018 -0.12693569 0.20120911 -0.26918912 0.4142481
善 0.2321885 0.58741707 -0.29539222 -0.043527618 -0.10115284 0.0039406847 -0.5522547 -0.35995054 -0.2083299 0.07703609 0.26853284 0.38066664 -0.27960268 -0.56959593 -1.2377081 -0.24312094 0.82002306 0.4648651 0.114550315 -0.2989442 0.3766548 0.66691643 0.11951738 0.32788366 -0.055070244 0.04398259 -0.31642017 0.21858323 0.31218204 -0.12444006 1.3175292 -0.27669725 -0.4650982 0.6535569 0.7293703 0.100615576 0.524395 -0.9074342 0.14414807 0.106661685 -0.34719926 0.62891203 0.766223 -0.2368205 -0.21293475 0.2735357 -0.15332906 -0.21661651 -0.91137636 -0.120302565 0.50012517 0.06099452 0.2552763 -0.84817576 0.32659772 0.03165142 0.016451593 -0.5134191 0.094871655 -0.074333705 -0.3386908 -0.33227155 -0.87100214 -0.07797241 -1.0930958 -0.04636018 -0.26187488 -0.09474432 -0.4707482 0.25938913 0.0071831383 0.056907907 0.34645295 0.25175467 0.22383852 0.24167983 -0.26396158 -0.38111633 -0.011511459 0.8562102 -0.05730465 0.91354764 -0.82245773 0.111235626 -0.12653333 0.97178596 -0.09368605 -0.16288412 0.76484627 0.51616293 -0.096244715 -0.25109908 -0.48997644 0.3627266 0.43640503 -0.36767474 0.06297208 0.33622935 -0.18147352 0.0071250116
后 0.26345724 0.0024322718 -0.12999833 0.029528981 -0.009355041 -0.56757003 -0.027934885 -0.44747412 -0.089690834 0.048134882 0.08210537 0.57093877 0.039200492 0.8419745 0.14320286 -0.14168741 -0.2913762 0.6490778 0.1678276 -0.3231189 -0.096913345 -0.57607687 -0.32346866 0.7444743 -0.05187266 0.35030586 -0.14835517 0.59093416 -0.18965843 0.9753545 0.14670917 -0.14714934 -0.013470713 0.2124934 0.16969846 -0.0024432107 0.47767836 0.019021254 0.35109 0.76008266 1.2255766 -0.04725932 0.49549505 -0.49829546 -0.34350255 0.83842474 -0.14620918 -0.33868787 -0.72885597 -0.44810283 -0.1331031 -0.07504623 0.3016674 -0.30958363 -0.7369439 -0.39805895 -0.03444369 -0.8650098 -0.3125892 0.12754102 -0.052557472 0.5204214 -0.021265792 0.0088844355 -0.7260733 -0.053587165 0.07937329 -0.120910585 0.53997153 0.74448806 0.23962325 -0.12921269 -0.36814132 0.23518465 0.011494239 -0.6626973 0.17838769 -0.7645135 -0.12171711 0.3612781 -0.0743413 -0.43949834 -0.24743177 -0.42235342 -0.20681635 0.6389324 -0.26675358 0.8652229 0.22269036 -0.12979178 0.11278901 0.010450397 -0.06578066 -0.105170935 -0.25254685 -0.2005257 -0.3214067 -0.56559247 -0.40725815 -0.13730486
德 -0.031410716 -0.10957064 -0.32107872 -0.23372388 -0.21551724 -0.31336537 0.28022233 0.77690357 -0.026257813 -0.21611515 0.16005988 0.12477374 -0.09814267 0.23102772 -0.3851707 0.49679032 -0.10489262 0.81931967 -0.4086427 0.19898947 0.059849095 -0.740277 -0.5411282 0.08171407 0.13356562 -0.027830215 -0.22753927 -0.104873136 0.24891749 -0.689583 0.6155332 0.024150694 -0.21809405 0.50818086 -0.2930209 -0.44758734 0.027993802 0.19844778 -0.13159962 0.26432002 0.3648661 0.54218787 -1.1515545 -0.27423763 0.32691878 0.77098733 -0.03845882 -0.30532056 0.35193658 -0.23763993 0.13867643 0.62849957 -0.33526853 0.6577492 -0.14236882 -0.004025995 0.27054378 0.34585652 0.29438847 -0.048711672 -0.030617364 -0.3162989 0.37875468 -0.9414314 0.26232162 0.9343143 0.576722 0.37177324 0.15348236 -0.42148998 -0.06331392 0.49717236 -1.3069774 -0.2480824 -0.112248406 0.16484894 0.09788399 0.48223022 0.047284972 -0.03023805 0.032189265 0.017311025 0.291869 0.8377595 -0.6497093 0.27877316 0.2004455 -0.6017206 -0.4738101 -0.36309808 0.39205053 -0.19751371 0.022950958 1.3383582 0.03302251 -0.21255308 -0.07993604 -0.76171625 0.16062608 -0.5666844
求 0.42316037 0.2941575 -0.04276016 0.25501803 -0.18220595 -0.5320083 0.33612943 0.080583945 -0.15848465 -0.23179558 0.3850361 0.6901131 -0.12923361 0.19197908 0.9671698 -0.046061143 -0.6750655 0.68945205 0.56668824 0.3759116 0.07484575 -0.18097271 0.35129675 0.08088735 -0.070065744 0.7157831 0.055740755 0.24297683 0.04824986 -0.04753946 0.43995664 -0.7363956 -0.41930687 0.0701071 -0.24465124 0.20497938 -0.7225161 -0.10319928 -0.4053815 0.096634254 0.60340446 0.25239697 -0.12689343 0.45965284 -0.002623877 -0.45639923 0.25986895 -0.18098003 -0.18157735 -0.24008912 0.23144047 -0.8721762 -0.074289285 -0.850532 0.6515271 -0.57869977 -0.61902875 0.78294444 -0.08450897 -0.15029308 -0.062585786 0.46013063 0.09378261 0.47507438 -0.11211681 0.60747445 0.25312084 -0.56692755 -0.15258497 -0.5562362 -0.36340126 -0.47259453 0.6603768 -0.23048523 -0.2033695 0.57738936 0.4094691 0.058251783 0.11470955 0.08988413 1.1095775 -0.59375215 -0.2154852 -0.20563416 -0.21423572 -0.3723265 -0.21480714 0.31211397 -0.19880086 0.26086235 0.026933005 -0.35730776 0.43024644 0.37926057 -0.116038054 0.26009372 -0.19697969 -0.32732505 -0.36798045 0.08418682
对 0.20955904 0.42576382 0.53568155 0.23112875 -0.10808622 -0.4361693 0.40100488 0.29181787 -0.4590699 -0.5724475 0.31213292 -0.1667075 -0.5649827 0.14731877 0.05632879 0.31171814 -0.30620348 -0.027709352 -0.22685422 0.029415067 1.2488905 1.0691718 0.05893698 0.9413145 0.068659045 -0.06699207 -0.5709706 0.04064662 -0.23846634 -0.39238286 0.34815732 -0.1729852 0.17381413 -0.6042673 1.051635 0.21573783 -0.41404882 0.64909166 -0.37150043 -0.18733618 0.3969762 -0.29293275 0.153968 0.014730015 -0.45919815 -0.33519834 -0.11679499 -0.10858021 0.45575044 -0.1931379 0.5010093 -0.62484473 -0.080908895 -0.18253566 0.54834026 -1.1016881 -0.24611872 -0.3387091 -0.9673485 -0.117654085 -0.02479681 0.53466827 -0.35779482 0.48435402 0.08617364 -0.06773998 0.42108998 0.15315334 0.15411998 0.4604555 -0.9724274 -0.06369786 -0.06068244 0.19227713 -0.22965325 0.35131806 0.71603346 -0.19438401 0.07240284 0.7772978 -0.53512025 0.1134044 0.23740944 0.5995065 -0.3867491 0.33191982 0.45148465 0.024085252 0.47526285 -0.1959693 0.101767585 -0.34326127 -0.8879439 0.31521052 -0.5587834 0.34835926 0.13195106 0.5529068 -0.4149762 -0.4440836
恶 0.09116711 0.109243974 0.06861037 -0.15904574 -0.22968765 -0.16989969 0.25060445 -0.4278791 -0.3767448 0.17009771 -0.021999357 0.38538155 -0.6954438 0.19483826 1.3136703 0.17350075 -0.38274845 -0.3696145 -0.283017 0.6279402 -0.1388602 0.32353777 -0.569547 0.15142982 -0.111097604 0.1966508 -0.3291962 -0.5031429 0.74573714 0.03996873 0.85505396 -0.6377463 -0.83188474 -0.2677582 0.017245287 -0.28811383 -0.28209472 -0.37680155 -0.36334017 -0.07977406 0.0034955302 -0.20000961 -0.08563199 -0.14521347 0.51856697 0.30420715 0.26153585 -0.31452635 0.2158178 -0.17493951 0.51455957 -0.5009594 -0.09797198 -0.4372521 0.73054516 -0.25419745 0.07874668 -0.17517075 -0.21912198 -0.14554843 0.026550319 0.057440966 0.7369814 0.009733201 0.16730651 -0.41696525 0.393905 -0.11243144 0.51295763 -0.2841688 -0.13321982 0.23498572 -0.45320728 0.32303065 0.3576645 0.25384733 0.6394003 0.39653906 0.3017714 0.2922901 -0.061450668 -0.21951441 0.44435182 -0.10483051 0.39177656 -0.11841587 0.2244267 0.48219284 -0.30367628 0.2849793 0.17860705 0.24046975 -0.1796482 0.4211575 0.9113327 -0.08244705 0.5301532 -0.08837251 0.12808877 0.37576407
信 0.6007661 0.4747724 0.57615125 -0.6746989 0.30434215 -0.39546013 0.09650107 0.17024337 -0.29028293 0.28448302 -0.017998185 0.3779045 -0.530029 0.26566768 0.17331885 0.16098015 -0.055908017 -0.26014194 0.7547471 0.10231377 0.023545379 0.732021 -0.3567196 -0.24485844 0.044314563 -0.20355426 -0.2792743 -0.10721817 0.4864763 0.27909258 -0.28185338 -0.47371766 -0.52021927 0.33444306 -0.17308924 0.46529517 0.035360154 1.2554207 -0.4933262 0.5960221 0.023237655 -0.49587634 -0.4339848 -0.2724547 -0.35276935 -0.6270008 -0.7512261 -0.1793777 -1.0244333 -0.36172 -0.057581082 -0.17550518 0.029001096 0.24544631 1.3476624 -0.037605748 0.29673102 -0.22480632 -0.35854176 0.016579563 0.048958108 -0.054434087 -0.057275288 -0.24131571 -0.41879115 -0.28860775 0.24590263 0.014027256 0.64469504 0.19859079 -0.5382977 0.3881566 -0.52975 -0.053835623 -0.79996866 -0.5044182 -0.22693004 0.3767706 0.38468492 0.49933907 0.61257046 0.34164637 0.26719725 0.05631513 0.7000698 0.26955846 0.04720655 -0.8677868 -0.43315467 0.75933444 -0.27571392 0.03684715 -0.95412976 -0.46893677 0.9676614 -0.45309106 -0.105736226 -0.092997715 -0.74662536 -0.23849507
死 0.5107974 0.050735846 0.37674648 0.039354093 0.42134053 -0.1339901 0.2077254 0.041006643 0.26858053 -0.30886355 0.47319967 -0.097582944 -0.20507702 0.088090576 -0.35299864 -0.47979182 0.45070943 -0.118362516 -0.17739816 0.56314415 0.523878 -0.13568783 0.07854809 0.95601207 0.04907476 -0.41915363 0.13229218 -0.3124824 0.5044475 -0.16582073 -0.4779575 -0.5604433 -0.41729224 0.29488298 -0.14604053 -0.36775437 0.19942522 0.3871 -0.022094281 0.29856974 0.4109812 0.53355306 -0.17678078 0.08474319 -0.11207864 -0.023100434 0.15765598 0.007824164 0.18788777 0.23578629 0.23740634 -0.15936616 0.04409159 0.0066871694 -0.42026663 -1.1354184 -0.88907593 -0.363861 -0.22951138 0.35914838 0.029283537 0.0032623243 -0.39099574 -0.2171968 -0.19476144 -0.31971785 -0.20141992 -0.38997093 -0.4692377 -0.02733988 -0.026214888 -0.85580236 0.5166811 -1.3402253 0.10989539 0.1931913 0.27285698 -0.73696345 -0.13993162 0.48408362 -0.33514124 -0.10304093 0.016470809 -0.23514399 -0.9144171 -0.1584268 0.3618297 -0.694874 -0.8764314 -0.33449814 0.13410318 -0.019854523 -0.2702562 -0.11010349 0.5929432 -0.39854926 0.7844922 0.21456088 -0.2656091 -0.5168474
然 0.11849539 -0.28333834 0.007946551 -0.22756043 -0.2223814 0.23036282 0.7603658 0.09136706 -0.48685268 -0.43145794 0.21605119 0.03461566 -0.23365119 -0.66592026 0.3493188 0.47052115 -0.35408616 -0.050615944 0.10116707 -0.96066844 -0.044916555 -0.6949776 -0.071400225 1.1776448 -0.5062107 -1.5245384 -0.43477324 0.17109524 0.30309 -0.23510155 -0.22084814 -0.64121795 -0.20629777 0.2934005 0.647986 -0.25353983 0.72179574 0.48212704 -0.23910436 0.09422938 0.68849754 0.21475574 -0.13085052 -0.45534822 0.3758909 0.3914265 0.059891496 -0.28877905 -1.0527061 -0.15111764 -0.07537361 -0.6184338 0.39573178 0.53376824 0.3648976 -0.67105436 -0.9395768 -0.08910949 0.14898838 -0.11434761 -0.2910056 0.59027475 0.19180855 0.34267628 0.376572 0.3881015 0.205261 -0.87511 -0.28206822 -0.1581898 0.059235178 -0.7371845 -0.080907784 -0.08984727 0.42642078 0.1994451 -0.42407873 -0.9813175 -0.43358648 0.21638124 0.30421346 0.644791 -0.3130119 0.41146684 -0.005190137 -0.23600556 -0.09774922 0.2602209 -0.00023867795 0.43138158 -0.014887493 -0.07224745 0.20371781 -0.3932689 -0.035694137 0.2584831 -0.63730544 -1.2815868 -0.19547242 -0.26373625
《 -0.7029597 0.4142031 -0.28876072 0.85290414 -0.005767959 -0.21621895 0.50128275 0.18683597 -0.20095365 -0.52243584 -0.08115955 0.020927347 -0.30009216 0.83362937 0.3878102 0.5010055 -0.115067355 -0.054990903 0.18083365 0.756939 -0.43183687 0.28544703 0.032089062 -0.1737866 -0.2310872 0.6321737 -0.583025 0.48907933 -0.7186041 -0.6200913 0.434183 -0.5492209 -0.072613075 0.32101664 0.30250263 0.38638046 -0.22437716 -0.78523743 -0.35990363 -0.62756395 -0.29974568 0.2942389 0.31693083 0.10930869 0.57084274 0.5750637 -0.036463268 -0.45840776 0.8257306 -0.12404284 0.04123687 -0.05633725 0.37125152 0.12222924 0.4796314 -0.09777765 -0.52011645 -0.97267556 -0.8534703 -0.6912421 -0.5008172 0.23060623 -0.10375392 0.55624557 0.58331335 -0.0027586813 0.16754016 0.33773226 0.3767124 0.62485105 -0.17077789 -0.69558656 0.10909971 -0.50067264 -0.26627302 -0.8544627 -0.37224048 -0.22129641 0.049025334 0.40307644 0.09264043 -0.7730345 -0.1261581 0.27895594 -0.4084145 -0.6791522 0.16072226 -0.6471147 -0.50666666 -0.64365697 0.0114041455 -0.05943399 -0.03150069 0.62138146 -0.14745447 -0.024176672 0.20432381 0.43299627 0.11859253 -0.15849891
》 -0.53128415 0.32353914 0.41133565 0.647089 -0.19539687 -0.20487732 0.35218456 0.21596733 -0.36876053 0.12640512 0.10960229 0.16759352 -0.2394475 -0.8994902 -0.55311096 -0.50778925 -0.21429358 0.04783157 0.09667012 0.23472883 -0.5733634 -0.2806305 -0.09734532 0.7107858 0.20069057 0.5329445 -0.782823 0.20933843 0.19002144 -0.71887636 0.037639678 -0.92573494 -0.06999479 0.722597 -0.024012757 -0.0028648486 0.0847475 -0.008759007 -0.134231 -0.28937182 0.123108804 0.4580465 0.032675188 0.15378349 -0.5543899 0.054999303 -0.16801701 -0.20249052 0.31091106 -0.22432281 0.08146457 0.781633 0.5721422 0.2209445 0.8243417 -0.21845871 -0.26327118 -0.32286707 -0.2807315 -0.41282126 -0.36258447 0.07299445 0.6720905 0.51990354 0.34662777 -0.20195134 0.41617247 -0.14018492 -0.19324198 -0.27056274 -0.26133063 -1.3261213 -0.124169454 -0.100350164 -0.1396813 -1.1570679 0.33153516 0.3743543 -0.05429459 0.12183824 -0.17961852 -0.089219205 -0.56652546 0.07438049 -0.26150703 -0.36915734 0.29782376 -0.936981 -0.47942126 -0.5967867 0.22324984 0.053808473 -0.18315737 -0.22410062 -0.0331244 0.15217319 0.084006995 -0.43681732 0.14193179 0.09635121
